nep4 2 Cu Se 
cutoff 7 4 101 21
n_max 4 4
basis_size 12 12
l_max 4 2 0
ANN 30 0
  5.3343266e-01
 -2.5493920e+00
 -4.6407294e-01
 -4.2346069e-01
 -1.1753170e-01
  3.1133372e-01
 -7.4911386e-02
 -1.2731059e-01
 -9.7443306e-01
 -4.1723302e-01
 -4.1153923e-02
 -1.2074293e-01
 -1.4687930e-01
 -1.4174162e-01
  1.3480292e-01
  1.9967601e-02
 -2.9085937e-01
  7.9551083e-01
 -7.7708066e-01
 -1.5280075e+00
 -4.0623162e-02
  4.1570958e-02
  1.1981930e-01
 -1.2056835e-01
  1.8778697e-01
 -5.6240052e-02
 -1.8676478e-01
 -5.0578965e-04
  1.1274193e-02
 -1.5515511e+00
  1.7141387e-01
  3.8081777e-01
 -5.0620532e-01
 -6.3410923e-02
  1.3510277e-02
  1.2205509e-01
  1.0014299e-01
  6.1455574e-02
  2.9032070e-02
  9.1889061e-02
  5.1972535e-02
  1.9431605e+00
 -5.7521421e-02
  7.5893052e-02
  3.1923267e-01
  7.4885599e-02
  1.2756227e-01
 -4.2419150e-01
  5.0403024e-03
 -2.1550557e-01
  8.0464792e-01
  3.8281035e-02
  1.5061328e-01
 -5.2439619e-02
  1.2761435e-01
 -2.6569905e-02
 -1.4646445e-01
  4.3117248e-02
 -1.2077634e+00
  6.3599758e-02
  9.2911804e-01
  4.0592432e-01
  8.3418459e-01
  1.4933139e-01
  6.2720263e-01
  1.9719222e-01
 -8.4623806e-02
  7.1016568e-01
  1.1906161e-01
 -6.2853914e-01
 -1.5637156e-01
 -9.4956768e-01
 -2.0059711e-01
  6.8996704e-01
 -6.6959572e-01
 -2.1271687e+00
 -6.4366633e-01
  1.3523585e+00
  9.7447578e-03
 -1.3175910e+00
  7.7428418e-01
 -8.4543097e-01
  1.4056300e-01
 -8.7783670e-01
 -9.8588258e-01
 -8.6387885e-01
 -2.6035061e-01
  9.6901665e-03
  4.6230569e-03
  3.1286910e-01
 -6.1370176e-01
  1.6413708e-01
 -3.1089118e-01
  7.2150468e-03
 -3.3559535e-02
 -2.1806464e-01
 -2.7202178e-02
 -3.3900097e-02
 -1.2834141e-01
 -1.2734380e-01
 -1.4405102e-01
  3.3049068e-01
  1.3654032e-01
 -2.0078713e-02
 -1.6895140e-02
 -1.5653215e-02
  5.5444944e-01
  1.9880308e-01
  3.6049332e-03
  6.4772919e-02
 -4.2914495e-02
 -1.1192989e-01
  8.9867413e-04
  4.2425618e-02
 -2.1525208e-02
 -3.2532156e-02
  3.2853074e-02
  2.6141956e-02
 -6.3818082e-02
  5.3015165e-03
  2.0107552e-01
  9.4819397e-01
  1.2560023e+00
 -2.6910672e-01
  6.7827833e-01
  3.7696376e-01
  2.2093315e-01
  5.3349867e-02
 -9.5097458e-01
  7.1973860e-02
  2.1305051e-01
 -2.8355083e-01
  2.5367107e-02
 -8.9056760e-02
  1.8613823e-01
  4.1604556e-02
  7.1954238e-01
 -3.4869581e-01
 -4.6113702e-03
  2.6214588e-01
  1.6678424e-01
  4.8420689e-01
  4.5544744e-02
  2.6630210e-02
 -3.7847061e-02
 -7.6590344e-02
 -1.2248728e-01
 -1.3610633e-02
 -6.7831270e-02
 -1.4936754e-01
  3.2635233e-01
  4.4180900e-02
  4.2524822e-02
 -2.6673833e-02
  1.3732643e-01
 -2.7325021e-02
 -1.9570399e-02
 -8.5597634e-02
 -2.4398375e-02
 -3.5218753e-02
 -3.1404722e-01
 -8.0027044e-02
 -2.9135194e-02
 -1.0955502e-01
  1.0483397e-02
 -3.8705571e-03
  1.9682419e-02
  2.0623161e-01
 -3.9362177e-02
  1.5204333e-02
 -1.0387424e-01
 -4.6671778e-02
 -1.1535792e-01
  1.3799388e-03
  3.4506384e-02
 -8.2213312e-02
 -1.1968260e-01
  4.8702173e-03
  2.4856651e-02
  8.7337680e-03
 -3.5846844e-01
 -2.8591206e-02
  1.6696917e-02
  7.1072362e-02
  1.2739538e-01
  1.3887642e-01
 -2.5839735e-02
 -2.1442991e-02
 -2.1155629e-02
 -1.5972514e-02
 -3.8142167e-03
  3.8270646e-01
  6.6916995e-02
  7.0348583e-02
 -8.7879084e-02
  3.3474108e-03
  5.4787260e-02
 -1.4517190e-01
 -2.8742261e-02
  2.9977989e-01
  9.5252037e-02
  1.2241104e-01
  4.3464608e-02
 -4.5129331e-03
  1.6129197e-01
 -2.3533080e-02
 -1.9318312e-03
 -3.0337436e-02
 -2.6181497e-02
 -6.0174182e-02
  2.7792884e-02
 -2.8126779e-01
  9.4191438e-01
 -1.6543639e-01
  9.0624249e-01
 -2.3124175e-01
  1.1405011e+00
  2.3439195e-02
 -7.0966348e-02
  1.2623905e-01
  1.5569761e-01
  6.3901109e-01
  3.9860475e-01
  1.3009199e-02
 -2.0447409e+00
  5.9412502e-02
  1.3550787e+00
 -9.3709314e-01
  2.2230184e-01
  2.1362629e+00
 -2.9472429e-02
  3.9159231e-02
 -5.7243653e-02
  4.4854868e-02
  3.5760459e-03
 -6.2557168e-02
  8.4006822e-01
  2.7870601e-01
  9.0163387e-03
 -2.7384630e-01
  1.4229387e+00
 -1.1665231e-01
  1.0058516e+00
  1.8713908e-02
  3.4961405e-01
 -2.6043004e-01
 -6.4108521e-04
  7.3774927e-03
  1.3243537e-01
 -2.2898860e-02
 -2.3166128e-03
 -7.1051814e-02
 -1.1633663e-01
 -2.9219279e-02
  1.0782450e-02
 -1.6151156e-02
  5.7314191e-02
 -2.5034800e-02
 -4.2173184e-02
  4.5017648e-01
 -5.6866013e-02
  9.4329435e-03
  5.7310980e-02
  2.3121458e-02
  6.7371212e-02
 -5.3689625e-02
 -2.3087535e-02
 -1.6401342e-01
 -9.0415016e-02
  1.7027430e-02
  1.0059381e-01
  5.3081177e-02
  2.5621003e-01
 -1.3334896e-01
  5.9082821e-02
  9.6388161e-05
  7.1422271e-02
 -2.3445997e-01
  5.0957836e-02
 -6.0011193e-02
  4.8499539e-02
 -2.3237126e-02
 -4.6347021e-03
  1.7917447e-02
 -1.0912494e-01
 -1.0270311e-01
 -4.7425944e-02
 -9.2721600e-03
  6.9548249e-02
 -5.9664600e-02
  7.9950048e-03
 -1.1686965e-01
  1.9613081e-01
 -6.4390630e-02
 -9.5219780e-03
 -5.8978304e-02
 -2.8922707e-03
  5.2940246e-02
 -1.7502866e+00
  6.5499440e-02
 -1.2036858e+00
  2.6454899e-01
 -6.0864496e-01
  6.2329280e-03
  4.4943124e-01
  4.5205659e-01
  1.3611397e+00
  4.6759179e-01
 -1.3334321e-02
  7.0639920e-01
 -1.1827345e-01
 -4.6971351e-02
  8.0166057e-02
 -3.0754870e-01
  8.7914079e-02
  6.3649112e-01
 -4.2644697e-01
 -5.9125370e-01
 -6.9628060e-02
  1.9963965e-02
  9.6666254e-02
 -2.5218877e-01
  2.0818378e-01
 -1.8417858e-02
 -1.1152366e-02
  1.3663340e-01
  8.9668985e-03
  9.9523194e-02
 -2.8218654e-01
 -5.9971613e-01
  5.2621856e-02
  2.5091877e-02
 -5.7987548e-02
  9.9436380e-03
  6.2533192e-02
  1.7712089e-01
 -1.8169664e-02
 -2.0866228e-02
  9.6343905e-03
  1.2628287e-03
  3.4064308e-01
 -2.3345876e-01
  8.9501344e-02
  1.3684848e-01
  5.2242768e-03
  2.2945002e-02
  1.1335696e-01
  4.1866860e-01
 -3.7203848e-02
  3.5290528e-02
  1.9992942e-02
  2.0593759e-02
  3.4130067e-02
 -2.2235362e-02
  6.9260389e-02
  2.0071132e-02
 -1.7079973e-01
  1.2839507e-01
  3.2620750e-02
 -5.5334251e-02
 -6.2950522e-01
 -4.8141912e-02
 -1.7754386e-01
  6.4309853e-01
  6.0079295e-02
 -9.9374056e-02
 -1.3093710e-01
  8.8979043e-02
 -1.4330381e-01
 -2.6343071e-01
 -1.8281471e-02
 -2.8105725e-02
  1.4497958e-01
 -3.7639621e-03
 -1.7022945e-02
  3.5292737e-02
  3.5033827e-03
  1.2276480e-01
 -4.2703070e-02
 -1.2932698e-01
 -1.1716782e-01
 -6.4454013e-03
  3.3655912e-02
  8.1012517e-02
  6.5513149e-02
  1.1234740e+00
 -2.0224672e-02
 -1.2145709e-01
 -7.8678392e-02
  2.3487481e-01
 -7.0807725e-02
 -5.7816803e-02
  6.5395671e-01
 -1.5946701e-01
  1.8722203e-02
  2.0896582e-01
 -4.6795785e-02
 -7.0113875e-02
  7.3000714e-02
  4.7235556e-02
  1.1849061e-01
  9.1539517e-02
 -9.5488846e-02
 -1.0394690e-02
 -3.4035295e-02
  3.7196256e-02
  1.0005002e-02
  1.0426881e-02
  5.0886497e-02
  5.9377957e-02
 -5.0982632e-02
 -7.4962946e-03
 -7.8056648e-02
  2.6463874e-02
  5.8544517e-02
 -3.9081030e-02
  3.9553843e-02
 -1.3848891e-02
  5.5538286e-02
 -1.0833211e-02
 -5.8779836e-02
  1.9676602e-03
 -6.1723765e-02
 -1.7549464e-01
 -1.0741565e-01
  8.6572384e-03
 -8.4195612e-03
  3.3526272e-03
  2.3200924e-02
 -1.6659196e-01
  2.6743142e-02
 -4.4928983e-02
 -4.1274678e-02
  1.4604512e-04
 -2.0846514e-01
 -5.3202011e-02
  2.4823401e-02
  6.2236812e-02
 -1.2826841e-01
  1.6358625e-02
  1.2478936e-02
  1.5021902e-02
 -3.8632430e-02
 -5.1604535e-02
 -6.7645386e-02
 -7.9309903e-02
 -3.5860457e-02
  1.1004230e-02
 -4.4144802e-02
  1.3526538e-02
  6.6102929e-02
 -6.9434464e-02
  7.6331221e-02
 -4.6330959e-02
 -3.4391165e-02
  2.1655471e-03
  1.0115643e-01
  5.5908877e-02
 -3.7424646e-02
 -4.8896149e-02
  5.3681232e-02
 -7.7550672e-04
 -8.8069402e-04
 -1.2150507e-02
 -1.0422382e-01
 -1.2096050e-02
  2.7658615e-01
  1.3993947e-02
  6.8003953e-01
  4.0342826e-02
 -2.0376220e-02
 -2.6591532e-02
  1.4486147e-01
  5.9034105e-02
  7.0715919e-03
 -4.7824528e-02
  5.0595221e-03
 -6.6295758e-02
 -6.9383215e-03
  7.9544261e-06
 -1.1907610e-01
 -2.6135746e-02
  1.6178069e-01
  1.2487740e-02
  3.8055368e-02
 -1.6220352e-01
  1.9046569e-02
 -1.0371399e-01
 -1.1582239e-02
 -1.5336892e-02
  1.3485370e-02
 -1.5011039e-03
 -2.1699969e-01
  1.3451649e-02
  2.2547830e-02
 -3.6331629e-03
 -2.9309718e-02
 -1.9667936e-03
  2.0863142e-02
 -3.9299801e-02
  6.8811871e-02
 -8.6158417e-02
  2.0347927e-02
 -2.9786844e-02
 -9.7653002e-02
  8.6024120e-02
 -5.5990163e-03
 -3.3887267e-02
  3.3946160e-02
  3.7664771e-02
  9.0345007e-01
 -1.0714610e-03
 -1.5989837e-01
  1.3787657e-01
  3.8343731e-01
 -4.4708814e-02
 -5.3786933e-03
  3.7159659e-02
  1.7825238e-02
 -4.1155526e-01
 -5.7910341e-01
 -8.6076003e-01
  7.8197253e-01
 -5.3866142e-01
 -1.4657661e-01
 -2.9861113e-01
 -7.9988748e-01
  7.7965039e-01
  6.8539299e-02
 -4.0910852e-01
 -7.0231460e-02
 -4.5689026e-01
  2.7251470e-01
 -3.0814532e-02
 -6.6417414e-01
  8.3658971e-02
  3.3019714e-02
 -1.3604488e-02
  3.6370121e-02
  3.8541481e-04
  5.7691250e-02
  7.7813745e-02
  1.6101187e-01
 -2.8746074e-01
  2.4751250e-02
 -1.0013706e-01
 -3.9080985e-02
  2.3664534e-04
 -1.6049318e-02
  1.2625437e-03
 -6.8200156e-02
  8.2837768e-02
 -9.2827812e-02
  2.1868488e-02
 -3.2651864e-02
 -6.8913414e-03
 -7.2674103e-02
  6.9565382e-03
 -1.4134496e-01
  7.2831935e-01
  1.3374539e-01
  5.7701759e-02
  7.6358035e-02
 -2.8082808e-03
 -1.3732858e-02
 -7.1796024e-01
 -2.7550039e-01
 -4.8900332e-02
  1.1743481e-02
 -1.4650173e-01
 -2.2409935e-01
 -7.5068605e-01
 -4.9199805e-01
 -2.7292261e-01
 -5.8247740e-03
 -7.4016219e-01
 -2.2454240e+00
  1.3727060e-01
  5.2409880e-03
 -3.9891621e-01
 -2.8462741e-01
 -3.1572962e-01
  1.0624660e+00
  2.5208765e-01
 -4.1724898e-02
 -8.1341892e-01
  1.2578536e+00
 -2.5551021e+00
  3.9083123e-01
  1.2510173e+00
 -2.1719040e-01
 -5.4877508e-01
  4.6792191e-01
  2.1516228e-01
  8.3971098e-02
 -1.1184646e-01
  1.5546070e-01
 -7.6543167e-04
  1.8048258e-01
  6.0870427e-01
 -4.1712567e-02
  7.1519539e-02
  3.6057822e-02
  3.3369046e-02
  3.7151366e-02
  6.5831125e-02
 -1.6059373e-02
  1.4047389e-02
  3.4785863e-02
  1.0860445e-01
  5.7514042e-02
  2.3370897e-03
 -5.7000395e-02
  6.0523495e-02
  3.1565558e-02
  6.6710450e-02
 -1.6506711e-01
  7.8701213e-02
 -5.3625885e-02
 -4.6677426e-02
 -2.1416944e-02
  3.3269495e-02
  1.1630377e-02
  1.6665259e-02
 -3.2836121e-02
 -3.6585835e-01
  5.3595103e-02
  1.5644184e-01
  4.9261626e-02
  4.8458803e-02
 -1.5185308e+00
  4.3467498e-01
 -1.2993643e-02
 -1.3192067e+00
 -2.0773999e-01
 -5.9609532e-01
 -7.2263531e-02
 -3.4319845e-01
 -6.2362801e-02
 -2.2453569e-01
 -2.2041911e-01
 -2.0280294e-01
  1.5435739e-01
 -1.3410583e+00
  6.5225506e-01
 -4.4816378e-01
  3.1869295e-01
  1.0619344e+00
 -1.2321839e+00
 -1.5676203e-01
 -1.3110647e-02
  9.7885948e-01
 -3.7767090e-02
 -9.6111298e-01
 -7.5592868e-02
 -2.8389037e-02
  5.9957784e-02
 -7.8167737e-02
 -1.4334126e-01
  6.3948460e-02
  1.2416601e+00
  1.7153613e-02
  6.9908345e-01
 -2.7034450e-01
 -7.5703636e-02
  1.1975195e-01
 -3.2363576e-01
  2.8712723e-02
 -2.3689917e-03
 -3.9611223e-01
  2.5153143e-02
  5.3167957e-01
  2.2116181e-01
  1.4509217e-01
  7.5003326e-01
 -2.0587385e-01
  2.2536328e-01
  3.4461379e-01
  2.0191006e-01
 -9.4019985e-01
  6.3725142e-03
  6.2361372e-01
 -2.0015964e-01
  2.7591180e-02
  7.2688627e-01
 -7.3758610e-02
  1.1397299e-01
 -2.8065938e-01
 -1.3149469e-01
  2.3252521e-02
  1.4644867e+00
  5.5958301e-01
  9.7270298e-01
 -1.1485684e+00
 -8.4967658e-02
  5.2927637e-01
  1.6795070e-01
  1.7681012e+00
 -1.3520521e+00
  9.8692471e-01
 -2.6703985e-02
 -1.5691049e-02
  1.9956340e+00
 -1.8399623e-01
 -2.8940442e+00
  9.4140631e-01
 -5.3570491e-01
  1.3723128e+00
  9.2565536e-02
 -1.3761418e+00
  2.9721883e-01
  6.4861947e-01
  2.9123151e-01
  1.3831846e+00
 -2.2683083e-01
 -1.1921437e-01
 -6.6218400e-01
  3.7193954e-01
  1.3730235e-01
 -7.9510581e-01
 -1.0435981e+00
  7.2124070e-01
 -1.6229963e-01
  1.1059947e-01
  3.5152900e-01
  1.9471526e-01
  1.0708951e+00
  7.9383558e-01
  2.0838368e-01
  7.7214628e-01
  1.6081128e-01
  2.1479441e-01
  2.0613022e+00
  9.6677548e-01
 -1.0550572e+00
 -2.3533123e+00
  1.7401965e+00
 -1.1584603e+00
  2.2657913e-01
 -1.1850419e+00
  6.2802918e-02
  5.9787128e-02
 -7.1285838e-01
 -4.3998781e-01
 -3.8663667e-01
  2.2755630e-01
 -5.9902781e-01
 -6.4417906e-02
  1.7979939e-01
  1.7759956e-01
 -4.1735128e-01
  4.4097087e-01
 -3.8318031e-03
 -1.5917012e-01
  9.7095586e-02
 -8.9862549e-01
  3.9941108e-01
  2.8252499e-02
  5.2998506e-02
  4.4361907e-01
  2.5860769e-01
 -1.8928884e-02
  5.5877216e-02
  9.5136315e-03
  4.9079686e-02
  9.4924904e-02
  7.1006246e-02
 -2.3797269e-01
  3.6764222e-01
  1.1859046e-01
  4.7902998e-02
 -3.1120142e-01
  1.2544797e-01
  7.6966381e-01
  5.1977489e-02
  2.5866240e-01
 -2.3783615e-02
 -3.4533162e-04
 -6.8258122e-02
 -1.2639184e-01
  3.0889821e-01
 -8.1543595e-01
  5.9197217e-01
  1.2194510e+00
 -5.4601088e-02
  4.6586677e-02
 -7.4368370e-01
  2.3140410e-01
  1.3094108e-01
 -5.3281736e-01
 -1.5243387e-01
 -2.2826052e-01
  8.8811345e-02
 -1.0105587e+00
  1.8569082e-03
 -7.5309061e-02
 -2.6555872e-01
 -2.2690514e-01
 -8.9564502e-01
 -1.9999923e+00
  7.9873800e-02
 -9.2726417e-02
 -4.3315073e-03
  2.5617698e-01
 -1.4234690e-01
  1.2814522e-01
  8.9317471e-02
 -6.8471253e-02
 -1.5488864e-01
  4.9041577e-02
  7.8348696e-01
 -5.4573554e-01
 -8.5757643e-02
  3.4831721e-01
 -4.1011059e-01
  7.4844867e-01
  1.2919915e+00
 -2.6781776e-03
  1.2225878e+00
  3.8947217e+00
 -6.1013120e-01
  6.3891947e-01
 -2.0833904e-02
  5.1964265e-01
  1.4200185e-01
  1.1692484e-01
  6.7016810e-01
  1.5688160e-01
  1.1223722e+00
 -3.1472662e-01
  7.6626502e-03
  1.4847418e+00
 -3.1894076e-01
 -7.9827815e-02
 -9.3650317e-01
  1.1702389e-01
 -2.3532932e-01
 -9.1155684e-03
  1.3669871e-02
 -5.6397492e-01
  9.1395609e-02
 -1.6666073e-02
  1.0294010e-01
  9.9948525e-02
 -1.4261249e-01
  6.0700276e-04
  1.6272935e-01
 -2.9218933e-02
  9.4742952e-03
 -1.6781628e-02
  3.6180150e-02
  9.7259864e-02
  6.3345939e-02
  2.0360731e-02
  3.5345938e-02
  7.4525796e-02
 -2.3077453e-02
  1.3407624e+00
 -1.7333681e-02
  2.5109577e-01
 -9.4348937e-02
  1.1826958e-02
 -6.3891396e-02
 -5.9836913e-02
 -4.4439428e-02
 -5.0445735e-02
 -3.0176368e-01
 -1.1463046e-02
  8.1088409e-02
 -2.5810890e-02
 -2.2432346e-02
  2.2217342e-01
 -7.1555851e-03
 -1.7095470e-01
 -6.9367193e-02
  6.6060483e-02
  1.3266913e-02
  2.3104718e-02
  9.0646997e-02
  4.0126646e-01
 -4.5643076e-03
 -2.4502298e-01
  1.4313538e-01
 -6.8746030e-02
 -1.7361976e-02
 -5.7850444e-01
 -3.6410443e-02
  2.0952103e-01
 -7.6806463e-02
  7.2374886e-01
  9.0424838e-03
  5.5394870e-01
  8.6706027e-02
 -2.1062075e-01
 -8.6583227e-01
  6.6467725e-02
  7.0191965e-02
  1.2873282e-02
 -4.0283896e-02
  6.8815269e-02
  6.2258895e-02
 -1.8119599e+00
 -2.2763150e+00
 -1.9280587e-01
  3.3002669e-01
 -4.6753101e-02
  2.7817188e-02
  1.3474897e+00
 -1.3199721e-02
 -1.0983014e-01
  2.0529523e-01
 -2.8221381e+00
 -8.4863149e-02
  2.4804696e-02
 -2.7037454e-01
  9.6020013e-01
  1.1531398e-01
 -1.9679587e+00
 -4.2903587e-02
 -5.5465132e-01
  1.4853774e-01
  1.9049862e-01
  1.8405421e-01
 -6.5298289e-01
  1.3837461e+00
  1.0600046e-01
 -6.8882489e-01
 -4.8993894e-01
  4.4666797e-02
  1.1269467e+00
 -1.4620276e-01
  2.6339316e-01
 -8.6604506e-01
 -8.0686502e-02
  1.6101252e-01
 -1.1848805e-02
  2.9552754e-02
  1.8770494e-01
  7.1509480e-02
 -1.8440530e-02
  5.4525304e-01
  3.6882415e-02
 -2.0949355e-01
  7.8504533e-03
 -2.6219252e-02
  1.1253250e-01
 -5.0520306e-03
 -1.9971228e-01
  1.6159182e-02
 -3.6268070e-01
  6.1918101e-03
 -9.0886712e-01
 -6.4968520e-01
  7.5533563e-01
  3.5819799e-01
  1.9244142e-01
 -1.2770933e-01
  3.1219333e-01
 -1.2587976e-02
  1.5218039e-01
  4.0264308e-02
  6.8221390e-02
 -2.4784955e-01
  1.2622296e-02
  1.5918078e-02
  9.4316546e-03
  4.7607739e-02
  4.7418803e-02
 -7.3487341e-02
  5.0402679e-02
 -2.8077453e-02
  8.7017957e-03
  7.2071366e-02
 -3.1766574e+00
 -3.9870247e-02
 -5.7160202e-03
 -9.7040169e-02
 -6.3159764e-03
 -5.6426410e-02
 -7.2712013e-03
 -1.0678460e-01
 -1.0531162e-01
  6.0610898e-02
  1.3617408e-01
  2.3726037e-02
  2.6426781e-02
  7.4963579e-03
  3.4282822e-02
 -2.9864008e-02
  1.3347891e-01
 -8.2189733e-01
 -1.5097983e-01
 -1.9723606e-01
 -1.0643214e+00
 -2.3107609e-02
 -2.4186625e+00
  2.6094723e-02
  8.4026612e-02
 -1.3502084e+00
  4.8568732e-01
 -1.7623236e+00
  1.0171058e+00
  1.3462511e-01
  3.6440423e-01
 -4.8223892e-01
 -7.8180954e-02
  2.2869508e-01
 -1.8849127e-02
 -2.1608143e+00
  4.3396588e-02
 -1.9735225e-01
  5.4568999e-02
 -2.6451629e-02
 -2.2370058e-01
 -1.3842829e-02
  1.2192714e-01
 -3.3155924e-01
 -9.4012454e-02
 -5.0867833e-02
 -5.6300275e-02
 -8.2442611e-02
 -2.9442224e-01
 -1.6194332e-02
 -1.9797048e-01
 -4.5226969e-02
 -3.1723939e-02
  1.0766678e-01
 -5.0791152e-02
 -1.9615332e-02
 -1.4826024e-01
  9.1053575e-02
 -2.5062902e-02
  1.0176806e-02
  1.1369348e-01
  4.9688898e-02
  1.5499502e-02
 -2.4201889e-01
 -1.8587954e-02
  1.9641694e-01
 -7.0224039e-02
  2.4322558e-02
 -1.0511612e-02
 -5.7412401e-02
 -1.0581199e-02
 -1.0431916e-02
  1.6117163e-02
 -4.3381220e-03
  2.6282057e-02
 -2.2507553e-01
  7.1654536e-02
  8.6978048e-02
  2.1379517e-01
  5.5100866e-02
  2.9588774e-01
 -2.6766378e-03
  4.7489833e-02
  1.0946710e-02
  6.9359489e-02
 -1.4712080e-01
  8.1718616e-02
  6.4886205e-02
  1.1557966e-02
  3.3481047e-02
 -1.2390432e-01
  4.1070897e-02
  1.1511403e-01
 -1.2359194e-01
 -3.6298390e-02
 -4.9388509e-02
 -1.4452925e-01
 -1.2098372e-01
  1.1564171e-01
  8.3822504e-02
  1.7249225e-01
 -6.9355667e-03
  7.7436604e-03
  1.1406830e-01
  8.4403614e-03
 -8.1766054e-02
  8.4977740e-01
  1.0261544e+00
 -3.5077286e-01
  4.7483322e-01
  3.2097819e-01
  8.2290626e-01
  4.6300903e-02
 -1.0794330e+00
  2.0911632e-01
  1.1745790e-01
  4.4737133e-01
 -1.8553622e-01
  7.4141763e-02
  1.4384663e+00
 -2.7319359e-02
  8.4684826e-03
  8.4824020e-01
 -3.9747078e-02
 -5.4599121e-02
  1.0814251e-01
  1.2963551e-01
 -1.1609098e-01
  1.3654992e-02
  8.0468684e-02
  4.3375614e-01
 -5.2249104e-02
  1.1599751e-01
  1.0976491e-01
  1.4026040e-01
 -3.3701271e-02
 -1.2170837e+00
  8.4830470e-02
 -1.2608130e+00
  4.8959896e-01
  2.1155475e-01
 -1.1553187e+00
 -2.9938447e-01
  1.6608141e-02
 -3.1314470e-02
 -2.2940856e-01
  2.2809196e-02
 -1.2960293e-02
  2.4779736e-01
  2.8642232e-02
  6.8636197e-01
 -2.1608490e-02
 -4.5226485e-01
  1.3575588e-01
 -2.0127833e-01
  8.1101470e-03
 -1.8665008e-04
  5.1010149e-03
  1.7014802e-03
 -6.1175870e-03
 -1.8800355e-02
  1.4519703e-01
 -2.9859200e-02
  3.3293493e-02
  1.5648234e-01
  3.3979263e-02
  6.7859865e-04
 -2.2824638e-02
 -4.5332015e-02
  9.4756261e-02
 -2.3809113e-03
 -7.9009615e-02
 -1.7506447e-02
  5.3705387e-03
  4.9938112e-02
  1.9148593e-01
 -6.5703467e-02
  1.9482432e-02
  3.2315381e-02
  3.4248974e-02
 -8.8501409e-02
 -8.5948747e-01
 -3.4682352e-02
 -5.3267170e-02
 -8.1852078e-05
 -7.6703906e-02
 -1.3108689e-02
  7.8261197e-02
  8.1782220e-03
  1.1765550e-01
  7.2221542e-03
 -2.4776501e-03
  1.0896654e-01
 -5.2658521e-02
 -1.8177226e-02
  7.1393132e-02
 -1.9859789e-02
  1.0553455e+00
  1.3358799e-02
  2.0071194e-03
 -2.5985306e-02
  1.3092253e-03
 -6.2403064e-02
  6.9906607e-02
  4.5221973e-02
  1.4407358e-01
 -1.7537650e-01
 -5.2711861e-03
  1.1708900e-01
  6.8825809e-03
  6.3687056e-02
  1.7159944e-03
  1.0817713e+00
 -5.1877286e-02
 -3.2287374e-02
  2.4780907e-02
 -5.7527423e-03
 -2.1341446e-01
 -9.2501715e-02
  2.9602695e-02
 -4.3586861e-02
  1.7564948e-01
 -9.8015219e-03
  8.3881095e-02
  2.8578710e-02
  5.6352034e-02
  1.5869996e-02
 -1.5752232e+00
 -5.2841717e-01
 -2.6013508e-01
  2.9674461e-01
 -2.9325232e-01
  1.0079189e-01
 -5.1488396e-02
 -1.0062674e-02
  5.4297063e-02
 -1.6756286e-01
 -2.3321431e-02
 -1.5669726e-01
  4.9771452e-01
 -1.0969112e-02
 -2.3505077e-02
  9.1089658e-02
  1.6280198e-02
  1.2805495e-01
 -1.0532485e-02
 -9.1400832e-02
  2.9478822e-02
  3.2341476e-03
 -1.9506030e-03
 -1.8785612e-01
 -3.3003098e-01
  2.9871099e-02
  3.7783422e-03
  3.7619371e-02
 -7.3893340e-03
 -6.8909504e-02
  1.4349560e-01
  6.7352787e-02
 -3.2423636e-01
 -8.9465517e-01
  2.4069798e+00
 -4.1599268e-01
  1.3528224e+00
 -3.2682285e-02
 -1.2534125e+00
  1.6448827e+00
  1.5476279e+00
  3.3501333e-01
 -2.5679648e+00
  5.5563641e-01
 -8.3757591e-01
  4.4157961e-01
  2.6090640e-01
 -4.8627749e-01
 -2.3037455e+00
  2.0824289e+00
  1.9378486e+00
 -9.0797091e-01
 -1.7134190e+00
 -3.4147003e-01
  5.6116614e-02
 -2.0739181e-01
 -3.4922850e-01
 -8.2212591e-01
  5.9807627e-03
  7.7156939e-02
 -8.5393023e-03
  5.3230241e-02
  3.4518167e-02
  2.4772644e-02
  3.0900300e-02
  2.0553852e-02
  2.6513711e-01
 -1.5402922e-02
  3.9776761e-02
  3.6227927e-03
 -9.5641106e-02
  5.1569223e-02
 -6.5897427e-02
  5.5680402e-02
  5.9899792e-02
  3.7129890e-02
 -3.4536697e-02
 -9.2070349e-02
  8.1270903e-02
  2.1514021e-02
  1.5782665e-01
 -8.3279917e-03
  2.4871799e-01
  2.3701524e-02
  1.5872085e-02
  5.8347866e-02
 -4.0914152e-02
 -3.2639537e-02
  6.7826740e-02
  7.9010926e-02
 -2.6917204e-02
 -1.7450371e-01
  5.0272636e-02
 -2.3558930e-01
  8.9757238e-03
  3.5179980e-02
  1.4099936e-01
 -1.0793790e-01
  2.1611271e-02
  8.2179151e-02
  3.3397377e-03
  1.5358256e-02
 -1.8395919e-02
  6.3496090e-02
 -3.0482698e-02
 -4.1082609e-02
 -2.6723957e-01
 -6.5722615e-03
  5.5770781e-02
  3.3775024e-02
 -1.7206568e-01
  8.8643469e-02
 -2.0412509e-01
 -3.5703614e-02
 -8.0909766e-02
  7.6564327e-03
 -1.1079149e-01
 -8.9853751e-03
  1.3166780e-02
 -8.1466977e-04
 -1.8995655e-01
 -5.6552025e-03
  1.1636630e-01
  1.1210860e-01
 -2.4024411e-01
  8.0138870e-02
  4.0734041e-02
  1.2504563e-01
  1.1571347e-01
 -2.3214623e-01
  1.5474723e-02
 -9.7543381e-02
  9.0573709e-03
 -5.5705417e-02
  9.7598389e-02
  5.0054904e-02
 -9.2653364e-02
 -1.8625569e-01
 -1.5775698e-01
 -2.9115838e-01
  1.9377736e-02
  1.2141734e-01
 -7.6798415e-03
 -1.4929888e-01
 -1.4225451e-02
  6.8144441e-02
  7.9016373e-02
  8.4952086e-02
 -8.8914111e-03
 -1.6561370e-02
  1.0987633e-01
  3.3804068e-01
  8.3412230e-03
 -6.7831352e-02
 -5.2486438e-02
 -8.3261795e-02
  4.7098007e-03
  2.1644238e-02
  1.4228871e-01
  1.9688310e-01
  4.7290456e-02
  2.5979577e-02
  1.4111561e-01
 -4.9154192e-02
 -3.2236632e-03
 -1.2810329e-01
 -1.7678108e-02
 -6.5551050e-02
  8.2745701e-02
 -2.3828167e-01
  1.1539212e-01
  1.7074844e-01
 -5.8642048e-03
 -9.7129151e-02
  3.9385501e-02
  3.6458202e-02
 -7.1578413e-02
  6.3284606e-02
 -9.0015493e-04
  1.9854686e-01
 -1.9636128e-02
  7.3546730e-02
 -4.6323631e-03
  3.3222708e-01
  1.7944168e-02
  1.0846208e-01
  1.3908451e-02
  2.0791627e-02
 -2.8438603e-03
 -9.1663506e-03
  6.3114800e-02
 -8.7039648e-03
  8.7091185e-02
  2.5136920e-02
 -3.3221237e-02
 -2.4477881e-01
  3.5510898e-02
  4.5857258e-02
 -7.2854400e-02
  2.7512064e-02
 -1.1190948e-01
 -4.8987105e-02
 -1.3371827e-02
  1.0452219e+00
  7.1201988e-02
 -3.3168796e-02
 -1.5904799e-01
 -1.8894799e-01
 -5.7061130e-01
 -9.8863974e-02
  6.0077888e-01
  5.4944676e-01
  6.0454082e-01
  7.0750362e-01
 -4.7321209e-01
 -1.1617032e-01
  2.7395688e-02
 -2.7062714e-01
 -1.0566459e+00
  4.4943795e-02
  7.0369363e-02
  2.1574937e-02
 -5.3158283e-01
 -8.7199703e-02
 -1.0170940e-01
  8.3944142e-02
 -5.7787746e-01
 -3.3981591e-02
 -9.4682199e-01
  1.7312983e-01
  4.2182937e-02
  3.1733105e-01
  4.0885940e-01
 -1.7532134e-01
 -1.6215187e-01
  1.7885089e-02
  1.5634108e-02
 -2.2531366e-02
  3.5443008e-01
 -1.2882221e-01
  2.0393645e-02
 -1.1417542e+00
 -1.5276270e-01
 -3.2140353e-01
  3.3753730e-02
  9.9981338e-02
  6.4259648e-02
  1.4565906e-02
 -8.5000366e-02
  1.6126826e-01
  1.2606183e-01
  1.7503621e-01
  2.0559572e-02
  3.4196526e-02
  6.0718071e-02
 -6.1673649e-02
  2.5535712e-02
 -8.1290334e-02
 -4.5596696e-02
 -2.2120000e-01
 -5.1114313e-02
 -2.5521351e-02
  1.5869807e-01
 -4.4791058e-02
  6.6768322e-03
 -4.7600668e-02
 -6.2755108e-02
  5.3765398e-02
 -2.2683911e-02
 -3.5832062e-02
  5.0332856e-01
  1.5078321e-01
  3.3678237e-01
  9.4489269e-02
  2.2125506e-01
  8.3897971e-02
  3.4195967e-02
  7.1454473e-02
 -2.1180052e-02
  6.8470158e-02
 -3.4360856e-02
 -6.3604452e-02
  5.0035652e-02
  6.0802943e-01
  2.7480333e-03
  5.1021364e-02
  5.9161134e-02
  3.5912529e-02
  6.6739656e-02
  9.7164661e-03
  6.0267620e-02
 -1.4264750e-01
  3.4787694e-01
  9.7061235e-01
 -1.0334080e-01
 -1.1352269e-01
 -1.1463116e-01
 -8.4418476e-02
  1.4466618e-01
  1.5930296e-01
  6.4276837e-02
  1.0301273e-01
 -1.3691088e-02
 -2.1300341e-01
 -8.0595180e-02
 -7.5675815e-02
 -4.0655527e-02
  9.3854040e-02
  1.6124357e-02
  9.4586844e-03
  1.8006593e-02
 -4.2798981e-02
  1.2190266e-01
  1.2183934e-04
 -6.2655108e-03
 -5.0413810e-02
  1.2657443e-01
 -2.6019733e-02
 -1.4133558e-01
 -5.9229829e-03
  1.0232800e-02
  1.6938647e-02
 -1.5428163e-02
  1.5121406e-01
  1.5634066e-01
  3.7031969e-01
 -6.3999280e-02
 -9.9741090e-03
 -3.2519605e-02
  7.9809047e-02
  8.7351933e-02
  6.6937082e-02
  8.2413957e-02
  4.3955702e-02
 -1.8290621e-03
 -1.1409953e-01
  4.2096261e-02
 -5.5755261e-02
 -3.9568987e-02
  5.5209428e-02
  3.5753925e-03
  3.3265751e-02
  7.0236530e-03
  8.3774857e-02
 -2.9403858e-02
 -4.1023143e-02
  1.4902500e-02
 -6.6587903e-02
 -2.3459602e-02
 -1.0596028e-02
  1.8039959e-02
  6.3531145e-02
 -4.3216519e-02
  4.1773967e-02
  1.2594104e-02
 -6.7220069e-04
  2.1464124e-02
  7.8389607e-02
 -7.0609458e-02
 -7.7026933e-02
 -1.5376253e-01
 -4.0186566e-01
 -5.9476580e-02
 -5.2867341e-01
  5.4837223e-02
 -1.8488175e-01
  4.3065906e-02
 -4.4049160e-03
  5.0452091e-03
  1.3883801e-02
  7.5069018e-02
 -1.4119674e-01
 -2.3087459e-02
  1.1953799e-01
  1.9500341e-02
 -1.2392391e-02
 -1.2183743e-01
 -1.4724404e-01
 -4.5393842e-01
  2.7983573e-01
 -3.0657299e-02
 -1.7982204e-02
 -2.7541199e-01
  1.3776718e-02
  1.0249361e+00
 -1.3156420e-01
  5.6309111e-02
  1.8470126e-01
 -2.3599777e-02
  3.5085592e-02
 -1.3011864e+00
 -1.3495433e+00
 -6.9201458e-01
  1.0842438e-02
 -8.1849420e-01
  7.0982054e-02
 -8.8490762e-02
  2.7021475e-02
  7.2732842e-01
  2.0214774e-01
 -1.2244914e+00
  1.1095084e+00
  5.5604979e-02
  5.7452589e-01
  1.7902557e-02
  5.6889555e-03
  3.2557046e-01
  3.7197185e-01
  3.3864358e-01
 -3.5455011e-02
  5.0628245e-01
  6.7569450e-02
 -2.7028266e-01
 -8.5505700e-01
 -8.4280297e-02
 -4.2149253e-02
 -7.4619606e-02
 -1.5734036e-01
  6.5900385e-03
 -4.0280901e-02
 -1.1661408e-01
  3.6112908e-02
 -9.4747119e-02
 -2.3327840e-02
 -4.8423782e-02
  2.0642819e-02
 -6.8694562e-02
  4.2278416e-02
  1.0396061e-01
  1.7249744e-02
 -4.3639275e-03
 -1.1992207e-02
 -2.0899267e-01
  3.2291815e-02
  1.0935997e-01
 -5.0631486e-02
 -6.9467992e-02
  1.0117322e-02
 -3.8077176e-02
  1.3418471e-02
  3.6143314e-02
  3.5576932e-02
  3.4116551e-02
  7.1948484e-02
  1.9180882e-01
  2.0578317e-02
  2.0516369e-02
 -4.5131579e-02
 -1.0833405e-02
 -6.3805692e-02
 -1.0850170e+00
 -7.1050942e-01
 -2.1438646e-01
  3.3413693e-01
 -3.7124097e-01
 -3.7509280e-01
  6.3466337e-03
  2.8982406e-02
 -2.2341795e-02
 -8.7949120e-02
  4.2776670e-02
  4.7475994e-03
  1.2555969e-01
 -1.6900413e-02
 -8.4051073e-02
  7.5406887e-02
 -7.4919346e-03
 -1.5491749e-01
  7.7572368e-02
  1.3133542e-01
 -1.2229426e-02
  4.2412532e-03
 -2.4941392e-01
 -9.4354674e-02
 -2.8603962e-01
  9.2346631e-02
  1.7416626e-02
  7.0603855e-02
  3.5874043e-02
  5.5345088e-02
  1.4051756e-01
 -1.2056102e-01
 -1.6534999e-02
  1.3193232e-01
  1.4185612e-02
  5.2494559e-02
 -7.1206475e-03
 -2.3064077e-02
  6.2879905e-02
 -1.2313432e-01
 -1.1144584e-01
 -1.4472240e-01
  1.8082416e-02
  6.0852550e-02
  1.2822874e-01
  3.9923709e-02
  1.7058768e-04
 -8.6840115e-02
 -4.5731705e-02
 -3.8049143e-02
  1.3065934e-01
 -8.5665286e-02
  6.5032892e-02
  1.2170426e-02
  9.6714962e-04
 -8.4023938e-02
 -1.8776326e-02
 -4.7186494e-02
 -1.1391990e-01
  1.1761621e-02
 -8.3330363e-02
 -3.3797935e-01
 -1.5898167e-01
  1.1798728e-02
 -3.4321673e-02
  1.2519713e-01
  1.1053304e-01
 -7.8918032e-02
 -8.0307446e-02
  5.4631568e-02
  1.1677518e-03
  7.3806591e-02
  1.4741559e-02
 -1.2218851e-01
  8.8832073e-02
  1.5701972e-02
 -4.9176555e-02
  2.0215218e-01
 -7.2062783e-02
 -2.0268857e-02
  1.8458197e-01
 -5.7354335e-02
 -1.3102191e-02
 -1.1345660e-02
 -2.4732891e-01
  1.1147271e-01
  1.6826002e-02
  7.1262911e-02
  1.7526841e-01
  8.6653698e-03
  2.1254430e-03
  2.6274612e-02
  3.2143239e-02
  1.5678614e-02
  2.3491958e-01
 -4.7956195e-02
 -1.4019744e-01
 -2.4460597e-02
  8.7705493e-02
 -5.5056471e-01
 -2.9993290e-02
 -1.7018251e-02
 -4.9661013e-01
  1.8768668e-01
  2.2004478e-02
  2.2884242e-01
 -1.9365430e-02
  9.1229826e-02
  5.9195060e-02
  2.3300443e-03
  5.4168351e-02
  2.0012198e-02
 -3.4720990e-01
 -1.4053427e-01
 -1.9220927e-01
 -1.1068434e-01
  1.0428746e-01
  4.1872360e-02
  4.7931522e-02
 -6.3399099e-02
 -2.6735097e-01
 -5.9090488e-02
 -2.0996897e-01
 -2.1463215e-02
 -1.4684871e-01
 -5.2369457e-01
 -4.5072131e-02
  3.1228190e-02
 -2.6644140e-02
 -1.4192043e-01
 -1.5823762e-01
 -1.0931080e-01
 -5.7750586e-03
 -3.1509405e-01
  9.5544189e-02
 -7.1080518e-01
 -2.7913362e-01
 -7.3398195e-02
 -4.5849577e-02
 -1.3018175e+00
  1.5768196e-01
  9.3394741e-02
  2.7972220e-02
 -1.9518444e-03
 -5.4441497e-02
  3.8582724e-02
  1.0108497e-01
 -4.9849100e-02
 -1.2594288e-02
 -1.1243878e-01
  1.5890518e-02
 -3.4756012e-02
  1.1031058e-01
  1.1085118e-01
  2.2862464e-02
  2.9948169e-02
  5.0586934e+00
  1.5820384e-02
  7.3120788e-02
  4.6140447e-02
  2.6026750e-02
 -7.3730692e-02
 -4.7320668e-03
 -1.6079076e-02
 -5.7486184e-02
  2.0058624e-01
  1.9786742e-01
  4.1066680e-02
 -6.8431228e-02
 -1.0637568e-01
  5.5460259e-03
  1.5076764e-01
  2.5569561e-01
 -1.6986348e-02
 -1.2938516e-01
  2.7723126e-02
 -1.6368182e-02
 -1.4955351e-02
  8.7367147e-02
 -1.4182730e-01
 -1.2896280e-01
 -6.0303271e-02
 -1.0896476e-01
  2.9850665e-02
 -1.1647016e-02
  8.9143001e-02
 -7.7624843e-02
  1.5086893e-02
  2.7737257e-01
 -2.2605274e-02
 -1.1319196e+00
 -1.0541663e-01
  8.7194219e-03
  3.0941959e-02
 -8.0483101e-02
 -1.1239640e-02
  1.5571976e-01
  8.1127221e-03
 -5.2729454e-02
  7.0455939e-02
  3.1738050e-02
  2.6175231e-02
 -3.0391943e-02
 -6.1220795e-02
  1.0825228e-01
  1.6562451e-02
  8.5673414e-02
  4.0853068e-01
 -3.5466738e-03
 -3.7432335e-02
  1.6496973e-03
 -1.2067962e-01
  1.0201812e-01
 -8.5272836e-03
 -1.3585695e-02
 -7.2277451e-01
  1.2106095e-01
  3.0850403e-02
  2.9793540e-01
 -1.5794317e+00
  6.4021170e-02
 -4.0559512e-02
 -2.2092154e-02
 -7.1070410e-02
 -4.4165373e-01
  3.1360202e+00
  1.7437534e-01
 -7.8323074e-03
  8.7135890e-03
  1.4743972e-01
 -1.2836128e-01
  2.6215243e-01
 -1.0813971e-01
 -4.7401756e-01
 -6.1688796e-02
 -1.0931471e-01
  5.1891054e-03
 -4.1010588e-01
 -1.5837258e-01
 -8.7395474e-02
 -1.2656245e-02
  7.0406669e-01
 -1.5382758e-01
 -7.8241445e-02
 -6.9461197e-01
  3.5723960e-01
 -2.9363640e-02
  1.5917417e-02
 -1.8883879e-01
  6.8919390e-01
  3.6383078e-02
  4.8292386e-03
 -1.0430548e-01
 -3.0523250e-02
  1.5914662e-01
  1.2474117e+00
  3.4060252e-01
  1.8236396e-01
  2.0828728e-02
 -2.6352663e-02
 -2.2396091e-01
  2.1412501e-01
 -2.5091521e-02
 -2.1680294e-01
  2.1814893e-03
  1.0639424e-03
 -3.3018917e-02
 -2.4931028e-01
 -1.4766077e-02
  1.3768910e-02
  1.6348611e+00
 -1.4750650e+00
 -8.9105827e-01
  3.8506263e-01
  9.1729358e-02
  9.2176867e-01
 -2.7046895e+00
  5.1551013e+00
 -3.4134179e-02
  1.7940345e-01
  3.6157026e+00
 -1.6435219e-02
  1.3755136e+00
  5.8812296e-01
 -4.6186256e-01
 -3.1755822e+00
 -5.9809341e+00
  2.7183381e-01
 -2.1565006e+00
  2.4937751e+00
 -8.8514708e-02
  1.0284042e-01
  7.0963192e-01
 -2.9886024e+00
  2.5126794e-02
  7.2796303e-01
  2.7338083e+00
  1.0278857e+00
 -1.1611830e+00
 -2.4182435e-02
 -1.5540749e+00
  9.4071859e-01
 -2.6585202e+00
 -1.4666357e+00
 -8.7990677e-01
  1.8623013e+00
 -1.0372057e+00
 -1.6829866e+00
 -1.8275704e+00
 -9.1167969e-01
 -1.2809402e+00
 -4.9825454e-01
 -4.8884425e-01
 -3.9287987e-01
 -1.1653578e+00
  2.6048508e-01
  3.2868654e-01
 -7.3085612e-01
 -1.3373166e+00
  1.7196672e-01
  1.6972063e-01
  1.3503683e+00
  5.5922979e-01
  6.4584047e-01
  6.2329459e-01
  1.6425405e+00
 -5.7850349e-01
 -1.0504769e+00
 -3.6157146e-02
  7.7726185e-02
 -1.1613829e-01
 -7.3967797e-01
 -2.0884209e+00
  1.5393662e+00
  1.3048193e+00
  4.0948782e-02
  8.3567280e-01
 -1.1801189e+00
  4.6581428e-02
 -2.6877612e-01
 -5.5275798e-01
  1.4439189e+00
 -2.9396978e-01
 -1.0265652e-01
  7.4088663e-01
  7.9028618e-01
  3.3740089e+00
 -1.1705725e+00
 -1.4038447e-01
 -2.8856425e+00
 -6.0448837e-01
 -1.5077214e+00
  3.5755852e-01
 -2.0307022e-01
  3.1155166e-03
  8.4864384e-01
 -6.6275910e-02
  4.8607841e-01
  1.0195843e+00
  1.8071662e+00
  1.9185135e+00
  8.4225738e-01
 -1.3160726e+00
  3.7011504e-01
  1.3302718e-01
  7.2295409e-01
 -4.2179170e-01
 -6.3430011e-01
 -2.1919358e-01
  1.2640564e+00
  2.2174123e-01
 -4.7947541e-01
 -1.3975370e+00
 -3.4137860e-02
  6.8531342e-02
 -3.7942502e-01
  6.1905342e-01
  1.1744267e+00
 -2.5819957e+00
 -2.0410886e+00
 -1.5204197e+00
 -1.4067109e-01
  5.8386639e-02
  4.0409575e+00
  4.5265398e+00
 -6.7016041e-01
  2.1571426e-02
  2.3788644e-01
 -1.3973624e+00
  4.2941687e-01
 -3.8962808e-01
 -1.0897431e-01
 -3.0291605e+00
  7.6220876e-01
 -3.8665000e-02
  1.9989128e+00
 -8.4440947e-01
  6.5977377e-01
  1.1417016e+00
  1.9362255e+00
  9.6164368e-02
  5.4758191e-01
  2.1999721e-01
 -2.4067402e-02
 -2.8017870e-01
 -2.0763589e-01
  7.9068297e-01
 -8.3660501e-01
 -1.1405531e+00
 -2.1498032e-01
 -1.4141116e-01
 -3.6197808e-01
  1.1816266e+00
 -6.0587370e-01
 -4.9385989e-01
 -6.1092180e-01
  4.5656025e-01
  1.1413104e-02
 -9.8397189e-01
 -1.8992734e-01
 -3.0395091e-01
  9.4693825e-02
 -2.4077556e+00
 -7.8035361e-01
 -7.0368910e-01
 -3.9545506e-01
  5.5364805e-01
 -8.2431293e-01
 -9.4247562e-01
  7.7736372e-01
  1.8452494e+00
  4.1158062e-01
  1.4930609e-01
  6.5470880e-01
  1.5914869e-01
  4.8916528e-01
  5.0581902e-01
 -9.1424209e-01
  1.7462462e+00
  3.8200900e-01
 -1.3299111e-01
 -9.7840750e-01
  5.6656075e-01
  7.6670116e-01
 -4.9436128e-01
  3.4057614e-01
 -1.3602726e+00
  6.4224517e-01
  5.6038860e-02
 -5.5320466e-01
  3.1346729e-01
 -1.0944021e-02
 -4.8652843e-01
  7.7017576e-01
 -3.5260952e-01
  5.0140962e-02
  3.2222474e-01
  1.6836337e+00
 -3.6354947e-01
  2.3370781e+00
  1.5894784e+00
 -3.6085707e-01
  7.6514965e-01
  1.1235392e+00
  1.1224570e+00
 -1.6060430e+00
  1.2666450e+00
 -5.4498470e-01
 -1.2660191e+00
  4.7709578e-01
  1.2299080e+00
 -1.1274991e+00
 -3.2569158e-01
  1.6384289e+00
  2.2247417e-01
 -6.2473571e-01
 -8.1143254e-01
 -3.4647483e-01
 -4.8037627e-01
  3.9363718e-01
  2.3412619e-02
  9.5244929e-02
  1.2808154e+00
  4.9525052e-01
 -4.3763188e-01
  1.4538053e-01
  5.8244568e-01
  6.1346319e-02
  2.2323462e-01
 -1.3408384e+00
 -2.2154047e+00
 -6.6893995e-01
 -3.5132390e-01
  3.6576375e-01
 -2.2450957e+00
 -1.1320205e+00
 -4.4429040e-01
  1.5136982e+00
  1.4597116e+00
  4.1472077e-01
  3.6156494e-02
  7.4163097e-01
  4.3076935e-01
  4.8561132e-01
 -1.4030798e-04
  5.1526666e-01
  2.8064737e-02
  4.9939599e-02
 -2.1039143e+00
  1.6691028e-01
  6.9251585e-01
  4.8090076e-01
 -4.7164358e-02
  6.7941439e-01
 -6.6576141e-01
 -1.6632608e-01
  4.1474947e-01
 -6.6486073e-01
 -5.7710087e-01
  4.8816115e-01
  4.0073919e-01
 -9.3393981e-01
  1.8021185e+00
 -1.5821117e-01
 -1.0582844e+00
 -9.4937962e-01
  1.6946454e+00
  1.0454628e+00
  7.7353257e-01
 -8.2282519e-01
  9.3656200e-01
  1.6544092e+00
  6.0429472e-01
  4.5125392e-01
 -1.6851883e+00
 -6.5320276e-02
 -8.8748807e-01
  9.6880603e-01
 -2.2059752e-02
  3.2520467e-01
  1.3017054e+00
  1.0816643e+00
 -1.1797620e+00
  1.2668446e+00
 -2.4767647e+00
  1.9863291e+00
 -2.0987661e-01
  1.5684497e-01
 -5.7921380e-01
 -5.7069805e-02
 -8.1930482e-01
 -2.9707894e-01
 -7.4755645e-01
  9.0595581e-02
 -3.2668406e-01
  7.6625335e-01
 -1.5463501e-01
 -1.4473370e-01
 -2.0196059e-01
  4.0988192e-01
 -8.0416396e-02
 -7.4186647e-01
 -4.2298883e-01
 -1.8733387e-01
 -1.2831035e-02
 -3.7341061e-01
 -3.5068944e-01
  1.0315284e+00
 -7.2859544e-01
 -3.3928788e-01
 -2.2811869e-01
 -8.4367800e-01
 -1.9466659e-01
 -3.6721691e-01
 -4.7672009e-01
 -2.8695650e+00
  5.4961997e-01
 -5.0384820e-01
 -7.5463730e-01
 -1.4663969e+00
  3.5443613e-01
  2.1768360e-01
 -4.2431784e-01
 -4.0327242e-01
 -3.9677966e-01
 -1.4090978e+00
  1.9577062e-02
 -1.9372974e-01
 -5.8522522e-01
  3.9598629e-02
  2.1911941e-02
 -9.6562248e-01
  1.1065921e+00
  5.7003414e-03
 -4.1697130e-02
  1.3013186e+00
 -1.2059953e+00
  1.2140785e+00
 -6.3308597e-02
 -6.4319211e-01
 -2.8142099e+00
 -8.9136159e-01
  2.7274725e-01
 -1.6139101e+00
 -2.2017895e-01
 -1.7221828e+00
 -6.0792232e-01
  4.1602162e-01
 -1.8342241e+00
 -2.7918026e-01
  3.6370355e-01
  3.5617441e-02
 -1.2601608e+00
 -9.5343769e-01
 -4.2108044e-01
 -9.0969944e-01
  5.5090278e-01
 -1.9005206e-01
 -4.2117351e-01
  7.8028893e-01
 -1.0235327e+00
  9.1969895e-01
 -2.0033669e-02
  1.8735400e+00
 -1.5888809e+00
  4.6343538e-01
 -4.8983052e-02
  1.0666932e+00
 -5.2921081e-01
 -4.6858919e-01
  5.0861931e-01
  1.8665253e-01
  2.5666079e-01
 -4.1222414e-01
 -5.5836976e-01
  1.2129400e-01
 -1.0705713e+00
 -8.9461213e-01
 -1.1590222e-02
 -4.3016899e-02
 -1.4544582e+00
 -2.5867704e-01
  5.9663102e-02
 -2.1559250e+00
 -3.8420641e-01
  9.1746368e-02
 -2.0677951e-01
  6.9093251e-01
 -4.5418475e-02
 -1.0777133e+00
  2.6474202e-01
  5.8762980e-01
 -1.3789554e+00
 -7.7090424e-01
 -2.8390798e-01
 -1.2609571e+00
 -2.1561728e+00
  7.0550449e-02
  5.5682361e-01
 -1.4646802e+00
 -1.0468545e+00
  1.0291631e+00
 -1.3385688e+00
 -6.8484753e-02
 -1.3903443e+00
 -6.6144161e-02
  1.1508361e-02
 -1.3628533e-01
  3.3914089e-01
 -9.5277011e-01
 -3.7926683e-01
 -1.3671438e-01
  1.1519903e+00
 -9.8216742e-01
  1.7557560e-01
  5.8632606e-01
  5.6975543e-01
 -4.1619682e-01
  8.1581295e-02
  6.8003178e-01
 -3.1261515e-02
 -1.8675162e-01
 -1.8396668e-01
  1.9740824e-01
  5.1253997e-02
 -3.7238453e-02
 -1.0041957e+00
 -1.8811355e+00
  3.1175880e+00
 -8.7053460e-01
  4.9402300e-01
 -1.0440092e+00
 -1.3546180e-04
 -1.0865122e+00
  4.8056237e-02
 -7.5325507e-01
 -8.6115956e-01
  1.4611775e+00
  1.3782541e+00
 -9.7947061e-01
 -5.3824675e-01
 -1.0123916e+00
 -7.3913407e-01
  1.6489033e-01
  6.1810660e-01
  1.3328533e-01
  2.0035443e+00
  1.1803560e+00
 -3.3434218e-01
 -5.5172729e-01
 -1.2306359e+00
 -6.9673523e-02
 -1.2715193e+00
 -2.8524995e-01
  6.8870091e-01
  1.5758703e+00
 -1.9216530e-01
 -9.0737420e-01
  4.9426404e-01
 -6.2771678e-01
 -8.2652098e-01
 -6.8809533e-01
  1.7308016e-01
 -2.0425513e+00
 -8.6380029e-01
 -2.6434192e-02
 -8.2724884e-02
 -1.4811125e-01
  1.8101066e-01
 -2.5775987e-01
 -8.1575140e-02
  1.2454456e+00
  4.2742482e-01
 -6.3032824e-01
  1.8074039e-02
  7.0186335e-01
  4.2614070e-01
 -2.7927974e-01
  1.0779030e+00
 -3.8062516e-01
  2.0345907e+00
 -1.8243922e-01
 -6.9159335e-01
 -1.4032128e+00
 -2.3544271e+00
  3.9254549e-01
  9.0124663e-03
  2.2086163e+00
 -1.2387856e+00
 -1.3263419e+00
 -1.0479513e-01
  2.4297383e+00
  1.9627521e+00
  2.2308096e-01
 -1.2133454e+00
 -9.4224006e-01
 -7.4110079e-01
 -2.1116292e+00
  8.3039068e-02
 -5.5089116e-01
 -1.6490065e+00
 -9.5655423e-01
 -2.0041990e+00
  5.7204819e-01
  6.0749370e-01
  7.1181989e-01
  1.5692052e-01
  2.1859519e-02
  6.7392266e-01
  1.1376675e-01
 -1.2778740e+00
 -2.5124449e-01
  1.5558451e-02
  5.1292503e-01
  1.4830088e-02
  6.5845132e-01
 -6.7036098e-01
  1.0108581e+00
  2.6605628e-02
 -2.1109705e-01
  9.8666263e-01
  9.2372608e-01
 -2.4105373e-01
 -1.0714405e+00
  1.5133270e+00
  3.2138246e-01
 -6.8964368e-01
 -7.1125245e-01
  8.7782937e-01
  1.0853922e-01
 -4.8516935e-01
  4.0477581e-02
  4.0477581e-02
  4.0477581e-02
  4.0477581e-02
  4.0477581e-02
  1.0008992e-01
  1.0008992e-01
  1.0008992e-01
  1.0008992e-01
  1.0008992e-01
  8.6192362e-02
  8.6192362e-02
  8.6192362e-02
  8.6192362e-02
  8.6192362e-02
  3.5036430e-02
  3.5036430e-02
  3.5036430e-02
  3.5036430e-02
  3.5036430e-02
  1.5690982e-02
  1.5690982e-02
  1.5690982e-02
  1.5690982e-02
  1.5690982e-02
  6.6405229e-02
  6.6405229e-02
  6.6405229e-02
  6.6405229e-02
  6.6405229e-02
