nep4 2 Cu Se 
cutoff 7 5 100 44
n_max 8 6
basis_size 12 12
l_max 4 2 0
ANN 50 0
  1.4460545e-02
  7.6513947e-04
  1.7564798e-03
 -3.8608748e-01
 -5.3801732e-03
 -6.2144562e-03
 -1.6015335e-03
  1.1188953e-01
 -1.7535595e-02
 -4.4406434e-03
 -8.4274272e-03
  3.9307475e-03
  1.0609546e-03
 -3.7074159e-04
 -4.9363100e-04
 -3.8444434e-04
  1.7139321e-02
 -3.1856287e-03
 -2.1959115e-03
  2.3640197e-02
  1.2780514e-02
  8.8082603e-04
  9.0265553e-03
 -5.1135821e-03
  5.6634760e-03
  7.8645465e-04
 -9.3869842e-04
 -2.6178528e-03
  5.8291852e-03
  3.2336984e-02
  1.6039747e-03
 -2.2700330e-02
  8.1130303e-03
  4.1910317e-03
  1.7503186e-03
  3.3235424e-03
 -1.0525159e-02
  1.2481411e-02
 -2.1236500e-02
 -5.0718798e-03
 -2.4240895e-03
 -1.0253403e-02
 -1.7330727e-02
 -1.1297492e-02
  3.6333168e-03
  2.5460970e-02
 -5.8695350e-02
 -1.0217182e-01
 -3.3272505e-01
 -6.2739253e-03
 -1.7973658e-03
 -6.7086828e-01
  3.2759602e-03
 -2.9567279e-02
 -1.0238057e-02
 -1.8105082e-03
  1.0659721e-01
  5.3173125e-02
  6.1032247e-02
  4.6445332e-03
  1.1102802e-02
  1.2187793e-02
 -5.3885388e-03
 -1.2877631e-01
 -4.8778304e-03
 -2.1040013e-01
 -6.4722239e-03
  1.4108203e-03
 -3.0376050e-03
 -1.6501406e-02
 -8.5754432e-02
 -2.1441743e-02
 -2.9692449e-02
  7.1135789e-02
 -8.1493389e-03
  1.6233085e-02
 -2.4053197e-02
 -8.5291955e-05
 -2.8154811e-02
 -1.0476925e-02
 -6.4005251e-03
  3.0304328e-02
  2.2404934e-03
 -3.6894478e-02
  8.5197156e-04
 -1.2172779e-02
 -7.0264016e-04
  3.2129129e-03
  9.5004383e-03
  6.7626047e-03
  6.0498300e-03
  7.6429383e-03
  4.6840711e-03
 -2.8391662e-03
  4.5991493e-03
  3.1519134e-03
  9.8702768e-03
 -1.3426482e-03
 -1.2689760e-03
  3.5692798e-03
  2.1431660e-02
  8.5607171e-05
 -2.6338105e-04
 -5.1368056e-03
 -7.7546877e-04
  2.8189658e-03
  1.5517872e-02
 -4.4513727e-03
  5.2216384e-03
 -6.3964352e-03
 -8.6989710e-03
  9.0065701e-03
  4.9604941e-03
 -2.9061923e-03
  5.9108809e-03
  7.7940021e-03
  4.5583043e-03
 -1.3997376e-02
 -1.2693319e-03
  9.6522765e-03
 -2.3472817e-03
  7.6179719e-03
  1.5443255e+00
  2.7082455e-03
  1.1464491e-03
 -4.1296231e-03
  2.1570830e-03
 -4.9896608e-04
 -4.9547651e-03
 -2.5016181e-03
  2.0926627e-03
 -1.0876363e-02
  6.8990192e-03
  1.4326458e-02
  2.0872902e-02
 -2.8839415e-01
  1.8906128e-01
  2.0360197e-03
 -1.1513015e-02
 -5.7088439e-03
 -6.3093854e-03
 -7.4719340e-03
 -8.5190060e-03
  1.6079010e-03
 -1.0924270e-02
  3.2581683e-02
 -2.2902410e-03
 -5.1584849e-03
 -5.2713682e-03
 -2.0284388e-02
 -3.2635231e-04
  1.7004090e-03
 -2.6695831e-03
 -5.6633179e-04
  3.1384283e-03
  5.2394118e-04
 -3.4330878e-06
 -2.8286165e-01
  3.5519872e-03
 -6.6906414e-03
 -1.0199432e-02
  7.7518816e-03
 -5.6547782e-04
  3.3877792e-03
 -4.0593278e-03
 -1.9213580e-02
  6.5274313e-03
 -1.6385638e-03
  6.0071405e-03
  2.2713351e-03
 -5.9438380e-03
 -5.6681894e-03
 -4.0133651e-03
  3.6230134e-03
 -7.5365743e-03
 -2.7325333e-03
 -1.5424475e-01
 -5.4271430e-01
  5.2544618e-01
  5.1456760e-03
  1.1733170e-01
 -2.8214922e-02
 -9.3624443e-02
 -1.6655560e-01
 -1.7712383e-01
 -3.1218019e-01
 -4.8075050e-01
  2.4378783e-01
 -2.1475589e-02
 -3.1757605e-01
 -4.9277908e-01
  2.2069846e-01
 -1.1136575e-02
 -3.1130043e-01
 -6.6936719e-01
  4.0742117e-03
 -1.7127874e-01
 -4.9076012e-01
 -4.8228207e-01
 -3.6929244e-01
 -3.2192549e-01
 -3.4987655e-01
 -2.9411611e-01
 -1.4803244e-01
  1.1935407e-01
  6.2133715e-02
 -7.0085458e-02
 -3.7031159e-01
 -3.5777371e-03
 -2.5771381e-02
 -2.2277999e-01
 -2.3162747e-02
 -1.0223991e-01
 -1.8940876e-01
 -5.3189634e-03
  1.4928561e-01
  2.0139605e-02
  7.2706169e-03
  1.2665513e-01
  3.1179535e-01
 -6.0913515e-01
  1.7118973e+00
 -3.4508414e+00
  8.5818470e-02
  9.8988551e-01
 -5.2764118e-01
 -6.7131668e-01
  3.2441613e-01
  4.7064051e-01
  3.5339359e-02
  2.4053542e-02
 -2.6410848e-01
 -1.3589307e+00
  4.1364542e-01
 -4.0685943e-01
 -3.7558714e-01
 -8.4049380e-01
  8.7538406e-02
  3.2798877e-01
  1.2804357e+00
  1.4845072e-01
  2.9374492e-01
  1.2798805e-02
  4.8107345e-02
  2.4729785e-02
 -7.9735123e-02
  3.1374380e-01
  3.3693496e-02
 -2.3721176e-01
 -3.5823014e-01
 -3.5880800e-02
  4.7530210e-01
  4.9314556e-01
  3.8554612e-01
  2.3096411e-01
  2.2106756e-02
  2.4109897e-01
  9.7140565e-04
  1.2854391e-03
  2.8410414e-01
  2.2743717e-02
 -5.8041122e-02
  2.4069656e-01
  1.5279269e-01
 -2.6194900e-01
 -1.0872951e-01
 -1.0780698e+00
 -6.8699729e-01
  1.5582296e+00
  1.8580645e-01
  1.4808491e-01
  4.5074854e-02
 -5.1590466e-01
  3.8754496e-01
  1.1422600e+00
  2.8397052e-02
  3.6631018e-02
  6.1184788e-01
  7.0284504e-01
 -5.7806379e-01
 -2.0019440e-03
  1.1790861e+00
  5.6961562e-02
 -5.9824163e-01
  2.6442986e-02
  8.1897384e-01
  6.8848199e-01
  5.0780863e-01
  1.5636649e+00
  1.2786053e+00
  1.0015788e-01
 -3.5315996e-01
 -9.0872538e-01
 -4.1510037e-01
  1.9501859e-02
  2.2649264e-01
  1.2999989e+00
 -9.3509686e-01
 -1.2196019e+00
  1.0144806e-02
  4.7831589e-01
  1.5559159e-03
 -6.1295656e-03
 -9.9452011e-02
 -6.7213350e-03
 -5.2837455e-01
 -3.1180277e-02
 -2.0598218e-02
  4.2308348e-01
  1.3831168e-01
 -3.0913362e-01
  5.8523870e-01
  5.0327754e-01
  7.8873115e-04
  6.3018454e-03
 -7.1372733e-02
 -6.7371286e-02
  2.1718517e-03
 -4.7171456e-03
  2.0537805e-02
 -4.2369235e-02
 -5.4110084e-03
 -2.6324861e-02
  2.0752649e-04
 -6.5236771e-04
 -1.6947994e-03
  1.7726344e-01
  2.1977781e-03
 -2.6996488e-02
  3.7011523e-02
 -7.6906243e-04
 -4.8883320e-03
 -7.5036124e-03
  1.5381796e-02
  1.4093253e-01
  1.1814133e-01
  8.6955503e-02
 -6.8965182e-03
  5.9469384e-03
 -7.7737891e-04
 -1.6690041e-03
  8.5175689e-03
  7.1510881e-02
 -2.4301698e-05
  2.7808826e-04
 -4.1149061e-02
  1.4784466e-03
 -2.7303854e-03
 -9.0369396e-04
 -2.7250191e-03
  2.9289303e-04
 -2.1331921e-02
 -6.6927880e-01
  2.4874442e+00
 -3.8702980e-01
  6.4551204e-01
  2.4584353e+00
  4.6659470e-01
 -1.6011679e+00
  1.3412410e-01
 -3.1073704e-01
  1.8128730e-01
  8.4645823e-03
 -9.9048638e-01
  1.2648693e-01
 -1.5238740e-01
  2.9790592e-01
 -1.0787389e-02
  1.6315103e-01
  2.7149493e-01
  4.4046769e-01
 -2.0793878e-01
 -1.4777485e-01
 -2.3660760e-01
 -1.2050258e-03
 -2.1511032e-03
  5.6209511e-01
 -1.1350128e-03
  8.7964296e-02
 -1.3584673e-01
 -1.8134182e-03
 -1.2142358e-02
  3.3606946e-02
  9.7864203e-02
 -3.3872770e-03
 -1.0872476e-03
 -1.0973246e-02
  1.1937015e-02
 -7.0386399e-03
 -1.6794328e-02
 -2.9610055e-03
  5.6252070e-03
  2.2150878e-02
  3.8181356e-01
  1.6074397e-03
  5.7245024e-02
  4.5607856e-01
 -1.1927747e+00
  7.7069961e-02
 -9.0447927e-01
  4.9980375e-01
  6.1391175e-01
 -1.1412063e-01
 -1.2249101e+00
  1.9785523e-01
  1.0330066e-03
  4.1905702e-03
  1.1636405e-01
 -9.1014683e-01
  1.8483799e-02
 -1.4355616e-01
 -5.6740660e-03
 -2.7780753e-01
  1.4154734e-01
  3.9736810e-01
  2.1175931e-01
  3.7007007e-01
  6.7074589e-02
  4.6177047e-01
  7.9671460e-01
 -3.9801071e-04
  1.2086480e-01
 -1.5761288e+00
  6.6278535e-01
 -1.4830198e-03
 -1.7370488e-01
 -8.8593410e-03
 -2.6472855e-01
 -4.0588573e-01
  1.3173306e-03
 -1.0682603e-02
 -4.8577566e-02
  5.7547032e-03
 -2.7018085e-02
 -1.2354260e-02
  2.6046294e-01
 -6.1467529e-04
 -1.8898854e-03
  2.3069680e-01
  4.4284049e-02
 -1.0019943e-01
  2.9357716e-01
  6.9479698e-01
  1.0340060e+00
  3.4304366e-01
 -1.3416700e-01
 -8.9109141e-01
  2.0084599e-01
 -9.6275222e-01
  2.7488232e-01
 -4.0145688e-02
 -9.5195824e-01
  7.8006011e-01
 -5.7934678e-01
  2.7328369e-01
  8.7408340e-03
  3.2648328e-01
  1.7207195e-01
 -1.4470791e+00
  2.3654610e-01
  4.9461082e-02
  4.0003198e-01
  1.4961571e-01
  1.7275723e+00
  1.3448687e+00
 -2.0629485e+00
 -3.2302561e-01
  3.2185674e-01
 -6.7309253e-02
  6.9541645e-01
  3.9743307e-01
  7.5682896e-01
 -6.4024396e-02
 -2.7548569e-01
  1.4225024e-01
  1.2974876e-01
  5.8687907e-01
 -5.3951478e-01
 -2.6705009e-01
 -3.5281113e-01
  3.1687006e-02
 -5.9346263e-03
 -2.2638673e-02
 -1.0853546e-01
  4.9539157e-03
 -3.2996200e-02
  7.2894944e-03
  1.0528118e-01
  1.2302122e-02
 -7.4059308e-02
  5.6336880e-02
  1.6856428e+00
  2.2923483e-03
 -3.8658185e-03
  1.1195359e-02
  7.7027030e-04
  7.1113616e-02
 -7.9028010e-01
 -5.8959685e-03
  2.7811427e-02
 -1.3891537e-03
 -4.4595427e-03
 -2.9385474e-03
  5.8728145e-03
 -2.1090845e-02
  8.4539037e-03
  1.0957602e-02
 -9.5063243e-03
 -1.1327355e-03
  3.5260529e-03
 -2.3308338e-03
 -2.2264028e-03
  1.1101086e-03
  2.3234820e-03
  1.4357240e-03
 -8.2749659e-03
 -2.7836624e-03
  2.8904948e-02
 -6.5636560e-03
 -1.2622278e-02
  5.0555342e-03
 -1.3587009e-02
  7.5793113e-03
 -5.2385759e-03
  1.0688515e-02
 -1.9131893e-02
  3.8669880e-03
 -1.4836527e-02
 -5.8519907e-02
 -6.3176863e-02
  1.6124339e-03
 -4.9393646e-02
  5.1093462e-05
 -1.9020777e-02
  4.6157604e-03
  5.7299536e-02
 -1.7446479e-02
 -1.7408706e-02
 -5.1054247e-03
  2.2270428e-02
 -3.9418135e-03
  1.5716276e-03
 -1.1015440e-02
 -9.4555179e-03
 -1.3507976e-02
 -7.8731693e-02
 -4.7316741e-02
 -7.2798445e-03
  1.5432446e-03
 -3.4653535e-03
 -4.5891777e-02
 -7.8104977e-03
 -6.5582991e-02
  1.2411743e-02
  1.0283042e-02
  7.6571328e-04
  2.4704726e-02
 -4.2103152e-03
  9.5991306e-03
 -9.1010155e-03
  5.2206349e-03
 -4.0145102e-03
 -1.0936979e-03
  9.7236101e-04
  1.0094949e-02
 -4.1096890e-03
  1.9395119e-03
 -6.2283804e-03
 -2.2863208e-03
  2.2404183e-02
  2.2978256e-03
 -5.2678813e-03
 -1.9819701e-02
 -1.8753171e-02
 -2.7808321e-03
 -9.7409651e-02
 -1.4424352e-02
 -1.4460613e-03
 -2.9787978e-02
 -2.2665199e-03
  2.4674786e-04
 -1.9524548e-02
 -4.8343292e-03
  5.9125358e-03
  9.0728756e-03
  9.3153759e-04
 -3.2938800e-03
 -1.3018671e-02
 -5.4861093e-03
  1.4824269e-03
 -1.8550644e-03
  2.8285701e-03
  1.8826636e-02
 -3.0535215e-05
 -6.9776177e-03
  4.4518579e-03
 -3.7960950e-03
 -3.3346962e-03
 -1.0415447e-02
  4.7333262e-04
  8.8431202e-03
  4.2099562e-03
  3.0371968e-03
 -3.5181440e-02
 -9.8279305e-04
  2.4104716e-02
 -1.6559629e-02
 -5.1589916e-03
  1.6611611e-03
  4.3243174e-03
  2.6432455e-03
  2.4063792e-02
  1.0018647e-03
  6.2041264e-03
 -1.8771855e-02
  9.4016083e-03
 -5.5714812e-02
  4.7006565e-03
  3.1228203e-03
  2.1910809e-01
 -4.0353841e-01
 -1.3761014e-02
 -2.8807202e-03
 -2.8606155e-03
  1.1690021e-02
  2.6349630e-04
 -1.7184464e-02
  1.8838365e-02
 -7.5224154e-03
  6.2048775e-03
 -4.9628001e-03
 -7.9162925e-04
 -7.2038160e-03
 -9.8074682e-02
 -1.1546873e-02
 -9.3400041e-03
  1.5076811e-03
 -5.4886728e-03
 -1.5675947e-03
 -5.7685743e-03
 -5.0872874e-01
  1.5828546e-02
  4.2895721e-03
 -8.5132020e-03
  1.7870541e-04
 -1.5129634e-02
  1.3371555e-03
  2.0528105e-03
  1.2668897e-03
 -5.2039060e-03
 -1.6686779e-03
  4.3312097e-03
 -1.1052142e-02
 -9.9982526e-03
 -8.2909800e-03
  1.9133208e-02
  1.3805779e-02
  6.5728789e-03
 -8.4665036e-03
  1.6747892e-02
  2.3506688e-02
  8.5983872e-03
  3.9617261e-03
  3.5076344e-03
 -1.3041534e-02
 -4.6561905e-03
 -4.2767203e-03
 -3.9254599e-03
 -6.4118234e-03
  1.8103011e-02
 -1.4066764e-02
  1.7390383e-03
  6.4056911e-02
 -1.5949825e-02
 -1.2843320e-02
  9.4689522e-03
  8.4816734e-04
  5.0861156e-03
 -5.5771851e-04
 -1.3807480e-02
 -1.0843653e-02
  4.9126782e-03
  4.3107565e-02
 -4.1196626e-03
 -7.0654351e-04
 -5.1107015e-03
  8.3099669e-03
 -2.3979028e-03
 -2.2620147e-02
  1.2587299e-02
  4.0705875e-03
 -1.8463344e-03
  3.8000564e-03
  3.9122268e-03
  9.5664291e-03
  1.3363790e-02
  1.4968585e-02
 -4.6894089e-03
 -3.7946069e-04
 -9.2238756e-03
  2.2980880e-02
 -4.5740148e-03
 -5.9257681e-04
  3.5859263e-03
  2.4065296e-01
 -2.0213734e-02
  1.0238953e-03
 -4.3841726e-03
 -1.1396627e-02
 -4.7194469e-03
 -3.1950301e-03
  6.0686111e-03
 -1.3691756e-02
 -2.4537867e-02
  1.1484761e-02
 -1.7667135e-02
  1.1261630e-02
 -2.8926821e-03
  9.6759284e-03
  9.4953096e-03
  5.8214925e-03
 -1.1293380e-02
  4.8471894e-03
  1.2516812e-04
 -5.1004495e-03
 -9.2595182e-03
 -7.1754260e-03
  7.6047552e-04
  1.1064386e-03
 -9.3077056e-02
 -4.4315639e-01
 -2.3690192e-04
 -8.0439902e-04
 -6.6108687e-04
  5.1734829e-03
  1.3223218e-02
  1.2466300e-02
  4.8960857e-03
  1.1762663e-03
  5.5040445e-02
 -6.4495914e-03
  2.0181108e-03
 -1.0725306e-02
 -1.0166362e-02
  1.3137481e-02
  1.2210702e-03
 -2.0423396e-02
 -3.3625071e-03
 -4.0136734e-03
 -6.5836847e-02
  4.1146433e-01
 -9.7854115e-02
  1.6897365e-02
 -9.3700133e-02
 -6.5550610e-02
 -2.9236463e-01
 -5.4089673e-02
 -1.8951125e-02
 -8.1619434e-03
  1.2516444e-02
  4.1030347e-03
 -3.4153197e-02
 -1.6931450e-01
  3.2345939e-03
 -2.9759077e-02
 -3.1217935e-03
  2.0701373e-02
 -1.2821333e-02
 -8.3831307e-03
 -1.6010631e-03
 -1.3349198e-02
  2.2470730e-04
 -2.6783699e-02
  2.2074427e-02
  1.0568997e-02
  2.8264601e-02
 -7.8080771e-03
  6.6688657e-02
  3.0148055e-02
 -8.3903544e-02
 -1.6106395e-03
  2.2478304e-03
  1.2594498e-03
  7.5037819e-03
  6.7300354e-03
 -1.1507914e-02
 -8.9066559e-03
  7.2489437e-03
  1.9277524e-02
  1.7690441e-02
  1.2255808e-02
  6.1880343e-02
  1.1255560e-01
 -1.6275357e-02
 -2.7485840e-02
  5.1860905e-01
  1.8001128e-02
 -1.7404882e-04
 -1.3172153e-01
 -4.4764042e-01
  1.3276369e-02
  4.7055068e-03
  1.6647840e-02
  2.8000638e-04
  7.0489380e-03
 -1.5017763e-03
 -8.8523263e-03
 -1.5625311e-02
  3.2681299e-03
  1.0719719e-01
  1.6856957e-02
  8.6538054e-02
 -7.3558697e-03
 -2.0612846e-03
  7.6790708e-03
  1.8521489e-03
  3.9893158e-02
 -3.9644642e-03
 -1.1663123e-02
  3.5428349e-02
 -9.1263074e-03
 -7.2806254e-02
  1.2706952e-02
  2.8476077e-03
  6.1124400e-03
  2.0995265e-04
 -2.9736953e-03
  2.5946364e-02
  1.5409183e-02
  1.8232305e-02
  7.1656490e-03
  5.7076715e-05
 -1.4553072e-02
 -1.9963244e-03
 -1.9258237e-04
 -9.6487412e-03
  8.7097287e-03
  7.1398998e-03
 -8.4206052e-03
  2.8524539e-03
 -1.5890023e-03
  1.0061043e-03
  3.2264840e-02
  3.2716665e-02
 -3.3575032e-04
 -1.4837622e-03
  1.1182083e-04
 -6.5873396e-03
  1.1156339e-02
  1.5508989e-02
  1.0865746e-02
 -7.2438824e-03
  7.9556759e-03
  9.4934544e-03
  6.1052372e-03
  1.0883001e-02
 -2.9956962e-03
  2.5517857e-03
 -1.3059566e-03
  8.2945488e-03
  3.5038556e-03
  6.8062404e-04
 -2.2612624e-03
  4.9989638e-03
  1.2982952e-02
 -2.4407368e-02
 -9.2086842e-04
 -4.2832596e-03
 -1.1584815e-04
  3.0404306e-03
  6.9300979e-03
  2.3213048e-03
 -2.0929626e-03
  5.2777445e-03
  9.7952902e-02
  5.2298526e-03
 -8.6551886e-03
  8.6561339e-03
  1.1074397e-03
 -1.3381322e-03
  1.2397412e-03
 -8.9860838e-03
  8.6431568e-03
  1.1689194e-02
  6.1009731e-03
 -2.2776155e-03
  5.6299906e-02
  2.1822304e-01
 -3.8660341e-03
 -1.3909858e-02
 -1.1237193e-03
  4.2689182e-03
 -4.8826309e-03
  1.5397444e-02
  8.0037555e-03
 -2.5379011e-02
 -5.0657574e-04
 -2.4383937e-03
  1.4142040e-02
  8.1528537e-03
  1.2224474e-03
  1.0302502e-02
  1.0789227e-03
 -1.3136324e-03
  3.3946540e-03
  1.3715650e-03
 -7.2076881e-01
 -5.6412555e-03
 -1.4442698e-02
 -3.7236672e-02
 -2.9289864e-03
  6.2196841e-03
 -3.4202414e-04
 -3.1600639e-03
  5.9958198e-04
  8.7298052e-03
  4.3314544e-04
  5.5160052e-03
 -1.6447984e-02
 -3.6490476e-04
  6.5042608e-04
  1.0337172e-02
  8.0382824e-04
  3.2688198e-03
 -4.5929134e-02
 -8.2732718e-03
 -9.5175514e-03
 -3.0199483e-03
 -3.3934675e-02
 -3.5252939e-03
  1.0190085e-02
 -2.1365750e-01
  2.6630878e-04
 -1.8873208e-03
 -2.3036730e-02
  5.2345828e-03
 -2.2313843e-02
  7.3603522e-03
 -7.8621313e-02
  8.2371533e-03
 -1.4008651e-02
  3.4089000e-03
 -5.6630544e-02
 -2.9312789e-03
  8.2154028e-02
  4.4247310e-04
 -7.0287688e-03
  1.1949450e-02
 -6.8814479e-02
 -3.7005794e-04
 -1.3861358e-03
  1.9905347e-02
 -1.1653530e-04
  3.7077221e-03
  3.6973362e-03
 -7.6354509e-03
 -5.4250183e-03
 -9.3245739e-03
  9.2420895e-03
  7.8935374e-04
 -2.6650806e-03
 -1.1698982e-02
  2.4401303e-03
  9.8595386e-03
  1.4091335e-02
 -5.0627496e-03
  1.0471978e-02
  5.1321490e-03
 -3.7622148e-01
  2.0523703e+00
  2.7727831e-02
  1.4939232e+00
 -1.1225510e-02
  2.3827946e-04
  2.9720280e-01
  4.0517095e-01
 -5.6226635e-03
  2.7685856e-02
  8.6188652e-03
  1.0562739e-03
  2.9885950e-03
  2.2222020e-04
  6.4885048e-03
 -3.0746809e-03
  1.8816629e-02
  2.5328234e-01
  1.3550081e-02
  1.9669221e-03
  8.4298076e-03
  3.2815020e-04
  6.9367941e-03
  1.6067162e-02
 -6.1578704e-03
 -2.5682460e-04
 -4.7398850e-01
 -7.2074866e-01
  8.3405455e-04
 -5.8911312e-03
  8.6449226e-03
  8.8018235e-03
  1.1641632e-03
 -1.1410046e-02
 -1.4277287e-02
 -6.3340729e-03
  7.5080190e-03
  1.2940425e-02
 -4.4948990e-03
 -1.7052937e-01
 -2.2075539e-02
 -2.4984535e-02
 -1.5426888e-02
 -2.5966866e-03
 -1.2516725e-02
 -1.7276373e-02
 -1.3259056e-03
 -1.2116731e+00
 -1.9120705e-01
  2.3082303e-01
  6.5015536e-03
 -5.2254540e-01
 -2.8556688e-02
  3.5013733e-03
  7.4602570e-03
 -1.8000246e-03
  6.2096580e-03
  7.0877671e-03
  6.8587563e-03
 -2.9600747e-02
 -1.3649966e-02
 -7.3626952e-04
 -8.6545391e-04
 -2.8374449e-03
 -1.6504219e-02
 -9.4208680e-02
  5.3637568e-04
  3.0819699e-02
  8.5976757e-03
  8.3962925e-02
  4.1410992e-01
 -3.9872777e-01
  2.9514262e-01
 -8.7239660e-02
  4.8146322e-03
 -6.5158308e-03
 -3.5796179e-03
  9.8666726e-03
  7.8174435e-03
 -2.2988355e-02
  3.5644072e-01
 -1.3008936e-02
  2.1820586e-02
 -9.2310319e-03
 -1.6717867e-03
 -8.6982530e-03
 -1.4293985e-01
  6.6322200e-02
  2.6202274e-03
  3.4482765e-04
 -9.0642477e-04
  1.1628277e-03
  8.6573593e-04
 -2.5247626e-03
 -1.6044127e-05
  9.1110617e-03
 -1.1354282e-02
  3.2150239e-04
  1.1219732e-02
 -2.7866634e-03
 -3.5473943e-02
  2.9821491e-02
  6.7846808e-03
 -3.0601900e-03
  9.5481724e-03
  1.9593548e-03
 -8.3787972e-03
  4.5104600e-03
  4.4042571e-03
  5.5584963e-03
  5.1161004e-03
  9.9650379e-03
  1.1800752e-02
  8.2937358e-03
 -2.5462818e-03
  8.8348202e-03
  3.1193870e-01
 -4.1143778e-03
  7.6669310e-03
  3.3175822e-03
 -1.2416529e-03
 -1.2999487e-03
  1.3854582e-02
  1.1659640e-02
  2.7773865e-03
 -1.0369781e-02
  1.5177880e-02
  2.5204639e-03
  7.6885289e-03
 -8.1223771e-03
 -2.8101383e-03
  8.5948054e-03
 -6.8045990e-03
  3.3206928e-01
  7.7863541e-03
 -1.8238915e+00
 -2.9275212e-01
  1.0881536e-02
 -4.0151857e-02
 -3.8486239e-02
  2.5271374e-04
 -2.7984753e-04
  8.5876863e-03
  1.1587053e-02
  3.2672761e-03
 -1.0250670e-02
  6.4523290e-03
 -6.9313089e-04
  9.7625982e-03
 -2.0419698e-02
 -2.0868939e-03
  2.0895586e-03
 -7.0550684e-03
 -7.7168765e-03
 -2.9231617e-02
 -9.6256426e-03
  4.9032047e-03
  1.4459345e-03
  2.8954936e-02
 -8.3605410e-05
  2.1168124e-03
  5.1975953e-03
 -8.6021982e-03
 -2.1389935e-02
  7.2259093e-03
 -3.5648614e-03
 -7.9720197e-03
  1.1720438e-02
  1.9436964e-04
 -6.4062898e-04
  1.1691826e-02
 -7.8601740e-02
  6.8410984e-03
  2.6542074e-03
 -8.3783362e-03
 -2.6150071e-03
 -2.1323876e-03
  4.4211373e-02
  5.6091037e-02
 -6.8202883e-02
 -3.9196987e-02
 -4.3838718e-03
  1.2814309e-02
 -1.4191915e-01
 -2.9890758e-01
 -1.7035831e-02
 -3.6414213e-02
  1.4237079e-03
 -1.8242495e-02
 -2.2280989e-02
 -4.7644041e-02
 -5.0966018e-03
 -1.9226672e-02
 -8.1711560e-02
 -1.4394347e-02
 -5.2255141e-03
 -3.2383637e-03
 -6.5362118e-03
 -7.8021102e-03
  8.5380435e-01
 -4.6374216e-03
  1.9249246e-02
 -7.4258418e-04
  1.4379503e-02
  9.9166036e-03
  1.1733297e-02
 -8.2370080e-03
 -9.1979787e-02
 -8.8709304e-03
  3.2201770e-03
 -1.0942125e-02
  3.0808937e-02
 -3.0557455e-03
 -7.4698147e-04
  1.3342671e-03
  1.0913890e-02
  1.5844882e-02
  2.8564823e-03
 -3.4859437e-03
  6.1686081e-03
 -2.2996943e-01
 -7.5163299e-01
  4.8662478e-01
 -6.8473047e-01
 -9.5338672e-01
 -3.7966102e-02
  2.9836074e-03
 -5.0362116e-01
  3.6415312e-01
 -4.6573835e-03
 -2.6912851e-02
 -7.9598203e-03
  1.2874864e-01
  2.6354382e-02
  1.5280259e-01
  2.5372960e-02
  1.0888283e-01
  1.5592658e-03
 -4.3609634e-01
 -1.5051520e-01
  2.2896561e-03
 -7.5840444e-04
  2.0058084e-02
 -5.0327124e-04
 -2.1404757e-03
  3.1164853e-02
  2.0818006e-01
  1.6039038e-01
 -1.9518287e-01
  6.3872504e-01
 -1.4305628e-02
  1.1020777e-01
 -4.0501636e-04
 -1.4779678e-01
 -1.3022220e-01
 -8.1725761e-02
 -1.9574575e-01
  7.2022493e-04
 -9.1724945e-03
 -7.9707429e-02
  1.5506811e-02
  1.4847102e-02
 -3.2951932e-03
 -8.7078242e-03
 -1.6132003e-01
 -1.8278804e-02
 -5.9396611e-04
 -1.1621744e-01
 -5.5617850e-02
 -3.3943551e-03
 -8.1647178e-03
 -1.5478058e-02
  3.7369616e-03
 -9.2638368e-03
 -2.3610620e-02
  2.8241293e-03
  1.7134856e-03
 -1.4860033e-02
 -3.1299838e-01
  9.8327789e-03
 -9.6049709e-03
 -4.8346195e-02
 -3.7043397e-03
 -7.6615177e-03
 -1.9004022e-03
 -2.4949765e-02
 -2.6524402e-03
 -2.9812755e-02
 -8.8711260e-03
 -2.4532045e-03
  2.5586179e-03
  8.0465846e-02
  1.5184431e-01
  1.2903942e-01
  7.2447583e-05
 -4.9521288e-01
  5.0959447e-03
  3.6760166e-03
  4.0167142e-02
  2.7553782e-01
 -1.4795625e-04
 -2.0662170e-02
  2.9209638e-03
  8.3755068e-03
 -8.2931230e-03
  7.9286573e-03
 -1.9580722e-03
  5.4675322e-03
  1.2784508e-01
  6.2529601e-02
 -1.4940780e+00
 -1.2193183e+00
 -2.9564124e-01
  7.5847644e-01
  1.8589243e-02
 -2.4206412e-01
  2.4403262e-01
 -5.6133945e-02
  2.5891548e-02
  3.0736113e-01
  1.1130792e-02
 -6.1275739e-02
 -5.7053149e-02
  3.5142317e-02
  2.5048669e-02
  2.2535608e-03
  1.6686937e-01
 -2.4737371e-02
  1.1683735e-01
 -3.4103986e-02
 -1.5593827e-01
  1.1333098e-01
 -6.1728422e-02
  1.2526560e-01
  8.1754345e-03
  3.8395975e-02
  2.5850049e-01
  8.2188500e-03
  3.8492689e-03
 -1.3493492e-01
 -9.5430668e-03
  3.1295731e-03
  3.9655921e-01
  3.0954561e-01
  5.1856071e-02
 -1.0416823e-01
 -1.3367270e-02
  7.9397550e-03
 -5.4781836e-02
  7.6771080e-03
 -3.2222260e-02
  2.7715724e-03
  2.7288327e-02
 -1.0646427e-01
 -1.3742769e-02
  1.4076062e-02
 -7.4046291e-02
  2.2586918e-02
 -7.5012244e-02
  1.4465182e-01
 -1.9898997e-03
  2.4987150e-02
  2.1433249e-02
  7.3972908e-03
 -3.4769254e-03
  1.6000567e-03
 -1.7793853e-02
  5.1163589e-03
  1.4231312e-03
 -2.2471829e-03
  5.2823663e-02
  4.4256318e-02
 -3.1431906e-02
  3.9773628e-02
  1.6400784e-02
 -3.3735801e-03
  7.8471582e-03
  3.8404309e-04
 -2.3886794e-02
 -4.4876985e-02
  8.7159853e-03
 -8.2893021e-02
 -1.5598481e-02
  3.5365053e-02
  1.0246810e-02
  5.8945231e-03
 -7.7692256e-03
  2.8966293e-01
  3.9899568e-03
  6.0243988e-03
 -6.6497610e-03
 -5.6953463e-03
 -4.7449744e-03
  1.9090965e-02
  6.6709407e-03
 -3.0043423e-02
  7.6123469e-02
 -9.3731314e-01
 -7.9317111e-01
 -2.1100967e+00
  8.2371533e-01
  1.4790133e-01
  3.6224309e-01
 -1.7334953e-01
  2.9573217e-01
 -2.7742824e-01
 -4.7667384e-01
  3.6845291e-01
 -6.5404481e-01
  1.6551430e+00
 -6.9382340e-01
  1.5217588e-02
 -2.1120295e-01
 -6.8254000e-01
 -7.9866953e-02
  6.1753321e-01
  1.0453110e+00
 -4.2027742e-01
 -7.4867845e-01
 -5.4637110e-01
 -3.5700938e-01
 -1.1095775e+00
  1.0204159e-01
  3.8712028e-01
 -6.1996269e-01
  1.2010651e+00
  3.5044856e-02
 -8.1908339e-01
 -1.3790639e-02
  2.4340254e-01
 -3.8331407e-01
  1.3107243e-01
  2.0277515e-02
  6.0546421e-03
  3.9771330e-03
  2.7383000e-03
  7.1409650e-02
  3.6062472e-03
  1.0922624e-01
  3.0714355e-02
 -1.5583318e-01
  5.7126009e-01
  2.6991278e-01
 -8.3591707e-02
  6.0706984e-02
  2.3027699e-01
 -1.8555511e-03
 -1.5976875e-01
  1.1782133e-02
 -1.8694149e-02
 -2.6608878e-03
  4.8551336e-03
 -6.0199323e-04
 -2.5439671e-01
 -2.8904341e-04
  9.4227813e-02
  1.3520168e-02
  2.2774050e-03
  4.8875019e-01
  4.4729613e-02
 -2.8950637e-04
  2.5176009e-02
  1.1294097e+00
 -3.7591339e-03
 -8.9734145e-02
 -3.9476424e-01
  1.9203374e-02
 -5.9333440e-02
  1.6352995e-01
  3.7093920e-01
 -1.7809614e-03
  2.2611157e-03
 -1.0157205e-02
 -5.3237542e-03
 -2.0517004e-03
  7.3750980e-02
 -1.2043456e-05
  4.0222939e-02
  6.4690691e-01
 -2.2043840e-03
 -8.8912740e-02
 -3.4752999e-02
 -2.0487177e-01
 -6.8085805e-02
 -1.0899291e-01
 -6.9888316e-02
 -3.7682842e-02
 -5.2551776e-01
  3.3594511e-02
  1.5785379e-02
  3.3681381e-01
  7.8310736e-02
  8.4681951e-02
  1.3036432e+00
  1.9423601e-01
 -3.4350139e-04
  1.1484089e-01
  1.9722702e-01
  2.4886125e-01
 -5.9537236e-03
  5.4315049e-03
  3.1082749e-01
  5.5575787e-05
  7.5163506e-02
 -2.4495345e-02
  1.2703837e-02
  6.0313925e-02
  3.4575523e-03
  3.7284642e-01
  5.2441488e-04
  8.9392558e-02
 -2.0986449e-02
 -4.9270056e-02
 -1.0811046e-02
  2.2593436e-03
  3.4219003e-01
  3.4073681e-02
  3.3180006e-03
  4.8599303e-02
  3.5444889e-03
 -8.8175945e-03
  6.2899888e-02
  1.9889483e-03
 -3.2068931e-02
 -7.2458638e-03
  1.7515389e-02
 -1.6959786e-02
 -5.0527345e-02
 -1.5874514e-03
  2.5395919e-03
 -6.6001820e-03
 -1.0866034e-02
 -5.5491459e-03
  1.1242933e-02
 -8.7911887e-03
 -3.2801842e-03
 -7.2991606e-03
  3.5009449e-03
  7.3514739e-04
 -4.3118079e-03
  4.7804080e-03
  1.3441411e-02
  5.9762816e-03
 -1.3570935e-02
 -3.7110040e-03
  3.2590088e-03
  9.8991971e-03
 -2.3052670e-02
 -3.7306745e-02
 -1.2544333e-02
  1.7975554e-03
  4.8052990e-03
 -1.4025459e-02
 -6.2851310e-03
  9.3516801e-03
  3.5959973e-03
 -1.3643894e-03
  7.7471118e-03
 -1.2474827e-02
  3.6601129e-04
  5.8788825e-03
  3.4228964e-03
  1.0650328e-02
  4.1457284e-03
 -5.3651473e-03
  9.6133947e-03
  4.8311809e-03
  3.9301813e-04
 -8.3329864e-03
 -1.6744623e-02
 -2.6412146e-02
 -1.3257113e-02
  3.5856884e-02
  7.3355675e-02
 -1.4949151e+00
 -6.5629214e-01
  6.8392676e-01
  2.3446727e-01
 -1.4637364e+00
 -5.7370204e-01
 -1.2342750e-01
  2.6797571e-03
 -3.9628270e-01
 -7.3166415e-02
 -8.2365330e-03
 -8.7614777e-04
  5.1799465e-02
 -1.2915595e-02
  2.8214601e-03
  1.7668414e-03
 -1.2284689e-01
  5.4946385e-02
 -3.9139107e-01
  9.6446353e-01
  5.4626077e-01
 -4.1647527e-01
  6.0375971e-03
  1.8559984e+00
  3.5101557e-01
  5.7250756e-01
  2.0052156e-01
  3.3129963e-01
  4.8003820e-04
  8.6065773e-03
  3.1053779e-01
  1.2030397e-02
  3.4054566e-02
  1.5188825e-03
 -3.0974785e-02
  1.2674542e-02
 -4.9892083e-02
  1.2095303e-02
  2.2167549e-02
 -3.5972849e-01
  1.7957948e-03
 -5.4955357e-03
 -1.0387788e-01
 -1.6613357e-02
  3.7815079e-02
 -9.8932087e-03
 -3.6000842e-03
 -4.3791357e-02
 -8.2554035e-03
 -5.8204029e-02
 -1.2730627e-03
 -5.3413925e-03
 -6.6424743e-03
 -3.1060053e-03
  1.8203142e-04
 -1.3926988e-02
 -2.1956934e-02
  2.2969637e-03
 -2.9574584e-03
 -3.4135669e-03
  1.2777824e-02
  7.7629643e-03
  5.6230994e-03
 -2.2737635e-04
 -1.6655594e-03
  1.3886549e-02
 -4.7526823e-04
  5.2474174e-03
  6.8809884e-04
  1.2864309e-02
  5.6781527e-03
  1.0288777e-02
 -7.4883364e-03
  9.4317971e-04
 -1.4812942e-02
  5.4441779e-03
 -4.6784044e-03
  2.0485916e-03
 -6.7795943e-03
  5.6642510e-02
 -2.0911167e-03
 -7.1994970e-03
 -3.6554951e-03
  1.1820317e-02
  7.1306305e-04
  1.2604771e-02
  9.4116025e-02
 -3.4971139e-01
  3.6428631e-03
 -4.7238381e-03
 -1.6045637e-02
 -2.1188502e-04
  1.6631925e-03
  4.6192957e-03
  4.1497787e-03
  1.6514687e-03
 -3.3548374e-02
  9.7438712e-03
 -3.5327997e-03
 -8.3768191e-03
  8.2282610e-03
 -4.0152483e-03
 -4.2328341e-03
 -1.6551118e-02
 -4.1141859e-03
 -3.2750856e-02
 -5.1107286e-03
  2.0571100e-03
 -6.6362196e-03
  1.9981870e-03
 -2.3056520e-03
  1.5672595e-03
 -1.1607088e-02
  9.4416959e-04
  3.0488730e-04
 -5.2315965e-03
 -8.1466027e-03
  2.6146157e-03
  2.2705209e-02
 -4.0237255e-02
 -1.1856467e-02
 -9.3061142e-03
 -2.3835260e-02
  8.7533090e-03
  1.2469227e-02
 -2.5864253e-03
  2.0516422e-02
  5.3535020e-03
  1.1819782e-02
 -3.6043499e-04
  1.0416201e-02
  8.1148997e-02
  6.6909537e-02
  1.6025132e-03
 -7.6362088e-02
  2.3463902e-03
  3.2336143e-01
  7.4339487e-02
 -1.7593931e-02
  7.7716727e-03
  1.9595988e-02
 -5.2072308e-03
  8.2278863e-02
  4.3946415e-02
  1.0934226e-03
 -2.6497744e-02
  9.7624362e-03
  1.3984656e-01
  3.7507351e-02
  3.2506417e-02
 -1.6322330e-02
  5.5364933e-02
  2.8438555e-02
  2.0820925e-03
  7.2001733e-02
 -1.5745291e-02
  5.9223332e-02
 -1.4606589e-01
 -1.5058810e-02
 -5.5047171e-04
 -7.9780161e-02
  2.0393865e-01
  6.8774731e-03
 -1.8830314e-02
  2.7191885e-02
 -5.1274491e-03
  2.0256136e-02
  1.7377188e-04
 -3.4200696e-03
 -1.2312174e-01
 -8.4424447e-03
  2.3067945e-03
 -4.2643104e-02
 -4.1204423e-02
  1.0236732e-01
 -7.4792778e-01
 -1.0004388e-01
 -7.5488104e-03
 -5.1504213e-02
  2.8653266e-02
 -2.1586776e-01
 -9.0820380e-02
 -1.2343039e-04
  1.2737022e-02
 -4.9876296e-03
 -8.5857604e-03
 -2.1766105e-03
 -4.5737750e-03
  1.1950096e-02
 -1.8620001e-02
  7.2543815e-02
  2.1522528e-02
  3.9114472e-02
 -6.3361400e-03
 -7.5085666e-03
 -2.0610688e-03
  1.5271880e-03
  8.1791375e-03
  1.5578893e-03
 -3.4632516e-01
  3.3235000e-03
  4.9693664e-03
  7.7732999e-05
  4.4025229e-03
  9.3523003e-03
  1.2138152e-02
  8.0484746e-04
  2.8591058e-03
 -5.5179540e-03
  1.4343152e-03
 -6.0193394e-03
  8.2766386e-03
  1.4170283e-02
 -4.1184784e-03
 -1.5522895e-02
  1.4898763e-04
  1.0896724e-02
 -4.3278411e-03
 -1.7058561e+00
  6.0669050e-02
  4.9614030e-01
  3.1164080e-01
 -3.9375040e-01
  9.8272276e-01
 -1.7519698e-01
 -2.6276881e-01
 -7.4978107e-01
  1.1093629e-02
  1.9583380e-01
  1.2838793e-02
  7.8604333e-03
  2.5340191e-01
 -5.1016402e-03
 -1.0950056e-01
 -1.2363689e-01
  1.3483100e-01
  1.3600960e-02
  1.3807143e-01
  4.9648201e-01
  3.5397142e-01
  1.1348415e-01
  4.1211149e-01
  4.3022867e-02
 -2.5289756e-01
 -4.1944885e-01
  6.2114697e-02
 -5.4349130e-01
 -3.8428497e-02
  9.2950864e-03
 -2.2723316e-03
  1.4471227e-01
  9.5361229e-03
  1.3723731e-01
  4.5762341e-03
  9.5302453e-03
 -3.9640497e-03
 -7.2141862e-03
  1.4265085e-02
  3.5263553e-02
 -1.3525605e-01
  4.2601340e-03
 -3.2820560e-03
 -7.8964839e-03
 -4.7943997e-03
 -3.2384370e-03
  1.1160989e-02
  3.1013470e-03
 -1.2686613e-02
 -6.7783115e-03
  2.1519316e-03
  3.9190674e+00
 -1.7696435e-02
  5.7516836e-02
  3.5203628e-02
  2.9756112e-03
 -3.4977063e-03
 -3.1892671e-03
  9.8551493e-03
  3.7424830e-03
  4.6061059e-03
  8.6541371e-03
 -1.1397434e-02
  9.4006239e-03
  7.7992370e-03
 -1.9306645e-03
 -1.2737424e-02
  5.0508553e-01
  5.0633447e-04
 -3.9954120e-03
 -1.0609340e-02
  5.2337605e-03
  1.5920476e-04
  2.7078655e-01
  2.3039714e-03
  1.0468767e-02
  4.6004141e-03
  1.2585631e-02
 -1.2888070e-02
  3.6031620e-03
  5.7297731e-03
  1.3435969e-02
  1.0556669e-03
 -3.3499887e-03
  7.4533462e-03
  8.3062565e-03
 -1.4834244e-02
  2.0420222e-01
  6.0325885e-01
 -7.7253819e-01
  8.3990520e-01
 -6.2039431e-02
  1.1637848e-02
 -5.9128439e-01
  1.0846204e+00
  4.3814880e-01
 -1.6789392e-02
 -1.2866959e-03
  1.0272526e-01
  1.4855869e-01
 -2.8377539e-03
  7.4554570e-02
  6.9483020e-03
  1.9646781e-02
  1.2544416e-03
  5.9053723e-02
 -3.9478252e-03
  1.8921962e-01
 -3.8199592e-02
 -4.6072189e-02
  1.4069360e-01
 -1.3270362e-01
 -2.0150330e-02
 -6.2170807e-02
  3.4737139e-05
 -6.5469467e-03
 -7.9085008e-04
 -8.9121170e-02
 -2.9081253e-03
  6.8298411e-03
  7.8743063e-03
 -3.1048656e-02
  1.3327324e-03
  1.0685229e-02
  1.9394383e-02
 -4.3076342e-03
 -4.1525472e-02
 -3.3609103e-02
  3.7734681e-03
 -1.0555947e-01
 -4.4375584e-03
  4.5460839e-02
 -5.8688473e-02
 -8.5919887e-02
 -2.8295892e-01
 -1.5351496e-02
 -2.8774198e-02
 -3.9174828e-01
 -3.7880078e-02
 -7.2438619e-03
 -3.8434493e-03
  3.2615676e-03
  8.8064850e-04
 -6.2791253e-03
  1.3644917e-02
  1.0680208e-03
  2.4342351e-03
 -4.5863853e-04
 -6.5554865e-02
 -1.4236224e-02
 -4.1266397e-02
 -2.9925620e-02
 -7.4201608e-03
 -5.5964673e-03
 -3.5992928e-02
 -1.1739900e-02
  6.9761598e-03
  4.1546881e-02
  1.6097032e-01
  1.5705233e-03
  2.3325732e-02
  3.1756493e-03
  2.6818949e-03
 -6.9375234e-03
  4.2237259e-02
  2.3451899e-03
 -1.1672100e-02
 -3.4269390e-03
 -1.5999507e-02
  1.8149691e-02
  7.0392243e-03
  3.1332714e-03
 -4.7416738e-03
 -7.0467456e-03
 -1.9062356e-03
 -1.0298726e-03
 -5.3840093e-03
 -8.4779039e-03
 -3.0255878e-02
  9.9970503e-03
  4.6218922e-03
 -6.1529558e-03
  7.2403383e-03
 -1.1307529e-02
 -5.2435119e-03
 -4.6504675e-03
 -5.9963664e-04
 -7.4115740e-03
  3.4395065e-03
  9.2822900e-03
 -1.2132729e-03
 -5.6585758e-03
  1.4754754e-02
  1.9130114e-02
 -1.0920051e-02
 -8.8924915e-03
 -2.6832335e-05
  8.3082449e-03
 -2.8820974e-03
  4.0184599e-03
  1.6543981e-02
 -1.0365554e-02
 -4.8972596e-04
  2.1747295e-03
 -1.1272936e-02
  3.1584194e-03
  1.5274854e-03
  7.7620568e-03
 -1.8547408e-03
 -6.3030622e-03
 -4.6732789e-04
 -4.5430092e-03
 -3.2860008e-03
  8.5868677e-03
 -6.8060450e-02
  1.7995981e-02
 -2.3217285e-03
  3.1413182e-03
  4.1267052e-03
 -5.2715011e-02
  2.2282954e-01
 -1.9535020e-02
  4.4635143e-03
  1.2331454e-02
 -4.5111021e-01
 -7.3140705e-01
 -9.3448669e-01
  3.2985267e-01
 -1.8247699e-03
 -1.2583643e-01
  3.2622986e-02
  1.2375623e-01
  4.3384698e-03
 -1.0925665e-02
  4.2131934e-02
  8.4343636e-03
 -1.3537805e-01
  5.5492375e-02
  7.7116740e-04
 -2.3117125e-02
  3.9184947e-02
 -2.5018045e-01
 -4.1280363e-02
 -4.3822983e-01
 -1.0889339e-02
 -4.0919021e-01
 -2.4684119e-01
 -4.7030341e-02
 -8.3743848e-02
 -2.0766631e-02
 -2.8981090e-02
  1.2113590e-03
 -7.1422562e-02
 -4.6551038e-02
 -3.3439480e-02
  1.4196210e-02
  6.0847928e-03
  2.2155384e-02
 -1.2507129e-01
 -7.4045330e-02
  4.9434092e-02
 -7.6537929e-02
 -1.0400135e-02
 -1.5056667e-01
 -5.5734634e-01
 -6.3180488e-01
  1.2322952e-01
  6.9638437e-01
 -1.1466283e-01
  6.8877411e-01
  1.1588901e-01
 -2.4113348e-01
  1.8927256e-02
  3.1972900e-02
 -9.2312647e-04
  1.3315576e-02
  2.0215632e-02
 -1.5357070e-02
 -7.7389251e-03
 -1.0763666e-02
  2.4883643e-02
 -2.6753289e-03
 -2.1360618e-01
 -1.6112085e-02
 -2.8275622e-02
  2.2119949e-02
  6.3038971e-03
  3.4054551e-01
 -7.6467884e-03
  6.0509939e-02
  1.8751551e-01
 -2.2844134e-03
 -5.9338972e-02
 -3.1531081e-03
 -5.6003383e-03
  1.1655807e-03
  3.1504646e-02
  1.8308790e-02
 -4.5987619e-03
 -8.1935432e-06
 -1.1188973e-02
 -1.4310178e-03
  1.7040156e-02
 -1.0713166e-02
 -3.8629030e-03
  1.4953192e-02
  3.6210097e-02
  1.7463576e-02
 -1.9625179e-02
  5.5903441e-04
  1.2995126e-02
 -3.3067790e-01
 -1.0348761e+00
  5.9984867e-02
  1.3519311e-01
 -1.1785129e-01
  2.5346713e-02
  1.2629641e-02
 -1.0062177e-03
 -1.0729916e-03
 -9.0221944e-04
  4.3787649e-03
  1.9959629e-02
 -1.4519888e-02
  2.2713045e-02
 -2.7333168e-02
  1.3063150e-02
 -2.6506807e-03
 -6.0653654e-03
 -3.4225041e-03
  4.9772034e-03
  4.9160831e-03
  2.6574950e-03
 -1.6399452e-02
 -1.8660396e-03
  1.3216392e-03
 -6.4625719e-04
 -1.5141650e-03
  5.2277595e-03
  1.8834323e-02
  5.3934334e-04
 -1.8924534e-03
  5.1575638e-03
  3.2226196e-03
 -1.9355948e-03
 -1.3735297e-04
 -1.0029335e-02
 -1.5959229e-02
 -6.4835250e-03
  7.7696526e-03
  5.3351186e-03
 -1.5795369e-01
  3.9469859e-01
 -1.4166746e-01
 -1.2222527e-02
  1.2751237e-02
 -5.6455184e-02
  9.0953335e-03
 -7.0461701e-03
  4.2578363e-04
 -2.9553853e-02
  1.7278317e-03
 -3.8495197e-04
 -9.5728971e-03
 -1.2312747e-01
 -5.0260082e-02
  1.0325829e-01
 -6.3484505e-02
 -1.6259174e-01
 -2.4295995e-01
 -2.5160151e-02
  2.5361717e-02
 -1.3048638e-02
 -2.7820868e-02
  1.5820557e-02
 -1.1295574e-02
 -3.9905110e-01
  1.9868524e-01
  3.2361090e-02
 -2.7932781e-03
  3.3947013e-02
 -1.0811823e-02
 -5.9604071e-02
 -1.6163079e-02
  6.7677470e-03
  1.2375382e-03
  1.9890135e-02
 -1.0665071e-02
  4.6686428e-03
  9.4383361e-04
  1.0897405e-02
  6.3180593e-03
  4.7292891e-03
  1.0083548e-03
  1.1227172e-01
  6.5342718e-01
 -6.4424706e-01
 -6.4857495e-01
 -9.0053332e-01
  1.0212384e+00
 -1.5505409e-01
 -1.3398604e-02
 -1.6511775e+00
 -1.0231993e+00
  3.5146113e-02
  8.1845902e-02
  2.5730338e-02
  2.6017410e-01
  4.9775195e-01
  3.8895573e-02
  4.2851539e-03
 -6.4934127e-02
  4.6628848e-02
  2.0855713e-01
 -1.9948675e-01
 -9.0810163e-03
 -6.5815473e-01
 -5.0443780e-02
 -1.3693608e-01
  1.6311317e-04
 -4.1072765e-01
  1.5435930e-01
 -3.5207352e-01
 -2.1703374e-02
  2.8138709e-01
 -6.6061586e-02
  1.4973645e-01
 -9.3384050e-02
 -9.6561164e-02
  1.3206871e-02
 -2.9186398e-01
 -2.4337251e-01
  7.9237769e-04
  1.6426004e-02
  2.2274975e-03
 -1.3814677e-02
  1.8389015e-02
 -5.1709976e-02
 -1.0002829e-02
 -4.0097740e-03
  2.7695361e-01
  2.9624943e-03
 -2.2294171e-01
 -3.3844215e-01
  1.7429577e-01
  1.7788676e+00
  2.1745341e-02
 -1.8013740e+00
  1.2142806e-01
  7.1958870e-01
 -5.6488849e-02
  3.5738703e-03
  8.3851703e-03
 -3.1347205e-03
  1.8661618e-01
 -1.3930080e-02
  1.9417439e-01
 -1.5991331e-03
  1.0921567e-02
 -1.0513392e-02
  5.9901726e-02
 -3.0755196e-02
  1.8104439e-03
  1.7161760e-02
  3.1090032e-02
 -9.9581210e-03
 -1.0564383e-01
  2.2920221e-03
 -3.0473633e-02
 -1.1551692e-03
  7.5691855e-01
 -8.1587374e-02
  1.3127241e-01
 -6.7583501e-04
  2.4134086e-01
  1.6482171e-02
 -5.2276951e-01
 -1.3323149e-01
 -8.7335026e-03
 -4.8837647e-01
 -1.9437641e-01
 -8.2916483e-02
  1.3156329e-02
  3.8855348e-02
 -9.2274606e-02
  3.9060509e-01
 -6.0661850e-03
  7.6365925e-02
  2.4563203e-02
  3.9546747e-02
  7.5977993e-01
  1.4173458e-02
  3.3432790e-03
 -3.8154832e-01
 -5.0579602e-01
  3.8291669e-01
 -3.8572416e-01
  2.5702664e-01
 -4.3682587e-01
  9.1251487e-01
  4.5257413e-01
 -1.2269023e-01
 -5.1396891e-02
 -5.9899818e-02
  7.7584498e-03
  1.6892534e-02
 -3.6988118e-01
  1.0992529e-01
  3.7610069e-02
  5.3403609e-02
 -9.3407236e-02
  8.8366993e-02
 -6.6743356e-01
  2.0652458e-02
 -7.3713183e-01
 -1.8254742e-01
  7.2389323e-01
 -1.3712358e-01
 -4.9900579e-01
  9.8019980e-02
 -3.1029472e-01
  3.7845325e-01
  2.5012046e-01
  1.1463641e-02
  2.6166293e-01
 -6.9914088e-02
 -1.4328088e-01
  2.7398157e-01
  1.2017550e-01
 -1.5949696e+00
  1.9037013e-01
  9.8630059e-01
 -1.2013973e-01
  2.8062029e-02
  8.8488448e-01
 -7.2646052e-01
  5.9993818e-02
 -2.7722687e-01
  3.6934605e-01
 -2.4271596e-02
 -5.9445775e-03
 -6.2349136e-03
 -1.3606179e-03
  4.9744798e-03
 -6.4596455e-03
 -1.7251329e-03
 -3.7993085e-02
 -2.1983311e-03
 -1.3591838e-04
 -6.3481089e-03
  8.2050515e-03
 -1.4713476e-03
  1.3049001e-02
  9.8792207e-04
  2.4116475e-03
 -2.6366352e-03
  4.5977969e-02
  1.1674323e-02
  1.7135592e-02
  3.8260348e-02
  7.3945713e-03
 -5.0453646e-03
  2.2493603e-02
 -8.4995888e-03
 -1.5250170e-02
  4.2646551e-03
  1.8863048e-02
  8.0927797e-03
  3.6270497e-03
 -3.3013015e-03
 -8.5350228e-03
  1.3759531e-03
  1.0442032e-02
  5.7296297e-03
  3.7586142e-05
  7.6531228e-03
  6.9569219e-03
  5.7080993e-03
  8.0304161e-02
 -1.7255945e-02
 -8.6044315e-03
 -1.8956540e-03
  3.0875823e-02
 -8.8266164e-02
 -1.0151536e+00
  1.4068039e-01
  5.6383112e-03
  2.2469141e-02
 -1.1479298e-02
  1.6743296e-01
  3.8797933e-01
  4.0870670e-02
  1.4985746e-02
 -1.3823781e-02
  6.8898982e-04
 -3.1844531e-03
 -2.0895809e-02
  2.4072573e-02
  2.0178925e-02
 -7.4171595e-02
 -3.4924883e-02
  9.6521489e-03
  1.3144301e-02
  4.2652618e-03
 -1.1116726e-02
 -1.0237605e-01
  1.2980814e-02
  5.6431550e-03
 -8.7091085e-03
 -7.8074425e-03
  4.7051990e-03
  3.9833053e-03
 -3.1208359e-03
 -7.2268392e-03
 -8.2336729e-03
  9.6900929e-03
 -1.2949206e-02
 -2.7451618e-03
 -1.3302888e-02
 -3.2456142e-03
  1.4229768e-03
  2.0268377e-02
 -5.9989473e-04
  5.7536918e-03
  1.6407708e-03
 -5.4182252e-03
 -7.8178924e-03
  3.1883062e-03
 -3.6589496e-02
  5.0232084e-03
  5.5929709e-02
  4.6503367e-03
  1.3899660e-02
  1.7721759e-02
 -3.5892623e-03
 -1.0306320e-01
 -3.7067960e-04
  4.6225404e-03
 -8.0365380e-03
 -1.1591909e-02
  1.5269069e-02
  2.0887466e-02
  2.3160746e-02
  1.7019033e-02
  3.2541892e-03
 -4.5248587e-03
  1.6038800e-02
 -2.5487453e-02
 -1.2381292e-01
  6.3002924e-05
 -5.5831450e-04
  3.4309663e-03
 -3.2638229e-02
 -2.8046967e-02
 -5.4629976e-03
  2.0520624e-02
 -2.5545382e-03
 -4.6478854e-03
 -9.9535882e-03
  4.4091833e-03
 -1.8005848e-02
 -1.4779625e+00
  1.3514814e-02
 -2.5348072e-03
 -8.6381221e-03
  1.5424515e-02
 -3.4063682e-03
 -1.5140225e-03
 -3.2878499e-03
 -3.7781924e-02
  1.7863683e-02
  1.0863313e-03
  3.2805766e-03
 -3.1011179e-05
 -1.6696934e-02
 -1.7933883e-02
 -1.8708196e-02
 -4.8530530e-04
  7.3595806e-03
 -1.6990412e-02
 -9.6528872e-04
  1.1405284e-03
  8.4840003e-03
 -4.9555190e-02
 -4.2424213e-02
 -1.6987231e-04
  5.7642865e-03
 -1.4109834e-03
 -2.0559356e-02
 -4.4415141e-03
  9.3195140e-03
  2.0954213e-03
  1.6231538e-03
  2.5585440e-03
  1.3234565e-02
  4.0555247e-03
  4.3053642e-01
 -2.6564016e-03
 -3.0255055e-02
 -1.3839496e-02
 -6.3308049e-03
 -2.0328045e-03
  3.7234838e-03
 -6.0121827e-03
  8.6407885e-03
 -2.1130033e-02
  3.4946043e-02
 -3.7681158e-03
  9.8055899e-03
  1.0669800e-02
  2.1426335e-03
  4.8586894e-03
  1.7314655e-03
  3.5908916e-03
  6.3797198e-03
  3.0329341e-02
  4.9476796e-01
 -3.3638895e-02
 -4.7338676e-01
  6.0989714e-01
  1.6342726e-01
 -3.6701766e-01
  4.4959217e-02
 -5.4137021e-01
  2.8164785e-03
 -1.0516602e-02
  6.6369115e-03
 -2.7872777e-01
  1.2046579e-01
 -6.2540293e-01
 -3.0328891e-01
  3.9118630e-01
  3.8165325e-01
  1.9045919e-01
 -2.7128029e-01
  9.2296954e-03
  1.8033304e-04
  5.4294419e-01
  1.5126000e-03
  2.3552248e-02
 -1.6190736e-01
  5.5223638e-01
  2.2463399e-01
  7.6667622e-02
  7.9660699e-02
  3.1684567e-03
 -7.4374815e-03
 -1.8023950e-01
 -9.6232677e-04
 -1.8566393e-03
  2.3159903e-02
  1.5496564e-01
  4.6468116e-03
  6.7662401e-04
 -2.2367787e-02
  8.5130194e-04
 -1.0368863e-02
 -1.2567157e-02
  1.1006229e-01
 -3.9667781e-03
  5.1002195e-03
 -7.3538972e-03
  2.9830101e-03
  1.0468508e-04
  3.7632312e-04
  4.1277339e-03
 -7.0454353e-03
  1.2734192e-02
  2.1314388e-03
 -1.6506247e-03
  3.7534098e-04
  8.8145512e-01
 -3.1520040e-03
  2.8098933e-02
  8.6016109e-04
 -4.3148971e-03
  8.4199623e-04
 -1.6998053e-03
  5.7009966e-03
  6.1915852e-03
 -4.6017631e-03
  1.0674504e-03
 -3.1551193e-02
 -1.1024141e-02
 -2.9490916e-03
  1.5294680e-04
 -2.5551589e-03
 -1.7474087e-02
 -1.2318975e-02
 -4.8809806e-03
  7.1252622e-03
  1.8724127e-02
  8.7111052e-03
  2.2198241e-02
  5.2065350e-04
 -4.3113960e-04
 -3.5977627e-03
  2.5891745e-04
  1.4224648e-04
  4.6019950e-03
  3.9174822e-03
  2.9335264e-03
  2.5677186e-02
 -4.2122874e-02
  1.7357345e-01
 -5.6206596e-01
 -1.0747201e+00
  1.3176303e-01
  1.3937641e+00
  2.8215906e-01
  3.6687464e-02
  5.4003870e-01
  2.1192639e-01
  2.5048538e-04
  4.3175090e-02
  1.0631588e+00
  1.0740065e-02
 -4.5038915e-01
  2.7176622e-01
  4.3222837e-02
  1.9238369e-01
  5.4228741e-01
  2.8155869e-02
  2.9704493e-01
  8.2167480e-03
 -2.1838915e-02
  2.8538720e-03
 -4.8391599e-02
 -6.0680364e-03
  2.6491067e-01
  8.5286200e-01
  8.1063050e-01
  3.1138953e-02
 -9.6169025e-02
  3.0173552e-01
 -2.2689679e-01
  2.6244348e-01
  4.2548086e-02
  4.4488475e-01
 -1.6422150e-01
  3.9993431e-02
  5.5538878e-02
 -3.3116840e-02
 -8.0234371e-02
 -1.9924960e-01
  1.6995035e-01
  1.1108067e-01
  1.9150659e-03
 -4.3603587e-03
 -3.1045917e-03
  1.5737858e-02
  1.9826071e-01
 -2.9278272e-03
 -5.5318852e-03
 -2.4938330e-03
  9.6305553e-03
 -5.7144794e-03
  2.3930890e-03
 -4.4237855e-03
  7.9969820e-03
 -6.5700612e-03
 -8.6960169e-03
  7.8187073e-03
  1.5109877e-02
 -3.6842830e-02
  1.5648473e-02
 -3.3447477e-03
  7.1759135e-03
 -1.4885926e-03
  3.4989333e-03
  2.2975462e-02
 -1.5675211e-02
  5.1177153e-03
  2.0821987e-02
 -1.8650522e-03
 -1.3371242e-02
  4.6975836e-03
  2.1202277e-02
 -3.2170579e-02
  1.4291976e-02
  3.1905305e-03
  8.0238264e-03
  1.1851555e-01
  1.8012789e-01
  3.3930731e-03
 -5.3252163e-03
 -1.7025920e-03
  3.6305939e-03
  9.2303678e-03
 -2.1673854e-02
 -7.4973414e-03
 -1.1106946e-02
 -3.3415431e-01
 -2.3885456e-01
  1.0219654e-01
 -9.2640091e-03
 -2.4937896e-01
 -6.0733151e-02
 -3.3860046e-01
 -3.1126726e-01
  1.1563477e-01
 -1.4274590e-01
  5.9285886e-03
  2.1943817e-02
 -1.7443003e-02
  1.7224556e-01
  5.7084013e-02
 -8.2633772e-04
  1.4523102e-04
 -6.8145759e-02
  1.1485893e-01
 -1.6181150e-03
 -8.1293672e-02
  5.0420299e-02
 -3.7356146e-02
 -2.2973021e-02
  1.9468328e-03
  1.1901428e-02
 -2.0104674e-01
  8.9378748e-03
 -2.8476862e-02
 -5.1073488e-03
  1.7346332e-03
 -5.5360030e-02
 -1.5712645e-02
  9.6451159e-04
 -2.9700419e-02
 -1.8976673e-01
 -7.3433518e-03
 -4.5998637e-03
  2.3573864e-02
  1.0754746e-02
  2.5998708e-02
 -5.7015503e-03
 -4.5481507e-02
  3.1077918e-01
 -1.1229072e-01
 -5.4976708e-01
 -3.1509793e-01
  6.2423670e-01
 -4.0880805e-01
 -6.5107989e-01
  1.3662239e-02
 -6.5655746e-02
 -2.5371565e-03
 -1.2779400e-02
  1.5679830e+00
 -6.8387467e-01
  1.1941707e-01
  2.4714319e-01
  3.8268848e-04
  2.5531837e-01
  2.2444057e-01
 -1.5024966e-02
 -4.9373865e-02
 -2.9420590e-02
  5.3949840e-04
 -1.6468504e-01
 -7.5313270e-01
  3.2523274e-01
  4.1763788e-01
 -2.3955163e-01
  4.4883206e-01
 -5.7497215e-01
 -5.1431082e-02
 -1.6638540e-02
  1.0436235e-01
 -2.2835858e-01
  2.0808758e-01
  1.4825718e-02
 -8.6069778e-03
 -4.5555718e-02
 -2.1178599e-03
  2.5970960e-04
 -1.8658622e-01
 -4.4846185e-04
 -3.1015817e-02
  3.4590650e-02
  6.7160549e-03
 -1.5829785e-01
  2.4026354e-01
  1.1006117e-01
 -2.6722850e-02
  1.4921929e-03
  2.3224145e-01
  9.4962329e-02
  1.4450539e-02
  9.9558115e-02
  5.7554138e-03
  1.0419168e-03
  3.3729222e-01
 -1.4361270e-01
  1.3853247e-01
  1.2978648e-01
  6.5716007e-03
  6.9139907e-03
  8.7157793e-02
  1.0485699e-01
 -8.9871816e-02
  7.8548258e-03
  1.7281538e-03
 -3.8816996e-02
 -8.8225365e-02
 -6.8016117e-03
 -9.6275002e-02
 -2.0340420e-03
  3.3531651e-01
  5.4943584e-02
  2.8477833e-02
 -5.9101675e-02
  2.3461556e-02
  9.6620421e-04
  5.1161833e-03
 -2.5033073e-03
 -4.7953208e-03
  1.1801171e-02
  1.2803800e-02
  3.0628432e-02
 -3.4237068e-02
 -7.6205782e-03
 -2.9017592e-02
  3.6545112e-03
  1.0135367e-01
 -5.5527043e-01
 -2.5849769e-01
  6.4946815e-02
 -3.1784892e-01
 -7.7566427e-01
 -2.7253157e-02
 -4.7002951e-04
  3.6748108e-01
  2.8415725e-01
 -1.0039160e-01
 -9.9701546e-03
 -1.6453385e-02
  1.9733115e-01
 -3.2480723e-01
 -4.2324641e-01
 -5.5721109e-03
 -6.9612167e-03
 -2.1149632e-01
  1.1700687e-03
  2.2051056e-01
 -1.2107140e-03
  2.2813899e-02
  1.5333240e-01
  4.4036373e-01
  1.8891940e-03
  7.2833458e-03
  1.3913261e-02
 -2.6456037e-01
  1.0273944e-03
 -5.0825300e-03
  6.6407975e-03
 -3.8783394e-02
  1.2218313e-01
  1.2184083e-03
 -5.4698285e-02
  1.0383596e-02
  2.1362262e-02
  1.6026635e-04
 -3.1360432e-03
  8.6244894e-03
  1.9833630e-02
  6.5710270e-03
 -1.6623514e-04
 -3.8411938e-02
 -1.4625703e-01
 -5.1371455e-02
  1.2843090e-01
  4.5179081e-04
  9.0760291e-03
  2.3131220e+00
 -2.9497796e-01
  8.3403908e-02
 -8.1628031e-01
  1.7817312e-01
 -4.9039774e-02
  2.2511427e-01
 -2.7893067e-03
  9.5093869e-02
  1.0126377e+00
  1.7381343e-01
  7.0475917e-03
  9.1079697e-02
  8.9779890e-01
  3.2886206e-03
 -1.3657400e-02
 -1.9219112e-01
  3.2739853e-04
 -3.1307037e-03
  5.9287283e-03
  2.5201836e-03
  1.8860681e-02
  2.5591673e-03
  1.4562801e-02
  1.0148308e-03
 -2.7650256e-02
  7.2575156e-03
 -3.6973808e-02
  2.5608353e-03
  1.3242171e-02
 -8.1323762e-04
 -1.4635342e-01
  1.1135970e-02
 -1.8218918e-02
 -3.2274327e-03
  1.7960755e-02
 -2.1917377e-02
  4.5388876e-03
 -1.1859171e-04
  4.1531553e+00
 -5.5712771e-01
 -1.3491476e+00
 -9.3025309e-01
  1.3528918e-01
 -2.0893347e-01
 -8.6631924e-02
  3.7403449e-01
 -4.4068098e-02
  2.2614812e-03
  2.2445758e-01
 -7.6276976e-01
 -8.2451336e-02
 -1.5630638e-02
  4.0687528e-04
 -5.5545617e-02
 -3.5406804e-01
 -4.3597552e-03
 -1.6744609e-01
  5.4454883e-03
  5.3296061e-03
  5.9838900e-03
 -9.4748431e-01
 -4.5673557e-02
  1.8292662e-02
 -6.5583903e-03
 -3.5706833e-01
  1.1657149e-02
 -1.8708082e-02
 -2.0909593e-02
  2.5750692e-03
  2.6587266e-02
 -1.6233897e-02
 -3.7876912e-03
  4.1989591e-03
 -3.8750386e-03
  8.5597225e-02
  3.1662537e-03
  1.7397467e-02
 -3.9764047e-03
 -1.4060541e-02
  3.0538505e-03
 -3.2127053e-01
 -3.5240438e-03
 -7.7933143e-03
  3.1257761e-03
  5.3748395e-03
  1.5534063e-02
 -6.3800300e-04
  1.0029184e-02
 -4.4609946e-03
  2.7450540e-03
 -4.1391365e-03
  2.7996493e-03
  8.1271473e-03
 -1.6609855e-03
 -5.6412807e-03
 -2.7976301e-02
 -2.4682144e-03
 -1.2314824e+00
 -1.3175185e-04
 -1.5136092e-03
 -7.1700504e-03
 -1.2262926e-02
  7.5740339e-03
 -4.6215104e-03
 -1.2936641e-03
 -2.9261380e-03
 -2.3896815e-03
  2.7842328e-03
  5.1874919e-03
 -1.3100441e-02
  8.1660785e-04
 -8.8937152e-03
 -1.6346207e-02
 -4.0721172e-03
 -7.1392590e-03
  2.4135171e-03
  5.8584679e-03
  3.2699299e-03
 -3.0373735e-03
 -2.6060891e-04
 -1.3349455e-02
 -7.7581359e-03
 -9.3894107e-03
  1.2069967e-02
  3.9726058e-03
 -6.0620299e-03
 -1.3563517e-02
  3.7588142e-03
  3.5455332e-03
  6.7990151e-04
 -2.3632400e-02
 -6.9729201e-03
 -2.2103519e-03
  1.3294409e-02
 -1.8698575e-02
 -5.1927022e-03
  7.4161822e-03
  6.3503352e-03
  2.2527941e-03
  1.9051306e-02
 -3.9322772e-03
 -7.4626189e-03
  2.0727675e-02
 -4.4632121e-03
 -9.9408310e-03
 -7.9608308e-03
  1.4926390e-01
  1.8199707e-03
 -1.3485247e-02
 -9.3830898e-03
  5.4810755e-03
  8.5141137e-04
 -8.2159508e-04
  3.1199693e-03
 -3.6376906e-03
 -2.3513327e-03
 -1.4516977e-03
 -3.3016722e-03
  2.0516652e-03
  3.6438771e-02
  1.9761035e-05
  4.4858647e-03
  3.4965570e-03
  3.2456782e-02
  8.2285218e-03
  1.9873551e-01
  1.6658338e-02
 -1.5637614e-03
 -8.6040897e-03
  9.3432274e-03
 -3.1078879e-02
  1.1483803e-02
 -7.5893098e-04
 -1.6234592e-03
 -2.4196925e-06
 -1.2710577e-02
  1.7619245e-02
  3.7806469e-04
 -3.2873133e-03
  2.6335607e-03
 -7.5184628e-03
  9.3458337e-04
 -4.7877640e-03
 -7.6110475e-04
  3.5646388e-03
 -3.9873645e-03
 -1.5594830e-03
 -6.8875524e-04
 -5.4449792e-04
  8.3036702e-03
 -3.0610892e-03
  2.2487815e-02
 -4.6668090e-03
 -3.9463760e-03
  9.8138321e-03
 -1.2799812e-02
  7.8889611e-04
  1.8105524e-02
  1.7125057e-03
 -1.5995946e-03
  8.1899446e-03
 -1.0432350e-02
  1.4883059e-04
  5.1950468e-03
  1.9576812e-02
 -4.5007286e-03
  6.2471717e-03
  3.7095028e-03
 -4.4896184e-03
  1.2214868e-02
  6.7681940e-03
  1.9066385e-05
  6.6842586e-03
  4.1806865e-03
 -2.0573919e-01
 -1.3993524e-03
 -1.3661619e-03
  2.4209075e-01
 -2.6986510e-01
 -2.6058401e-03
 -7.9894736e-02
  1.3792972e-01
  1.7080010e-01
  2.4669653e-02
  4.6043432e-01
 -2.4858586e-02
  7.1959100e-03
 -9.0055637e-02
  1.7952563e-02
  2.5219603e-03
 -4.4151951e-02
 -2.3108440e-02
 -2.7610198e-01
  4.6287283e-02
  1.0933011e-02
  6.3483033e-04
 -3.4807101e-02
 -3.9487344e-04
 -2.3327572e-02
  4.4699490e-02
 -7.0704125e-02
 -3.5707988e-02
  1.2620144e-02
 -9.1658004e-02
  1.5115837e-02
 -6.8181800e-03
 -1.3301016e-01
 -2.6982518e-02
  1.0022068e-02
  2.4587547e-03
 -7.7119684e-03
 -2.3014897e-02
  2.0949203e-03
  1.0240506e-01
  6.6787456e-03
  4.6739839e-02
 -2.3832604e-02
 -2.3271558e-01
 -3.4061377e-04
 -1.5140335e-01
  4.5395931e-03
 -5.2720825e-03
 -3.2091124e-03
  1.1266890e-02
  6.6327555e-03
  1.8308649e-02
  2.7289256e-03
 -1.1765008e-03
 -4.0098247e-03
 -1.9511133e-02
 -1.9651959e-03
  5.5745947e-03
 -6.7489445e-03
  1.0015276e-02
 -8.4908940e-03
  7.5758141e-03
  1.8797191e-02
 -1.1132555e-01
 -7.8072939e-03
 -9.3807094e-03
  1.7504830e-02
  7.4713454e-03
  9.9017788e-03
 -6.2688353e-04
  1.0560494e-02
 -2.8127572e-03
  5.5345558e-03
  3.6588262e-03
  7.6866767e-04
 -1.0969355e-02
 -9.0830764e-03
 -3.7453424e-02
  9.4887223e-03
 -1.5482563e-03
 -1.4033984e-02
 -5.6031562e-02
 -6.4037307e-03
 -3.4306562e-03
 -4.0800506e-03
  2.0697899e-03
  9.0998886e-03
 -1.2290679e-02
 -3.0306034e-02
 -4.1516195e-03
  1.2917357e-03
  6.5107276e-03
 -6.6970281e-02
 -6.0436543e-02
 -8.4786182e-03
  1.2245554e-01
 -1.4012978e-02
  1.8915811e-03
 -4.6671219e-03
  3.0097665e-02
  1.0781650e-02
  1.6363442e-02
 -1.3371891e-01
  9.4501236e-03
  9.4658248e-03
  1.4372159e-02
 -8.4352195e-03
 -1.9053165e-02
 -4.5699948e-03
 -1.0060988e-02
  9.3253208e-03
  9.9551115e-05
 -1.4819897e-02
 -4.9644434e-03
 -6.5323431e-03
 -3.6892571e-02
 -4.2232309e-02
 -1.6194792e-02
  2.9762443e-03
  3.8819362e-03
  3.5759177e-02
 -5.9990156e-03
 -7.2338502e-03
  1.3663526e-02
  1.2604817e-02
 -4.1712369e-03
 -5.3411466e-04
  3.9590192e-03
  1.6553095e-04
 -1.0387185e-02
 -2.1945380e-02
  9.0325037e-03
  7.3096126e-01
  6.7679495e-01
 -3.5431385e-01
 -9.5833480e-01
 -1.4141434e-01
 -1.5509492e+00
  6.3754115e-03
 -9.5325387e-01
  1.7479360e+00
  1.3246958e-03
  1.7439367e-02
 -3.3605704e-01
  6.6554800e-02
 -1.8609515e-01
 -4.6032373e-02
  1.5187096e-03
 -2.4201104e-02
 -1.0467506e-01
 -7.3333704e-03
  7.5980136e-03
  3.2389991e-02
  2.3399214e-03
 -2.4750151e-01
  7.6698279e-03
 -1.2538842e-02
 -5.7305232e-02
 -4.9266201e-03
 -2.1891005e-02
 -2.7580518e-02
 -2.7083980e-02
  1.6740409e-01
  1.0482165e-02
  1.1963343e-01
 -2.3406274e-03
 -7.2073494e-03
 -1.1446638e-02
  8.2826011e-02
 -7.8829965e-03
 -1.4499256e-03
  1.0855798e-02
  2.1675429e-03
  1.4723604e-02
 -2.3431676e-03
 -1.4060199e-03
 -5.7281554e-01
  7.6343495e-01
 -2.8898865e-01
 -3.5970859e-02
 -1.3995250e-01
  2.0146018e-03
 -7.5378427e-03
  4.2475235e-01
  8.6024832e-03
 -1.8018320e-01
  4.4305727e-02
 -3.8782939e-01
  5.8142507e-01
 -5.8354992e-01
 -7.5062823e-01
  4.1170502e-01
  3.4941970e-03
 -3.0988041e-01
  5.7811312e-02
  1.7587632e-01
  2.4891403e-02
 -9.1415539e-02
  4.4504445e-02
  7.6809514e-01
 -1.4003888e-01
  1.8634031e-02
  2.7701443e-03
 -3.6640596e-01
 -2.7862671e-01
  2.9505667e-01
 -3.3539265e-01
 -1.5014252e-02
  6.0632389e-02
 -1.2029340e-02
 -4.5111654e-03
 -3.2369555e-03
  7.6474231e-03
 -3.6538970e-02
  4.3293778e-03
  7.0569217e-02
 -2.2639115e-03
  9.8255418e-02
 -3.4128997e-02
 -4.9308211e-02
 -4.6025524e-01
  3.0810577e-03
  5.7049780e-03
  7.8898156e-04
 -3.5233372e-03
  6.3868631e-03
 -3.7101442e-03
  1.5559425e-03
  1.6935492e-01
  1.1950359e-04
 -7.1414206e-03
  3.0681258e-02
 -5.7501090e-03
  1.5080689e-02
  3.8837153e-04
  4.5812842e-02
  1.0809699e-03
  1.9451365e-02
  1.8887077e-02
  6.4356565e-03
 -5.1610256e-03
  2.5023054e-03
  1.5491081e-02
 -3.8565216e-03
  6.6185242e-04
 -3.1881279e-04
  8.5286740e-03
  5.1606074e-03
  2.3461489e-02
  1.5086462e-03
  4.5084674e-04
 -3.5266036e-03
  3.0068161e-03
  1.1756888e-03
  9.8149981e-03
 -1.4693348e-03
 -1.1028525e+00
 -5.8825547e-03
  6.2449286e-03
  1.3711574e-02
 -1.1816628e-02
 -1.3734793e-02
  1.0363181e-02
 -5.3198063e-03
  3.5023311e-01
  1.9237596e-01
 -1.0275415e-01
 -2.2309043e-01
 -2.8178054e-01
 -3.7075126e-01
  2.4651371e-01
  5.8713373e-02
  4.1150838e-01
 -9.4355671e-03
 -5.7975209e-01
  3.7545213e-01
  1.9278176e-01
 -2.9536927e-01
 -2.5768259e-01
 -3.6322251e-02
 -4.4785213e-01
 -1.7599735e-02
  8.3180822e-02
  2.2772740e-01
  3.3838728e-03
 -4.1295055e-01
  1.9308953e-01
  5.3331143e-01
 -2.5234058e-01
 -8.2817100e-02
  4.4345188e-01
 -9.6152103e-01
  1.8671827e-02
  2.0628142e-01
  3.9713323e-01
 -6.2340015e-01
 -1.6974200e-01
 -1.0489916e-01
  1.0989591e-02
  5.1014751e-02
 -4.4520613e-02
 -2.3928100e-01
 -2.3127623e-01
  7.8939669e-02
  1.0421037e-02
  3.1958562e-01
 -1.5407859e-01
 -2.9474688e-01
  1.0161517e-01
 -2.0894706e-01
  9.9568540e-01
  3.6950242e-02
  9.3073630e-01
  1.3881789e-01
 -2.0419483e+00
  2.7080858e-01
 -5.4693037e-01
 -1.7247224e-01
  7.1628183e-01
  7.7564460e-01
 -1.0172566e+00
  9.5214462e-01
 -3.9812872e-01
 -7.6225328e-01
  9.1307312e-02
  5.3711325e-01
  5.1244214e-02
 -3.4236056e-01
 -2.8093359e-03
  4.2384136e-01
 -1.1107748e+00
 -6.4927238e-01
  3.4907657e-01
  1.2580016e+00
  2.9340310e-03
  1.4573368e+00
  9.8090559e-02
 -1.7539234e+00
 -1.5244118e+00
  4.2072222e-01
  1.6444398e-01
  6.6163844e-01
  1.4869709e-02
 -4.9105220e-02
  2.6059255e-01
  2.5186124e-01
  1.7093377e-02
 -4.2910453e-02
 -4.6893872e-02
 -1.4655997e-01
  3.7942603e-02
  1.7888395e-01
  3.0493028e+00
  2.3563566e-02
 -6.5023965e-01
  1.0446557e+00
  1.5722843e-01
 -1.3985752e+00
 -1.3710647e+00
 -6.6660362e-01
 -8.3278364e-01
 -1.7901808e-01
  2.3931278e-02
 -7.2110474e-01
 -6.8059224e-01
  7.1517979e-03
  1.0305465e+00
  3.7636527e-01
 -4.8000085e-01
  5.5971372e-01
 -1.2067829e+00
  3.8292444e-01
 -2.7777802e-02
  7.7717578e-01
 -7.2826493e-01
  6.4009175e-02
  1.1221127e-01
 -1.9953692e-04
 -1.2719293e+00
  2.7520249e-02
  8.8680589e-01
 -7.0905453e-04
 -6.7706272e-02
  1.4945893e-01
 -1.8623366e-03
 -3.0755941e-02
  1.2601500e-03
  1.0497060e-01
 -1.4860581e-03
 -5.9687272e-03
 -9.4924076e-04
  1.4887287e-01
  5.0840988e-03
  1.9724005e-01
 -1.2741981e-01
 -3.6463535e-01
 -1.0995660e-03
 -4.0409360e-03
 -1.3986358e-03
 -1.2711498e-03
  2.6478649e-03
 -4.0692240e-03
 -7.6327962e-03
 -1.1419987e-02
 -1.4657785e-02
 -4.3362472e-04
  9.0375151e-03
 -5.0004311e-03
 -1.0036846e-03
 -5.6908787e-03
  1.7239247e-02
  7.7195256e-03
  2.9749724e-03
  2.0599099e-02
 -5.9789955e-04
 -9.4530415e-03
  8.8255517e-03
 -2.0476608e-03
 -4.4240928e-04
 -1.5512074e-03
 -8.8175684e-03
 -2.1568341e-03
  1.8640226e-03
  3.2101758e-04
  4.4170730e-03
  3.3859177e-03
 -1.3117123e-02
 -2.2031922e-02
  4.2403252e-03
 -9.6748155e-03
  1.0357687e-02
 -1.1889460e-02
  8.7991962e-03
 -5.2234177e-03
  2.1667653e-03
  1.0174623e-02
  6.3153957e-03
  2.6338605e-02
 -4.6017799e-03
 -9.1667131e-02
 -3.8349861e-01
 -3.4555543e-04
 -1.0233934e-01
 -2.5856522e-01
 -1.3834020e-01
 -2.3772287e-01
  8.6243913e-02
 -2.3468442e-01
  5.0190610e-01
  2.6670392e-03
 -1.1973333e-02
  5.6663542e-03
  2.4743660e-01
 -1.3015644e-01
  2.4959128e-02
  2.2329816e-01
 -2.0493548e-03
 -6.4740978e-02
 -8.0049159e-03
  7.8167439e-02
  9.8584732e-03
 -1.0617275e-02
  4.5596279e-02
  4.8332207e-02
 -1.1851821e-02
  3.4920819e-02
  8.5426855e-01
 -1.8271905e-01
 -1.1467430e-01
 -4.2105990e-04
 -1.4130215e-03
  3.5786498e-03
  1.5798514e-01
 -3.1179687e-02
  2.3230316e-02
  2.8053201e-03
  1.1376642e-01
 -1.3548489e-01
  1.7718951e-03
  1.5963454e-02
  1.7190845e-03
  2.1120351e-02
 -3.0145857e-02
 -2.1354631e-02
 -1.4944251e-01
  2.8789768e-02
  6.1909896e-03
 -5.2100385e-04
 -8.0137523e-03
  8.1700645e-03
 -1.7870191e-03
  2.0918866e-01
  3.2583180e-01
  1.6752339e-03
 -1.9683329e-02
 -1.6015491e-02
  1.7973381e-01
 -2.5898933e-01
 -3.6112212e-02
  9.3808696e-02
  7.5388364e-03
 -2.2394501e-01
 -4.4228509e-04
  3.1018781e-02
  4.1204216e-03
  5.1486939e-03
  2.2071328e-02
  5.8150329e-02
 -7.7763766e-02
 -2.6881609e-02
  3.0470001e-02
 -3.7917256e-01
 -2.3432048e-03
 -1.3123263e-02
  1.4492188e-01
 -9.4118766e-02
  1.7196981e-02
 -9.4414214e-03
 -4.6360802e-02
  1.0751166e-02
  5.2571006e-02
 -7.2997748e-03
 -7.3489863e-03
  8.3327282e-04
  1.1381499e-02
 -2.9570644e-04
 -9.9302456e-03
  2.9748562e-03
 -1.8585229e-04
 -1.2005422e-03
  1.5690119e-03
 -2.1509282e-02
  9.9287666e-03
  1.1692381e-02
 -1.3403105e-02
  4.9025542e-03
  1.8023854e-02
  9.3062613e-03
 -8.4367702e-03
  6.3216141e-03
  4.7943713e-03
  1.0206359e-03
  4.4705509e-03
 -6.2604104e-03
  1.6749045e-04
 -1.7742960e-02
  3.3031870e-04
  1.9391965e-02
 -2.3170754e-01
 -1.0537896e-03
  5.2216458e-03
 -7.3872698e-03
 -9.9795405e-03
  2.3197276e-03
  6.0698930e-02
  1.9491649e-03
  2.7389838e-03
 -1.9656386e-02
 -2.6914601e-03
  8.6651428e-04
  2.2690156e-03
  9.6064503e-04
 -1.0203371e-02
  1.0589306e-02
 -6.8122670e-03
 -7.1219089e-03
 -1.7588711e-03
  7.7765221e-03
  1.9430713e-03
 -9.8168096e-03
  2.5700643e-03
 -4.1832449e-04
 -1.6194144e-02
 -3.5558023e-02
  2.7273467e-02
 -2.8701376e-03
  7.1868417e-06
  2.0488018e-02
  1.4928116e-02
  3.5436547e-03
 -5.0952518e-01
  2.1103597e-01
  2.4867612e-03
  6.7216917e-03
 -3.9119180e-03
  3.9956043e-03
 -2.5142874e-03
 -1.3217553e-03
  1.2780681e-02
 -6.4451655e-04
  2.0668651e-03
 -4.4150173e-04
  8.5543073e-04
  1.6427573e-02
  4.8377309e-03
 -7.0033423e-03
 -3.3080427e-03
  7.2655082e-03
  8.0916658e-03
  1.0330830e-02
 -7.0621222e-03
  6.5637361e-03
  3.0695754e-03
  1.4503401e-02
  9.6976734e-04
  2.9308475e-03
  6.2910179e-03
  1.5433824e-03
 -6.1327838e-03
 -8.8660205e-03
  3.2943878e-03
  3.8320718e-03
 -5.9196744e-03
  5.1078382e-03
  5.6056459e-03
  2.3206503e-03
 -7.0797242e-03
 -2.9545743e-03
  8.1308419e-03
  2.6326325e-02
 -4.3903054e-03
  6.7923358e-04
 -5.1645706e-03
  1.4785794e-02
  5.4867007e-03
 -4.2533046e-03
  1.0818116e-02
  1.1220282e-02
  3.7325083e-03
 -1.2678266e-02
  4.2420779e-03
  4.0622754e-04
  3.1788438e-04
  1.7787800e-03
  1.8222909e-02
  3.5045943e-03
  1.2513584e-02
  5.6537022e-03
  3.0278864e-03
  8.3167590e-03
 -6.4007839e-04
 -7.2429021e-04
  1.5821699e-03
 -3.3357264e-03
  2.7409568e-03
  6.5476685e-03
  2.1511417e-02
 -4.2076129e-04
 -2.3839728e-03
  1.3222322e-03
 -1.3816222e-03
  6.9886382e-04
  8.9734938e-04
 -3.2124505e-03
  1.1483203e-03
 -8.5195517e-03
 -1.8955853e-02
  5.7649869e-04
 -6.6861804e-03
 -4.4574663e-03
 -4.0765591e+00
  2.2259418e-02
  1.1823480e+00
  6.4509934e-01
 -1.3835755e-03
  1.0157854e-01
  6.1896238e-03
  1.8564664e-01
 -5.8431131e-01
  6.3422001e-03
 -8.2955202e-03
  4.8185207e-02
 -4.4502141e-03
 -1.0715639e-03
 -7.7480846e-03
 -1.1331892e-02
  1.5589471e-02
  1.2755408e-02
  2.0177506e-03
  1.0028690e-02
 -7.7027944e-03
  1.3225411e-02
  1.8775268e-01
  1.3801841e-03
 -1.2087062e-02
  6.9908435e-03
 -1.4106680e-03
 -3.0462141e-04
  2.9958414e-03
 -5.5129314e-04
  8.1975397e-04
  4.3317555e-03
  6.6282079e-03
  5.6717727e-02
 -4.5371270e-03
  5.8525518e-02
  1.8014706e-03
  5.0523183e-03
 -8.4225507e-03
 -6.4428435e-03
 -2.5270197e-03
  3.2755723e-03
  2.6992304e-02
  4.5650671e-03
 -1.2816305e+00
  5.6452090e-01
  1.5943120e-01
  7.6652515e-01
 -1.9007123e+00
 -2.5496447e-01
 -3.1637582e-01
  7.7436978e-01
 -9.8631963e-02
 -1.9337116e-03
 -1.0027247e-03
 -7.6432802e-02
  1.0669733e-01
 -2.8286371e-02
 -8.1525445e-02
  5.7388562e-01
 -3.4192783e-01
 -2.6209928e-02
 -3.9032903e-01
  5.2431137e-03
 -9.0540871e-03
 -6.2908575e-02
 -1.7737286e-01
  1.8021783e-01
 -8.1651509e-03
  7.1014566e-03
  9.2878707e-02
 -1.8942279e-01
 -1.0239156e-02
  5.9280068e-01
  1.0479159e-02
 -3.3867275e-03
  4.2958942e-01
 -2.0568414e-02
  1.0848068e-02
 -3.1399316e-01
 -4.1101642e-02
 -3.5691638e-02
  4.6311384e-03
 -2.9672536e-03
  1.2563716e-03
  1.1247483e-02
 -3.5734404e-02
 -3.2044824e-02
 -1.4721794e-03
  4.8528370e-03
  6.6113621e-03
 -1.9795491e-01
  1.6344228e-03
 -2.4397378e-03
  2.1387041e+00
  9.4041238e-03
 -1.9383425e-02
 -1.1620601e-03
 -1.4413049e-02
  7.7152462e-04
 -1.9083114e-03
 -4.8879213e-03
 -1.0466501e-02
  9.0329545e-03
  3.1290263e-02
 -5.2465000e-03
 -8.4914928e-03
 -1.9871071e-04
 -3.7851939e-03
 -8.6234566e-03
  1.2033273e-02
 -3.0255774e-03
 -2.2855783e-03
  2.5176045e-02
 -9.2525303e-04
  5.0743860e-03
 -6.7849341e-03
 -1.1519871e-02
 -8.0975905e-02
 -7.3582837e-03
  2.4201969e-02
 -2.0520925e-04
 -5.5495673e-03
  5.4203137e-04
  9.2605222e-04
 -2.5827340e-03
  1.6776787e-03
 -1.1022051e-02
  1.3981043e-02
  5.4087783e-03
 -3.1233219e-02
  3.1980621e-03
  2.5875639e-04
  6.3836649e-03
  9.3306985e-04
 -9.2381448e-04
  1.3128268e-02
  3.0034548e-04
  5.8914879e-03
  2.1096761e-04
 -1.4480649e-02
 -2.0255150e-02
 -1.6125627e-02
  3.0811611e-03
  3.1049899e-04
  2.5630906e-02
  1.3310244e-02
  2.6605010e-04
 -6.5132910e-03
  6.7160372e-04
 -1.4333092e-03
 -2.6816340e-02
 -1.1222983e-03
 -7.7512246e-03
 -1.9673953e-02
  4.6066041e-03
  4.2396772e-04
  4.4177874e-04
  1.9263753e-03
  1.7787706e-02
  1.0925862e-02
  7.3981561e-02
  5.7328441e-03
  7.6275938e-03
  2.1327240e-04
  8.0621317e-03
  4.3370012e-02
 -4.9599926e-03
 -4.5157811e-03
  2.1356493e-02
  7.9988204e-03
 -7.0524216e-04
 -1.1874287e-02
 -2.6489974e-03
  2.1340502e-02
  1.6813938e-02
 -4.0963423e-03
 -4.0040812e-03
 -9.8435283e-03
 -7.1271732e-03
 -8.9475588e-04
 -2.7727734e-03
  5.7847756e-03
  6.1552912e-01
  4.7216916e-01
  4.9322592e-03
  1.4956816e-02
  8.8383937e-03
  5.7090841e-02
  9.3515334e-04
  2.7813762e-02
  2.1581433e-03
  3.1150017e-02
  1.0486174e-02
 -4.3639117e-03
  3.3336855e-02
  3.3552207e-03
  1.4328656e-03
 -1.5603486e-02
 -3.6522760e-03
  4.4399522e-02
  1.5493596e-01
  5.7096504e-02
  3.8141634e-02
 -1.5026521e-02
 -6.2484303e-03
  7.6093427e-03
  1.2195145e-03
 -6.1840382e-03
  1.3524493e-02
 -4.3171085e-03
  9.0309130e-03
 -1.7576653e-03
  7.4517489e-03
  1.2339215e-02
 -1.3367820e-03
 -8.0286060e-03
  1.6222496e-03
  7.6076733e-03
  2.1254750e-02
  2.9336184e-03
  1.7471453e-02
 -3.2194634e-03
 -7.2707310e-02
  1.1495704e-02
 -1.7753552e-01
  1.8296519e-02
  3.7923742e-03
  7.1502310e-01
  1.6878995e-03
 -2.8698875e-02
  1.6851496e-02
 -6.9372538e-03
 -5.5471649e-03
  5.1317150e-03
 -6.8291964e-04
  5.4003921e-04
  1.2279620e-02
  4.8732866e-02
 -1.3784490e-02
 -8.8996440e-03
 -3.6624320e-02
 -5.8903813e-02
  1.6245982e-03
 -7.1947114e-04
 -1.2457157e-02
  7.1174018e-03
 -1.1044601e-04
 -7.7515417e-03
  1.9132949e-03
  1.8257713e-02
  5.0322581e-03
  9.2834039e-03
 -3.1226694e-03
  1.1272039e-02
  3.9743455e-03
  1.4823174e-02
 -8.6013405e-03
  2.3667661e-03
 -6.0975580e-03
 -1.3332084e-02
 -1.3632145e-02
  1.7903615e-02
  6.7777954e-02
 -7.9909312e-03
 -5.6220978e-01
 -3.4425270e-02
 -2.2111952e-02
 -1.0047557e-02
  1.3193034e-01
  1.1131932e-01
  9.6085280e-02
 -8.7704293e-02
  1.0676431e-03
  4.4663311e-03
  1.6363412e-03
 -4.3522158e-01
  6.8623148e-02
 -1.2067971e-02
 -9.9531882e-02
 -4.9194489e-03
  4.4789854e-03
 -9.2321687e-04
 -6.1491471e-02
 -4.9795280e-04
  3.0655801e-02
  3.0102998e-01
 -3.1430873e-01
  1.0705456e-03
 -2.5903586e-02
  3.9572744e-03
  8.6270556e-02
 -1.0938758e-01
 -6.1363384e-02
 -5.9773163e-03
  2.0648737e-02
 -7.0520421e-03
  2.6256577e-03
 -1.0318653e-02
 -9.3489818e-02
  5.6048978e-02
 -4.6969712e-04
  1.7206199e-02
 -1.0574730e-02
 -9.0875421e-03
 -1.4772934e-02
  8.2804123e-03
  2.8638982e-03
  5.2686412e-02
  3.6492895e-03
 -9.0891391e-04
  5.0096773e-03
 -6.0982155e-03
 -4.2059566e-03
  3.5558325e-01
 -8.4994175e-02
 -7.6861602e-01
 -5.3812573e-03
  5.7214075e-03
  2.2657519e-02
 -1.8081404e-03
 -3.4118507e-03
 -1.1213941e-02
 -4.9052503e-02
  6.7431200e-04
  1.8727714e-03
 -1.2069050e-02
  1.4309276e-02
  6.8825781e-03
  8.4465905e-04
 -1.1847457e-02
  1.2067870e-02
 -9.0564729e-04
 -7.8471415e-03
 -3.7933901e-02
 -4.7501368e-03
  2.0321954e-02
  1.0030951e-02
  2.3154442e-01
 -4.0514451e-03
  1.7405383e-04
 -2.4918661e-02
  2.0553800e-04
 -5.9254961e-03
 -2.5299154e-02
 -2.1509703e-03
  8.3392544e-05
  1.0790288e-02
 -1.2405887e-03
  1.8428704e-03
 -7.7462392e-03
 -8.7456703e-03
 -4.6014055e-03
 -3.9538760e-03
  9.5567349e-03
 -1.2166603e-03
 -4.1114753e-03
 -2.2057604e-02
  2.1802166e-02
 -9.0843858e-03
  1.1625506e-03
 -1.9519121e-03
  7.1106073e-03
 -1.7196164e-03
 -1.0094920e-02
 -3.1013617e-03
  2.8949261e-02
 -2.0248005e-03
 -2.1109262e-03
 -5.1626619e-03
  2.2337162e-03
  6.2159827e-04
  8.0464158e-04
 -6.3923178e-03
  1.0353124e-03
 -4.9866820e-03
 -3.7857131e-03
  2.1843058e-03
  6.6669250e-04
  5.8505442e-03
  6.9989241e-04
  1.3990196e-02
 -1.8504712e-03
  1.2541466e-02
  2.3979512e-03
 -6.3337665e-03
  1.2884427e-02
 -2.6936790e-03
  4.0328139e-03
 -5.2553271e-03
  8.6252540e-03
 -5.7054090e-04
 -1.4259919e-02
 -7.6081778e-04
 -9.7033102e-04
 -7.2639422e-03
  1.6996111e-03
 -2.2445749e-02
  6.4673007e-04
  2.7196342e-03
 -1.7863583e-03
 -2.1555221e-03
  3.1837288e-02
 -5.0940728e-03
 -1.4449008e-01
 -7.4712507e-02
 -3.3153000e-03
  4.1530505e-03
 -5.1062671e-03
 -9.0642693e-04
 -2.5215836e-02
  4.6872133e-03
 -7.8020603e-03
  1.0947749e-02
  4.2639822e-03
 -4.9964115e-03
 -7.5865667e-03
 -6.2228134e-03
 -5.8110449e-03
  5.4253447e-03
 -6.4588152e-05
  1.1625018e-02
  1.3274355e-02
  5.8689830e-04
  7.4940794e-03
  2.1681625e-02
  5.0416905e-03
 -1.8819561e-04
  9.1020856e-04
  1.0374859e-02
 -5.4090433e-03
 -1.0145410e-02
  8.9853471e-03
  4.3029604e-03
  1.2724514e-02
 -9.4015989e-03
 -1.6451824e-02
  1.3399063e-02
 -5.9605963e-03
  3.1585053e-03
 -2.8223595e-01
  1.9288200e-01
  1.5818675e-03
  9.8871022e-02
  8.5305557e-02
  2.2870192e-01
  5.1605225e-01
  2.9345685e-01
 -6.0543698e-01
  1.2795600e-03
  5.5689745e-02
  1.3179469e-01
  2.6832363e-03
  1.3563419e-02
 -7.1939781e-02
  1.7779455e-02
 -2.7436062e-03
  5.2229855e-03
  3.4523495e-03
 -2.5615972e-02
 -1.1173495e-02
  4.3981345e-03
 -1.0653157e-01
 -4.3440214e-01
  1.1797460e-02
 -1.9087435e-03
  1.1356410e-02
  2.2752035e-01
  2.4890764e-02
  1.4781958e-01
 -1.5667869e-02
  3.4847215e-02
 -2.3993989e-02
  4.5142896e-02
 -2.9953779e-03
  1.1616869e-02
 -4.1957553e-03
  8.3433017e-03
  9.0522980e-03
 -8.7401383e-02
 -6.9511351e-03
 -3.2770053e-02
  1.8044484e-01
  2.8546475e-02
  1.4292479e-02
  1.6724034e-01
 -1.6082942e-02
 -1.5215603e-02
  1.3840827e-03
  1.1753831e-02
 -8.9728273e-03
  1.0646114e-02
  4.7316480e-01
  1.2807550e-03
  3.0043232e-04
 -5.3524906e-03
  2.8300774e-03
 -8.0472324e-03
 -6.5478235e-03
  5.8352202e-03
  5.3210813e-04
 -7.2341505e-03
 -4.2655971e-05
  5.8265841e-03
 -2.2360114e-03
 -8.7663569e-03
 -1.1086036e-02
 -2.6892124e-02
  3.7264815e-03
 -4.3730539e-01
 -7.8665996e-03
  3.5133329e-03
  4.4468034e-05
 -1.2431200e-02
  1.2521087e-03
 -4.5441901e-03
 -1.5996194e-02
  1.3606538e-03
 -3.6833656e-03
  4.9213120e-03
 -1.8202007e-02
 -1.6326809e-02
 -1.1543725e-02
 -8.1388634e-03
 -7.3446664e-03
 -7.7208690e-03
  1.5642961e-02
 -7.3420274e-04
 -4.5903758e-03
 -1.9726660e-02
 -2.9102417e-03
 -5.5685622e-04
  3.1584010e-02
 -4.0289401e-03
  9.6928580e-03
  8.0903177e-04
  1.1133566e-02
  3.8122619e-03
  3.5136923e-02
  7.5995605e-03
 -2.8762484e-03
  1.1198172e-02
 -6.9831334e-02
 -1.9889286e-02
 -2.2904715e-02
  1.2220169e-02
  8.2589826e-03
  2.7232809e-05
  2.9245319e-03
  1.9099634e-02
 -2.0033589e-02
 -1.9591283e-03
  1.5329100e-03
  1.6892342e-02
  5.1059099e-03
  1.4819891e-02
  2.5611101e-03
 -2.7399396e-03
  2.0302949e-04
 -2.9895678e-03
 -3.4536354e-02
  5.1746015e-03
  1.8238582e-03
 -1.8285898e-02
 -9.3301479e-03
 -3.1871339e-03
  1.5488558e-02
  9.8197702e-03
  4.5348905e-02
 -2.1730987e-02
  1.4461707e-03
  3.0552270e-03
 -2.5570733e-03
 -1.3965553e-02
  3.2271143e-02
 -3.4876980e-03
 -3.1428516e-02
 -7.6438300e-04
  8.8950386e-03
 -6.8795693e-04
 -7.5628038e-04
 -3.9721834e-03
 -8.0574729e-04
 -2.0787673e-02
  1.5641393e-02
  5.7904962e-02
 -2.3918045e-03
  7.6043634e-03
  3.7187731e-03
  7.8015691e-03
  2.0106733e-02
  3.1277668e-03
 -2.2088711e-03
 -9.1722151e-03
 -2.7752451e-03
 -3.8936562e-03
 -6.2919257e-04
 -3.3644806e-03
  9.6518956e-03
 -3.1574545e-03
 -3.7698066e-04
 -9.1857687e-03
  5.4298948e-02
  5.3140931e-03
  7.0497235e-03
 -2.8326646e-03
 -3.3557536e-03
  2.2363383e-05
 -5.6524319e-04
  5.6124590e-03
 -2.6301127e-03
  1.0500340e-02
  3.0974844e-03
 -1.0433095e-03
 -1.6856749e-02
  4.4985749e-03
  6.3306445e-01
 -1.2442568e-01
 -4.1753635e-02
 -8.6991578e-01
  9.9718386e-01
 -1.4636028e+00
 -1.5763539e+00
  1.3383611e-01
 -1.5809542e-01
  9.8822659e-01
 -4.5857195e-02
 -9.5191441e-02
  6.5832043e-01
 -2.2364218e-02
  1.5414414e+00
  7.3265511e-01
 -1.9963041e-01
  2.2942226e-01
  9.1343392e-03
  9.2337579e-02
  6.1559688e-02
 -4.2688981e-01
 -1.9556560e-01
  3.5460439e-01
 -2.8070842e-04
 -1.7853838e-01
 -1.8346271e-02
 -3.8125746e-02
  2.9818130e-01
  3.4642937e-03
  5.9858854e-03
  5.4583764e-03
 -5.6044900e-01
 -5.6281518e-03
 -1.1306828e-03
  2.8043095e-02
 -2.4958659e-02
 -9.9986121e-02
 -1.6514571e-02
  2.3173524e-02
  4.0288623e-02
  7.0443731e-03
 -5.0739790e-03
  1.5117750e-02
 -3.5570608e-03
  1.8584367e-02
  4.2933766e-03
 -1.2702970e-02
  4.8645452e-02
 -2.0195802e-03
  2.8361683e-03
 -6.1212573e-03
 -3.0155797e-02
 -7.5438479e-03
  4.3804273e-03
 -1.6596235e-03
  4.4746636e-03
  3.3149246e-02
 -6.6066096e-03
 -1.4657772e-03
 -2.8801600e-03
  9.7403936e-03
 -5.7608628e-04
 -8.9789648e-03
 -7.6452284e-03
 -5.4025147e-02
 -1.0367039e-02
 -6.2175131e-01
  5.3157704e-03
 -1.6527441e-03
 -7.0111331e-04
 -1.9352777e-03
  8.5526789e-03
 -3.3560037e-04
 -2.5531144e-03
  7.0562103e-04
 -3.6599897e-03
  7.1303565e-03
  3.5459215e-03
 -7.7087566e-04
 -4.5632087e-03
  2.9154588e-04
 -4.2043305e-03
 -8.0719804e-03
  1.3944375e-02
 -1.6073494e-03
  4.9073575e-03
  4.8490041e-03
  2.4752801e-02
  1.7245940e-04
  7.6547768e-03
  3.7114094e-03
 -8.8344968e-04
  3.6101762e-02
  1.5376774e-02
 -6.3345162e-03
  3.1154952e-03
  4.9819429e-03
  3.7848728e-04
 -9.7174011e-03
  1.4586765e-03
  4.6383089e-04
 -1.4585298e-02
  2.1524793e-03
 -9.5166564e-03
  1.7071795e-02
  1.9827338e-02
  5.4529221e-03
 -1.9818067e-04
  4.3193316e-03
 -6.7688609e-03
 -1.0278453e-02
  4.7521824e-03
  2.0100756e-03
 -1.4978348e-03
  8.7959645e-03
 -7.0202281e-04
  7.2198454e-06
 -7.1219266e-03
  9.0327550e-04
 -5.0390591e-03
  1.3838421e-02
 -2.6342461e-03
  1.2951598e-02
 -1.8680789e-02
 -1.3418028e-03
  6.6115428e-03
  4.1811848e-03
 -1.1099692e-02
  8.5742148e-03
  2.4435632e-03
  2.8983792e-03
 -1.2856458e-02
 -6.3725011e-03
  5.5980631e-03
 -4.0261028e-04
  3.4900871e-04
 -1.2103264e-02
 -1.2488998e-02
  2.8721215e-02
 -1.1523835e-02
 -5.1418599e-03
 -6.7663896e-03
  2.7982587e-02
 -4.5266151e-03
 -8.8342768e-04
 -1.2436908e-03
  4.0399199e-03
 -2.3328273e-02
  2.8433732e-04
 -5.2375034e-03
 -3.7556977e-03
  8.8882344e-03
  1.6824338e-03
 -2.7699356e-03
  3.0757219e-04
 -1.8885483e-03
 -4.4308603e-03
 -1.3122773e-02
 -1.5834939e-02
 -1.8731847e-02
 -7.6100104e-03
 -7.0971670e-03
 -1.1364289e-02
 -6.7721931e-03
  9.7743170e-03
 -2.1280188e-03
 -6.6099456e-04
  4.8444988e-03
  3.0456930e-03
 -3.3639163e-02
  1.4123362e-02
 -8.6107468e-03
  5.7836398e-03
  5.6652366e-03
 -7.2764535e-03
 -2.8822543e-03
 -2.2844684e-01
  1.4988595e-02
 -2.6695642e-03
  6.7481083e-01
  2.9291294e-03
 -9.3749546e-02
  2.6035705e-03
 -2.2247319e-01
  1.4199884e-01
  1.6935189e-01
 -9.4920784e-01
  6.4193010e-01
  3.9721935e+00
  1.6198298e-03
  4.3394258e-03
 -1.0278597e-03
  1.9607139e-01
 -2.0256442e-01
 -9.1555752e-03
 -4.9490315e-01
 -1.6102201e-01
  1.6399549e-02
  4.3352786e-01
  7.3904224e-02
  2.5541418e+00
 -2.9444615e-03
 -6.5526140e-01
 -1.5366760e+00
 -8.7384684e-03
  1.2708193e-02
  3.8302527e-03
 -3.5454781e+00
 -8.3865161e-04
 -8.5588754e-04
 -4.3021695e-04
  2.3548061e-03
 -1.3914832e-03
  2.1738644e-01
 -1.4097327e-01
 -3.6259645e-03
  3.4890836e-01
  3.7821352e-01
  2.6591877e-03
  5.6323372e-03
 -4.3880269e-03
  1.0006839e+00
 -5.3724725e-02
 -7.6071993e-03
  1.1121812e-02
  1.2620529e-02
 -2.3780565e-01
  1.1365978e-01
 -8.9012310e-02
  3.5674727e-01
 -2.9370828e-02
  8.2187128e-01
 -1.4091948e-01
 -7.6275945e-01
  6.4514691e-01
  5.2344334e-01
 -3.0023634e-01
  2.2895946e-01
  2.1634512e-01
  2.4315095e-02
  1.6178217e-02
  1.3323455e-02
 -7.3288739e-01
 -6.8306550e-02
 -1.7352235e-01
 -2.3647574e-01
 -4.6804506e-01
  1.4550784e-01
 -1.0153004e+00
  7.2651404e-01
 -7.8432572e-01
  1.6749113e-04
 -2.5998321e-01
 -5.7377791e-01
 -2.6008237e-02
  3.0898517e-02
 -8.6661224e-04
 -1.0746083e-01
 -3.2665932e-01
 -3.3599161e-02
  5.2566566e-03
  2.1555635e-01
  3.5713935e-01
  4.8895824e-01
 -5.9536219e-01
  1.4618525e-02
  3.3907503e-02
  5.2448463e-01
  6.0220320e-02
  8.4302038e-02
 -5.2468933e-02
 -2.3757556e-01
  7.2791725e-02
  6.5759785e-02
  9.6777473e-03
  3.1489778e+00
 -5.5966701e-02
  1.1589993e+00
  9.6718955e-01
 -1.6917589e+00
 -3.4293443e-02
 -1.1364204e-02
  2.4992208e+00
  1.7903158e-01
  5.2831244e-01
  1.9168163e-02
 -1.7866229e+00
  5.9869640e-02
  1.7618769e-01
  5.9108335e-01
 -2.2593825e+00
 -1.9849366e-01
  3.9499257e-02
 -1.3036337e-02
  4.4602609e+00
  1.7741819e-01
 -1.7563449e+00
  4.1477540e-01
  6.8079138e-01
 -3.6609629e-01
  1.0160223e-01
  5.4331529e-01
  1.9336072e-01
  1.2710665e-01
 -7.0785570e-01
  1.0961282e-01
 -1.0204774e+00
  5.3268403e-01
  5.8494055e-01
  5.1712058e-02
  2.0405290e+00
  2.1037412e+00
 -1.3080962e-01
 -4.5883805e-01
  7.1667439e-01
 -3.1162819e-02
  7.5100875e-01
  1.3296122e-02
  1.5854464e+00
 -2.8104159e-01
  1.4743774e+00
 -6.9211543e-02
 -3.2243982e-01
 -1.8271153e+00
  2.8489983e+00
  2.4177670e-03
 -2.6623490e-01
 -5.4150150e-04
 -2.4274187e+00
  3.3385426e-01
 -4.5274326e-01
  2.0643410e-01
  3.4967905e-01
  6.3952339e-01
 -8.1022158e-02
 -2.3599402e-03
  7.0478445e-01
 -1.3592492e-01
  9.4880861e-01
  2.3413284e-01
 -1.9363590e+00
 -1.8899680e+00
  7.2711384e-01
 -7.6087436e-04
 -1.0578012e+00
  2.2741411e+00
  7.9618108e-01
 -3.4790765e-04
  4.0714845e-01
 -1.7630072e+00
  1.0393408e-01
  1.2098169e-01
 -1.4157304e+00
 -1.9604436e-01
 -6.5753102e-01
  6.6693433e-02
 -9.5186687e-01
 -1.8860260e-01
  5.8362209e-03
 -1.1289665e-02
  1.1816906e+00
  9.4366211e-01
  8.3229774e-01
  2.2051373e-01
  2.7075484e+00
  8.0871779e-01
 -1.2062498e+00
  2.3267710e-01
  1.6145030e-01
 -1.0589492e+00
 -1.6506581e-01
 -2.0915931e-02
  2.9400980e-01
 -2.6675984e-02
  1.8650564e+00
  5.4124588e-01
 -1.0768590e+00
  4.4759889e-03
  6.2747562e-01
  1.1196461e+00
  1.0897613e+00
 -5.7800925e-01
  1.6525005e+00
 -6.3382900e-01
 -2.3046966e+00
 -2.7175577e+00
  3.1863295e-02
  7.8765396e-03
  1.1329792e-01
 -7.8802037e-01
  9.8648302e-02
 -8.3787903e-02
 -9.9455364e-02
  2.1336863e+00
 -3.9814258e-01
  1.0628442e-01
 -2.2943563e+00
 -3.3540955e-01
 -1.6749570e+00
 -1.6573282e-02
 -3.8321447e-01
  5.9186697e-01
  6.1567402e-03
 -2.3706565e+00
 -1.1268096e+00
  5.3968251e-01
  3.4815645e-01
  2.5983933e-01
 -1.7829587e+00
 -7.8421843e-01
 -2.4059262e+00
  1.1331316e-01
 -1.0922179e-01
  6.5806985e-01
  6.3801399e-03
  9.9446826e-02
  1.6625154e+00
 -1.3333024e-01
 -6.2955445e-01
 -7.7677434e-03
  1.0425622e+00
 -2.0810184e+00
  1.7389059e+00
  2.3751019e-01
  7.0305133e-01
 -1.2312278e+00
  3.1901788e-02
 -4.8932412e-01
 -5.7231718e-01
 -6.6776246e-01
 -7.8971195e-01
  1.3888073e-01
 -1.6730420e-01
 -5.4297942e-01
  7.2309352e-02
 -1.3467230e+00
 -2.7003989e-02
  2.1885430e-02
  1.9855605e-01
 -8.8840403e-02
 -1.6251546e+00
  1.2116845e+00
 -1.4985373e+00
  6.8189934e-02
  1.5519925e+00
  1.8901695e+00
  9.9051252e-02
 -1.2176828e+00
  7.4889696e-01
 -9.9362852e-03
 -5.4525402e-03
 -1.0551754e-01
  5.5076075e-01
  5.0138819e-01
 -9.9934332e-02
 -5.7125062e-02
 -8.7806113e-02
  2.0374100e+00
  2.9166320e-01
 -7.1880287e-01
  1.9414264e-01
  1.5428780e-01
  9.7809565e-01
  2.6133743e-01
  1.8773233e+00
  2.2396669e-01
 -9.1002321e-01
 -1.1165543e+00
  1.6731585e+00
 -2.0729539e-01
 -5.2497661e-01
 -6.9449298e-02
  1.1162349e+00
  2.8693247e-01
  6.9480978e-02
 -4.9385422e-01
 -8.5995114e-01
 -6.7768425e-01
 -8.0567294e-01
  3.5601404e-01
  8.3568525e-01
 -1.3632298e+00
 -5.7562149e-01
 -4.0196870e-02
  1.8319117e+00
 -7.9308307e-01
 -1.1985697e+00
 -6.5547705e-02
  7.3697507e-02
  7.7537841e-01
  6.4175338e-01
  2.7377111e-01
  2.6700055e-02
  1.7050470e-01
 -1.2237548e+00
 -9.4667852e-01
  2.1269825e+00
  3.5735127e-02
  1.3418950e-01
  1.2352874e+00
  1.7370310e+00
  2.6999676e-01
  1.5119143e-01
  7.1882099e-01
 -9.6339726e-01
 -4.8559391e-01
 -7.2906065e-01
 -6.6568410e-01
 -2.6543048e-01
  8.1294304e-01
 -1.8591624e+00
 -7.7639300e-01
 -1.6845813e+00
 -4.9916965e-01
 -2.0425787e-02
  3.1807022e+00
  1.4758007e-02
  1.6428317e+00
  3.3149382e-01
 -4.4427207e-01
  1.7718323e-01
 -3.7732506e-01
  2.0580850e+00
 -1.3449492e-01
  4.1681156e-01
  1.0489720e+00
  3.0054188e-01
  4.0372056e-03
  2.3265285e-02
  1.7452841e+00
  1.3159199e-01
  7.6583248e-01
  7.1522492e-01
  7.7087438e-01
 -6.7339522e-01
  5.6193823e-01
 -2.7707469e-01
 -4.8803014e-01
 -1.2942294e+00
 -3.3329141e-01
 -1.7319066e-02
  4.4617783e-03
  8.8644527e-02
  9.5384054e-02
 -9.9614840e-03
 -2.6736202e-02
  6.6556442e-01
 -1.1602262e+00
 -1.0070862e+00
 -8.4347270e-02
  9.8869163e-01
  1.2829399e+00
  1.4232989e-01
 -1.2815860e-01
 -9.0415269e-01
  5.5270852e-05
 -6.5280713e-02
 -1.3978094e-01
  4.8088863e-01
 -1.7352185e+00
  2.1946317e-01
 -6.0411292e-01
 -9.2192650e-02
  1.5809463e+00
  9.6913092e-02
 -2.3845573e-01
 -1.7966998e+00
 -1.5587156e+00
  1.4838936e-02
 -2.8751886e-01
 -5.6241649e-01
 -1.7384181e+00
  4.6856487e-01
 -3.5177997e-01
  1.0631990e+00
 -1.1480142e+00
 -5.6972921e-01
  1.7839724e-01
  1.3015348e+00
  1.1273558e-01
 -4.8399663e-01
 -3.0347127e-01
 -7.8671056e-01
  8.7232165e-02
  4.7284853e-01
 -3.2347000e-01
 -9.2438988e-02
  4.7926404e-02
  6.5499318e-01
  1.6805785e-02
 -7.8425235e-01
  1.8091023e-01
 -7.5940243e-03
 -2.1641089e-03
 -1.7160153e+00
 -5.0163108e-01
 -1.2826362e-02
 -1.5999436e-02
  2.7538559e+00
 -2.4971155e-02
  1.7273750e+00
  4.6423385e-01
  3.2097241e-01
 -8.4918803e-01
  2.3378934e-01
  1.6127001e-03
  1.8010218e-01
 -1.3613455e+00
  5.8247778e-03
 -3.7332749e-01
  9.1799825e-02
  4.1390821e-01
  5.0279480e-01
  2.8041291e-01
  7.3678803e-01
 -1.9467622e+00
  4.8989442e-01
 -3.1449419e-01
  1.1902035e+00
 -6.5404349e-03
  1.3728563e+00
  2.8012142e-01
 -1.3294158e-02
 -2.0884563e-01
 -6.4960212e-01
 -3.3913949e-01
 -5.9827042e-01
 -2.3582246e+00
  2.7503541e-01
 -1.4271326e+00
  5.6019759e-01
 -4.2114544e-01
  4.6866342e-02
  3.3190876e-01
  8.3141953e-01
 -1.4909947e-01
  9.0570974e-01
 -6.0179311e-01
 -8.4704429e-01
  5.5299336e-01
  4.4356087e-01
 -1.5617904e-01
 -6.8923271e-01
 -2.5819984e-01
 -3.4585454e-02
  2.1336251e-03
 -7.1170516e-02
  3.6833531e-01
  1.4151159e-01
 -8.6550415e-01
  7.4754395e-02
 -6.9394388e-04
  1.7520288e+00
  2.6132012e-02
 -1.4832801e+00
  6.0674969e-02
  3.3233529e-01
  2.4676052e-01
 -6.5347147e-01
 -4.8433755e-02
  8.3891147e-01
 -4.9592787e-01
 -2.5783093e-03
 -1.4218632e-02
 -3.8740225e-02
  4.1882563e-03
 -2.8544540e-02
  2.7903115e-02
  1.5685112e+00
 -1.4325556e-01
  2.4533644e-01
 -7.5974770e-02
  1.0407495e+00
  2.4975473e-02
  3.8845944e-01
  4.6916834e-01
  2.4512623e-01
 -8.7473113e-03
 -3.0138087e-02
 -2.9637307e-01
  5.4451656e-01
  4.9222031e-01
 -7.1898180e-01
  7.1242243e-02
  1.6783224e-02
 -3.6496792e-02
 -1.1892051e-02
 -2.0340484e-02
  3.4211427e-02
  7.5086439e-01
 -5.7243565e-03
 -6.1108220e-02
  6.3593137e-01
 -5.1673573e-02
 -1.7130655e+00
 -2.1740348e+00
 -3.6923245e-03
 -1.0483606e-02
 -5.8628494e-01
 -2.2995850e-02
  1.8038256e-01
  1.3656003e-02
  5.4996246e-01
  8.0391234e-01
  1.0533051e+00
 -7.3869199e-02
  7.6077756e-04
 -7.1413666e-01
 -1.3538743e+00
  2.5102857e-01
 -3.8831279e-01
 -4.9430326e-01
 -3.3535913e-02
  2.8690934e-01
 -3.2159919e-01
 -2.6952159e+00
  5.8439338e-01
  3.3458409e-01
 -1.3603003e+00
  4.1776225e-02
  8.1742239e-01
 -3.3201331e-01
 -2.3663769e+00
 -6.0538787e-01
  1.4616688e-01
 -3.8738585e-01
  1.3169783e+00
 -5.7068932e-01
  3.6178246e-01
 -8.9036041e-01
  1.2789941e+00
  8.0086660e-01
  5.9128400e-02
  3.7885311e-01
 -4.5541418e-01
  8.2218781e-02
  3.3185756e-01
  1.5848486e-01
 -2.5605457e+00
 -1.0844254e-01
  5.1002216e-02
 -6.2564366e-02
 -6.4238423e-01
 -1.5225125e-02
 -4.7304022e-01
 -1.3393998e-01
 -5.3911723e-02
  4.4346148e-01
  1.2367004e-01
  4.2440969e-01
 -4.5111653e-01
 -7.1331047e-02
 -9.7404039e-03
 -9.0270627e-01
  1.6395875e+00
  1.7967885e+00
  1.2797055e+00
 -3.5802999e-01
 -1.4741163e+00
 -7.0012426e-01
 -5.0967592e-01
  2.4105287e+00
  7.2953504e-01
  1.2325426e+00
  1.8303113e-01
 -1.9842798e-01
  8.1517380e-01
  2.0733151e-01
 -2.4000856e-01
 -7.6145786e-01
 -5.8619654e-01
 -1.6453157e-01
  5.6655580e-01
  4.3581033e-01
 -3.5662088e-03
  1.3120134e+00
 -6.8896103e-01
  1.3478074e-02
 -9.1853243e-01
  1.1581703e-02
  9.2587566e-01
  3.4967017e-01
 -1.1770940e+00
  7.1975887e-01
  1.0541257e+00
  2.0807953e+00
 -1.9817312e-01
  1.2693474e+00
  1.0648316e+00
  2.9431064e+00
  4.7074947e-01
 -1.5192914e-01
 -3.1382479e-02
  1.8371078e+00
  3.7691677e-01
 -7.0255136e-01
 -2.2136281e-01
  5.8655882e-01
  1.5340559e+00
  1.0725514e+00
 -1.3302773e+00
  2.1631613e+00
  8.8433093e-01
  6.6379614e-02
  1.9168659e+00
 -1.5022340e+00
 -7.7800798e-01
 -2.0024471e-02
 -8.0823886e-01
  8.7248933e-01
 -1.0607786e+00
  1.3998874e+00
 -1.7232490e+00
  4.0453997e+00
 -3.2025549e-01
  2.5014285e-02
  1.4958944e+00
 -2.7135077e+00
 -1.0987077e+00
  2.8242847e-01
  1.7519956e+00
 -7.5119042e-01
 -6.0473853e-01
  1.2847121e+00
 -1.3539131e-01
  9.7626573e-01
  9.2660576e-01
 -1.9688241e-03
 -1.3654849e-01
  3.7804297e-01
 -2.2024982e-02
  5.7651091e-01
  2.3924661e-01
 -2.0589221e+00
  9.3690616e-01
  6.4887460e-03
 -1.7561764e+00
 -1.4272870e-01
  6.7860180e-01
  4.8629075e-01
 -2.1702869e+00
  1.5459437e+00
  3.9015234e-02
  1.7957535e-01
 -9.9219507e-01
  1.1647598e+00
 -1.8909648e-01
  1.3089220e-01
  2.3919637e+00
 -2.0858567e+00
 -1.0095856e+00
 -2.6820061e+00
  9.1352932e-02
 -2.0034208e+00
 -4.8384258e-01
 -3.0379277e-01
 -3.3802353e-02
  4.2823574e-01
 -1.2782448e-02
  7.2192699e-01
  5.3262961e-01
 -1.6724272e+00
 -1.1733979e+00
 -2.4164338e+00
 -3.9145523e-01
  1.0694121e+00
  1.5840724e-03
  1.3391753e-01
 -8.8851768e-01
  2.3589461e+00
 -1.9127238e-01
 -1.0884581e+00
 -6.8290836e-01
  4.9650362e-01
 -7.1536541e-01
 -9.2454648e-01
 -1.0164101e+00
 -2.0175155e-01
 -3.9959705e-01
 -1.5066521e-01
 -1.4431802e+00
 -7.2963573e-02
 -5.0458533e-01
 -3.9641130e-01
 -2.2050355e-01
 -7.4903977e-01
  1.0988039e+00
 -5.0087231e-01
  2.6929393e-01
 -2.1121053e-01
  9.5744833e-02
  2.1846266e-03
 -2.8262118e-01
  4.4592086e-02
 -6.6735023e-01
  2.1935377e-01
 -4.0917081e-01
  2.9983404e-01
 -8.1908464e-01
 -6.9179654e-02
  3.1570280e-01
  3.2431358e-01
 -1.2555057e+00
  2.2315416e+00
  9.7851378e-01
  2.9174492e-01
 -6.5304464e-01
  3.6065294e-03
  3.6376882e-01
 -2.1422324e+00
  1.9547772e+00
  1.2326318e+00
  5.8757806e-01
  2.1162744e+00
 -3.7329949e-02
  2.5509536e-01
  6.7337501e-01
  3.9802396e-01
 -1.4431399e-01
  2.1390850e-04
 -1.3085605e-01
 -6.1270380e-01
  1.4236373e+00
  2.1419518e+00
  4.4933792e-02
  1.8335066e+00
  7.2838940e-02
 -1.3390270e-02
 -7.1472758e-01
  3.0140200e-01
  2.1543983e-01
  1.0136548e+00
 -5.5790955e-01
 -4.9615183e-01
  9.6523255e-01
  5.0277579e-01
  1.1198489e-01
 -1.1124303e-01
  2.2356194e-01
 -5.1756170e-02
  1.6854733e-01
  3.1055117e-01
  1.9408566e-01
  3.0107605e-01
 -1.2708233e-01
  2.6887225e-02
  2.0867570e-01
  8.3559573e-01
 -1.8906030e-01
  9.6668765e-02
  2.8437793e-01
  1.7747416e-01
  1.2749271e+00
  1.5443550e+00
 -2.4089950e-01
  6.3028157e-01
 -3.8212380e-01
  8.7268220e-04
 -1.0258126e-01
  2.9984722e-01
  7.3297709e-01
  1.4396825e+00
 -2.6758093e-01
 -2.5736722e-01
  1.0857289e-01
  5.9227282e-01
 -5.8014536e-01
  5.5413139e-01
  5.5512728e-04
  1.0868078e+00
  6.1746621e-01
  1.5619800e+00
  1.1698682e-01
  1.8155091e-01
 -7.4017042e-01
 -2.0510125e+00
 -2.1783586e+00
  1.5520427e+00
 -3.6587685e-01
  7.2564650e-01
 -1.1177828e+00
  9.1362727e-01
  8.0314124e-01
  1.9508832e+00
 -3.9132977e-01
 -7.6161134e-01
 -6.2202138e-01
 -1.5506586e+00
  1.5829057e-01
 -1.1351571e+00
 -1.2130756e+00
  3.4809154e-01
 -7.7715033e-01
 -3.2788128e-01
  1.1965414e-01
  2.0886705e+00
 -7.7696413e-01
  5.3018969e-01
  9.0170449e-01
 -2.1353833e-01
 -8.8727009e-01
  4.0004769e-01
  7.0777285e-01
 -1.5116552e+00
  1.3920113e+00
  2.2729802e+00
  1.0992468e-02
  2.4627037e+00
  5.8831555e-01
  7.3134911e-01
 -5.2377391e-01
  3.9470255e-02
 -1.2518451e+00
 -1.4142215e+00
  1.9153926e-01
  1.5731881e+00
  5.7845403e-02
  2.2796209e+00
  3.0678454e-01
  1.0236109e+00
  4.0536723e-01
 -5.5005312e-01
 -1.3598899e-02
  1.7682752e-01
 -9.3041885e-01
 -4.2137244e-01
 -1.8561897e-01
  9.3672889e-01
  1.2085894e+00
  6.4627536e-02
 -1.1603563e+00
  1.1316965e+00
  2.0751955e-01
 -5.7562371e-03
 -1.8384652e-01
 -3.8446048e-01
 -2.8898808e-01
  8.5443422e-02
 -2.9885864e-01
  5.6914616e-01
 -1.7027919e+00
  1.1795924e+00
 -6.7266685e-01
  8.8620144e-01
  2.9452303e-01
  1.0461701e-01
 -7.2530597e-01
  2.9566652e-01
  9.6910942e-01
 -9.6096373e-01
 -3.0050996e-01
  1.1952983e+00
  8.5973090e-01
 -1.0797563e+00
  3.6358152e-02
  3.1031936e-01
 -8.2782972e-01
  8.9289224e-01
  1.2902629e+00
 -4.7950849e-01
  1.0622093e-03
  4.4151178e-01
  2.1791685e+00
  6.8966001e-02
  2.5441104e-01
 -1.9523807e-02
 -2.3649025e+00
 -1.1818266e+00
  3.1773525e-01
  5.9494263e-01
 -7.3454481e-01
  2.6437876e-01
 -9.3470607e-03
 -1.1597873e-01
  1.6802506e-01
 -2.2276793e-01
  9.0175617e-01
  3.1866677e-02
 -4.0745935e-03
  2.5305414e-01
  1.2630799e+00
  1.5515568e+00
  1.8594477e+00
  3.8776297e-02
  1.2412201e-02
 -3.9184517e-01
 -1.8722542e-01
 -2.3686895e-01
  5.2673596e-01
  9.3514830e-01
  1.7122744e-01
  5.8700755e-02
  1.4328717e+00
 -2.5753829e-01
 -1.6040351e-02
  3.4698714e-02
 -1.9307652e-02
  1.9794066e-01
  1.0060226e+00
  1.0206595e-01
 -1.1886252e+00
  1.1345048e-01
  7.6791912e-01
 -2.4848965e-03
 -8.7950462e-01
  1.0341365e+00
  6.2895715e-01
  5.0389361e-01
  2.3359172e-02
  2.3359172e-02
  2.3359172e-02
  2.3359172e-02
  2.3359172e-02
  2.3359172e-02
  2.3359172e-02
  2.3359172e-02
  2.3359172e-02
  3.7800722e-02
  3.7800722e-02
  3.7800722e-02
  3.7800722e-02
  3.7800722e-02
  3.7800722e-02
  3.7800722e-02
  2.9012233e-02
  2.9012233e-02
  2.9012233e-02
  2.9012233e-02
  2.9012233e-02
  2.9012233e-02
  2.9012233e-02
  1.3580502e-02
  1.3580502e-02
  1.3580502e-02
  1.3580502e-02
  1.3580502e-02
  1.3580502e-02
  1.3580502e-02
  5.7021868e-03
  5.7021868e-03
  5.7021868e-03
  5.7021868e-03
  5.7021868e-03
  5.7021868e-03
  5.7021868e-03
  1.2225810e-02
  1.2225810e-02
  1.2225810e-02
  1.2225810e-02
  1.2225810e-02
  1.2225810e-02
  1.2225810e-02
