nep4 2 Cu Se 
cutoff 7 5 100 44
n_max 8 6
basis_size 12 12
l_max 4 2 0
ANN 50 0
  7.6613939e-01
 -3.0969164e-01
  1.0043076e+00
 -4.6510798e-01
  6.0452148e-03
  2.3773560e-01
 -1.3013643e+00
  8.2551885e-01
  1.4348811e-01
  3.3971529e-02
  1.5107541e+00
 -1.7114562e-01
 -1.6044262e-01
  2.9478011e-01
  7.4252725e-01
  1.1170302e-01
 -2.4857682e-03
  1.5223944e-01
 -6.7934558e-02
  1.2322733e-01
  3.0378160e-01
  2.8498314e-02
 -1.6444093e-01
  6.0217697e-02
  2.4478863e-01
 -2.1668993e-01
  2.4299115e-01
 -6.6310567e-01
 -9.0975650e-03
 -1.1353440e-01
 -3.5457831e-02
  4.3490242e-02
  1.1000702e-01
  1.3409380e-02
  9.5337892e-01
  7.0747000e-01
 -4.3651097e-02
  3.6078596e-01
 -1.0519806e-02
  5.0538939e-01
 -2.6659569e-01
  2.9938453e-01
  4.5103344e-01
 -3.8288388e-02
 -3.2244807e-01
  1.6304120e-02
  1.2542395e-01
 -6.8803155e-01
 -3.3343583e-01
 -1.3432078e-02
 -2.0089457e-02
 -1.3434306e+00
  4.8099542e-01
 -1.3147967e-01
  2.2738855e-01
 -2.3542503e-01
 -5.6244934e-01
  7.7094430e-01
  5.5440176e-01
  7.1977004e-03
 -4.2202738e-01
  8.4382981e-01
  2.3245551e-01
 -1.0221728e-01
 -5.4671180e-01
 -2.1868905e-01
 -8.1603572e-02
 -6.4533919e-02
 -1.7247625e-01
 -6.5074209e-03
 -7.9562232e-02
 -6.9942236e-02
 -3.9285284e-02
  3.0368644e-01
 -1.2944013e-01
  2.8700376e-01
  7.5413001e-01
  7.7552336e-01
  7.6289840e-02
 -2.1020837e-02
 -9.5226325e-02
 -2.8318378e-01
 -2.3175949e-02
  1.4057484e-01
 -7.7766538e-02
 -9.3124740e-02
 -1.1762280e-01
  8.8421509e-02
 -6.5094471e-01
 -1.8246424e-01
 -2.3621733e-01
  2.5610372e-01
  1.9421405e-01
 -3.3383291e-02
 -6.6879578e-02
  2.9370284e-01
  4.0237907e-01
 -5.7582790e-01
 -4.1826802e-01
  3.0828509e-01
 -2.9801387e-01
  3.2644268e-02
  4.7941796e-02
  3.2890439e-01
 -1.3125779e-01
  2.3691949e-01
  9.6542723e-02
 -3.9523685e-01
 -1.2187701e-01
  3.6794394e-01
 -3.5702474e-02
 -3.6285409e-01
 -1.5845700e-01
  5.5482164e-03
 -2.7215874e-01
 -2.6710683e-01
 -2.9193452e-01
  3.4093313e-02
  5.5022186e-01
 -1.5237480e-01
 -6.3794002e-02
  9.4451591e-02
  1.7173355e+00
  2.4039285e-01
 -1.4625223e-01
 -1.0350583e-01
  7.8530140e-02
 -1.5034708e-01
 -1.1795638e-01
  2.3335236e-01
 -9.8849058e-02
  1.6343078e-01
  1.0811299e-01
 -5.0041592e-01
 -6.6700959e-01
 -4.4862550e-02
  5.0629550e-01
  9.2009883e-03
 -5.7281412e-02
  2.4939531e-01
 -9.8643070e-01
  1.4043978e-01
 -2.2707251e-01
 -2.2400770e-01
  2.3750128e-01
  1.6008085e-01
 -8.0593936e-02
  3.4235556e-02
  4.1345918e-01
  6.4024553e-02
 -3.6300039e-01
 -2.3344573e-02
  3.4498340e-01
  3.5293707e-01
 -2.5672856e-01
  1.0466843e+00
  3.0685514e-01
 -2.7890652e-01
  4.5724764e-01
 -3.7420267e-01
  8.1677914e-02
  1.9304928e-01
 -2.7845043e-01
 -3.8561001e-02
  8.4617272e-02
 -2.0759392e-01
 -2.2229055e-01
 -6.8299860e-02
  4.1289997e-01
  1.4667887e-02
 -8.7564832e-01
 -3.5722546e-02
  3.2815626e-01
 -7.7245355e-02
 -3.0002221e-01
  6.0341518e-02
 -4.2041212e-01
 -5.7716292e-01
  3.1087548e-04
  9.6346915e-02
  1.9106343e-01
  5.5462543e-02
 -1.8927924e-02
 -1.0579281e-01
  1.2201705e+00
  5.2922755e-01
  1.2326429e-01
  5.5404490e-01
 -3.6825001e-01
 -9.4143592e-02
 -2.8536439e-01
  3.8021386e-02
  8.0434337e-02
  8.8620067e-01
 -5.6210595e-01
 -3.3232525e-01
 -2.8816855e-01
 -6.9880742e-01
  4.3522034e-02
 -9.8945335e-02
  7.9942822e-02
  5.7641315e-01
  1.5865219e-01
  5.5971181e-01
  1.7772794e-01
  5.1149076e-01
  3.4077826e-01
  2.7312499e-01
  3.4552515e-01
  5.1081035e-02
 -1.3043444e+00
 -5.2402146e-02
 -1.6843487e-01
 -1.0593997e-01
  1.2787029e-01
  3.7464939e-02
 -1.2788309e-02
  1.6419068e-01
 -4.4316667e-01
 -3.0028149e-01
 -5.9512240e-01
  1.7169615e+00
 -3.6581450e+00
  3.7562504e-02
  1.0090719e+00
 -5.1677877e-01
 -6.5748388e-01
  3.5569265e-01
  5.4088014e-01
 -1.5635735e+00
  1.6871220e-01
 -3.8650051e-01
 -1.2277828e+00
  2.5330728e-01
 -6.0217464e-01
 -9.0981930e-01
 -1.1779252e+00
  3.9103471e-02
  3.7917799e-01
  2.5986607e+00
 -2.3334090e-01
  1.5955257e-01
 -2.0269805e-01
  6.4160818e-01
  7.2223313e-02
  3.2528602e-02
 -7.2012693e-02
 -3.8404893e-02
 -4.0115264e-01
 -4.9033362e-01
 -1.7458211e-01
  9.8225063e-01
  6.9666141e-01
  9.8750371e-01
 -3.2073215e-01
  8.4349655e-02
  1.8448651e-01
 -5.3499764e-01
  3.7411100e-01
  6.2028879e-01
  1.5903726e-01
 -3.3510941e-01
  9.3741924e-01
  1.6848679e-01
 -2.5683728e-01
 -9.4950110e-02
 -1.0558151e+00
 -7.0948803e-01
  1.5605949e+00
  2.2804911e-01
  1.5733400e-01
  1.3746195e-02
 -5.1695806e-01
  9.0825689e-01
  1.0645283e+00
 -8.0917910e-02
 -1.4940457e-03
  7.7155381e-01
  2.4348946e+00
 -8.1156176e-01
  6.2944245e-01
  1.2177759e+00
  9.8632298e-02
 -9.9631089e-01
  1.4682829e-01
  1.0789422e+00
  7.3532361e-01
  5.5217528e-01
  1.4387703e+00
  1.3303604e+00
  1.4421390e-01
 -4.7585520e-01
 -9.0356368e-01
 -4.0900484e-01
  1.1876798e-01
  3.1441924e-01
  2.1580544e+00
 -1.2824761e+00
 -1.5988336e+00
  3.1004494e-01
  2.4050985e-01
  1.6883795e-01
 -2.5529790e-01
 -9.5596099e-01
  5.6509636e-02
 -6.5916049e-01
 -2.9201534e-01
 -4.0802589e-01
  6.4097989e-01
 -2.0001973e-01
 -6.0923523e-01
  1.0185815e+00
  4.1307876e-01
 -6.2608671e-01
  1.1865006e-01
 -3.5067672e-01
  3.2315305e-01
 -2.3007173e-02
  3.4999824e-01
  1.7230445e-01
  1.8786609e-01
 -5.5185296e-02
 -3.0805454e-01
 -4.9992377e-01
 -3.5531205e-01
  5.3462994e-01
  5.0810769e-02
  7.1629405e-02
  4.1555822e-01
 -2.4927607e-01
 -4.4811252e-01
 -1.7657954e-01
 -3.5062128e-01
 -2.6839241e-02
  3.1763616e-01
 -8.4759407e-02
  5.8634114e-04
 -5.1289406e-03
 -5.3807795e-01
 -1.1129311e-01
  1.5937191e-02
  9.2759151e-03
  6.7469978e-01
  5.6530553e-01
 -2.4287915e-01
  1.2406342e-01
 -1.6202660e-01
 -1.3584644e-02
  1.7478138e-01
  7.7185884e-02
 -1.4496233e-01
  2.0920974e-01
 -6.4673036e-01
  2.5852013e+00
 -5.3517526e-01
  7.6554745e-01
  2.5199080e+00
  3.5192367e-02
 -1.6193349e+00
  1.0697796e-01
 -8.2691178e-02
  8.1605673e-01
  5.7105191e-02
 -8.4401649e-01
  2.6325941e-01
  1.3695192e-04
  1.1226202e-01
 -1.8063688e-01
  6.8256229e-01
 -5.0597012e-02
  5.8099461e-01
 -3.6161307e-01
 -4.2039511e-01
 -2.5568807e-01
  5.9422009e-02
 -5.6259567e-01
  9.5474839e-01
  5.7395417e-03
 -9.4909228e-02
 -4.0296790e-01
  7.7348226e-01
  7.9608232e-02
  1.1499729e+00
  1.1944877e-01
 -2.4675110e-01
  1.1887569e+00
  9.8023556e-02
 -2.1949239e-01
  3.6809316e-01
  3.2247016e-01
 -3.5559338e-02
 -1.6790229e-01
  3.4938860e-01
  5.6395721e-01
 -1.1207823e-01
 -1.0968662e-01
  5.1587325e-01
 -1.1540685e+00
  6.6028550e-02
 -9.9010903e-01
  4.4883093e-01
  6.2408549e-01
 -1.7984127e-01
 -1.1651907e+00
  2.2484556e-01
 -1.6989438e-01
  1.7679264e-01
 -3.2036909e-01
 -3.6636338e-01
  7.3318534e-02
  4.7513586e-01
 -6.1841309e-02
  1.9218417e-01
  2.4409325e-01
  4.6752721e-01
  3.8169408e-01
  2.3072107e-01
 -2.0308906e-01
 -8.0444338e-03
  8.5092098e-01
  4.0217564e-02
  1.1040305e-01
 -1.8341482e+00
  7.6248538e-01
 -6.4075934e-03
 -4.4421437e-01
 -1.3715175e-01
  9.5098302e-02
  2.2712350e-02
  2.9197523e-02
  1.0855231e-01
  5.1581684e-02
  4.7364482e-01
 -7.9488948e-02
  2.2849612e-02
  1.7816104e-01
  2.4914783e-01
 -4.5674172e-01
  2.5463134e-01
  2.4477580e-01
 -1.2870871e-01
  3.2743782e-01
  7.2836095e-01
  1.0358855e+00
  3.7066552e-01
 -1.2027805e-01
 -9.3580580e-01
  1.8549883e-01
 -9.7946924e-01
  9.8500848e-02
 -1.2249183e-01
 -9.8065442e-01
  1.4933314e+00
 -5.4929346e-01
  5.4695725e-01
 -8.1268847e-02
  3.1045866e-01
 -4.0344842e-02
 -1.4110885e+00
  3.2640573e-01
  1.3248898e-01
  5.0418669e-01
  1.3517401e-01
  2.0048871e+00
  1.3904706e+00
 -2.5899796e+00
 -2.5033993e-01
  5.9701312e-01
  1.7405258e-02
  8.0608332e-01
  4.0580052e-01
  8.1864470e-01
  1.6834947e-01
 -3.2743767e-01
  1.4654627e-02
 -3.1887853e-01
  6.3514918e-01
 -1.0771830e+00
 -2.4150258e-01
 -5.2286506e-02
  1.4726752e-01
 -2.3421481e-02
 -9.9602893e-02
 -4.8282790e-01
 -2.2070687e-01
 -4.7447260e-02
 -9.9458510e-01
 -1.7765453e-01
  3.8061160e-01
  9.1462135e-01
 -2.0638421e-01
  4.2097907e+00
 -2.4334909e-01
  5.0800341e-01
 -1.3011528e+00
 -9.0443268e-03
  6.8853483e-02
  3.2636169e-02
 -6.5428831e-02
 -3.3607769e-01
  2.8507710e-02
 -1.0876240e-02
 -1.3219103e+00
  7.0466423e-01
 -1.7295081e-02
  7.2678655e-01
  5.0612593e-01
  1.4077510e-01
  1.6558403e-01
  7.7639744e-02
 -6.3327767e-02
  8.6253449e-02
  2.6152771e-02
  6.4267054e-02
  3.8827744e-01
 -1.9884871e-01
  7.2099403e-02
 -2.1668252e-01
 -2.6470524e-01
 -3.2923341e-01
 -1.6008474e-01
 -5.4675537e-01
  2.1868730e-01
 -4.5936340e-01
 -4.1753808e-01
 -1.4360923e-01
 -6.2877141e-02
 -3.4844905e-01
  1.8933208e-01
 -3.5421136e-01
  2.5246432e-01
  3.2339016e-01
  7.0120148e-02
  1.1033051e-01
  5.8938462e-01
  4.3677205e-01
 -7.5316340e-02
 -5.3240651e-01
 -3.2224804e-01
 -3.7688680e-02
  3.4055325e-01
 -6.8432473e-02
 -1.9387044e-01
  1.3133446e-02
 -1.9150919e-01
 -3.6176831e-01
  3.5472307e-01
 -1.7593665e-01
  2.6347274e-01
 -1.9609156e-01
 -1.2573470e-01
  1.9459555e-01
 -2.0120898e-01
  8.4538400e-02
 -1.1857781e-01
 -1.6042651e-01
  1.5346985e-03
  3.6733842e-01
 -1.1920513e-01
 -1.5620917e-01
 -1.4544466e-01
  3.0266660e-01
  7.0410870e-02
 -2.0747116e-01
  8.0859637e-01
 -5.5555177e-01
  3.8945120e-02
  3.0107698e-01
  5.6999171e-01
 -1.1440943e-02
  2.9088093e-02
  2.2722948e-01
  1.3043231e-01
  1.7192419e-01
  1.3827975e-01
 -2.7255833e-01
  1.7449540e-01
  3.7428077e-02
 -8.4664011e-01
 -1.0491210e+00
 -6.1931270e-01
  6.9324213e-01
 -2.1088667e-01
 -2.2139812e-02
 -6.7143865e-02
  1.2233384e-01
 -2.8005036e-02
  1.8339229e-01
  4.2011976e-01
  4.5266293e-02
  4.1303658e-01
 -1.2059295e-01
  5.7556254e-01
 -7.4634299e-02
  5.5211926e-01
 -2.7523389e-01
  4.8361021e-01
 -5.1541965e-02
 -1.0808101e-01
  1.7141208e-02
  2.8586340e-01
 -4.9013786e-02
  3.1154680e-01
 -7.3449999e-02
 -1.4430156e-02
 -1.3722709e-01
 -4.7588152e-01
  6.7942923e-01
 -3.5553962e-02
  1.4825548e-01
  3.2422543e-01
  2.7240630e-02
  7.3037100e-01
 -7.5945616e-02
  3.1429179e-02
  5.4638516e-02
  6.0620219e-01
 -6.7407042e-02
  3.8829237e-01
  2.9674072e-02
  5.2241570e-01
  9.2834830e-02
  1.0689445e-01
  2.0444088e-01
  4.3524346e-01
  1.5472065e-01
  1.3686043e-01
 -2.8165993e-01
  2.8644064e-01
 -4.9567685e-02
 -2.9502684e-01
 -4.7133863e-02
  7.7346072e-02
  1.5983322e-01
  4.5774095e-02
  4.8498679e-02
  3.2357228e-01
 -1.8089870e-01
  5.7601947e-03
 -6.4368671e-01
  2.7900568e-01
  1.0086359e-01
 -1.3535136e-01
 -1.3573201e-01
  6.6468649e-02
 -4.5435321e-01
 -4.9345195e-01
  9.6492551e-02
 -1.0017043e-01
 -1.9153062e-01
 -2.8092018e-01
 -2.2597302e-01
  1.1066695e-01
 -1.4021554e+00
 -2.9508632e-01
 -1.0335023e-01
 -5.4693711e-01
  1.7786722e-01
  5.6232285e-01
  2.8866115e-01
  2.4520952e-01
  3.5573402e-01
 -1.5872523e-01
 -5.0737537e-02
  6.7155820e-01
  2.3669682e-01
 -6.8883702e-02
 -4.9903087e-02
 -1.1043234e-01
  3.5678592e-01
  3.3770822e-02
 -1.7509273e-01
  1.7625982e-01
 -3.7581570e-02
  7.2706634e-01
  8.2272410e-01
  1.4611909e-01
  1.3858579e-02
 -4.3762156e-01
  1.9733979e-01
 -3.2871276e-01
 -3.1621061e-02
  2.1486512e-01
  4.4343886e-01
  8.5719004e-03
  4.3814436e-02
 -8.4915638e-02
  1.7231858e-01
 -5.5413866e-01
  4.1770384e-02
  1.9501752e-01
 -8.0957845e-02
 -2.2179760e-01
  9.9496263e-01
  1.7334929e-02
 -9.9050537e-02
  1.0284440e-01
 -4.8652345e-01
 -2.0801942e-01
  5.6723319e-03
 -3.7900636e-01
  4.9244352e-03
 -1.1856677e-01
 -3.7010308e-02
  4.4912583e-01
  4.6914762e-01
 -2.2843920e-01
  4.3523069e-02
 -6.0513023e-02
 -4.0175861e-01
  4.7753298e-01
 -4.3359050e-01
  3.0697751e-01
 -1.9495040e-01
 -2.7043378e-01
  4.8530877e-01
 -1.9588085e-02
  2.3178372e-01
  2.0094562e-02
  3.1522334e-01
 -1.8054345e-01
 -3.6113709e-01
 -1.2042597e-02
 -2.0098682e-01
 -1.1779317e-01
  6.3548893e-01
  3.4109873e-01
  7.7638939e-02
  5.8233559e-01
  1.0248491e-01
 -9.0840673e-01
 -7.3761433e-02
 -4.8607561e-01
  1.3965841e-01
 -6.9961399e-02
  1.0564410e-01
  3.8774219e-01
 -2.4983296e-01
  1.3609456e+00
 -3.3675671e-01
 -6.6829875e-02
 -2.1383780e-01
 -1.9870289e-03
  2.2042183e-02
 -5.0794649e-01
 -1.1817256e-01
 -8.0924153e-02
 -1.8951298e-01
 -7.0497900e-02
 -1.9580637e-01
  2.7869675e+00
  1.5747906e-01
 -5.1380211e-01
 -1.1942861e-01
 -4.9018398e-01
 -6.1286753e-01
 -6.2842917e-01
 -4.0055504e-01
  4.7334668e-01
  3.1516707e-01
 -1.3945657e+00
 -3.7602719e-02
  9.8642513e-02
  1.9696054e-01
 -4.3760759e-01
 -8.5681930e-02
 -3.5162625e-01
 -1.3648850e-01
  2.1088094e-01
  1.6758093e-01
 -5.8064759e-01
 -1.7927369e-01
  1.0503069e-01
  5.5620718e-01
 -1.2975214e-02
  4.0167454e-01
  4.2693186e-01
  2.0494574e-01
  3.2877580e-03
 -4.9584210e-03
 -4.2283908e-01
  1.2786271e-01
  8.9227545e-01
  4.3675121e-02
 -5.3402752e-01
  2.2407745e-01
 -6.3333404e-01
 -1.9638830e-01
  1.5478219e-01
  9.4744332e-02
 -3.4775069e-01
 -4.9647182e-01
  3.5043001e-01
  5.4819971e-01
 -4.1771103e-03
  1.0190631e+00
 -2.7008131e-01
  2.0567691e-01
  1.7725644e-01
 -6.1440295e-01
  9.5373386e-01
  6.1241961e-01
 -2.7767114e-02
  7.4821033e-02
 -2.4639624e-01
 -1.0264036e-01
  1.3094207e+00
 -3.9991030e-01
  5.5271262e-01
  2.9816267e-01
  1.0333598e-01
  4.6018556e-02
  6.8644136e-02
  7.6324455e-02
  7.4401863e-02
 -1.7339744e-01
 -1.5978096e-01
 -4.6034777e-03
  2.8279278e-02
 -1.8213645e-02
  6.6434616e-01
  3.2477379e-01
 -2.8520223e-02
  3.7349933e-01
 -2.3807737e-01
  1.2370233e-01
 -6.9188744e-01
 -3.8484707e-02
  4.8917711e-01
 -2.0957150e-02
 -1.1292131e-01
  5.2594572e-01
  2.0654793e-01
  9.5612984e-03
 -3.4665868e-02
 -6.1245584e-01
 -4.3332208e-02
 -2.8793582e-01
 -3.8667569e-01
  6.4005768e-01
 -4.9869409e-01
  3.2222411e-01
  3.0110842e-01
 -9.2664406e-02
  1.7719015e-01
 -4.7662621e-03
  2.5696011e-02
 -3.4362152e-03
  1.8802591e-02
  1.6758910e-01
  9.0310067e-02
  4.4397306e-01
  5.7535376e-02
  2.8499678e-01
 -2.2682041e-01
 -1.3382100e-01
 -1.5979479e-01
 -3.5905612e-01
 -9.4410980e-01
  5.9861965e-02
  1.1653711e-02
  1.5296349e-01
  4.3635059e-02
  1.5777116e+00
  4.1301540e-01
 -7.6800257e-02
 -6.8562210e-02
  5.5439547e-02
  3.1744128e-01
 -4.3631427e-02
 -1.1959955e-02
  6.0996901e-02
 -1.0522638e-01
  4.7007331e-01
 -1.7763905e-01
  1.3001971e-01
 -5.2566510e-01
 -7.8196339e-02
 -7.6012677e-03
 -7.5035554e-01
 -3.4636617e-02
 -6.2651712e-01
 -1.4112848e-01
 -2.7308759e-01
  1.9952080e-01
 -1.2203975e-01
  1.1176828e-01
  3.9775822e-01
  2.0988263e-01
 -2.3037075e-01
  7.1085364e-01
  9.0920314e-02
 -2.4852081e-01
  3.5699573e-01
  1.2627843e-01
 -2.3609738e-01
  8.6498596e-03
  5.0199807e-01
 -2.0846240e-01
 -1.3310592e-01
 -9.0245672e-02
 -2.4080491e-01
  6.4860910e-02
 -2.5679323e-01
  1.3898094e-01
 -1.9883942e-02
 -1.1866999e+00
  1.6037476e-01
  1.7708741e-01
  1.2527873e-01
  1.6798395e-01
  3.3934170e-01
  1.5572467e-01
 -3.5269284e-01
 -2.2040702e-01
 -3.8776222e-01
  1.2856549e-01
  8.5544460e-02
 -5.8778476e-02
 -1.1352526e-01
  2.2144465e-02
 -2.7954375e-02
  5.9294027e-01
 -1.1378522e+00
 -1.2717023e-01
  3.8738386e-03
 -1.6636582e-01
 -1.7581388e-01
  3.6880216e-01
  5.2042454e-01
  2.5680709e-01
 -1.8239525e-01
 -9.7154301e-01
 -1.5308898e-02
  7.2880737e-02
 -6.4090922e-02
  1.8680976e-01
  2.0536831e-01
 -9.1333890e-01
 -1.3870290e-01
 -3.7982103e-01
  3.7718850e-01
  3.0294806e-01
 -5.8633186e-02
  3.0764425e-01
  5.0732607e-01
  2.7478582e-01
  2.5710687e-02
 -1.5760109e-02
  1.0203885e-01
 -2.2666021e-01
  3.9361575e-01
 -1.5402356e-01
  9.8069839e-02
  2.0799343e-02
 -2.3934560e-02
 -5.9876025e-01
  1.1022232e-01
  1.3417464e-01
 -2.8092203e-01
  5.4437287e-02
 -6.1234832e-02
  2.8449637e-01
 -4.0612078e-01
  5.2251464e-01
  2.1354985e-01
  3.4860852e-01
  1.3603567e-01
 -4.1616413e-01
  2.4756119e+00
  4.5881248e-01
  1.8235661e+00
 -1.4652506e-01
  2.9139444e-01
  3.2337400e-01
  5.3450948e-01
 -2.9774287e-01
  1.0875327e-01
  2.1372724e-01
  1.6074029e-01
 -5.1677155e-01
  2.3418993e-01
  3.3116639e-02
  2.7136910e-01
  3.3592412e-01
  8.5216469e-01
  5.1418233e-01
 -2.8902605e-01
  1.9728713e-02
  9.0430543e-02
 -1.0297712e+00
  8.5353881e-02
  2.5783047e-02
 -8.6688250e-01
 -9.0660280e-01
 -5.2013934e-01
 -6.0643274e-01
  1.4179997e-02
 -4.8459999e-02
  1.7271635e-01
  7.4139714e-02
 -1.4272292e-01
 -5.8747429e-01
  3.6122745e-01
  1.9734730e-01
  4.7647303e-01
  3.2165459e-01
 -9.2092291e-02
  5.5839360e-02
  6.7685775e-02
  3.1897429e-01
  1.0458440e-01
 -5.0872181e-02
 -1.3886930e-01
  5.5276132e-01
 -1.3506130e+00
 -4.4506693e-01
  3.0644608e-01
  1.5422331e-01
 -6.8259889e-01
  6.2564629e-01
 -2.2954629e-01
 -7.7434152e-02
  5.1040936e-01
 -4.5884103e-01
  2.2156255e-01
 -1.3966981e-01
 -2.1820519e-02
 -3.1148958e-01
 -2.8385249e-01
  7.4489456e-01
 -7.2620288e-02
  3.0223048e-01
 -5.3757757e-01
  7.2417647e-01
  6.9978023e-01
  2.3820007e-01
  4.9186373e-01
 -3.6536936e-02
 -7.8366995e-01
  1.9533946e-01
  9.3979985e-02
  2.5330907e-01
  2.8805274e-01
  1.8080951e-01
 -1.9201264e-01
  4.3231905e-01
 -1.1680022e-01
 -1.2295542e-01
  7.8467883e-02
 -1.8406779e-01
  4.7058772e-02
  6.4419761e-02
  2.3654433e-01
 -3.7853616e-01
 -3.2245874e-01
  5.2099973e-01
 -7.7284098e-02
 -4.3861985e-02
  3.0829979e-02
 -9.9782534e-02
 -1.1944140e-01
  2.9568824e-01
  5.4389544e-02
 -1.7199048e-01
  2.7064481e-01
  7.9749107e-01
 -6.8428114e-02
  1.1209480e-01
 -1.0066957e+00
 -1.3307118e-01
 -2.3503973e-01
 -2.5042757e-01
  7.1054709e-01
 -1.3754293e-01
 -1.0037078e-01
 -5.4152632e-01
  9.2036480e-01
 -8.7926634e-02
  2.9654510e-02
 -3.3275327e-01
 -6.7635991e-02
 -4.1366866e-01
 -6.9709694e-01
  4.2137441e-01
  1.9699058e-01
 -5.8616038e-02
  1.9067279e-01
  1.3582297e-02
  5.2302249e-02
 -4.2389095e-02
 -1.6993959e-01
  2.3804967e-01
 -4.1084610e-02
 -3.9016446e-01
 -1.8835501e-01
 -8.9070246e-02
  2.9008660e-01
 -1.3068159e-01
  2.4025552e-02
 -4.0173680e-01
  1.1531138e+00
  3.3618826e-01
 -2.1226509e+00
  1.1266600e-01
 -4.3500817e-01
  1.6602406e-01
 -2.4727261e-01
 -1.3487774e-01
 -1.7110449e-01
  2.5717607e-01
  1.4828019e-01
  1.0627600e-01
 -3.5314918e-01
 -2.2880098e-01
 -9.3805365e-02
  1.5184207e-01
 -2.1171178e-01
  1.5965927e-01
 -1.2589137e-01
 -2.1776833e-01
 -6.9463819e-02
  2.3436178e-03
  2.6497328e-01
 -6.8060637e-02
  1.1912801e+00
  2.0141403e-01
  3.0465506e-02
  2.4695325e-01
 -1.0004990e-02
  7.6939918e-02
 -8.3011813e-02
 -2.6490018e-01
  1.9647247e-01
 -2.6699114e-01
  3.2001786e-02
 -5.1163322e-01
 -2.9943866e-01
 -2.5251034e-01
 -6.8408519e-01
 -4.6241233e-01
 -1.4122351e-01
  3.8520750e-02
 -1.5635103e-01
 -3.6528856e-01
  4.0397593e-01
  5.1098716e-01
 -5.4456025e-01
 -7.0254380e-01
  8.3485484e-01
 -2.2490306e-01
  7.8032479e-02
 -8.8225627e-01
 -1.3297795e-01
  5.1910603e-01
 -4.7004037e-02
 -4.3879062e-02
  2.9719901e-01
  2.9089850e-01
  1.7348559e-01
 -9.3638875e-02
  8.6849362e-02
 -1.6921520e-01
  5.4453019e-02
 -4.2251331e-01
  3.0208707e-01
 -3.1243047e-01
  9.7998756e-01
  1.5672185e+00
 -2.2268806e-01
  5.3884679e-01
 -2.1937369e-01
  2.5719702e-01
 -3.4818316e-01
  7.0115864e-02
 -3.1476903e-01
 -4.8492458e-01
  1.2787522e-01
  4.6367556e-01
 -6.5339059e-02
 -2.5105897e-01
 -5.9011257e-01
 -1.3165975e-01
 -2.0517626e-01
 -3.7884902e-02
  1.4288983e-01
  2.8399725e-02
  1.6643208e-01
 -3.5978964e-01
 -6.1368793e-01
  5.8399659e-01
 -7.1976554e-01
 -1.0006120e+00
 -2.1257670e-01
 -1.2494428e-01
 -5.1613599e-01
  3.5549441e-01
  2.2987042e-01
 -1.9685115e-01
 -2.4255526e-01
  3.2398406e-01
 -1.1738400e-01
  3.9348653e-01
  2.4354011e-01
  5.8747327e-01
 -2.2634016e-01
 -1.8842001e-01
 -4.8155400e-01
  1.9221213e-01
 -3.2668009e-01
  1.4734602e-01
 -2.5916900e-02
 -5.6332779e-01
 -4.7108680e-03
  3.6154452e-01
 -8.2146563e-03
 -2.9489260e-02
  1.8348325e+00
 -2.8815541e-01
  9.7598529e-01
 -2.0300817e-01
 -2.7915859e-01
 -8.1185699e-01
  4.1418791e-01
 -9.1898572e-01
  2.9124928e-01
  1.8534404e-01
 -1.7709069e-01
 -2.7247876e-01
  9.0447056e-01
 -1.1329532e-01
  1.9894174e-01
 -3.5444394e-01
  2.0997485e-02
 -2.2662765e-01
 -5.9669131e-01
 -2.7237836e-02
  1.0049045e-01
 -1.1662176e-01
 -3.0065888e-01
  1.9176972e-01
  1.3221426e-01
  1.7068006e-01
  3.6305088e-01
 -2.3302943e-01
 -3.0687824e-01
 -3.1227046e-01
  2.0502001e-01
  2.4569431e-01
 -6.2601962e-03
  2.9305294e-01
  4.8317924e-02
 -5.0694233e-01
 -3.0859739e-01
 -3.1196830e-01
  4.9552828e-01
 -1.5276054e-01
  2.7162904e-01
  1.9937027e-02
 -2.2455424e-01
  2.4465621e-03
 -6.5889008e-02
 -4.5442674e-01
  5.0307667e-01
 -1.3550478e-01
  3.7185025e-01
  5.2289009e-02
  5.7397497e-01
  6.0228460e-02
  4.6798277e-01
 -1.9475587e-02
 -1.1298180e-02
  8.5662067e-02
  4.6339732e-01
  1.1690664e-01
 -3.1947064e-01
  7.4645676e-02
  1.5731449e-01
 -1.5914447e+00
 -1.4403913e+00
 -4.6709368e-01
  6.4176637e-01
 -9.1857634e-02
 -4.5308030e-01
  2.7836885e-02
 -6.0352767e-01
 -2.8962526e-02
 -5.3039545e-01
 -1.3770325e-02
  1.4774302e-01
 -2.0123761e-02
 -4.1683745e-01
 -3.7115961e-01
 -1.7655300e-01
  2.9584992e-01
  3.5061881e-01
  6.8334132e-02
  1.4758272e-01
 -2.7497041e-01
 -1.0921685e-01
  6.1111325e-01
  9.0527624e-01
 -4.8747689e-01
  1.9210026e-02
  2.3365992e-01
  7.9284482e-02
  6.1687553e-01
  1.1850668e-01
  3.8842544e-02
  9.1132522e-02
 -3.8608024e-01
  1.2399959e-02
  2.0067323e-02
 -1.9184220e-01
 -1.0572522e-01
 -3.0093329e-02
  4.7253379e-01
 -6.9222301e-02
  6.2468153e-01
  5.7351458e-01
  1.0929693e-01
  1.5263560e-01
 -3.3280399e-01
  5.7202089e-01
 -7.7611156e-02
  2.4054226e-01
 -1.1012686e-01
  6.4284980e-02
  3.0503249e-01
 -1.8455297e-01
 -5.2997994e-01
 -6.1352871e-02
 -1.6726044e-01
  2.3463297e-01
  3.0445379e-01
  3.8898697e-01
  3.4131601e-02
  1.8727815e-01
  1.6250955e-01
  3.8373452e-03
 -2.3299022e-01
  2.8903615e-01
  1.7312498e-01
  1.9233687e-01
  5.2918392e-01
  4.9174968e-02
  1.2317045e-02
  1.2761267e-01
  2.3147251e-01
  2.2839111e-01
 -1.8629147e-01
  2.3707977e-01
  1.6192328e-02
  5.9605414e-01
  1.7106420e-01
  1.6884944e+00
  2.8667679e-02
  1.6753989e-01
 -6.8521798e-02
  6.0262941e-02
 -4.0212584e-01
  1.7807399e-01
 -1.3296913e-01
  5.9183180e-01
  1.0483865e-01
 -9.3218714e-01
 -8.0917102e-01
 -2.1816845e+00
  8.4993869e-01
  2.3196895e-01
  4.1382399e-01
 -1.0350365e-01
  2.5748202e-01
 -1.2665424e+00
 -6.0854632e-01
  9.9247658e-01
 -1.1167501e+00
  1.7341460e+00
 -1.0271622e+00
  3.3135316e-01
 -4.0817857e-01
 -1.0773606e+00
 -1.5497828e-01
  9.2546797e-01
  1.3103509e+00
 -4.5867392e-01
 -1.6248227e+00
 -5.8689755e-01
 -3.6008391e-01
 -1.1463120e+00
  6.1805856e-01
  6.7815381e-01
 -8.6022270e-01
  1.3097576e+00
 -8.4201947e-02
 -1.4273524e+00
  2.7420348e-01
  2.3050640e+00
 -1.0579916e+00
  1.8136472e-01
  2.5903502e-01
  2.1561658e-01
  2.9410434e-01
  3.1438491e-01
  1.8213572e-01
  6.4277840e-01
  8.0288219e-01
  4.6765454e-02
 -1.7429869e-01
  9.7531438e-01
  1.4831004e-01
 -2.7533842e-02
 -4.5268673e-02
  7.7343357e-01
 -9.4957963e-02
 -1.8039301e-01
 -3.0782193e-01
  2.6481009e-01
 -7.4140832e-02
  7.4748576e-02
  1.8878806e-01
 -1.5440347e+00
 -1.1736329e-01
  1.6932191e-01
 -1.9004336e-01
  2.6838315e-01
  2.0092037e-01
 -2.1585895e-01
  5.0274339e-03
  2.4783562e-01
  1.8357106e+00
  1.4188093e-01
 -2.6018817e-02
 -5.3914118e-01
  2.6520607e-01
 -7.7531911e-02
 -1.8131049e-01
  3.6180073e-01
  7.1905732e-02
 -4.2715928e-01
 -1.7000812e-01
  4.6327996e-01
  5.3051376e-01
 -2.0319527e-01
  5.2322213e-02
  3.8722521e-01
  1.4353492e+00
 -1.2877567e-02
 -6.9027603e-01
 -3.1850928e-01
  4.3800380e-03
  3.9733016e-01
 -5.6406051e-01
  7.2749741e-02
 -2.1788242e-01
 -2.1267905e+00
 -4.7542098e-01
 -7.1117103e-02
  4.5714483e-02
 -4.3465561e-01
 -8.7773040e-02
  1.3337222e+00
 -1.4708203e-01
  1.1468693e-01
 -1.8739970e-01
 -1.9179383e-01
  5.1887147e-04
  2.9287097e-01
 -2.0219576e-01
 -5.5367604e-02
 -1.1765179e-01
 -1.9097695e-01
  4.3902424e-01
  6.3478512e-01
  4.9910918e-03
 -4.9620766e-02
 -3.9641452e-01
 -2.1792483e-01
 -1.3741466e-01
 -1.3460527e-01
  1.2697506e-01
  1.2198458e-01
 -9.1847944e-01
  5.3996456e-01
 -8.4340181e-03
  5.7120866e-01
 -3.4860674e-01
 -1.7761344e-01
 -4.2310861e-01
  3.9341557e-01
 -2.7563187e-01
  5.5994499e-02
 -3.3990785e-02
  3.4815761e-01
 -4.6542730e-02
  1.3333423e-02
 -6.4263964e-01
  1.4543514e-01
  8.8177510e-02
  2.7042884e-01
  8.1474572e-02
  1.1083060e-01
 -2.7013093e-01
 -1.6375746e-01
  3.8084662e-01
  6.3341558e-03
  1.7809016e-01
  5.3562242e-01
  3.2568699e-01
 -4.7657624e-01
 -4.0529954e-01
  5.6185599e-02
  5.5979586e-01
  1.9447511e-01
 -1.9500895e-01
 -3.0305356e-02
  1.5763834e-02
  4.3417236e-01
 -7.3420405e-02
  4.5219496e-01
 -1.8993723e-01
  4.3084830e-01
  4.0093026e-01
 -2.3038283e-01
 -3.5235503e-01
  5.2199334e-02
 -2.7398819e-01
 -2.4758829e-01
 -2.8063920e-01
 -3.0764267e-01
 -1.3523288e+00
 -2.8652021e-01
 -3.3545353e-02
 -1.4355372e-01
 -3.9381617e-01
 -3.6154541e-01
  3.2533315e-01
 -6.7788363e-04
  4.6164155e-01
  4.4033861e-01
 -1.7612865e-02
  2.9452235e-02
 -1.8680542e+00
 -7.0534092e-01
  7.8917587e-01
  2.6199028e-01
 -1.7554038e+00
 -6.8497127e-01
 -9.4463810e-02
  2.1120489e-01
 -7.1728253e-01
 -1.1712777e-01
  1.5433241e-01
  5.7681388e-01
  1.7313331e-01
  1.9491930e-01
 -3.7235096e-01
 -6.1959994e-01
 -5.9719825e-01
  1.7365013e-01
  7.7715375e-02
  1.5906461e+00
  5.2465087e-01
 -4.9522164e-01
 -1.2832409e-01
  2.1303611e+00
  9.2218792e-01
  1.1006733e+00
 -1.5034363e-01
  6.2584478e-01
 -7.2534561e-02
 -1.5656875e-01
  3.3109868e-01
  5.6141019e-01
 -6.4272329e-02
 -2.4492577e-01
  7.1179390e-02
  5.5006468e-01
 -3.9727974e-01
 -1.3291383e-01
  2.4616079e-01
  3.0315928e-03
 -6.2294938e-02
 -3.2105619e-01
  2.2805288e-01
  3.1408164e-01
  9.6376687e-02
  1.5865859e-02
  8.5695349e-03
 -1.2957250e-01
 -3.0644082e-02
  1.3589080e-01
 -2.3306953e-02
 -2.1901073e+00
  7.4253045e-02
 -3.3966941e-01
 -9.9717490e-02
  2.8413756e-02
 -9.6498214e-02
 -2.1619391e-01
 -3.6732227e-02
  1.2397695e-01
  3.4837067e-01
 -7.8638458e-01
  1.1812867e-01
 -1.0702819e-01
 -3.1444931e-01
 -3.4066185e-02
 -3.6205187e-02
 -3.0155307e-01
 -9.6203610e-03
 -2.4444240e-01
  2.5607914e-01
 -2.9141968e-01
  2.7673212e-01
  2.5727861e-03
  1.2443124e-01
  1.8933588e-01
 -9.9749491e-02
  4.4426811e-01
  2.2410451e-02
 -3.2460030e-02
 -6.3958466e-01
 -2.1005899e-01
 -1.9548255e-01
  1.5743901e-01
 -1.4763729e-01
  3.5321063e-01
  8.6153990e-01
  6.3798875e-02
 -1.5608928e-01
 -7.3241495e-02
 -1.0425656e-01
 -7.1106738e-01
  1.3613386e-01
 -4.8499265e-01
  8.2877684e-01
 -2.7051741e-01
 -5.2116625e-02
  2.9870236e-01
 -8.8018441e-01
 -1.6811036e-01
  4.3357268e-01
  1.5450433e-02
  2.8105468e-02
 -1.4727157e-01
  8.9201786e-02
  1.6220540e-01
 -6.9714561e-02
 -5.0785452e-02
  3.1058371e-01
  2.5547200e-01
  2.0336412e-02
  2.9663530e-01
 -2.7906802e-01
  2.2491553e-01
 -3.5504037e-01
  4.3871117e-01
 -3.2696170e-01
  3.5508934e-01
 -1.0045620e-01
 -3.0684537e-01
 -3.7525177e-01
  1.3360274e-01
  1.6194335e-01
  2.8493989e-01
  1.2639630e-01
  6.4472459e-02
 -6.0304284e-01
  9.0732209e-02
 -2.3509662e-01
  2.1464390e-01
 -4.8480436e-01
 -4.3449116e-01
  1.6635270e-01
  2.5780207e-01
 -4.7738764e-01
 -2.9911857e-02
  1.8362030e+00
 -4.2826390e-01
  7.8618050e-02
  8.6631048e-03
  3.0706343e-01
  3.1305510e-01
 -6.2920415e-01
  1.3216737e-01
  7.4663985e-01
 -3.1679156e-01
  1.0431420e-01
 -2.7506664e-01
 -2.4518481e-01
  6.3917136e-01
 -2.3587063e-01
  7.1222231e-02
  3.1895164e-01
  1.9422524e-02
  2.8731927e-01
 -7.3114741e-01
 -4.6248204e-01
 -7.2165275e-01
 -1.7716452e-01
 -9.3845807e-02
  1.1535814e-01
 -9.0444192e-02
  4.3872911e-01
 -1.2920055e-02
  2.4520239e-01
 -1.4295045e-01
 -1.8822378e-01
 -1.3153432e-01
  2.2882346e-02
  2.5017560e-01
  1.9254006e-02
 -5.1626857e-02
  1.7088832e-01
  1.3320093e-01
  1.9759256e-01
 -8.4750324e-01
  8.4178936e-01
  3.6362207e-01
  3.9659321e-01
 -4.5728646e-02
 -7.5499344e-01
  1.3980329e-01
  4.5563704e-01
 -6.6414899e-01
 -1.7472433e-01
 -1.8463352e-01
 -2.0815872e-01
 -9.1599770e-02
  1.8077773e-01
 -1.3600901e-01
  3.3311173e-01
  1.8434741e-01
 -6.0356820e-01
  1.3268125e-01
 -1.5121360e-01
  3.6280811e-02
 -2.1102726e-02
  1.4461121e-01
 -2.2832174e-02
  7.3899925e-01
  1.0501977e-01
  2.0885335e-01
 -3.4919170e-01
  4.3931183e-01
  2.4308555e-01
  4.3092343e-01
  4.4358835e-01
  6.4796589e-02
  7.7531427e-02
 -1.1685684e-01
 -2.2237161e-01
 -4.4849992e-01
  2.7870277e-01
 -2.1953576e+00
 -1.0751801e-01
  3.6115813e-01
  5.5530924e-01
 -2.6906842e-01
 -1.6593904e+00
  4.2638175e-02
  5.9819365e-01
  2.9607007e-01
 -4.3913516e-01
  9.6887219e-01
 -1.5925865e-01
 -1.5662906e-01
 -6.9239175e-01
  3.3112980e-02
  3.5886002e-01
 -1.7824472e-01
  2.0414469e-01
 -4.8549014e-01
 -1.4055026e-01
 -4.4588962e-01
 -5.4609025e-01
 -4.2475513e-01
  1.2540413e-02
  4.2219204e-01
  1.9408098e-01
  1.2448300e+00
  6.6260362e-01
  7.3833114e-01
  1.6955262e-01
 -2.1580209e-01
  5.9263382e-02
 -4.5071859e-02
 -6.5056193e-01
 -1.8925369e-02
 -1.6034891e-01
  1.3049199e-01
 -2.7511716e-01
 -3.2912093e-01
  2.2671427e-01
 -3.7959818e-02
 -1.2846446e-01
  6.7272745e-03
 -3.8438356e-01
  1.2968805e-01
 -3.4211710e-01
 -3.5698432e-01
 -2.0473359e-02
  3.2047138e-01
  3.1668600e-01
  7.0964992e-02
 -4.8652031e-02
  1.8790847e-01
  1.8206912e-01
  3.5927624e-01
 -2.9168850e-01
  3.5587013e-01
  4.7678027e+00
 -3.3145359e-01
 -4.4616826e-02
  1.6156478e-01
  1.7532356e-02
 -1.5899925e-01
  2.8879023e-01
  2.8090307e-01
 -1.8501350e-01
  5.4803751e-03
 -3.2715570e-02
  1.1563198e-01
  1.7234266e-01
 -5.2772450e-01
 -7.3606841e-02
 -1.8283154e-01
  4.5121342e-01
 -1.1457857e-01
  2.4049046e-02
  6.3074782e-02
 -1.8613631e-01
 -4.7056675e-02
 -1.0820235e-01
  2.2972552e-01
  6.1140928e-02
  4.6400076e-01
 -4.8761135e-01
  6.4191616e-01
  1.8014151e-01
  3.8133779e-01
 -7.9039566e-02
  1.3736345e-01
  2.3339008e-01
 -1.7970119e-01
 -4.3542095e-02
  1.2140512e-01
  2.2689624e-01
  7.8019685e-01
 -7.6981336e-01
  1.2193202e+00
  1.5310894e-01
  4.6860349e-01
 -4.2164117e-01
  1.0786210e+00
  1.0816584e+00
  9.4273493e-02
 -2.4872849e-02
  1.2233518e-01
  2.0614280e-01
  8.4022743e-01
 -2.8198519e-01
  1.2761733e-01
  4.1038543e-03
  1.4854315e-01
  2.7159326e-02
 -2.8953025e-01
 -2.1938607e-01
  1.2435272e-01
 -5.7802856e-02
  2.7520311e-01
 -8.5385525e-01
 -1.2267827e-01
  1.5326986e-01
  3.5271552e-01
  2.6793143e-02
 -1.9105771e-01
  4.8970622e-01
  1.1649182e-01
 -3.5318992e-01
  1.0997365e-01
 -4.3335038e-01
 -9.1883816e-02
  3.2297528e-01
  1.4469174e-01
  4.1347629e-01
  2.0243925e-01
 -7.8619763e-02
 -9.1540322e-02
 -6.6152316e-01
  4.5329335e-01
 -1.3254308e+00
 -4.2028031e-01
  1.0198451e-01
 -2.6406857e-01
  1.5031689e-01
  1.1539504e-01
 -4.0024287e-01
  2.3995610e-01
 -1.9922112e-01
 -1.7433682e-01
  3.4968957e-02
 -2.0429188e-01
 -5.3607047e-01
 -2.4946155e-02
  3.1514022e-01
 -2.4326828e-01
 -2.2745413e-01
  2.2051969e-01
  2.5510173e-02
 -1.0605869e-01
 -6.4649969e-02
  1.1046950e-02
 -6.2162757e-02
  2.7495134e-01
 -2.5443688e-01
  3.8342953e-01
  1.7117935e-01
  2.1437801e-01
  2.5612262e-01
 -1.3519946e-01
 -2.7106129e-02
 -4.5914614e-01
  5.8265120e-01
  1.4094573e-01
 -7.5896963e-02
 -4.7408856e-02
 -2.3054703e-01
  2.7629001e-02
 -9.9626973e-02
 -2.7035534e-01
  6.4472571e-02
 -2.9617676e-01
 -4.5965493e-02
  1.0078972e-01
  2.9166350e-01
 -9.4656810e-02
 -1.6776392e-02
 -8.5456848e-02
 -1.7621441e-01
  2.8174710e-01
  2.1922821e-02
  4.0230796e-01
 -9.6177250e-02
  4.4914326e-01
  4.7854017e-02
 -9.5731482e-02
 -4.1424658e-02
 -2.9097259e-01
  2.4262168e-02
 -8.4721774e-02
  1.8124312e-01
  2.2643074e-01
 -2.9456586e-01
 -3.0225700e-01
 -1.0237899e-02
  4.8705570e-02
  1.7065969e-01
 -8.0473989e-01
 -4.4947487e-01
 -3.9621592e-03
  2.7036223e-01
 -3.4702009e-01
  1.5015420e-02
 -7.8820968e-01
 -1.9206250e-01
  7.4354732e-01
 -2.6281912e-02
 -1.2495255e-01
  1.7922141e-01
 -6.5663719e-01
  6.2507421e-02
 -3.5228288e-01
 -4.5917439e-01
  2.9213288e-01
  8.5263059e-02
 -6.4280532e-02
 -2.9740697e-03
 -1.9176327e-01
 -1.0101023e-01
  3.6285558e-01
 -1.3822293e-02
 -1.4836338e-01
  6.9662027e-02
 -4.2673388e-01
 -7.4553883e-01
 -1.0363884e+00
  3.1717008e-01
  6.9596863e-01
 -5.1124692e-01
  2.3472495e-03
  3.9330401e-02
 -5.4660082e-02
  3.8414982e-01
  2.9428062e-01
 -1.8591997e-01
  5.8851298e-03
 -1.2792060e-01
  2.6813379e-01
  2.4610434e-01
  1.2306589e-01
  1.8728194e-01
  1.0696009e-01
 -4.5270637e-01
  6.2650746e-01
 -3.8327035e-01
 -1.3243844e-01
 -2.4799737e-01
 -1.9182486e-03
 -2.8001061e-01
  6.8623468e-02
 -2.3809485e-01
  8.0178007e-02
 -2.3772587e-01
 -3.8565543e-01
 -1.5434875e-01
  1.2810150e+00
 -3.6080170e-01
 -9.4818127e-01
 -1.5232453e-01
  1.5845643e-01
 -4.6859133e-01
  1.2271540e+00
 -1.5317628e-01
 -1.2543362e+00
 -3.1618226e-02
 -6.4421684e-02
  1.2430458e+00
 -4.6929887e-01
  5.4180193e-01
 -5.0375465e-02
 -1.2775618e-01
  1.8053192e-01
  1.6607986e-01
 -2.4169941e-01
  3.9233807e-01
 -3.2410312e-02
 -8.7545082e-02
  5.9126669e-01
 -1.4026982e-01
 -1.3297683e-01
  6.7431861e-01
 -3.0298063e-01
 -7.6979533e-02
  2.9922068e-01
 -4.1196531e-01
  1.9862778e-01
  1.1431368e-01
 -6.4260495e-01
 -1.4315332e-01
  2.5129683e-02
  8.9085329e-01
 -6.7126915e-02
 -3.2570994e-01
  4.5682815e-01
  1.9396257e-02
  3.3769887e-02
  5.3859031e-01
 -1.0116305e-01
 -1.2570940e-01
 -1.6926816e-01
 -2.1200697e-01
 -3.8305491e-01
 -1.0572020e-01
  1.4659917e-01
  7.5590491e-02
 -4.1156232e-02
  4.2827529e-01
  5.7218784e-01
 -1.3779384e-01
 -2.0153107e-01
 -8.7502348e-01
 -1.6176633e+00
  7.8298759e-01
  6.9042379e-01
  1.7398089e-01
  3.2208908e-01
 -8.3755270e-02
 -5.9594266e-02
  4.8018837e-01
  6.5093916e-03
  4.3638253e-01
  4.8211992e-01
 -3.2211387e-01
  6.7457363e-02
 -4.9630600e-01
  4.4102944e-02
 -1.2917840e-01
 -2.4572510e-01
 -1.1491201e-01
 -3.0188939e-01
  1.5021361e-01
  3.1109056e-01
 -5.8478194e-01
 -8.2571805e-02
  1.4246613e-01
  9.8746157e-01
  7.7185297e-01
 -2.7870983e-01
 -1.6246268e-01
  4.0859479e-01
 -1.1745396e-01
  3.5775754e-01
 -3.4773090e-01
 -3.1123358e-01
  2.8403801e-01
  1.6241863e-01
 -4.3633394e-02
  8.1271283e-02
  4.0400293e-01
  1.0530449e-02
  2.8913887e-03
  1.3587363e+00
 -1.3114730e-01
  3.9597809e-02
  1.8679585e-02
 -1.0313229e-01
 -2.1394968e-01
 -1.0638803e+00
  4.2293847e-01
  1.6389501e-01
  7.1449779e-02
 -1.1668625e-01
 -3.3406591e-01
 -2.8471416e-01
 -1.5196055e-01
  2.7720898e-02
 -1.5980035e-01
 -6.2324569e-02
 -2.4272111e-01
  3.2896915e-01
 -3.3258483e-02
 -7.7166542e-02
 -6.8857567e-03
  2.0064832e-01
 -3.4385675e-01
 -3.7558141e-01
  1.4927711e-01
 -3.5681918e-01
  6.0252674e-02
 -2.3633972e-01
  1.0194094e-01
  3.1827372e-03
  6.0119987e-02
  1.8376168e-02
 -4.6174577e-01
 -2.2125161e-01
  7.1535319e-02
  7.6178536e-02
  2.6482096e-01
  5.1650679e-01
 -1.7650436e-01
  2.4373408e-01
 -2.8672266e-01
  5.3258285e-02
  9.1639555e-01
 -7.2343242e-01
 -2.2385527e-01
 -8.4967279e-01
  9.7927743e-01
  1.1458652e-01
 -2.8262463e-01
 -1.5609139e+00
 -1.3475866e+00
 -6.1615717e-01
  4.1053463e-02
  7.2196269e-01
 -6.4944789e-02
  9.4130963e-01
 -4.9828008e-02
  1.2340033e-01
 -3.8543665e-01
  3.2188088e-01
 -3.6713056e-02
 -6.7873734e-01
  1.8410385e-01
 -2.3819461e-01
 -5.5695128e-02
 -2.0076175e-01
  1.6395925e-01
 -6.7092824e-01
 -1.0017258e-01
 -5.9088367e-01
  6.5376751e-02
 -3.2163164e-01
 -1.2004555e-01
 -6.0133748e-02
 -8.1495464e-01
  3.4828198e-01
  1.2620120e-01
 -1.8488921e-01
 -4.7610968e-01
 -4.2811427e-01
  2.0756549e-01
 -1.6088091e-01
  5.7234448e-01
 -5.4942417e-01
  2.4339447e-02
 -1.3166466e-01
 -1.5223677e-02
  4.2686298e-01
  8.0965966e-02
 -1.1215991e+00
 -5.5884117e-01
  2.0374861e-01
  1.7811874e+00
 -2.8819919e-01
 -1.9251311e+00
  1.3576928e-01
  7.0923644e-01
 -1.5250729e-01
 -8.4269233e-02
  7.4290618e-02
 -5.7155374e-02
 -4.0306777e-01
  7.8733057e-02
  1.3275030e-01
 -2.8911659e-01
 -5.4456943e-01
 -2.9252917e-01
 -8.6700872e-02
 -4.6689087e-01
 -9.8506048e-02
  1.4577816e-01
 -2.4660543e-02
 -5.2217327e-02
 -9.4385237e-02
  3.6091232e-01
 -3.7319481e-02
 -3.0514993e-02
  7.1175939e-01
  1.0986710e-01
  8.4254518e-02
  2.2188906e-01
  3.0247241e-01
 -5.3971291e-01
 -1.5631363e+00
 -1.8306599e+00
  5.1986553e-02
 -4.8985040e-01
  3.9432630e-02
 -1.0670073e-01
  2.0865583e-01
  7.8102164e-02
 -1.2655680e-01
  3.3668436e-02
 -4.7710609e-01
  1.9813201e-01
  2.8220288e-02
  3.3590391e-02
  8.3073115e-01
  1.5429546e-03
 -6.2889338e-01
 -3.8445827e-01
 -4.4283706e-01
  3.7811130e-01
 -2.9179338e-01
  1.9491787e-01
 -2.7358630e-01
  9.2242324e-01
  1.0675381e+00
 -1.8205340e-01
  4.7045818e-01
 -1.2606879e-01
  3.1002605e-02
 -1.8555047e-04
 -1.1603855e+00
  4.0443465e-02
  4.8253939e-02
  5.9586473e-02
 -9.4571568e-02
  8.0672227e-02
 -7.0871717e-01
  4.3225266e-02
 -7.1070546e-01
 -1.8809573e-01
  7.2580987e-01
 -6.6942371e-02
 -4.5422426e-01
  1.6402801e-02
 -2.8445747e-01
  4.1044173e-01
  3.1628203e-01
  3.5241824e-03
  2.5086865e-01
  5.2531799e-03
 -7.1060574e-01
  1.6144907e-01
  1.0276534e-01
 -1.6427417e+00
  7.8524314e-02
  1.0820086e+00
 -6.8581268e-02
  4.5477166e-03
  1.1253572e+00
 -8.2110536e-01
  3.4406908e-02
 -2.6796225e-01
  3.4671733e-01
 -4.2648175e-01
  6.7494512e-01
  1.4841855e-02
  2.8425354e-01
 -3.7870049e-02
  7.8846699e-01
  1.4924324e-01
  4.3278068e-01
  4.0795469e-01
  1.1359037e-01
  3.1935561e-02
 -4.1886561e-02
 -4.1080054e-02
 -2.3307112e-01
  1.4333762e-03
  8.3908644e-03
 -3.1340888e-01
  5.5849564e-01
 -5.4886043e-02
 -2.0425558e-01
  4.1717708e-01
 -7.3513478e-01
  3.2806689e-01
  2.2159696e-01
  7.4103117e-02
 -4.3051061e-01
  2.6007202e-01
 -3.5550222e-01
 -3.2845119e-01
 -7.5730139e-01
  1.0038462e-01
 -9.4747886e-02
  1.8596005e-01
  8.4180403e-01
  9.6408390e-02
  2.1860018e-01
  6.6847607e-02
 -5.0861783e-02
  5.6458277e-01
  5.9092725e-03
 -5.8233654e-01
 -4.0941417e-02
  1.1540110e+00
  6.9951779e-01
  4.3172327e-01
 -1.6144040e+00
 -2.9842654e-01
  2.5508055e-01
  1.8796280e-01
 -6.7443922e-02
 -1.7995907e-02
  2.3931833e-01
  1.8379369e-01
  2.1249052e-02
  5.8445746e-01
  3.7432827e-02
  1.5672176e-01
 -3.3736733e-01
  7.7593595e-02
  1.3457963e-01
  2.7203056e-01
 -5.3609073e-01
  1.9457735e-02
  4.9254489e-01
  1.1407820e-01
 -1.9012931e-01
 -4.2253929e-01
  1.8515562e-01
  1.4754410e-01
  3.9856702e-01
  9.8963097e-02
  4.2491689e-01
  2.2123734e-02
 -2.9465416e-01
  6.7619018e-02
  6.1554778e-01
 -2.6914064e-02
 -1.1956096e-01
  7.4725866e-02
  1.0478652e-01
  1.3202402e-02
 -3.1866267e-02
 -5.4191303e-01
  4.0249232e-02
 -1.4242582e-01
 -6.2266602e-03
  3.4998226e-01
 -4.7999254e-01
  1.5400076e-01
  5.9026074e-01
  1.1464627e-01
  2.2105485e-01
  2.3865235e-01
 -2.1327356e-01
 -5.3514790e-02
 -5.1728028e-01
 -7.5401205e-01
 -4.7286394e-01
  4.5470901e-02
  9.6923806e-02
 -2.2323561e-01
  5.5757757e-02
  4.7432758e-02
  1.1234287e-01
 -1.2219249e-01
  3.6431670e-01
  1.5102610e-01
 -1.1951233e+00
  3.3436006e-01
  8.5877962e-03
  1.3001788e-01
 -1.8127811e-01
 -2.2650572e-02
  2.1418054e-01
  4.6149381e-02
  2.2163419e-01
  3.0620826e-02
  1.2317906e-01
 -9.2531776e-01
 -1.4372410e-01
  5.4491067e-01
  6.7878503e-01
 -1.8713636e+00
 -4.5256723e-02
 -5.3713083e-01
 -3.9601237e-01
  5.3629637e-01
  1.0905907e-01
  2.7440464e-01
  8.6398356e-02
  1.1745080e-02
 -1.4008369e-01
 -3.2395762e-01
 -5.4328509e-02
 -3.1871334e-02
  1.3411973e-01
  1.2292372e-01
 -2.6018187e-01
  6.3789505e-01
  2.0890050e-03
  5.4554202e-02
  3.5756102e-01
  6.5902048e-01
  7.2017789e-01
  1.2456906e-01
 -6.4108652e-01
 -3.3039165e-01
  3.4275588e-02
 -2.1120951e-01
 -2.2057000e-01
 -4.4308074e-02
 -7.0797294e-02
 -5.0638592e-01
 -5.6901985e-01
 -3.5395873e-01
 -1.4948659e-01
 -2.2086449e-02
  8.6435631e-02
 -3.8596541e-01
 -3.2870474e-01
 -1.6993716e-01
 -1.6047291e-01
 -6.8089955e-02
 -2.8203464e-01
  3.4852958e-01
 -3.7893765e-02
  1.9364145e-01
 -2.2742522e-01
 -4.1544133e-01
  9.0129182e-02
 -4.8883480e-01
  2.0203269e-01
 -4.4057700e-01
  2.1896912e-01
 -5.9897608e-01
 -3.0972317e-01
  1.4898075e-01
  3.1387103e-01
 -1.3057911e-01
 -1.0084503e+00
  5.2330339e-01
  4.7609311e-01
 -2.6796070e-01
  2.3773968e-01
 -5.5073285e-01
 -1.9985503e-01
 -5.5523533e-01
 -2.1016043e-01
 -9.0975237e-01
  4.0818825e-02
 -2.5357491e-01
  4.0150058e-02
  3.0434412e-01
 -2.5877061e-01
  4.2280439e-01
 -4.0497842e-01
 -6.2597233e-01
  4.2312092e-01
  1.5874505e-01
 -8.6606711e-02
 -3.2362208e-01
  1.3100016e-01
  1.3446626e-01
 -8.6948238e-02
  5.2165736e-02
  1.3161008e-01
 -1.6121168e-02
 -1.4891808e-01
 -3.2516682e-01
 -4.6473160e-02
 -1.8946776e-01
  2.7307300e-02
  6.0948297e-02
  3.9131790e-02
 -1.2019946e-01
 -4.6052530e-01
  1.1267508e-01
 -3.4147918e-01
  1.8462652e-02
  4.0859747e-01
 -3.0625847e-01
 -3.5646513e-01
 -6.5637961e-02
 -1.9685645e-01
  2.8083882e-01
 -3.2195449e-01
  6.1733227e-02
  1.3947311e-01
 -2.3255563e-01
  5.6844268e-02
  1.4448614e-01
  9.0117522e-02
  1.8211584e+00
 -5.4330975e-03
 -3.7913290e-01
  8.2467079e-01
 -2.2300890e-01
  4.1516041e-03
  5.4927462e-01
  3.2001875e-02
 -3.9763296e-01
 -3.8779265e-01
  6.5494382e-01
 -3.0583799e-01
  2.9410455e-01
 -1.4903160e-02
 -3.7695351e-01
  7.2134688e-02
 -2.9201344e-02
 -4.8892625e-02
  2.7164546e-01
 -3.6968192e-01
 -1.1700883e+00
 -6.6806979e-02
 -4.4858020e-02
  4.3615288e-01
 -2.5923687e-01
 -5.3070277e-02
 -6.3312799e-01
 -1.0670148e-01
 -1.5609413e-01
 -1.6099870e+00
  8.4653670e-01
  6.0772586e-01
 -4.1707374e-02
  1.7918456e-01
 -4.3624189e-01
 -1.0049964e+00
  7.8924941e-03
  1.7414411e+00
  3.0215538e-01
 -4.0606588e-02
  5.3565037e-01
 -1.8750237e-01
 -5.2440345e-01
  1.2662300e-01
  8.4546793e-01
 -2.4827801e-02
 -3.6764705e-01
  4.9548844e-01
 -1.4202224e-01
 -7.1409690e-01
  4.1814694e-01
 -2.1475698e-01
  6.6608912e-01
 -2.5207964e-01
  3.2445806e-01
 -8.5528940e-02
 -1.4178392e-01
  6.2657416e-02
  1.9745554e-01
 -2.1234015e-01
  2.4277258e-01
  2.2994086e-02
  1.7441885e-01
 -2.2029532e-02
 -3.8357207e-01
 -7.1907476e-02
 -9.2816249e-02
  3.3338074e-02
  7.9564758e-02
  3.8968349e-01
  2.7419338e-01
 -1.9581583e-01
 -2.0566122e-01
  8.6766239e-03
  1.5180406e-01
  1.6978219e-01
 -6.0093038e-02
  3.0822644e-01
  3.6611035e-02
  6.3793883e-02
  1.2139696e-01
 -5.8603603e-02
 -2.3096755e-01
 -1.2600995e+00
 -4.1897890e-01
 -2.7356278e-02
  1.4236292e-01
  2.4684328e-01
 -3.3464193e-02
  2.4730793e-01
 -1.5029509e-01
 -6.2915310e-02
 -5.7819527e-02
  5.0243747e-01
  1.3154909e-01
 -1.9609943e-01
 -2.9004157e-01
  8.5613072e-02
 -3.7223566e-01
  1.4835267e-01
  2.4153391e-01
  1.3692957e-01
 -1.2869050e-01
 -2.8428461e-02
 -6.7113674e-01
  3.3323255e-01
  2.5619972e-01
  1.1752662e-01
  3.3085683e-01
 -2.1478400e-01
 -5.0358001e-02
  2.2009067e-02
  4.5367148e-02
  1.2960219e-01
 -1.8605952e-01
 -2.4722779e-01
 -1.8515579e-01
  9.1956615e-02
  5.1710582e-01
 -1.7511034e-01
 -2.8043389e-01
 -2.5752109e-01
 -5.7983894e-02
  5.4297847e-01
  2.8840336e-03
 -1.1945431e+00
  3.4928054e-01
 -7.9273337e-01
 -4.0176392e-01
  3.4734154e-01
 -3.1807280e-01
  2.6566756e-01
  1.2830505e-01
  1.5869930e-01
  4.1757601e-01
 -7.0658766e-02
 -4.0249016e-02
  6.2063390e-01
  8.8249773e-02
 -3.7210223e-01
  7.6305687e-02
  1.2813215e-01
  4.5297173e-01
 -6.9374686e-01
 -3.6360282e-01
  2.7864692e-01
  4.8720396e-01
 -3.0428800e-01
  6.9587588e-01
  8.3037250e-02
  8.2596678e-01
  1.6014153e-01
  1.2307110e-01
  2.2142799e-01
  2.7697298e-01
 -2.6566017e-01
 -3.0530596e-01
  3.4632677e-01
  4.5801854e-01
 -1.7264268e-01
  2.9274791e-01
 -3.2928598e-01
  6.2507576e-01
 -1.1899039e-01
  4.1865861e-01
 -2.4873072e-01
 -6.3737619e-01
 -5.8102578e-01
  8.0502582e-01
 -4.3342638e-01
 -6.2287521e-01
 -1.2571712e-01
 -1.1993741e-01
  4.6882591e-01
  2.4464671e-01
  1.7010063e+00
  5.5712923e-02
  1.0957989e+00
  4.8366445e-01
  3.2195384e-03
  8.5119593e-01
 -2.3667976e-01
 -4.1113254e-02
 -3.7023297e-01
 -2.5781834e-01
  1.4779341e-01
 -7.2172248e-01
 -3.8908461e-01
 -1.5307878e-01
  3.8338849e-01
 -2.0479269e-01
  2.7381468e-01
 -4.8885787e-01
 -7.8508869e-02
  4.1659594e-01
 -6.6177852e-02
  1.7644805e-01
  2.6839130e+00
  2.7384275e-01
 -1.8532042e-01
 -1.4711285e-01
  2.8431866e-01
 -4.8949540e-02
  4.0118970e-02
  3.9248189e-01
 -1.6636705e-01
  6.6441542e-01
  6.6215086e-01
 -1.7477754e-01
  2.2645272e-01
 -1.2827365e-01
  2.5591573e-01
 -6.0519278e-02
 -1.5164912e-01
  1.2188211e-02
  3.2215136e-01
  2.3956932e-01
 -6.9716740e-01
  5.3597343e-01
 -4.2753431e-01
  2.8369564e-01
 -1.1151774e-01
 -1.6414522e-01
 -2.0333670e-02
  3.8858140e-01
  1.1588054e-01
 -3.8546988e-01
  9.0722725e-02
  3.6298539e-03
 -2.8043676e-02
 -2.8303845e-02
 -3.8471141e-01
 -3.1014842e-01
  6.4565253e-01
  2.7032748e-01
  6.0927910e-01
 -5.6302235e-02
 -1.1677431e-01
 -1.4887498e-01
 -4.8641181e-01
 -9.9208243e-02
  2.0302345e-01
 -4.5807728e-01
  8.2414791e-02
  4.0095443e-01
  2.4966823e-01
  1.0478730e+00
 -4.4555587e-01
 -2.1838024e-01
 -4.0451187e-01
 -8.0989122e-02
  1.5936293e-01
 -5.8194780e-01
 -1.2995973e-01
  3.8597488e-01
 -3.6027777e-01
 -1.0592453e+00
  2.0955127e-02
 -1.5741116e-03
  5.1295882e-01
  3.5346875e-01
 -1.8305522e-01
 -9.0026520e-02
 -2.3855147e-01
  1.4667789e-02
  2.5836700e-01
 -5.7885021e-01
  3.6183205e-01
  5.9401810e-02
 -4.3915421e-02
  2.9209334e-01
  4.6864170e-01
  1.0512945e-01
  5.8322692e-01
 -3.9229069e-02
  3.9098120e-01
 -6.4903134e-03
 -4.8766635e-02
  1.9722919e-01
  1.9504769e-02
 -6.0417932e-03
  3.4801927e-01
  3.0608486e-02
 -5.6976989e-02
  3.7047252e-01
  1.5336335e-01
  4.0791309e-01
 -4.3682444e-01
 -1.7686680e-01
  1.6626269e-01
  9.1086641e-02
  3.2478970e-01
  2.5453225e-01
  1.2248104e-01
  1.1416326e-01
 -1.7085585e-01
  5.2760821e-02
  1.8421300e-02
  3.7916076e-01
 -2.3860487e-01
  5.3778481e-01
  3.2394266e+00
 -6.7281502e-01
  3.5243270e-01
 -1.0376354e+00
  2.3517701e-01
 -7.2578716e-01
  3.4806815e-01
  1.2460264e-01
 -1.0771415e-01
  2.1534448e+00
  7.6262808e-01
 -1.4389262e-01
  1.0324326e-01
  8.9775008e-01
  1.5565681e-01
  2.7908415e-01
 -2.3536922e-01
 -2.3266201e-01
 -2.1541461e-01
  1.5949702e-01
 -1.4297979e+00
 -3.7528347e-02
  4.6240196e-02
 -6.9680989e-02
  9.0244099e-02
 -5.7610530e-01
 -1.0775272e-01
 -1.3047434e-01
 -4.5011157e-01
 -3.8838424e-02
  2.0795336e-01
 -4.7863096e-01
 -5.0045792e-02
 -4.4142264e-01
 -2.0989050e-01
  9.2200533e-02
 -1.8857859e-01
 -1.8132851e-03
 -2.8603244e-01
  4.3820653e+00
 -5.4506207e-01
 -1.6191649e+00
 -1.1472502e+00
 -6.1522286e-02
 -1.0219435e-01
 -1.3308910e-01
  4.2110282e-01
 -4.2341385e-02
 -6.9954562e-01
  2.6802132e-01
 -1.0219126e+00
 -2.4198355e-01
 -3.6952734e-01
  2.2231100e-01
  6.5361673e-01
 -5.3353034e-02
  2.2396002e-02
 -1.3655847e-01
 -1.0696000e-01
 -5.0477839e-01
 -9.7917840e-02
 -1.0567504e+00
  1.6829717e-01
  1.0975631e+00
  7.8404091e-02
 -2.3394349e-01
  5.8200598e-01
 -1.6231993e-01
 -7.2560704e-01
 -1.9317183e-01
  5.4105490e-01
  3.0688041e-01
  3.1102449e-01
 -2.2732496e-01
 -4.1938201e-01
  3.6994547e-01
 -1.4631380e-01
 -6.0932454e-02
  1.1700073e-01
 -5.2172732e-01
 -9.2340913e-04
 -1.8728467e+00
  7.6588228e-02
  1.0847467e-01
  7.0736460e-02
  6.8816617e-02
 -3.3290312e-01
  2.8114566e-01
 -5.7167172e-01
  2.2807147e-03
 -1.4709085e-03
 -1.8482514e-01
  4.8702797e-01
  2.5938642e-01
 -9.9846983e-01
 -2.0490178e-01
 -8.5696958e-02
  2.3006952e-01
 -1.1289750e+00
  1.5249075e-01
 -1.9654052e-01
  1.1912016e-01
  3.2186410e-01
  3.6412644e-01
 -1.0170274e-01
 -1.5976426e-01
  8.6366788e-02
 -4.3629920e-01
  5.4354295e-02
 -7.7697739e-02
  3.3255577e-02
 -1.5817003e-01
  2.1806900e-01
 -1.7839383e-02
  7.9591781e-01
 -4.9249488e-01
  5.6292512e-02
  6.3191801e-02
 -2.1517619e-01
  9.8616436e-02
 -4.2754942e-01
 -3.9308733e-01
 -8.8463104e-01
 -6.1676260e-02
  4.5390211e-02
  2.6996860e-01
 -3.1922594e-02
  9.2046432e-02
 -7.9109561e-01
 -6.9977894e-02
 -4.0957466e-02
 -1.9478291e-02
  1.6704985e-01
  5.8851463e-01
 -4.2702273e-01
 -4.9988553e-01
  8.4025562e-02
 -1.7284891e-01
  2.4356826e-01
  2.5850120e-01
  8.1850892e-01
 -3.8076229e-02
 -1.0141197e-01
 -1.0134917e-01
  3.6037496e-01
 -3.0249009e-02
 -9.7860649e-02
  1.1294498e+00
 -3.0765170e-01
  1.7386571e-01
 -3.6741129e-01
  2.4574903e-01
  1.2645684e-01
 -6.1622947e-01
 -2.6348928e-01
  8.6773828e-02
  4.4598886e-01
 -1.4477399e-01
  2.8862759e-01
 -1.6995004e-01
  8.7747499e-02
  6.4244145e-01
 -3.9824155e-01
 -4.2025107e-01
  4.1019104e-02
 -2.6990581e-01
 -9.8805517e-02
  8.1208974e-02
  2.1013029e-01
 -6.2212959e-02
  1.7362013e-03
 -5.0649154e-01
  1.0550919e+00
  1.6641597e-01
  2.1966770e-01
  2.8845012e-01
 -9.1323358e-01
  6.3471328e-03
  4.8698366e-02
  2.1580761e-02
 -4.2694804e-01
  2.6656988e-01
  3.2983869e-01
  7.2800711e-02
  4.3988484e-01
  2.8718281e-01
 -3.6282811e-01
 -1.0354488e-01
 -9.0445645e-02
  3.6046723e-01
  1.0806188e-01
  3.2126266e-01
  2.5704202e-01
  1.6155154e-01
 -1.0053328e-01
 -2.2384068e-01
  6.0864359e-01
 -8.0261968e-02
  2.3429452e-01
  9.2369407e-02
  1.8476307e-01
 -8.8567436e-02
  3.6512089e-01
  2.5833929e-01
  1.1700310e-01
 -3.2233083e-01
  1.1293929e-01
 -2.6322383e-02
  7.2291933e-02
 -3.9368665e-01
 -1.0808440e-01
  3.2760538e-03
 -4.3931495e-02
  2.1400021e-01
  1.1520111e-01
  6.1759837e-03
 -1.5872703e-01
 -1.7783564e-01
  1.0429710e+00
  2.0284298e-01
  4.7579622e-01
  6.5501988e-01
  1.0384008e+00
  1.0098071e-01
 -5.8380151e-01
  2.2833352e+00
  1.1959840e-01
 -1.9122820e-01
  9.1001373e-03
 -6.6904455e-02
  1.2491763e-01
 -3.5683706e-02
  2.8230864e-01
  1.7411800e-01
  4.9291480e-02
 -1.7169519e-01
 -3.4585553e-01
 -3.8555527e-01
  2.2508805e-01
 -9.3279153e-02
 -1.6182657e-01
 -1.7202944e-01
  7.4111179e-02
  1.7390355e-01
 -2.4613569e-02
  4.4409912e-02
 -6.2032509e-01
 -1.6422303e-01
  2.4467261e-01
  6.9684096e-02
 -1.7237121e-01
  7.6271862e-01
 -2.2850892e-01
 -4.9161392e-01
  3.5897534e-02
 -9.1118276e-02
  2.0725821e-01
  9.6369930e-02
  4.3603697e-01
  2.6149470e-01
  1.0312295e+00
  1.4480222e+00
  1.9692272e-01
 -1.3509405e-01
  2.3145896e-01
 -4.9263477e-02
 -3.9811862e-01
 -4.2720401e-01
  2.3278140e-02
  3.1528845e-01
 -4.2019621e-02
  1.7353475e-02
 -2.5597733e-02
 -3.4884790e-01
 -1.2149360e-01
 -7.5426355e-02
 -2.2548313e-01
 -2.0338184e-01
 -9.4343483e-01
  1.6835591e-01
  8.2096979e-03
 -1.3107207e-01
 -4.1362941e-02
 -1.6008237e-01
  2.6871485e-01
  1.1195488e-02
 -1.0563169e-01
  5.9209336e-02
 -4.5805018e-02
 -3.7665933e-01
 -7.5488858e-02
  2.4744079e-01
 -4.1107412e-02
  2.3006769e-03
 -3.4588733e-01
 -2.8807318e-01
 -2.0051655e-01
 -4.4680345e-01
  1.2553915e-01
  1.0127403e+00
  1.1646860e-01
  8.2791698e-01
 -2.4339843e-01
  6.3126105e-01
 -2.2204041e-01
  2.0728396e-01
  5.2742109e-02
 -1.5035988e-01
 -4.1494629e-01
  1.7971677e-01
 -3.6929387e-01
 -8.9026433e-01
  7.1271345e-02
 -4.2168275e-02
  2.8097490e-03
 -2.5079998e-01
 -8.1323281e-02
  9.8709077e-02
  8.5668482e-02
 -2.2953999e-01
 -1.6086264e-01
 -4.9243960e-01
 -1.0576606e-01
 -5.0037254e-02
  7.2698265e-02
  5.3273052e-02
  1.1708025e-02
  1.7649475e-03
 -1.9729997e-01
 -4.5700278e-02
 -1.5379661e-01
  1.0831823e+00
  1.5394768e-01
 -5.2280104e-01
  1.1556259e-01
 -5.3828973e-01
  3.1136361e-01
  5.5876099e-02
  2.8627756e-01
 -3.9434275e-01
  7.4196190e-01
 -2.3306420e-01
 -8.5353084e-02
 -1.2415898e-01
 -2.2924352e-01
 -2.7007458e-01
  4.3550476e-01
  1.3865280e+00
  4.4799167e-01
 -4.8641078e-02
 -9.3448913e-01
 -7.9365715e-02
 -1.6292411e+00
 -5.5387624e-02
 -9.7767574e-01
  1.7508856e+00
  1.5900943e-01
 -4.2619906e-02
 -5.2948886e-01
  8.4142202e-01
 -4.7305781e-01
  8.2220770e-02
  3.9726600e-01
 -9.8873653e-02
  4.4630915e-01
  3.7167159e-01
 -5.8651865e-03
 -3.6607519e-01
  1.2369932e-01
  1.1975641e-01
  9.1305763e-02
 -2.4798454e-01
 -1.7107882e-01
  4.8585287e-01
 -2.7240607e-01
 -1.6567838e-01
  9.2779332e-01
  1.1083465e-01
  1.0087632e-01
  3.2699490e-01
  4.2935845e-01
 -2.8979170e-01
  3.5163105e-01
  1.6474081e-02
  1.2137225e-01
  1.4746283e-01
 -3.9427677e-01
  2.6119086e-01
 -1.1373335e-01
 -3.1829500e-01
 -1.3546713e-01
 -3.3796072e-01
  7.1841872e-01
 -2.1246310e-02
  2.6644376e-01
 -3.5187566e-01
 -4.3263412e-03
  4.1580047e-02
  5.0966161e-01
  2.2719003e-02
 -1.3526733e-01
  6.0423380e-03
 -4.5154151e-01
  7.6488280e-01
 -9.3968987e-01
 -5.5638236e-01
  6.9101518e-01
 -2.2904246e-01
 -8.4335572e-01
 -4.8549399e-02
  2.5619823e-02
 -2.1523431e-01
 -8.1659669e-01
 -1.5162256e-01
  1.1374778e+00
  3.3633998e-01
 -1.0548652e-02
  4.5829925e-01
 -1.4433174e+00
 -6.3608754e-01
  7.4765921e-02
 -1.1588448e+00
 -7.3442423e-01
  4.3447636e-02
  9.8811045e-02
  2.6016185e-01
  4.4658870e-01
  1.2192453e-01
  3.1098735e-02
  2.2973229e-01
  2.5330865e-01
  7.3135830e-04
  3.9642710e-02
  1.7451625e-02
  3.9751133e-01
 -5.2527940e-01
 -5.3905314e-03
  2.6040739e-01
  1.9620779e-01
 -2.4352951e-02
 -3.3786390e-02
  3.1054553e-01
  3.4353235e-01
  6.9231701e-01
  3.8904347e-02
  5.3242016e-01
  1.3213380e-01
  2.3465711e-01
 -1.1471181e-01
  1.9917719e-01
 -1.8154190e-01
  1.5484920e-01
 -4.8860945e-02
 -1.4398767e-01
  1.4226449e-01
  6.8649632e-01
  7.6792262e-02
 -2.0984751e-01
 -2.5330317e-01
 -1.3909432e-01
 -1.9618343e-01
  1.3379426e-01
  6.7156129e-02
 -5.8740926e-01
  2.5547934e-01
  2.3453632e-01
  2.5698595e-02
 -7.2265469e-02
  1.0897267e-01
 -1.3874714e-01
  1.6761993e-01
 -1.9958462e+00
 -1.6749743e-01
 -4.2719707e-02
  1.3713078e-01
 -4.5133460e-01
  1.7561340e-01
 -1.8658383e+00
  1.8182443e-01
  9.8098144e-02
  1.0832149e-01
 -1.1825342e-01
  8.1466049e-02
 -1.5624763e-01
  1.8077557e-01
  3.0270156e-01
  5.5202138e-01
  4.5238668e-01
  3.7835170e-02
 -1.6130082e-01
 -2.6342449e-01
 -2.5289220e-01
 -2.7980098e-01
  3.0526334e-01
 -1.8393141e-01
 -1.6919647e+00
 -2.6985282e-01
 -4.1246337e-01
  8.0975182e-02
 -1.4552422e-01
 -3.7073943e-01
 -5.7992738e-02
  5.8082538e-03
 -4.9479729e-01
 -2.1849933e-01
 -1.6756257e-01
 -1.9092064e+00
  4.7194064e-01
  8.5296398e-01
  5.4211462e-01
 -1.8835112e-01
 -2.0489356e-01
 -1.5972266e-02
  3.6306980e-01
 -3.8144968e-02
 -3.1101811e-01
  2.3591071e-03
 -2.1032512e-01
 -1.3310729e-01
  1.1914532e-01
 -5.5568647e-01
 -1.9626625e-01
 -5.9404811e-03
  1.3967393e-01
 -2.1032642e-01
  1.0103999e+00
  5.8912814e-02
  9.9149913e-01
 -3.5860758e-02
 -2.1021490e+00
  3.6891100e-01
 -5.4742515e-01
 -4.1224545e-01
  1.4102330e+00
  1.1856054e+00
 -1.1994220e+00
  2.0173416e+00
 -4.6270388e-01
 -2.9979858e-01
 -1.8427821e-01
  7.6155496e-01
  4.1859969e-02
  1.0219231e-01
 -1.4773668e-02
  5.2994174e-01
 -1.0769010e+00
 -9.6562213e-01
  4.0697494e-01
  1.4568650e+00
  1.8550806e-01
  3.1128237e+00
  1.9784094e-01
 -2.1166670e+00
 -2.4264822e+00
  6.6336595e-02
  7.2785176e-02
  1.1846037e+00
 -2.6242143e-01
  4.9475778e-02
  3.2645014e-01
  2.4833035e-01
  1.1412868e-01
 -6.6277719e-01
 -1.9159038e-03
 -2.6417192e-02
  8.1440443e-01
  9.0711004e-01
  2.9698744e+00
  5.7882289e-03
 -5.7159030e-01
  1.0813836e+00
 -1.1235327e-02
 -1.3582896e+00
 -1.3270440e+00
 -5.6324899e-01
 -8.3351839e-01
 -2.1714251e-01
  1.8325463e-02
 -7.8016913e-01
 -1.0226725e+00
 -5.6602752e-01
  1.6063310e+00
  6.8113005e-01
 -5.5811900e-01
  8.2467690e-02
 -1.7916504e+00
  3.1634784e-01
 -2.5477281e-01
  9.8821932e-01
 -9.7490174e-01
  1.5668257e-01
  2.7706304e-01
 -2.5755307e-03
 -1.4543374e+00
 -5.6149304e-01
  8.3552855e-01
  1.3703866e-01
  8.0418348e-02
 -4.3313077e-01
  5.1988262e-01
  3.4555666e-02
 -9.0462345e-01
  1.8583502e-01
 -1.1329725e-01
  2.0930643e-01
  6.9995657e-02
  4.5343581e-01
  6.5535629e-01
  3.0572265e-02
 -1.9131632e-01
 -2.8236234e-01
 -4.8096913e-01
 -1.2977160e-02
 -2.5137663e-02
  1.9081055e-01
 -2.2194517e-01
  1.9416423e-01
  5.3918093e-02
  1.0617973e-01
  4.3548903e-01
 -3.7786669e-01
  1.5279266e-01
  1.7363444e-02
 -1.7802171e-01
  4.4035783e-01
  5.4965608e-02
 -4.5923743e-01
 -2.0000115e-01
  1.8265919e-01
  9.2252806e-02
  4.1954294e-03
 -2.1611293e-01
  1.5411149e-01
 -1.5488780e-02
 -3.2769033e-01
 -8.9088893e-03
  8.4998357e-01
 -3.0970162e-01
 -2.6787305e-01
  3.3693671e-01
  1.3842790e-01
  2.7124949e-02
 -3.9709449e-01
  1.4537297e-01
 -6.3635296e-01
 -6.0855550e-01
  3.8619217e-01
  4.2453787e-01
  3.1314453e-01
 -2.9553037e-02
  1.4798838e-01
  1.2194009e-01
 -2.2747071e-01
  4.5137680e-01
 -4.6835214e-01
 -4.5853034e-01
  4.0525436e-02
  3.4573372e-02
 -4.0055206e-01
 -1.9666682e-01
 -1.8159384e-02
  1.8460388e-01
 -4.9739853e-01
  5.8849573e-01
 -9.2881992e-03
 -5.2341157e-01
 -1.9559689e-02
  8.4011585e-02
 -8.2852811e-01
 -6.4691424e-02
 -6.1300728e-02
 -4.6055861e-02
 -4.7686702e-01
 -6.6101629e-01
  4.8406324e-01
 -5.1968646e-01
 -3.2026362e-02
  6.0769558e-01
  7.5867128e-01
  2.3453921e-02
  2.6929209e-01
 -1.9500418e-01
 -4.1447443e-01
 -1.3611877e-01
 -9.3979768e-02
  1.5304554e-01
 -7.0887792e-01
  3.0418885e-01
 -1.4239034e-01
  1.8822603e-02
  4.6783950e-02
  6.4820910e-01
 -1.1408129e-01
  2.6114199e-01
  2.4597642e-01
  5.9517633e-02
  4.0413642e-01
 -4.1072583e-01
 -3.5040557e-01
 -2.6100937e-02
 -2.3559012e-01
 -9.4737679e-02
 -3.2936627e-01
  4.8851661e-02
  4.9994391e-01
  4.9106158e-02
  4.1478378e-01
 -2.5366300e-01
 -8.6526074e-02
 -2.4933004e-01
  3.8417992e-01
  8.4142886e-02
  5.1782679e-02
 -2.4838699e-01
 -1.4794837e-01
 -2.1847305e-01
 -2.1812291e-01
  6.0064826e-02
  1.4743043e-01
  5.3401876e-02
 -6.9592148e-03
  1.2607521e-01
 -2.7267244e-01
 -1.2369438e-01
  1.8993494e-01
 -9.3800575e-03
 -2.9951623e-01
  1.2018043e-01
  7.4818850e-01
 -9.3734987e-02
  2.2760776e-01
 -4.0192865e-02
 -1.6704366e-01
 -2.6549241e-01
 -2.7865735e-01
  3.2094494e-01
  4.5278817e-02
 -8.8594966e-02
  3.9094630e-01
 -2.9126349e-01
  4.8122290e-01
 -2.9319829e-01
  9.1873661e-02
 -4.4613689e-01
 -1.7605248e-01
  2.5656599e-01
 -6.9538914e-02
 -2.2724481e-01
 -7.6253366e-01
  1.1107659e+00
  1.6734962e-01
  2.7460256e-01
  8.2958883e-01
 -6.2929940e-01
  4.9125096e-01
 -9.8305151e-02
 -5.0033838e-02
  2.2800475e-01
  7.4497384e-01
 -1.0278357e-01
  2.8159615e-02
  4.2659557e-01
  5.6161147e-02
 -1.2147294e+00
  1.3255285e-01
 -1.3304770e-01
 -1.9083686e-01
 -1.4962780e-01
  2.0899600e-01
  3.3915037e-01
 -2.1969965e-01
 -3.7201655e-01
  6.8526542e-01
 -1.3842049e-01
 -1.6353595e-01
 -3.5481980e-01
  5.0383234e-01
 -2.6169922e-02
 -2.6021293e-01
 -1.3675803e-02
  2.5197169e-01
  1.1547646e-01
 -1.4131808e-01
 -5.3539611e-02
 -1.1410302e-01
  3.3284910e-02
 -1.5026268e-01
  2.5491419e-01
  1.5661466e-01
  9.3977183e-02
  2.7755493e-01
  3.8631895e+00
 -2.4483134e-01
 -1.0521173e-01
  5.6159228e-01
 -8.4066194e-01
 -1.6646416e-01
  1.0086142e-01
  5.0190419e-02
  3.5553771e-01
 -4.6065322e-01
 -4.1156095e-02
 -9.5927849e-02
  2.5679201e-01
  2.1638680e-01
 -1.3307950e-01
 -2.7418897e-02
 -2.5839078e-01
 -1.5468746e-01
  3.2772139e-01
  2.1185007e-02
  2.7890283e-01
  4.3135682e-01
 -1.7585209e-01
  1.2385977e-01
 -7.3335260e-02
  1.0967526e-01
 -9.1592148e-02
 -1.7090030e-01
  2.4115722e-01
  5.7362574e-01
  2.0886149e-01
  4.3169174e-02
  1.1446135e-01
  2.8411159e-01
 -3.4906179e-02
 -1.0087520e-02
 -3.1416109e-01
  2.4800183e-01
 -5.0876893e-02
 -4.4133967e-01
  1.7257340e-01
  3.1153527e-01
  1.4978927e-01
 -4.6678498e-01
  2.3989491e-02
  2.7536598e-01
  3.2002199e-01
 -4.0883169e-01
 -6.2436819e-01
 -1.1990814e-01
 -4.1336589e-02
 -2.9362577e-01
  6.8574414e-02
 -2.7580529e-01
 -1.4241274e-02
 -1.5792251e-01
  1.9537735e-01
 -4.0785279e-03
 -4.7436687e-01
 -2.7763233e-02
 -2.6731101e-01
  6.4477570e-02
  3.3979103e-02
 -6.6869296e-02
  2.9491347e-01
 -1.1741164e-01
 -5.2579719e-01
 -1.0931060e-01
 -2.2307374e+00
  5.0798766e-02
  3.8024509e-01
 -5.4919553e-01
 -3.1263524e-01
  1.1976995e+00
  2.4532536e-01
 -3.6716480e-02
 -3.1516349e-01
 -6.8605536e-01
 -1.6524909e-01
  1.4120559e-01
 -7.1062908e-02
  1.1114358e-01
 -1.4552882e-01
 -3.7027887e-01
 -4.8167601e+00
  7.8592226e-02
  1.2275233e+00
  1.6029342e+00
 -2.3485224e-01
  1.5927719e-01
 -5.3277564e-01
  2.5221062e-01
 -6.3603008e-01
 -3.3525416e-01
 -3.9499438e-01
  3.1625363e-01
  2.0776823e-01
 -9.2733735e-03
  1.4736030e-01
  5.0835145e-01
  6.1487112e-02
  1.1227829e-02
 -2.9969978e-01
 -8.1366822e-02
  8.2188404e-01
 -1.7844450e-01
  5.9935421e-01
 -1.4363077e-01
  2.4570079e-01
 -1.9591515e-01
  3.9126489e-01
 -3.4046572e-01
  5.2935481e-01
  5.8505630e-01
 -9.6761666e-02
 -9.0719604e-01
  7.9903424e-02
  1.0656599e+00
 -6.9145761e-02
 -1.4432725e-01
 -1.6575503e-01
  1.5939470e-02
 -2.7279902e-01
  5.3179827e-02
  2.6779875e-01
  2.4223110e-01
  5.6264204e-01
  1.1204868e-01
 -1.1841587e+00
  6.6946232e-01
  1.6378102e-01
  1.0474497e+00
 -2.0467219e+00
 -2.3116390e-01
 -3.1092820e-01
  7.7988756e-01
 -1.1680347e-01
  1.2848611e-02
  1.9129273e-02
 -1.2205662e-02
  1.2257911e-01
  2.9595277e-01
 -8.9754038e-02
  1.0789042e+00
 -1.4153376e+00
 -9.5100963e-01
 -1.1726221e-01
  1.7779511e-01
  4.9485138e-01
 -6.4033959e-03
 -6.6614407e-01
  6.3951892e-01
 -9.2233136e-02
 -3.7889504e-01
  7.6673287e-01
 -8.6215693e-01
  9.5073801e-01
  1.1517843e+00
  1.4107169e+00
 -6.4200658e-01
  4.0689524e-02
  8.1814265e-01
  5.1718479e-01
 -8.3815789e-01
 -8.7524571e-02
  4.8325863e-01
 -5.9293735e-01
 -1.9546870e-02
  3.3402044e-01
 -2.6802603e-02
  3.3331200e-01
  2.6623081e-02
  5.0937837e-01
 -1.0576923e-01
 -2.5414643e-01
 -8.7976384e-01
 -1.6203147e+00
 -1.9671747e-01
  3.4215519e+00
  1.3516226e-02
 -5.6580293e-01
 -4.1009821e-02
 -3.0317211e-01
 -4.5598245e-01
  8.1964694e-03
 -1.0478705e-02
 -7.5487867e-03
 -2.6338106e-01
  1.0966212e-03
 -1.3018467e+00
 -2.8617248e-01
  2.9605962e-03
  9.4420016e-03
  3.6856762e-01
 -2.1042725e-01
  1.5293277e-02
  2.4863364e-01
  2.7827403e-01
 -2.8413007e-01
 -9.7488642e-02
 -7.0831150e-02
  4.1219753e-01
 -1.3134018e+00
  1.9784190e-01
  2.8724065e-02
  1.0962786e-01
  2.0581335e-01
 -7.9796113e-02
  9.5300376e-04
  1.8805943e-02
 -3.3206230e-01
 -3.1573553e-02
 -3.3529869e-01
 -3.8744006e-01
  4.1265547e-01
  2.3164771e-02
  7.2012059e-02
  4.9569093e-02
  1.4647655e-01
 -2.7028678e-02
 -2.5025571e-02
 -3.9313622e-03
 -8.5655734e-02
 -2.6816809e-01
 -5.2306741e-01
 -2.1894276e-01
  2.2120953e-01
 -2.3157689e-01
  6.7826450e-02
 -3.9021991e-02
  3.2747120e-01
 -3.4867752e-01
 -2.1876052e-02
 -2.6065435e-02
 -1.5191138e-03
  1.6858076e-01
 -4.9025017e-01
 -2.0725982e-01
 -2.1758318e-02
 -5.3250596e-02
 -1.4544176e-01
  2.6281959e-01
  1.7552941e-01
  8.7845698e-03
  3.5231493e-02
 -1.1753589e+00
 -1.9988814e-01
  1.4653903e-01
  4.0880013e-01
  1.2851115e-01
  3.3113024e-01
 -3.3503741e-01
  1.0233970e-02
 -2.2689010e-01
 -3.0148664e-01
 -5.1729488e-01
 -5.9232378e-01
 -4.2157599e-01
 -7.1387045e-02
  4.0080139e-01
 -5.1371373e-02
 -7.7190578e-01
  4.6230450e-01
 -9.1370426e-02
 -9.1149636e-02
  9.6758291e-02
 -2.1510413e-01
  6.1807758e-01
  2.0421343e+00
 -2.3344311e-01
 -4.7267351e-02
  4.5164578e-02
 -8.0783151e-02
 -6.0698396e-01
 -3.5088015e-01
  4.5032883e-01
  4.0521526e-01
 -5.0312698e-02
  1.8183066e-01
 -4.9137402e-01
 -3.4467658e-01
 -6.5108681e-01
  1.7793657e-02
 -6.9223896e-02
 -4.7604844e-02
 -7.4294001e-02
  3.8721582e-01
  4.6918419e-01
  9.4467781e-02
  1.1970060e-01
  6.8709087e-01
  4.1585141e-01
  1.2881829e-01
  4.4237342e-01
  2.3062833e-01
  2.8387979e-01
  1.6842523e-01
  1.8778120e-01
 -3.9343163e-02
 -1.0776030e-01
  1.1894324e-01
  1.2021983e-01
  1.4799446e-02
 -2.4327868e-01
 -7.4271452e-01
  5.8190590e-01
  4.3352786e-01
  1.0567827e-01
 -1.7544600e-01
 -2.0932548e-01
  3.3193505e-01
  1.2147645e-02
  1.2845812e+00
  2.0530298e-02
 -4.5202583e-01
 -1.5821962e-01
  1.2864622e-01
  7.2395019e-02
  2.7789235e-01
 -3.0101590e-02
 -1.9462283e-01
 -2.6662201e-01
 -1.6034977e-01
 -8.1716287e-01
 -5.4818594e-01
 -2.3693134e-01
  5.5715021e-02
  8.0275893e-02
 -4.0398929e-01
  2.3377277e-02
 -4.7962353e-01
  7.9991117e-02
  4.2464694e-01
  4.0239364e-01
  1.3792928e-01
  1.2387197e-01
  4.3077865e-01
 -1.9880980e-01
  2.2050053e-01
  2.0492258e-02
  5.2848980e-02
  1.6820577e-01
  6.8649344e-02
  1.5294896e-01
  1.2256815e-01
 -2.7279699e-01
 -3.3212304e-03
 -2.1890192e-01
 -1.0359582e-01
 -1.4128616e+00
  3.1435108e-01
  4.9003804e-01
 -1.6814888e-01
  2.9220822e-01
 -6.0377937e-02
  7.6192826e-01
 -1.6126005e-01
 -1.6351718e-01
 -1.1504443e-01
 -3.5006326e-01
 -2.1054024e-01
 -3.0509418e-01
  1.8404540e-02
 -2.3045037e-02
 -3.3629864e-01
  2.5730380e-01
  7.9802863e-02
 -1.1073282e-01
 -9.5843635e-03
  1.6579298e-02
 -1.2412908e-02
 -4.7325826e-01
 -2.0871986e-02
  7.8573382e-01
  9.0295380e-01
 -2.0694768e-01
 -2.2976287e-02
  2.1035299e-02
  1.5200272e-01
  1.5415180e-01
 -1.9765928e-01
 -1.4505786e-01
  6.1638212e-01
 -3.2174837e-02
  3.1601495e-01
  2.0906998e-01
 -9.5906109e-02
  3.4056094e-01
  4.6648413e-01
 -2.7508730e-01
  4.0412119e-01
  6.9760427e-02
 -2.3219828e-01
  2.1937530e-01
  1.5468946e-01
  5.6455679e-02
 -2.7306297e-01
 -1.7589173e-01
 -2.2664890e-01
 -3.9358181e-01
 -1.7811611e+00
  2.6121482e-01
 -4.4027355e-01
  7.6338045e-02
  4.5841682e-01
  1.2664501e-01
  8.8750072e-02
  2.2447151e-01
 -3.1432685e-01
  8.1381492e-02
  2.7616078e-01
 -4.1485559e-02
  5.9077658e-02
  1.6375439e-01
  8.8404931e-02
  1.9659242e-01
  1.0624617e-01
  7.7125192e-01
 -4.3323019e-01
  1.9299299e-01
  4.6439889e-01
 -1.2371565e-01
  6.3752580e-01
 -1.3690788e-01
  9.6124098e-02
  3.1130990e-01
  2.3521869e-01
  5.3410530e-02
 -6.1482149e-01
 -2.3805663e-02
  4.2839524e-01
 -3.6369631e-01
  5.0042379e-01
  8.9372523e-02
 -1.9386306e-01
 -1.9971276e-02
 -2.1066886e-01
 -1.7289038e-01
  2.5886604e-01
 -2.8221855e-01
 -9.4996281e-02
 -1.2652428e-01
  2.6510590e-01
  7.4998602e-02
  1.2995409e-02
  2.2979227e-01
  6.6329831e-01
 -7.2464246e-01
  3.1309861e-01
  1.6634494e-01
  3.2511875e-03
  2.1584868e-01
  1.7636901e-01
 -3.2481554e-01
  5.3356224e-01
  4.3346202e-01
 -6.1636653e-02
 -2.4734975e-01
 -3.2192892e-01
 -2.2498882e-01
 -1.7511750e-02
 -2.9011914e-01
  1.4163215e-01
  1.5755925e-01
 -3.7786853e-01
 -2.9259911e-01
  2.3041168e-01
 -1.2262528e-01
 -1.0205828e-01
 -3.8411513e-01
 -2.0935583e-01
  3.4574300e-02
  3.7045267e-01
  1.4423478e-01
 -2.1317054e-02
 -3.8552515e-02
 -3.0954152e-01
 -6.9578610e-02
  1.8085530e-01
 -1.1326036e-01
 -1.6265702e-02
  1.9456722e-02
 -4.5451008e-02
 -2.3230124e-01
  1.3979779e-01
  1.5261434e-01
 -4.2248780e-01
 -3.0329078e-02
 -6.6584557e-01
 -1.0178755e-01
 -1.1933336e-01
  2.8444335e-01
  1.3549618e-01
  1.1869421e-01
 -2.5493822e-01
  2.6213398e-02
 -8.5145049e-04
  1.3108060e-01
 -3.0130464e-01
  4.9813497e-01
  9.5992938e-02
 -5.8644682e-02
  3.2446331e-01
 -1.0655342e-01
  3.1863979e-01
 -8.7296498e-01
  2.2805177e-01
  3.1707695e-01
 -5.4234523e-01
 -4.7771889e-01
  9.1184922e-02
 -4.8802659e-02
  8.7225989e-02
  2.3176607e-01
  3.6852241e-02
 -5.6732863e-02
 -4.8130053e-01
  1.7660123e-01
  5.2497888e-01
 -6.8032697e-02
  1.2902494e-01
 -1.1513348e-01
 -1.3593018e-01
 -7.0472145e-01
  6.6139221e-01
 -1.2400030e-01
 -7.2640419e-01
  1.0067728e-01
  1.7032512e-02
  3.2159463e-02
  6.3091493e-01
  4.4057003e-01
 -1.0790449e+00
 -2.9834472e-03
 -2.1643978e-01
 -1.0482915e-01
  6.8382931e-01
  7.1268380e-02
  3.5226473e-01
 -2.7551392e-01
  1.0206571e-01
  5.4099184e-01
  1.0746032e+00
  6.9133753e-01
 -2.3497480e-01
 -2.9698923e-01
  7.5264496e-01
  8.4674329e-02
 -1.4177528e-01
 -2.5057894e-01
 -3.2650533e-01
  7.2753921e-02
  9.7477689e-02
  3.6045083e-01
  2.5544792e-01
 -3.0158423e-02
  2.1418837e-01
  4.2570883e-01
  8.4409408e-02
 -2.5573954e-01
 -2.0586476e-03
  2.2586286e-01
 -1.9482625e-01
 -4.8761582e-01
  8.5778758e-02
  1.2927557e+00
  2.0659770e-01
 -1.6267582e+00
 -4.7190493e-01
  1.5050779e-01
 -1.2139893e-01
  8.4803708e-02
 -1.4687435e-01
  5.5977321e-01
 -3.8289461e-02
  3.6091089e-02
  9.9478251e-01
  1.4501648e-01
  4.5523074e-02
  2.9557219e-01
  8.6361721e-02
  1.9257231e-01
  7.2385646e-02
  1.6793653e-01
  2.4668014e-01
  1.2155598e-01
  2.0455912e-02
 -5.3355223e-01
  4.5738950e-01
 -1.5208928e-01
  1.1694939e-01
 -3.5291737e-01
 -9.3853635e-01
 -5.4799825e-01
  1.2778573e-01
 -1.2796987e-02
  2.6091444e-01
  4.4948199e-01
  4.4777006e-02
 -3.7717298e-01
  9.6829794e-02
 -3.0893993e-01
  3.3187738e-01
  2.4639347e-01
  8.6494513e-02
 -2.0319167e-01
  1.5104146e-01
 -1.8996529e-01
 -3.1644559e-01
  3.8488984e-02
  6.1010963e-01
  3.2187748e-01
 -5.4879594e-01
  6.6379964e-02
 -1.1239167e-01
 -6.5550202e-01
  1.4023797e-02
  1.0894410e-02
  9.8694675e-02
  4.3478370e-02
 -8.4777439e-01
  1.2801787e-01
  1.5904871e-01
  3.0316395e-01
 -4.6617717e-01
 -1.6117807e-01
 -1.3822460e-01
  7.1045887e-01
  5.2359301e-01
 -7.9373807e-02
 -1.4098077e-01
  1.7325538e-01
 -4.9202886e-01
  3.8290793e-01
 -2.7348417e-01
  4.5100024e-01
  1.6515896e-02
 -1.0532369e-01
 -1.0040483e-01
 -2.4009524e-01
  3.4891587e-02
 -1.3840063e-01
 -2.8679076e-01
 -2.5618086e-02
  8.2592942e-02
 -1.3009068e-01
  2.8033793e-01
  7.3190677e-01
 -2.6406792e-01
  3.9627486e-01
 -7.6329939e-02
  9.6938744e-02
 -1.4851345e-01
  5.3432173e-01
  6.6264972e-02
 -1.3615203e-01
 -9.3415510e-03
  5.3577039e-02
 -2.9120123e-01
  8.2146563e-02
 -2.7172580e-01
  8.0851948e-01
  1.0498896e+00
 -2.3965443e-02
 -1.2327847e-01
 -6.6859778e-03
 -6.1522955e-01
  4.6562210e-01
 -1.1452169e-01
 -3.8325912e-01
  5.1223218e-01
 -2.0044534e-01
 -6.0335517e-01
  3.8458055e-01
  1.3049956e-01
  8.0193573e-01
  1.7241772e-02
 -6.9651353e-01
  2.6078489e-01
 -4.4419896e-02
 -7.7494597e-01
  6.3961610e-02
 -5.8702230e-03
 -7.4144012e-01
 -6.4365005e-01
 -5.8598574e-02
 -2.1198976e-01
 -2.8150439e-01
 -6.9919229e-02
  4.6038720e-01
 -9.3564294e-02
 -1.6366766e-01
 -6.2347668e-01
 -3.8467255e-01
  3.3518976e-01
 -1.9081661e-01
  7.2729155e-02
 -2.1013804e-01
 -5.1561315e-02
 -9.5168315e-03
  7.1076608e-01
 -1.0871171e-01
  1.4571478e-02
 -8.6279386e-01
  1.0978835e+00
 -1.6063453e+00
 -1.5651170e+00
  1.7041801e-01
 -1.2990050e-01
  1.2537726e+00
 -1.5387127e-02
 -2.8989133e-01
  6.8337113e-01
  2.1449004e-01
  1.8256576e+00
  8.8696617e-01
 -2.4213797e-01
  2.7065858e-01
  1.2102629e-01
  1.1827491e-02
 -8.2829759e-02
 -2.0433128e-01
 -1.5720609e-01
  1.3078924e+00
 -2.6228744e-01
 -7.3938772e-02
 -4.5634380e-01
 -1.1104981e-01
  3.7988019e-01
  4.1885647e-01
  5.4980117e-01
 -2.1787128e-01
 -5.2215487e-01
 -9.7663939e-02
 -1.9347174e-01
 -3.6027882e-01
  4.8280682e-02
 -3.6962968e-01
 -4.1903812e-01
  4.6597746e-01
  7.0178255e-02
  1.9900677e-01
  8.0588624e-02
  3.8930230e-02
  2.5206294e-02
  1.9271520e-01
  5.3864485e-01
  2.3564430e-01
  6.5518701e-01
 -3.4132395e-02
  6.3896067e-02
 -8.8212505e-02
 -6.0330659e-01
 -1.8360633e-01
 -3.0901206e-01
 -1.0581519e-01
  6.1081028e-01
 -6.8066195e-02
  1.0172326e-01
  6.6871524e-02
 -3.2490231e-03
 -5.9014574e-02
 -4.6804208e-02
 -4.6702829e-01
 -3.5829961e-02
 -1.0270507e-01
 -8.4098923e-01
 -7.4369287e-01
  1.7258957e-01
  2.3731093e-01
  2.4253374e-01
 -6.1245386e-02
  1.0586713e-01
  1.8275734e-02
 -2.0559371e-01
  1.0066609e-01
  3.1229442e-01
  1.8993084e-01
 -7.8348011e-02
 -6.6718809e-02
  3.9722890e-01
 -3.1673148e-01
 -2.6997280e-01
 -7.7248776e-01
  1.7611778e-01
  1.1126325e-01
  1.4378181e-01
  8.3374724e-02
  2.7319366e-01
 -3.3942413e-01
 -1.7070256e-02
  5.2315652e-01
 -4.6142098e-01
  3.2183081e-01
  2.6331422e-01
  1.7002848e+00
  6.1868793e-01
  2.9290009e-01
 -2.3889501e-02
  2.6077899e-01
 -2.6472855e-01
 -9.3152672e-01
 -1.5507613e-01
  5.8989443e-02
 -1.9510484e-01
  3.6876425e-01
 -1.8574740e-01
  7.5998157e-03
 -1.1233935e-01
 -9.3727313e-02
  1.4980493e-01
  4.0642104e-01
 -3.2721866e-02
  2.0288810e-01
 -9.4898611e-02
  2.1060891e-01
  1.2164850e-01
 -1.8363881e-01
  1.0033412e-01
 -7.5314991e-02
  5.7873255e-01
  1.7034568e-01
 -3.3567411e-01
  4.5965713e-01
  1.6958717e-01
 -4.3195796e-01
 -2.2114196e-01
  6.9854587e-02
  3.1785309e-01
 -4.8488680e-01
 -4.3392155e-01
 -2.7973777e-01
 -9.9533990e-02
  1.3603576e-01
 -3.2546782e-01
 -5.2674127e-01
  1.0213571e-02
  1.8718299e-01
  1.0380836e-01
  4.3550882e-02
 -6.0852659e-01
  9.1034926e-02
 -5.1829392e-01
  3.3382112e-01
  1.7659625e-01
 -1.8485983e-01
  8.7107104e-01
 -1.1209893e-01
 -2.8442380e-01
 -4.1894192e-01
  3.1002760e-02
 -1.8620403e-01
  2.8485781e-01
 -4.6418022e-02
  1.2211750e-01
  2.3548467e-01
  7.9443276e-02
  2.7298167e-02
 -2.8444982e-01
  3.0197419e-02
  2.6379971e-02
  6.5274991e-02
  4.3754876e-01
  3.1978123e-02
  3.1431249e-01
  1.3044989e-01
  1.8349077e-01
 -2.4232936e-01
  6.5753378e-02
  2.4183771e-01
  1.3133439e-01
 -4.2898353e-02
  7.4187922e-01
  8.1663020e-02
  2.3006317e-01
  5.4396129e-01
 -4.1518763e-02
 -3.8485581e-01
  4.2735350e-01
 -1.0798967e-01
  6.5877885e-01
  9.0911552e-02
  1.1180993e-02
 -6.9418305e-01
 -5.5322099e-01
 -1.2245368e-02
  1.5915216e+00
 -1.2648914e+00
  6.5152061e-01
  3.9155757e+00
  3.9245982e-02
 -6.8658191e-01
  4.2793649e-01
  6.0776955e-01
 -4.3332192e-01
  2.3590364e-02
 -3.2666326e-01
 -2.6957649e-01
  7.6424426e-01
  7.7919179e-01
  1.3347809e-01
  2.5686102e+00
  1.1820993e-01
 -6.6805267e-01
 -1.9636819e+00
  1.0154341e-01
 -9.9472024e-02
 -2.3565255e-01
 -3.7971466e+00
 -8.1774980e-02
  4.5101913e-03
 -4.0611047e-01
 -3.5679975e-01
  7.3316880e-02
  5.2850550e-01
 -6.7858540e-02
 -7.5956035e-01
  2.0847408e-01
  2.9687396e-01
  1.1491296e-01
 -7.1389961e-01
 -3.5103518e-01
  1.0161159e+00
  6.9555305e-02
  8.1039524e-01
 -1.9304387e-01
  1.5662961e-02
 -2.1666622e-01
  3.1995405e-02
  1.2097646e-02
  3.3315799e-01
 -9.9843796e-03
  7.8461528e-01
 -1.8152615e-01
 -5.4254448e-01
  5.6746769e-01
  6.7304832e-01
 -1.3407938e-01
  9.8527439e-02
  1.6264462e-01
 -6.9303284e-03
 -6.6346742e-02
 -2.4090029e-02
 -9.3984473e-01
 -1.0934273e-01
 -2.3907942e-01
 -1.7977782e-01
 -3.3352989e-01
  2.6123738e-01
 -9.6222287e-01
  6.3818693e-01
 -6.9652045e-01
 -4.4875033e-02
 -2.3106250e-01
  1.2490773e-01
  2.0373407e-04
  2.6369728e-02
  1.0685107e-01
 -1.0573904e-01
 -3.2162601e-01
 -2.2161311e-01
 -2.1772559e-01
  7.3761320e-01
  1.8804222e-01
  4.5348155e-01
 -1.1750205e+00
 -9.9263676e-03
 -3.0226090e-03
  4.9037972e-01
  4.2540404e-01
 -4.9310583e-01
 -5.4537792e-02
 -2.3429172e-01
  3.1688433e-02
  5.9351064e-02
  3.0447316e-01
  1.9452870e+00
 -2.3009318e-01
  1.7100945e+00
  9.4118160e-01
 -1.6862668e+00
 -1.4093077e-01
  3.9309043e-02
  2.4402764e+00
  9.4844902e-01
  4.7764659e-01
 -7.8717232e-02
 -1.7894058e+00
  1.1256528e-01
  6.8172038e-02
  7.0935673e-01
 -2.3068557e+00
 -2.8629369e-01
  3.5929582e-01
  8.7571090e-01
  4.4619651e+00
  9.5576057e-03
 -2.1125066e+00
  6.5693635e-01
  7.1010357e-01
 -4.2152038e-01
  7.9157788e-01
  4.5902315e-01
  1.7081743e-01
  1.6072202e-01
 -7.2715694e-01
  9.2521518e-01
 -1.0247192e+00
  5.0590563e-01
  5.6578177e-01
  1.6531068e-01
  2.0553234e+00
  2.1325049e+00
  7.7188477e-02
 -7.1986455e-01
  7.3214740e-01
 -1.1345074e-01
  1.0301417e+00
 -3.9244157e-01
  1.5918592e+00
 -3.0061558e-01
  1.7293708e+00
 -5.1564568e-01
 -3.2739779e-01
 -1.9499878e+00
  2.9974005e+00
  3.0992439e-01
 -2.7660987e-01
 -7.2790459e-02
 -2.5086720e+00
  2.3955792e-01
 -1.0048854e+00
  2.2942558e-01
  8.0034506e-01
  1.2439955e+00
  1.4017302e-01
 -5.6654161e-01
  9.5921910e-01
  5.3495646e-01
  2.3605931e+00
 -6.6843009e-01
 -1.7825288e+00
 -2.6199129e+00
  7.9281276e-01
  1.4749135e-01
 -1.1408378e+00
  2.3895476e+00
  1.2698286e+00
 -1.2639052e-01
  3.8804239e-01
 -2.2440112e+00
  8.4429786e-02
  7.2124463e-01
 -1.8607517e+00
 -8.2604390e-01
 -8.7951910e-01
 -3.9909101e-01
 -1.0241176e+00
 -3.3833608e-01
 -2.8633815e-01
  5.3258330e-01
  1.2075123e+00
  1.1239284e+00
  1.3526908e+00
  6.3399130e-01
  2.8077366e+00
  9.3987554e-01
 -1.6291910e+00
 -2.4387677e-01
  2.1648630e-01
 -1.2073735e+00
 -9.5126845e-02
  3.1490397e-01
  3.3907330e-01
 -7.2969437e-02
  2.2257137e+00
  1.3565481e+00
 -1.2381191e+00
 -6.8307012e-01
  1.2087947e+00
  1.2234868e+00
  1.0766647e+00
 -5.7876015e-01
  1.8683118e+00
 -1.1250564e+00
 -3.8848813e+00
 -3.9118302e+00
  2.9873160e-01
  1.6771226e-01
  1.3817649e-01
 -1.3225553e+00
 -2.5983980e-01
 -2.2897209e-01
 -1.0018170e-01
  2.2630436e+00
 -4.5099956e-01
  1.6384568e+00
 -2.3982990e+00
 -2.9003233e-01
 -2.2378697e+00
  1.6639630e-01
 -5.9715617e-01
  6.3708961e-01
 -2.6281876e-04
 -2.6648636e+00
 -1.0792779e+00
  7.7471924e-01
 -1.8498124e-01
  1.5104324e+00
 -1.8437659e+00
 -7.5071090e-01
 -2.5721946e+00
  1.2588610e-01
 -2.7957208e-02
  9.5115244e-01
  6.3593365e-02
  1.6792117e-01
  1.6382692e+00
 -2.4270578e-01
 -6.4956516e-01
 -1.0491118e+00
  1.2086666e+00
 -2.0466464e+00
  2.0522845e+00
  3.7701547e-01
  7.3292065e-01
 -1.2930837e+00
  4.6546501e-01
 -5.0809395e-01
 -6.5899003e-01
 -7.1953493e-01
 -7.6095682e-01
  1.1413151e-01
 -1.8497199e-01
 -7.7282691e-01
  6.1722256e-02
 -2.2620139e+00
  2.6805937e-01
 -1.1759132e-01
  1.2716304e-01
 -1.2039705e-01
 -1.7919345e+00
  1.8188510e+00
 -1.5454171e+00
 -9.2118576e-02
  1.5973084e+00
  2.0945356e+00
 -9.8157167e-02
 -1.1811157e+00
  4.7691846e-01
  4.0225938e-01
  3.3076668e-01
 -1.4355880e-01
  8.8834089e-01
  8.5287559e-01
  3.0052972e-01
 -5.0524759e-01
 -1.0056303e-01
  2.4263587e+00
  1.2459061e-01
 -7.9886490e-01
  1.9080618e-01
  1.9802952e-01
  1.2353641e+00
  7.4365944e-01
  1.9025854e+00
  3.2607773e-01
 -9.8784238e-01
 -1.1235546e+00
  2.0032520e+00
 -2.1330678e-01
 -4.0798491e-01
 -1.2301445e-01
  1.1677663e+00
  4.0795609e-01
  1.9597261e-01
 -4.6978006e-01
 -8.8448244e-01
 -8.2037926e-01
 -7.9969215e-01
  4.8812526e-01
  8.4807384e-01
 -1.7419766e+00
 -7.3592186e-01
  2.2690788e-01
  1.8364160e+00
 -8.8293988e-01
 -1.2175103e+00
  3.5158202e-02
  3.0199658e-02
  2.1723168e+00
  1.6899824e+00
 -3.1513146e-01
  6.6042908e-02
  2.7271494e-01
 -1.2522641e+00
 -2.8835490e+00
  2.1790211e+00
 -6.1035238e-02
  6.4250059e-02
  1.7616498e+00
  1.7885841e+00
  5.2530843e-01
 -1.0679897e-01
  1.3459934e+00
 -1.1731833e+00
 -4.2598948e-01
 -7.2906500e-01
 -4.7120094e-01
 -3.1830412e-01
  1.1509494e+00
 -1.9471627e+00
 -1.2345744e+00
 -1.8846443e+00
 -6.0400420e-01
  2.1146201e-03
  4.2076960e+00
  1.3643624e-02
  1.8527817e+00
  3.2540977e-01
 -5.3220636e-01
  1.3217239e-01
 -7.1511513e-01
  2.1913383e+00
 -2.7505621e-01
  3.9635149e-01
  1.1695969e+00
  2.9098997e-01
  1.0308403e-01
  4.1814163e-02
  1.9377347e+00
  1.6332336e-01
  7.7926958e-01
  8.6550927e-01
  7.7176052e-01
 -7.2028184e-01
  5.8829355e-01
 -6.2673652e-01
 -8.0920987e-02
 -1.2702506e+00
 -3.9883006e-01
  1.8221556e+00
 -1.8198112e-01
  2.3777933e-01
  1.2913506e-01
 -5.0034207e-01
  6.8370634e-01
  6.1055642e-01
 -2.0300426e+00
 -1.1465448e+00
 -1.0426645e-03
  1.1733085e+00
  1.3923802e+00
  4.1349497e-02
 -1.2153471e+00
 -7.6731312e-01
 -2.4769941e-01
 -1.1658783e-01
 -5.5327378e-02
  7.9703122e-01
 -1.7760237e+00
  3.1466851e-01
  1.2509832e-01
 -1.3196874e-01
  1.7796266e+00
 -2.0813989e-02
 -9.6598917e-01
 -1.8908700e+00
 -2.0518851e+00
  2.7817574e-01
 -1.0117698e+00
 -4.3922406e-01
 -2.0698402e+00
  7.0769936e-01
 -3.1485969e-01
  1.1336334e+00
 -9.2761344e-01
 -5.0200623e-01
  2.8104502e-01
  1.3863609e+00
  1.0757755e-01
 -6.7812568e-01
 -1.4790799e-01
 -8.3055055e-01
  1.9628656e-01
  5.6021130e-01
 -5.6951821e-01
 -1.0571929e-01
  1.8796013e-03
  6.4347774e-01
 -4.6661946e-01
 -7.7263230e-01
  3.9532363e-01
 -5.4853565e-01
 -1.4559962e-01
 -2.0012825e+00
 -5.3715265e-01
 -9.4622934e-01
 -6.8702243e-02
  2.7521698e+00
  2.9185835e-01
  1.8831030e+00
  1.0474164e+00
  5.7766378e-01
 -8.6235636e-01
  4.1956592e-01
  7.5723159e-01
  1.8334945e-01
 -1.7615080e+00
 -3.6359601e-02
  6.4908363e-02
  1.0362618e-01
  3.3132982e-01
  5.6725377e-01
 -2.0108183e-01
  8.2431579e-01
 -2.4037869e+00
  7.7795666e-01
 -3.1789348e-01
  1.2626441e+00
  1.2648910e-01
  1.4579365e+00
  6.7268825e-01
  1.9124426e-03
 -2.1287853e-01
 -7.3630130e-01
 -6.7722535e-01
 -6.9054633e-01
 -2.5215321e+00
  5.1421940e-01
 -1.8592409e+00
  5.0133884e-01
 -4.2226294e-01
  3.5019875e-01
  1.5534645e+00
  8.3139646e-01
 -2.3418184e-01
  1.0996463e+00
 -7.9597437e-01
 -1.0735977e+00
  7.0881826e-01
  4.4993347e-01
  1.0484369e-01
 -9.3158531e-01
 -3.1155246e-01
  1.9948432e-01
  2.2889507e-01
  1.1325941e-01
  4.8426190e-01
  8.3094254e-02
 -9.0094775e-02
 -4.8674364e-02
  1.4537908e-02
  1.7051581e+00
  2.5972530e-01
 -2.1367359e+00
  8.4024280e-02
  4.0558460e-01
  1.6601323e-01
 -2.0922573e+00
  1.4705017e-01
  1.3464841e+00
 -1.1208624e+00
 -1.6502975e-01
  2.8554800e-01
  7.2575860e-02
  8.3451062e-01
  4.5383763e-01
  1.8334217e-01
  1.8695233e+00
  5.3022718e-01
  7.2020864e-01
 -1.7195687e-01
  1.6264231e+00
 -7.4964112e-01
  1.8613245e-02
  7.6985621e-01
  7.8945959e-01
 -4.2848706e-01
  5.2399528e-01
 -3.1024089e-01
  6.6452920e-01
  4.8524973e-01
 -9.4936711e-01
  5.2216703e-01
  7.5769193e-02
  3.2724419e-01
  4.1638359e-02
 -8.9842595e-02
  2.8671834e-01
  2.2728615e+00
  7.5430252e-02
  3.4607393e-01
  6.3966697e-01
 -5.1450020e-01
 -1.7597767e+00
 -2.6134984e+00
  5.5928880e-01
 -6.7276135e-02
 -8.6090982e-01
 -8.8740513e-03
  2.0000674e-01
 -9.7442102e-01
  3.0167720e-01
  1.3561287e+00
  1.1792864e+00
  1.3997075e-01
  7.2580449e-02
 -9.2211241e-01
 -1.6590457e+00
  6.3985735e-01
 -4.1704744e-01
 -7.2972417e-01
 -6.7671783e-02
  5.1308364e-01
 -3.2489696e-01
 -3.2705457e+00
  5.1395929e-01
  4.4604477e-01
 -2.0723720e+00
 -4.5499596e-01
  1.2639204e+00
 -3.4267142e-01
 -2.4624748e+00
 -9.1863239e-01
  4.9065243e-02
 -3.8414872e-01
  1.2556944e+00
 -4.5723683e-01
  3.5641274e-01
 -1.3071811e+00
  1.0828680e+00
  6.8686020e-01
  1.5952723e-01
  4.9399313e-01
 -3.2984245e-01
  1.8129165e-01
  4.6958998e-01
  2.3848671e-01
 -2.8111815e+00
 -1.7683074e-01
  1.9656570e-01
  1.6126245e-01
 -7.9746664e-01
 -1.3562746e-01
 -8.8937396e-01
 -2.8056142e-01
 -1.2576583e-01
  4.2598760e-01
  3.8904455e-01
  1.1508957e+00
 -3.8824162e-01
 -1.7321621e-01
  1.2967202e-01
 -2.5072422e+00
  1.7589482e+00
  1.7840717e+00
  1.5191081e+00
 -4.8487145e-01
 -1.1845263e+00
 -6.7045063e-01
 -8.2701540e-01
  3.3826287e+00
  7.3012906e-01
  1.2960538e+00
  3.5255960e-01
 -8.2985006e-02
  5.3071678e-01
  2.3075348e-01
 -5.1025617e-01
 -7.4943382e-01
 -4.9953493e-01
 -1.0615228e+00
  5.6081474e-01
  4.2067817e-01
 -2.3192850e-01
  1.0644846e+00
 -8.6684805e-01
  4.0324908e-01
 -1.2018795e+00
 -1.2257697e-01
  1.1196223e+00
  5.0649923e-01
 -1.2784086e+00
  1.1228287e+00
  1.0066311e+00
  2.3165932e+00
 -1.5673311e-01
  1.1534455e+00
  1.1275593e+00
  3.3640091e+00
  5.5691320e-01
 -6.8046969e-01
 -1.4449985e-01
  2.1192179e+00
  3.5680300e-01
 -9.8849648e-01
 -2.4036226e-01
  6.0192454e-01
  1.5899671e+00
  8.5678101e-01
 -3.0114019e+00
  2.3774469e+00
  9.9768287e-01
  1.8334368e-01
  2.1421199e+00
 -1.6758370e+00
 -9.2715168e-01
 -9.5801376e-02
 -8.2348257e-01
  6.8462360e-01
 -1.1992158e+00
  1.8025264e+00
 -1.9155129e+00
  4.1488342e+00
 -3.7539607e-01
  6.9589019e-02
  1.4602056e+00
 -3.2121511e+00
 -1.2130975e+00
  1.1638072e-01
  1.9741194e+00
 -8.5272878e-01
 -6.0572213e-01
  1.3161179e+00
 -3.8602984e-01
  9.5091468e-01
  1.0678715e+00
  3.4570438e-01
  6.4392284e-02
  6.2556118e-01
  4.5270544e-01
  8.6692464e-01
  2.2426713e-01
 -1.8898811e+00
  9.1080385e-01
 -2.1188495e-01
 -1.7999332e+00
 -1.6927338e-01
  8.0333263e-01
  2.1895720e-01
 -2.3989921e+00
  1.6980855e+00
  1.5629709e-01
  2.9851973e-01
 -8.6453635e-01
  1.2040647e+00
 -4.0603611e-01
 -1.3316096e-01
  2.5805793e+00
 -2.0880895e+00
 -9.2111713e-01
 -4.0586820e+00
 -1.6210946e-01
 -3.1511130e+00
 -6.8003756e-01
  6.4680532e-02
  3.1838484e-02
  1.3001226e+00
  3.7977900e-02
  1.2700859e+00
  3.2281023e-01
 -1.6114205e+00
 -1.1613241e+00
 -1.7205212e+00
 -2.1459208e-01
  1.1511999e+00
  5.6628557e-03
  1.6699394e+00
 -8.4698695e-01
  2.6751182e+00
 -1.4931355e-01
 -1.2189950e+00
 -5.8467931e-01
  5.2623391e-01
 -4.9498653e-01
 -1.2385733e+00
 -1.3960080e+00
 -5.7327753e-01
 -4.6325529e-01
  1.7321552e-01
 -1.3836249e+00
 -9.4850466e-02
 -3.3596715e-01
 -1.9581410e-01
 -2.6907411e-01
 -7.5976574e-01
  1.1935874e+00
 -2.3211017e-03
  4.5125750e-01
 -2.2277705e-02
  2.7315515e-01
  7.7484733e-01
 -1.9298857e-01
 -1.6016184e-01
 -6.3495922e-01
  2.3665784e-01
 -2.9505146e-01
  4.9459383e-01
 -7.8338879e-01
 -3.5686314e-02
  3.3020058e-01
  4.8253042e-01
 -1.7292240e+00
  2.5705762e+00
  4.6652907e-01
  3.1970602e-01
 -1.8547392e-02
 -8.7389797e-01
  3.5344768e-01
 -2.4198251e+00
  1.9408408e+00
  7.3785329e-01
  5.1992065e-01
  1.7786294e+00
  1.6786525e-01
  7.1470827e-01
  9.7540593e-01
  5.9937686e-01
  2.6859406e-02
 -5.9250027e-01
 -1.0954914e-01
 -4.7302017e-01
  1.6551503e+00
  9.5254397e-01
  1.4177345e-01
  1.8366466e+00
  4.5747042e-02
 -2.5654731e-02
 -9.6633500e-01
  1.9875872e-01
  1.7789648e-01
  1.6124376e+00
 -5.7816136e-01
 -6.9634175e-01
  1.1952680e+00
  6.3818586e-01
  1.0667835e-01
 -3.7377435e-01
  1.9394661e-01
 -4.3303686e-01
  2.7481526e-01
  1.9345753e-01
  2.1069555e-01
  4.7092596e-01
 -1.8386197e-01
  4.0809877e-02
  1.2422794e-01
  1.3948715e+00
 -2.8615859e-01
  4.0218160e-02
  4.2238960e-01
  4.5123667e-01
  1.5091829e+00
  9.8764300e-01
 -2.3345125e-01
  6.4994842e-01
 -5.8204752e-01
  8.2692116e-02
 -1.0654546e-01
  8.4978592e-01
  3.6222976e-01
  2.2263486e+00
 -1.1825935e-01
  3.4942734e-01
  7.5512862e-01
  1.0219377e+00
 -5.8133763e-01
  1.2862991e-01
 -1.7777862e-02
  1.0997462e+00
  6.1701834e-01
  2.4493043e+00
  3.5702661e-01
 -2.7490843e-02
 -7.6288575e-01
 -2.1140227e+00
 -2.2625692e+00
  1.5870101e+00
 -2.4093665e-01
 -5.3499418e-01
 -9.2872459e-01
  8.6255121e-01
  8.6550456e-01
  1.7051612e+00
 -4.7959366e-01
 -1.2132949e+00
 -7.4517202e-01
 -1.8888495e+00
  2.7430859e-01
 -1.6400390e+00
 -1.1728299e+00
  1.1109463e-01
 -6.4377987e-01
 -8.6318821e-01
  6.4367808e-02
  2.6129367e+00
 -1.0162071e+00
  4.7149768e-01
  1.0194710e+00
 -1.7333139e-02
 -1.2755181e+00
  5.6818163e-01
  6.5434080e-01
 -2.2219455e+00
  1.2571367e+00
  2.3269536e+00
  1.3065283e-01
  2.8427005e+00
  6.2082744e-01
  8.9522260e-01
 -7.6971334e-01
  1.3862242e-01
 -5.3415823e-01
 -1.7230825e+00
  6.7349404e-01
  1.7991393e+00
 -6.6659160e-02
  2.2257266e+00
  6.5808231e-01
 -1.4365631e+00
  5.0818175e-01
 -1.3513833e+00
  3.5693005e-01
  2.1155672e-01
 -1.2414160e+00
 -8.2712851e-02
 -2.9338285e-01
  2.0910010e+00
  1.2405387e+00
 -2.6471753e-02
 -1.2704493e+00
  1.7230408e+00
  1.0959596e-01
 -2.7739710e-01
 -1.6973527e-01
 -4.7546312e-01
 -3.3646491e-01
 -2.3739341e-01
  1.8991758e-01
 -3.3300713e-02
 -1.8104930e+00
  1.2888298e+00
 -7.3154104e-01
  6.0821778e-01
  3.9430156e-01
  1.8675613e-01
 -9.4161105e-01
  3.0469859e-01
  1.0518020e+00
 -1.0617918e+00
 -4.7566843e-01
  1.6098318e+00
  1.0022506e+00
 -1.2631738e+00
  8.0173619e-02
  1.2216769e-01
 -2.0303187e+00
  9.2801225e-01
  1.2865903e+00
 -6.7871469e-01
  1.2332919e-01
  1.8800517e+00
  2.2396898e+00
  1.5947330e-01
  4.5574209e-01
  7.6462537e-02
 -3.0111101e+00
 -1.5396445e+00
  1.0391533e+00
  7.3053855e-03
 -8.4656882e-01
  5.8126676e-01
  6.2023973e-01
 -1.3321573e-01
  1.3397995e-01
 -7.2938645e-01
  1.1627541e+00
  1.9523641e-01
 -1.1450103e-01
  2.3826571e-01
  1.4020760e+00
  1.2949393e+00
  1.6518321e+00
  3.7479115e-01
 -3.8558397e-01
 -9.4913840e-01
 -4.9370986e-01
 -5.8993763e-01
  7.3542541e-01
  1.3065823e+00
  3.9739510e-01
  5.8570817e-02
  1.2465665e+00
 -8.7240613e-01
  5.7386555e-02
  2.5489914e-01
 -3.6189876e-02
  1.7915179e-01
  1.0365573e+00
 -5.6423479e-01
 -1.3177657e+00
 -8.8658921e-02
  5.2798641e-01
  7.7742368e-02
 -1.0457189e+00
  9.5995623e-01
  6.0876274e-01
  7.6863545e-01
  2.3359172e-02
  2.3359172e-02
  2.3359172e-02
  2.3359172e-02
  2.3359172e-02
  2.3359172e-02
  2.3359172e-02
  2.3359172e-02
  2.3359172e-02
  3.7800722e-02
  3.7800722e-02
  3.7800722e-02
  3.7800722e-02
  3.7800722e-02
  3.7800722e-02
  3.7800722e-02
  2.9012233e-02
  2.9012233e-02
  2.9012233e-02
  2.9012233e-02
  2.9012233e-02
  2.9012233e-02
  2.9012233e-02
  1.3580502e-02
  1.3580502e-02
  1.3580502e-02
  1.3580502e-02
  1.3580502e-02
  1.3580502e-02
  1.3580502e-02
  5.7021868e-03
  5.7021868e-03
  5.7021868e-03
  5.7021868e-03
  5.7021868e-03
  5.7021868e-03
  5.7021868e-03
  1.2225810e-02
  1.2225810e-02
  1.2225810e-02
  1.2225810e-02
  1.2225810e-02
  1.2225810e-02
  1.2225810e-02
