nep4 2 Cu Se 
cutoff 7 5 100 44
n_max 8 6
basis_size 12 12
l_max 4 2 0
ANN 50 0
 -2.3094562e-03
 -4.2638995e-02
  3.8169168e-03
  3.6883850e-03
 -3.6952540e-03
 -1.7869030e-04
  1.3151172e-03
 -2.0517039e-03
 -2.6974787e-03
  8.5241674e-04
  3.8815869e-03
  2.2940666e-03
  8.8424794e-04
 -1.1727597e-03
 -8.6149364e-04
  1.2342242e-03
  9.7197117e-03
  1.5308992e-03
  2.2812970e-03
  9.9812518e-04
 -4.9259230e-03
 -4.4997549e-04
  2.9313755e-03
  1.1735196e-03
 -4.9254589e-04
  1.3821805e-01
  3.8856571e-03
 -2.5756268e-03
  1.0028712e-03
 -2.2303395e-03
  5.1044312e-04
  3.6652603e-03
  1.7138092e-03
  3.6001517e-03
 -2.1267552e-03
  1.9795441e-03
  4.1100825e-03
  1.9654222e-03
 -2.3572161e-03
 -1.7017237e-03
  1.9464234e-05
  8.9974992e-04
  7.3602813e-04
 -4.0108776e-03
  2.5923806e-01
  5.4366276e-02
  8.9136094e-02
  8.3772868e-02
  1.2936136e-01
  1.1878460e-02
 -3.4041566e-01
  1.0322658e-01
  8.2634851e-02
  1.0268178e-02
 -3.9856918e-03
  6.4193024e-03
  3.3780129e-03
  2.7246203e-03
 -1.2264255e-02
 -1.5540879e-03
  1.5462120e-03
  2.0690211e-03
 -1.1312114e-01
 -6.9311447e-04
 -7.8716904e-02
 -1.2390073e-01
  2.2660113e-04
  4.5739190e-04
 -2.4564495e-02
 -1.5276777e-02
 -1.0386706e-02
 -2.6545231e-03
 -1.0162413e-01
  4.4615753e-03
 -1.7375621e-03
 -3.1961516e-02
 -7.7869281e-02
 -1.1833189e-02
 -1.9583749e-03
 -7.5069838e-04
 -5.7037226e-03
 -4.5897541e-04
 -4.0711911e-04
  5.6322827e-04
  4.4310329e-04
  3.3187013e-04
 -5.2134683e-03
  7.7028987e-03
  1.8758837e-02
  9.5038408e-01
 -1.0088912e+00
  1.1536626e+00
 -4.3565369e-01
 -2.0116553e+00
 -1.6984729e+00
  3.4792218e-01
 -5.4219818e-01
 -5.5683818e-02
  7.6581872e-01
  7.4174798e-01
 -8.7435097e-02
  6.9298792e-01
  1.1077937e+00
 -1.3104104e+00
 -3.3148730e-01
 -8.9558548e-01
  1.9629407e-01
 -2.9389342e-02
  2.4104212e-01
 -1.0076098e+00
  3.0013549e-01
 -5.8015722e-01
 -2.0114081e-01
  1.7950003e+00
 -1.0755612e-06
  2.2663416e-01
 -8.8206655e-01
  3.4368926e-01
 -5.8762640e-01
  1.8901512e-04
  5.7290494e-01
  4.8527710e-02
  1.0179870e-02
 -7.3151928e-01
  3.7046176e-01
  5.9478110e-01
 -6.5044783e-02
 -3.7566002e-02
  1.4734482e-02
 -2.0271020e-03
 -3.1760812e-01
 -7.8556770e-03
  3.4506428e-03
 -4.6527889e-02
  6.3130796e-02
  1.3541636e-03
 -3.4302645e-03
  9.2850775e-02
  4.8991590e-04
  1.0901836e-01
 -7.5117731e-01
  1.0329926e-02
 -1.1101617e-02
 -1.1891105e-03
 -2.1402801e-03
 -5.3280410e-03
 -1.1249523e-03
 -4.3454591e-02
 -1.7822474e-01
 -3.1423859e-02
  1.4026425e-04
 -6.5550725e-03
 -3.2955606e-03
 -1.5073997e-01
  5.2542984e-04
  2.2402922e-02
 -1.7264247e-04
  3.4973904e-02
 -4.0196051e-04
  1.7164584e-03
 -3.3079859e-04
 -5.0908118e-04
 -4.2972679e-04
 -8.4986873e-02
 -2.8780582e-03
 -3.1226224e-03
 -9.9733975e-03
 -1.4211791e-02
 -4.8510801e-02
  3.7936523e-04
 -1.3240183e-03
  6.3751489e-03
 -4.4651155e-04
  1.6049291e-03
  8.8109383e-03
 -3.4779087e-03
 -4.1045749e-04
  1.2778279e-01
  1.6354586e-03
  2.7519418e-05
  3.5296503e-04
  2.3658559e-04
  4.5087021e-03
 -3.7491811e-03
 -6.8861648e-04
 -1.7760904e-06
  2.2847526e-04
 -1.3250737e-03
 -5.6540035e-04
 -2.3405328e-03
  4.8967414e-03
  1.2405457e-03
 -4.1142385e-03
  1.7892352e-03
  3.5654337e-03
 -8.0715108e-05
  6.8642857e-04
  1.8551797e-03
  3.1324201e-03
 -7.5246784e-04
 -2.7187733e-04
  2.2315546e-03
 -3.3024576e-04
  4.6094051e-03
  9.1098286e-02
 -1.5974215e-03
 -1.3939192e-03
  1.9672178e-03
 -5.9960311e-04
 -1.0243136e-03
  6.0368964e-04
 -3.7890056e-04
  2.1209011e-03
  4.9320948e-03
  1.5733478e-03
  4.2081908e-03
 -1.0103777e-03
  2.4480217e-03
 -6.7024608e-04
  8.3077780e-04
  2.7001841e-04
 -1.9445412e-01
 -4.7670361e-03
  6.4471434e-03
  1.3521018e-03
  1.7240589e-03
  3.4720858e-03
 -3.6013071e-04
  2.6721680e-03
  7.4040872e-04
  2.3630995e-04
 -1.1323678e-03
  3.3434907e-03
  8.0648775e-04
  7.4908044e-04
  7.3706610e-03
 -4.0458972e-03
  4.7606835e-03
 -1.5248449e-03
 -1.7111523e-03
 -4.8815971e-03
 -2.5036436e-04
  3.9427681e-04
  5.9309904e-03
  1.0327466e-03
  1.6110612e-03
  9.8520552e-04
  1.9134516e-03
  3.2961607e-04
 -5.7731667e-03
 -2.7636476e-03
  8.5613253e-03
 -1.3432011e-03
 -8.1619684e-04
  6.3365477e-04
 -2.2280251e-03
  6.7874966e-03
  2.0090584e-03
  4.1683973e-03
  1.5045169e-03
  2.1858132e-03
  4.8183855e-03
  9.0691529e-04
 -1.1730660e-02
  1.2715969e-03
  8.6262147e-04
  1.7762247e-03
  1.0931883e-03
 -1.4467293e-04
  6.5136026e-04
  6.4890692e-04
  5.5600551e-04
  1.4083131e-04
  1.8361798e-03
 -8.7590446e-04
 -6.9329608e-03
  7.1575078e-03
 -5.7334843e-04
 -2.5779207e-04
 -9.3135639e-04
  9.3061558e-04
  2.7864974e-04
  1.1800876e-03
  6.5863365e-04
  1.9630145e-03
 -1.2322213e-03
 -5.6699984e-04
 -1.3745391e-03
  3.0668725e-03
  1.8700556e-03
 -7.8683160e-04
 -1.1618781e-03
  3.1870480e-03
 -7.0545431e-03
  2.1495097e-03
 -4.4901459e-03
  1.4900427e-03
 -1.1087270e-03
  1.9657542e-05
  6.7899312e-04
  1.8188668e-03
 -2.3595875e-04
  7.5563678e-04
  2.4108723e-04
  1.2181473e-03
  1.8530494e-03
  1.0958785e-03
  3.1663990e-03
 -1.1085813e-03
 -7.2978532e-01
  1.0801886e-02
  1.4750168e-03
  4.4106087e-03
  1.0204206e-01
  1.0104416e-02
  7.8996057e-03
  1.9536274e-02
 -3.0322967e-04
  4.8869064e-05
  5.8627785e-03
 -1.3225078e-02
 -1.9259539e-03
  3.2357848e-03
 -2.7356236e-03
 -2.9212103e-04
 -7.8193599e-04
 -1.4149996e-02
  7.9945050e-04
  3.9027650e-03
 -2.6261688e-03
 -6.5191789e-03
 -5.4447661e-04
  6.3145226e-03
  1.3240187e-03
 -1.5237192e-03
 -2.6121218e-04
 -3.7482663e-04
  2.5822327e-03
  2.1813144e-03
 -3.3669255e-03
  3.0171103e-04
  1.1001175e-03
  2.3618720e-03
 -4.6584476e-04
 -2.6257825e-05
 -4.1455816e-04
  1.7751742e-03
  2.5326917e-03
 -8.6017034e-04
 -2.1431211e-03
  3.0689448e-04
  3.8884147e-03
  5.3222437e-04
  7.1888301e-04
  5.7586590e-03
  4.8684846e-03
  3.5315948e-03
  4.7982433e-03
 -7.3207740e-04
  1.2921491e-03
 -1.3179291e-05
  9.9815778e-04
 -6.3433999e-04
 -3.3296936e-03
 -1.1161889e-03
  4.2483566e-04
 -4.6297160e-04
 -5.6318648e-04
 -3.7188991e-04
  7.9879502e-04
 -3.4892478e-04
 -2.1805540e-03
  5.0869933e-04
  2.5550118e-03
 -7.2281109e-03
  5.8007892e-04
 -5.9474580e-04
 -1.2490067e-03
 -9.8641240e-04
 -4.1879942e-03
 -3.4403070e-03
  1.0124902e-03
  1.3013738e-02
 -5.7874932e-03
 -2.0515756e-04
 -3.0530829e-03
 -2.3983303e-03
  8.5970503e-05
 -9.7426702e-04
  2.9871642e-04
 -2.0136214e-03
 -3.2516234e-03
  1.3452850e-03
  3.6405987e-04
 -4.9848540e-04
  1.4738945e-03
 -1.6975262e-03
 -1.7079772e-05
 -1.3350669e-04
  3.0541238e-03
 -2.0177346e-03
  6.5661006e-05
  1.3667906e-03
 -9.0117205e-04
  1.8412806e-03
 -2.2334545e-03
 -3.4217646e-03
  1.1192576e-03
  2.1575529e-03
 -2.4122328e-03
  1.7818442e-03
 -2.3320881e-03
  1.0983588e-03
 -5.4389192e-04
 -3.3961204e-04
 -8.8878616e-05
 -1.2125490e-03
  2.8698947e-03
 -1.2351152e-03
 -4.3403027e-03
 -1.3311993e-03
  3.1916257e-03
  1.3649676e-04
 -9.0294809e-04
  2.3940040e-03
 -1.5343492e-03
  3.1953552e-03
 -9.8234485e-04
  3.9795674e-03
 -5.3848284e-03
  6.8956288e-04
  3.1896639e-03
  5.5413519e-04
 -2.8860386e-04
  4.4486322e-04
  4.5466324e-04
  7.4004935e-04
  6.5687425e-03
  1.2854382e-03
 -9.8513020e-04
  2.2836213e-03
 -1.0369960e-03
  1.5481911e-04
  1.2268856e-03
  4.3401046e-04
 -6.1808212e-04
 -6.9959118e-04
  7.7384035e-04
 -5.8194785e-04
  1.0840325e-03
  2.3376551e-03
 -2.2052396e-03
 -1.2756189e-03
  9.5132022e-04
  1.5328162e-03
  1.4273432e-04
 -1.7700110e-03
 -8.3637511e-04
 -1.0805815e-03
 -2.7627090e-04
  9.4994495e-04
 -2.6251716e-04
 -2.6147007e-03
  2.9925527e-03
 -3.9482786e-04
 -3.5419746e-04
  5.2471401e-04
 -2.0060474e-03
  1.5603832e-04
  1.9376922e-03
  3.1223588e-03
  1.3648069e-03
  1.6295895e-03
 -3.2867419e-03
  1.0446541e-03
 -1.4616053e-03
  2.5636487e-04
 -9.3985867e-04
  6.2187314e-03
 -1.0200259e-03
  1.1809431e-04
  1.4925967e-03
 -6.9271545e-03
  5.7921448e-04
  5.6061816e-01
 -4.8240474e-01
  4.2615643e-01
 -3.6256388e-05
  9.2227548e-02
 -1.9859034e-01
  1.1893142e-01
 -4.5678732e-01
  5.7297945e-01
  1.2037784e-03
 -1.0079575e-01
  7.3316245e-05
 -8.8498462e-05
  9.1762185e-02
  2.9823484e-04
 -1.2813500e-01
  1.1566760e-02
  2.8415307e-02
 -1.7521637e-02
 -8.7081268e-03
 -1.5756907e-03
  1.0140960e+00
 -1.9091221e-03
  1.0949001e-01
 -2.9153731e-03
 -1.1389934e-01
  2.4592397e-03
 -3.0215209e-02
 -2.4683422e-01
 -4.4780942e-03
 -3.1392530e-01
 -5.7847388e-03
  8.6876354e-04
  6.9012772e-04
  3.4908503e-02
  8.7967575e-02
  1.9982666e-02
 -9.2094719e-02
  8.1501938e-03
 -1.0206883e-03
 -3.2950656e-03
  2.0542427e-03
 -1.3744354e-01
  2.6972354e-03
 -1.6390911e-04
 -2.2006892e-03
  4.4493899e-03
  8.3389925e-05
 -4.1117095e-03
 -4.8324000e-04
  5.9416212e-02
  1.3161899e-04
 -1.7282923e-03
  2.1297592e-03
 -1.8293202e-03
 -1.2082746e-05
 -8.9904194e-04
 -8.0045685e-04
 -1.9430008e-03
  2.9464060e-04
 -1.1224297e-03
  1.6557565e-03
  6.8127248e-04
  3.0239674e-03
 -2.9096066e-03
  4.7957670e-04
  2.8395751e-03
 -7.2062097e-04
  7.9686299e-04
 -4.1164396e-05
 -3.9350009e-03
 -1.3108896e-03
  3.6849089e-02
  1.1454162e-05
 -2.3119687e-03
 -1.5622459e-03
 -1.5049157e-04
  1.1363687e-03
 -3.1182021e-03
 -7.9082209e-05
 -5.5204396e-04
 -1.8250820e-03
 -7.7767263e-04
 -3.1884599e-03
  2.1652929e-03
  2.6133615e-03
  3.7254766e-05
  2.7529062e-03
  4.0451111e-04
  2.6616561e-03
 -4.5731847e-04
 -1.5749248e-03
  3.3135834e-04
 -7.9707347e-04
 -9.8526909e-04
  3.0635242e-04
 -5.8594870e-04
  4.7536413e-03
  2.2714017e-03
  2.0059757e-03
  1.0365078e-02
  1.7000493e-03
  5.8023073e-03
 -1.4801752e-03
  4.8793186e-03
  4.9723694e-03
 -2.1157749e-03
 -5.4205200e-03
  2.3711086e-03
  4.3403369e-04
  3.7875681e-04
 -2.7433143e-03
 -6.7109521e-04
 -2.9842085e-03
 -2.9355765e-04
 -4.0535261e-03
  4.9827624e-02
 -9.7015197e-04
  1.1141652e-03
 -3.4922110e-03
 -6.2220162e-03
  1.4141741e-03
  1.1098040e-03
 -3.9444310e-03
 -1.1279495e-03
  4.4164946e-03
  3.8275507e-04
  1.2693342e-03
 -1.0174175e-03
 -2.2387988e-04
  1.1913392e-03
  2.2039784e-03
  1.2137508e+00
  5.2613534e-02
 -4.8821861e-01
 -1.5685551e-01
 -1.7082487e-01
 -2.9167440e-02
 -2.8163302e-01
 -8.9061224e-01
 -9.3774307e-01
 -3.4528148e-01
  1.2089331e+00
 -3.1079644e-02
 -1.0882956e-01
  2.6593420e-01
  1.3988408e+00
  6.1645139e-02
 -4.0554819e-01
  1.6392158e+00
  5.4274881e-01
  2.4169932e-01
  2.6599234e-01
  3.0954269e-01
  1.6604266e-01
  7.9895079e-01
  4.5405751e-01
 -2.5168934e-01
  3.2843274e-01
  9.0640175e-01
 -1.0498987e+00
  2.8452972e-01
  2.9498914e-01
  5.3744823e-01
 -5.7824844e-01
  1.6519623e-01
  6.6482025e-01
 -9.7215861e-01
  3.2480395e-01
 -2.6983718e-04
 -6.2111557e-01
  1.9696888e-03
  6.4396397e-03
  2.6220092e-01
  2.1522453e-01
 -2.1575104e-02
 -6.8217367e-01
  7.0323807e-01
  4.9812830e-04
  7.7614309e-03
 -4.4642193e-03
  3.0650958e-04
 -6.7646010e-04
 -1.1624191e-02
  4.2890683e-02
  7.8277645e-04
 -2.6789575e-03
 -3.4997491e-03
  4.3770499e-03
 -4.0161540e-03
 -2.7964453e-03
  5.4551037e-03
 -5.4156350e-05
 -1.6850189e-03
  7.0540351e-04
  1.8423798e-03
  1.4726563e-03
 -4.9238757e-04
  3.9905275e-04
 -1.8243000e-03
 -3.0327234e-03
 -1.0748063e-03
  3.8738353e-03
 -8.7305903e-04
 -6.8223476e-04
  2.3443087e-03
 -2.0537339e-03
 -2.4931435e-03
 -9.5906598e-04
 -4.8907101e-04
  9.9293736e-04
 -5.5637732e-03
  4.0336163e-05
 -1.5767113e-03
 -3.4005605e-03
 -3.3364305e-03
  6.3469086e-04
  1.1321354e-02
 -4.2513469e-03
  1.5713027e-03
 -4.9664348e-01
 -1.5325639e-03
 -1.2656577e-03
 -2.7351868e-03
  6.0255907e-04
  2.9629231e-03
  3.9264170e-04
  6.3475734e-04
  4.2854185e-04
 -9.8188664e-04
  9.2175999e-04
 -2.7222005e-03
  1.8033093e-03
 -4.8463196e-03
 -2.9831890e-03
  4.5837779e-03
  2.8739549e-04
  1.3488091e-03
 -2.9567670e-04
 -6.3722697e-04
  4.8288321e-03
  1.4163197e-03
 -1.4554675e-03
  2.8768955e-03
  4.9452763e-05
  9.0683927e-04
 -8.1264559e-04
 -1.5285830e-03
 -2.7382100e-04
 -3.5374328e-03
 -1.6607458e-03
 -3.6893163e-03
  1.0248693e-03
  1.0177239e-03
 -1.1651498e-03
  3.2968228e-04
  9.1643340e-04
  1.6970993e-03
 -1.4145619e-03
  2.8166610e-03
  1.2225832e-04
 -1.0865992e-03
  1.3716340e-03
  1.0012155e-03
 -4.5877486e-04
 -5.2842669e-02
 -4.7297622e-03
  1.7857681e-03
  3.9797899e-04
 -6.8955001e-04
 -1.4507576e-04
 -7.2315126e-03
  5.1974389e-04
 -2.5981348e-03
  3.1171851e-03
  5.5146366e-03
  1.0182040e-03
 -1.5889256e-03
  3.0765141e-04
  2.9352610e-03
 -4.3483829e-04
  5.1436748e-04
  9.6121766e-03
  7.1987994e-03
 -4.3516271e-03
 -5.6387330e-03
 -5.7408963e-03
 -6.2964354e-03
  7.8799413e-04
  3.1112006e-03
 -1.3846601e-03
  3.1565225e-03
  4.6873599e-02
 -2.1858001e-04
  3.1067205e-03
  1.1838200e-03
 -3.5443667e-03
  2.1227645e-03
  5.3134356e-03
  7.8212575e-04
 -4.7171634e-04
 -2.2996669e-03
  1.8272838e-03
  3.1318953e-03
  1.0661710e-04
  2.6230277e-03
  4.4770402e-04
 -4.0914747e-04
  1.4440222e-01
  1.5969196e-02
 -2.6885986e-01
  2.0027876e-01
  9.8256938e-02
  1.7669038e-01
 -3.9616183e-04
 -4.0089902e-01
  1.1336071e-02
 -6.0442660e-02
  2.2493099e-01
 -4.6603726e-03
  4.7727573e-01
 -7.4194209e-03
  2.9223067e-01
  3.0381182e-01
  3.8951434e-02
  6.1692927e-02
  2.0895168e-01
  1.0325195e-01
 -2.7841900e-02
  4.8861128e-01
  2.5558001e-01
 -8.3868191e-02
  1.8070710e-01
 -6.5425964e-04
  1.7301020e-01
  3.0435863e-01
 -1.6456762e-03
  1.1437773e-01
  3.9575133e-02
  4.4764203e-01
  8.1648340e-04
  2.3474965e-02
  3.2584367e-03
  7.7455840e-04
  2.0227014e-01
  2.1216916e-03
  4.2196834e-03
 -7.8785623e-04
  5.0302939e-03
  1.4598241e-01
 -3.3460492e-01
 -3.0377886e-04
 -1.3002172e-02
  1.1128744e-03
  1.2221064e-03
 -3.0168525e-03
  6.9836644e-04
  6.0766202e-04
 -2.6106232e-04
 -3.5501490e-04
 -1.9772120e-01
  1.9093816e-03
  4.2459862e-03
  9.3908998e-04
  1.1947850e-02
  1.4945659e-03
 -1.3782689e-03
 -2.5646577e-03
  1.4145403e-03
  8.4369979e-04
 -1.1888674e-03
 -1.4991713e-03
 -1.8423365e-03
 -4.5785139e-04
 -9.6181355e-04
 -5.7998723e-03
  2.5891436e-03
 -1.2532683e-03
  9.5313549e-04
 -2.0923014e-03
 -4.9725932e-04
  1.5466427e-03
 -5.5110441e-03
  1.4352407e-03
 -5.9874292e-05
 -5.4372707e-04
 -4.4933835e-04
 -6.3607842e-04
 -3.0074851e-03
  1.3069336e-03
  1.9432338e-03
  5.6928594e-04
 -3.7625274e-03
  1.4918838e-03
  8.7401940e-04
 -8.3855325e-03
  2.1032421e-01
 -8.7299263e-01
 -4.9764733e-03
 -1.6247869e-01
  5.5001108e-03
  3.9526585e-02
  2.0177648e-03
 -7.4715741e-02
  1.9799535e+00
  2.5241799e-03
 -2.6027197e-03
  4.0518778e-04
  4.5973146e-03
 -1.9793713e-03
 -2.1620886e-03
 -6.0647056e-03
 -4.4391019e-04
  1.4233571e-03
 -4.5466460e-03
 -1.1621142e-03
  4.8169438e-04
 -2.0397875e-01
  1.7289487e-03
 -9.5964712e-04
 -4.6656379e-03
  1.3871995e-01
 -9.6960925e-03
  2.2466230e-04
  1.9226646e-03
  6.2870223e-04
 -1.1781249e-03
 -3.9994861e-03
 -7.6053187e-04
 -9.2536333e-04
  1.1957274e-03
 -1.2404572e-03
  1.9029906e-03
 -7.9260478e-03
  1.4505258e-03
  2.7502764e-03
 -1.5290380e-03
 -9.1194134e-04
 -8.4846071e-04
  2.2878498e-04
 -7.0217860e-01
 -4.1514724e-01
  5.7704335e-01
  8.2005560e-01
 -4.3751487e-01
  4.6793219e-02
  1.3867737e+00
 -1.1694645e-01
  5.3118414e-01
 -3.3395085e-02
  9.2448838e-02
 -1.0579005e-03
 -4.2328513e-01
 -9.1720680e-03
  8.2622683e-01
  7.3687136e-02
  5.1652938e-01
  6.4685273e-01
  7.0789315e-02
  6.2695788e-03
  7.9095966e-01
 -1.8392190e+00
  1.4996882e-02
 -7.6437598e-01
  9.6304071e-01
 -1.0692718e-02
  5.6164726e-03
 -9.1841841e-01
  4.8600188e-01
  8.5125789e-02
  5.7645231e-01
  3.0978087e-01
 -4.4896555e-01
  1.9995455e-01
  1.4519948e-01
  6.1673629e-03
  3.9837408e-01
  1.1363577e-03
 -3.2293184e-03
 -6.1659410e-04
  2.7286864e-03
  2.2437327e-02
 -2.7309942e-01
 -1.3757572e-02
 -5.0609089e-03
  1.0842766e-03
  8.4880582e-04
  3.1146104e-03
 -1.2344595e-03
  3.7439093e-03
  2.5109942e-03
  7.0510055e-03
  1.4851380e-03
  3.7522542e-03
 -3.3917977e-04
 -1.9980682e-05
  1.0675077e-03
 -1.3579120e-03
 -4.5411376e-05
 -7.4555568e-04
  2.2147817e-03
  1.4743260e-03
 -5.7583465e-03
 -1.2202737e-03
  2.9466292e-03
  1.1380990e-03
 -4.7384645e-03
  2.1162997e-03
  9.8187837e-04
 -9.3641732e-04
 -2.7909130e-03
 -6.8814843e-06
 -6.8495558e-03
  3.0587539e-03
  1.5440537e-03
  2.0399175e-03
 -3.9246404e-03
 -3.3179985e-03
 -2.2860079e-03
 -1.7970251e-02
 -4.0495871e-03
  1.1220346e-03
  2.3892489e-03
  8.6321076e-03
  2.5791158e-03
 -5.6202798e-03
 -3.0879101e-03
  1.0233622e-03
  7.8280918e-02
 -4.7367069e-01
 -6.6337059e-04
 -9.6217298e-04
  1.3396851e-03
  5.1954892e-03
 -9.7432197e-04
  1.9272128e-03
 -2.1634165e-03
  1.6610281e-03
 -9.5335552e-03
 -1.2908042e-03
  8.0788403e-04
  4.5580397e-04
  1.0923081e-03
 -6.1697233e-04
 -3.5703098e-04
  2.8745485e-03
 -1.0600151e-02
 -2.3473941e-03
 -1.0842142e-02
 -2.7305381e-03
 -1.9710936e-02
 -1.8894346e-03
 -2.4188575e-03
 -4.9054687e-04
 -5.5201259e-04
 -1.8233012e-02
 -1.1735491e-03
 -3.9780268e-04
 -1.1558710e-03
  6.0815038e-04
  4.3407963e-03
 -2.5743919e-03
 -9.7059866e-04
 -8.6515036e-04
  1.9181434e-03
  1.4385850e-03
 -2.4101820e-03
  1.9116981e-03
 -1.1611024e-03
  1.9871572e-02
  1.6587870e-03
  4.8971840e-04
  3.1629851e-01
 -2.3691447e-02
 -8.0881871e-02
 -1.4272055e-02
 -8.8486381e-02
  4.2575914e-03
 -4.1215051e-02
  6.7957222e-01
 -9.0662915e-01
 -9.4820221e-04
 -4.3573109e-03
 -2.9658044e-03
  1.0369246e-02
 -1.2772081e-03
 -1.1422677e-02
 -4.9233053e-02
 -7.8033712e-03
 -2.2917679e-02
 -3.5284532e-03
 -7.6494096e-03
 -1.5030788e-02
 -2.7758870e-01
 -3.2710703e-03
  1.2504137e-01
 -6.0629733e-03
  4.5500394e-02
 -6.4357505e-03
  1.2813034e-02
 -2.4252042e-01
 -1.8066212e-03
 -3.0028708e-03
 -7.8355454e-02
  2.2312580e-04
 -1.5460560e-03
 -5.6617567e-04
 -1.1244989e-03
 -5.8799917e-03
  9.2944195e-03
 -2.2548938e-04
 -9.3866605e-04
 -1.0192036e-03
 -1.0765047e-02
  1.5679527e-03
  1.2656388e-02
 -4.3618120e-04
  1.0901296e-02
  1.0909201e-03
 -2.8097907e-03
 -2.5602898e-03
  4.4202320e-03
 -6.0437690e-03
  4.0295199e-03
 -1.2810268e-03
 -1.4041754e-04
  1.9581825e-04
  6.6700195e-05
  1.3703703e+00
 -2.1487486e-04
 -1.3141515e-03
 -4.5426984e-04
 -1.1139116e-03
 -7.5267470e-03
 -8.0672652e-04
  2.1351385e-03
 -9.0355892e-03
 -1.8847766e-04
 -1.1328912e-04
 -2.0593204e-04
 -3.7895166e-03
 -2.1365928e-03
  3.8140602e-02
  3.0108958e-03
  6.9048535e-04
  2.1348209e-03
 -4.2092348e-03
 -6.7153517e-03
  1.4605996e-03
  1.8718436e-03
 -2.0510159e-04
  8.8961364e-04
  2.9133289e-04
 -2.8506955e-03
 -3.5419852e-01
  1.5508994e-03
 -2.8502679e-04
 -1.9876370e-03
 -1.4395779e-03
  2.7074356e-04
 -8.0757877e-03
 -8.9730039e-02
  2.5253994e-03
 -4.4905962e-03
  4.2165704e-03
 -2.3252140e-03
  8.7147932e-03
 -3.8501602e-03
  1.7238718e-03
  3.9202333e-03
  1.3682052e-03
 -3.0880915e-03
  3.0647847e-04
  1.1359932e-04
  2.1371297e-03
 -2.7825164e-02
 -1.8951218e-03
  1.3149295e-03
 -2.0748831e-04
 -3.8806128e-03
  1.5657416e-03
  2.6141271e-01
 -2.0240496e-03
  3.1727955e-03
 -4.1948250e-04
 -9.8087708e-05
  2.5458985e-03
  2.0057072e-03
 -4.9370043e-03
  2.5628071e-04
  8.7605007e-03
 -3.8971973e-03
  1.6297073e-04
  8.7548951e-03
 -7.3837494e-03
  1.3986253e-03
  1.0429908e-02
 -1.1074722e-03
 -4.6790237e-04
  2.8720126e-03
  9.6772856e-04
  2.7095061e-03
 -2.1722207e-03
 -9.6064492e-04
 -1.7419565e-03
 -5.6017822e-01
  4.9717738e-03
 -5.3401070e-04
 -9.1700436e-04
 -2.2759521e-02
 -1.1564597e-02
  2.2134130e-01
 -1.0001408e+00
 -1.5075029e-03
  1.3313228e-03
 -1.1408749e-03
  1.6120665e-03
  2.4961680e-03
  2.1764957e-03
 -4.8360357e-04
  2.7561379e-03
  1.4042951e-03
  1.1401547e-02
 -1.8955535e-03
  2.9183917e-03
 -7.8908150e-04
 -7.2512496e-04
 -3.5307385e-02
  2.9846287e-04
 -4.9555637e-03
 -1.7899037e-03
  1.9843972e-03
  4.1188137e-04
  6.0041994e-04
  2.0811101e-04
 -1.6241668e-03
  9.0677780e-04
  3.9362088e-03
 -1.8307297e-03
 -5.5647211e-04
  3.7680632e-03
 -2.3665403e-03
  1.8420492e-03
 -3.8125052e-04
  2.3493785e-03
  1.6000672e-03
  3.0717375e-03
 -1.2771838e-03
  1.4114553e-01
 -4.0758899e-01
  7.5465962e-02
 -2.3761737e-01
 -2.9587558e-01
  1.4319643e-01
 -5.6816533e-04
  1.2877202e-02
  1.3631626e+00
  8.7962970e-02
 -1.8448839e-03
  3.3894091e-04
 -1.2963295e-03
 -1.0917110e-03
 -2.5859643e-03
 -6.1744157e-02
 -1.1139989e-01
 -1.1184241e-01
  1.0230694e-03
 -1.1940358e-03
  9.2325476e-04
 -7.1382828e-02
 -6.6138422e-03
  3.8205333e-02
 -7.8005128e-02
  4.1874029e-02
  3.4927791e-03
  1.1545743e-03
  8.5972857e-01
  3.1337151e-03
 -5.8076517e-03
 -1.7110142e-01
 -8.8575273e-04
 -8.6460286e-04
 -1.0809448e-04
 -1.0243789e-02
 -3.5354546e-03
 -1.2794525e-03
  2.3973431e-03
  1.0096002e-05
  2.3461226e-03
 -1.3175757e-03
  1.8135495e-02
  1.4063980e-03
 -1.0046186e-03
 -6.4156968e-03
 -3.9704522e-05
  1.3174266e-03
  1.4524090e-03
  4.4279913e-03
  5.0453329e-01
  1.1961978e-03
  9.6749864e-04
  5.6190332e-03
 -5.1052542e-04
  1.5050728e-03
 -4.5457622e-05
 -1.3288928e-03
  3.2812642e-04
 -1.5623632e-03
 -9.5354294e-04
  2.3672002e-04
 -1.6700331e-05
  3.7908421e-03
 -1.8763912e-03
  1.4429406e-04
  2.6091193e-03
 -5.4090703e-04
 -1.4305094e-02
 -8.5901022e-03
  1.0777691e-03
 -5.7182661e-03
  1.5011027e-03
  7.6403341e-04
  5.6055689e-04
  5.4823318e-03
 -1.1770765e-03
  1.9470467e-03
 -2.7519962e-04
 -2.5223000e-03
  1.6782625e-03
  1.2691612e-03
 -1.6798564e-03
 -3.8002018e-04
  3.3905124e-04
 -4.6885596e-04
  3.2610840e-03
 -3.1534359e-03
  1.0060664e+00
 -4.7458848e-01
 -4.3439463e-04
 -6.9065966e-02
 -1.7285508e-01
 -1.3127605e+00
 -6.2798224e-02
  4.0994766e-01
 -2.9789215e-01
  6.1726548e-02
 -7.4944884e-01
  2.5756255e-01
 -1.6466765e-02
  2.2191843e-01
 -3.6604998e-01
 -1.0064778e+00
  4.6248776e-01
 -5.1800936e-01
 -6.3358194e-01
 -9.3025573e-02
 -4.4553500e-02
 -1.4882343e-01
 -4.7162637e-01
 -1.6176260e+00
 -1.5822682e+00
  4.7093999e-01
 -2.5540841e-01
 -4.8424479e-01
 -1.9242972e-01
 -1.4034674e-03
  5.2352059e-01
 -1.1792580e+00
  2.2608358e-01
 -3.4390585e-03
  4.2288870e-01
 -4.9946660e-01
 -7.5995061e-04
  3.9523896e-02
 -9.0813013e-03
 -5.8674440e-04
  1.7375954e-03
 -6.4659603e-03
 -4.8965883e-01
  3.7055282e-04
  4.5433822e-03
  1.3525116e-01
  1.6104616e-04
 -6.1075683e-03
  4.4365173e-05
  1.1051262e-03
  4.9344753e-04
 -1.4498675e-03
 -2.0694518e-03
  5.2665663e-03
  2.0901756e-03
 -1.4665705e-03
  2.4666507e-03
 -4.7332072e-04
 -4.4450439e-03
 -6.2198453e-03
 -2.7623179e-03
  3.0162469e-03
 -1.1633025e-03
 -6.1050785e-04
  1.4302707e-03
  1.3661327e-02
 -8.7943178e-04
  4.6798166e-02
 -2.8182471e-03
  5.9881626e-04
 -5.3727753e-03
 -2.2809014e-03
 -2.2070932e-03
 -5.2647479e-04
 -2.8157979e-04
  1.3679055e-03
  2.0124665e-03
  1.1157652e-03
 -6.4868259e-01
  4.7757704e-04
 -3.7003958e-03
  3.9466567e-04
  3.7416029e-03
  2.4728570e-03
  2.5780813e-03
  6.3448149e-04
  5.6622196e-03
  2.5792962e-03
  2.0302163e-04
 -4.7920048e-01
  6.6295005e-03
  5.3491321e-04
  2.7274746e-03
  4.2807003e-03
 -6.8494584e-05
  1.6093836e-03
 -2.0028506e-03
  9.9528662e-04
 -1.3068633e-03
  2.6171174e-04
 -1.1904027e-03
 -1.1356871e-03
 -7.5595081e-04
 -3.0928288e-04
 -2.3255374e-03
 -1.7665378e-03
  5.1775132e-06
  6.0411539e-02
  2.6430744e-03
 -1.2047731e-03
 -1.0343764e-03
  3.7574207e-03
 -1.9066935e-02
  1.2881999e-03
  5.3807237e-04
  9.6039847e-04
 -7.0608279e-04
  1.6266434e-03
  2.5669306e-03
  5.3611514e-03
  1.1461157e-03
  1.4958513e-01
 -3.0596640e-03
 -3.2245699e-01
 -7.8148942e-04
  2.5617543e-03
 -1.6124973e-03
 -4.5259821e-04
 -4.7339126e-04
  1.8583430e-03
 -1.3939347e-03
 -5.4987130e-04
 -9.9678501e-04
  7.5889504e-01
 -1.9264220e-01
 -4.7894698e-04
  3.1147923e-03
  4.7202581e-03
  1.8913758e-03
 -9.9620502e-04
  1.0428346e-01
  1.7609003e-03
 -2.7692266e-05
 -2.4709839e-03
 -1.4376857e-03
 -1.3292431e-03
  6.5924274e-04
  1.8686305e-03
 -7.4046571e-04
 -1.0890295e-03
 -3.3439875e-03
 -1.8682197e-04
  1.1658296e-03
 -2.0388251e-03
  6.8943482e-05
 -2.0280327e-03
  1.2081221e-03
  2.4169676e-03
 -1.5555731e-03
 -2.2819685e-03
  1.9061273e-03
  1.3380453e-03
  1.4650419e-04
  7.3182560e-04
 -6.9381832e-04
 -2.5872041e-03
 -8.0252963e-04
 -2.2182058e-04
  2.2918484e-03
 -4.0706573e-03
 -2.4280981e-03
  1.3158545e-03
  6.9910230e-04
 -8.3233567e-04
 -1.6642585e-03
 -1.9917333e-04
 -8.2880080e-01
  5.5044758e-01
  2.4693958e-01
 -1.9386233e-01
 -1.1051704e+00
  4.7265220e-01
  1.3413626e+00
 -1.4981295e-01
  2.3935306e-01
 -2.5987428e-01
  2.2251924e-04
 -5.8884067e-03
 -2.0675873e-02
 -5.2839592e-03
  2.9043382e-01
 -5.0729658e-03
  1.8148442e-01
  1.4900386e-01
  3.1649129e-04
 -8.8913139e-04
  4.4254879e-03
  1.4121097e-01
 -9.9698327e-02
  2.0991053e-01
  2.9029709e-01
  1.2977231e-02
  6.2522250e-03
 -9.7102273e-01
  1.2585306e+00
  1.5954527e-03
  7.4701081e-04
  2.3724122e-02
 -3.1396080e-02
  2.9262642e-03
 -1.0339804e-02
  3.7920491e-03
  5.2937132e-04
  4.0633762e-03
  1.5779177e-02
  5.3340511e-04
  3.2503305e-03
  2.8376132e-03
 -4.2324744e-02
 -9.4277970e-03
  1.8442486e-01
  3.1861866e-01
 -4.6598592e-01
  5.5249494e-01
 -2.3104101e-01
 -2.2964747e-01
 -8.9164352e-01
  3.3967718e-02
 -3.4249616e-01
 -5.2676160e-02
  3.7071391e-03
 -4.0401544e-02
  1.0812508e-01
 -6.2407058e-01
 -4.9949771e-01
  5.0352556e-01
  4.5348796e-01
  1.8141836e-01
 -8.0791028e-04
 -2.1797836e-02
 -6.4179331e-01
  8.7834275e-01
 -4.1260412e-01
  8.3051175e-02
 -9.6045611e-03
 -9.8339237e-02
 -4.3271866e-01
 -3.2195157e-01
 -7.0440680e-01
 -2.1915969e-01
  2.6069013e-03
 -2.9681619e-02
 -3.8407224e-01
 -2.7834797e-01
  6.0776896e-03
  5.6775216e-02
 -4.1079065e-01
 -9.8940162e-03
  1.4548594e-03
  2.6878626e-03
 -1.4633857e-02
 -1.0354131e-01
  2.3696598e-01
  3.3704769e-02
  7.8438141e-04
 -2.9582374e-03
 -4.6456186e-03
  3.6235056e-03
  2.3925491e-03
 -1.7042268e-03
 -1.7455009e-04
  1.1536653e-05
 -2.2811987e-03
  1.5642829e-03
  2.7339568e-03
  1.5882209e-03
 -3.1218695e-04
 -2.6234409e-03
 -9.9950610e-04
 -5.7819590e-05
 -1.5184016e-04
  3.3809030e-03
 -2.2178687e-02
  6.9194101e-04
  2.1392878e-03
  9.9638943e-04
  1.4960842e-03
 -1.7356086e-03
  1.6580749e-03
 -3.4246924e-03
  2.7349908e-03
  2.0286418e-04
 -7.6506194e-04
  3.9174263e-03
  1.8111890e-03
  5.0107599e-03
 -2.8984032e-03
 -3.6461144e-03
 -3.4941218e-03
 -3.5967089e-03
  1.7321337e-03
 -2.3194791e-04
  6.6750720e-03
  6.9264402e-03
  3.8959150e-04
  1.8465820e-03
 -1.7116021e-03
 -5.6660565e-04
 -3.7754658e-03
  2.5528745e-04
 -5.4170350e-03
  1.0030236e-03
 -9.6165331e-04
  3.6395161e-04
 -2.7853034e-03
  1.3517328e-03
 -4.2257956e-03
 -1.9692653e-03
  1.0455438e-03
  3.0915325e-03
 -5.4581338e-03
 -1.6781836e-03
  2.0592096e-03
  3.0439033e-03
 -3.9022495e-03
  8.2979165e-04
  2.0995312e-03
  1.2649759e-03
  6.1783940e-04
 -4.1520968e-03
 -8.2335412e-04
 -3.9758827e-04
 -1.6110030e-03
  3.7327703e-04
 -2.0797695e-03
 -9.9425483e-04
 -1.7121688e-03
  2.9905138e-03
  2.3402944e-03
  4.0368430e-04
 -1.6100442e-03
 -1.2957749e-03
 -2.4055784e-04
  5.0608872e-04
 -2.1906416e-03
  3.6028964e-03
  1.4917454e-03
  1.2364064e-04
 -3.8911090e-03
  6.2653970e-04
  7.0904515e-04
 -2.4459481e-03
  3.5248813e-04
 -9.5277745e-04
  1.3400245e-03
 -1.1540360e-03
 -6.9381611e-04
 -4.6898153e-01
 -9.6556387e-04
  2.3549902e-03
  1.5650126e-03
  4.3990571e-04
 -5.3391122e-04
  2.6393775e-04
  5.2162809e-03
 -3.4893404e-03
  2.9467046e-03
  2.3132493e-03
 -2.5958484e-03
  3.0660775e-04
 -2.5926347e-04
 -3.9872841e-04
 -2.3384907e-03
  1.2692772e-03
  3.5119560e-03
 -3.1609661e-03
 -8.8294811e-04
  1.3120287e-03
 -1.7703822e-04
 -1.1148686e-03
  4.3604886e-03
 -1.9438502e-03
  2.9754994e-04
  6.0029430e-05
  1.0264422e-03
 -8.8074815e-04
 -7.3978328e-04
 -6.9751532e-04
 -2.9440557e-03
  1.4330377e-03
  2.1762752e-03
  4.9090697e-03
 -2.5658351e-03
 -1.8608794e-04
  2.6580773e-04
 -5.2586850e-04
  2.0269305e-02
 -2.8560892e-01
  9.3439430e-02
  1.8486078e-03
 -2.5894606e-01
 -5.1810564e-03
  4.9179140e-04
 -4.9924273e-02
 -1.2099613e-01
 -1.3202585e-03
  3.7184556e-03
 -1.9288824e-03
  6.7352323e-04
 -1.5918625e-03
  1.9344433e-01
 -3.4296594e-04
  5.8389824e-02
  8.6090108e-04
  8.2434285e-03
  2.2098492e-03
  1.8157306e-04
 -4.8940838e-03
 -6.6197908e-04
 -1.1098309e-05
 -1.6344019e-04
 -1.4086632e-02
 -2.2400192e-03
  1.1002818e-03
  6.5963984e-02
  1.0635775e-02
  4.1699498e-03
  5.1248949e-03
 -2.8184801e-03
  3.6037518e-04
 -4.8640749e-04
  1.2841917e-04
  1.4001878e-02
  1.8325020e-03
  3.9414368e-03
 -4.6581705e-04
  4.5401533e-03
 -1.5297190e-03
 -2.5717132e-03
  6.1864927e-03
 -3.7932042e-03
  1.0541939e-02
 -1.0339716e-03
 -2.0478133e-03
 -5.4253839e-02
 -7.5392552e-02
 -2.4577955e-04
 -3.8007599e-01
 -4.2235842e-03
  2.2313043e-03
  1.1985772e-02
 -6.5063755e-03
 -2.8673909e-03
 -2.4593086e-03
  8.0489390e-02
 -3.9565871e-03
 -8.1278791e-05
  2.8166920e-01
  1.0052641e-01
  8.0059255e-03
  3.6029732e-03
 -1.5462157e-03
 -1.4400852e-03
 -1.4085209e-03
  1.0120670e-02
 -2.8352495e-02
  4.6455194e-03
  1.1962470e-01
  6.0895666e-02
 -1.5592210e-03
  1.1398318e-03
  2.2823535e-02
  8.5307786e-04
  7.8874291e-07
  2.5011148e-04
 -5.2734772e-03
  9.4342791e-04
  3.0185569e-03
 -6.5414058e-03
 -3.6354968e-03
  1.7191790e-03
  6.4137392e-04
  1.8441537e-02
  2.5076146e-04
 -3.8185233e-01
 -5.1534659e-01
  6.6305266e-04
 -1.8749259e-02
 -9.6730664e-02
 -1.2003241e-01
 -7.1119727e-04
 -4.0269947e-01
 -2.9054567e-01
 -3.8985771e-04
 -4.4135372e-03
 -2.4176589e-03
 -1.7136838e-03
 -2.2383941e-02
 -2.4813602e-03
  3.8669817e-04
  4.0571941e-03
  4.7768592e-03
  4.4677998e-03
  1.7515201e-03
  1.6283903e-03
  3.5794394e-03
  4.3336526e-03
 -2.8508453e-05
 -1.2674981e-03
  6.2002190e-03
 -1.0626137e-03
  4.3111448e-03
  2.1380733e-03
  1.5683554e-03
  8.9629495e-05
  6.2707008e-04
  9.3971007e-04
 -1.7778726e-02
 -2.4455155e-03
  2.3589989e-03
  4.2431382e-03
  1.0672462e-03
 -2.1174613e-03
 -3.7099458e-03
  1.0025975e-02
 -1.4221226e-04
  6.5713844e-05
 -1.8268853e-04
  4.9064000e-04
  2.9940340e-01
  6.3327583e-04
  1.9685584e-03
 -9.7939605e-04
 -4.3807589e-03
 -2.5627436e-04
 -5.5286381e-04
  1.1490667e-03
 -6.0246913e-03
 -8.1791077e-03
  2.5603534e-03
  2.5289792e-03
  1.9969982e-03
  9.4771164e-04
  6.3514896e-03
  2.4692182e-04
 -2.3171040e-03
  3.9014856e-03
  1.5777977e-03
 -4.5257285e-03
 -1.8038494e-03
 -1.9311742e-03
 -2.0161890e-03
  5.9065683e-04
 -9.3724150e-03
  3.0114190e-03
 -2.8272429e-03
 -2.0452030e-04
  2.0545381e-03
 -8.3751610e-04
  2.9399553e-03
 -2.0748382e-03
  3.9422442e-04
  2.4256348e-03
 -2.2360744e-02
 -6.6166976e-04
  2.1342966e-03
  2.8294199e-03
  1.4332575e-03
 -2.1236031e-03
  2.4293391e-03
 -5.1173414e-03
  2.3451903e-04
 -6.2423628e-02
  1.0085750e+00
 -8.6987199e-04
 -3.6109543e-01
 -4.6472251e-02
  2.1032944e-02
  5.5372946e-02
 -7.9698908e-01
  2.9035248e-02
  2.0334634e-01
 -5.3094447e-02
  1.0800029e-02
  1.7204645e-04
 -3.5019154e-03
  1.3924746e-01
 -1.1994006e-01
  8.9564800e-02
 -3.6879305e-02
 -3.1015429e-01
 -9.5661253e-02
 -2.6948471e-02
 -5.1365918e-01
 -7.7537045e-02
  1.3105052e-04
  6.4598960e-03
  1.1342274e-01
 -1.5254472e-03
 -3.4079220e-02
  1.5795065e-01
 -1.0232437e-01
  3.8821843e-01
 -4.0327534e-03
  3.2046458e-01
 -2.0436011e-04
  2.2957763e-03
  8.3079004e-01
 -2.3013620e-01
 -2.6081291e-01
  7.9670064e-03
  1.2176043e-03
 -8.3467923e-05
 -9.5008127e-03
 -4.6886232e-02
 -2.6255655e-03
 -1.3587160e-02
  3.3915794e-01
  4.5084792e-01
 -8.0518045e-02
  3.1334836e-02
  2.0483684e-02
  4.8686123e-01
 -3.0942371e-02
 -6.2827897e-01
 -1.2567693e-01
  2.2464603e-02
 -3.5069289e-03
 -6.2163047e-02
  4.1728932e-02
  1.4661777e-01
  1.3637915e-02
 -8.9846149e-02
  4.9542671e-01
  2.8568360e-01
  6.0109105e-02
  1.2567984e-03
  3.6497149e-01
 -1.9548154e-01
 -2.7289677e-01
  3.3641005e-01
 -3.2294059e-01
  6.4370722e-02
  7.7287383e-02
  2.7972385e-02
 -1.5096862e-03
  1.1820634e-01
  2.6330721e-01
  3.1629336e-01
  1.7614187e-01
  1.0116062e-01
  8.7643869e-02
  3.6488250e-02
 -1.1246315e-01
 -1.6395394e-02
 -5.4086983e-02
  6.2643841e-02
  2.7619809e-01
 -1.8134394e-01
 -4.9824521e-02
  5.8868033e-01
  5.0538385e-01
  1.5207286e-01
  5.6434119e-01
 -7.8532475e-01
  3.4128022e-01
  5.6595898e-01
  2.0324971e-01
 -7.3044187e-01
 -7.4085081e-03
 -5.3290987e-01
  1.5226828e-01
  4.2443480e-03
 -2.1348505e-03
 -3.3616734e-01
 -1.6354889e+00
 -7.5700521e-01
 -8.7332624e-01
 -1.8529356e-03
 -2.9870865e-01
  4.4582363e-02
 -6.1403990e-01
 -4.9304032e-01
 -2.7712470e-01
 -1.1404321e+00
  2.4883068e+00
 -3.5340223e-01
 -6.5520191e-01
 -1.0287306e+00
 -9.0833730e-01
 -7.5728080e-05
 -8.0663341e-01
  8.9075463e-03
 -1.6674561e-02
 -5.1054144e-03
 -5.9446627e-01
 -5.7405490e-01
  6.8223369e-01
 -1.1463895e-02
  3.9373420e-02
 -8.7342625e-03
 -9.5568867e-03
  2.2411143e-02
  1.7205266e-02
  9.2511938e-05
  3.7700709e-02
  4.0472755e-03
 -5.5542085e-05
  2.1885051e-03
  2.8042830e-04
  3.7707647e-03
 -1.6914273e-05
  3.3178038e-04
  4.8864825e-04
  4.6686558e-03
 -9.2419540e-04
 -2.9897857e-01
  9.0586324e-04
  2.3720029e-03
 -1.1717294e-03
 -3.0028147e-03
 -1.0652462e-03
  5.5721850e-04
 -6.0746423e-03
 -1.1284481e-04
  1.4677380e-03
  1.6113269e-04
 -4.0026624e-03
  4.3683866e-04
  9.6969499e-04
  1.4986556e-03
  5.6611170e-04
  3.0902775e-03
 -2.3568915e-03
  1.2097317e-03
 -5.4759602e-04
  9.3450653e-05
  2.9025048e-03
 -1.9104442e-03
  1.1281464e-03
  2.9735020e-03
 -4.0768441e-03
 -4.2362036e-03
 -7.7476457e-04
  5.9177814e-04
  2.7509164e-03
  2.6174819e-03
 -1.9490910e-03
 -2.8143539e-03
 -3.4837720e-03
  5.4496655e-04
 -6.5606069e-03
  1.2459162e-02
  3.6725113e-03
 -2.1543431e-03
  5.8511237e-04
 -1.2187380e-03
 -6.5926713e-04
 -7.0756592e-04
 -9.9502760e-04
 -1.0822656e-03
 -1.0448086e-04
 -3.7183722e-03
  2.3634371e-03
  1.6000539e-03
  1.3357531e-03
  2.7979459e-03
 -1.3892906e-03
  5.2862219e-04
 -1.5637334e-03
 -4.4656987e-03
 -9.1679278e-04
 -4.6971640e-05
  3.2557475e-03
  2.9426403e-03
  2.7453643e-06
  6.3491921e-04
 -1.0228927e-03
 -7.4114927e-05
  5.4458240e-03
  2.3015842e-03
 -3.9586565e-03
  1.4012470e-04
  4.5410227e-03
 -3.4922385e-03
 -1.2217317e-03
 -1.8716838e-04
  2.1195458e-03
  5.3610961e-04
  1.0114828e-03
 -4.5084397e-04
 -2.5079669e-03
 -1.2626490e-01
 -6.1538160e-02
 -8.1387252e-02
  1.2233967e-03
 -1.5544081e-03
 -2.6130094e-03
  2.7870315e-01
 -8.0871351e-02
 -9.9062517e-02
 -6.8276890e-02
  1.1231243e-01
 -1.1714352e-03
 -6.0424870e-03
  7.1504019e-04
  1.3089961e-01
  1.1667098e-03
  1.2767193e-03
  1.7009959e-02
  1.6365178e-01
  1.0305151e-04
  4.7622114e-02
  1.5957583e-02
  2.2547369e-04
 -1.0870499e-02
  4.9976436e-03
 -2.5931830e-02
  8.4967390e-02
 -1.5732847e-02
  4.3057677e-04
  1.1086356e-03
  2.9875504e-02
  2.3934019e-01
 -4.7051799e-04
  1.5418527e-03
 -1.0868099e-01
  1.7868709e-02
  4.4974122e-02
  2.1888898e-03
  5.9055269e-04
 -5.9569948e-03
  1.9534435e-02
  6.2026400e-02
  2.4742543e-04
  1.4475952e-03
  5.5429940e-03
  1.1042047e-03
  6.6140856e-05
  2.6195373e-03
  2.2816223e-03
 -1.1780885e-02
 -1.1040237e-03
  2.2389211e-03
 -1.9341446e-03
 -2.8811914e-03
  3.1712262e-03
  1.7508348e-03
 -1.4525874e-03
 -5.9145712e-04
  6.2503427e-04
  1.1838577e-02
  2.2469836e-03
 -3.2804115e-04
 -1.6159544e-04
 -1.3759274e-03
 -3.0511008e-03
 -2.6520118e-03
 -7.6004438e-04
 -3.3141752e-03
 -2.1122675e-03
 -6.5380009e-06
 -4.7307494e-03
  5.6613039e-04
 -3.0066032e-05
  1.1262554e-04
 -1.2937589e-03
  9.2521659e-05
 -3.9942223e-03
 -4.5525180e-03
 -7.8752369e-04
  8.3490526e-03
  1.4973322e-03
  4.3061297e-02
  5.8837351e-05
  5.0186068e-03
  3.9311447e-03
  6.9184089e-04
 -1.3939128e+00
 -1.0647904e-04
  5.1493873e-05
  2.2479893e-01
 -9.7799003e-01
  1.9514289e-02
 -2.5423416e-03
 -1.6613308e-04
 -1.8232666e-03
  2.8073763e-02
  1.6137582e-03
  9.0618778e-05
  4.0789084e-03
 -5.3823388e-01
 -3.4749033e-03
  1.4310807e-04
  7.6038003e-01
  2.1000600e-01
 -7.2076265e-04
 -1.9209273e-04
  4.5451325e-01
  2.8216320e-03
 -2.3183174e-02
 -2.1694716e-02
  3.0363502e-03
 -4.2888630e-02
 -1.3075526e-01
  3.4040888e-03
  2.5185754e-03
 -1.4696556e-01
 -7.7747204e-04
 -6.1027277e-03
 -4.7762388e-01
  1.5383629e-03
  1.6460213e-03
  2.1487789e-02
 -3.5355577e+00
  5.0270581e-01
  8.1023760e-03
  1.6669719e-03
 -1.9630073e-03
  3.6194494e-01
 -1.1532638e+00
 -1.0295699e-01
 -8.2930364e-03
 -6.4185810e-01
  7.5138372e-01
 -2.5998743e+00
  7.6113443e-05
 -1.3313725e-03
  3.3892380e-04
  1.8997216e-03
  1.3685809e-03
 -2.9519370e-01
  6.8032646e-01
 -2.4762468e-01
  5.9966851e-02
  1.0888815e-01
 -6.7511844e-03
 -4.1929173e-01
 -1.1054327e-02
  7.8804762e-04
  5.3246138e-03
 -5.3356349e-01
  2.1105139e-02
  2.7324533e-04
  5.1878476e-01
  3.9148465e-01
 -8.5842619e-03
  6.5660909e-02
  3.9770177e-01
 -2.5446367e-02
 -8.7542571e-02
  3.2184118e-01
 -4.4624288e-02
 -2.6045310e-01
 -2.1314518e-01
 -3.5823245e-02
  6.3122615e-02
  4.3011323e-01
 -1.9962235e-01
  1.7319074e-02
 -4.1649306e-01
 -7.8060940e-02
 -1.3574937e-01
 -2.9652908e-01
  1.2952640e+00
 -9.6834898e-01
  1.0513649e-02
  1.1322063e-03
  5.6509492e-03
  1.2842138e-01
  1.0481381e+00
  6.8878126e-01
  7.6382369e-02
 -6.4951789e-01
  1.5337788e+00
 -3.6010113e-01
  5.9801336e-02
 -3.6921568e-02
  3.6532909e-01
  7.3579592e-03
 -8.3599733e-03
 -4.7956355e-04
 -3.0732070e-04
 -4.7854790e-03
 -2.0061093e-03
  1.4402824e-02
 -5.8507413e-04
 -1.2092188e-03
  1.3793828e-01
  2.2204255e-04
 -4.1785203e-03
  1.3708426e-03
  4.5422274e-03
  4.8080415e-02
 -5.8902386e-03
  1.6725203e-04
  1.6867375e-03
 -5.9440441e-04
  1.7900630e-03
  1.1040046e-03
 -1.8693312e-03
 -6.0695573e-03
  1.8473189e-04
  2.4031267e-02
  8.3120624e-03
  2.2779664e-03
 -1.9261634e-03
  5.1518783e-02
  1.6898534e-04
  3.1877721e-03
  2.1253859e-03
  3.0783219e-03
 -2.0478857e-03
  1.7679280e-03
  7.4700220e-06
 -1.5028580e-03
 -1.8543893e-02
  2.3634564e-03
 -2.1511493e-03
 -6.5492082e-04
 -2.7758314e-04
  5.4555142e-04
  1.6009455e-04
  1.7302530e-03
  1.7095262e-03
  1.5958991e-03
 -9.5999549e-04
 -4.0804610e-01
  6.4661312e-03
  1.4988362e-03
  7.4630638e-04
  3.5811577e-04
  6.1993243e-04
  3.2525806e-04
 -4.8148993e-04
 -7.9312377e-02
  7.4195332e-04
  1.3565477e-03
  1.9198036e-04
  7.8178593e-04
  4.4325362e-03
  4.7177807e-03
  1.5961051e-03
 -3.3952163e-03
  7.9895286e-03
 -1.5340575e-03
  1.4629554e-03
  1.4208643e-03
  1.2158713e-03
  1.6031723e-03
  6.6372892e-04
 -1.9524989e-03
  6.9494611e-03
  1.0453194e-01
  5.2937376e-04
 -2.1318214e-03
  2.7876119e-03
  1.3219515e-03
 -1.1125787e-03
  4.5411792e-03
  6.9143646e-04
  8.8913192e-04
  3.4576803e-04
  8.5676386e-04
 -1.5916850e-03
  3.0246549e-03
 -5.9695385e-04
 -3.9182431e-03
  1.5220255e-01
 -4.6318528e-01
 -8.9620781e-01
  1.0691757e-01
 -5.7837856e-03
  5.5143988e-01
 -4.7164202e-01
  1.1181353e+00
  6.2317497e-01
  6.2975483e-03
 -1.9848470e-03
  1.4955120e-03
 -4.2793197e-03
 -2.5243978e-03
 -1.1060525e-01
 -6.3262010e-01
  2.8966088e-03
 -4.2376462e-03
 -4.6923280e-02
 -3.4774772e-03
 -3.2231782e-02
 -4.4390835e-02
  1.0286894e-01
  5.8081798e-04
 -6.2651036e-04
  2.7933202e-03
 -1.0442786e-02
 -2.3345542e-01
 -6.9038774e-04
 -1.1183935e+00
  1.1684577e-01
  1.9407650e-02
 -7.6130498e-05
  7.3204987e-02
  2.2894372e-03
  5.7819493e-02
 -3.2921067e-01
  1.8127486e-01
 -9.5620286e-05
  1.5464792e-04
  4.7091693e-03
 -2.6977658e-03
 -2.1363930e-03
 -2.1554476e-02
  2.7262583e-01
 -1.0255260e+00
 -1.5907910e-01
 -9.1806120e-01
  1.8953403e-02
 -3.2285428e-01
 -2.2259577e-01
  1.4547076e+00
 -5.6588060e-01
 -3.8466552e-01
 -4.4783399e-02
 -4.8074034e-01
 -4.1093622e-04
  1.2279804e+00
  4.3080828e-01
  2.2800994e-01
 -5.8064920e-01
  3.5975747e-02
 -3.3338064e-01
  1.0382756e+00
  1.0541589e+00
  4.1168949e-01
 -1.2789126e-01
  1.9317507e-03
 -6.8960432e-03
 -3.0075129e-02
 -1.7553054e-01
  2.6228699e-01
  5.4152369e-01
  2.2623128e-01
  4.3998205e-04
 -1.5501810e-03
 -1.6283984e-03
 -5.0267899e-01
  5.1177576e-02
  6.0705315e-02
  2.4842080e-01
  1.1262795e-03
 -7.5318632e-03
 -3.7150588e-02
  3.1285189e-02
  3.9114654e-01
 -6.4832298e-03
  1.1943643e-03
 -1.3700789e-01
  5.3202391e-01
  2.5090724e-01
 -4.3181708e-01
  2.3395789e-01
  8.3283377e-01
 -1.2218130e+00
 -2.0412610e+00
  1.0976007e+00
  2.5252193e-01
 -4.7610290e-02
  1.6941342e-01
 -1.0542519e+00
  4.1752970e-01
 -1.1149924e+00
  8.3383888e-01
 -6.0545012e-02
  3.1012082e-01
 -9.1524802e-02
  8.1236549e-03
 -9.5792097e-01
 -1.2285214e-01
  1.1434879e-01
 -4.8253167e-02
 -1.6994719e-01
  3.6903688e-01
 -6.0123798e-02
 -9.6292824e-02
 -6.8138653e-01
  1.6774300e-01
 -2.7151898e-01
  5.6280880e-03
  2.5225144e-02
 -6.7887991e-03
 -6.8485498e-02
 -6.4419724e-02
  1.7762621e-01
 -6.7912648e-04
 -1.8761650e-03
  2.7954875e-04
 -4.3086954e-03
 -1.6641420e-01
 -9.0276562e-03
  1.0403426e-03
 -1.5159722e-01
 -1.0079705e-02
  4.8451483e-01
 -4.2000198e-01
 -1.9547662e-01
 -2.9982823e-01
  9.4604574e-02
 -4.6515923e-02
 -2.8686139e-01
 -1.4194185e-01
  1.0673153e-01
 -1.3939421e-01
 -6.5795332e-02
 -6.2434694e-05
  3.4788787e-01
  3.8473834e-03
 -4.2169526e-01
  1.0411610e-01
 -1.0736269e-01
 -2.4799490e-01
  6.1018679e-02
  2.5358345e-02
  1.2454108e-02
 -6.5227896e-01
 -2.3253644e-01
 -3.0456161e-02
  1.5076619e-01
 -7.1835272e-02
  1.3508855e-02
  2.4014264e-01
 -7.9334569e-01
 -2.2643058e-01
  2.0483512e-02
 -1.0452924e-02
  6.2881422e-04
 -9.4411062e-04
  4.8078801e-02
 -2.6282566e-03
  1.0739988e-02
  8.0768041e-02
 -2.4747313e-03
 -8.6530723e-02
  6.9534974e-03
  1.4721845e-01
  3.3443568e-03
  7.2632567e-04
 -6.3411711e-04
  2.6373651e-03
  5.7161064e-04
 -2.2356173e-02
  4.4649527e-03
  3.5654306e-01
  1.1871973e-01
  3.3215315e-03
  6.5837812e-04
 -1.7838636e-02
  3.5734032e-04
  1.6624099e-03
  1.7833896e-03
 -1.0458855e-03
 -2.6928749e-02
  2.5328952e-03
  5.7936407e-04
 -3.4167070e-04
  7.6660019e-04
 -1.1647120e-05
  9.3979487e-04
 -8.1716469e-03
 -6.6838175e-02
 -2.7221942e-03
  2.8404163e-04
 -7.7632763e-03
  2.6388533e-04
  2.1850367e-03
 -1.0788844e-02
 -3.7922582e-04
 -2.6816742e-03
  3.2803731e-04
  4.5449528e-05
  7.2103285e-05
  1.3435568e-03
  1.5561825e-03
 -1.5993355e-03
  2.3555530e-02
  7.1314769e-03
 -1.7452647e-03
  1.6957783e-05
  3.6106855e-03
  7.9586590e-04
 -3.9386347e-01
  9.2089586e-02
  1.8199207e-04
 -5.1818800e-04
  1.6211758e-03
  4.1098767e-03
 -5.5855634e-03
 -2.4034521e-03
  8.1333064e-04
  6.7383342e-04
 -9.1519085e-04
 -8.2463975e-04
  7.9980614e-03
 -1.6376476e-03
 -3.5609377e-03
  1.8628655e-03
 -9.9720282e-04
  2.3392458e-06
 -2.6292824e-03
 -2.2753987e-03
  1.5187751e-04
 -8.1561605e-04
  2.7640946e-03
 -1.4894009e-04
  5.9055106e-05
 -4.2545184e-04
  5.4217770e-04
  8.1253843e-03
 -6.6425465e-04
  7.7903578e-03
  2.4035550e-03
  5.9802048e-03
 -2.1596455e-03
 -2.6940233e-03
  7.4557099e-04
  8.1322668e-04
 -1.3752662e-03
  3.6575098e-03
 -2.8336537e-03
 -3.2469751e-03
  3.6803988e-04
  1.3142814e-03
  3.7658465e-05
 -7.1158551e-04
 -5.7381201e-03
  5.9149857e-03
 -1.3754558e-03
  3.4570531e-03
  3.7234735e-03
  2.1183847e-03
  6.7727588e-04
  3.6655081e-05
 -5.8972910e-03
  3.1622499e-03
  8.1299338e-05
  2.1106256e-03
 -4.5128743e-04
  9.7050186e-04
  6.4345775e-04
  5.1046512e-04
  2.5084105e-03
 -3.6381700e-03
 -6.2260515e-04
  2.4648681e-03
 -1.6195688e-03
  1.3728907e-03
  1.8371096e-03
 -2.4081233e-03
 -3.7169585e-04
 -2.8349862e-03
 -2.1827947e-03
  1.5191361e-04
  7.0236472e-04
  2.1598204e-03
  5.9090031e-04
  9.9313422e-04
  1.2103128e-03
  1.2241231e-03
  2.7045780e-03
  1.3882294e-04
 -3.9486177e-03
 -1.2663396e-03
 -1.3384593e-03
 -1.1247001e-03
 -1.6299624e-03
 -7.0841931e-04
 -3.6887596e-03
  2.1405432e-03
  1.2768244e-03
  1.3866368e-02
  3.6186138e-03
 -4.7779479e-03
 -2.5064620e-01
  3.0458809e-04
  2.6949530e-04
  1.3325000e-01
  5.9888052e-04
  2.2964443e-03
 -9.1120636e-04
  3.1174815e-04
 -1.4089901e-03
 -1.2199231e-03
  8.4693981e-03
 -1.9480618e-02
 -1.6706248e-03
 -9.0515288e-04
 -5.3513288e-03
 -3.4255304e-03
  3.7405130e-03
 -1.6851611e-04
 -4.7441330e-03
  8.2909962e-04
 -7.9085748e-04
  3.2760026e-03
 -1.9382974e-03
 -5.1536923e-04
 -3.4857241e-03
 -1.1346199e-02
  4.2126859e-03
 -1.4483805e-03
  9.0209459e-04
  2.4876073e-03
  1.9799755e-03
 -6.0880673e-04
  6.6518120e-04
  7.8918682e-03
 -1.4717823e-03
  8.1275060e-04
 -7.3510287e-03
  6.5305177e-03
  4.7637257e-03
 -4.1434206e-03
  2.5664989e-03
  1.1413511e-02
 -1.2352283e-03
 -1.8609910e-04
 -1.6115712e-02
  1.6834238e-05
  6.3991854e-03
  8.6585636e-04
  1.2767788e-03
 -6.7823776e-04
  9.2474546e-04
 -3.1748826e-03
 -3.8861291e-04
 -7.3637662e-04
 -4.8884124e-02
  2.4284078e-03
 -6.2309597e-03
 -1.7951163e-03
  1.6853760e-03
 -7.2074879e-04
  1.4896067e-03
  1.0076677e-04
  1.5766289e-03
  5.3382711e-03
  2.6042439e-04
  7.8107840e-03
 -1.3885336e-04
 -2.6546600e-03
  2.4074502e-04
 -4.9568904e-03
  2.7138339e-03
  6.0344127e-04
 -1.2837321e-04
 -2.9882025e-03
  2.4774619e-03
  3.1347686e-04
 -1.0184827e-04
  5.8926539e-03
  1.5353926e-03
 -1.3554534e-04
  2.9420367e-04
 -1.9859094e-03
 -1.7388465e-03
  1.3886248e-03
  8.0015801e-05
  2.0659507e-04
  1.2478066e-04
 -1.5977910e-03
  3.2375623e-03
 -9.3999371e-04
 -3.8378162e-04
  8.6887687e-02
 -5.2498491e-04
 -6.8415007e-05
 -2.0054074e-03
 -1.4288297e-03
  2.8050821e-03
  3.8720762e-05
 -1.2087940e-03
  2.3251334e-03
  5.7815661e-05
 -4.3368654e-04
  4.7974805e-03
  7.7219697e-04
 -1.3959958e-03
 -2.9407649e-03
 -1.8843643e-03
  9.5806463e-04
 -8.6670723e-03
  6.3082727e-04
 -2.7298185e-03
  3.2439199e-04
  2.6881560e-03
 -2.0316564e-03
  4.6356604e-03
 -2.7760523e-03
  1.9065556e-01
 -5.0840876e-04
 -6.4303691e-05
  2.7728581e-04
  4.8191129e-04
  2.3291836e-04
 -2.6433473e-04
  3.9010078e-03
 -1.4269764e-03
 -1.5352868e-03
  1.3199011e-03
  2.1995392e-03
  1.3092981e-01
 -5.5939589e-02
 -2.3345486e-04
  7.2345850e-03
  4.1379704e-04
 -3.5842424e-03
  4.4681882e-03
 -1.0257155e-01
  2.7516746e-04
 -1.8977353e-03
 -2.7311274e-03
 -2.2116629e-03
  6.9875135e-03
 -1.8029904e-03
  1.4769280e-03
 -4.5753322e-03
 -5.3400095e-03
  2.2531401e-03
  4.9600645e-04
  2.6443129e-04
  1.0787857e-03
  2.7098670e-03
  7.0362742e-04
  2.6524211e-03
  7.1141031e-04
  2.6968233e-03
  1.3980467e-03
 -1.9338865e-04
  1.2498309e-03
  7.7250821e-05
  7.7505986e-04
  2.6648624e-03
  7.0128049e-04
 -2.7155478e-03
  6.1088026e-04
  3.3240969e-04
  3.9022102e-03
 -1.1402639e-03
 -1.6093182e-03
 -1.6194151e-04
  1.5080001e-03
  1.2176692e-03
 -4.2307954e-03
  5.2822207e-04
 -2.7415004e-01
  4.4241790e-02
  9.8592646e-02
 -4.8544038e-02
 -1.1360116e-01
  1.7362840e-03
 -8.5617285e-03
 -3.4141454e-01
 -4.5002393e-02
  2.7598767e-04
 -3.4099367e-02
 -1.2960291e-01
 -9.3893647e-02
  6.8418346e-02
 -8.1995219e-02
 -4.1908377e-01
  3.9527319e-02
 -4.4084694e-03
 -9.4428159e-02
  1.8390580e-01
  9.5022507e-02
 -5.4237642e-03
 -6.5003186e-01
 -2.5105309e-01
 -1.3498260e-01
  6.1799448e-02
 -1.0411152e-01
  3.2664027e-02
  3.1802815e-01
 -7.7298445e-01
 -1.5705059e-01
  2.4228543e-01
 -1.8811835e-02
  5.3175274e-02
 -2.3568349e-02
  2.0963708e-01
  2.9778255e-03
 -2.3213978e+00
  1.9305119e-02
 -4.3711476e-03
 -1.9777632e-01
  7.0851971e-03
  1.1416201e-01
 -1.2447952e-01
  1.3367420e+00
 -9.7586417e-01
 -4.1823024e-01
 -7.1581695e-03
 -7.4344033e-01
  3.6569029e-01
 -6.4910102e-01
  2.0373402e+00
  1.0355456e+00
  9.7441152e-02
 -4.5861512e-02
  1.5429774e-01
 -1.1772904e-01
 -2.1036172e-03
  7.1764386e-01
  5.5008066e-01
 -1.8054100e-02
  1.5221982e-01
  3.8443597e-03
 -5.9275526e-01
 -8.4748573e-04
 -4.4186014e-01
  6.2845004e-01
  3.2716151e-02
  8.6423695e-02
 -5.0011283e-01
  3.2377627e-01
 -1.3613462e-01
  1.6809541e-01
  4.5881817e-01
  4.8008007e-01
  4.1716977e-04
  4.8051786e-02
 -5.7783347e-01
 -3.4769375e-03
  9.7526588e-02
  3.6351075e-03
 -2.4639056e-03
 -5.0633205e-03
  1.5028189e-03
  5.9688191e-05
 -5.3740153e-03
 -7.7497866e-03
 -4.8300595e-04
 -7.4048177e-04
 -3.7903275e-02
 -4.4683018e-03
  4.2420095e-03
  2.8272374e-03
  8.3724903e-03
  3.7395558e-04
 -1.7015387e-01
  3.0951127e-03
  1.4528283e-05
 -1.4369056e-05
  3.4392392e-03
 -1.8446473e-03
 -2.6207333e-03
  1.5960775e-02
  1.4722293e-03
 -3.5255100e-03
  2.1044037e-03
  3.1094144e-03
  5.3209928e-03
 -2.0629400e-03
  9.5152603e-03
  3.1791576e-03
  3.5632029e-03
  6.1440514e-04
  1.2078171e-03
  2.3644932e-03
 -7.3938956e-04
  1.3018078e-03
  1.0212371e-03
  3.4985202e-04
 -4.6570567e-05
  2.2429975e-03
  2.5228132e-03
  1.2931525e-04
  6.4342348e-05
  2.4338521e-03
  8.9627819e-04
 -1.2230023e-04
 -1.9197674e-03
  3.5858173e-03
  1.8302288e-03
 -1.3262172e-04
  6.1492791e-04
  2.7687482e-03
 -1.3941883e-01
 -5.6610525e-02
  1.4576970e-03
  2.3031732e-01
 -6.8202126e-01
 -4.9687600e-01
  3.0878887e-02
 -6.7049861e-03
 -3.4080513e-03
 -6.3408446e-03
  5.7050018e-03
  4.1924161e-03
 -1.8001194e-04
  1.4054084e-01
  4.1696532e-03
  9.5356116e-04
  1.4196613e-03
  6.5162415e-03
  4.1364795e-03
 -2.6082678e-03
  1.9269907e-03
  3.3346312e-03
  1.7886343e-03
 -1.3878617e-03
 -4.6880525e-03
 -2.7042544e-03
 -1.5846312e-03
 -9.7515851e-02
  1.9385541e-02
  1.2655648e-02
 -1.9871513e-06
  8.4059604e-05
  2.5246735e-04
 -1.8671190e-04
 -6.2790457e-03
  2.8064563e-03
 -3.9349152e-03
 -2.1156832e-03
 -5.1566404e-03
  1.3723061e-03
 -1.0570223e-03
  3.3876689e-03
 -1.1661933e-03
  3.8583747e-01
  2.3691237e-04
  4.7412165e-04
 -1.7476638e-03
  9.9054014e-04
 -5.6323785e-02
 -5.6513154e-04
  1.4487098e-03
 -5.6079827e-04
  1.0856984e-03
  2.3627980e-03
  5.3057121e-04
  1.2230097e-03
  2.0579197e-03
  1.2780364e-03
  1.6285698e-03
  1.8520760e-03
 -2.8644362e-03
  9.4758987e-05
 -1.7719999e-03
  2.9009423e-04
 -1.0965250e-02
 -1.8184636e-03
 -7.7113637e-04
 -3.8156484e-04
 -3.3877019e-03
 -8.2622692e-03
  2.0825295e-03
 -1.0263511e-03
 -1.6437358e-03
 -1.0348695e-03
  1.5662120e-03
 -3.8311526e-03
  1.9097663e-04
  1.8221140e-03
  7.2408706e-04
  1.2873011e-04
 -1.0548317e-03
  3.6027547e-04
 -2.6254919e-03
  9.9336589e-04
  3.0078839e-03
  8.4226660e-04
 -1.7337760e-01
  2.5038255e-02
 -2.0492399e+00
 -6.3080943e-01
 -2.0367302e-02
 -3.4204552e-01
  4.7942612e-02
  2.1924963e-02
  5.3379941e-01
  1.9624116e-01
  4.2051476e-01
 -2.7281988e-01
  6.0834479e-01
 -2.1282430e-01
  1.5886787e-01
  2.1339277e-02
  1.7100917e-01
 -2.0626973e-02
  1.0777055e-01
 -2.9693691e-03
 -4.6067499e-04
  1.6898803e-03
 -2.2971708e-01
  2.9932526e-01
  2.5873408e-01
  2.1223770e-03
  6.3026586e-04
  1.8332973e-02
  2.8629703e-03
  1.3098122e-01
  1.4949881e-01
  1.9491133e-01
  1.0796589e-03
  2.4416929e-02
  1.7524546e-02
  1.8035229e-04
  2.3388320e-01
  3.3472301e-03
  3.3991557e-04
 -2.4600967e-04
  1.0829372e-04
  4.5893858e-03
  1.7095983e-03
 -6.8021305e-03
 -4.1797385e-04
  3.2704365e-03
 -8.4383748e-03
 -5.6766546e-01
  4.6920753e-04
  4.4032340e-03
 -7.6607610e-03
 -7.9965801e-04
  3.1466606e-01
 -3.7450290e-03
 -2.0223642e-03
 -2.6471673e-03
 -1.4380569e-04
  9.9142166e-03
  4.8062308e-03
 -2.8701007e-04
  5.2705756e-04
 -7.2529103e-04
 -4.0445770e-03
  2.0142300e-03
  1.0349015e-03
 -3.5245835e-03
  2.1393544e-03
  1.0313240e-03
  2.7695587e-03
  1.1647538e-02
  1.5525711e-03
  6.9845974e-04
 -7.8749354e-04
 -1.8555956e-02
  4.8240433e-03
  2.5760485e-03
 -7.8042684e-04
 -1.3573456e-03
 -2.6605913e-04
 -1.4746611e-03
  1.3118299e-03
 -3.2429337e-03
  2.4249451e-03
  1.3030311e-03
  5.3882622e-04
  4.4870526e-03
 -6.5046834e-04
 -9.2407754e-03
  4.1112065e-04
  5.2760728e-03
 -3.3240148e-04
  7.6928618e-04
 -7.8568608e-04
 -1.2023011e-03
  3.4021297e-03
 -9.6762535e-04
  6.7139216e-02
 -2.4447136e-03
  4.9418752e-04
  5.5060757e-04
 -7.8065449e-04
  1.3715450e-03
 -8.9296751e-04
 -5.2784791e-04
 -2.6958436e-03
  7.1027135e-03
 -1.7153378e-01
 -4.2448056e-04
  1.9629102e-03
  3.5007234e-04
  2.6434024e-03
  1.6196013e-03
 -2.7602154e-04
  5.3377487e-05
  1.2049868e-03
 -4.9432868e-04
 -3.1907042e-03
 -5.6971807e-04
 -1.7838818e-03
 -2.7877991e-03
 -1.7939892e-03
  1.3261763e-03
  1.1442829e-04
  5.0774735e-04
  1.4705065e-03
 -5.3078157e-04
 -1.5464100e-03
  1.7333728e-03
 -2.5969879e-03
  1.7035229e-03
 -8.1397587e-04
 -2.4975282e-03
 -5.2965844e-01
 -8.5405028e-01
 -7.8619197e-02
  7.1990854e-01
 -2.3138674e-03
  2.9649583e-01
  4.9563833e-02
 -6.0447437e-01
 -1.7271907e+00
 -1.7623322e-02
 -4.8206199e-04
  3.3099788e-01
  2.1839489e-01
  7.6484077e-02
 -4.0785344e-03
 -3.2901451e-02
  7.5856954e-02
 -8.0083363e-04
  7.9236992e-02
 -3.0237758e-03
  5.8105059e-02
 -1.5799645e-02
 -4.7311833e-04
  1.9057918e-02
  2.1259199e-01
  8.7393438e-03
  4.5366969e-04
 -4.8443225e-01
  2.1691971e-01
 -7.9278596e-02
  5.8080621e-02
  2.0101843e-03
 -1.5809620e-04
 -1.4715624e-03
  5.7688761e-01
 -3.0099479e-03
  1.3901814e-03
  2.1157223e-03
  1.3708603e-05
  1.4760001e-03
  1.3843578e-03
  3.7666809e-02
 -8.7706267e-04
 -1.0633225e-03
  2.0095226e-03
 -2.5058654e-03
  3.5557218e-03
 -4.9477639e-03
 -2.7164989e-03
 -6.6779961e-05
 -5.4161967e-04
 -1.0791392e-04
  2.1392035e-03
  6.8152393e-04
 -4.3200199e-03
 -1.6365520e-04
 -5.7199865e-04
  3.9409060e-04
  3.2110792e-04
  1.7586878e-02
 -3.3171989e-03
 -1.0217441e-03
  9.1960101e-04
  2.3637852e-04
 -1.1279916e-03
  7.5088413e-03
  1.4139069e-03
 -1.6307796e-03
 -4.4908229e-04
  3.7508656e-03
 -3.3228861e-03
 -2.1645559e-03
  2.1444379e-04
  1.8790129e-03
  6.2751025e-04
  1.0462629e-04
  3.1598657e-04
 -7.5638376e-04
 -2.3943116e-04
 -1.3518769e-03
  3.2761047e-04
 -7.1117817e-04
 -6.2674666e-03
  4.4080580e-04
  7.6890411e-04
 -3.4787829e-04
  6.7182089e-04
  1.8388276e-03
  1.2181525e-03
  5.6787481e-05
  1.1676188e-03
  2.2367619e-03
  4.2942123e-04
 -4.8575043e-03
  3.6420743e-03
  5.0093243e-03
 -7.1576482e-04
 -7.0509827e-04
 -1.0186378e-03
  2.1801761e-03
 -4.7974642e-03
  6.7470791e-03
 -2.0543113e-05
 -1.4291512e-04
 -9.0525660e-04
 -8.9991232e-04
 -1.6060430e-03
  1.8679342e-03
  3.1194247e-03
  7.4309799e-05
 -5.5886910e-04
  2.2809301e-04
 -8.9708772e-03
 -3.6207719e-03
  1.7660529e-03
 -1.0226021e-02
  1.3233729e-02
 -6.9970889e-03
 -2.2104289e-02
 -5.5553797e-03
 -2.8511451e-05
  6.6288882e-03
 -8.5619173e-04
 -1.0486585e-03
  8.8670943e-04
 -4.4907816e-03
  5.0943403e-04
  6.9041969e-05
 -2.0410013e-03
  5.5393972e-04
 -3.6857527e-04
  4.3161464e-04
  1.8780486e-03
  8.3609680e-03
 -1.0399765e-01
  5.7503051e-01
 -1.5913027e-03
 -3.4801638e-01
  3.0219561e-01
  3.4057245e-01
 -2.4577074e-01
 -6.9970982e-03
 -2.2549168e-03
 -1.7565524e-02
 -2.0080077e-02
 -1.3118329e-02
  3.5474587e-03
 -4.7308533e-03
 -1.4744833e-02
  1.6141206e-03
 -2.3041931e-03
  3.4605816e-04
 -1.5552714e-03
  2.9664731e-02
  3.0138458e-03
 -1.1779418e-02
  4.1421195e-03
  8.4623962e-04
  5.4632816e-03
 -1.6312404e-03
 -2.3933472e-03
  9.4282292e-02
 -3.5832718e-02
 -8.6826039e-03
  1.3018535e-03
  5.8045902e-04
  2.5182911e-03
 -1.0762314e-02
  9.7951107e-03
  1.4626128e-03
  2.8681301e-04
  7.1364030e-04
 -2.9340573e-03
 -9.3691703e-03
 -2.7180682e-03
  1.2749126e-03
 -8.5059227e-04
 -5.1148020e-04
  3.0170638e-02
 -6.5458566e-03
  1.0124773e-03
  1.0991368e-01
  1.1700898e-02
  5.0220848e-03
 -4.1530661e-02
 -1.7496232e-02
  1.9419378e+00
  1.4882216e-03
  1.0417766e-04
 -3.2982640e-03
  2.2452632e-03
 -1.0236214e-03
 -2.8745653e-03
 -1.0389113e-03
 -1.3682746e-03
  1.1816545e-03
 -1.3530162e-03
  2.2173407e-03
 -2.4232133e-03
 -1.6905906e-02
 -2.4033396e-03
 -2.1315101e-03
  3.0864875e-03
 -1.4475298e-03
 -8.5162901e-04
  1.7401536e-03
 -1.4872889e-03
 -9.4973180e-04
  4.8732269e-03
  3.2811463e-03
 -2.2382062e-04
  4.2730500e-03
  1.2057310e-03
 -5.2941090e-04
 -1.4425018e-03
 -3.5532654e-04
  3.3635212e-04
  5.3982303e-04
  4.4997572e-03
  1.0196986e-03
  1.9649982e-03
  1.3762402e-02
 -1.1067227e-03
  5.3906080e-04
 -3.5189273e-04
  3.3840628e-03
  1.0781004e-03
 -2.6956948e-03
 -8.7423902e-04
  1.1757099e-03
  2.2987559e-04
  4.6723595e-04
 -3.0427764e-03
  9.2294184e-05
 -1.6230608e-03
  5.2227406e-04
  1.4044023e-03
  1.4318638e-03
  4.1129808e-03
  9.0892031e-04
 -2.3606548e-04
 -6.3121621e-03
  2.2884008e-01
  5.4231082e-04
  1.1965602e-03
  8.9937646e-05
  5.9615151e-05
 -9.5147523e-04
  2.8067036e-03
  7.1316556e-04
 -5.5508842e-03
  2.1992838e-03
 -4.2219865e-03
  3.6796869e-04
 -5.6940166e-04
  1.3852521e-03
 -5.1857892e-04
  2.2547001e-03
 -8.6112181e-04
 -6.0341982e-03
 -2.2649156e-02
 -7.4880794e-03
  1.5477423e-03
  2.0380174e-03
 -1.3599335e-01
  2.3037145e-01
 -3.5702193e-01
  5.4530269e-01
 -1.0804787e-01
  7.9763718e-03
  7.1474481e-01
  5.3835898e-03
  3.6079592e-01
 -2.1959688e-01
 -6.0047205e-03
 -4.1399857e-01
 -1.1082830e-01
 -2.0097551e-01
  3.7808433e-02
  5.5210192e-02
 -4.2571688e-01
  1.1446330e-03
 -4.8148939e-01
 -9.5900996e-03
  8.2218185e-02
  1.8238124e-02
 -3.5481322e-01
 -5.1967579e-01
 -1.4117332e-01
 -3.4265816e-03
  1.1294601e-01
 -3.2037917e-01
  1.1385814e-01
  6.2609941e-01
 -8.5529256e-01
 -3.1464782e-01
  5.8540840e-02
 -8.5260652e-02
  2.3531649e-01
 -4.4681780e-02
 -1.3635553e-01
 -3.2729208e-03
  3.3978961e-02
 -3.1388238e-01
 -2.8205751e-03
 -2.2695972e-01
  2.0482114e-02
  1.0115322e-01
 -1.0879254e-04
 -9.7205548e-04
 -1.4363484e-03
  7.0553069e-04
  3.0729496e-03
  4.7858572e-03
 -1.7656339e-03
  2.5044422e-04
 -3.0281136e-04
  2.5504972e-03
 -2.3499495e-04
  1.9193994e-04
  6.8220771e-03
 -6.3474901e-04
 -3.3981882e-03
 -8.5120311e-04
  9.8634907e-04
 -6.2457914e-04
 -6.1795005e-04
  4.1877343e-03
 -4.7773509e-03
 -3.6764194e-04
  4.9366523e-03
 -4.6726357e-04
 -2.7982930e-03
  2.6007607e-03
 -3.5684565e-04
  3.0826731e-03
 -1.6099114e-03
 -5.2680648e-03
  3.3819125e-04
 -7.0901582e-04
  6.4919941e-04
  3.8484216e-04
  2.0034721e-03
  1.1463661e-03
  5.8380974e-05
 -2.1784566e-04
  3.0549034e-03
 -6.5289089e-04
 -4.4511422e-03
  2.4315177e-03
  5.9451666e-02
 -4.9356823e-03
 -3.1409492e-03
 -3.1604853e-03
  5.6717880e-03
  1.0902146e-03
  1.6545367e-03
 -9.5834449e-04
  2.0826610e-03
  2.7166127e-05
  6.0566688e-01
  1.3236655e-04
  3.9702869e-04
  6.9515896e-03
  4.0648850e-03
  5.5387681e-03
  7.4900442e-04
 -3.4886747e-04
  9.1718341e-04
  3.4592713e-03
  2.1858357e-03
 -3.2073786e-03
  8.4272027e-03
  1.5312671e-03
  1.1037012e-03
 -2.4256888e-03
  7.0277450e-04
 -3.0733412e-03
  4.7735111e-03
 -2.9880190e-03
  6.7853974e-03
 -4.0383602e-05
  5.1652116e-04
  4.0263182e-04
  5.2851080e-03
 -6.8101068e-03
 -1.8697355e-03
  1.4802103e-03
 -2.2257767e-03
 -1.1031380e-03
 -1.9882328e-04
 -2.0122521e-03
  5.2041229e-04
  5.2233669e-03
 -9.5978478e-04
 -6.1797532e-03
 -2.8433108e-03
  6.5097809e-01
  1.7946489e-01
 -1.0847111e-02
  1.1751857e-03
  3.1521294e-01
 -1.7473223e-03
 -2.1208136e-01
  6.2079798e-02
  3.9955429e-03
  9.6878000e-03
 -4.6081439e-02
 -1.6733835e-03
 -1.9676711e-01
  6.2165308e-01
  4.3310642e-01
 -1.0036442e-02
 -1.8021499e-04
  6.4166533e-03
  6.8050413e-04
  7.0421040e-01
  5.6248396e-03
  2.9206508e-01
 -3.1324320e-02
 -2.3375709e-01
  5.1603495e-04
 -1.6125357e-03
 -2.8651991e-01
 -2.2087130e-03
 -2.3060232e-01
 -1.5031344e-02
 -1.7805105e-02
 -7.8185789e-02
  1.8901337e-03
 -2.1154771e-04
 -1.2601876e-03
  5.5063683e-05
  2.5998051e-03
  1.1821988e-03
  3.1805532e-03
  3.0743084e-03
 -1.8180786e-03
 -1.0546705e-03
  4.1388921e-03
 -7.9206773e-05
  3.6686584e-03
  2.9095912e-02
  1.3763765e-01
  1.9428066e-03
 -3.2061864e-02
  1.1353306e-01
  1.3685755e-01
 -1.1014905e-01
 -4.6100081e-03
 -5.9802473e-02
 -1.0340469e-01
 -3.7695877e-02
 -8.7812148e-02
  6.4287312e-02
  3.2811839e-02
 -1.3893272e-01
  1.0345732e-02
 -4.9721953e-03
 -6.2873207e-02
  7.6377720e-02
  1.6434349e-02
 -1.7566513e-02
 -3.8742316e-01
 -1.6418351e-01
 -1.3477039e-02
  5.4791003e-02
 -2.4472585e-02
  2.0066835e-03
  1.1710859e-02
 -5.9963274e-01
 -6.6164687e-02
  2.0497383e-03
 -1.1908773e-02
 -7.7342289e-04
 -1.8880550e-02
  8.3870869e-03
 -2.8069664e-04
  7.7927397e-03
  6.1912663e-02
  7.2020391e-04
 -7.8586623e-02
  6.5536360e-04
  2.0427857e-02
 -3.5124924e-04
 -5.5109453e-04
  3.9743393e-04
  6.3048303e-04
  5.9951432e-03
 -3.5196327e-04
  3.0115864e-03
  9.3751075e-03
 -1.8986970e-03
 -1.0300349e-04
  1.5992941e-03
 -9.4781327e-04
  1.5881909e-03
  2.0545404e-03
  2.3699249e-03
  1.5445641e-04
  1.0335075e-03
  1.6270685e-03
  1.3065273e-03
 -9.4529858e-04
  2.7261719e-03
  9.8881256e-03
  7.5722410e-04
  2.5308402e-03
  1.9934399e-03
 -5.5377878e-04
 -5.0407724e-04
 -7.8303266e-05
  2.5185333e-03
  4.3492587e-04
 -4.3099588e-03
  1.2982605e-03
 -1.0697498e-03
  3.0890515e-04
  7.3690720e-02
  4.0886772e-04
  4.0349211e-03
 -2.0835971e-04
 -4.2684269e-03
 -2.3962605e-04
 -7.7353878e-05
  8.2039007e-04
 -7.6805468e-04
 -3.5448088e-03
 -1.2323784e+00
  5.1150578e-01
 -1.6949548e-01
  8.2667631e-01
  7.5920230e-01
  5.8507681e-01
  1.8172866e-01
 -2.9063070e-01
 -7.7699554e-01
  1.9961780e-02
  5.8194403e-02
 -2.0481001e-01
  5.3707814e-01
  1.0298289e+00
  9.6788228e-02
  6.1336434e-01
 -8.8673225e-03
 -2.5620221e-03
  4.7977990e-04
 -2.5754936e-02
 -1.0617465e-01
  2.6761237e-01
 -1.2314434e-01
  1.4806913e-03
 -1.2741797e-01
 -6.4267362e-03
  1.5585096e-01
  3.5282165e-01
 -9.9681042e-02
 -1.1728533e-03
 -1.7628504e-02
 -5.3926101e-03
 -2.4371857e-03
  8.3759591e-02
  2.4400817e-01
  1.3698448e-01
  3.5711084e-03
 -3.4310564e-03
  1.1259376e-03
  4.4049933e-03
 -1.4076137e-04
 -3.5368230e-02
 -1.2697540e-03
 -3.8467913e-03
  3.0082886e-03
 -2.8563380e-01
 -1.8114853e-01
 -3.3410829e-03
 -7.1999267e-02
 -1.1342833e-01
  2.8333005e-01
  2.9393822e-02
 -1.6416979e-01
 -6.7670657e-03
 -2.1826664e-02
 -4.1859153e-01
 -5.1322516e-02
 -3.2284241e-02
  2.0190872e-01
 -5.5747633e-03
 -3.1624100e-01
  3.1909000e-04
 -1.3978417e-01
 -2.6814464e-01
 -5.3262231e-03
  4.2466328e-02
 -4.3068445e-01
 -5.9091949e-01
 -3.2996607e-01
 -4.2363428e-02
  3.2255219e-04
 -5.1421169e-03
  4.9093533e-03
  3.2652193e-01
 -6.1899024e-01
 -2.3166157e-01
  3.4314592e-03
 -7.7212784e-03
 -9.7978925e-03
 -8.1282474e-02
  3.9498147e-01
  2.6128744e-04
  2.2038943e-03
  9.8482203e-03
  5.1892437e-03
 -1.0663724e-01
 -1.6644251e-03
  7.1361504e-02
 -5.9523275e-03
  2.7799457e-03
  2.7036690e-04
  1.1256083e-03
  9.3598012e-04
  2.9643863e-03
  1.1711504e-03
 -2.0162563e-04
  6.8142161e-02
  3.0528167e-03
  2.4370661e-03
  2.6643213e-03
  2.8676675e-03
 -2.6622396e-03
 -5.9601769e-04
  2.2506188e-03
  2.6831487e-03
 -6.8469055e-04
 -1.1505338e-02
 -1.3153236e-03
  7.9199864e-04
  6.4608902e-03
 -3.4136032e-03
 -1.6063568e-06
  4.7039971e-04
  2.1933594e-03
  3.9471639e-04
  1.2360761e-03
 -3.1416442e-03
  3.4787373e-03
 -5.2304112e-04
  2.1811656e-03
  7.8089689e-03
 -1.9325528e-03
  3.3237977e-04
 -1.1247902e-03
 -2.0094980e-03
  3.1756884e-03
  4.1217729e-03
  8.9263299e-04
  1.7626029e-03
 -2.9493149e-03
 -3.1794442e-03
  1.9414857e-04
  1.4926211e-03
  3.1710140e-04
 -3.4890810e-03
  3.4167283e-04
  7.2048232e-04
  1.5686990e-03
  3.2129529e-04
 -1.0338112e-03
 -5.2805985e-03
 -2.8962139e-03
  7.9645333e-04
 -1.1288782e-03
  1.6391199e-03
  2.8425241e-03
  1.1785601e-03
 -2.8134654e-03
  6.7923800e-04
 -2.4660989e-03
  7.9873780e-04
  3.7880568e-04
 -1.2509789e-03
 -6.3382126e-02
  3.3617739e-03
 -2.9412382e-03
  4.1646950e-04
 -3.7385902e-04
  1.9428602e-03
 -2.0760007e-03
  8.1028626e-04
 -4.2319531e-05
 -1.0717118e-03
  3.0462148e-03
  8.8587105e-03
 -3.3324691e-03
  7.7941047e-04
 -2.0356975e-03
  3.9728312e-04
  2.8164717e-03
 -1.6426493e-03
  1.1952729e-03
  2.6210635e-03
  2.3723873e-03
  6.2211673e-04
 -6.6450783e-03
 -1.5503535e-03
 -1.7721541e-01
  2.0960271e-01
  2.6417807e-01
  4.1101050e-02
  2.4057934e-01
 -2.7432948e-01
 -6.5679860e-04
  2.0867719e-01
 -2.5234704e-03
 -3.3171050e-02
  9.6423988e-04
 -2.4075462e-01
 -5.4592982e-02
 -1.2807463e-03
 -6.3890390e-02
 -6.3355512e-04
 -2.8460200e-03
  3.9363746e-05
 -8.5539912e-05
 -1.6743606e-03
  1.2543518e-03
  2.3843094e-03
  2.5989728e-03
 -7.9324163e-02
  7.4197230e-04
 -3.6666850e-03
  1.2536854e-03
 -2.4891683e-04
  7.0905621e-04
 -8.5036075e-03
 -4.3827789e-03
  4.2731971e-03
  1.1990048e-03
 -1.9876771e-03
  4.1798213e-03
  1.7539732e-03
 -2.1381036e-04
  1.6205187e-04
  3.2614076e-03
 -1.3323716e-03
 -1.7686079e-03
 -9.7109826e-04
  1.7130725e-03
  1.5324603e-03
  2.8310858e-03
 -1.5004365e-03
 -1.6317724e-03
 -7.0096937e-04
  4.4945236e-03
 -7.8016223e-04
  4.0117171e-04
  7.0501631e-03
  5.2752683e-04
  1.6599832e-03
  2.9199582e-05
 -5.5073742e-03
 -1.0824178e-03
 -2.4604695e-03
 -3.8768752e-03
 -2.0584895e-04
 -2.5187130e-03
 -1.1008711e-03
 -2.5656698e-03
 -8.5693848e-04
 -9.1216841e-04
  2.4252434e-04
 -3.3822812e-03
 -2.9716580e-03
  1.5073037e-03
 -2.3082998e-03
 -3.0620198e-04
  1.3163517e-03
 -4.5466117e-04
 -1.5331082e-04
 -3.2461190e-03
 -2.9547841e-03
  1.5062967e-03
 -3.1805811e-03
 -1.3611836e-03
  3.9674575e-03
  1.1246920e-03
  6.2397784e-03
 -2.1271268e-03
 -7.2361139e-04
 -1.5136210e-04
 -2.6621930e-03
  1.0973052e-04
  2.3156053e-03
  4.4276086e-03
  4.0752644e-04
  2.8868129e-03
 -4.1135063e-04
  4.1985665e-03
 -9.4270927e-04
 -5.0186529e-04
 -7.7078096e-04
  1.2244793e-04
  6.1764494e-03
 -2.1039313e-03
 -4.2380812e-03
  3.5162113e-04
  2.8066980e-03
  1.8836181e-03
  8.5935555e-04
  5.6733901e-04
 -2.4222443e-03
 -1.4258880e-03
  5.2752504e-03
 -4.7234739e-03
  2.2606901e-03
  6.7973263e-03
 -1.3858301e-02
 -7.8303495e-04
  2.4706968e-03
 -1.6005620e-03
 -4.1537188e-04
 -5.3515933e-03
  1.2031588e-03
 -2.0393214e-04
  1.1669706e-02
 -1.9840649e-03
 -3.0053374e-03
  4.4369634e-05
  1.8997269e-04
 -4.1514257e-04
  5.9520680e-04
  8.5551868e-04
  4.4841003e-03
 -3.5139087e-03
 -3.8239703e-04
 -2.9658275e-03
 -2.3069757e-03
  5.6904057e-05
  7.3615520e-04
 -2.6021395e-03
 -4.9506840e-03
 -2.5044456e-03
 -3.0259977e-03
  4.6087536e-03
 -8.0443895e-04
  2.6272698e-03
 -1.7389883e-03
 -1.9183382e-05
  2.9782071e-03
  3.7317064e-02
  1.2631910e-03
 -1.0599896e-03
  3.3849289e-03
 -1.2137467e-04
 -2.7806545e-03
  3.8952813e-03
 -1.3087430e-03
 -4.2549660e-03
  1.0100893e-03
 -1.9993221e-03
  5.3500901e-03
 -2.7563912e-03
 -2.5954200e-03
  4.2206110e-03
 -1.6589239e-03
 -2.7191746e-03
 -4.2167271e-04
  3.1333151e-03
  1.2103532e-02
  7.2666258e-04
  3.8098023e-04
  1.7673124e-04
  5.6633353e-04
  4.2454660e-04
 -6.5708710e-03
 -5.2031763e-03
  5.8767712e-03
  7.3415893e-01
  2.7016425e-04
  1.0664116e-02
  9.4344933e-04
 -8.0752507e-06
  2.5339820e-04
  5.6313456e-04
 -3.2221593e-03
 -9.3270250e-04
 -2.0573940e-03
  7.9524989e-04
  1.8520395e-03
  4.8403079e-03
 -1.0847102e-04
 -1.0418339e-03
 -1.7492115e-03
 -2.2683835e-05
 -2.0448791e-03
  1.7079941e-03
  1.3485571e-03
  2.3626126e-03
  2.3309425e-03
  2.6359293e-04
 -1.3858562e-03
  6.0257362e-04
 -8.6125801e-04
  2.9817950e-03
  6.9364887e-03
 -2.7562403e-03
 -7.8352779e-05
 -3.8971670e-03
  2.6539112e-03
 -4.0071667e-05
  4.3882504e-03
  1.3516664e-04
 -1.2626487e-03
 -1.2838211e-03
  3.6350554e-03
  4.5265169e-03
 -9.7565749e-04
  1.1919173e-03
 -1.4372352e-03
  5.6135317e-04
 -3.7627986e-03
  1.7164572e-03
 -2.0440794e-03
 -4.1929241e-03
 -1.2405231e-01
 -9.0820506e-02
  2.3098697e-01
 -1.6398178e+00
  2.4314840e-01
 -8.7012637e-01
 -3.7285849e-01
  8.8054454e-01
  5.9370333e-01
  7.6687217e-02
 -1.2266629e-03
  6.9035478e-02
  2.2795112e-01
  1.0896413e+00
 -1.7569669e-02
 -1.9683214e+00
  9.3905133e-01
 -2.9994991e-01
 -7.0566981e-04
  4.0654115e-02
 -1.0146461e-01
 -4.2494377e-01
 -2.8345105e-01
  8.2312381e-01
  6.5336478e-01
  4.2114425e-02
 -4.1390620e-02
  1.0781142e+00
  4.5619439e-04
 -2.0584309e+00
  7.9652363e-01
  1.3220476e-01
 -1.3038684e-01
  3.2036600e-01
  1.9176784e-01
  6.6107988e-01
 -7.2786862e-01
  2.8641594e-03
 -1.1855145e-03
 -2.2224532e-03
 -9.9170208e-04
  1.0842124e-01
 -6.7808508e-04
 -7.2482511e-02
  1.4907467e-03
 -3.0768940e-03
  2.6710862e-01
  6.5026795e-03
  3.5455271e-03
 -2.4707732e-01
 -7.1790681e-04
 -1.4308663e-02
  4.8721045e-02
 -6.3513787e-03
 -7.1812875e-04
  1.4197672e-03
  3.0430122e-03
  3.7197706e-03
 -4.0288656e-03
 -5.1387560e-01
  4.1183238e-03
  1.4313066e-04
 -4.3712864e-03
  1.5976680e-02
  3.2113872e-03
 -2.9018812e-03
  4.3166950e-03
  6.8352843e-04
  1.2248759e-02
 -1.1976587e-03
  1.1931225e-03
 -5.9395200e-03
 -1.0917304e-03
  2.7658275e-04
 -1.3049531e-03
  2.4504066e-02
  3.7285062e-03
  4.2033591e-04
  1.6716109e-03
 -7.7866518e-04
  3.1400559e-04
  1.4186471e-03
  7.0624624e-04
  1.1701920e-04
  3.5084900e-04
  1.1727558e-03
 -1.5521328e-03
 -4.1003223e-04
  2.9204672e-03
  3.2903266e-03
  1.0797861e-03
  1.7051751e-03
 -3.4518947e-03
  5.6553405e-04
 -2.3512873e-03
 -4.6863230e-03
 -6.8807900e-02
  2.3238063e-03
  2.2632948e-03
 -2.4818696e-04
 -8.1626285e-04
 -3.9754860e-04
  3.8308863e-05
 -7.4714131e-05
  4.6229945e-04
  1.3426988e-04
 -4.2694220e-03
 -3.8911824e-03
  9.3395519e-04
 -4.2906469e-03
  3.3052168e-03
 -1.7942311e-03
  4.8668651e-04
 -6.3093421e-03
 -1.7170900e-03
 -4.0230369e-03
  5.4500722e-03
  1.6357282e-03
 -1.7030335e-03
  4.6437019e-03
 -7.7602157e-04
  8.4333564e-04
 -1.1362641e-03
  1.1350960e-03
  1.3757375e-03
 -3.2104820e-03
  1.0137966e-02
 -7.3667266e-04
  1.0969117e-03
  2.5123399e-04
 -4.5982626e-05
  3.0401193e-03
  4.3835142e-04
 -1.9921298e-04
 -1.3723149e-04
 -7.9981919e-04
  2.8461469e-03
  8.3395988e-03
  3.6274232e-03
 -9.3539682e-04
 -4.3612467e-03
 -5.0084524e-02
  9.6888369e-05
  3.9675287e-03
 -3.8348541e-03
 -2.3635463e-03
  1.0502605e-03
 -1.0118877e-03
  3.0576251e-03
 -6.7970186e-04
  4.8894249e-04
  8.7817875e-04
 -2.6906068e-03
 -1.2276371e-03
 -1.9303059e-03
  7.4293464e-04
 -3.5583805e-03
  1.4868389e-03
 -1.8023602e-03
 -1.1790261e-03
 -2.9455195e-03
 -3.3221641e-03
 -2.1492804e-03
 -8.5989432e-04
  1.2046325e-03
 -1.0684130e-03
  1.6492261e-03
 -1.0946241e-03
  3.2654838e-03
  2.1995939e-03
 -1.0014095e-03
 -2.3291502e-03
  5.1343720e-04
  2.4068123e-03
 -6.2137411e-04
 -4.4797303e-04
  2.7071720e-04
 -3.2805908e-04
  8.1681891e-04
 -3.2809922e-03
  4.7337967e-03
  1.2218792e-04
 -4.3772236e-02
 -2.6640128e-03
  5.3472500e-03
  2.5743621e-03
  1.7467589e-04
 -7.3552667e-04
  4.3697869e-03
 -1.9744055e-03
 -2.0421047e-03
  9.7554002e-04
 -1.9940394e-03
 -4.2439932e-03
  2.8532881e-03
 -3.0554920e-03
 -1.2108084e-03
  2.3319030e-03
 -1.4956275e-03
  1.8207141e-03
 -7.6860026e-04
 -1.9456733e-03
  3.6741153e-03
 -1.8437163e-03
  1.3784819e-03
 -5.1046037e-03
 -8.1141735e-04
  4.0364224e-03
  1.4470855e-03
 -1.8056498e-03
  2.1095762e-03
 -4.2022024e-03
  2.6087759e-03
  8.9483190e-04
 -1.6344928e-03
  7.1490475e-05
 -1.3168704e-03
 -3.5401226e-03
  8.9324702e-04
  2.8266322e-03
 -2.7814363e-03
 -9.9370145e-06
 -5.0878216e-04
  2.9117253e-03
 -2.8214632e-03
  3.3871453e-05
  3.0361251e-03
  1.1826514e-03
 -7.6947780e-04
  1.4495377e-03
 -1.1328927e-03
 -2.6707479e-04
 -3.5067371e-03
 -1.7149554e-04
  1.8794879e-03
  2.0599402e-03
 -4.8820712e-04
 -3.3555200e-04
  1.6455473e-03
  7.4385601e-04
  2.5143474e-04
  1.7617526e-03
 -1.8898202e-03
  4.4678627e-03
  2.7633557e-04
 -2.2697318e-03
 -1.1740979e-03
 -5.7213209e-03
 -3.6751849e-04
  4.8434786e-03
  4.8077949e-03
  3.2075972e-03
  4.9450146e-03
 -3.1819814e-03
 -5.4082524e-05
  6.2310793e-03
 -2.3614145e-03
  2.3306906e-03
  4.5888126e-05
  1.1092782e-03
 -3.9491145e-04
 -5.1217497e-04
  1.4203819e-03
  1.6188105e-03
 -9.8680081e-03
  2.9685094e-03
  3.7011588e-03
  5.7363219e-04
 -4.7054443e-01
  1.0912707e-03
 -2.8186850e-04
 -2.2518111e-03
 -6.0615651e-02
 -1.3006872e-02
 -1.7657251e-03
 -1.1111590e-03
 -1.0187207e-03
 -6.3637091e-04
 -4.2381248e-01
  5.3583860e-04
 -4.0221866e-03
  2.3108441e-06
  1.0645789e-03
  7.0702174e-04
  5.4590055e-04
  7.4576458e-04
 -7.1592105e-05
 -6.3473680e-03
  2.4843575e-03
  8.0745004e-02
 -1.1020106e-03
 -5.9903803e-04
  1.3438538e-03
  7.0063444e-03
  2.6056799e-04
 -4.8429242e-04
 -1.8083910e-04
  1.4312533e-03
  1.2030761e-03
  1.1436910e-03
 -1.1386648e-03
  1.4898255e-03
 -2.6068644e-04
 -2.8746054e-03
 -1.4355197e-04
  1.1414575e-03
 -1.0379890e-03
 -8.8537345e-04
 -6.5757990e-02
 -3.4428213e-04
  6.1593030e-04
  3.6736144e-04
  1.7383945e-03
  3.0384353e-01
  7.5212499e-04
 -5.8256736e-04
 -2.0305353e-04
 -4.7473740e-03
  8.1174291e-04
 -5.0671196e-01
 -1.6511769e-03
  1.8530862e-03
 -1.2843960e-04
 -1.1117455e-03
 -2.7863478e-04
  1.6623803e-03
  3.6366500e-03
  2.3922918e-03
  9.8281307e-04
  2.7937670e-03
  2.2570638e-04
 -1.8419381e-03
 -1.3245089e-03
  1.7146985e-03
 -1.8302884e-03
 -2.6097515e-04
  4.6308464e-03
 -1.4313007e-03
  1.1105635e-03
 -2.8185718e-04
  3.3527201e-03
 -1.7136954e-03
 -1.4698807e-03
  1.9452625e-03
  5.1343911e-03
  2.5376840e-03
  3.2155733e-03
 -8.1523154e-03
 -4.1081482e-03
  5.5675148e-03
  1.3193453e-04
 -1.3479404e-03
  1.1138066e-02
  8.1494456e-04
  5.7301992e-01
  1.6007419e-01
  1.0768621e+00
 -4.2579508e-01
 -6.6499114e-03
 -7.0302107e-04
 -4.1964353e-04
 -1.2437448e-01
 -5.7285549e-03
 -8.7552122e-05
 -7.0218349e-01
 -9.1510788e-02
  1.9495919e+00
  5.8674224e-04
  3.2348953e-02
  1.9477078e-03
 -8.5166681e-01
  1.1491925e-03
 -1.1636716e-03
 -2.3191656e-01
  2.1480897e-05
 -5.2371598e-03
  6.5696100e-04
  8.9766877e-04
  2.3621018e-03
  4.7611728e-01
 -8.8837871e-04
 -4.4415082e-04
  2.1395924e-02
 -4.5468260e-02
  3.7175277e-03
  2.5015461e-01
 -2.7099088e-01
  7.1928406e-04
  5.3462986e-04
  6.9299296e-02
  8.2898024e-04
  1.1379451e-04
  1.7714861e-03
 -9.1072987e-04
  3.8339365e-01
  2.9661586e-03
 -5.6201257e-03
  1.0885552e-03
 -8.1604812e-05
 -3.8995018e-04
 -5.2775522e-03
  9.5336488e-04
  2.2277974e-01
  4.7357939e-02
  2.7810022e-01
  2.0086005e+00
 -1.4545468e+00
 -6.3764077e-01
 -2.1116263e-01
  1.3534896e-01
 -2.4441423e-02
 -3.0783930e-01
 -7.9981007e-02
  3.7098508e-03
  9.1857053e-02
 -7.5929904e-01
  4.4757161e-01
  1.5117678e-01
  2.1792795e-01
 -7.8055784e-02
  4.2154050e-01
  1.1676256e-01
 -1.0749034e-03
  9.1671914e-01
 -3.2431990e-02
 -1.4557044e-01
 -3.0442590e-01
 -1.1936745e-01
  7.8752965e-02
 -7.3485136e-01
  5.7774875e-02
 -1.0305024e-01
 -4.4160312e-01
 -6.4095199e-01
  2.9912971e-02
 -9.8442996e-01
 -5.8144695e-01
  6.4531309e-03
 -7.2711706e-04
 -4.6973890e-01
 -3.3890377e-03
  2.1459816e-04
  8.2582138e-02
  6.4173721e-02
  6.4124262e-01
  1.5201442e-01
 -1.3873401e-01
 -3.1306033e-03
  2.7799353e-03
 -1.4567701e-03
 -8.5418828e-02
  2.2409510e-02
  3.2661440e+00
  3.7957525e-01
 -2.8321043e-01
 -3.8919657e-01
 -2.3219453e-03
 -2.0642233e-01
  1.2769683e-03
 -1.6821505e-03
  1.2804720e-03
 -6.0102421e-01
  2.4415147e-03
 -7.1180239e-04
 -5.6443769e-02
 -3.9565417e-01
 -5.6588185e-01
 -9.6279316e-02
  2.0613247e-01
 -1.1089007e+00
 -1.3602685e-02
 -2.0476067e-03
 -9.5507951e-04
  6.8746310e-01
 -1.3957895e-01
 -4.8962092e-01
 -2.0562693e-01
  6.5897745e-01
  4.9918294e-01
 -2.0709656e-02
  1.6365459e-03
 -2.4424165e-02
 -1.0020809e+00
 -1.0040331e-01
 -9.7747194e-03
 -4.0423927e-01
 -4.5869339e-01
 -6.4935106e-01
 -1.2804189e-01
 -6.4790761e-01
  6.2421697e-01
 -2.8373623e-01
  7.4891284e-02
  2.4583989e-01
 -4.4552758e-03
  8.2755194e-04
 -3.3476177e-01
 -9.9811602e-01
 -1.4923452e-01
  5.3693110e-01
  1.9347054e-01
 -2.5647995e-01
 -3.4781513e-01
 -9.5322871e-01
 -2.2434257e-03
 -1.4447987e+00
 -2.2735746e+00
 -2.6472054e+00
  4.2402905e-01
 -1.0093182e-01
 -4.8436630e-03
 -1.9386443e-04
  7.3852852e-06
  3.7062675e-01
  7.5934544e-02
 -8.5503685e-01
  2.9150149e-01
 -6.8336445e-01
 -4.2599675e-01
  4.0851632e-01
 -3.5450161e-01
 -8.5994589e-01
 -5.1073688e-01
  1.7394252e-01
  3.4623239e-03
 -1.8586445e+00
  5.8438808e-02
  4.2783828e-03
 -7.9808557e-01
 -2.1033711e+00
 -7.1732980e-01
 -6.1694765e-01
  1.7261396e-03
 -1.8051900e+00
 -5.0732976e-01
 -1.4495210e-01
  2.0813194e-01
 -1.4868693e+00
 -3.3405638e-01
 -3.3000734e-02
 -1.2233359e-01
 -2.8084118e-02
 -2.0756094e-01
 -2.4414498e-02
 -9.5858611e-03
 -4.5075119e-01
 -6.0843933e-01
 -5.2265781e-01
 -1.1666193e+00
 -8.2179356e-01
  2.2372763e-01
 -4.5494744e-01
 -4.0115315e-02
 -8.3001930e-01
 -7.1996853e-02
 -9.2861009e-01
  1.9028537e-01
 -2.5692543e-01
 -4.5508247e-02
 -2.5255316e-01
 -1.2636760e-03
  2.1228576e-03
  3.0164185e-01
 -1.9552303e-05
 -4.7417708e-02
 -4.2574695e-01
 -8.3328867e-01
 -3.5103817e-02
  1.0853997e+00
 -1.1706203e+00
 -8.6705424e-02
  1.9449277e+00
 -1.1545381e-01
  2.8413653e-03
  1.1254406e-01
  3.4867796e-01
 -9.8428547e-02
  2.6231827e-03
 -5.9077974e-02
  3.4366295e-01
  3.6500236e-01
  1.1559625e+00
 -6.7776456e-03
  5.9187949e-01
 -4.1032746e-01
  1.0011097e-02
 -9.8068839e-01
  1.8794358e+00
 -2.7720788e-01
  3.0175686e-01
  9.6010859e-04
  3.6393312e-01
  8.8509142e-02
 -1.0665883e-01
 -3.1115815e-01
 -3.3949666e-02
  5.3527892e-01
  7.2528756e-01
  1.5166017e+00
  4.4021812e-01
 -2.8726547e-03
 -3.1165725e-01
 -8.5224175e-01
  4.5683753e-01
 -6.6891342e-02
  1.6518690e-01
  6.5063022e-02
 -1.7596608e-04
 -1.0114866e-01
 -1.0889827e+00
 -2.8245637e-01
  6.2123322e-01
  1.0182452e-01
 -1.1133919e-01
 -7.0646101e-01
 -3.6991590e-01
 -3.1764999e-01
  8.4927356e-01
  7.4461453e-02
  3.9087340e-01
  9.9771857e-01
 -9.8333609e-01
 -1.4450759e-01
 -1.4795211e-01
 -2.0488195e+00
 -3.6772773e-01
 -1.2706597e+00
  2.6377687e-01
 -7.0558041e-01
 -1.7221790e-02
 -1.4539327e-01
  8.1673372e-01
  1.9373116e+00
  2.0036740e+00
  4.9130487e-01
  7.8644949e-01
 -2.7329975e-01
 -5.7781041e-01
 -1.6281199e+00
  2.0903528e+00
  3.2860568e-01
 -1.0110890e-01
  4.4231462e-01
  2.0018249e+00
 -9.4600534e-03
  3.6802867e-01
  5.6484061e-01
 -1.9115594e-01
 -1.2350656e+00
  2.6018670e+00
 -1.1592178e-01
 -6.8438374e-02
 -1.4416693e+00
  4.7480538e-01
 -2.4311659e+00
  6.6409260e-01
 -5.8305520e-01
  2.0728925e-02
  7.8087271e-04
  1.4856671e+00
 -2.9441950e-01
  1.7467494e+00
 -1.4714081e-02
  9.0030558e-02
  1.6291880e-03
  1.5168524e-01
  2.5720405e-04
  4.5933085e-03
  2.9707097e-03
  2.4090745e-01
 -2.3636608e-01
 -2.7362522e-01
 -3.4521043e-04
 -1.0913197e+00
  6.2401183e-03
  2.0036359e-01
  1.4975803e-01
  1.0766482e+00
 -1.5199818e-03
  1.7967105e-01
  1.4354470e-02
  4.1014317e-02
  4.0245708e-02
  1.5292545e-01
  5.4800266e-04
 -1.3692915e-02
  3.5811990e-04
  1.3801989e-01
 -2.1975483e-03
  4.5295939e-01
  6.1428148e-01
  4.9728522e-01
  1.7284349e-02
 -1.4982560e+00
  4.0632904e-01
 -1.8833242e-03
  2.1482203e-03
 -9.6959084e-01
 -1.0262402e+00
 -1.0845412e-03
 -3.3898532e-01
  1.0244920e+00
 -7.7735674e-01
  4.5095857e-02
  4.5613348e-01
  1.5364991e+00
 -6.6982917e-03
 -2.7837753e-01
 -3.2353159e-03
  7.0760614e-01
  4.2658967e-01
  4.2918525e-03
 -1.2301854e-01
 -1.0226529e+00
  2.8341043e-01
 -3.7847021e+00
  2.1263631e-03
  2.4921989e-01
  1.2509335e-03
  2.4081497e-01
 -9.0707978e-03
  3.5674411e-01
 -9.4786480e-02
  1.9863914e-01
  3.3492112e-01
 -5.4493648e-01
 -9.4930005e-01
  1.8560882e+00
 -5.5586898e-01
  1.4660984e+00
  2.0850210e+00
  4.2734361e-01
 -6.8496144e-03
 -3.2159472e+00
 -2.6287257e-03
 -6.4092571e-01
  2.5946409e-01
  2.8242999e-01
 -1.0480437e+00
  6.8644059e-01
 -6.0281184e-02
  4.7821012e-01
  1.1261413e+00
 -5.9983301e-01
 -1.7161603e-01
  6.4123517e-01
  2.6698356e-02
 -1.2030778e+00
  2.0956352e-01
 -1.5224174e+00
 -2.8597197e-01
 -7.3311007e-01
 -8.1961423e-02
  4.0204772e-01
  4.4032112e-01
  1.2305888e+00
  1.3114394e+00
  8.9423276e-02
  1.2291428e+00
  3.2236111e-01
  1.0682933e+00
  1.0253719e+00
  1.1585498e+00
 -6.7677677e-01
  1.7092749e-01
 -1.6184631e-01
  2.7614985e+00
 -1.8872215e+00
  7.7500604e-02
  3.9642770e-03
  2.6884004e-01
 -1.1761387e-01
  2.9008170e-03
 -1.1357596e+00
 -1.5593938e+00
  3.9463598e-01
  2.6414648e-01
  6.9402158e-01
  1.3336120e+00
  2.4070108e-01
 -4.2059280e-02
  7.6612204e-01
 -1.3990054e-02
 -1.2573740e+00
  2.3165117e-03
  2.9680583e+00
 -2.2933900e+00
  3.2363960e-01
  2.7817410e-01
  3.0021153e-02
 -2.9914382e-01
 -9.7201222e-01
 -6.7067854e-02
 -1.2458581e+00
 -2.7258816e-01
 -7.3539335e-01
 -2.4018293e-02
 -1.4797940e+00
 -2.4143298e-01
 -3.9213289e-02
  2.7819136e-01
  1.9566900e-01
 -4.5015782e-02
 -9.4242558e-02
  2.7345246e-01
 -8.7870598e-01
 -4.8734227e-01
  4.7269192e-01
 -2.3534732e-01
 -9.4596726e-01
 -7.2505230e-01
 -8.1273980e-02
 -2.9607239e-01
 -1.4599966e+00
 -5.5579234e-02
 -3.4589601e-01
 -7.0143539e-01
 -1.6515865e+00
 -3.6089316e-01
 -1.9912727e+00
  3.4570953e-01
 -4.2854825e-01
 -8.2351804e-02
 -9.8142162e-02
  7.8123689e-02
  5.4366618e-01
  2.2181664e-01
  2.1759050e+00
 -9.9064356e-01
  7.6522100e-01
 -1.9415754e-01
  2.7130344e+00
  1.6757134e-01
  1.3300371e-01
 -5.4323107e-01
 -2.9339807e+00
  9.3780383e-03
 -1.9890496e+00
  2.3876106e-02
  4.1707870e-01
  4.1412458e-02
 -2.8378382e+00
  1.0736266e-02
  1.5821129e+00
  9.8088968e-01
 -3.4673670e-01
  1.0998067e-01
  1.6176659e-01
  5.4983401e-01
 -8.0597177e-02
  6.7216747e-02
 -1.0183004e+00
 -2.2186552e-01
  1.2379119e+00
  3.3997419e-01
 -1.3997850e+00
  5.7840443e-01
  1.4726272e-01
  7.2991067e-01
 -7.7622771e-01
  3.9579965e-02
  1.0592726e+00
 -2.0028241e-02
 -7.5200742e-01
  2.9576230e-01
 -6.8623024e-01
 -1.9073386e-03
 -2.0512132e-01
 -2.3479471e-01
  3.1514916e-01
 -3.3769033e+00
  2.3624666e+00
 -5.6214694e-02
  5.9176095e-02
  6.3537492e-04
  7.9962635e-01
  2.2194709e-01
  4.7593358e-01
 -1.1012992e-01
 -1.1421736e+00
 -1.2924331e-01
  3.3638394e-01
 -1.9536009e+00
  1.3907386e+00
  1.5034487e+00
 -1.5463318e-01
  5.7519990e-01
  4.2162824e+00
  1.3119684e-01
 -1.1500953e+00
 -1.6282389e-01
 -1.5250030e-01
  2.5381142e-01
 -6.9954538e-01
 -2.5952253e-01
 -1.4334801e-01
  1.2267982e+00
 -2.1686295e-01
 -1.5973765e+00
 -5.1767837e-02
  2.0203424e+00
  4.3010819e-01
  4.0785882e-01
  2.0991323e+00
 -1.0826930e+00
  1.7610775e-01
 -1.4453465e+00
 -3.9593589e-01
 -3.3985877e-01
  8.3342618e-01
 -1.2626077e+00
  3.2024273e-01
  1.5549493e+00
  2.5999579e-01
 -1.2562453e+00
 -7.0607477e-01
  9.5911676e-01
 -2.3135918e-01
 -9.2307433e-02
  6.2238348e-01
 -4.2503220e-03
 -3.8156164e-01
  1.9448501e-01
  1.5064110e-02
 -1.0757720e+00
 -9.0631265e-03
  1.6029334e-01
  3.2458866e-01
 -5.0711036e-01
  5.6678641e-01
 -7.0693886e-01
 -1.3460245e+00
  1.7932456e+00
  1.4684389e+00
  2.3192749e+00
  4.3927485e-01
 -1.9928982e+00
 -1.6205605e-02
  1.9765855e+00
  3.1330259e+00
 -8.0968219e-01
 -2.7398083e-01
 -1.0457968e-01
 -1.1783811e+00
  7.2361268e-02
 -8.8786048e-01
  7.6700467e-01
 -7.1059042e-01
 -2.3872159e+00
  5.2620101e-01
  3.1122681e-01
  1.3635832e+00
 -9.5599717e-01
 -6.3712376e-01
  4.5598990e-01
  1.6876754e+00
  4.3764323e-01
 -9.4378859e-01
 -7.7804722e-02
 -1.9794537e+00
 -2.0828746e-01
 -9.8596317e-01
 -5.5664974e-01
 -1.0998664e+00
 -1.1535254e+00
  3.2173756e-01
  8.8028334e-02
  7.6443815e-01
 -9.4251919e-01
  1.6828837e-01
  1.0628583e-01
  1.4959044e+00
  2.8195685e-01
  9.2836088e-01
 -5.6994921e-01
  7.4541479e-01
 -4.9133733e-02
  1.6711868e+00
 -1.9521582e-01
  9.8088402e-01
 -9.7148959e-03
  2.6428394e-04
  2.7634728e+00
 -4.3157992e-01
  4.6914965e-02
  4.3861434e-01
 -1.0843563e+00
  1.8148671e-01
 -5.0792408e-01
  6.5663600e-01
 -2.0696964e+00
  7.0280665e-01
  2.5902012e-01
 -1.6245971e+00
  1.7008244e-01
 -8.8608646e-01
 -1.3758756e-01
 -1.5229371e+00
 -1.4539658e+00
  1.4690928e+00
 -2.0101905e-02
  3.6584598e-01
 -9.0897435e-01
  6.2727964e-01
  8.2530512e-04
  1.7583677e-01
  9.8327416e-01
 -4.2271286e-01
 -2.8987607e-02
 -5.1625109e-01
  2.4335728e+00
 -6.1109906e-01
 -9.2105523e-02
  1.7948887e-01
 -4.0032792e-01
 -3.4563366e-02
  1.2461887e-01
  7.6486862e-01
 -1.8188204e+00
 -1.9878899e-01
 -4.5302373e-01
  1.8732814e-01
 -9.8530012e-01
 -7.5468563e-02
 -8.7845800e-03
  6.3504022e-01
  7.2920495e-01
  8.1602493e-03
 -5.7011086e-01
  3.4199236e-03
  2.7372414e-01
 -1.0370391e-03
  7.2370580e-04
 -9.0146720e-01
 -5.0795650e-01
  3.3590823e-02
 -4.0411666e-01
  1.6552720e+00
 -4.7198165e-02
  1.7102423e-01
 -1.6975133e-02
 -2.3339063e-01
 -3.7371069e-01
 -2.8995946e-01
 -3.9542351e-02
 -2.0483008e-01
 -2.0672564e-01
  2.1658884e-01
 -4.4595635e-01
 -5.1955813e-01
 -5.3572899e-01
 -1.8540253e-01
 -6.2771491e-05
 -2.0857444e-01
 -1.1457226e+00
 -9.2888999e-01
 -5.3427333e-01
 -4.4274122e-01
  1.7987403e+00
  2.0236344e+00
 -1.8555913e-03
 -1.7635576e-02
  3.3651447e+00
  6.5458244e-01
 -5.9419356e-02
  1.2498302e-01
  2.0129812e+00
 -1.0664498e-01
 -3.1907669e-01
  4.3176350e-01
  1.0505649e-01
  6.7449272e-02
 -9.8518729e-03
 -8.4706560e-02
 -1.1010710e-01
  5.0790578e-01
 -1.6319992e-03
 -5.5713474e-04
 -8.3905625e-01
 -2.1226425e-02
  4.8701367e-01
  9.5974852e-04
 -2.6350928e-05
  2.7586231e-01
  2.1683071e-03
  7.8539824e-01
 -1.5181783e-03
 -7.3757958e-01
  4.5334964e-04
 -2.8856215e-01
  5.3267714e-02
  1.2372897e+00
  2.9839796e-01
 -4.6840711e-03
  3.9568823e-04
  1.3588753e+00
 -6.6973432e-03
  8.9028758e-01
 -2.4571535e-01
 -5.6286937e-01
  1.2815300e+00
 -1.3382153e-01
  4.6492353e-01
  7.9445088e-01
  2.9821089e-01
 -2.8969091e-03
 -2.9865599e-01
  1.4987923e-01
 -3.6256097e-02
  1.1373483e-01
 -2.0946113e-02
 -1.0952365e-01
  1.6518638e+00
  3.0450507e-03
  1.0328755e+00
 -2.7425513e-01
  1.6228142e-01
 -3.6110911e-01
  9.7014066e-03
  3.3875868e-01
 -7.7304500e-01
  2.7236056e-01
 -3.3996990e-01
  1.5221263e-01
  2.7452725e-01
  2.6893091e-01
  4.0484461e-01
  2.9318449e-01
  6.5578604e-01
  9.0831377e-02
  1.8363202e-01
  1.1537100e+00
  3.1992236e-01
  6.1126158e-04
 -5.4576921e-01
  1.0492365e+00
 -1.2813355e-03
  2.7974543e-01
  5.3077608e-01
 -4.3459502e-01
 -1.6922979e-01
 -8.0826384e-01
  9.8149395e-01
  5.2440852e-01
  8.9058506e-01
 -9.3252486e-01
 -2.2777671e-01
 -2.5784812e+00
 -1.4000193e+00
 -1.5100873e+00
 -1.5872976e+00
  2.5032157e-01
  8.7395138e-01
 -5.3468966e-01
 -2.5182517e+00
  7.4887192e-01
  3.9221332e-03
  5.1563084e-01
 -4.1833696e-01
 -1.1686144e+00
 -7.0111132e-01
 -1.0456757e-01
 -3.9707983e-01
 -1.0321959e+00
  7.5884640e-01
 -1.2420844e+00
  1.3776267e-02
  1.7080157e+00
 -5.8461968e-03
 -5.6342697e-01
 -1.3512316e+00
  1.9262691e+00
 -1.3335200e-01
  9.9532574e-01
 -1.7402704e+00
  8.5378408e-01
  2.0131890e-03
  8.7012583e-01
 -1.2202597e+00
 -3.6711925e-01
  3.3580220e-01
  9.1022700e-01
  1.4343338e+00
 -6.0461611e-02
 -1.2419456e+00
  6.0683731e-03
  1.6369127e+00
  8.6928986e-02
 -2.9047967e-03
 -1.2995995e+00
 -2.8070400e+00
 -3.4842744e-01
 -1.2127606e-01
  8.2942262e-02
  1.5347193e+00
  9.8488176e-01
 -1.3111147e+00
 -2.0540969e-01
 -5.9777347e-04
  5.3489405e-01
  4.4536751e-02
 -8.3429021e-01
 -9.9305624e-01
 -1.2763311e+00
 -1.6229150e+00
  5.0361919e-01
  1.6539786e+00
  4.5208815e-01
  8.0565951e-05
  5.2708572e-01
  1.0253699e+00
  2.5440919e-01
 -8.7705761e-01
  1.3761964e-01
 -9.0952021e-01
 -9.1460055e-01
 -9.6839178e-01
  8.4489398e-02
 -7.9867798e-01
  3.2647198e-01
 -1.7304893e-03
  5.9589881e-01
  4.8228389e-01
 -7.2378457e-01
 -9.9924850e-01
  6.5188479e-01
  7.8963166e-01
 -1.2659869e+00
 -1.4394009e-02
  1.8911169e-01
  4.7569630e-01
 -1.6048888e+00
 -1.5495238e-01
  1.7952110e+00
  3.6217389e-03
  1.9472492e+00
 -2.1074092e+00
  2.2377763e+00
  7.6718433e-03
 -1.1425017e+00
  6.8310127e-02
 -1.8979486e+00
  5.4327645e-03
 -2.7050846e+00
 -1.7471550e+00
  3.8774946e-01
 -1.4929520e-01
  6.8025100e-01
  1.7653530e+00
  2.3646779e+00
  3.2710803e-01
 -1.6029553e+00
 -3.0988600e-02
 -1.4268849e+00
  2.5451919e-03
 -1.0266056e+00
 -1.3646054e+00
  1.8102090e-01
  1.4429947e-03
  2.8139617e+00
  8.0928707e-04
  1.3789287e+00
  6.7314047e-01
  1.2823688e+00
 -5.4022711e-02
  2.0391278e-01
 -2.0498802e-01
 -3.0425987e-01
 -3.3039838e-01
 -1.4874930e+00
  1.5243731e+00
 -4.7538656e-01
 -7.7624553e-01
 -5.9856755e-01
  1.8716477e-01
  3.5814177e-02
 -6.3190192e-01
  6.9103497e-01
 -3.7517384e-01
 -6.8299226e-02
 -7.1766645e-01
  5.5830103e-01
 -1.0622667e+00
 -1.7520407e-01
 -4.6325963e-02
  2.3359172e-02
  2.3359172e-02
  2.3359172e-02
  2.3359172e-02
  2.3359172e-02
  2.3359172e-02
  2.3359172e-02
  2.3359172e-02
  2.3359172e-02
  3.7800722e-02
  3.7800722e-02
  3.7800722e-02
  3.7800722e-02
  3.7800722e-02
  3.7800722e-02
  3.7800722e-02
  2.9012233e-02
  2.9012233e-02
  2.9012233e-02
  2.9012233e-02
  2.9012233e-02
  2.9012233e-02
  2.9012233e-02
  1.3580502e-02
  1.3580502e-02
  1.3580502e-02
  1.3580502e-02
  1.3580502e-02
  1.3580502e-02
  1.3580502e-02
  5.7021868e-03
  5.7021868e-03
  5.7021868e-03
  5.7021868e-03
  5.7021868e-03
  5.7021868e-03
  5.7021868e-03
  1.2225810e-02
  1.2225810e-02
  1.2225810e-02
  1.2225810e-02
  1.2225810e-02
  1.2225810e-02
  1.2225810e-02
