nep4 2 Cu Se 
cutoff 7 5 100 44
n_max 8 6
basis_size 12 12
l_max 4 2 0
ANN 50 0
 -1.3488803e-02
 -2.0447737e-01
 -7.0877269e-02
 -1.6445855e-02
  8.8003743e-03
  2.0276036e-03
 -1.4314763e-02
  1.5131360e-02
  7.4191121e-03
 -1.5110068e-01
 -1.7376514e-03
  4.5810830e-02
  9.5798564e-04
  5.6563031e-02
  5.0808443e-03
 -1.5454232e-02
  2.3553953e-02
  2.0313116e-02
  5.8340752e-03
 -2.8508177e-02
  7.2845905e-03
 -1.3918670e-01
 -1.0574108e-02
 -1.1654813e-02
  3.2028060e-02
  2.4574158e-01
 -7.0612953e-04
  3.3747390e-02
  1.3745494e-02
 -3.3174701e-02
 -4.3092091e-03
  1.5612282e-03
  6.7177187e-03
 -3.6646154e-02
  1.4805105e-02
  1.1855195e-02
  2.4866224e-03
  1.8384729e-02
 -1.9162206e-02
 -7.4546691e-03
 -1.3173498e-02
  1.2776502e-03
  1.1169430e-02
  3.2933604e-02
  2.6035571e-01
  7.2499700e-02
  6.7736909e-02
  7.7472851e-02
  1.3617754e-01
 -8.8045802e-03
 -3.5239989e-01
  2.5415003e-02
  7.5256512e-02
  5.5779062e-02
 -1.7450057e-02
  6.4769983e-02
  1.4729078e-02
 -4.0292870e-03
 -3.8198862e-02
  4.5602019e-03
 -2.2031385e-02
 -3.5642531e-02
 -9.2788994e-02
 -2.9554401e-02
 -1.5938784e-01
 -1.3686666e-01
 -3.1732515e-02
  8.1330761e-03
 -4.0866613e-02
 -5.8228090e-02
 -1.9770663e-03
  4.0635057e-03
 -1.4716870e-01
  3.8016941e-03
  1.6530792e-03
  6.1811194e-02
 -3.5189340e-01
 -9.6646436e-03
  2.0468339e-02
  2.1272540e-02
 -2.1233328e-02
 -1.2467804e-03
  2.1565946e-02
  1.6196994e-03
 -4.0839825e-02
  6.6738636e-03
  1.6476805e-03
 -5.5886381e-03
  2.9822821e-02
  9.5067900e-01
 -1.0168631e+00
  1.1625147e+00
 -4.2497215e-01
 -2.0201640e+00
 -1.9209985e+00
  3.5446149e-01
 -5.5059981e-01
 -3.7797663e-01
  7.9834199e-01
  7.8309894e-01
 -2.8740228e-03
  6.4461058e-01
  1.2951455e+00
 -1.3840606e+00
 -3.4681547e-01
 -9.2241979e-01
  1.8671297e-01
 -7.5625263e-02
  2.4503557e-01
 -9.7496873e-01
  2.0470119e-01
 -5.6402707e-01
 -2.1783142e-01
  1.8413445e+00
 -3.4506896e-03
  2.2301315e-01
 -9.0237862e-01
  4.6287611e-01
 -6.4712822e-01
 -2.3116136e-02
  6.4134616e-01
 -2.8935219e-03
  5.0613627e-02
 -7.6232207e-01
  2.5953189e-01
  7.5532776e-01
 -9.9917643e-02
 -4.4250846e-02
 -5.0988875e-02
  3.4279436e-02
 -2.8453144e-01
 -1.5197709e-02
  2.0453759e-01
 -5.3665362e-02
  2.3449805e-01
  2.9632688e-02
  3.7619840e-02
  8.8853881e-02
  1.0521217e-02
  1.1812445e-01
 -9.9971616e-01
  6.0833745e-02
 -8.8176439e-03
 -7.6768706e-03
  4.4074771e-03
  8.4180431e-04
 -6.7823874e-03
 -3.2891054e-02
 -1.9056936e-01
 -3.4481127e-02
 -9.9383429e-02
 -2.7544433e-02
  1.4678496e-02
 -1.4194632e-01
 -1.5609195e-02
  5.4933336e-03
  2.0335615e-02
  1.4726518e-02
 -2.8259505e-02
  9.6228406e-02
  2.4894945e-04
 -1.3623795e-01
  1.3236713e-02
 -6.1736111e-02
 -6.8472112e-03
 -2.3522284e-02
  2.2380715e-02
  5.5976417e-03
  2.4939007e-03
  1.5066007e-02
 -3.0575903e-02
 -6.2135058e-03
  2.2249199e-02
 -4.4243154e-03
  1.5660413e-01
 -7.3859026e-03
  2.9632283e-02
  2.3469670e-01
  1.5335781e-02
 -4.0052631e-03
 -3.6391139e-02
 -2.3232559e-03
 -1.3916609e-02
 -3.5469432e-04
 -1.4475211e-02
 -2.2819804e-02
  8.8281808e-03
 -3.1120250e-02
 -2.8440645e-02
 -1.9889396e-02
 -3.4207843e-02
  5.9684820e-02
  2.1739064e-02
 -1.1259152e-02
  2.2323951e-03
  1.2407590e-02
 -2.3404777e-02
  9.5143123e-03
  1.2223665e-02
 -2.0621071e-02
 -1.8567842e-02
 -4.7050592e-02
 -1.0635673e-02
 -9.2046550e-03
  1.5246679e-01
 -9.2728799e-03
  7.4746087e-04
  2.6619993e-04
  1.2634913e-02
  1.4239399e-02
  4.8982639e-02
  3.6565747e-02
  6.6947468e-02
 -2.6683209e-03
  1.7633522e-03
 -1.4134106e-02
  1.6610593e-02
  2.8099954e-02
  2.9178840e-01
 -1.4775946e-02
  4.6749203e-04
 -1.9265835e-01
  9.0835271e-03
 -1.2714884e-02
 -4.6637304e-02
  1.6477885e-02
  1.6305661e-02
 -2.6283190e-02
 -5.9715956e-03
  1.9916404e-02
  4.5025549e-03
  1.3085082e-02
  3.5280753e-02
  4.0625297e-02
  3.2861046e-03
  2.6354302e-02
  2.1093717e-02
  4.0824119e-02
  9.1960914e-02
 -3.3947781e-02
  6.1491583e-03
  2.4783820e-02
  2.8016498e-02
 -4.9627457e-02
 -5.0189099e-03
 -2.4634309e-03
  1.4291589e-02
  2.7339080e-02
 -5.3137973e-02
  1.8478986e-02
 -8.3552506e-03
  1.6197026e-02
  7.4001332e-03
  6.6289380e-02
  2.7221367e-02
 -3.5325721e-02
 -8.6776810e-03
 -9.5741292e-03
  1.5780196e-03
  9.5302006e-04
  4.3136813e-02
  2.5574942e-03
 -2.7319530e-02
 -3.4027949e-02
  1.6269183e-02
  2.3828307e-01
 -3.0892393e-02
 -1.7402103e-02
  1.7426601e-02
  5.8403432e-02
  9.7659277e-04
  3.5282839e-03
  3.8501117e-03
  3.3039123e-02
  2.0541491e-02
  8.3575904e-02
 -2.2355773e-02
 -3.4399562e-02
  7.5088902e-03
 -8.1280693e-03
 -8.7479558e-03
  4.4971169e-03
  3.7613772e-03
 -4.5144770e-02
 -1.1938704e-02
 -3.7975775e-03
  6.8165503e-02
 -1.6103411e-02
  1.0258699e-02
  1.7331361e-03
  2.2389602e-02
 -7.6886229e-02
 -1.2030417e-02
  1.6454330e-02
 -1.3113706e-02
 -7.0264880e-03
  3.8704183e-02
 -1.6705360e-03
 -1.3511119e-02
 -6.6848290e-01
 -9.9978810e-03
  1.1268601e-02
  1.9390363e-02
  5.1791603e-03
 -5.6306578e-02
 -1.9131517e-03
 -5.6915800e-03
  5.4425575e-02
 -5.5411123e-03
 -8.1470692e-01
  5.1669125e-02
 -2.8604842e-03
 -5.2175529e-02
  3.4395778e-01
  2.9397206e-02
  4.6494350e-02
  3.7451062e-02
  1.3624093e-02
  6.6234064e-03
  3.6051520e-03
  4.6249074e-03
 -1.2371007e-02
 -2.8158021e-03
 -1.2573897e-02
  9.1436468e-03
 -1.6695080e-02
 -3.3708323e-02
 -1.0249943e-02
 -2.1224804e-02
 -1.0095187e-02
 -1.4003369e-02
  1.2580128e-02
  1.4279225e-02
  4.2276825e-03
 -9.8607177e-03
  4.7920600e-02
 -5.6241835e-03
 -1.0583460e-02
 -2.5105331e-02
 -5.4742163e-03
  2.6379850e-02
  1.0205524e-02
  3.8981915e-02
 -4.4198152e-02
  4.0820830e-02
  1.3688005e-02
 -3.2559156e-01
  3.7482012e-02
 -9.9443737e-03
 -6.7796119e-02
 -6.8885055e-03
  1.2622326e-02
  2.5305705e-02
  2.2915032e-02
 -1.2686720e-02
  4.6906471e-02
 -1.1364670e-02
  3.5582148e-02
  1.7918754e-02
 -1.8480942e-02
  1.3874322e-02
 -4.3077944e-03
  1.2123345e-02
  4.9923463e-03
 -7.9727247e-03
  1.7615196e-03
  1.5857896e-02
 -7.4937330e-03
 -1.1127344e-02
 -3.4391008e-02
  2.6508655e-02
  5.2286114e-04
 -2.3011632e-02
 -8.6227916e-03
  2.8683750e-03
  5.1948242e-05
 -2.4304457e-02
 -6.1737154e-02
  3.0206341e-02
 -2.6852181e-03
  3.1649400e-02
 -9.4126002e-04
  3.4987774e-02
 -1.2201631e-02
 -4.1358080e-04
  1.6437335e-02
  9.9890530e-03
 -5.4865228e-03
 -6.3909981e-03
  3.6222983e-02
 -3.1905200e-03
 -1.4638505e-03
 -1.3950369e-02
 -5.5032104e-02
  2.5877501e-03
  1.0029566e-02
 -1.6814560e-02
 -2.1517670e-03
 -5.5058771e-03
 -6.3316850e-04
  8.5440669e-03
 -3.6033414e-02
  2.9526798e-02
 -6.3486993e-03
 -3.6508162e-03
  7.6382898e-04
 -1.8736639e-03
 -5.7180030e-03
 -2.0553771e-02
  2.6702178e-03
  1.4627248e-03
  8.6519644e-02
 -5.2213199e-03
  8.5139126e-03
  1.2135427e-02
 -2.2596352e-02
  2.9572582e-02
 -2.8693741e-02
 -6.9607170e-03
  7.2840583e-03
  8.7534571e-03
 -4.5259923e-02
 -1.1326828e-02
  2.9402336e-02
  3.5350048e-03
  1.8116167e-02
  6.3470122e-03
  4.5372625e-03
  5.1067108e-03
 -4.7473833e-02
 -3.9418861e-03
 -6.9930963e-03
 -1.8743388e-02
 -1.0216005e-02
  1.3615344e-02
 -2.3177415e-02
 -2.8708950e-02
  1.9097410e-05
  8.6800633e-03
 -5.8630764e-02
  3.8591679e-05
  2.0851640e-02
  1.2291193e-02
 -5.3870725e-03
  1.1748590e-02
 -2.4936114e-02
  4.5257169e-03
 -1.7379381e-02
  1.2983615e-03
  4.6666292e-03
  1.4970222e-02
 -1.2156345e-02
  2.5746277e-02
  7.4274071e-02
  1.2016652e-02
 -2.3336800e-02
  3.9313291e-03
  2.3599442e-02
  2.1008553e-02
 -8.0079483e-03
  3.6124955e-05
 -4.2607835e-03
 -1.2943919e-02
 -2.4501221e-02
  7.4228724e-03
  1.4057409e-02
 -8.2986918e-04
  3.0722187e-03
  9.9385781e-03
 -1.1219550e-03
  5.7870126e-03
  5.8816712e-02
 -4.7553079e-03
 -1.3536783e-03
  2.0816579e-02
 -4.5700734e-03
 -2.0397142e-02
  3.0908717e-03
  1.2439159e-02
 -1.5762910e-02
 -7.6334313e-02
  5.2279327e-03
 -4.0362692e-03
 -4.2067856e-02
  5.5337113e-01
 -4.9036106e-01
  4.3226799e-01
  4.6676914e-03
  1.0457282e-01
 -9.7286947e-02
  1.3319126e-02
 -6.4205819e-01
  5.2913159e-01
  1.9552864e-03
  2.6028002e-02
  1.1818020e-02
 -6.8520643e-03
  1.2090388e-01
  1.1373502e-02
 -1.3412578e-01
 -7.5978048e-02
 -7.9351580e-03
 -1.0811515e-01
 -6.3501082e-02
  1.7298362e-03
  1.0116438e+00
  3.3481948e-02
  1.3637750e-01
 -6.3279523e-03
 -1.1527246e-01
 -1.1958095e-02
 -5.1701501e-02
 -2.7473122e-01
 -2.9810010e-02
 -4.6977037e-01
 -1.7424410e-02
  3.7136625e-02
 -4.0198378e-02
  1.0151064e-01
  1.6186251e-01
  1.2251906e-02
 -6.6887796e-02
  6.0084267e-03
  8.6108483e-03
  1.2668244e-02
 -6.8403937e-02
 -9.9193893e-02
  1.0856490e-02
 -1.2330628e-02
 -4.9261123e-02
 -7.6929750e-03
 -2.4169127e-03
 -2.6294554e-02
 -1.9997455e-02
  9.9420652e-02
  1.4283363e-02
 -1.8791134e-02
 -2.9843094e-02
  1.6749330e-02
 -2.4784926e-02
 -3.5500284e-02
 -5.4524499e-03
  4.0869053e-02
 -6.4812209e-03
 -5.4410966e-03
 -1.1833780e-02
  1.1389879e-02
  3.6888421e-02
  2.7683197e-02
  1.1978899e-03
  2.4862083e-02
  3.7049413e-02
 -4.8249532e-03
 -7.5676502e-03
  4.3438487e-02
 -3.8252622e-02
  1.4984550e-02
  1.3714258e-02
 -3.2033678e-02
  2.9237426e-03
  9.3818852e-04
  1.1445598e-01
  1.1562860e-02
 -1.2403460e-02
 -1.5622200e-02
 -1.2304775e-02
  1.0910180e-02
 -3.5490636e-02
 -1.6368367e-02
 -2.0554278e-02
 -1.5815660e-02
  1.0937817e-02
  2.2749537e-04
  1.7162073e-02
  4.6216669e-03
  8.3176922e-03
 -5.8758078e-04
 -3.9477952e-02
  1.6962312e-02
 -3.2920321e-03
 -9.4368653e-03
  1.2715287e-02
  1.8690458e-02
  4.4283632e-02
 -3.2883752e-03
  4.8451535e-03
 -7.4932403e-03
  1.4548175e-02
  9.3733137e-03
  1.2844349e-03
  1.6588809e+00
  1.1756400e-02
  3.6877688e-02
 -1.9946026e-02
  9.8495539e-03
 -2.4687778e-02
 -8.7482249e-04
  8.7364586e-03
 -1.7240549e-02
  6.0246610e-03
  5.3784039e-02
  9.6647842e-03
  3.3027463e-02
  3.9098831e-03
 -4.6242103e-02
 -7.3271999e-03
 -9.7357398e-03
  3.3844557e-02
 -1.1245200e-02
 -2.9405551e-03
 -1.5342259e-03
  4.7778846e-03
  2.2048496e-02
 -5.1336363e-05
  2.0226492e-03
 -2.0557504e-02
  1.2558509e+00
  5.2467406e-02
 -4.8794916e-01
 -1.6455270e-01
 -2.0559978e-01
 -2.5095085e-02
 -2.9224497e-01
 -8.9089185e-01
 -9.5136917e-01
 -1.8721941e-01
  1.5151967e+00
 -8.3876789e-02
 -1.1798410e-01
  4.8731619e-01
  1.4754114e+00
  6.1682146e-02
 -4.3166232e-01
  1.6480616e+00
  5.3409994e-01
  4.6001703e-02
  2.9295719e-01
  3.0904385e-01
  2.0647910e-01
  8.9509922e-01
  4.8958066e-01
 -2.4464820e-01
  5.2438951e-01
  9.9000913e-01
 -1.0515916e+00
  2.8379810e-01
  3.4388903e-01
  7.1120852e-01
 -9.2007518e-01
  2.0569335e-01
  9.0929830e-01
 -1.1566002e+00
  3.8837555e-01
  2.8359663e-02
 -9.0608597e-01
 -8.3644062e-02
  1.2846302e-02
  2.9930565e-01
  3.5529193e-01
  3.4053999e-03
 -7.0065874e-01
  7.9259998e-01
 -4.8851319e-02
  1.3757651e-02
  8.2341302e-03
 -8.2639568e-03
 -2.2519724e-02
 -1.2807748e-01
  6.0516138e-02
 -2.3422489e-02
  5.0299233e-03
  2.9744908e-02
 -3.3101770e-03
  8.1281969e-03
 -5.0893780e-02
 -2.1398963e-02
  1.1681173e-01
  4.4565648e-03
 -3.1144824e-04
  1.5141708e-02
 -1.8520474e-02
  4.3358491e-04
  8.4447907e-03
 -9.7187892e-02
  4.4198371e-03
 -1.1336162e-02
  1.3314351e-04
 -5.2071661e-02
 -1.0307413e-01
  1.3219760e-02
 -1.4473684e-02
  3.7680276e-02
  8.2033733e-04
  9.2988843e-03
  3.5953291e-02
  1.1215357e-02
 -2.6732949e-03
 -2.3375545e-03
  9.1798482e-03
 -7.2132125e-03
  4.7985762e-02
  2.2605408e-02
 -1.4033949e-03
  1.2443492e-02
 -5.2198273e-01
 -9.5910188e-03
  1.1616321e-02
 -1.6005132e-02
 -6.8419129e-02
  3.2755034e-03
  3.9364593e-03
  2.1410031e-02
 -1.2166573e-02
 -1.4182118e-02
  8.7391585e-03
  1.4962882e-03
 -4.8353961e-03
 -1.9396033e-02
 -5.6505082e-03
 -1.0153878e-02
  4.2365033e-02
  2.5227740e-03
 -3.6819801e-02
  2.5845150e-02
  2.9729806e-02
  6.1912201e-03
 -7.4450825e-03
 -4.4764485e-02
  3.8017936e-03
  1.1666803e-02
 -5.4850420e-03
 -4.5792948e-02
 -4.4834904e-02
  1.5283525e-02
 -9.8676961e-03
 -2.6445484e-02
 -2.2456571e-03
 -2.1625969e-03
 -5.8271857e-03
  5.9371099e-02
 -2.4391338e-03
 -6.6341739e-04
 -4.0464867e-03
  1.2920650e-03
 -1.7535627e-02
 -1.3976503e-02
 -5.6606522e-03
  3.9185868e-03
  1.4664350e-01
 -1.1803541e-01
 -2.1387655e-03
  1.2340317e-02
 -3.1490479e-02
  1.3840650e-03
  6.7001851e-03
 -3.4864696e-03
 -1.3852399e-02
 -2.0897636e-02
  1.4576294e-02
  8.1104122e-02
 -4.6489574e-04
  2.1796726e-02
 -1.5320200e-02
 -2.0842857e-03
  7.5095642e-04
  1.2742119e-02
  9.3676709e-04
 -3.9316909e-03
  1.2002610e-02
  2.4697693e-02
  7.3204720e-03
  6.1206594e-02
  9.0421580e-02
  5.2056268e-02
  7.1847402e-02
  3.3874798e-03
  1.7748392e-01
 -1.6643535e-02
 -7.0775510e-03
  1.2662633e-02
 -4.9943209e-02
  2.0858822e-03
 -2.5290246e-03
  1.2171266e-02
  4.0821317e-03
 -2.3698814e-02
  7.5631067e-03
  1.2126211e-02
 -7.5136108e-04
  1.8413506e-02
 -1.0662139e-02
  2.3213428e-02
  1.6840625e-01
  2.1818606e-02
 -2.9176059e-01
  2.1369398e-01
  1.0065997e-01
  1.7005241e-01
 -9.7961137e-03
 -4.0129864e-01
 -8.3460137e-03
 -2.3070799e-02
  1.3756305e-01
 -4.4774298e-02
  4.9104524e-01
 -1.9895472e-03
  2.6488000e-01
  2.9726905e-01
  3.9132182e-02
  3.5611525e-02
  2.5847650e-01
  2.4197043e-01
 -3.3767547e-02
  4.9778494e-01
  3.5680568e-01
 -7.7466153e-02
  1.7476900e-01
  2.8741712e-02
  1.4570101e-01
  3.6869335e-01
 -4.9665100e-03
  1.4279664e-01
  5.2234247e-02
  4.3142274e-01
  7.2551435e-03
  1.0367297e-01
 -7.8874803e-04
  1.2559198e-02
  1.6057533e-01
 -8.3939597e-02
  1.4957683e-02
 -1.1296158e-01
  3.9641514e-02
  1.0782854e-01
 -4.3508300e-01
 -2.4958421e-02
  2.7513569e-02
 -2.1039827e-01
  2.2303276e-02
 -2.0016156e-02
 -2.7145635e-02
  1.4181750e-02
  2.4975862e-02
  4.1772895e-02
 -3.5232645e-01
  1.7229162e-02
 -4.1799143e-02
 -1.8736666e-02
  4.1638069e-02
  1.2040562e-02
 -4.3043252e-03
 -2.8583843e-02
  1.9102995e-03
 -4.9838971e-02
  1.3360367e-02
 -1.2409645e-03
  5.6486044e-02
  1.0782367e-02
 -4.5339540e-02
 -2.2046608e-03
 -6.6521568e-03
  5.5314484e-04
 -1.6991518e-02
 -1.2111592e-02
 -3.9045680e-03
 -8.2642743e-03
  3.1053940e-02
 -4.0718712e-02
 -2.5015453e-02
  1.8772362e-02
  5.2110632e-03
 -3.7783336e-02
 -3.7239706e-03
  1.4697841e-02
  8.1673972e-03
 -1.1547185e-02
  5.3743036e-03
 -4.5432709e-03
  3.8036238e-02
  1.5399275e-02
  2.7139211e-01
 -8.8062412e-01
 -1.2939881e-02
 -2.7356634e-01
  6.3133554e-04
  5.4603610e-02
 -4.9256082e-03
 -7.8879118e-02
  1.9908563e+00
  4.9484419e-03
 -1.4411597e-02
 -6.0311860e-01
 -5.9736297e-03
 -5.9357353e-02
 -6.3683227e-02
 -9.0094544e-02
 -1.7739186e-02
 -1.4846401e-02
 -4.6732137e-03
 -2.1130968e-02
  3.3768300e-02
 -2.7031761e-01
 -3.2537416e-02
  1.7523650e-02
  1.5333357e-02
  1.1037250e+00
  2.1852713e-02
  2.0965092e-02
  7.3306859e-03
  6.4836457e-02
 -3.0712724e-02
  4.2415896e-04
  1.4664015e-02
  2.0012429e-02
 -1.6948471e-02
 -4.8961706e-02
  1.3448233e-02
  5.0531039e-03
  4.3098312e-03
  1.0342801e-02
 -8.0413800e-03
  2.7981181e-02
  1.0307727e-02
  2.4247296e-02
 -7.2169417e-01
 -4.1187191e-01
  6.9632953e-01
  9.3487537e-01
 -4.4795594e-01
  6.6160522e-02
  1.5334610e+00
 -1.2019537e-01
  5.9351873e-01
 -7.1798645e-02
  1.7558275e-01
  5.1851128e-03
 -5.1073068e-01
  4.1728034e-03
  8.9813226e-01
  1.0202625e-01
  7.0904416e-01
  8.0749744e-01
  1.5042971e-01
  1.6294749e-02
  1.2113478e+00
 -1.9655707e+00
 -1.6526528e-02
 -7.6711518e-01
  1.0535274e+00
  1.0148559e-03
 -1.5127406e-02
 -9.3510807e-01
  5.0209278e-01
  8.1009917e-02
  9.5296621e-01
  3.1912684e-01
 -4.7019958e-01
  5.6940675e-01
  3.4021541e-01
  5.5378671e-03
  9.8555672e-01
  5.7966271e-03
 -2.9045972e-03
 -2.5262111e-03
 -1.2456179e-02
  3.3296879e-02
 -5.6104010e-01
  1.8643945e-02
  1.6648153e-02
 -3.0224459e-02
  3.3181749e-02
 -4.6718768e-03
 -1.5875566e-01
  7.5889612e-03
 -1.1358657e-02
 -1.8994141e-02
  5.8835070e-03
  4.5941755e-02
  1.1941778e-02
  3.8464230e-03
  8.3428342e-03
  5.2569047e-02
  2.5175553e-04
  3.8981496e-03
  2.1130189e-03
  2.6017257e-03
  1.1490383e-02
  4.2919214e-03
 -3.3962205e-02
 -7.1653342e-03
 -1.1761751e-02
  8.7307906e-03
  5.6863632e-03
  2.8547591e-03
 -2.4916062e-02
 -2.7887991e-03
 -3.6933213e-02
  7.8564845e-03
 -1.4416189e-03
  2.5398254e-02
  3.2989655e-02
  1.5514367e-02
  6.0524227e-04
 -1.3845302e-01
 -2.6063520e-02
  2.3595376e-03
  1.8098090e-03
 -1.3391855e-03
 -1.8734099e-02
 -2.9783985e-03
 -4.3841167e-03
  1.7338870e-02
  1.7262475e-01
 -5.8194721e-01
  5.8350745e-03
 -4.3054331e-02
  8.9141373e-03
 -7.8265987e-02
 -2.4515211e-03
 -1.6676012e-02
  1.1033300e-01
 -7.2849360e-03
 -1.6418330e-02
  2.5922384e-02
 -2.0364258e-02
  2.7603645e-02
 -9.8850895e-03
 -2.9068012e-03
  1.7519331e-02
 -7.8221662e-03
 -1.3261761e-01
 -1.6217518e-03
 -1.7826911e-02
  7.1730301e-02
 -6.5495640e-02
  5.5152858e-03
 -2.0990882e-03
  4.8040664e-03
 -2.1032896e-02
 -1.4793752e-02
  5.8501069e-03
 -1.0047057e-01
 -2.7589146e-03
 -2.0646313e-02
  7.4699945e-03
  2.0828560e-02
  3.4660152e-01
  2.6179678e-03
  1.3338447e-02
 -1.1538414e-02
  9.4725089e-03
  4.6553738e-02
  3.1410687e-02
  9.9654593e-02
 -4.4297054e-02
  2.2240069e-02
  3.6265820e-01
 -3.9147392e-02
 -8.7018698e-02
 -4.1096532e-03
 -8.2807846e-02
  1.8998636e-02
 -1.5551841e-02
  7.5736082e-01
 -1.0218989e+00
  2.1663718e-02
 -3.2557476e-02
  1.8660853e-02
  2.6022119e-03
 -8.7338714e-03
 -6.1343523e-04
 -4.9398504e-02
 -2.5461705e-02
 -3.9845645e-02
 -4.3976624e-02
 -9.6117318e-02
 -1.2555771e-02
 -3.1314263e-01
 -7.1022175e-02
  7.8033239e-02
 -3.2505862e-02
  6.3059762e-02
 -2.2824872e-03
  2.5819601e-03
 -2.5204960e-01
 -1.3676552e-02
 -8.7218648e-03
 -2.2261454e-02
  1.8999919e-02
 -1.0349547e-03
 -3.0029708e-01
 -2.4686933e-02
 -1.1575143e-02
  2.5417250e-02
  6.4573758e-03
  1.5738496e-01
  2.4622146e-02
 -6.1146822e-02
  7.4380627e-03
 -1.8682238e-02
  2.6431292e-02
  1.4608233e-02
  2.3424413e-02
  1.2170407e-02
 -7.0908871e-03
 -1.9308175e-03
 -9.1604860e-03
 -1.8904857e-02
  3.9654601e-02
  7.9400046e-03
 -1.4615081e-02
 -7.4709222e-02
  1.3857864e+00
  1.0834243e-02
 -7.4102622e-03
 -1.0512553e-02
  1.9362297e-02
 -1.8917505e-02
 -9.3893148e-03
  5.7066134e-03
  5.8041634e-03
 -1.0045416e-02
  1.6809750e-02
  6.1195735e-02
  7.9439487e-03
  2.5826797e-02
  4.0323831e-02
 -2.2964396e-02
  1.3049079e-02
 -8.6004883e-03
  3.7631031e-02
  3.3539314e-02
 -1.5144311e-02
  6.7786574e-02
  1.7386239e-02
  1.6110532e-02
 -5.5555757e-02
 -9.2146482e-04
 -3.6155716e-01
 -3.1656928e-02
 -1.8812560e-03
  3.9260194e-01
 -4.0329155e-04
 -3.9511055e-02
 -4.1130111e-03
 -1.3714695e-01
  1.0754705e-02
  2.4462901e-01
 -4.9274184e-02
  1.6494770e-01
 -1.7760757e-03
 -4.6218295e-02
 -1.5506949e-02
 -4.0102717e-02
  3.9992933e-03
  3.0295039e-03
 -1.6286105e-02
 -1.0913558e-02
  1.0604640e-02
 -1.1404122e-01
 -2.4591953e-02
  1.4653577e-02
 -2.6519233e-02
 -2.5704834e-03
  1.2510937e-02
  2.5898793e-01
 -1.8458094e-02
 -3.5538651e-02
  9.5626578e-02
  2.6963877e-02
 -9.4239637e-03
 -3.0262861e-02
  8.0518443e-03
 -1.1863334e-02
  6.3322438e-03
 -9.2088087e-03
 -1.4045894e-02
 -1.0704331e-02
 -8.7939547e-03
  6.3202726e-03
 -1.5928008e-02
 -1.4150055e-02
  7.6766778e-04
  3.8183196e-03
 -2.7617845e-03
  6.9453873e-02
  6.8846238e-03
 -2.6666144e-02
  7.9207405e-02
 -5.6248713e-01
  3.8769306e-03
 -4.0527206e-02
 -4.4314120e-02
 -6.2994920e-02
  4.3226662e-03
  3.0468595e-01
 -1.0133253e+00
  3.7884157e-02
  2.1160189e-03
  9.5376687e-04
 -4.2885551e-03
 -1.1001557e-02
 -3.3996953e-03
 -8.2580552e-02
  1.3558969e-01
 -1.1018814e-02
  2.1551340e-03
  1.3028008e-02
  3.8718826e-03
  3.5970723e-03
 -1.7567964e-02
 -1.3525350e-01
 -1.6426034e-02
 -1.5569110e-02
 -5.9831291e-03
  1.2382713e-02
 -1.6221553e-02
 -2.7405674e-02
  2.8680000e-03
  2.9744117e-02
  1.4367273e-02
 -5.0506853e-03
  1.2928387e-02
 -3.3200841e-02
  1.2792749e-02
  6.2604398e-03
 -2.9390249e-03
  1.5026466e-03
 -2.7425013e-02
  9.7817527e-03
 -1.8736737e-02
  4.5734434e-03
  1.7425002e-01
 -4.0692693e-01
  8.9819156e-02
 -2.8973287e-01
 -3.3343256e-01
  1.3997881e-01
 -2.3769885e-03
  1.9860277e-02
  1.3759978e+00
  1.1495762e-03
 -2.1956263e-02
 -1.8947504e-02
 -2.2525532e-02
  3.8540384e-03
 -1.6582336e-02
 -5.8888167e-04
 -1.3197868e-01
  2.4383368e-03
 -1.2107114e-02
 -1.7052457e-02
  1.2330734e-02
 -7.1028300e-02
 -3.3478294e-02
  4.0865976e-02
 -2.2987519e-01
  3.3457905e-02
 -2.9331489e-02
 -5.9507355e-02
  9.5428628e-01
 -5.5464018e-02
 -7.8762390e-02
 -1.1381316e-01
  4.6660192e-02
 -2.9094562e-02
  1.9197075e-02
 -3.6674447e-02
 -5.8808383e-02
  2.8716130e-02
  5.8237109e-03
  8.2142483e-03
  6.8281603e-04
 -1.0455381e-02
 -1.7908827e-03
  2.4997611e-02
 -4.4802492e-03
 -1.9618655e-02
 -1.3074121e-02
 -1.0566371e-02
 -1.2350881e-02
 -9.2107719e-03
  9.6621543e-01
 -1.3554832e-03
 -4.4571082e-03
  4.6224952e-02
  2.2257906e-03
  1.8526023e-02
 -3.4141527e-03
  1.2597933e-02
  3.2426903e-03
  5.3526596e-03
 -4.8282702e-02
 -3.4893956e-02
 -2.1676470e-02
  3.5056524e-02
 -1.3213097e-03
  7.5332467e-03
 -4.0068896e-04
 -1.3640035e-03
  2.2275267e-02
 -2.6139311e-02
 -1.1599539e-01
 -1.7407000e-02
 -2.4766088e-02
  8.8798199e-03
  3.8420651e-02
  1.6728520e-02
  7.3844343e-03
 -2.6932938e-02
 -2.0892588e-02
 -4.4115512e-03
 -7.7091940e-03
  6.3746981e-03
 -2.8165920e-02
  9.8641505e-03
  8.2612596e-03
  1.1463668e-02
  5.5711484e-03
 -3.4541573e-02
  1.0668776e+00
 -4.7005403e-01
  9.1403693e-02
 -6.0576536e-02
 -1.8639708e-01
 -1.3102498e+00
 -6.4962253e-02
  4.2556638e-01
 -2.9540855e-01
  3.0262819e-02
 -6.9811279e-01
  2.9098868e-01
 -6.0450230e-02
  1.1764555e-01
 -4.7033560e-01
 -1.0800053e+00
  5.6118780e-01
 -6.0113770e-01
 -6.2266701e-01
 -3.0932149e-01
 -7.6123491e-02
 -1.7024125e-01
 -4.6029624e-01
 -1.6299635e+00
 -1.6199019e+00
  4.6433327e-01
 -2.5760671e-01
 -5.6217682e-01
 -2.1594137e-01
  1.7065369e-04
  7.0202917e-01
 -1.2060727e+00
  2.4076623e-01
 -2.8476719e-02
  3.5175744e-01
 -4.5996448e-01
 -3.1027557e-02
  9.3315169e-03
 -4.5440175e-02
 -7.0103924e-03
 -1.1953045e-02
 -1.1108162e-02
 -3.1018698e-01
 -9.7696083e-03
 -7.4772612e-04
  3.0395696e-01
  1.0254525e-02
 -7.4082956e-02
 -6.5241028e-03
 -3.7737440e-03
 -3.2333713e-03
  6.9063623e-03
  8.0554903e-02
  1.0028450e-03
 -1.8986840e-02
  2.5294101e-02
 -3.0551083e-02
 -2.4783837e-02
 -1.2027487e-02
  1.7635377e-02
  2.7513063e-02
  1.1327337e-02
 -1.2934811e-01
  8.6860824e-03
 -1.3924137e-02
 -3.5889978e-03
  2.7625680e-02
  5.2999444e-02
 -3.1144212e-03
 -1.3405301e-02
  8.2828384e-03
 -2.2636200e-03
 -2.8120608e-03
  4.0043741e-03
  1.7782319e-02
 -1.3545046e-02
 -5.8219418e-02
 -7.6324292e-02
 -7.8521365e-01
  7.1857921e-03
 -1.3005303e-03
 -8.3372090e-03
 -1.9384889e-02
 -2.6175020e-02
 -4.6150293e-02
  5.3668050e-03
 -8.1414096e-03
 -6.8479576e-03
 -3.2362215e-02
 -5.3075439e-01
 -9.9553932e-03
 -4.1250017e-04
  3.8113948e-02
  5.9704017e-04
  1.1111750e-02
 -3.9985344e-02
  2.3865785e-02
 -5.8760988e-03
  2.2389265e-03
  4.5799725e-02
 -2.8267577e-02
 -1.8074898e-02
 -3.0464898e-03
  3.3037748e-02
  2.0974120e-03
  1.8890543e-02
 -9.9125113e-03
  6.0011692e-02
 -4.9111515e-04
 -2.8211600e-03
 -4.4518918e-02
  3.4271707e-03
 -4.8997205e-02
 -1.2694594e-02
 -7.1979692e-04
 -4.1943412e-02
  1.5889928e-02
 -1.4867287e-03
  1.1762341e-02
  2.9741307e-03
  2.3028003e-03
  1.7457815e-01
 -5.2450839e-03
 -3.2261220e-01
  1.7348232e-02
  8.4043508e-03
 -8.8289985e-03
 -2.5469288e-02
  8.4319469e-03
  1.8268006e-02
 -4.4247925e-02
 -6.0951296e-02
  1.0123055e-01
  7.5628006e-01
 -3.2129005e-01
  2.0476526e-02
 -5.3894492e-03
  3.6648281e-02
 -1.2747354e-02
 -1.3217789e-01
  1.3116001e-01
  2.0000339e-02
  2.5139529e-02
  1.1968290e-02
 -1.6762696e-02
 -2.4203563e-02
 -1.7455509e-02
 -1.5168317e-02
 -1.3281477e-02
 -1.0158310e-02
  2.1811454e-02
 -3.6622710e-03
  1.2829280e-02
  1.2459983e-02
 -6.7610279e-02
  1.1995082e-02
  8.1515573e-03
  1.0876349e-02
 -1.1951295e-02
 -1.2944104e-02
  2.8943647e-02
 -1.6444363e-05
 -6.6779146e-04
 -1.0174985e-02
  4.0547624e-03
  2.3636345e-02
  1.5708517e-02
 -3.2350689e-02
 -3.9565578e-02
 -1.8642111e-02
  1.2981853e-02
  7.9013687e-03
  1.0265466e-02
 -1.6888596e-02
 -7.9968825e-02
  2.7691317e-03
 -8.2843071e-01
  5.4728758e-01
  2.7718467e-01
 -2.2661410e-01
 -1.1067302e+00
  4.4565663e-01
  1.3818253e+00
 -1.5050577e-01
  2.4065247e-01
 -1.6058356e-01
 -2.1677876e-01
 -3.4138832e-02
 -5.1166654e-02
 -2.7170507e-02
  1.8099722e-01
  1.6524945e-03
  2.4398890e-01
  1.8997209e-01
  8.7262586e-02
  4.1930750e-03
  1.0120144e-01
  1.4103569e-02
 -1.4088716e-01
  1.9894843e-01
  3.5765174e-01
  2.3232056e-03
  2.7254757e-02
 -9.8450631e-01
  1.2740948e+00
 -6.4702302e-02
 -1.3212669e-01
  1.4991390e-02
 -1.6338605e-02
  6.3961945e-02
 -2.4825146e-02
  2.8288458e-02
 -5.3001489e-03
 -1.0751469e-02
  1.3145592e-02
  3.4171265e-02
 -2.2076640e-02
  6.9789058e-03
 -3.3067878e-02
  7.0752008e-03
  2.6197308e-01
  3.2376763e-01
 -4.6463507e-01
  5.5320561e-01
 -2.4828173e-01
 -2.0524229e-01
 -8.9205360e-01
  4.6132244e-02
 -3.3626425e-01
 -8.9069463e-02
  1.6839892e-02
 -3.3647165e-02
  9.4305940e-02
 -5.7792270e-01
 -4.8557532e-01
  5.7146347e-01
  4.2033669e-01
  1.8216485e-01
  3.1639610e-03
  5.5885833e-04
 -6.4912176e-01
  9.1826671e-01
 -4.4952685e-01
  1.1223257e-01
 -9.7278981e-03
 -1.0861003e-01
 -1.5661083e-01
 -3.5980451e-01
 -6.9261342e-01
 -2.1960090e-01
 -1.3251062e-02
 -4.5447282e-02
 -4.0742785e-01
 -1.4235547e-01
  6.2960900e-02
 -3.2647368e-02
 -2.8379938e-01
 -1.0652036e-02
  1.2949256e-02
  1.4663728e-01
 -2.3270767e-02
 -1.8394631e-01
  1.9137588e-01
  3.6695357e-02
 -1.0642227e-02
 -2.6811793e-02
  6.3075364e-02
 -3.7727240e-02
  4.6867259e-02
  1.3230372e-02
 -9.9163614e-03
 -7.2675548e-03
 -2.0590641e-02
 -1.6196994e-02
 -3.0510232e-02
  1.6535535e-02
 -1.8019656e-02
 -3.6477927e-02
 -6.8595018e-03
  9.5058803e-04
  3.3847187e-02
  1.4820605e-02
 -5.5620078e-02
 -3.0579370e-02
 -1.0130868e-02
  1.0500925e-01
  9.5384438e-03
 -4.7254795e-03
  4.7246646e-03
 -1.8285368e-02
 -5.4709461e-02
 -9.0221455e-03
  3.9780535e-02
 -1.2477330e-02
  3.1161942e-03
 -3.8035490e-02
  3.3362489e-02
  1.1708576e-02
 -6.6288230e-03
  9.5596099e-03
 -2.0092364e-02
  6.8738861e-03
 -5.3190719e-03
 -1.7517943e-02
 -5.3560184e-03
 -2.9838806e-02
  2.6149336e-02
  3.3908268e-03
 -1.2692002e-02
 -2.1723078e-03
  2.8146842e-02
  2.5154194e-02
 -5.2521601e-03
  8.3707683e-03
  1.1165992e-02
  1.8831376e-02
  5.0514974e-02
  1.8271126e-02
 -1.4721407e-02
  1.5733413e-02
  1.5482658e-02
  3.9564217e-03
  1.2097789e-02
  4.6234988e-02
  1.1202693e-02
 -2.6964707e-02
 -3.0216344e-02
 -4.4438886e-03
 -1.9425055e-03
 -1.2575126e-02
 -6.8191644e-03
  2.5936564e-02
 -2.4135873e-02
 -4.5627952e-02
 -1.4207820e-02
 -6.0048439e-02
 -6.2189423e-03
  2.5526911e-02
  4.8030429e-02
 -6.6123949e-03
 -8.0461148e-03
  1.4756507e-02
 -2.0250302e-02
  3.1409035e-03
  4.7236630e-03
 -5.2143070e-03
 -2.1741334e-02
 -2.0161271e-04
 -4.3637421e-02
  5.6870725e-02
 -2.0980243e-02
  7.6076398e-03
  1.6656162e-02
 -5.7783868e-02
  1.0438052e-02
 -3.0421022e-02
  2.4493126e-02
 -5.9322494e-01
 -1.1944965e-02
 -1.6048796e-02
 -3.0199926e-02
  3.8557425e-02
  6.5115830e-03
  2.1434858e-02
  2.3626979e-02
  3.6244509e-03
 -1.3317921e-02
  5.9137335e-03
  1.4002307e-02
 -2.2492707e-03
  5.1037315e-03
 -5.2275881e-02
  1.4928635e-02
 -8.4171090e-03
 -5.8544241e-03
  4.4752259e-02
 -2.1775335e-02
 -4.1088108e-03
 -1.3181138e-02
  5.4183431e-02
 -2.8095635e-02
  1.7842598e-02
 -9.8412409e-03
 -2.1387761e-02
  1.0412763e-02
 -5.9351372e-03
 -1.9651121e-03
 -1.1202188e-02
 -1.5238011e-02
 -2.5564279e-02
  4.0126365e-02
  7.4087712e-04
  3.1394627e-02
  1.8895548e-02
 -3.4433967e-03
  3.0966811e-03
  2.4824329e-02
 -2.9212996e-01
  2.7827168e-01
  3.9082829e-02
 -3.0502409e-01
 -1.5808444e-02
  7.7191070e-02
 -9.7564586e-02
 -1.2566838e-01
  1.4101136e-02
  1.0717312e-01
  4.8462320e-03
 -2.1876071e-03
  1.1086987e-02
  2.1324238e-01
  1.1711596e-02
  5.5572256e-02
 -2.9855869e-03
  1.0073137e-02
 -2.4193700e-02
 -1.8085507e-03
  6.3480362e-03
 -2.5694114e-03
 -1.2698291e-02
  3.6225282e-03
 -2.5065536e-02
  4.5995865e-02
 -6.5497309e-03
  6.4841554e-02
  3.4072198e-04
 -1.0590060e-02
  8.1286365e-03
 -1.3094680e-02
  3.1328887e-02
 -2.2216886e-03
  5.3469016e-04
 -3.1178724e-02
 -1.4722778e-02
 -1.1393727e-02
 -2.3233632e-02
  3.3840891e-03
 -1.4587663e-02
 -2.5440751e-02
 -1.1242156e-02
 -3.9486695e-02
  8.5348189e-03
 -3.1777993e-02
  1.3065307e-02
 -1.5496979e-02
 -7.7788398e-02
 -1.2235468e-02
 -3.9759457e-01
 -4.5936681e-02
  5.8261515e-03
 -1.0172687e-01
  8.7712537e-03
  1.7337775e-02
  3.7618045e-02
  2.2879589e-02
 -2.7191339e-02
 -6.9031948e-03
  2.8590381e-01
  1.7361357e-03
 -9.6176118e-03
 -8.8569857e-03
  1.8544504e-02
 -1.3639706e-02
  6.2008617e-03
  2.7077808e-03
 -3.9873626e-02
  5.0906561e-02
  1.5098669e-01
  6.8940461e-02
  6.1600588e-02
  1.6511733e-02
  1.4391259e-02
  2.0058427e-02
 -6.6457149e-03
 -7.6994738e-03
 -6.2211039e-03
 -7.6020556e-03
  2.8344339e-02
 -6.2587131e-03
  3.5498817e-02
  1.9300850e-03
 -7.5512775e-04
  2.2226623e-01
  2.0325180e-02
 -3.7929031e-01
 -5.3274453e-01
 -1.2192476e-03
  2.1416603e-03
 -1.2317016e-01
 -2.1206778e-02
 -3.0670701e-02
 -5.7149565e-01
 -2.9888201e-01
 -2.6091082e-02
 -2.7305743e-02
  1.4474809e-02
  1.4265588e-02
 -3.5258999e-01
  4.9142698e-03
  1.9411780e-03
  1.0038346e-02
 -1.0586408e-02
  4.0685337e-02
 -9.3136225e-03
  7.9289102e-04
  3.9839793e-02
 -5.7907742e-02
  7.7048934e-04
 -3.6703233e-02
  2.9356254e-03
  1.7735497e-03
 -1.6777225e-02
  1.8039238e-04
 -9.4932318e-03
 -6.2436094e-03
 -1.1783091e-02
  2.0002531e-02
 -6.0001694e-02
 -2.6270352e-02
  7.5524379e-03
 -3.3069311e-03
  2.9112259e-02
  8.1650615e-03
 -3.5152035e-03
 -5.5674173e-02
  1.7423101e-02
  1.6128536e-02
  1.8069395e-03
  2.1717181e-02
  5.5977672e-01
 -6.9712766e-02
 -1.3026185e-02
  1.9686649e-02
  2.7553760e-02
  2.1827824e-03
 -7.3032212e-03
  6.5035172e-02
  6.6530760e-03
 -6.3010221e-03
 -1.6515780e-02
 -8.8261217e-03
  1.2843421e-02
 -3.1599151e-03
 -8.8356547e-03
  3.3844687e-02
 -1.3334498e-02
  2.3667863e-02
  8.7192774e-02
  6.2527503e-03
 -8.5368343e-03
  5.1170127e-03
  2.2974364e-02
  2.4079442e-02
  1.0448596e-02
  1.3802209e-02
  2.3986412e-02
 -5.8193030e-03
 -1.7247640e-02
  6.9959420e-03
 -1.5248556e-04
 -3.1055307e-02
 -3.7209159e-03
  1.2594525e-02
 -3.4843717e-02
 -8.2081258e-03
 -3.3053376e-03
 -1.3137708e-02
 -2.1492500e-02
  5.4397173e-03
  7.8560049e-03
 -1.1375653e-02
 -1.2728466e-02
 -6.4719841e-02
  1.0237947e+00
 -1.6210065e-03
 -3.3562419e-01
 -6.9048814e-02
  3.9324049e-02
  6.8494335e-02
 -7.9537433e-01
  3.0490013e-02
  1.7244232e-01
 -5.1646698e-02
 -8.2395114e-03
  1.1268032e-02
 -1.4167212e-02
  1.5537690e-01
 -1.3494805e-02
  1.0678240e-01
 -2.7174311e-02
 -1.8808480e-01
 -2.2866551e-02
 -9.8714456e-03
 -5.4458803e-01
 -5.8539648e-02
 -6.0152277e-02
  2.4530100e-02
  9.4356164e-02
 -7.7713011e-03
 -5.4823529e-02
  1.1674140e-01
 -6.5523051e-02
  4.4518182e-01
  1.2870747e-02
  3.6459097e-01
  1.1495541e-02
  1.0959050e-01
  8.4259295e-01
 -1.5325266e-01
 -3.3300403e-01
  1.9727990e-02
 -6.2053073e-03
  3.7404550e-03
 -1.3725273e-02
 -3.3009849e-02
 -1.1640507e-02
  1.4156055e-02
  3.5588902e-01
  4.4871092e-01
 -1.2586175e-01
  8.0164857e-03
  4.8777009e-03
  5.1647872e-01
 -2.7261589e-02
 -6.0090470e-01
 -6.4196967e-02
 -5.3018782e-02
 -1.5585713e-02
 -4.5171715e-02
  1.0730353e-01
  1.2680277e-01
  5.9913535e-02
 -1.0434087e-01
  4.8337054e-01
  2.8447559e-01
  3.2606225e-02
  4.3824945e-02
  3.6397195e-01
 -1.8749708e-01
 -2.7085435e-01
  2.8031912e-01
 -3.2771212e-01
  1.1846892e-02
  6.1354656e-02
  3.9592594e-02
 -3.1737886e-02
  1.7517509e-01
  1.7140520e-01
  3.1964195e-01
  2.4379033e-01
  2.3517905e-02
  9.8431170e-02
  3.2180633e-02
 -1.1596555e-01
  1.0594900e-03
 -2.1084670e-02
  6.6030279e-02
  2.8805283e-01
 -1.8967041e-01
 -1.2289137e-01
  5.8765310e-01
  5.0190133e-01
  1.6599788e-01
  5.6404597e-01
 -7.6202989e-01
  4.2865229e-01
  5.7481968e-01
  1.6887474e-01
 -7.3355007e-01
  1.4815535e-03
 -4.3944374e-01
  7.7211119e-02
  9.8216413e-03
 -1.4599669e-02
 -3.1301135e-01
 -1.6309550e+00
 -8.1143385e-01
 -9.8594075e-01
  8.0836359e-03
 -4.2176884e-01
  4.9836829e-02
 -6.3286477e-01
 -3.1615761e-01
 -2.6415995e-01
 -1.1717294e+00
  2.5844257e+00
 -6.1465949e-01
 -6.7737544e-01
 -1.0151789e+00
 -9.4592667e-01
 -3.6791988e-02
 -1.0964267e+00
  4.1027032e-03
 -2.4297144e-03
 -1.6801709e-03
 -4.8710972e-01
 -5.7637173e-01
  7.1091038e-01
 -6.9874071e-02
  3.9765511e-02
  1.9203380e-03
 -9.8353639e-02
 -1.2360809e-01
  1.7583489e-02
 -1.6447352e-02
  3.5041615e-01
 -1.1632890e-02
  1.3112067e-02
 -1.7454111e-03
 -3.4171909e-02
 -7.2078081e-03
 -7.7505484e-03
  5.6662418e-02
 -6.3133775e-05
  3.9757947e-03
 -1.0614465e-02
 -5.1793414e-01
  1.3159819e-02
  1.3406818e-02
 -1.7722484e-03
  4.2128671e-02
  3.2931499e-02
  2.1807045e-02
 -6.6057574e-03
  3.6064256e-02
 -1.7426169e-03
  2.7096950e-02
  3.0488383e-02
  4.4716237e-04
  1.9408565e-02
 -3.6282283e-03
  1.0457286e-02
 -2.9863494e-02
  1.2603607e-02
 -5.2890129e-02
 -2.0999255e-02
 -5.1673772e-03
  4.8741805e-03
  3.0786479e-02
  3.1955067e-02
 -2.0021949e-02
  2.0633122e-02
 -1.4815580e-02
 -2.0909587e-02
 -1.9192062e-03
 -1.2498756e-03
 -2.6193024e-03
 -1.9389262e-02
  1.7952004e-02
  2.7730027e-03
  1.0157571e-02
 -9.5935473e-03
 -1.9658936e-02
 -1.0179730e-02
 -2.2128122e-02
  2.2811031e-02
 -1.6895339e-02
  5.0215423e-03
 -1.7497022e-02
 -2.0374425e-02
  7.9200920e-03
 -1.0903548e-03
 -2.3096489e-02
 -5.5152490e-03
 -2.7017994e-03
 -6.8439916e-03
 -1.1255186e-02
  8.5707279e-03
 -5.4144957e-03
  1.4658146e-02
 -1.8351248e-02
  3.0194769e-02
  9.9909510e-03
 -2.4864737e-02
 -1.1695706e-03
 -2.8682584e-03
  1.1545975e-02
 -7.5239442e-02
  7.3844362e-03
  2.0604350e-02
  1.2299268e-02
  5.8082152e-02
  1.2457521e-02
  6.5678479e-03
 -7.1825380e-03
 -5.1122005e-03
 -5.1315958e-03
  1.3361169e-03
  1.7107418e-02
 -1.7347446e-02
 -1.0960883e-02
  3.5702188e-02
 -1.4843385e-01
 -6.8364233e-02
 -1.1691826e-01
 -8.6057186e-03
 -1.6255930e-02
  1.1288798e-02
  3.7036097e-01
 -6.2392130e-02
 -1.2343465e-01
 -2.1666987e-02
  8.7505177e-02
 -1.4186112e-02
  8.8824676e-03
 -2.9172447e-02
  1.1074916e-01
  6.4791895e-02
 -6.0410169e-04
  1.6919911e-02
  2.2176541e-01
 -1.6914144e-02
  1.3460937e-01
  4.0056527e-02
  6.9501665e-03
 -2.0581329e-02
 -8.8305224e-04
 -3.7080940e-02
  9.1162622e-02
  1.0830641e-02
  1.8691840e-02
 -1.0755578e-02
  2.7504474e-02
  1.5127626e-01
  3.3434190e-02
  1.2650568e-02
 -1.2874457e-01
 -4.6502501e-03
 -1.0872887e-02
 -9.3239136e-03
  7.4132965e-03
  3.9230371e-03
  4.4743665e-02
  6.2882960e-02
  6.9923988e-03
 -3.1134503e-02
  1.8674817e-02
 -5.9125554e-03
  9.5646791e-03
 -1.6931318e-02
 -1.8182371e-02
  2.5092214e-02
  1.4099187e-03
 -2.1681599e-03
  3.0541087e-02
 -2.3373354e-02
 -2.7215023e-02
 -4.9878387e-03
 -1.1923542e-04
 -2.5767621e-02
  1.0680780e-03
 -2.4818590e-02
  2.5079757e-02
 -4.3860557e-03
 -4.1198111e-03
 -1.7910183e-04
 -6.5422051e-02
  2.4742704e-02
 -7.7339639e-03
 -2.1778425e-02
 -2.3343204e-02
  1.4594454e-02
  7.0362519e-03
  4.8986986e-02
 -9.8175239e-03
  7.7825100e-03
 -1.8960090e-02
  2.0515104e-03
 -9.9824090e-04
  7.3296905e-02
  2.3914404e-02
  6.7016971e-03
  1.5941365e-02
  7.5323820e-02
 -1.2147585e-03
 -3.7148175e-01
 -6.5413071e-04
 -2.1004588e-03
 -2.0819802e+00
  2.2272645e-02
  4.2734640e-03
  3.5244504e-01
 -9.7289002e-01
  1.4023532e-02
  1.8704735e-02
  1.5614823e-02
  1.2708201e-02
 -6.0223769e-03
 -3.6933076e-02
 -3.0383454e-03
  4.1122716e-02
 -5.3801829e-01
 -1.5777849e-02
 -5.2263928e-03
  7.8725892e-01
  2.8133437e-01
 -4.6999464e-03
 -2.6998773e-02
  5.9012347e-01
  5.2795850e-02
  3.7723474e-02
  7.5728819e-04
  6.0385996e-03
 -2.3801203e-01
 -1.5251988e-01
  8.5188188e-03
  2.7248444e-02
 -1.6474521e-01
 -2.6653728e-02
 -1.0953336e-03
 -4.7700217e-01
  1.8905108e-01
  2.2312179e-02
  3.6271416e-02
 -3.6290474e+00
  5.1053989e-01
  1.6669162e-02
  2.9732820e-02
  1.0507098e-02
  5.4605842e-01
 -1.1989923e+00
 -1.1466363e-01
 -1.2601216e-02
 -6.4695174e-01
  7.7731222e-01
 -2.6122551e+00
 -8.4417071e-03
  1.0830601e-02
 -1.3650604e-01
  8.3252238e-03
  3.6710454e-04
 -2.8716257e-01
  6.8023187e-01
 -2.3752569e-01
  6.8443686e-02
  1.0094734e-01
 -8.3652576e-03
 -4.6648127e-01
 -1.3697575e-02
 -7.8955537e-04
  8.7017817e-03
 -5.1099229e-01
  3.7876446e-02
 -8.0129681e-03
  5.0699276e-01
  3.9452356e-01
 -1.1895891e-04
  6.5268695e-02
  3.7962899e-01
 -3.3265229e-02
 -8.7760501e-02
  3.0634889e-01
 -4.5518368e-02
 -2.5707999e-01
 -1.6469301e-01
 -3.3966172e-02
  6.1766993e-02
  4.5318189e-01
 -1.9717807e-01
  1.9824324e-02
 -3.9441770e-01
 -7.4136354e-02
 -1.3442898e-01
 -2.9422811e-01
  1.2634468e+00
 -9.5913905e-01
  1.2422681e-02
 -1.8506300e-02
  1.6334312e-02
  1.2756176e-01
  1.0207323e+00
  7.4876249e-01
  8.4774598e-02
 -6.5068674e-01
  1.5797695e+00
 -3.3631077e-01
  6.2282700e-02
 -3.5683099e-02
  3.1362864e-01
  2.8339385e-03
  7.8419395e-02
 -1.1889383e-02
  5.0722502e-02
 -7.1373032e-03
  8.9080676e-02
 -1.1044488e-02
  1.2186806e-02
 -1.6889617e-02
  1.4784402e-01
  8.4828675e-02
  1.4016188e-03
  1.7572502e-02
  5.9237112e-03
  5.7775602e-02
  1.0244745e-02
 -5.5104174e-02
  4.6255570e-02
  3.0012906e-02
  9.2623420e-03
  3.0974785e-02
 -5.8274325e-02
 -3.4891341e-02
 -1.2656490e-02
  3.2352712e-02
 -4.8313220e-03
 -1.5716860e-02
  4.5916578e-04
  9.7299591e-02
  2.8916612e-02
 -1.7076647e-02
  4.8258692e-02
  9.4809256e-02
 -3.9371055e-02
  1.5508206e-02
  1.7748169e-03
  1.0461543e-02
 -1.2215376e-01
 -3.0013917e-02
 -1.5706744e-02
 -5.1595131e-03
 -4.3057133e-03
  5.9234803e-03
 -2.6182220e-03
  1.2911174e-03
 -3.6135867e-02
 -2.2323865e-02
 -3.0136220e-03
 -4.3568090e-01
  1.2484819e-02
  1.3326705e-02
  2.3680776e-02
  2.5419183e-02
 -7.4543152e-04
 -4.2452823e-02
  2.6657935e-03
 -1.0020731e-01
  2.8312162e-02
 -1.4352111e-02
  4.7294921e-03
  2.5367098e-02
 -2.1765798e-02
  4.1150819e-03
  4.6644025e-03
  3.2332998e-02
  1.6151384e-02
 -1.5749201e-02
  1.8646872e-02
 -3.9558399e-02
  1.7137581e-02
 -4.9100639e-03
  3.4051500e-02
 -3.3421703e-02
  1.6620466e-02
  1.0038510e-01
 -1.9863527e-03
  8.7714996e-03
 -3.7863422e-03
  2.1927375e-02
  7.0010265e-03
 -1.6919389e-02
  2.7447253e-02
 -1.5833497e-02
  4.7834087e-03
 -3.0170707e-03
  1.2865959e-03
  1.3792843e-02
 -2.8204346e-01
 -1.0389085e-02
  1.4465109e-01
 -5.5638486e-01
 -9.4025809e-01
  1.7337142e-01
  2.7599439e-02
  5.9976059e-01
 -5.8896375e-01
  1.1373242e+00
  6.2749040e-01
  9.2464639e-03
 -4.7443520e-02
 -1.1845265e-02
  3.3989090e-02
  3.4985915e-02
 -9.4968006e-02
 -7.5307512e-01
  2.6490418e-02
  9.1847256e-03
 -4.4654947e-02
  9.0301454e-02
 -4.6551627e-01
 -4.3062057e-02
  1.3964435e-01
  3.1395388e-01
  1.6619118e-03
  2.1955620e-02
 -2.4956988e-02
 -3.1729248e-01
  2.6913168e-02
 -1.3576459e+00
  1.8422040e-01
  4.9351277e-03
  8.4919417e-03
  1.4380568e-01
 -9.2678986e-02
  3.9637674e-02
 -5.9864300e-01
  3.3821610e-01
 -1.8900769e-02
  2.2889277e-02
  2.2392279e-02
 -2.7531304e-04
 -1.0751264e-02
 -3.7459455e-02
  2.7357399e-01
 -1.0166919e+00
 -1.6625732e-01
 -9.1690648e-01
  1.9293377e-02
 -3.2343620e-01
 -2.2367223e-01
  1.4683280e+00
 -5.7172889e-01
 -4.4813171e-01
  6.3344035e-03
 -5.4986334e-01
  3.7219618e-02
  1.2426659e+00
  4.2126727e-01
  2.4033561e-01
 -6.9415194e-01
  2.9243900e-02
 -3.1819859e-01
  1.0244983e+00
  1.2746145e+00
  4.0578836e-01
 -1.2724127e-01
  1.7225100e-02
 -9.0956753e-03
 -3.1031121e-02
 -9.9842429e-02
  2.1693818e-01
  5.5209768e-01
  2.3912399e-01
  1.5384001e-02
 -5.2397931e-03
 -6.6142189e-03
 -4.0878111e-01
 -1.8230401e-02
  1.9490807e-03
  2.4893124e-01
  2.6564909e-02
  7.6876404e-03
  1.2309613e-02
  1.1377866e-01
  3.9524326e-01
 -1.4417192e-02
 -1.7661838e-02
 -1.6852099e-01
  5.2898139e-01
  2.4850002e-01
 -4.5303756e-01
  2.0278813e-01
  8.5028464e-01
 -1.2063801e+00
 -2.0654659e+00
  1.0951443e+00
  3.4263954e-01
 -1.2344563e-02
  1.5347195e-01
 -1.2287961e+00
  4.6391597e-01
 -1.1022358e+00
  8.4491915e-01
 -2.8040537e-01
  3.0951408e-01
 -5.3209111e-02
 -1.8167551e-01
 -9.2033488e-01
 -1.5062763e-01
  1.5092623e-01
 -1.2846117e-01
 -1.3108304e-01
  3.9732176e-01
 -9.4234839e-02
 -9.5542304e-02
 -6.3580233e-01
  1.1228764e-01
 -5.0800860e-01
 -1.0733045e-02
 -1.5133446e-02
 -3.8302366e-02
 -4.5563757e-02
 -6.1103351e-02
  1.1459500e-01
 -6.9373034e-02
 -1.7022224e-02
  2.2425229e-02
 -9.2984788e-02
 -3.0144098e-01
  6.4677801e-03
  1.4329483e-02
 -1.7706093e-01
 -2.0334169e-02
  4.8387018e-01
 -4.2517713e-01
 -2.5898117e-01
 -3.0261627e-01
  8.9238837e-02
 -6.9227062e-02
 -2.7468455e-01
 -1.0762743e-01
  2.0045264e-01
 -1.3033700e-01
  6.3391430e-03
 -1.4147686e-02
  2.9836687e-01
  4.3010037e-02
 -4.9667263e-01
  9.2587687e-02
 -1.0231851e-01
 -2.5846606e-01
  6.4086020e-02
  1.7067071e-02
  3.6973093e-02
 -5.7842064e-01
 -1.9506061e-01
 -1.0500175e-01
  1.8874854e-01
 -7.9141244e-02
 -9.8224869e-03
  2.3132674e-01
 -8.1557137e-01
 -2.0666274e-01
  3.3222374e-02
  3.5699736e-02
  1.2022372e-03
 -3.2258846e-02
  5.1736780e-02
 -1.8295441e-02
 -1.0753439e-03
  1.6038422e-02
 -1.2620441e-02
 -2.4044666e-01
  1.3737273e-03
  1.3991903e-01
 -1.2172242e-02
 -2.5022028e-03
  8.3723933e-02
  7.7364701e-03
 -3.3203129e-02
 -1.1142897e-02
  5.4012816e-03
  3.6161363e-01
  2.0728996e-01
 -3.5206899e-02
  3.4267303e-02
 -1.3820010e-02
 -6.3528009e-02
  2.3032962e-03
  1.1770859e-01
  2.7099090e-02
 -2.6627839e-02
 -1.5711470e-02
 -9.7951852e-03
  1.0705677e-02
  1.0246488e-02
  2.9205849e-02
  8.8402212e-02
 -1.0059666e-01
 -9.7752390e-03
 -6.5055587e-03
 -1.5270669e-02
 -3.1377040e-04
 -1.5301816e-02
  3.5831776e-02
  6.5214001e-04
 -4.5000343e-03
  4.4728890e-02
  8.2194980e-04
 -4.0500630e-02
 -3.5024289e-02
  3.0500785e-02
 -7.5352541e-03
  1.0156406e-02
  2.4604125e-02
  9.3156761e-03
 -2.1814061e-02
 -9.5316209e-03
  8.3196096e-02
  1.4048982e-02
 -4.0697420e-01
  1.6088508e-01
  2.7276596e-02
  2.4230531e-03
  6.3954489e-03
  1.2320789e-03
 -1.5968882e-02
  3.5725910e-02
 -3.9720587e-03
  7.5848568e-03
  1.5015489e-02
 -6.3304044e-03
 -2.7236526e-03
  2.5609996e-02
  3.5668548e-02
  1.3360017e-02
  4.2572590e-03
  1.0651916e-01
 -4.4920510e-03
 -3.0776586e-03
 -2.5361940e-02
  9.4342483e-03
 -5.6233618e-02
 -2.1284867e-02
  2.8379891e-02
 -2.9149262e-02
  1.9094996e-02
 -1.6683523e-02
 -3.1610392e-03
  2.6575344e-02
  1.5743662e-02
 -7.2253466e-04
 -2.7991962e-03
 -3.5259284e-02
  2.0837572e-03
  1.2533437e-02
 -1.6701620e-03
  3.5582657e-03
  4.4882307e-03
  3.5555907e-02
  2.4569668e-02
  2.6327595e-02
 -1.5001506e-02
 -1.2713655e-02
  3.9963067e-02
 -6.0171350e-03
  9.5841959e-03
  4.8767617e-03
  2.6681704e-02
  1.3524980e-02
  7.5364672e-03
 -4.7668755e-02
  2.1321857e-03
  4.0658278e-04
  2.9144861e-02
  6.9080079e-03
 -1.5558627e-03
  4.6446349e-04
 -3.9660749e-03
 -1.9751633e-02
  8.1926156e-03
 -9.7671868e-03
 -3.0747359e-03
 -8.3434591e-03
 -4.0811852e-02
  2.2059737e-02
 -1.0688277e-02
  1.5308296e-03
 -1.4663151e-02
  1.7130576e-02
  4.7173865e-02
  5.9384215e-03
  1.7822891e-02
 -1.1662422e-02
 -2.8028777e-03
  1.8801367e-02
  2.3411065e-03
 -6.2439680e-02
 -1.2988106e-02
 -7.5503462e-03
 -7.0085675e-03
 -3.7568416e-02
  1.8073305e-02
  3.1250296e-05
 -4.4685006e-03
  5.7227453e-03
  3.2600898e-02
 -3.0315402e-03
 -6.0881670e-03
 -3.1186757e-03
  1.6166382e-01
  2.0391934e-02
 -3.3868816e-01
  2.6478887e-02
  9.8169968e-03
  2.3777615e-01
  4.1891183e-03
 -1.9603465e-02
 -4.3102372e-02
 -6.0650844e-02
 -2.1747388e-02
  2.2762420e-02
 -8.1125230e-02
 -6.4652964e-02
 -2.7076581e-03
 -1.9716080e-02
  6.1448850e-03
  7.5309575e-03
  2.8587218e-02
 -7.1477741e-03
  9.7738169e-03
 -2.1070840e-02
 -1.0751330e-02
 -1.1012662e-02
 -1.9556326e-03
 -1.2638485e-02
  3.2469928e-03
  6.6763588e-04
  1.5295338e-02
  2.4395850e-02
 -3.4492910e-02
  9.4730692e-04
 -4.4563953e-03
  2.2872111e-02
  5.3859860e-02
  1.4734324e-02
  1.8952839e-01
 -1.3380149e-02
 -2.1278715e-02
  1.1177863e-02
 -3.6851667e-02
  1.1103172e-02
 -3.2148096e-01
 -2.0913869e-02
  1.3466309e-02
  5.6352164e-04
 -1.2608095e-02
 -1.8966220e-03
  4.1264244e-03
 -6.7630716e-02
 -3.4202957e-03
  1.9735883e-03
  8.8016838e-03
 -3.5165939e-02
 -2.6006898e-02
  2.4582397e-02
 -5.4041464e-02
  7.2813854e-03
  2.0227211e-02
 -5.0779190e-02
  1.1061432e-03
  3.7279829e-02
 -7.7866847e-03
  1.8043325e-03
  8.0528506e-04
  5.3796228e-02
 -4.3811258e-03
  3.4591936e-02
 -2.7969185e-02
  3.3432502e-02
  9.0969671e-03
 -6.0012136e-03
 -1.7700620e-03
  3.2878119e-02
 -6.3812146e-03
  6.5438361e-03
 -8.5858312e-03
  1.9074583e-02
 -3.8749045e-03
 -2.2237612e-02
  1.2633396e-02
 -1.1771351e-02
 -2.5258452e-02
 -5.3655696e-03
  7.1979076e-02
  6.9629150e-03
  8.9580556e-03
  1.1602626e-04
  5.8302209e-03
  9.7004687e-03
 -1.5054461e-02
  4.3530203e-03
  7.1445368e-02
  1.6883653e-01
  5.6996169e-03
 -7.4773422e-03
  2.7800946e-02
 -2.4038251e-03
  1.6242782e-02
  6.1667137e-02
 -6.7621514e-02
  3.6131958e-03
  9.9239172e-03
 -1.1797724e-02
  6.6508180e-03
  3.2396264e-02
  1.8961886e-02
 -2.5884392e-02
 -2.7441103e-02
  2.3785815e-02
  5.6448327e-03
  9.2884209e-03
  8.8987760e-03
  1.3070393e-03
 -3.0784521e-02
  2.9909896e-02
 -5.2547073e-03
 -1.4029220e-02
  2.5911328e-01
  2.4297405e-02
  9.4662688e-04
 -2.6941134e-02
  2.5101118e-02
  1.8151756e-02
 -2.2948688e-02
 -4.9940618e-03
 -2.9969260e-03
  3.8413528e-02
  3.0431475e-02
 -4.0612421e-03
  1.8388966e-01
 -8.6621717e-02
 -9.6969038e-02
 -1.4603252e-02
  9.8911859e-02
 -1.6874207e-02
  1.2608681e-02
 -1.8973230e-01
  2.0564541e-02
 -4.7585629e-03
 -1.2339989e-02
 -6.7116455e-03
 -2.7352208e-04
 -8.9301299e-03
  3.4797505e-02
 -7.7848206e-03
  8.0990382e-03
  1.3586952e-02
 -2.4535317e-02
  4.8264572e-03
  1.2802258e-02
  3.8505637e-03
  2.6233114e-02
  6.4976397e-03
  3.4758658e-03
 -4.3720286e-03
  3.0125668e-03
  1.3146382e-03
 -2.0081056e-02
  4.3910034e-02
  6.7572664e-03
 -3.7617296e-02
  8.4684752e-03
 -2.4442451e-02
 -2.6347979e-03
  1.0110575e-01
 -1.1140776e-02
  8.8315096e-04
 -1.1928680e-02
 -1.3733208e-02
 -8.6062122e-04
  2.2376217e-02
 -2.3383364e-02
  1.0506376e-01
 -2.4892080e-01
  1.8317448e-02
  8.7905720e-02
 -6.1584212e-02
 -1.0734975e-01
  6.7744432e-03
 -4.7601275e-02
 -3.5326123e-01
 -4.6901852e-02
  4.5492882e-03
 -5.8935549e-02
 -1.1953511e-01
 -1.0129636e-01
  8.9043647e-02
 -8.5063085e-02
 -4.1608700e-01
  5.6239970e-02
 -1.3735802e-02
 -1.1681788e-01
  1.8980211e-01
  3.0931197e-02
 -5.6224330e-03
 -4.7628817e-01
 -2.4266016e-01
 -9.1978170e-02
  4.3159820e-02
 -9.4298847e-02
  4.5828894e-02
  3.2055980e-01
 -6.1127067e-01
 -3.3003971e-02
  4.0726036e-01
 -7.1299858e-02
  3.5779774e-02
 -2.3268662e-02
  2.2683558e-01
 -3.9408699e-02
 -2.3224044e+00
  4.1776016e-02
 -8.9147195e-02
 -2.8346273e-01
  4.0429693e-02
  1.2757680e-01
 -1.3547069e-01
  1.3330672e+00
 -9.7653389e-01
 -4.0326890e-01
 -1.2362337e-01
 -7.3353934e-01
  3.5474953e-01
 -6.9536400e-01
  2.0387764e+00
  1.0612973e+00
  1.6241235e-01
 -4.9124513e-02
  1.6318586e-01
 -1.4860578e-01
 -6.3842656e-03
  7.5753677e-01
  8.5087913e-01
 -1.6639709e-01
  1.8164720e-01
  9.8020904e-02
 -6.4375854e-01
 -1.2496189e-03
 -4.4626153e-01
  9.5348781e-01
 -9.9755172e-04
  3.7881140e-02
 -6.0075158e-01
  3.4726855e-01
 -1.1429167e-01
  1.9466344e-01
  6.0192454e-01
  5.2821869e-01
 -1.8342681e-02
  4.4117525e-02
 -5.8382499e-01
 -1.3598442e-01
  6.1966691e-02
  7.8278296e-03
  3.8429732e-03
 -5.0776359e-02
 -4.0040769e-02
 -3.6510453e-02
 -2.9637755e-03
 -3.5788089e-02
 -5.3864769e-03
 -4.7285821e-02
 -4.6077345e-02
  6.4674549e-02
 -8.2372725e-02
 -6.0252026e-02
 -1.0741926e-02
  2.5439927e-02
 -1.1423452e+00
  2.3879394e-02
 -8.8027399e-03
  1.5513336e-02
 -8.5743619e-03
 -1.6047223e-03
 -1.3443368e-02
 -1.9406470e-02
 -7.9368688e-03
  2.2984760e-02
 -5.5512823e-03
  2.2487799e-03
 -6.2401383e-03
 -7.5029228e-03
 -1.3375161e-02
 -2.1493776e-02
 -1.5312436e-02
 -1.0443963e-03
 -1.3334879e-02
  7.6086784e-04
  1.6017179e-03
 -1.0589072e-02
  1.8218780e-02
 -1.4087580e-01
  7.9540610e-03
 -1.2460314e-03
 -1.7527554e-02
 -1.0388304e-02
  5.3611500e-03
 -3.2143318e-03
  2.0734721e-03
  1.5766713e-03
 -9.7734705e-03
 -1.1848027e-02
  7.6892627e-03
 -3.1744417e-02
  8.1243426e-02
 -2.8628629e-02
 -1.8966551e-01
 -4.6130147e-02
 -6.5695457e-03
  2.8049171e-01
 -7.5286222e-01
 -5.2444112e-01
  2.7647862e-02
 -1.0194089e-03
  3.2260977e-03
 -1.2614705e-02
  1.9362185e-02
 -9.2602689e-03
  1.3065245e-04
  2.2674152e-01
  3.0542567e-02
  1.6020788e-02
  8.7325044e-02
 -9.7604897e-03
  1.6661756e-02
  1.1094069e-02
  2.3121344e-02
  1.6590396e-02
  1.0085706e-02
  1.1860507e-03
 -7.4481368e-03
  3.4492023e-03
  2.5424916e-02
 -2.8435698e-01
  4.4933647e-02
  1.4086778e-02
 -5.1897816e-02
  1.0272549e-02
 -1.4131380e-03
 -1.1277154e-02
  1.5822984e-02
  3.4968958e-03
  1.2493331e-02
  4.2387549e-02
  7.1983198e-03
 -1.1935752e-02
 -1.7606420e-02
 -3.0801173e-02
 -4.1713309e-03
  4.0575719e-01
  1.3617728e-03
 -7.0173107e-03
  4.5767758e-02
 -3.7057891e-02
 -5.6290224e-02
  1.5396737e-01
  4.8349045e-02
  1.0699971e-02
  2.8701007e-02
 -4.4240758e-02
 -4.3206643e-02
 -3.4795199e-02
 -4.3909539e-02
  2.8377799e-02
 -2.6239704e-02
  5.5366836e-02
 -1.6699448e-01
  8.7270904e-03
  1.2488044e-01
 -2.7429583e-02
  3.5670681e-03
 -5.3143978e-02
 -8.7516509e-02
  1.2004827e-02
  1.5060417e-03
 -2.4734852e-03
  3.1607505e-02
  8.9282561e-03
 -5.0177794e-02
  1.3072161e-02
 -1.0919383e-02
  5.5683469e-03
  1.8154969e-02
 -7.1692066e-03
 -2.6749048e-02
 -5.3013982e-03
  5.9655434e-03
 -1.6550798e-02
 -2.0267349e-02
  1.8987110e-03
  3.0440485e-02
  1.8826022e-03
 -1.2939285e-01
 -1.1010880e-02
 -2.0498176e+00
 -6.2326568e-01
  1.1866575e-03
 -3.4559736e-01
  2.6451036e-02
  3.3767644e-02
  5.6769544e-01
  1.5691847e-01
  4.2984632e-01
 -1.1770082e-01
  5.4191923e-01
 -7.0359267e-02
  9.8945118e-02
  1.0435178e-02
  1.4999583e-01
  2.0467905e-02
  3.6929636e-03
  1.2920366e-02
 -2.3736373e-02
  9.5008634e-02
 -2.7885541e-01
  3.3240795e-01
  3.0999103e-01
  1.7158251e-02
 -5.8556367e-03
  1.0596818e-03
 -2.9613661e-02
  1.9068213e-01
  1.4813954e-01
  1.6047853e-01
 -2.4623495e-02
  3.3789016e-02
  2.2949183e-02
  2.8177289e-02
  2.6551011e-01
 -1.7847676e-02
 -1.6402129e-02
 -2.0861980e-02
 -2.6524882e-03
  1.5347547e-02
 -6.9014942e-03
 -1.4592236e-02
 -4.4777328e-03
  1.2182866e-01
 -9.2167467e-02
 -7.5320190e-01
  4.8005800e-03
 -6.8531034e-04
 -4.7770232e-02
 -2.6535947e-02
  3.7231171e-01
 -2.5892464e-02
 -2.4453128e-02
 -3.0173284e-03
 -3.7906158e-03
  1.6908828e-02
 -2.0686245e-02
  5.8398056e-03
 -4.5829015e-03
  6.0479091e-03
  1.2990117e-02
  9.9799689e-04
  2.8142225e-02
 -5.7155536e-03
  1.9539716e-03
  4.7425795e-02
 -7.2418498e-03
 -3.5975229e-03
 -2.7201928e-02
 -2.4095245e-02
 -1.1951013e-02
 -6.6272728e-03
 -1.3666006e-02
  1.8917967e-02
 -2.0659240e-02
  1.0232682e-02
  6.1108507e-03
  2.7058236e-02
  6.9118324e-03
 -1.8870112e-02
 -3.0385319e-02
 -6.3274868e-02
 -7.3031541e-03
  9.7041605e-03
  5.2958000e-02
 -7.3544960e-03
 -3.0521762e-02
 -2.9109569e-02
  5.0969567e-02
 -7.5578302e-02
 -2.4814406e-02
  1.3822784e-02
 -6.4844168e-03
  5.0077215e-03
  3.7262730e-02
 -1.6919542e-02
  2.7413342e-02
  3.1669110e-02
  5.7110041e-03
  7.1459166e-03
 -5.0818403e-03
 -3.9303177e-03
  1.4205458e-02
 -1.8598663e-02
 -1.7380771e-01
  2.8959077e-02
 -1.4606424e-02
 -1.7773487e-02
  5.2293581e-03
  2.2157871e-03
  3.6564387e-02
  3.9452473e-03
  4.0996294e-02
  3.2482177e-02
 -1.9270587e-03
 -5.8663879e-03
  2.1300126e-02
  6.3879348e-02
 -2.6537783e-02
  2.2139266e-02
  1.3902407e-02
  1.2357591e-04
  1.1939458e-02
  1.1394014e-01
  2.9044446e-02
  1.0044820e-02
  1.0142244e-02
  2.4493797e-02
  1.0109566e-02
 -8.2509778e-03
 -5.6448007e-01
 -8.6423743e-01
 -1.1636687e-01
  7.1964681e-01
 -7.9162680e-03
  3.1681871e-01
  1.4621545e-01
 -6.0256344e-01
 -1.7365339e+00
 -7.9100363e-02
  1.0543353e-01
  2.6229119e-01
  1.9330621e-01
  8.5956894e-02
 -6.1192386e-02
 -6.0409788e-02
  6.2802635e-02
 -1.9057933e-02
  1.1035948e-01
  8.1337523e-03
  2.8388092e-02
 -5.7776123e-02
  2.5377030e-02
  6.2007509e-02
  2.9909417e-01
  3.3242872e-03
 -2.0251693e-03
 -6.0140276e-01
  1.8786035e-01
 -5.4061513e-02
  4.0819481e-02
  1.2915080e-02
  4.9922301e-04
 -2.1838810e-02
  5.9156394e-01
 -5.1901974e-03
  1.3478925e-02
  1.4619696e-02
  1.5681997e-02
 -1.7433455e-02
  1.0000835e-02
  3.2768376e-02
 -1.0921241e-02
 -5.1856808e-02
 -4.0000919e-03
 -3.1781778e-02
 -5.4065567e-03
  9.8285582e-03
  2.5962789e-02
 -7.4516930e-02
  1.0002732e-02
  9.2766266e-03
 -3.8737174e-02
 -2.9898435e-02
  2.6251439e-02
  1.6729911e-03
 -1.4612783e-02
  7.3443647e-03
 -2.4506046e-02
  2.1639746e-02
  4.0440634e-03
  2.2949460e-03
  6.9855256e-03
 -1.8230278e-02
  1.4868272e-02
  5.9749694e-03
  1.0476627e-02
  1.2279935e-03
  3.4267912e-03
  5.9725223e-03
 -1.9896119e-03
 -9.5944488e-03
 -6.4820638e-03
  1.3042448e-02
  7.9692891e-03
 -1.5524935e-02
  1.5924431e-02
 -1.2996503e-02
  7.1740493e-02
 -1.5865881e-02
  2.7243996e-02
 -2.0430698e-03
  4.0149763e-03
 -1.5203096e-02
 -3.2006089e-02
  4.2943871e-03
  1.9265817e-02
  2.8994065e-03
 -3.1001620e-02
 -1.0826588e-02
 -2.6147971e-02
 -2.7853029e-02
  1.4191817e-02
 -4.0085703e-02
  8.7371290e-02
 -1.3348372e-03
  1.6820580e-02
  2.8838240e-02
 -2.0816345e-03
 -1.6529998e-02
 -6.8915463e-03
  5.4990124e-02
 -3.7172572e-03
  4.5488965e-02
 -1.8380251e-02
 -2.8693767e-02
  1.9936914e-02
  3.8074650e-02
  4.8629344e-02
  2.1879604e-02
  3.7710205e-02
 -8.0711000e-02
  1.6892150e-02
  1.5611149e-03
  9.4198138e-03
 -3.4295488e-02
 -7.9725273e-03
  2.2368524e-02
 -3.6753189e-02
 -5.9374377e-02
 -1.9284897e-04
  3.4204226e-02
  6.8479152e-03
 -1.4611537e-02
 -1.7919566e-02
 -8.0767320e-03
 -6.8928059e-03
  1.3552269e-02
 -2.6466553e-03
 -1.0365419e-02
 -2.6577910e-02
 -3.3430411e-03
 -5.4115910e-02
  2.0159235e-02
 -2.0089160e-01
  5.8587998e-01
 -2.3269830e-03
 -4.0146902e-01
  3.0970618e-01
  3.6307400e-01
 -2.4049552e-01
  5.6557348e-03
  2.3264071e-02
  1.3760122e-02
 -2.1392792e-02
  3.3004910e-02
  3.5044327e-02
  4.7216280e-03
 -3.9583230e-03
  9.7509520e-03
  2.6621383e-02
  2.2860197e-03
 -1.4934953e-01
  8.1046196e-03
 -1.4212620e-02
 -6.6338710e-02
  1.1523018e-01
 -2.8264317e-01
 -1.0119299e-02
 -6.4863595e-03
 -7.3134447e-03
  1.7337076e-01
  1.6443577e-02
 -2.0570526e-02
  1.3883234e-02
  7.5648585e-03
  2.6184050e-02
 -7.0209121e-03
  4.4353064e-03
 -6.2899301e-03
  3.7992939e-02
  9.5312446e-03
  1.4426782e-02
  2.7064455e-01
  3.6770046e-02
 -3.3239506e-02
 -1.3535719e-02
  2.2263911e-02
  3.5094485e-02
  2.4928117e-02
  1.3704296e-02
  1.6887362e-01
 -1.5857926e-02
 -1.8520685e-02
 -9.2663504e-02
  7.4562700e-03
  2.6620066e+00
 -2.8441979e-03
 -1.5044739e-02
 -3.0343668e-03
  3.7446287e-02
 -1.3624135e-02
 -2.0537842e-02
  1.9810277e-03
  1.2732991e-03
 -5.9267813e-03
 -2.4671979e-02
 -1.6529063e-02
  1.0691499e-02
 -1.5347020e-02
 -5.2593604e-02
 -4.9476936e-02
  1.8999062e-02
 -3.3199273e-02
  5.3360313e-02
 -1.0238059e-03
 -8.1422031e-02
 -7.0298789e-04
  2.0059492e-02
 -1.0100470e-02
  5.8079470e-02
  2.0791341e-02
 -1.5936879e-02
  1.1851870e-02
 -1.9841535e-02
  1.1167875e-02
 -1.2052488e-02
 -1.4029681e-03
  1.3945899e-02
 -7.5019719e-03
  3.8430681e-03
  2.3688624e-02
 -3.9949883e-03
  1.6157952e-01
  7.2599649e-03
  8.8267140e-03
 -1.4362967e-01
 -3.7202641e-02
  4.8913445e-02
  8.3046732e-04
  3.7381798e-01
 -2.5313413e-02
 -3.8531863e-03
  1.5180106e-03
  2.0560305e-04
  3.6382545e-02
  1.3151682e-02
 -4.6109664e-04
  2.5596623e-03
 -1.7991582e-02
  2.1955678e-02
  1.0127214e-03
  1.1666311e+00
  2.6276700e-02
  3.0418824e-02
 -2.7066940e-03
 -1.6217789e-02
  1.1318805e-02
 -7.4910708e-03
 -3.4767974e-02
 -1.9947492e-02
  1.0648578e-01
  3.2561030e-03
 -1.6939361e-02
 -1.0311203e-03
 -2.5070140e-01
 -5.9973460e-02
 -3.9253784e-03
 -3.9209146e-03
  6.6743009e-02
 -2.2625677e-02
 -1.7604353e-03
  2.1835940e-02
 -6.6108175e-02
 -1.4499585e-01
  2.3255296e-01
 -3.6463031e-01
  5.4431731e-01
 -2.2652531e-01
  1.3839224e-02
  7.3194170e-01
 -2.1516280e-03
  3.7133762e-01
 -2.3940437e-01
 -1.7262828e-03
 -3.9925736e-01
 -1.1035795e-01
 -1.7932683e-01
  4.7051415e-02
  5.2793439e-02
 -3.9384803e-01
  1.7608559e-02
 -4.5509839e-01
 -3.4159649e-02
  1.3531692e-01
  5.0419713e-03
 -3.3460388e-01
 -2.8440773e-01
 -7.3820941e-02
 -3.8566370e-04
  3.2530394e-01
 -3.6713305e-01
  8.8575013e-02
  6.2002128e-01
 -9.1636473e-01
 -2.4814714e-01
  7.6596458e-03
 -1.7494926e-01
  2.4833836e-01
 -3.3221364e-02
 -2.0069468e-01
 -3.4032908e-01
  1.1352789e-02
 -5.0034523e-01
 -2.2105519e-02
 -2.2437972e-01
  4.8747840e-03
 -4.0795477e-03
  3.4029353e-02
  2.4744889e-02
  1.0112735e-02
 -2.4524458e-02
  2.4057338e-03
 -1.4903472e-04
 -8.3900588e-03
 -8.6244680e-02
  1.1452488e-02
  5.1477300e-03
 -6.1841318e-03
  3.4808297e-02
  9.9533148e-02
 -9.6427387e-04
  1.3016414e-02
  2.4351977e-02
 -1.9565227e-02
  2.0592010e-03
  2.2995021e-02
 -5.1245294e-03
 -1.1255537e-02
 -8.2923174e-03
 -1.1148172e-02
 -1.6173879e-02
 -1.9431959e-03
  2.3702802e-03
  7.8640217e-03
  1.3210949e-02
 -2.5146360e-02
  1.0274787e-02
  1.6023874e-01
  1.8519033e-03
  2.5567021e-02
  1.2823882e-02
  2.1458752e-02
 -2.2251209e-02
 -2.4384880e-02
 -2.2056205e-03
  2.3969337e-02
 -4.8886474e-02
  7.2205742e-03
 -1.2700380e-02
  1.2999400e-01
  1.2854680e-02
 -2.1345611e-04
 -8.5620144e-03
  4.4391109e-03
  1.6966306e-02
  5.0126560e-02
 -3.1201448e-02
  1.6603895e-02
  2.1848675e-02
  6.3125271e-01
  9.7135305e-03
 -1.4649400e-02
  8.0488343e-03
 -3.0991780e-03
 -2.7801655e-03
 -2.6695747e-03
  2.9717837e-03
 -7.5314404e-03
  1.3369571e-02
  1.8501941e-02
  6.0206681e-02
 -1.6808880e-02
  1.1514508e-02
 -2.2643745e-02
  6.2031858e-02
  1.6635187e-02
 -5.5394825e-03
  4.2748414e-02
  6.0235378e-03
 -1.3538923e-02
 -1.0271946e-03
  1.2723165e-02
  7.2725400e-02
 -2.9265519e-02
 -1.3485006e-02
  5.6708250e-02
 -4.4631381e-03
  1.3795065e-02
 -1.8338891e-02
  1.4210815e-02
  3.4496342e-03
  2.2398611e-04
  2.6397577e-02
 -1.8015005e-02
  1.8125847e-02
  7.5824233e-03
  6.7816049e-01
  1.7873134e-01
  1.0714622e-02
 -2.0434042e-02
  4.7706738e-01
 -3.5263978e-02
 -2.2237554e-01
  1.0399989e-01
  3.2168343e-03
 -3.7685777e-03
 -1.0183921e-01
 -3.7362032e-02
 -1.8056703e-01
  6.2077487e-01
  4.8653656e-01
 -1.3840456e-02
  7.0152931e-02
 -5.9377169e-04
 -8.7580634e-03
  4.8610958e-01
  7.5020730e-02
  1.9164091e-01
 -6.1023634e-02
 -5.9683405e-02
 -1.7611818e-02
 -1.8052036e-02
 -2.3706992e-01
 -1.5734390e-03
 -2.2627352e-01
 -6.2573008e-02
  2.3765697e-03
 -1.2449897e-01
 -3.0291788e-02
  1.4183989e-02
 -7.6973527e-03
 -3.1115541e-02
  5.2706329e-03
 -4.7571533e-03
 -2.3374287e-03
 -3.6922492e-02
 -5.6093026e-02
  1.9954400e-02
 -1.0107926e-02
 -1.3338379e-03
  3.1746274e-03
  1.3018372e-02
  4.8321865e-02
  9.7839581e-03
  1.6106714e-02
  1.1820827e-01
  2.8444016e-01
 -1.0406726e-01
 -9.4518140e-03
 -1.2997928e-01
 -2.4043448e-02
 -1.9236963e-02
 -7.9054952e-02
  1.0342882e-01
  3.1524848e-02
 -2.3415085e-02
  2.7218780e-02
  4.2750249e-03
 -5.9106123e-02
  3.4704048e-02
  6.6019348e-03
 -9.2596784e-03
 -7.5159721e-02
 -5.8217585e-02
 -3.4627963e-02
  8.1343865e-03
  2.3697896e-02
  4.0384348e-02
  1.0030486e-02
 -4.2866401e-02
  2.0822961e-02
  4.4652216e-02
 -3.7527822e-02
 -3.1278054e-03
 -5.4969139e-02
  9.3336388e-02
 -1.4262816e-02
 -8.0974177e-03
  7.4792236e-01
 -1.7377742e-03
 -2.3893623e-02
  7.8021828e-03
  1.5870385e-02
  2.7289791e-02
 -9.5918216e-02
 -6.7028427e-03
 -5.2367818e-02
  6.0735378e-02
 -7.5213672e-03
  5.9152246e-03
  2.5031546e-02
 -4.1909493e-03
 -4.0535289e-03
  1.3993254e-02
 -3.0685859e-03
  1.4026948e-02
  4.3835985e-03
  7.0524639e-03
  8.6892769e-04
  1.5624505e-02
 -1.7743122e-02
  3.4698822e-02
  5.4764049e-03
 -2.1970846e-02
  9.3859779e-03
  1.0252753e-02
  6.2255546e-02
  5.9801899e-02
 -1.8276792e-02
 -1.6134581e-02
  5.3863849e-02
  6.6696629e-03
 -1.8096440e-02
  1.3222919e-01
 -6.1969329e-03
 -1.5331525e-02
 -1.3253368e-02
  6.8637908e-02
  4.9708806e-02
  9.2712026e-03
  2.8925596e-02
 -1.5676530e-02
 -9.2363274e-03
  1.5482216e-02
 -1.1108326e-02
  2.6107242e-03
 -1.7612923e-02
 -1.2301039e+00
  5.4623961e-01
 -2.0858514e-01
  8.2187045e-01
  7.7395070e-01
  6.2783045e-01
  1.9423494e-01
 -2.9570395e-01
 -7.7970541e-01
  6.0628064e-02
  4.3282878e-02
 -2.6739830e-01
  5.6912595e-01
  1.3600382e+00
  1.0435296e-01
  5.7298595e-01
  5.2020396e-03
 -8.7298296e-02
  3.0283697e-02
 -1.6459821e-02
 -4.4733524e-02
  3.2622996e-01
 -1.0221285e-01
 -2.6672767e-02
 -5.3905495e-02
  5.0592367e-03
  1.5894680e-01
  3.2894415e-01
 -9.5572613e-02
  1.5801367e-03
 -1.1746926e-02
 -1.6621972e-02
  1.1105762e-02
  1.0557800e-01
  3.4362370e-01
  1.1544508e-01
 -1.0336924e-04
 -6.9375774e-03
  1.1663567e-02
 -5.9702042e-03
  2.3781992e-02
 -3.8045511e-02
 -5.2366316e-02
  7.4244966e-03
  8.3250869e-03
 -3.0721709e-01
 -2.2713971e-01
 -1.5018158e-02
 -2.4154757e-01
 -1.1358492e-01
  2.4806823e-01
  4.0047314e-02
 -1.6700400e-01
 -3.3517599e-02
 -4.6975423e-02
 -4.8736003e-01
 -1.8256934e-02
 -4.6034511e-02
  2.4680950e-01
 -3.1413063e-02
 -3.1409022e-01
  3.6350142e-02
 -2.0246334e-01
 -2.3375119e-01
  1.2830847e-02
  3.6063049e-02
 -4.2750132e-01
 -5.9929377e-01
 -2.6983395e-01
 -1.2268252e-02
 -6.2257890e-02
  2.0991335e-02
  1.2235060e-01
  3.4441593e-01
 -7.9023981e-01
 -2.3361167e-01
 -2.3169719e-02
 -2.0660483e-03
 -6.4901106e-02
 -1.7747775e-01
  3.8057008e-01
  8.0405222e-03
  9.3062017e-03
  3.6360500e-03
  1.6506884e-02
 -1.0322161e-01
  2.1476118e-02
  5.8831155e-02
  1.8647861e-02
  1.1521220e-02
 -3.1216934e-02
 -1.6736021e-02
  8.4497072e-03
  1.1106594e-02
 -2.7268319e-03
  1.8698545e-02
  2.0410986e-01
 -1.5119778e-03
  1.6534854e-02
  2.2924067e-02
  1.0368414e-02
  1.2065883e-02
  4.2460011e-03
 -2.3393549e-02
  8.7020313e-03
 -6.0612038e-02
 -1.6227031e-02
  7.1636057e-03
  3.1762940e-03
  1.8587630e-03
  1.7677002e-02
 -3.1176191e-02
 -8.2234591e-03
  3.6362119e-03
  1.7234504e-03
  2.4799623e-02
  1.5434378e-04
 -5.1049830e-04
  6.1287694e-03
  6.8731410e-03
  2.3359098e-02
 -4.9243435e-02
 -1.0184878e-02
 -6.2173903e-03
  7.0453230e-03
  9.8554026e-03
  4.9860217e-03
 -6.1658535e-02
  1.0796413e-02
 -1.3167034e-02
  1.6170280e-02
  4.8086159e-02
  2.5721441e-03
 -1.2099684e-02
  2.0471902e-01
  1.0656763e-02
 -3.2708864e-03
 -1.7287133e-02
 -8.9692809e-03
 -1.3520651e-02
  2.9681493e-03
 -3.6845535e-02
 -4.7663599e-02
  2.1661313e-02
 -2.7281011e-02
 -1.5994007e-02
  1.3746282e-02
  3.7258912e-02
  2.7223080e-02
 -7.1929526e-03
 -7.2983421e-02
  1.1321188e-02
  6.8717925e-03
 -2.3649362e-01
  9.0994351e-03
 -7.5971754e-03
  9.8593319e-03
  1.7069096e-02
 -1.0420828e-01
  4.1971516e-02
  2.7878689e-02
  4.6941686e-02
 -2.9633835e-02
  1.0320551e-02
 -5.2113468e-03
  3.5009369e-02
 -3.4222804e-02
 -1.2759394e-03
  3.7740350e-02
 -1.3276953e-02
 -3.9593522e-03
  8.1426270e-02
 -1.7969538e-02
  1.7157910e-02
 -1.2255527e-02
 -4.5040622e-03
  4.2748131e-02
 -2.0528166e-01
  1.8569398e-01
  2.7662194e-01
  8.6448520e-02
  2.6778489e-01
 -2.9705977e-01
  2.6371624e-02
  2.1940018e-01
 -1.0673177e-02
 -1.4486796e-01
  9.5231403e-03
 -3.0701953e-01
 -2.3151730e-01
  7.1903239e-03
 -7.9078965e-02
 -1.6177967e-02
  3.5080414e-02
 -8.8738380e-03
  5.1197009e-03
  1.3086591e-02
 -1.3221807e-02
  2.2471501e-02
  2.0342035e-02
 -3.1265266e-02
  1.3404348e-03
 -1.6537052e-02
 -4.0337410e-02
 -1.1856396e-02
 -6.4026661e-02
  3.8729107e-03
 -1.0735281e-01
  2.4633057e-02
  1.0088885e-02
 -1.0548485e-02
 -1.5803166e-03
  5.6531202e-02
 -1.6178554e-02
 -1.3641592e-02
 -2.9272130e-03
  1.0075227e-02
  1.6704703e-02
  5.4253936e-03
  8.7624521e-04
  3.0338520e-02
  1.6491598e-02
  2.9814219e-02
  8.4146652e-03
 -2.3845257e-04
  2.5148632e-02
 -3.9423858e-03
 -3.0680522e-02
  6.4784043e-02
 -3.3368873e-03
  7.1279821e-03
  4.3443893e-03
  6.9357855e-03
  1.3908291e-02
 -2.7907342e-03
  5.2365988e-02
  7.1365936e-03
  1.5701758e-02
 -1.0783290e-02
  4.6006227e-03
  9.4940523e-03
  1.2514422e-02
 -4.1703261e-03
  2.0219382e-02
 -4.5351270e-03
  9.3983151e-03
  7.2323335e-03
  3.5022266e-02
 -4.2953037e-02
 -9.5716938e-03
 -4.6606734e-04
  3.4790989e-02
 -2.6955569e-02
 -3.6002989e-03
 -8.4983772e-03
 -6.3327596e-02
  1.4842044e-02
 -6.6348597e-02
  3.5059191e-02
  2.0474098e-03
  9.5652789e-04
  4.5044500e-01
 -2.9083449e-02
  3.1016422e-02
  3.7735593e-02
 -1.1109470e-03
 -1.1736546e-03
  5.8620037e-03
  4.5380197e-02
 -6.9415905e-03
  5.4558357e-03
  6.0711987e-02
  2.0086752e-02
 -1.3024900e-03
 -7.7895494e-03
  1.2880870e-02
  1.0198910e-02
  5.9502926e-03
 -1.0320580e-02
  3.5684492e-02
  9.0582566e-03
  6.4512831e-03
  4.0468071e-03
  2.9379209e-03
 -3.4845173e-03
  8.9895586e-03
 -2.9423072e-03
 -1.0318880e-02
 -1.4908251e-02
 -4.5386076e-02
  1.8807881e-02
 -1.0915928e-02
 -1.8549636e-02
  7.3365998e-03
  1.2384965e-02
  9.3944687e-03
 -7.2630453e-03
 -7.7779120e-01
  6.8770424e-03
 -5.9086974e-03
 -1.9753765e-02
 -4.4769223e-04
 -1.0593404e-04
 -2.4751326e-02
  2.2077572e-02
 -3.7243380e-03
 -3.1761397e-02
 -1.0637396e-02
  2.0754615e-02
 -6.2233508e-03
 -2.2892157e-02
  1.3294634e-02
 -3.1639140e-02
 -1.2500045e-02
  1.8040722e-03
  3.2409564e-02
 -1.7205739e-02
 -1.5504006e-02
  3.3874318e-02
 -6.6378405e-03
  5.9608039e-03
  6.9734395e-02
 -3.2815982e-02
  4.3805591e-03
  1.9712800e-02
  8.9793848e-03
  2.9911891e-02
 -1.9265694e-03
  3.6683258e-02
 -7.5168684e-03
 -2.1178462e-02
  2.6847823e-02
 -2.6322594e-03
 -4.3100864e-04
  2.7676551e-02
  1.2876737e-02
 -7.4273814e-03
 -3.6864981e-02
 -1.1093905e-02
 -2.9505597e-02
 -6.1172515e-02
  3.8534611e-02
  1.1510139e-02
 -5.4883780e-03
 -1.3565717e-02
  1.7844294e-03
  1.5074974e-02
  7.9987630e-02
 -2.9612028e-03
  7.4524093e-01
  5.1137311e-03
  8.1672091e-03
 -7.7413390e-03
 -1.7124528e-02
  4.5032512e-02
  5.2131433e-03
  1.9196169e-02
  1.2586187e-03
 -2.2495080e-02
 -4.0853109e-02
  6.5701939e-02
  6.2012272e-03
  1.0406725e-02
  5.9892349e-02
 -1.6812930e-02
  2.4238473e-02
  1.7357668e-02
 -8.0387117e-03
  3.3770490e-04
  1.5533531e-02
  8.8317767e-03
  1.1110114e-02
  1.2878138e-03
 -1.3526132e-03
 -8.5235825e-03
 -3.3956334e-02
  2.3827497e-03
 -6.3869637e-05
 -1.7558442e-02
  1.2186146e-02
 -1.1374252e-02
 -1.4453683e-02
  4.2826226e-03
 -4.9276035e-03
 -2.4782337e-02
  1.6516354e-02
  6.5644002e-03
  6.6588201e-02
 -3.7113754e-03
  7.0638642e-02
  1.0133814e-02
  5.4395432e-04
  2.5782989e-02
  2.9452099e-02
 -4.8681363e-03
 -1.6083427e-02
 -1.5214017e-01
 -9.2637815e-02
  2.3924501e-01
 -1.6563431e+00
  2.5924602e-01
 -8.8277936e-01
 -3.6402446e-01
  9.0484601e-01
  5.9237921e-01
  7.8078002e-02
 -2.2259845e-01
  2.0605397e-01
  4.6143612e-01
  1.2605537e+00
  9.5334137e-03
 -2.0136917e+00
  9.3847489e-01
 -2.9589435e-01
 -3.2801244e-02
  1.4657773e-02
 -1.1359949e-01
 -5.7431293e-01
 -2.8302261e-01
  9.1453326e-01
  9.7203708e-01
  2.6282657e-02
 -1.0201273e-01
  1.2080193e+00
  1.5530735e-01
 -2.2278945e+00
  8.2996398e-01
  1.5836148e-01
 -6.0058609e-02
  1.7072538e-01
  1.9531071e-01
  6.4421302e-01
 -6.3332468e-01
  6.1554611e-03
  2.8218023e-02
  5.9648626e-03
  4.1167706e-02
  7.8660667e-02
 -3.0898370e-02
 -3.8995054e-02
  5.7708029e-02
 -3.3493012e-02
  2.4751157e-01
 -2.9002650e-02
 -1.8602027e-02
 -3.0824864e-01
 -5.3075314e-02
 -1.1426612e-02
  6.6404693e-02
 -2.0169471e-03
  2.3460485e-02
 -1.0513268e-02
  7.3428857e-03
  2.4909733e-02
  2.1444632e-02
 -8.8227415e-01
 -8.8868868e-03
 -2.0595519e-02
 -8.8568749e-03
  1.0053293e-02
 -3.0954115e-02
 -3.0446654e-02
  2.2349500e-03
  1.4332714e-02
  7.0069008e-02
 -3.0120082e-02
  3.7482921e-02
 -4.1409386e-03
 -7.4449941e-03
 -6.8750214e-03
 -8.1109768e-03
  6.7018710e-02
 -1.1813563e-02
  4.4110864e-03
  7.3804297e-03
 -2.1896217e-02
  8.0748267e-02
 -3.4657661e-03
  2.8257428e-02
 -1.7266225e-02
  5.4252125e-02
  4.9850330e-02
 -5.4198705e-02
 -2.8676877e-02
 -7.9790987e-02
  6.3796057e-03
  2.1248278e-03
 -1.9491654e-02
 -5.7111727e-03
 -3.9751846e-02
  3.6476806e-02
 -3.7923101e-02
 -8.3432466e-02
 -1.7658409e-02
  1.1568408e-02
 -5.9482921e-02
  1.3706611e-02
  2.4827661e-03
  3.3322293e-03
 -1.0881890e-02
 -5.9648356e-03
  6.1781202e-03
  1.9059693e-03
 -2.1515859e-02
 -1.2087128e-02
  7.0326542e-04
 -6.5292187e-02
 -2.1583678e-02
  3.2901592e-03
 -2.7827740e-02
  4.0439349e-03
 -1.9886479e-02
  1.4642986e-02
  4.4467837e-02
 -2.9071327e-03
 -6.4085610e-03
 -2.0278811e-02
 -9.6439733e-05
  2.1676568e-02
 -6.9411015e-03
  2.3140203e-02
 -3.3499457e-02
 -1.7671055e-01
 -1.9185014e-02
  5.6612931e-02
 -2.9693140e-02
  8.3169155e-04
  7.6049000e-02
  1.9892879e-02
 -3.5837134e-03
  3.6277864e-02
  7.6128738e-03
  1.8501699e-02
 -3.4714546e-02
  2.1604795e-02
  2.0072004e-02
 -4.3556262e-03
 -8.6485043e-02
 -3.7866287e-02
 -9.6724443e-03
 -9.2684068e-03
 -5.8480166e-04
 -4.7265179e-02
 -5.9390433e-02
 -2.5289096e-02
 -7.9087138e-02
  1.5591421e-02
 -4.1050781e-03
 -5.1159397e-02
 -6.1517473e-02
  1.2978015e-03
 -2.3240077e-03
 -2.2133542e-02
  3.0609118e-02
 -5.7449285e-02
 -8.5558987e-04
  3.4979217e-02
  4.3712560e-02
  4.4038398e-03
  2.1080980e-03
  1.1783579e-02
  2.6135134e-02
  2.5586668e-02
 -8.6207865e-03
  7.2731853e-02
  1.8539464e-02
 -1.9448759e-02
  3.6744293e-02
 -1.2093554e-02
 -1.1634501e-02
 -1.9114017e-02
  1.5201163e-02
 -2.0861572e-02
 -9.2494227e-03
 -3.4097292e-02
  1.7342809e-01
 -1.7224673e-02
 -3.4402158e-02
 -7.4543327e-02
  2.8395787e-02
  2.4855724e-03
  6.6374307e-03
  6.3945577e-03
  1.4454541e-02
 -1.7906217e-02
  1.4278465e-03
 -2.9440545e-02
 -1.0730985e-02
 -2.8523242e-02
  1.5084099e-02
 -6.4158638e-05
 -2.5202680e-02
  8.1555685e-03
 -3.2510899e-02
  7.1011633e-03
  1.6213987e-02
  3.7954065e-03
 -1.9847192e-03
 -3.5321821e-02
 -1.2371431e-01
  2.6408631e-02
 -8.2002394e-03
  3.6309133e-03
  1.2511972e-02
 -4.7150874e-03
  7.4082213e-03
 -5.6161925e-02
  1.1678124e-02
  3.1578504e-02
 -7.3760534e-03
  3.1152343e-02
 -2.7561523e-02
 -6.4512668e-04
 -7.0671961e-03
  2.8994374e-02
  3.5222236e-02
 -4.8345793e-02
  3.6470514e-02
 -4.2100996e-03
 -3.9842883e-03
  3.6715616e-02
 -1.7320475e-02
  1.9860972e-02
 -4.9876664e-03
  1.5729615e-02
  2.4727220e-02
  3.2325365e-02
  8.1215531e-02
  3.4706672e-03
 -1.3346607e-03
  1.2939001e-02
  1.3641565e-02
  1.7732900e-02
  6.8073357e-03
 -7.3468662e-03
  6.6747248e-02
 -1.6398791e-02
  2.6154052e-04
 -7.9523753e-03
  2.1296222e-02
 -1.0950422e-02
 -3.3042212e-03
 -4.8081600e-03
 -1.0471912e-02
 -3.2333318e-02
 -9.9470885e-03
 -5.9805266e-03
 -2.3831199e-03
 -1.5590884e-02
  6.5510208e-03
 -9.2080394e-03
 -2.7892198e-02
 -1.4559798e-02
 -1.0785311e-02
  1.5284983e-02
 -5.6991121e-03
 -6.3987084e-02
 -2.2146203e-02
  9.8015880e-03
  8.8583399e-03
  1.3782650e-02
 -3.2863077e-02
  2.0109730e-02
  1.8708152e-04
 -5.2604413e-01
 -9.0875458e-03
 -1.8626694e-02
  4.2412267e-04
 -2.9543638e-01
  1.6828569e-02
  1.6072528e-03
 -9.4335573e-03
 -9.6763149e-03
 -8.1782490e-03
 -4.4679135e-01
 -3.1102586e-03
 -2.7739497e-02
  1.5517526e-02
 -4.7938107e-04
  6.0351077e-02
 -2.2548867e-02
 -2.0329680e-02
  4.8936857e-03
 -4.4737076e-03
 -1.2942362e-03
  1.0066324e-01
 -3.5735618e-02
 -1.7281985e-02
  4.3207534e-02
  5.7209391e-02
 -1.1256505e-02
 -6.3701812e-03
  6.6186823e-03
  2.8672818e-02
  2.5299424e-03
  2.7366042e-02
 -1.3621775e-02
 -6.2871999e-03
 -7.1694879e-03
 -2.8849719e-04
  9.4175898e-03
 -2.2090014e-02
  3.9809454e-02
 -1.1318227e-02
 -7.1346901e-02
 -1.4177532e-02
 -2.4800919e-02
  8.9549832e-03
  4.9481019e-03
  3.9892393e-01
 -2.7542660e-02
 -1.4903888e-03
  6.7285992e-02
  6.7159734e-03
 -2.0026309e-02
 -5.4551160e-01
  2.4422163e-02
  1.0705473e-02
 -1.6755594e-02
 -3.6387011e-02
  1.6096298e-02
 -7.0434599e-03
  1.7156463e-02
  6.1375799e-04
 -4.3398902e-02
 -2.7681170e-03
  1.4113072e-02
  2.2388990e-03
  7.0547140e-03
  9.5530495e-02
  2.1890795e-02
 -1.5676359e-02
  2.9370476e-02
  8.7072495e-03
  3.5746176e-02
 -8.3566876e-03
  1.9599621e-03
  1.5517334e-02
  8.9600403e-04
 -3.3455066e-02
 -3.2060123e-03
  8.4125828e-03
  1.9131773e-03
  1.0350912e-02
 -5.6787659e-03
 -7.7396077e-03
 -5.4076575e-03
  4.2374548e-02
  8.0358140e-02
  1.6485840e-02
  5.6522810e-01
  1.6285031e-01
  1.0738450e+00
 -3.1654233e-01
 -1.2655965e-03
 -2.3033114e-02
  7.5893998e-03
 -1.9488819e-01
 -5.2758396e-02
  3.8142260e-02
 -1.1780496e+00
 -7.8219652e-02
  1.9459420e+00
  1.7062450e-02
  4.4457223e-02
 -1.1973160e-02
 -9.2687905e-01
 -3.3922121e-01
 -3.2257468e-02
 -2.2886485e-01
  7.0073903e-03
 -4.0867105e-02
  3.9839176e-03
 -1.5232885e-02
 -2.9008539e-02
  5.3409475e-01
  1.3645939e-02
 -2.7506821e-02
  6.0981251e-02
 -3.1216260e-02
 -1.2062545e-02
  2.5773019e-01
 -2.2226165e-01
  3.8360478e-05
  1.5201591e-01
  6.9488853e-02
  4.2042802e-03
  7.0461109e-02
  1.7624326e-02
  1.3765141e-02
  3.7572306e-01
  1.5913894e-02
 -2.3318524e-04
  2.4275135e-03
 -1.2383953e-02
  7.2859116e-03
  1.3312662e-02
 -7.4559197e-02
  2.2911492e-01
  1.9116709e-02
  2.7813706e-01
  2.0085709e+00
 -1.3962958e+00
 -5.8272851e-01
 -2.1284904e-01
  1.3027519e-01
 -2.6430640e-02
 -3.1999299e-01
 -8.3105087e-02
 -1.5206580e-02
  9.5333017e-02
 -5.9673905e-01
  4.4142750e-01
  1.2500961e-01
  1.7436045e-01
 -1.2556802e-01
  3.2170627e-01
  1.2117065e-01
 -1.5709352e-02
  8.8182980e-01
 -4.3056488e-02
 -1.8628128e-01
 -2.1896788e-01
 -1.1175669e-01
  8.5703567e-02
 -6.4214092e-01
  7.3482186e-02
 -9.9597529e-02
 -3.4666494e-01
 -3.0178329e-01
  1.3892545e-01
 -1.0121726e+00
 -5.5520552e-01
 -1.7295899e-02
  4.0433388e-02
 -4.6745020e-01
  5.2818477e-02
  1.3412984e-02
  6.6773720e-02
  8.9979932e-02
  5.8909315e-01
  1.5355398e-01
 -1.2709856e-01
 -1.5889787e-03
 -4.6082148e-03
 -7.6334400e-06
 -8.4104531e-02
  1.7619312e-02
  3.2276063e+00
  3.8628602e-01
 -2.8352302e-01
 -3.8404730e-01
  6.9378652e-02
 -2.8206193e-01
 -3.7149198e-03
 -2.7653098e-02
  1.9701449e-02
 -5.9602875e-01
 -1.1717659e-02
 -2.3698424e-01
 -1.5082349e-01
 -4.7448692e-01
 -7.1057367e-01
 -2.4261579e-02
  3.6818403e-01
 -1.1923193e+00
 -1.2176501e-01
  1.7010590e-02
 -4.5401682e-03
  7.4981320e-01
 -1.1843742e-01
 -6.9166213e-01
 -1.9908141e-01
  6.8198764e-01
  5.5223691e-01
  1.6284820e-02
  3.0550839e-02
 -7.1108162e-02
 -1.0746728e+00
 -1.7689970e-01
 -1.3848700e-01
 -4.1528234e-01
 -4.7187838e-01
 -8.1755257e-01
 -1.2051044e-01
 -6.7441028e-01
  6.9223875e-01
 -1.7896990e-01
  7.1935989e-02
  2.4836591e-01
 -2.5009923e-03
  8.0268778e-02
 -9.5497318e-02
 -1.0303713e+00
 -1.7207478e-01
  5.6200814e-01
  2.4895802e-01
 -3.3285013e-01
 -3.8139808e-01
 -1.2088813e+00
  3.5240790e-03
 -1.5409755e+00
 -2.5678997e+00
 -2.6763127e+00
  4.2425391e-01
 -1.9600397e-01
  4.7640605e-03
  1.4349673e-02
  1.2210357e-02
  3.7137312e-01
  3.0213293e-01
 -8.5440421e-01
  2.8661990e-01
 -7.1616638e-01
 -4.7884354e-01
  4.2564657e-01
 -4.1960624e-01
 -7.2760147e-01
 -5.1719368e-01
  1.8283841e-01
  1.3870614e-02
 -2.3765540e+00
  7.0826657e-02
  9.1190338e-03
 -9.4075996e-01
 -2.2806857e+00
 -7.6392370e-01
 -6.4255345e-01
 -7.3311636e-03
 -2.0211017e+00
 -5.2290070e-01
 -1.4228964e-01
  2.0141359e-01
 -1.5544591e+00
 -3.7866297e-01
 -5.6466855e-02
 -1.5695381e-01
  1.6463524e-02
 -5.2516818e-01
 -3.3388279e-02
 -6.9150142e-02
 -4.9779925e-01
 -7.7577227e-01
 -5.1588351e-01
 -1.1678416e+00
 -9.2757171e-01
  2.9692641e-01
 -4.7383150e-01
  2.3895023e-02
 -1.0220423e+00
 -1.4083724e-01
 -1.0743381e+00
  2.0450798e-01
 -3.2170847e-01
 -7.1673483e-02
 -3.0412492e-01
  4.9217492e-03
 -9.5102899e-03
  3.8125741e-01
 -8.6741438e-03
 -2.7742365e-01
 -5.8533925e-01
 -1.1903274e+00
 -3.6941506e-02
  1.0903000e+00
 -1.2245395e+00
 -2.2236329e-01
  2.1042657e+00
 -1.8726093e-01
 -1.1850664e-01
  3.3352926e-02
  4.0787026e-01
 -9.1332674e-02
 -6.7364626e-02
 -5.3495724e-02
  4.6674851e-01
  7.8023022e-01
  1.3722095e+00
 -1.0415006e-02
  6.0231203e-01
 -4.7582334e-01
  7.7585816e-02
 -1.1885440e+00
  2.0057404e+00
 -2.7533898e-01
  3.1912127e-01
  8.4479548e-02
  3.9906314e-01
  1.4832538e-01
 -1.5865624e-01
 -3.1789747e-01
 -4.3595280e-02
  6.8732291e-01
  7.2863406e-01
  1.6826144e+00
  3.7644327e-01
 -6.7369179e-03
 -3.7417024e-01
 -9.1898012e-01
  4.7194085e-01
 -1.1972611e-01
  2.1312319e-01
  2.1787372e-01
  1.2545978e-03
 -1.7625576e-01
 -1.1005613e+00
 -2.7970576e-01
  6.4774638e-01
  1.1825629e-01
 -2.5311245e-02
 -8.7513947e-01
 -5.6531477e-01
 -4.7052965e-01
  8.5680473e-01
  8.0614746e-02
  3.5899046e-01
  5.1420617e-01
 -9.8581505e-01
 -1.2462611e-01
 -1.6851167e-01
 -2.0720999e+00
 -3.6967272e-01
 -1.3023610e+00
  2.7650058e-01
 -7.6350188e-01
 -1.4531326e-02
 -1.4927778e-01
  8.1830418e-01
  1.9599456e+00
  2.0038130e+00
  4.9777469e-01
  7.7235895e-01
 -3.0928776e-01
 -5.9057456e-01
 -1.6812034e+00
  2.2500587e+00
  4.3466520e-01
 -4.4306528e-02
  4.9581096e-01
  2.0383251e+00
 -1.0262487e-01
  4.3585053e-01
  5.5970985e-01
 -2.0435652e-01
 -1.2485029e+00
  2.6296148e+00
 -1.3234270e-01
 -6.5905094e-02
 -1.5110458e+00
  4.7512272e-01
 -2.4743235e+00
  6.9472396e-01
 -5.8014548e-01
  2.1194641e-02
 -3.3396154e-03
  1.5069876e+00
 -3.6463231e-01
  1.7510569e+00
 -4.7531005e-02
  8.8105984e-02
 -1.5488606e-02
  2.6091105e-01
  7.1235374e-03
  5.1987231e-02
 -7.4880184e-03
  3.8433477e-01
 -2.6205185e-01
 -1.2912772e+00
 -1.8191246e-02
 -1.1777298e+00
 -2.1509435e-03
  1.9863592e-01
  1.5717728e-01
  1.0833615e+00
  1.3641999e-02
  2.0374011e-01
 -4.2282538e-03
 -9.8572470e-02
 -9.7358100e-02
  2.5165004e-01
  1.9479699e-01
 -7.9829264e-03
 -1.0488220e-02
  2.0596735e-01
  4.3509126e-02
  4.4534096e-01
  7.2036201e-01
  5.0112385e-01
  3.5411321e-02
 -1.6074501e+00
  7.0902330e-01
 -9.6720956e-02
  9.3515813e-02
 -1.1885175e+00
 -1.4907124e+00
  9.6843997e-03
 -3.1765300e-01
  1.0668781e+00
 -8.1146431e-01
  1.4805437e-02
  4.2973232e-01
  1.5616323e+00
 -1.4116716e-01
 -3.8090277e-01
  2.9646184e-02
  7.1277928e-01
  5.5348790e-01
  3.6244702e-03
 -7.6906435e-02
 -1.0277792e+00
  2.8390694e-01
 -3.8377063e+00
  1.0015678e-01
  2.6181331e-01
 -3.5459164e-01
  3.8256723e-01
  6.0553402e-03
  4.2329073e-01
 -9.9170469e-02
  4.2983079e-01
  3.6538339e-01
 -5.8823997e-01
 -9.5953214e-01
  1.9430593e+00
 -5.8915520e-01
  1.5699762e+00
  2.1613963e+00
  4.9248895e-01
  2.4277759e-03
 -3.4602442e+00
 -9.5616723e-04
 -6.6570294e-01
  2.2629455e-01
  3.3868513e-01
 -1.1187021e+00
  7.4545735e-01
 -6.8381652e-02
  4.7577721e-01
  1.1338320e+00
 -7.0809078e-01
 -1.7369756e-01
  6.4451909e-01
  3.0510081e-02
 -1.3585962e+00
  2.5659665e-01
 -1.5495861e+00
 -3.1808481e-01
 -8.3135045e-01
 -7.7333540e-02
  3.9634743e-01
  4.2977348e-01
  1.2419325e+00
  1.6784122e+00
  1.2610218e-01
  1.3998939e+00
  3.9213276e-01
  1.1095914e+00
  1.0559671e+00
  1.1590929e+00
 -6.6915095e-01
  2.2972351e-01
 -1.6032536e-01
  2.9404151e+00
 -1.9522314e+00
  1.1362388e-01
  1.0692615e-02
  2.8220272e-01
 -1.1622293e-01
 -1.3695193e-02
 -1.1495132e+00
 -1.5576836e+00
  3.9112943e-01
  2.2323835e-01
  6.9963253e-01
  1.3872637e+00
  4.7934306e-01
 -3.6278244e-02
  7.6690245e-01
 -6.3859686e-02
 -1.3998818e+00
  6.3222302e-03
  3.0498061e+00
 -2.4110150e+00
  3.7633139e-01
  4.9891102e-01
  3.1246856e-02
 -3.2197443e-01
 -9.9112737e-01
 -8.4080301e-02
 -1.2793505e+00
 -3.1855360e-01
 -7.3526901e-01
 -2.9394792e-02
 -1.4965334e+00
 -2.4930492e-01
 -1.1614622e-01
  2.7193165e-01
  1.9991758e-01
 -3.8533285e-02
 -9.7328074e-02
  3.4224534e-01
 -9.0080822e-01
 -4.9084702e-01
  5.3769785e-01
 -2.6779866e-01
 -9.4720662e-01
 -7.7753454e-01
  1.6293572e-02
 -3.3047029e-01
 -1.5109620e+00
 -9.9993803e-02
 -3.4824497e-01
 -7.5936741e-01
 -1.6653291e+00
 -4.2567822e-01
 -1.9950756e+00
  3.4541973e-01
 -4.3538105e-01
 -1.2634261e-01
 -8.0502793e-02
  1.9705227e-02
  6.1726147e-01
  2.3268591e-01
  2.2503257e+00
 -1.0477991e+00
  7.6541430e-01
 -2.0398889e-01
  2.7264071e+00
  1.5983222e-01
  1.5820675e-01
 -6.4392686e-01
 -2.9369466e+00
  3.0757658e-02
 -1.9992303e+00
  5.2027531e-02
  4.2617238e-01
  6.2733561e-02
 -2.9393640e+00
 -6.9290749e-03
  1.6029154e+00
  9.9349320e-01
 -3.8606986e-01
  1.1130684e-01
  1.6485555e-01
  6.3027066e-01
 -8.3865337e-02
  1.0561037e-01
 -1.0686526e+00
 -2.8969190e-01
  1.2894912e+00
  3.4437546e-01
 -1.4120662e+00
  5.9485900e-01
  2.0244089e-01
  8.3806145e-01
 -7.9159963e-01
  6.2144924e-02
  1.0845958e+00
  2.4929752e-03
 -7.6868749e-01
  2.9352814e-01
 -7.3988676e-01
  3.2946013e-02
 -2.7901319e-01
 -2.2855414e-01
  3.1204769e-01
 -3.6123257e+00
  2.3963358e+00
 -8.7079205e-02
  2.8323092e-02
  2.1971950e-02
  8.4128684e-01
  2.7483770e-01
  4.8672524e-01
 -3.1751439e-01
 -1.1687847e+00
 -8.3215527e-02
  3.5683456e-01
 -2.0653296e+00
  1.4136850e+00
  1.5756651e+00
 -2.0077519e-01
  7.0798671e-01
  4.2422047e+00
  2.6374912e-01
 -1.2423359e+00
 -1.9524679e-01
 -1.5647022e-01
  2.9567137e-01
 -8.0793124e-01
 -1.8966639e-01
 -1.4147899e-01
  1.3755012e+00
 -2.7806348e-01
 -1.6466227e+00
 -4.4851337e-02
  2.2410557e+00
  4.3565315e-01
  4.3035039e-01
  2.1172671e+00
 -1.1089140e+00
  1.7705561e-01
 -1.5469886e+00
 -3.9092696e-01
 -3.7064311e-01
  8.7526876e-01
 -1.2712137e+00
  3.2073140e-01
  1.5787028e+00
  2.5472444e-01
 -1.2953607e+00
 -7.2089058e-01
  9.6563220e-01
 -2.3157156e-01
 -9.0126276e-02
  6.2366098e-01
 -9.5143700e-03
 -3.9591730e-01
  1.6322908e-01
  5.5294711e-02
 -1.1777682e+00
 -4.4059795e-03
  6.7674197e-02
  3.6697033e-01
 -5.1870424e-01
  9.3909365e-01
 -7.3996240e-01
 -1.3654394e+00
  2.0735140e+00
  1.4792109e+00
  2.3337319e+00
  4.4109765e-01
 -2.0029845e+00
 -8.6210452e-02
  2.0304084e+00
  3.4294817e+00
 -7.6199859e-01
 -5.5067027e-01
 -2.3318993e-01
 -1.1570771e+00
  5.6283720e-02
 -8.4936070e-01
  7.4701905e-01
 -7.3493809e-01
 -2.3995206e+00
  5.6326187e-01
  3.0659160e-01
  1.3579313e+00
 -1.0611035e+00
 -6.9708294e-01
  5.6698364e-01
  1.6886269e+00
  4.4129875e-01
 -9.7354454e-01
 -7.6419286e-02
 -2.2033958e+00
 -1.1070205e-01
 -1.0522991e+00
 -5.5836737e-01
 -1.1405474e+00
 -1.1898593e+00
  3.6496609e-01
  1.8452650e-02
  8.6359084e-01
 -1.0917971e+00
  9.4617151e-02
  6.7014612e-02
  1.6579880e+00
  2.0048527e-01
  9.2377418e-01
 -5.6994581e-01
  7.8074473e-01
 -1.8374512e-01
  2.0896237e+00
 -1.3206434e-01
  1.0706890e+00
 -4.8383409e-03
  1.5098902e-02
  2.8291829e+00
 -3.0806103e-01
 -1.5158050e-02
  4.5868623e-01
 -1.1005203e+00
  1.6555676e-01
 -4.7906220e-01
  6.0431135e-01
 -2.0666158e+00
  7.2878838e-01
  1.3635072e-01
 -1.7353809e+00
 -1.7637832e-02
 -1.0378959e+00
 -1.8653378e-01
 -1.5957402e+00
 -1.4614507e+00
  1.5398092e+00
 -6.0199618e-02
  3.7236783e-01
 -8.9242864e-01
  5.8911264e-01
 -1.8141311e-02
  1.4898990e-01
  1.1032776e+00
 -3.8054246e-01
 -3.5851146e-05
 -4.9464661e-01
  2.4808698e+00
 -7.2000128e-01
 -1.5408145e-01
  1.8895848e-01
 -4.1080007e-01
 -6.9991156e-02
  1.5985961e-01
  7.8218353e-01
 -1.8404114e+00
 -3.4977889e-01
 -5.7688332e-01
  1.5352745e-01
 -9.7827512e-01
 -1.4940707e-01
 -2.6055083e-02
  6.4990139e-01
  7.2195524e-01
  5.6329258e-03
 -5.3564924e-01
 -4.6246401e-03
  2.1861003e-01
  1.7432000e-02
 -5.8971528e-02
 -9.2159969e-01
 -2.2071663e-01
  3.2592140e-02
 -4.9938777e-01
  1.6662676e+00
 -7.9142898e-02
  1.0946814e-01
 -7.6199556e-03
 -2.0083804e-01
 -3.7863725e-01
 -2.4077758e-01
 -8.6471945e-02
 -2.9537722e-01
 -2.7924621e-01
  1.7068835e-01
 -4.4971666e-01
 -5.4743803e-01
 -6.2448156e-01
 -4.2073858e-01
 -4.5148097e-03
 -1.7870873e-01
 -1.2005039e+00
 -9.8767489e-01
 -5.2115279e-01
 -4.8599970e-01
  1.8811051e+00
  2.0243521e+00
  9.7640287e-03
 -2.8885519e-02
  3.4179568e+00
  8.4299970e-01
 -6.7636713e-02
  1.1302297e-01
  2.0047023e+00
 -4.9945876e-02
 -2.9197457e-01
  5.4681021e-01
  3.9671134e-02
  6.4900137e-02
 -9.0840664e-03
 -7.3308438e-02
 -1.1628420e-01
  4.8309797e-01
 -2.2912746e-02
  5.4605259e-04
 -8.6101413e-01
 -2.8487971e-02
  5.7163602e-01
 -4.0492650e-02
  2.5326840e-03
  1.6222256e-01
 -4.6459347e-04
  8.6432672e-01
  1.6347140e-03
 -7.8573042e-01
  1.2427242e-01
 -3.5146061e-01
  2.0842832e-02
  1.1348021e+00
  9.3934312e-03
 -1.2352079e-01
  5.0093610e-02
  1.4859599e+00
  5.9816982e-03
  9.7419387e-01
 -4.6249833e-03
 -4.9715969e-01
  1.4994748e+00
 -7.9907417e-02
  4.4580117e-01
  7.7951056e-01
  3.1384560e-01
 -2.3474632e-02
 -4.2861721e-01
  9.7462498e-02
  4.1511826e-02
  1.8437566e-01
  9.7380243e-03
 -1.0202157e-01
  1.6616421e+00
  8.3771767e-03
  1.0375967e+00
 -3.6671716e-01
 -3.2949558e-01
 -3.9849308e-01
 -8.3965637e-02
  3.2964852e-01
 -1.0998602e+00
  2.0954807e-01
 -6.5910476e-01
  1.4643005e-01
  3.1648323e-01
  2.8191581e-01
  4.0571186e-01
  2.9691401e-01
  8.2520634e-01
  9.1347180e-02
  1.8472211e-01
  1.1548259e+00
  5.5283386e-01
 -7.3410105e-03
 -5.7773322e-01
  1.2179859e+00
  1.6370555e-02
  4.2061752e-01
  6.7390978e-01
 -4.6847698e-01
 -1.7780320e-01
 -8.0999875e-01
  1.5508258e+00
  5.0884348e-01
  6.6278327e-01
 -1.1362109e+00
 -5.6256264e-01
 -2.5837157e+00
 -1.4286821e+00
 -1.5722724e+00
 -1.7571766e+00
  2.6735142e-01
  8.7119156e-01
 -5.3439707e-01
 -2.5816901e+00
  7.2105682e-01
 -1.1423092e-02
  5.3371871e-01
 -4.7294208e-01
 -1.2637118e+00
 -7.9078496e-01
 -1.9811584e-01
 -3.9870921e-01
 -1.1079649e+00
  7.1343839e-01
 -1.2509702e+00
  1.7954336e-02
  1.7293203e+00
 -4.3150898e-02
 -5.3752130e-01
 -1.4627838e+00
  1.9291306e+00
 -7.4252486e-02
  1.0660950e+00
 -1.8034825e+00
  8.2317263e-01
  1.2543289e-01
  9.1468763e-01
 -1.2212027e+00
 -3.7533474e-01
  3.6264560e-01
  9.1038054e-01
  1.4006151e+00
 -2.6075488e-01
 -1.2905241e+00
 -4.4997685e-02
  1.6465353e+00
  1.0071504e-01
  2.3721147e-03
 -1.3585637e+00
 -2.7884278e+00
 -3.2293695e-01
 -1.0248687e-01
  8.2228050e-02
  1.5315741e+00
  1.6530297e+00
 -1.5097295e+00
 -1.8774492e-01
 -7.5650197e-03
  4.4190374e-01
  8.0891572e-02
 -8.4162337e-01
 -9.6714085e-01
 -1.2445203e+00
 -1.5511937e+00
  5.1961732e-01
  1.6390487e+00
  7.1984373e-02
  3.1922294e-03
  5.8402413e-01
  1.0321538e+00
  1.6686799e-01
 -1.0439277e+00
  1.2302799e-01
 -9.3840587e-01
 -1.3444635e+00
 -1.3215003e+00
  9.6550070e-02
 -8.0335265e-01
  2.7680919e-01
 -8.8221440e-03
  5.8703905e-01
  5.0674349e-01
 -7.3790097e-01
 -1.0630451e+00
  6.7021650e-01
  8.4341574e-01
 -1.1068857e+00
  3.7583821e-02
  1.7640150e-01
  4.7302014e-01
 -1.6112086e+00
 -1.1396565e-01
  1.8344126e+00
  1.1657166e-02
  1.9468288e+00
 -2.1289635e+00
  2.7210202e+00
  5.8841266e-02
 -1.2966982e+00
  2.4857994e-02
 -1.9206203e+00
 -2.1878622e-02
 -2.7102613e+00
 -1.7880480e+00
  3.3507317e-01
 -1.9772235e-01
  6.8790460e-01
  1.9654732e+00
  2.4950101e+00
  2.9033035e-01
 -1.7211274e+00
 -9.3091942e-02
 -1.3272463e+00
  1.4707246e-01
 -1.0821451e+00
 -1.3845825e+00
  8.8242844e-02
 -2.6366537e-02
  2.8383803e+00
  7.1718194e-02
  1.4287039e+00
  6.0870147e-01
  1.2847573e+00
 -7.2827287e-02
  2.0488293e-01
 -2.0320459e-01
 -2.9748246e-01
 -3.6136964e-01
 -1.5620562e+00
  2.1111379e+00
 -4.7247833e-01
 -8.1650001e-01
 -8.3902627e-01
  2.7999824e-01
  4.6475463e-02
 -7.1803355e-01
  6.5761131e-01
 -6.2580985e-01
 -9.5751211e-02
 -7.2529924e-01
  5.6028610e-01
 -1.4484798e+00
 -1.7309114e-01
 -2.5110763e-02
  2.3359172e-02
  2.3359172e-02
  2.3359172e-02
  2.3359172e-02
  2.3359172e-02
  2.3359172e-02
  2.3359172e-02
  2.3359172e-02
  2.3359172e-02
  3.7800722e-02
  3.7800722e-02
  3.7800722e-02
  3.7800722e-02
  3.7800722e-02
  3.7800722e-02
  3.7800722e-02
  2.9012233e-02
  2.9012233e-02
  2.9012233e-02
  2.9012233e-02
  2.9012233e-02
  2.9012233e-02
  2.9012233e-02
  1.3580502e-02
  1.3580502e-02
  1.3580502e-02
  1.3580502e-02
  1.3580502e-02
  1.3580502e-02
  1.3580502e-02
  5.7021868e-03
  5.7021868e-03
  5.7021868e-03
  5.7021868e-03
  5.7021868e-03
  5.7021868e-03
  5.7021868e-03
  1.2225810e-02
  1.2225810e-02
  1.2225810e-02
  1.2225810e-02
  1.2225810e-02
  1.2225810e-02
  1.2225810e-02
