nep4 2 Cu Se 
cutoff 7 5 100 44
n_max 8 6
basis_size 12 12
l_max 4 2 0
ANN 50 0
  2.8132705e-03
  1.4755534e-03
  6.5538660e-03
  9.2565583e-04
 -2.8638711e-04
 -6.1500043e-02
 -1.3373793e-03
 -3.5182005e-04
  4.2973991e-04
  1.5546830e-06
 -1.0190728e-04
 -2.7594820e-03
  2.5718182e-03
  5.0659629e-04
 -1.5760201e-03
 -7.5051514e-04
  5.1397679e-04
 -9.3239709e-04
 -1.9203231e-04
  8.9352462e-04
 -6.6825683e-04
 -1.3758863e-03
 -3.0939577e-03
  5.4201528e-02
 -6.8399638e-02
 -9.8922668e-05
 -1.8278373e-04
  1.6650261e-04
 -7.0686019e-03
  4.6133599e-04
 -1.2052364e-03
  3.3187054e-03
  3.2908545e-04
 -3.3676850e-03
 -3.5509409e-05
 -3.8175415e-03
 -1.2049603e-04
  1.2403961e-03
  1.6971657e-03
  2.3729668e-03
  1.3707811e-04
 -2.8236076e-04
  2.5905902e-05
 -1.7152628e-03
 -9.5756084e-05
  2.3684499e-03
 -9.7337185e-04
 -1.4150738e-03
  1.1593294e-03
  7.9816428e-04
 -5.2365242e-04
  2.6009025e-03
  6.6019880e-04
  2.1090196e-03
  1.6095607e-03
 -1.5921525e-03
 -1.9739631e-03
  2.5908966e-03
 -1.5298461e-03
 -9.0358587e-04
  7.6022197e-04
  2.2993248e-05
 -3.0368138e-03
  9.3261455e-04
  3.6931835e-04
  3.9473558e-03
 -1.3494230e-03
  5.3430221e-04
 -1.7481766e-04
 -6.1703479e-04
 -2.7990756e-03
 -2.1030486e-03
  3.4773878e-03
  6.5887050e-04
 -6.4843730e-04
 -2.3995515e-05
 -1.0583826e-03
 -2.7650436e-03
  1.0306406e-03
 -8.4736675e-05
 -5.0453568e-04
 -1.0000754e-03
  2.7139962e-03
 -2.4162778e-03
  1.4286858e-03
 -1.5928774e-04
  3.4107600e-04
 -9.2885201e-04
 -3.1342945e-04
  1.1992434e-03
  4.3107485e-03
  3.7013458e-03
  1.4662612e-04
 -1.0310498e+00
 -2.1419032e-02
 -6.7782602e-03
 -5.6342371e-03
  6.7165442e-04
  3.1399104e-04
 -5.3794461e-04
 -1.1513018e-03
  3.0882715e-04
 -5.0725852e-04
  2.6429974e-04
 -4.2870319e-03
 -8.8305434e-04
  3.5589880e-03
  1.2184205e-04
  3.4382686e-04
  1.9248499e-04
  2.4436773e-03
 -8.1486255e-04
 -7.8237709e-04
  3.0631587e-02
 -4.4947362e-01
 -5.7723868e-04
  1.9559276e-04
  1.2470045e-02
  8.3786476e-04
  1.0234629e-03
  2.0889675e-03
 -2.9716392e-03
  3.2705779e-05
 -8.4621389e-04
  7.0897280e-04
  1.2677223e-03
 -1.9768041e-02
  1.7003164e-03
  1.0680055e-01
 -8.1182795e-04
 -1.2223262e-03
  7.3267531e-04
  1.3726614e+00
 -2.4933411e-02
  9.0857290e-02
 -9.9025500e-01
 -2.4020898e-01
  6.3304681e-01
 -4.0458503e-01
  1.9071511e+00
 -6.4290828e-01
 -2.0256115e-04
  9.2488134e-01
 -1.5034159e+00
  3.1912962e-01
 -3.6497910e-03
  5.3731084e-01
 -4.0331900e-01
  8.0093127e-01
 -1.1265972e-01
  5.8018392e-01
  6.1916280e-01
 -3.9017013e-01
 -1.1979922e-04
 -1.8426567e-01
  5.5453908e-01
  7.7340508e-01
 -3.0260786e-01
  9.5797926e-01
 -7.0189828e-01
 -5.2253544e-01
 -9.1219008e-01
  5.1487732e-01
 -7.6256774e-04
  1.0239519e-01
  7.7458817e-01
 -2.6182014e-02
 -6.8530932e-02
  2.9168658e-02
  7.3222723e-03
 -1.1153729e-01
  1.9488692e-02
 -3.5135594e-01
  9.9945493e-02
 -4.1644769e-03
  5.8506531e-01
  1.1845841e-01
 -2.8294609e-03
  8.8383138e-05
 -1.2140860e-02
  3.0152663e-04
  2.7140337e-01
 -1.4966426e-03
 -4.7409213e-03
  1.5858305e-03
 -1.5290636e-03
 -1.4971951e-03
 -2.3615556e-02
  2.7397485e-03
 -2.7206558e-04
  1.5770053e-03
  3.5995131e-04
 -3.6742557e-03
 -2.2083812e-04
 -1.8935436e-03
 -2.3953855e-04
  1.7874315e-03
 -2.1701911e-05
  2.1583580e-03
 -1.0265458e-03
 -9.2138944e-04
 -1.7138268e-03
  2.8672308e-04
  1.2726226e-03
 -2.5351971e-04
  2.9017967e-03
 -1.4046929e-03
 -2.9545722e-03
 -1.6069005e-03
  2.3950171e-04
 -1.6323369e-02
 -4.0898737e-03
  2.2994122e-03
 -1.6419733e-03
 -9.9032791e-04
  1.9858022e-04
  2.4523430e-03
  2.7518300e-03
 -1.1308185e-03
  9.0700400e-05
  5.1835820e-04
  2.1470769e-05
  5.9359765e-04
  9.5664067e-03
  2.0717201e-03
 -1.5614145e-01
 -8.7334844e-04
  4.8621395e-04
 -1.9672711e-03
 -2.3612706e-03
 -3.6991236e-03
 -1.7146973e-03
 -3.9266949e-04
 -2.9798565e-04
  3.5081203e-03
  3.8505351e-04
 -3.4582759e-03
 -1.6023648e-03
  9.9904358e-04
  1.3362886e-03
  1.7232718e-03
  5.2000606e-03
  2.4371340e-03
 -3.7416406e-03
  1.5477303e-03
  5.2143005e-04
  2.8840906e-05
 -1.8613959e-04
 -1.8273350e-03
  4.3249928e-04
  6.7935395e-04
  4.6706037e-03
 -6.6805060e-04
 -9.1964612e-05
 -3.5181830e-03
  1.6584827e-03
 -1.5300594e-04
 -7.3886826e-05
 -9.9574775e-04
 -1.8329308e-03
 -5.0521869e-04
  5.1740767e-04
 -5.5799256e-03
  2.7446523e+00
 -5.5325712e-05
  2.0838459e-05
 -1.0701143e-03
  4.5858455e-04
  1.7297725e-03
  1.0022833e-03
  3.5019184e-05
  1.3530324e-03
 -1.4970021e-03
  2.0124202e-03
  1.7165121e-03
 -3.8707431e-04
 -2.3791050e-03
  1.3708675e-03
  4.1203550e-03
 -3.3824577e-04
  1.2872464e-03
 -1.5419371e-03
 -4.4799381e-04
 -3.3404952e-04
  1.3532309e-04
 -1.8058384e-03
 -8.4535475e-04
 -2.9707276e-03
  1.9629078e-05
 -1.5919257e-03
 -6.7606138e-04
  5.0960504e-03
  2.1747751e-03
  2.3465639e-03
  6.1468338e-04
  4.1270140e-04
 -8.0212881e-04
  1.4354670e-03
 -9.6845231e-04
  1.3667063e-03
 -2.7866843e-03
  5.6939942e-01
  1.6887230e-03
 -1.4105506e-04
  2.6823516e-04
 -4.7836360e-04
  5.2254775e-04
  4.7770999e-03
  7.0887782e-02
  5.4617095e-01
 -1.0902902e+00
  7.8001851e-01
 -8.0526255e-02
  5.5960131e-01
 -4.9718425e-01
 -3.7560490e-01
 -5.1683688e-01
  1.9296423e-03
  4.8824090e-01
  1.4277892e+00
 -3.4428728e-01
  2.9925051e-01
 -3.4398463e-02
  3.3918236e-04
  1.0737433e+00
 -4.6502638e-01
 -1.2469647e+00
  2.1845302e-02
  3.2075533e-01
 -1.3392564e-03
  1.9196386e+00
  1.2667025e+00
  4.4893140e-01
 -1.8377697e+00
  6.9899693e-02
  3.0434257e-03
 -3.2025900e-02
  4.9226141e-01
  1.3263235e+00
  2.1360599e-01
 -6.0732597e-01
  1.9188699e-01
  9.7828731e-02
  2.8017280e-01
  2.4693350e-01
 -5.1325304e-03
  4.2899391e-03
 -1.7991030e-04
  4.4774670e-02
 -7.3047500e-04
  2.7381522e-03
 -3.9682591e-01
  5.9342600e-02
 -2.9447275e-01
 -3.6654215e-02
 -7.1427055e-02
 -1.5885008e-02
  7.4301922e-01
  2.7170861e-02
  2.1492595e-02
 -2.2066310e-01
  1.7689154e-01
  5.3664875e-01
 -6.2580630e-02
  2.2643227e-02
 -2.4591621e-02
  5.3943658e-01
 -1.6007313e-01
 -1.1442468e-01
 -1.3320846e-02
 -3.6468711e-01
 -3.9618981e-01
  4.1299269e-02
  3.5666663e-03
 -2.6375751e-03
  3.8502017e-01
 -1.1237559e-02
 -6.1980452e-02
  4.2867050e-01
 -1.3459630e-01
 -9.5087668e-04
 -2.2369096e-01
 -1.3741924e-04
  4.0934552e-03
  1.0191643e-03
 -9.1943817e-05
 -2.2133577e-01
 -2.5535740e-02
 -2.3193519e-01
  2.7688558e-03
 -4.8066508e-03
  1.1289690e-01
 -3.4544033e-03
  1.7363697e-03
 -4.7583040e-03
  1.8855301e-03
  1.2776086e-01
  1.8429615e-01
  5.9837922e-02
 -2.4489169e-01
  1.1480568e-01
 -6.5046054e-01
 -3.0154905e-03
  1.7287748e-01
  2.2675456e-01
  3.6647385e-01
 -8.8139199e-02
  6.2616845e-03
 -8.5924758e-04
 -2.3924841e-02
  7.2616187e-04
  8.9075319e-02
 -3.7941886e-03
  1.8441501e-01
 -2.1423155e-02
 -7.2940588e-02
  6.8059430e-04
  6.3827279e-04
  1.8055635e-04
  3.3649141e-01
  1.5803181e-01
  5.4121709e-01
  6.2749594e-02
 -7.5332053e-02
 -2.5476930e-03
  1.6517337e-01
 -1.0703055e-03
  2.3298876e-03
  5.1098001e-01
  5.6129736e-01
 -4.2261053e-02
  5.5768917e-04
  3.0001035e-02
  8.4415041e-02
  1.1924150e-02
 -3.2296900e-03
  3.6928739e-04
  1.7662699e-03
 -3.4508742e-03
  1.1114020e-01
 -1.0594442e-03
  5.3852424e-04
 -4.3426544e-04
  7.9788978e-04
 -7.1974256e-04
 -4.6335622e-03
  3.2332339e-03
  3.2896706e-04
  1.6234479e-03
  5.5918761e-04
 -3.2489793e-03
  2.3812598e-03
  2.8438010e-04
  8.3739514e-04
 -4.4445862e-04
 -7.6892501e-04
  5.6579540e-04
  5.6098134e-04
  5.2942109e-05
  5.4428465e-04
 -2.4883151e-03
 -6.7534577e-04
 -1.0652554e-03
 -2.6190416e-03
  1.4155884e-03
  2.7927153e-03
  3.0563145e-03
  1.6317789e-03
  1.2113689e-03
 -4.1575395e-03
 -1.3042259e-04
  3.5696902e-04
  2.7999294e-04
  3.0839671e-03
 -1.6747266e-03
 -6.2799911e-05
 -9.6465525e-04
 -1.8099817e-03
 -1.0053249e-03
  2.3559830e-04
 -6.6291448e-04
  2.6730189e-04
 -3.6316367e-03
  7.0237427e-04
  2.0373940e-01
  4.5767460e-02
  4.3770173e-01
  1.2681738e+00
  1.9703593e-02
 -4.7598797e-01
  8.3431822e-01
 -2.4145780e+00
  8.0142897e-01
 -4.3501455e-02
 -7.1797764e-01
 -1.3217214e-01
 -5.6568686e-02
 -1.4796666e+00
  3.9765174e-03
  4.8378521e-01
 -3.2135952e-01
  1.7272376e-02
 -1.1395295e+00
 -5.1446669e-03
 -1.0482055e+00
  1.3244306e-04
 -4.0399004e-02
 -1.6861749e+00
 -2.4723378e-01
 -1.8157259e-01
 -4.9657547e-01
 -6.5842813e-01
 -3.1058310e-04
 -1.7174652e-02
 -4.4212675e-01
 -7.3177928e-01
 -1.3907480e-01
 -5.7185115e-04
 -5.1606071e-01
  7.0185944e-02
 -3.0245285e-02
  4.5662823e-01
  1.2085361e-03
 -6.6826312e-04
  1.9541767e-01
 -8.0222555e-04
 -2.2185370e-04
  2.1803376e-01
  1.5226122e-02
 -1.3190982e-03
 -7.6352158e-03
  3.8778570e-01
  8.7790226e-04
  8.9678168e-04
 -1.6613529e-03
  1.0289546e-04
 -2.3541797e-05
  1.6824703e-03
  2.2024696e-03
  2.1186484e-02
 -4.1791398e-02
  2.0076921e-03
  1.3776637e-04
  1.6382557e-03
  1.6461470e-04
  1.8695084e-03
 -1.9856968e-03
 -2.2668431e-03
 -9.9094701e-04
 -3.4470421e-03
  2.3368471e-04
  3.5183445e-02
  2.4667762e-03
  6.3345596e-02
 -1.6262759e-02
  4.6932888e-03
 -4.3557939e-04
 -3.7421264e-02
  2.1854662e-03
  3.3532737e-03
 -5.2874219e-03
  9.1468071e-04
  1.4713710e-02
 -7.9488038e-04
  3.1116714e-03
 -5.7023164e-04
  7.6829595e-04
 -9.5655746e-04
 -1.5330513e-04
 -2.5663404e-03
 -7.0610305e-04
 -2.1311974e-04
 -1.5982515e-03
 -1.2885853e-02
  3.2256262e-03
 -2.5320072e-02
 -1.8980781e-03
  1.8861297e-01
  6.5628476e-02
  4.2163723e-04
 -6.6972664e-04
 -1.4746340e-03
 -6.6272514e-03
 -8.8518225e-02
  2.6411931e-03
 -1.5804596e-04
 -1.3355537e-03
 -3.9015785e-03
 -3.5317954e-02
  1.7557482e-05
  1.0885580e-02
  1.4627626e-02
  6.3413335e-04
  1.8766827e-03
 -1.9135203e-03
 -3.0101654e-03
 -5.7937093e-03
 -1.0938785e-03
  3.6481984e-02
 -2.9926482e-03
 -6.0933391e-03
  5.0738525e-02
 -4.8445124e-04
  3.0344049e-03
  4.1774070e-01
  9.2185487e-04
 -2.7255402e-03
 -4.4314004e-02
 -6.5510057e-02
  9.7455719e-04
  4.9979659e-05
  1.2802863e-02
 -9.1988023e-04
 -6.3661055e-04
  1.8525240e-03
  2.5444424e-03
  4.0057869e-04
  3.2048815e-01
  1.8307248e-03
 -2.1502143e-03
 -8.5971877e-02
 -7.4584287e-01
  2.5155729e-01
  2.1440381e-01
 -1.8222006e-01
 -1.5615089e-02
 -2.3414570e-01
 -1.4913399e-03
 -2.3551579e-03
 -4.6291417e-03
 -2.7831718e-01
 -3.8764298e-05
  6.9726594e-02
 -3.5089192e-01
 -3.9058827e-02
  3.0696248e-03
  7.1950490e-04
  1.3555033e-03
  8.7072730e-02
 -9.9956445e-02
 -4.3630782e-03
 -1.2647800e-01
  1.9891273e-02
  7.7597681e-04
  6.6906870e-03
 -4.4135079e-02
 -3.4906071e-02
 -7.4948557e-02
 -1.1261522e-01
  1.2232023e-03
  7.7606095e-03
  2.7301151e-04
  3.5372119e-02
  1.5377409e-03
  6.7055570e-03
  2.2747795e-04
  1.0965083e-01
 -3.3284212e-03
  3.8668895e-03
  9.1766262e-05
 -1.7441828e-03
 -3.1041284e-03
  5.8463530e-04
 -3.1191803e-04
  1.2114660e-03
 -1.9828120e-05
 -9.4737747e-04
 -1.1271538e-02
 -4.1848735e-04
  5.9228216e-04
 -1.5638120e-01
  2.6419060e-03
  1.1806162e-03
  8.2503445e-04
 -5.2206154e-04
  1.1040439e-03
 -1.4032645e-04
 -6.3315436e-04
  2.2263972e-03
 -6.2702608e-04
  1.9195932e-04
  6.7470485e-04
  1.2243324e-03
 -5.2804151e-04
 -6.1890751e-06
  8.5792271e-06
  4.1276531e-04
  3.7200077e-04
 -1.0220472e-03
 -2.1475242e-04
  2.2100378e-03
  3.4788770e-03
  4.6905651e-04
 -4.9325833e-03
 -6.3901395e-04
  6.8716728e-04
 -1.8783370e-03
 -8.9443132e-04
 -3.0113983e-03
  1.1050878e-03
  2.0559640e-04
 -7.3140793e-05
 -1.5898551e-04
  6.1318214e-04
 -1.3136042e-03
 -1.1319990e+00
 -1.2350754e-01
 -9.5631205e-02
 -4.3423612e-02
 -6.5947318e-01
 -7.4697562e-02
 -1.0635301e-01
 -2.1774688e-01
  1.7406073e-01
 -3.8070079e-02
 -2.7508050e-01
  5.0852983e-03
  4.1456874e-03
  2.7422303e-01
 -2.5133812e-01
  5.4433089e-01
 -3.3009972e-02
  2.8987389e-02
  4.5205131e-01
  1.4438714e-01
  3.9902885e-04
 -4.2653307e-01
 -2.5170088e-01
 -9.9392259e-05
  8.2409777e-02
  2.5724161e-01
 -1.9770941e-02
 -1.2484774e-02
  7.2705917e-02
  3.7054191e-03
 -1.5137705e-01
  3.6895078e-02
  9.1600887e-02
 -6.9674236e-01
 -2.1406816e-01
  4.6813491e-01
  2.3352758e-03
 -1.8605995e-01
  1.9763412e-03
 -1.9239248e-01
  6.9054281e-03
 -2.0575996e-03
  1.0852346e-03
 -1.7682809e-02
 -5.9760749e-02
  1.9766586e-02
 -1.6463416e+00
 -7.6701742e-01
  1.5196696e-01
  8.2090712e-04
 -4.6239176e-01
 -1.7618449e+00
 -7.0580192e-02
 -2.3173369e-01
 -2.9663727e-01
  1.1739222e-04
 -9.3178488e-03
  4.6366039e-03
  1.9609299e-04
  3.3084431e-01
 -1.4459090e+00
  5.0699800e-01
  3.6257991e-01
 -4.8468027e-02
 -2.9834055e-03
  7.9282224e-03
 -1.0651679e-01
 -7.6878017e-01
 -8.6172186e-03
  2.1718569e-01
 -1.2966049e-01
 -1.0950437e-02
 -1.4572875e-01
 -1.4760409e-03
 -5.5157006e-02
  1.9792907e-01
 -1.2649798e-03
 -3.9210731e-01
 -6.9487520e-02
  2.8096002e-03
  9.1558853e-03
 -1.2170456e-02
  3.6143411e-02
 -2.2245333e-02
 -1.1189994e-03
 -2.9521026e-03
  2.0805581e-03
 -5.4576653e-03
 -1.3171010e-02
  1.4141498e-03
  2.3373678e-02
  7.1508043e-02
 -1.1776239e+00
 -9.1948219e-02
 -4.4617854e-02
 -5.5716229e-03
  3.0100002e-04
  6.3188444e-04
  2.1292244e-03
 -3.9473234e-06
  4.1000419e-03
 -1.4496720e-04
  3.7700078e-04
 -5.3418982e-03
  8.3319104e-04
 -8.8703372e-02
 -6.0578077e-03
  1.7928223e-03
 -1.0454648e-03
 -2.2193850e-03
  1.2721368e-02
  9.2332391e-04
 -3.8281444e-04
 -1.1287047e-02
  1.0888566e-03
  1.2338655e-03
  1.0858106e-03
  6.3012717e-03
 -8.2282105e-04
  1.3274280e-03
  1.3440737e-04
  2.2780563e-04
  2.4315775e-03
 -9.3575189e-04
  5.6718267e-03
 -3.0699593e-04
 -4.1774758e-03
 -1.5551927e-03
  3.4967551e-03
 -1.7549276e-03
 -6.0884393e-04
 -6.2815048e-04
  6.2537869e-04
 -9.7323279e-04
  3.9542408e-04
  9.3837280e-04
  5.7632526e-05
 -1.5208487e-03
  4.5293686e-03
 -1.6315856e-03
  6.2340655e-04
 -8.2750275e-04
  7.3770661e-04
 -2.1581021e-03
  6.5024511e-04
 -5.6202216e-03
  5.2768076e-03
 -1.1488299e-03
  5.8077421e-06
  6.8217941e-04
 -1.8906388e-03
 -1.4391275e-03
  2.6600820e-04
  2.1018321e-04
 -3.5875314e-04
  1.9764642e-03
 -9.7481441e-04
  6.8548310e-04
 -1.6145093e-03
  1.2919364e-03
  3.5583047e-04
  5.5801228e-04
  9.6879870e-04
 -2.3282641e-03
 -2.0813067e-03
 -1.3932011e-03
  1.7249110e-03
 -4.2299170e-04
  3.1586289e-03
 -3.2534120e-03
  5.9672003e-04
 -6.5858330e-06
 -1.5851774e-04
  5.0930609e-04
  9.8672323e-04
 -2.4198319e-03
  1.2625990e-04
  1.5645844e-01
  2.7553522e-04
  2.4854494e-04
 -4.5253825e-01
  2.4125131e-02
  1.1867909e-04
 -4.4195491e-04
  1.2337510e-03
 -1.8001619e-03
 -6.0040522e-03
  5.8499355e-02
 -1.1589070e-04
 -1.5907367e-01
  3.8892874e-03
  7.3973241e-04
 -1.2069999e-03
 -5.7122670e-05
 -1.9851355e-03
  1.3097972e-03
 -3.4619754e-04
 -1.0816519e-03
 -2.4453769e-03
 -4.2594182e-03
  4.0475619e-01
 -3.7733384e-04
  8.8410091e-04
  9.2610740e-04
 -6.6308747e-04
  1.0551385e-03
 -1.4348820e-01
  2.7164635e-03
 -1.3661245e-04
  1.3821641e-03
  1.4459906e-03
  2.3801581e-03
 -1.8952156e-03
 -1.2555508e-02
 -1.2100543e-03
  1.9334913e-03
  1.9219876e-03
 -1.2835339e-03
  6.3165426e-06
  1.9460853e-02
  8.8975018e-01
  3.4561151e-04
  1.3448493e+00
 -5.0777156e-02
  3.1971809e-01
 -4.8948923e-04
  1.1259145e-01
  1.4843228e+00
  3.9576337e-01
  4.1244991e-02
  2.9269606e-01
 -3.4761755e-04
  5.9987330e-01
  1.3315462e-03
 -7.8758865e-04
  4.9804416e-01
 -1.2021291e-01
  3.8959169e-01
  4.3967911e-03
  6.6847861e-01
 -1.7720355e-01
  2.5259063e-01
  3.0847127e-03
 -3.9268465e-04
  1.2650341e-01
 -2.7112690e-01
  6.2983537e-01
  4.8524505e-04
 -1.8510741e-01
  1.8039761e-03
 -4.7625534e-04
  2.1078010e-01
  1.6738464e-01
  3.2743016e-01
  1.6912683e-03
  1.0067314e+00
 -4.7687795e-03
  3.3497973e-04
 -2.1185166e-01
  8.4504159e-04
 -6.7753375e-02
 -1.0124117e-03
 -1.2175309e-02
 -2.2291970e-03
  1.6804996e-03
  4.5083667e-04
  2.9387858e-03
 -8.4863568e-04
 -2.5135608e-04
  1.5894007e-03
 -4.6260636e-03
  8.9043304e-03
  2.1034549e-04
 -8.3979865e-04
 -4.3334905e-04
  1.3780454e-03
  1.2318185e-03
 -5.4201041e-04
 -9.1770646e-04
 -5.7410910e-03
 -9.0807455e-04
 -1.4200326e-03
  2.4596672e-04
 -2.4969241e-04
  2.8997037e-04
 -1.5486995e-03
  2.3051596e-03
  2.5820814e-03
 -1.0382006e-04
 -1.8051930e-03
  6.2609101e-03
 -2.0674909e-03
  3.3965096e-04
  1.9340802e-03
  8.8629511e-04
 -1.6013572e-03
 -2.8984812e-03
  6.1458689e-03
  1.6957179e-03
  2.3943500e-04
  1.9104757e-04
 -9.0983236e-04
  1.1926224e-03
  3.8033240e-03
  1.2249487e-03
 -6.9798273e-04
  3.5004452e-04
 -1.5028429e-03
  8.7748701e-03
  2.7483960e-03
 -4.3967464e-03
 -1.1717420e-01
  1.0135202e+00
  1.6171885e-01
  7.8111514e-03
  1.8541329e-02
 -2.3884345e-03
 -2.3472111e-03
  4.7797861e-05
  7.1720919e-04
  5.5251550e-04
 -1.0704905e-03
  1.6857483e-03
  1.8356661e-03
  1.8658928e-03
  1.9557906e-02
  2.4500927e-03
 -6.5916544e-04
 -3.5307891e-04
  7.2905547e-03
 -2.1522241e-02
 -1.7383974e-02
 -1.7601681e-03
  1.7847613e-02
  2.3906048e-04
 -6.3040631e-04
  3.6612686e-03
 -8.0894947e-04
 -3.0331570e-03
  4.4821698e-04
 -7.0880796e-04
  2.8545354e-03
 -2.5051434e-03
 -5.6312897e-04
  8.6863409e-05
  1.5478800e-03
 -2.6847681e-04
  3.3586919e-03
 -2.2477268e-03
 -6.8900408e-05
 -5.4717372e-04
  2.1090783e-01
  4.1571000e-01
 -2.6841660e-03
  4.4854206e-01
  3.9808643e-01
 -1.6828328e-01
 -1.7897796e-02
  1.0649867e-01
 -6.2219266e-02
  4.9504517e-03
  3.7715822e-02
  2.9784223e-01
 -6.8345815e-02
 -1.8461440e-03
 -1.8175652e-03
 -1.7254814e-03
 -3.9688697e-01
  9.8785199e-02
 -4.3537506e-01
 -1.1948938e-01
 -6.2205428e-03
 -2.3085561e-03
 -6.3055032e-04
  3.5072500e-01
  1.9321208e+00
  1.3256468e-01
 -1.0029615e-01
  1.3098717e-03
  5.2477641e-05
 -1.3519040e-02
  3.2615592e-03
 -5.3861580e-04
  1.8322798e-03
  4.1664080e-03
  4.5775240e-03
  4.8825890e-03
  7.2144036e-04
 -2.0447935e-03
  1.8601560e-03
  1.3782834e-03
  5.0529111e-03
 -2.5360542e-04
  1.2377285e-03
 -4.8453856e-04
  1.3141208e-03
  1.2083029e-03
  9.6435938e-04
 -3.6326054e-02
 -2.8613605e-02
  1.8565068e-01
  2.9761842e-03
 -2.4337703e-01
  1.1442717e-01
 -2.0449404e-03
 -6.8115699e-04
 -6.6892751e-03
  1.4544658e-03
  3.1588390e-04
  3.0781976e-03
 -7.1428460e-04
 -5.5726147e-03
 -1.2246880e-03
  6.4453813e-03
 -1.0223345e-01
 -3.7589681e-04
  6.2148093e-04
 -1.1522933e-03
 -1.8945296e-03
  9.9891960e-04
  9.0543665e-03
  4.6826769e-02
  8.0336427e-04
 -2.0400651e-03
  3.6248859e-02
 -4.9984803e-05
 -2.6786777e-03
 -1.1741909e-03
  2.7291602e-04
  2.5510433e-04
 -5.5433912e-03
  2.0751948e-03
 -5.9982168e-04
 -1.2970483e-03
 -3.1195295e-03
  8.1080315e-04
  1.0993048e-03
  1.9992387e-03
 -3.5672681e-04
  2.9840085e-04
 -5.9943166e-02
 -5.3469270e-01
  3.3030689e-01
 -4.0849379e-01
  8.5985523e-01
 -8.1539881e-01
  5.7762410e-02
 -4.8651308e-01
  6.6172880e-01
 -3.0892033e-02
  3.8424739e-01
 -2.5110883e-01
 -1.4446384e-01
 -3.3384420e-02
  2.4406537e-03
  6.3860277e-04
 -1.2607709e-01
 -1.4787463e-02
  2.7720293e-01
 -3.9610311e-02
 -1.4333220e-01
  1.0631655e-01
  2.1867499e-02
 -3.5203621e-01
  7.8627503e-01
  1.6219707e-02
 -1.9689991e-01
  2.8047205e-03
  1.5765066e-01
 -8.3313324e-02
 -1.1329252e-01
 -8.6732460e-03
 -1.1226937e-02
 -1.6194615e-04
  2.2084612e-02
  3.3332467e-01
 -2.8309904e-03
  9.7620655e-03
  2.4215203e-02
  7.4832894e-02
 -2.3175037e-02
  1.7647397e-03
  1.9606791e-01
 -3.1421642e-04
 -7.5271907e-03
  5.5971883e-02
 -6.8561800e-02
 -6.2432397e-02
 -1.4331686e-01
  2.2672502e-02
  1.8607143e-02
  1.7187868e-01
 -3.2457465e-03
 -4.5755699e-02
 -2.3337007e-01
  1.9065844e-01
 -5.9225117e-03
  6.7811203e-04
 -6.3344667e-04
 -3.6615547e-02
 -1.2135839e-01
  2.3013184e-02
  5.1680289e-02
 -1.0777401e-03
  2.1775439e-03
 -2.2374777e-04
 -6.8144840e-03
 -1.6248767e-01
 -1.8082836e-01
  4.2154010e-02
  5.0189625e-04
 -2.2304114e-03
  2.7318865e-01
 -2.0905850e-03
 -4.0937080e-03
  2.4190160e-02
 -8.7146822e-04
 -1.7155619e-01
 -6.6105723e-03
 -1.9074033e-03
  4.5044911e-03
  2.1529540e-04
  3.0979456e-04
 -1.3957001e-02
  7.6241675e-04
 -6.7030080e-04
 -2.8876046e-04
  6.3492177e-04
  1.7034429e-03
 -8.0045161e-04
  5.7467669e-02
  5.6883378e-04
 -2.7872482e-03
 -3.9625587e-04
  1.1232165e-03
  3.4071398e-03
  1.4411776e-03
 -4.9769375e-03
 -1.4696073e-03
 -4.7642407e-03
 -1.5636830e-04
  4.4331471e-03
 -1.5287157e-03
 -2.0578469e-03
  5.6640082e-03
 -1.7258895e-03
 -9.7706146e-04
  8.0307492e-04
 -3.8526271e-04
 -3.1145248e-03
  2.5636838e-03
 -2.5237328e-03
  2.1038353e-03
  1.0081513e-03
 -6.3246646e-04
 -1.3307612e-03
 -1.1864178e-03
  1.0879223e-03
  1.9861476e-03
 -6.0976828e-03
 -8.3528575e-04
  4.0719472e-04
 -4.0413778e-02
  4.1606132e-04
  5.5629056e-04
  5.8857689e-04
 -4.4549508e-03
  1.8707056e-03
  1.1423051e-03
  2.4555374e-03
  9.3790132e-04
  4.3183402e-04
 -1.1201286e-03
  1.5613427e-03
 -1.7464475e-04
  2.7053096e-04
  1.2724306e-03
 -3.1375387e-03
  3.9525824e-03
  5.4044537e-03
 -5.2847841e-05
  3.1918610e-04
  2.6417729e-03
 -2.1658302e-04
 -1.1072153e-03
  3.5687643e-03
 -1.3588880e-03
 -2.7607465e-03
  5.8764277e-04
  9.4267121e-04
 -4.4147886e-04
 -2.1931977e-05
 -1.4543793e-05
  1.4077578e-03
 -1.4569570e-04
 -1.0107792e-03
 -1.2399452e-03
  3.1401534e-03
 -2.1630113e-03
  8.7651185e-04
  2.8498791e-04
  2.4506636e-03
 -2.4703777e-04
 -1.5567588e-03
  1.4197995e-04
 -3.4719542e-06
 -5.9036380e-03
 -6.1188079e-04
 -2.2790893e-03
 -2.4173236e-03
  3.1750265e-04
 -2.2527848e-03
 -2.4733183e-03
  2.0970171e-03
  4.9816107e-04
 -8.4256311e-04
  1.6307505e-03
  9.8607549e-04
  5.4490753e-04
  3.6159994e-03
 -2.9435962e-01
 -2.3109550e-03
 -8.9538965e-04
 -9.3331181e-02
  3.4014313e-04
 -1.6351370e-03
 -3.8749315e-03
  4.7248276e-03
 -1.1919668e-03
 -3.0766600e-03
 -1.4642475e-04
 -8.7500364e-04
  7.5427379e-04
  5.9670201e-03
  1.5445118e-03
 -6.5269182e-04
  7.7532383e-04
  1.7214705e-03
 -7.3107006e-04
 -1.8894423e-03
  1.7772254e-03
  2.7004373e-04
 -8.5659400e-03
  3.8142549e-05
  2.3651478e-04
  1.4846416e-03
 -9.0536638e-04
  9.4885862e-04
  7.1024842e-06
 -6.2930869e-04
  1.7026556e-05
 -3.5030369e-04
  2.9217822e-03
 -1.7606819e-03
 -1.7907294e-03
 -6.0074301e-03
 -1.4706204e-03
  6.5174128e-04
 -4.2464084e-04
 -4.9908915e-01
 -5.5130965e-01
  2.9972529e-01
 -3.2011411e-01
 -4.6753921e-02
 -5.4138869e-02
 -5.6359977e-01
 -9.1617298e-01
  1.9139159e+00
  7.4193448e-02
 -3.2832423e-01
 -1.1121868e-01
  1.1475214e-01
  2.5173074e-01
 -6.9595157e-04
  1.0928906e-01
  5.3688800e-01
 -3.4901446e-01
 -4.9617907e-01
  7.6068395e-01
  4.2038748e-01
 -1.2025189e-02
 -1.0042600e-02
  4.6192619e-01
  2.5832331e-01
 -7.0705122e-01
 -2.5775427e-01
  6.9522194e-04
 -1.6068001e-03
  1.7363120e-02
 -1.3006518e-02
  4.6792430e-01
 -3.6035267e-01
 -1.8972459e-01
 -1.2064728e-01
  2.8105942e-03
 -2.7239296e-04
  7.3199300e-04
  1.9223902e-03
 -3.1869166e-02
 -2.4027167e-01
  4.3233573e-03
  5.6585413e-06
 -1.7680138e-03
 -1.3860967e-03
  1.4525305e-03
 -2.7791539e-04
  1.7069488e-04
  8.6543465e-04
 -5.7195395e-01
  1.2320114e-03
 -1.9078050e-03
  2.6058282e-03
 -1.6393141e-01
  6.6425041e-03
  1.5879975e-04
 -1.9132942e-03
 -2.4769951e-03
  4.2198868e-03
  3.6618405e-04
  1.4898886e-03
 -1.4028589e-03
  1.6251781e-03
  1.3671449e-04
  4.5788052e-04
  1.5931335e-04
  2.5015050e-03
 -3.6523340e-04
  1.3547468e-03
  6.7352230e-04
 -9.6121128e-04
 -7.4760680e-04
 -1.5299127e-05
  6.9917645e-04
  3.9226040e-03
 -2.1222222e-04
 -1.6108521e-03
 -4.7376647e-04
 -4.6058251e-03
 -8.0444152e-06
  2.5298093e-03
  2.2903685e-03
  6.3977437e-05
  3.6508630e-03
 -2.5803281e-03
 -7.0368714e-04
 -5.0220918e-04
  6.5204594e-04
  8.4942119e-05
  5.4786971e-04
 -9.6193410e-04
  3.1242296e-03
 -7.2554278e-05
 -1.1521523e-03
 -7.1004959e-04
  2.5160145e-04
 -4.9798493e-03
 -5.4626918e-04
 -1.3490081e-04
 -6.5824215e-04
  2.7974485e-05
 -2.9456085e-03
  6.8984396e-04
 -4.1494328e-03
  6.5730233e-04
 -4.5773610e-03
  1.4994296e-04
  3.5614842e-03
  1.4733793e-03
  3.6766118e-04
 -1.9884068e-03
  1.3915368e-03
  6.2040286e-05
 -3.8296590e-04
  1.1497691e-03
  1.1719717e-03
  4.2439660e-04
  6.0046045e-04
 -1.5621597e-05
  2.8464093e-03
  2.6259692e-03
  2.2915890e-04
  1.8115027e-03
  4.2632694e-04
  2.2067067e-03
 -4.0310328e-03
 -1.1921162e-05
  1.1057853e-03
  2.5623052e-03
 -5.8044837e-04
 -4.6930631e-04
  8.0685335e-04
  2.3805560e-03
  1.0177894e-04
  9.4370509e-04
  1.1571107e-02
  2.3693515e-03
  1.9492275e-01
 -2.6998895e-03
 -2.2684835e-04
 -1.1127222e-02
 -1.6543075e-03
  2.1019705e-02
  4.1954566e-02
  2.2475123e-03
  5.1125925e-04
 -2.0929445e-03
  1.8808307e-03
  1.7586276e-03
  5.2602421e-03
 -1.1117022e-01
 -3.4047212e-03
  3.6965322e-04
  8.4806321e-05
  5.5323739e-04
  1.8457433e-02
  8.8000437e-04
  1.5178206e-02
 -2.1029253e-02
 -1.2639395e-03
  7.0882001e-04
 -1.0116439e-03
 -3.1846615e-03
  6.9389306e-03
 -1.3738119e-03
  1.2290303e-03
  1.5017090e-03
  4.5789923e-03
 -6.1903161e-04
 -8.9318590e-04
  8.7287801e-05
 -8.1159929e-03
  8.2598708e-05
  1.6544182e-03
 -7.8327948e-04
  1.8905473e-03
  5.3027379e-03
  2.3668271e-03
  3.1400751e-04
 -1.9673754e-01
 -1.0054682e-03
 -7.6370656e-02
 -7.1151019e-04
 -9.7602338e-04
  3.5551242e-03
 -3.5199359e-05
 -2.2248575e-02
  2.2803156e-03
  2.1534564e-03
  3.3492548e-03
  1.9331113e-04
  1.7409363e-03
 -2.2882191e-03
 -5.4066396e-01
  3.1889740e-02
  2.5095206e-03
 -3.4450108e-04
 -3.1084404e-05
 -2.4866624e-04
 -2.8995180e-04
 -5.7275761e-03
  3.7994436e-03
  4.8179971e-03
 -8.8311190e-04
  9.7963109e-04
  3.9885152e-04
 -1.7162203e-04
 -1.9131833e-03
 -3.1218276e-04
 -2.6321347e-04
 -5.7297681e-02
  1.1206085e-03
  1.5533776e-03
  2.3221455e-03
  2.3271491e-04
 -3.4798926e-04
 -5.0462033e-03
  1.2887040e-03
  1.0410529e-04
 -1.2116476e-04
 -6.3204800e-04
 -5.1116932e-04
  7.5167804e-03
 -4.6119802e-02
  2.5168055e-04
  2.7256453e-01
 -5.1474366e-02
 -3.0456414e-02
 -7.4758865e-02
 -1.8704885e-03
 -2.0736784e-02
 -3.2364911e-01
  5.2849162e-02
  1.7476366e-03
  3.1515944e-04
 -5.5744115e-04
 -2.0663305e-03
 -4.6529975e-02
  1.5292515e-02
  4.4297460e-02
 -7.9876732e-04
  1.2447005e-02
  4.2086598e-04
 -1.1922971e-02
 -1.8125566e-03
 -1.7400784e-02
  5.5301353e-02
 -1.5466180e-04
 -2.3377556e-04
  1.1738418e-01
  4.2337162e-04
 -2.5748715e-03
  2.0162877e-02
 -9.4741592e-03
 -8.0505788e-02
 -2.7354281e-02
 -6.0528505e-04
  9.3365199e-04
 -8.2037575e-04
  1.2151215e-03
 -3.7145168e-03
  1.4684601e-03
 -7.0426916e-04
 -2.8245265e-03
 -2.3125764e-03
  4.7084430e-04
  2.3669200e-03
  2.3301868e-04
 -1.3406281e-03
 -1.3004601e-03
 -4.1736526e-04
 -1.4873114e-03
  2.3822745e-03
  1.9047083e-03
 -2.8516948e-03
 -1.4883851e-03
 -2.9384880e-04
  7.5424719e-04
 -1.7237667e-03
 -1.3834087e-03
 -5.8178877e-04
  2.1902255e-03
 -4.9766363e-04
 -4.0656916e-05
 -2.7515031e-03
  6.5781700e-05
 -9.2645204e-03
  3.7906438e-03
 -3.6537432e-04
  4.7233517e-04
  2.2555827e-03
  4.3334422e-04
  2.0469432e-03
 -3.0966187e-04
 -1.3150363e-03
  3.3983469e-04
  1.5702865e-03
  8.1127288e-04
 -3.9332738e-04
 -9.9432853e-04
 -3.9761819e-04
 -3.4229946e-05
  7.3979498e-04
 -1.1216174e-03
 -2.5268625e-03
  1.5689956e-03
  2.2915148e-03
 -1.9169975e-03
  8.8952028e-04
 -2.1383255e-03
  1.9596773e-03
 -5.8391611e-03
 -8.9150621e-04
 -1.8930045e-01
  1.4950626e-03
 -9.5290766e-04
  1.4445824e-03
 -1.1844434e-03
  1.0622649e-03
 -8.9210144e-04
  1.5099879e-04
  1.2755190e-04
  1.3877928e-03
  4.9451401e-04
 -1.8420828e-03
 -5.2011706e-04
  1.6974367e-04
  2.2512223e-03
  4.0742010e-04
  6.6454802e-03
 -2.5283578e-03
 -2.8645198e-04
  8.9693547e-04
 -5.7547545e-04
 -6.5895496e-04
  1.5994997e-03
 -2.2726797e-04
  1.1514600e-01
  1.5662603e-04
  1.5747163e-03
 -4.4780867e-03
  1.6313448e-03
  7.9054025e-04
 -2.1509835e-03
 -3.8515513e-03
  4.8286509e-04
  1.8061912e-03
  1.2798600e-03
  1.1928196e-03
 -8.4195682e-04
 -1.0329629e-03
  1.1732633e-04
  6.8540534e-04
  8.7251625e-04
 -1.7944143e-04
  2.2609199e-03
  1.8257521e-03
 -8.2526775e-03
 -1.0217766e-04
 -1.0306418e-03
 -2.8871899e-02
 -5.8544194e-04
 -1.3319456e-03
 -2.7843493e-03
 -4.5703971e-03
 -4.4554687e-04
  3.7135955e-04
 -1.0335561e-03
 -3.1745867e-03
 -4.6826098e-03
  1.1855963e-04
 -7.5441110e-04
  3.4764706e-04
 -3.0749384e-04
  2.7567712e-03
  3.1176937e-04
  5.0716787e-03
  5.6177081e-04
 -9.4782375e-03
  8.5416040e-04
  5.1529065e-04
  7.2372868e-04
 -1.3598762e-03
  5.9595122e-03
  2.5020188e-04
  9.6939900e-04
  2.0771311e-03
  4.9755815e-03
  5.1975390e-04
 -2.5942386e-04
  9.1954425e-05
 -1.2182189e-03
 -1.4877629e-03
  3.2634469e-04
 -2.9562605e-03
  6.9470721e-04
  7.2780781e-04
 -1.9237656e-03
 -1.6732118e-03
  1.9814661e-03
 -6.7477766e-04
 -5.1466038e-04
 -1.1411376e-03
 -8.7385619e-04
  5.4825062e-04
 -2.3485636e-03
 -2.0116938e-03
 -1.9868379e-04
 -2.2353311e-03
  1.8850100e-03
  2.4673500e-06
  4.5094700e-04
  1.3038987e-01
  1.3933636e-03
 -2.6781345e-04
 -2.8873212e-04
  1.3350825e-03
 -4.0746236e-06
 -2.6741705e-03
  1.2952869e-04
  1.0078729e-03
 -3.4901034e-04
 -9.6206710e-04
 -2.0252566e-03
  2.1866348e-04
  1.7476296e-03
 -7.7044312e-04
  3.2884656e-03
  2.9086266e-04
  7.5350428e-04
  2.6657281e-04
  3.9186241e-04
  1.2540059e-04
 -2.9124808e-04
 -5.4548954e-04
  1.8478776e-03
 -1.9930908e-03
 -2.3840912e-04
 -8.6289393e-03
 -1.2857629e-03
 -4.5182514e-03
  3.3741134e-01
  2.0378813e-04
  2.5323156e-04
 -9.8213879e-04
 -6.8443459e-01
  2.7064497e-02
 -2.4844915e-02
  8.9309476e-03
 -1.0391894e-03
  4.7295904e-03
  7.1703214e-03
  2.9476217e-04
  1.4377533e-02
 -1.9114746e-02
  1.0655564e-03
  7.9198582e-03
 -2.3315201e-04
 -9.1106892e-02
 -4.2235665e-03
 -4.8396114e-02
 -3.0381724e-03
  3.1103829e-02
 -7.2348177e-02
 -4.4039477e-02
 -1.1909866e-01
 -5.2408844e-01
  3.6927822e-04
  4.7146673e-03
  4.4386539e-01
 -1.1683070e-03
  5.8378174e-04
 -3.8087584e-02
 -4.0150643e-04
  1.6330084e-01
  7.3287054e-03
  3.1683911e-02
 -6.5831905e-03
  1.0360655e-04
 -9.4947912e-04
  2.5924789e-03
 -1.0842900e-02
  7.7452976e-04
 -1.0549948e-03
 -5.2966403e-05
 -7.6065207e-04
  5.3430034e-04
  1.8134125e-02
 -2.3165999e-03
 -2.5123942e-01
 -2.4058858e-03
  1.6733744e-03
 -2.5334253e-03
  2.8460094e-04
 -3.9376318e-06
  4.3990463e-03
 -3.9550439e-03
  5.1785179e-04
  2.8618658e-04
  3.5082598e-04
  2.6053819e-03
 -9.3958899e-04
  8.5022970e-05
  1.3975876e-03
 -2.6508975e-03
 -2.8533951e-04
 -7.2105977e-05
  1.9300964e-03
 -1.2323866e-03
  2.9343691e-01
  2.9997496e-04
 -9.8263263e-04
  6.1599346e-04
 -1.3462434e-03
 -2.2696028e-04
  3.7423984e-04
  1.4645635e-03
  1.6189441e-03
  2.9939362e-03
  3.4175217e-02
  5.0246962e-03
 -3.3229836e-03
  1.2777558e-03
 -7.7592442e-05
  4.0440689e-04
  4.2340180e-05
  7.2067120e-04
  1.2132775e-03
  3.6768400e-04
  1.6163270e-03
 -4.4786255e-04
  5.6714052e-04
 -5.0648316e-03
  5.1391768e-01
  6.0454854e-03
  1.9714734e-01
  7.5843252e-02
 -3.4581538e-04
 -4.3232250e-04
 -6.8495324e-04
  3.6893659e-03
  2.6389246e-03
 -4.4628861e-05
  8.3726821e-03
  1.0182454e-03
 -1.6250395e-03
 -1.4930306e-03
 -9.5513032e-04
  9.5233176e-05
  7.3116214e-04
 -1.0396690e-03
 -9.6702721e-04
 -3.0683682e-03
 -1.0603569e-03
  7.4111726e-03
  3.2366623e-04
  3.5289640e-03
 -3.0914240e-04
 -1.4922050e-03
 -6.5344758e-04
  1.3572780e-03
 -2.1042968e-03
  7.4527960e-04
  3.7167510e-03
 -9.1333775e-04
  1.6860319e-03
 -2.0596990e-03
  8.9491101e-04
 -1.3780612e-03
  1.2836829e-03
  1.0926985e-03
  4.5114866e-04
 -1.8862920e-05
 -5.3925015e-04
 -5.6766003e-04
 -1.3965683e-03
 -3.8822327e-05
 -7.9558641e-01
 -3.4174239e-03
  3.8469493e-04
 -4.9043423e-03
  4.2326481e-04
  5.4044358e-06
  1.9258948e-04
  3.2202832e-03
 -1.2067975e-03
  1.6014429e-03
  1.1027197e-03
  1.4732872e-03
  8.8338141e-04
  3.2628626e-03
  4.4675713e-04
 -4.9667181e-03
  1.4166202e-03
 -2.0614106e-03
 -1.3696749e-04
  2.6839611e-04
  1.6778671e-03
  7.3900342e-04
  1.0572207e-03
 -5.3158746e-04
  2.6496003e+00
 -2.4690276e-03
 -1.4739719e-03
 -1.6172876e-04
 -6.6471840e-03
 -6.7328272e-04
  7.0508209e-04
  3.7707016e-03
 -4.2300054e-04
 -1.4830785e-03
  4.3903414e-02
  1.9890273e-03
 -2.6053810e-03
  1.8694290e-03
 -2.6232530e-03
  1.5033400e-03
 -8.1131751e-05
 -3.8473052e-03
  7.3061012e-02
  4.0586322e-04
  1.3242662e-01
 -1.7047329e-01
  5.6916423e-02
  2.2589734e-01
  5.1602628e-03
  1.7906178e-03
  1.3946872e-02
 -2.0464364e-02
  2.2235380e-03
  1.8429769e-04
 -6.8072038e-04
  4.9889505e-02
 -7.6868623e-03
 -1.7151833e-02
 -2.8096924e-03
 -4.6415016e-04
 -1.5463331e-02
 -2.1240879e-03
  9.2119444e-03
  2.6760129e-03
 -8.7973161e-04
 -3.6256221e-01
 -6.9511402e-04
 -1.1437226e-03
 -5.9935230e-01
  3.1788694e-03
  1.0322911e-03
  5.1691088e-05
  1.0044060e-03
 -7.6362694e-04
  3.7740492e-03
  9.0337373e-02
 -3.5099292e-03
  2.5788918e-03
  1.2517110e-03
  2.7920803e-04
 -1.5770665e-03
  3.7020002e-04
 -3.3818972e-03
 -1.4246776e-03
 -2.5538236e-04
  6.3370369e-02
 -1.2525429e-01
  7.4266997e-04
  1.2591629e-02
 -3.0504039e-04
  7.7793899e-04
  4.4519138e-03
 -7.0816837e-04
 -2.2964801e-03
  8.2898769e-05
  7.5285360e-03
 -3.1240212e-03
 -8.7850599e-04
  1.8156354e-03
 -7.1463175e-03
 -3.1004781e-03
 -4.4089349e-04
  3.3352766e-02
  4.7158118e-04
  5.7574078e-05
  2.8495071e-04
 -4.6102118e-02
 -2.4241861e-03
  2.1399602e-03
 -1.0176374e-03
 -6.9939106e-04
 -4.3995102e-04
 -3.1388534e-04
  1.3670356e-03
  1.1756347e-05
  6.2464643e-04
  4.1215710e-04
 -1.5976506e-03
  5.4789525e-03
  1.3609664e-03
 -1.8021645e-04
 -2.4783763e-04
  7.8108499e-04
  2.9728393e-04
 -2.3196330e-03
  1.0662114e-03
 -9.3205232e-04
 -1.4772895e-03
  4.9252599e-03
 -2.2563250e-03
 -1.8194381e-02
 -7.1366899e-02
 -8.8059503e-01
  6.7532575e-04
  6.1075501e-02
  6.9770974e-04
  1.6536482e-03
 -5.6789871e-03
  2.6870884e-03
  1.1805559e-03
 -4.0277181e-04
 -2.4214124e-03
 -8.5319631e-04
  2.6401186e-03
  2.4440747e-03
  7.3108844e-05
 -1.7205102e-03
  4.2011848e-04
  2.0091503e-03
 -4.4956556e-04
  1.1788389e-03
 -4.4364313e-04
 -1.0526417e-03
  6.0954835e-04
  1.9837785e-04
  1.1824057e-04
  2.5062396e-03
  7.3088874e-04
  6.8402733e-05
 -1.1327944e-03
 -1.4774562e-04
 -2.4848431e-04
 -2.6820460e-04
  2.7443192e-03
 -3.3297760e-03
 -6.4318685e-04
 -1.5682881e-03
  8.9055271e-04
  1.2869943e-03
  2.0336377e-04
 -6.9616064e-02
  4.8443130e-01
  1.6116217e-01
  5.2096147e-02
  5.9204626e-01
  1.2961860e-01
  5.9678555e-01
  3.8165323e-02
  1.2114852e-02
 -4.4157627e-01
 -3.9676100e-01
 -2.2184353e-02
 -3.8321188e-01
  3.6896297e-01
 -3.0555966e-01
  6.4805463e-02
  7.2034239e-04
  2.7044180e-01
 -1.3437973e-01
  2.1576190e-01
  3.5875756e-02
 -3.6476946e-01
  1.0752443e-02
 -5.7843599e-02
 -2.4696870e-02
 -6.3409470e-02
  2.0226337e-01
 -2.8488564e-01
 -6.3158339e-01
 -2.6743644e-01
  3.9643627e-02
  2.7550402e-01
 -9.5737189e-02
  1.4029618e-01
  2.5617823e-01
 -3.0379334e-01
 -1.6668199e-01
  9.4923307e-04
  9.9071465e-04
 -3.1997070e-03
 -1.8558879e-01
 -5.3357549e-02
  6.2545583e-02
 -6.0094707e-02
 -6.9763360e-04
  2.2273150e-03
 -1.8657076e-03
  1.7243106e-04
 -7.5468828e-04
 -1.9658401e-03
 -6.2078565e-01
 -3.2236846e-03
 -9.0841716e-04
  6.5646303e-04
  2.1338425e-04
 -1.1015101e-05
 -4.3287599e-03
  1.5036970e-04
 -3.1322430e-04
 -1.5403798e-03
  1.8084121e-03
 -4.3863198e-03
  3.1413741e-03
  3.8780543e-04
 -6.4771262e-04
 -4.3886155e-03
  2.9351620e-03
 -1.9613872e-03
  3.0180474e-04
 -2.6928717e-03
  2.0657529e-04
 -2.8810574e-04
  1.1336581e-03
  4.0126522e-04
 -5.3511565e-03
 -8.3772838e-04
 -5.8189017e-04
 -5.0114916e-04
  1.0747844e-03
 -1.9120986e-03
  3.6907073e-05
  4.8223679e-04
  3.3830141e-04
 -3.6696570e-03
 -1.1007562e-03
 -1.5368940e-03
 -1.4057753e-04
  3.1564876e-03
  1.6460316e-04
 -9.6159161e-04
 -1.0673952e-03
 -1.1174859e+00
  1.0095812e+00
  1.2243353e-01
 -2.6756716e-03
  1.9270624e-03
  4.8404679e-02
  3.1638640e-01
  2.9506198e-01
 -1.2688071e-04
 -2.9526806e+00
 -6.4500509e-04
  1.5940319e-01
  1.8422015e-02
  1.2468122e-03
  7.9899505e-02
  1.2261918e-01
  5.0754469e-02
  1.4401196e-03
  6.5971087e-03
  2.2868831e+00
 -2.6805094e-03
 -3.1634122e-01
 -5.9448951e-01
  2.3525462e-01
 -4.1957736e-02
 -1.9439125e-03
  3.7498839e-04
  1.9552051e-03
 -3.5200664e-03
 -2.6836723e-01
 -2.4651303e-03
 -6.9262611e-04
 -4.8130751e-04
 -2.1796131e-03
  2.7642975e-02
  2.2131393e-03
  1.0037751e-02
 -2.3633896e-01
 -3.6164315e-04
 -5.5898213e-01
  8.3777297e-01
 -4.4964135e-01
  1.1772832e-01
  6.0004026e-01
 -1.8326845e-04
 -2.5449671e-02
  4.4181338e-03
  1.6910615e-04
 -3.9584871e-02
  3.6127479e-03
 -1.2422956e-01
 -4.4623494e-01
 -1.1482879e-01
 -5.0312895e-02
  1.2466267e-02
  3.3487594e-01
 -3.6109596e-01
 -5.4062659e-01
  4.1183936e-03
 -4.3277967e-01
  1.0147802e-01
 -1.2822156e-01
  8.4729820e-01
 -1.4001946e-02
 -1.0644140e+00
 -1.8672638e-01
 -7.7008539e-01
  3.6344404e-04
 -1.3518906e-01
  2.9343709e-01
  1.4410487e-03
  1.0758269e+00
  1.1969709e-01
 -1.1142763e-01
  9.5914805e-01
 -1.9906455e-01
 -2.6927106e-04
 -2.7241595e-02
 -1.0228654e-01
 -3.3204949e-01
  3.2396611e-02
 -5.3778933e-03
  1.2861697e-01
 -7.2605357e-02
 -2.6520598e-01
 -4.6661305e-03
 -7.4497603e-02
  6.7754872e-02
  2.7386160e-03
  3.3704597e-01
  2.1849516e-01
  4.6051678e-01
  2.2911035e-02
  1.3467172e-01
 -8.2040682e-02
  3.4125748e-01
 -5.2027208e-01
 -3.2790627e-02
 -7.8047568e-05
 -1.4872305e-03
 -6.2232913e-04
  1.6420613e-04
 -1.1955864e-02
 -9.5258822e-04
 -2.6071176e-03
  1.5180253e-02
 -1.8742809e-05
  2.2497155e-04
  2.9152443e-03
 -1.8179283e-03
 -4.0984345e-03
  7.2031852e-04
 -2.3792525e-04
 -1.2582869e-03
  1.4348163e-03
 -3.0192025e-03
 -1.5511219e-03
  2.1840588e-03
  1.0978539e-03
 -2.0554499e-04
  4.0439726e-04
 -2.0491076e-05
  3.0429843e-03
  3.6026430e-03
  1.4123947e-03
  1.1404908e-03
 -8.0115709e-04
 -3.5098306e-04
 -2.9990144e-05
  1.2643012e-03
  6.9020526e-04
 -8.2661142e-04
 -5.0267340e-03
  7.2709064e-04
  1.8826725e-03
 -4.7033653e-04
  2.8453520e-03
  6.5822795e-04
  1.6886331e-03
  2.7395061e-03
  1.5245419e-04
 -1.8378482e-03
 -1.0082737e-01
  1.8121358e-02
  2.6190981e-01
 -5.9158422e-02
  6.9021031e-02
  2.1429099e-01
 -3.8462680e-02
 -5.2117292e-02
 -3.5385169e-02
 -3.8478930e-02
  8.6160004e-02
  2.1834171e-01
  3.0061924e-03
 -3.0363051e-03
 -3.5859339e-03
 -7.5736139e-03
  1.9429137e-03
  4.0459055e-02
  6.0290942e-05
 -2.0904522e-03
 -6.0444478e-02
 -7.5601529e-05
  3.2816538e-01
 -3.9648954e-02
  1.7310883e-01
  2.4340549e-02
  1.6000304e-02
  2.6746884e-03
  4.8265574e-03
 -7.3878147e-04
 -3.9649591e-02
  6.7702532e-02
 -1.6494708e-02
 -3.0580766e-02
 -5.5238968e-03
  1.0114729e-01
  3.2118414e-02
 -1.9913665e-03
 -1.8165420e-03
 -2.0976258e-03
  1.0800666e-02
 -3.8567623e-03
 -4.2090849e-03
  6.4257847e-04
 -8.1084365e-01
 -4.6623483e-01
 -2.6275849e-01
  3.4452018e-01
 -5.7997253e-02
  3.6728001e-01
 -2.7086264e-01
 -3.9254251e-01
  5.5063918e-02
  6.8097228e-01
  5.2133074e-04
 -4.3812370e-01
  1.5168437e-01
 -2.2535922e-01
 -5.3762473e-05
  4.4453226e-04
 -1.1765931e-02
 -1.3446113e-03
 -2.5637662e-03
  8.5923551e-03
 -3.6754692e-01
  4.9882352e-01
 -3.0597165e-01
  1.1347007e-01
  5.0887488e-02
 -5.1564658e-03
  1.4869501e-01
  2.7273139e-02
 -4.5463192e-01
  5.3415932e-03
  1.7755467e-04
  3.9028514e-02
  5.0719585e-03
 -3.1212421e-02
  2.8437367e-02
 -5.8951013e-04
 -7.4318708e-03
  3.9855728e-04
  4.9055447e-03
  1.2850945e-03
 -8.0763092e-03
  4.3039390e-01
  1.4769365e-03
  2.0596688e-03
 -6.2762707e-01
  1.1261145e+00
 -4.9160492e-01
 -3.1008760e-02
 -1.2048637e+00
  1.9204795e-01
  1.1044840e-01
  2.8764269e-01
  1.4553349e-02
  6.0915761e-03
  2.1787791e-03
  2.6600897e-01
  4.0502585e-02
  3.9750222e-02
 -4.5147747e-01
 -1.1267273e-01
 -2.8285445e-03
  4.7027715e-03
  2.2715901e-03
 -4.4585401e-03
 -8.2473677e-01
 -1.9922327e-01
  1.3231182e-02
 -1.4003145e-03
  1.8001434e-01
  1.9278664e-02
 -1.4188772e-02
  2.4261786e-01
  9.9906199e-02
 -1.5456146e-03
 -2.8067211e-02
  4.7972524e-03
 -1.9192940e-03
 -2.2795596e-03
 -2.9383194e-01
 -6.7986129e-04
  5.1610502e-03
  8.5933344e-04
 -1.7069592e-03
 -2.0493141e-04
  1.3863901e-03
  2.0414577e-03
 -4.2832908e-03
 -8.0523820e-04
 -3.0830735e-03
  9.7919221e-04
 -7.5936015e-04
  2.0641137e-03
 -1.6326112e-03
 -5.2403600e-04
  1.0596847e-03
  6.0159323e-04
  2.1850448e-03
 -1.1321317e-04
 -1.1458676e-03
 -1.6651810e-03
 -5.0245679e-04
  1.8742634e-03
 -5.7829602e-04
  1.4319965e-03
  1.0967532e-03
 -2.4037678e-03
 -1.5605700e-03
 -1.3350894e-03
 -6.4642652e-04
 -4.7655895e-04
 -1.4412560e-03
 -6.6866650e-04
 -1.4691835e-03
 -4.0186588e-03
  1.0632715e-03
 -9.3207438e-04
 -8.4828452e-04
  1.2196768e-03
 -2.2986680e-04
 -1.5741498e-03
  9.1367436e-04
 -2.8745886e-03
  1.1529947e-04
 -7.7643798e-04
 -1.3124192e-03
 -5.0884578e-04
  1.7539497e-01
 -1.2873127e-03
 -3.7577918e-03
 -9.6427830e-04
  2.2188115e-03
  1.1335812e-03
 -1.8567739e-03
 -5.3496519e-04
  7.1455603e-03
 -3.6127900e-04
 -9.2381297e-04
  2.9813868e-03
  1.1316380e-04
  9.2665059e-04
  1.7633017e-04
  3.5095303e-03
 -5.4423802e-04
  3.1137767e-03
  2.0440049e-03
 -1.1230649e-03
  2.1898502e-03
  7.5201876e-04
 -2.4848976e-03
  4.3741634e-04
  5.2333093e-04
  1.7444128e-03
  1.5507150e-03
  1.0443752e-04
  3.1502976e-05
 -3.1067554e-03
  1.2681736e-03
 -3.4787776e-03
 -4.2040935e-03
  5.9588352e-04
  1.4076396e-03
  1.4279435e-03
 -2.0123632e-03
  2.7708930e-04
  1.8244378e-03
  3.0012228e-04
 -2.0679489e-03
  1.2502614e-03
  1.0399132e-03
 -2.5675248e-04
 -4.1522640e-03
  3.7940434e-04
  7.2934263e-04
  8.7039510e-04
 -1.4200092e-03
  1.1982099e-03
  2.2585967e-04
 -4.5967323e-04
  2.5321974e-03
  9.5899956e-04
 -1.2707135e-03
  2.4623811e-02
 -2.6471629e-03
 -2.1722435e-03
 -1.5489295e-01
  2.4780359e-03
 -1.0101171e-04
  9.2036271e-04
  5.4173130e-03
  1.9117191e-03
 -1.3497219e-03
 -4.6562091e-03
  7.8122714e-04
 -3.9972912e-04
  1.0223088e-03
  1.5204525e-04
  8.8428489e-05
 -5.2527930e-03
 -1.6901597e-03
  4.9420469e-04
  3.2389344e-04
 -3.9716014e-03
  2.3336962e-03
  1.0483051e-03
 -2.4826641e-04
 -7.4311008e-04
 -7.3639525e-04
  2.2655440e-06
 -3.8766249e-03
 -1.6208834e-03
 -4.0859348e-04
 -6.5051793e-04
  7.1684131e-04
  2.0639936e-03
 -2.1993095e-05
  6.4955805e-03
  3.2917236e-03
 -9.4550592e-04
 -8.2005584e-04
 -1.2427125e-03
 -1.3352426e-03
 -5.1709171e-04
 -3.2751923e-04
  3.5581039e-04
 -2.5153725e-04
  2.8606242e-04
  3.3406011e-04
  2.8196524e-03
  7.2254799e-04
  1.5394227e-03
 -5.7459300e-05
 -4.0610597e-05
  1.3619353e-03
  1.3490347e-03
  1.1765289e-03
  2.4907324e-03
  2.9067014e-04
 -5.5239638e-03
  1.1094981e-04
 -5.4593191e-05
  2.5967503e-04
  1.5075903e-03
 -4.4755018e-03
  1.3328327e-03
 -1.3107548e-03
 -3.3503489e-03
 -1.5976827e-03
 -2.8254504e-03
 -5.4983171e-03
 -2.0132896e-03
  3.4154626e-03
  1.9521610e-04
  2.2571933e-04
  1.9989351e-03
  2.0336339e-03
  2.9822448e-03
 -6.1376387e-04
  2.5584621e-03
 -5.2914571e-04
 -3.4619512e-03
 -7.6238665e-04
 -1.9302813e-03
  1.1692552e-03
  1.2866762e-03
 -1.1306086e-03
  3.4067658e-04
  1.4477680e-03
 -1.6202067e-03
  4.1238356e-05
  2.5271921e-04
 -7.2012469e-04
 -1.4586882e-03
 -1.4900614e-03
  1.8370228e-03
  6.6671772e-03
  1.0553598e-04
 -1.2348301e-04
  2.1053830e-03
 -1.4881406e-03
  1.0345074e-04
 -1.6638737e-03
  6.5650240e-02
  3.4227506e-03
 -4.5518958e-05
 -1.5985060e-03
  1.7669480e-04
 -1.0552357e-03
 -2.1160198e-03
  8.7178429e-04
  5.9458177e-04
  4.6388622e-04
  1.2113525e-03
 -1.1228869e-01
  1.1458376e-03
 -3.2069336e-04
  3.6924989e-03
 -8.1509387e-04
 -1.7743538e-03
  1.8918367e-04
 -4.9170398e-04
 -1.3873585e-03
 -1.7284557e-03
  4.0064269e-04
  6.9255801e-04
  7.7802670e-04
  9.7010704e-04
 -2.5495598e-03
  2.1724899e-03
  4.2812750e-01
  3.4648383e-01
  2.5586307e-03
 -9.1715336e-01
  3.2023606e-01
  2.8280473e-01
 -6.0872686e-01
  1.4086211e-01
  2.4059829e-01
 -7.3832262e-01
  3.9166135e-01
  3.7034079e-01
  4.4738743e-01
  1.2179201e-01
  2.6629288e-03
 -1.9914156e-04
  2.0238568e-01
  1.5515405e-01
  9.6917404e-03
  1.2896464e-03
  1.7341789e-02
 -8.4738014e-04
  2.9047158e-01
 -2.2638342e-01
  6.6013597e-02
  1.9325869e-01
 -7.6419793e-02
  9.5357321e-02
  4.3210392e-03
 -8.9761277e-04
 -3.8945675e-02
  1.5672857e-03
  5.7244175e-03
  2.3431217e-02
  3.0837772e-02
  5.0826117e-02
  1.1900154e-01
 -1.6593603e-04
 -1.3244560e-04
 -1.3198350e-03
  4.0000435e-03
 -5.0347775e-02
  1.5238232e-03
 -1.8786371e-03
  4.8271897e-03
 -5.0446787e-03
  3.1032125e-04
  1.5909599e-02
  4.8222914e-04
  4.0156990e-03
  7.0928148e-04
 -5.8804464e-01
 -3.3143754e-03
  2.3332513e-03
  8.1417343e-04
 -5.2773915e-03
 -6.6473300e-04
  2.0879975e-03
 -1.0022563e-03
 -2.1218089e-03
 -4.1061352e-04
 -6.8814226e-04
 -3.0704557e-03
 -3.5682046e-03
  8.2976301e-04
  2.2317311e-03
  9.0025330e-04
  1.0237214e-05
 -2.3481353e-04
 -7.3120353e-04
  1.6733219e-03
  5.7819776e-05
  2.6849350e-03
  3.8513835e-04
  7.0174108e-05
  2.8982649e-02
  5.8447651e-04
  2.4588793e-04
 -2.2757824e-03
 -1.4786827e-03
 -1.7353430e-04
 -3.1160943e-03
 -1.4583850e-03
  4.4711707e-03
 -1.4612648e-03
 -3.0110818e-03
  2.2924601e-03
  7.0850091e-04
  8.8049495e-04
  2.0648395e-03
 -1.2043006e-03
  7.5312681e-03
 -7.0086913e-04
  1.0898644e-03
 -3.9796070e-03
 -1.4128794e-03
  2.8075854e-04
  3.6904446e-03
  1.1872442e-03
  4.1215406e-03
  1.3492160e-03
 -9.5672661e-04
 -3.7602421e-03
  2.0081638e-03
  1.0509783e-03
 -2.4590341e-03
  2.0887749e-04
  2.9562582e-04
 -9.1912299e-03
  6.2512606e-04
  3.1819930e-03
 -6.7466928e-04
 -4.5101997e-04
 -7.7627704e-04
 -1.5831878e-04
 -1.1871420e-03
  1.8687354e-04
 -5.1287498e-04
  2.1583466e-03
 -5.1696523e-05
  2.6042119e-03
 -1.6546703e-03
  2.7413748e-03
 -6.5547880e-05
  2.6545269e-04
 -3.4237315e-03
  5.5275038e-03
 -7.6170650e-04
  1.4343924e-03
 -3.6765798e-03
 -6.7249348e-04
  4.1007635e-04
 -7.0143273e-05
 -8.2098916e-02
  6.3263454e-02
  1.4408477e-02
 -3.8829749e-06
  2.6661661e-01
 -7.3540515e-01
 -1.0173926e-02
 -2.2502883e-01
 -8.8622585e-02
  2.8437093e-01
  6.6080473e-02
  1.2978818e-03
  1.6888130e-02
 -2.0483783e-02
 -2.0766014e-03
 -5.9376366e-04
  7.5857431e-02
  6.5477490e-03
 -7.2792671e-03
 -5.4593128e-03
 -7.3358873e-03
  1.8098000e-02
 -5.0752759e-01
  4.2396076e-03
  1.9573107e-02
 -1.2096033e-01
 -1.1398776e-01
  1.6873954e-03
 -8.1773638e-04
 -3.6474009e-04
  1.1359982e-04
 -6.6675586e-03
 -8.0244639e-04
  7.7599660e-04
  6.3752951e-03
  2.3174540e-03
 -3.0241045e-03
  1.3284383e-03
 -4.2324621e-04
 -6.4216828e-04
 -2.4366300e-03
 -6.9215568e-04
 -4.8030238e-03
  7.9077892e-02
 -1.0761202e-02
 -9.2360877e-02
  5.6103617e-04
 -7.2946073e-05
 -2.5482914e-01
  1.1585619e-01
 -1.7171298e-03
  2.0617981e-01
  8.5657561e-04
 -3.6562269e-03
 -1.9211793e-02
 -6.7946933e-02
  8.8197654e-03
 -2.2892114e-03
  2.1127481e-02
  5.0070841e-04
 -2.1585727e-01
 -1.0607257e-03
 -1.3524655e-03
 -3.8953825e-05
  3.3002703e-05
 -4.9466727e-04
  1.0465028e-02
 -1.3888938e-03
  2.4332772e-03
 -8.3545949e-03
  2.9089926e-03
 -1.3870703e-02
  2.2208283e-03
  6.0211807e-03
 -1.2128137e-03
  8.1143798e-03
 -2.3077154e-03
  3.6874868e-04
 -3.3549248e-04
  1.1505705e-03
 -1.9314890e-03
  2.1101187e-03
 -6.0983356e-03
  1.2544927e-03
  1.2670911e-04
  2.5000700e-04
  6.9572183e-04
 -5.4336643e-01
  3.5419455e-01
 -9.9412818e-04
 -3.5841939e-01
  1.4301436e-02
  5.2365214e-01
  2.8468737e-01
 -1.9905046e-01
  1.2910389e+00
  2.2427894e-01
 -3.5773480e-04
 -1.0145617e-01
 -6.9470325e-04
  1.3284785e+00
 -4.7992336e-04
  1.2045309e-03
  7.0063584e-03
 -4.9291378e-01
 -7.1643079e-03
 -2.5022557e-02
 -7.4822811e-04
  1.5779833e-01
 -1.4261026e-03
 -1.2446208e-01
 -3.1903852e-03
 -4.2844590e-04
 -4.7345705e-02
  4.0268952e-01
 -3.8991055e-01
  3.0641912e-03
  1.1699168e-02
  1.4891119e-04
  1.0229396e-01
  2.4034159e-04
  1.3787584e-01
 -2.8447874e-04
  3.8119676e-04
  4.6547144e-03
  1.7895096e-04
 -1.2419998e-03
 -1.5978180e-03
  3.2329619e-02
 -3.2369583e-04
  1.7497173e-03
  1.1379234e+00
  9.1813672e-01
 -7.3407494e-02
 -4.7347602e-01
  2.8545953e-02
 -3.0438003e-01
 -4.4134159e-02
 -6.6157573e-01
  9.6938036e-02
 -1.3475314e-01
  7.5517881e-01
  7.5759253e-06
 -5.2423251e-01
 -2.3684354e-01
  3.3654600e-02
 -1.8122344e-04
 -4.9312523e-04
  5.4661489e-01
  2.8634004e-04
  8.2339816e-02
 -3.7826675e-01
  5.2016261e-03
  4.1826148e-02
 -2.4548455e-01
  6.9625771e-01
  1.9658970e-02
  8.7910995e-02
  9.5094495e-02
  3.0451533e-03
 -9.7889418e-04
 -3.0858975e-03
  2.6656413e-01
 -8.9181471e-04
  5.0783321e-02
  1.4095803e-01
  2.3934466e-01
  1.2340134e-03
 -8.0319708e-03
 -1.1749278e-03
 -5.1410776e-03
  1.5559045e-04
 -2.1269552e-03
 -2.1033892e-03
  1.1395260e-03
  3.5211544e-02
 -1.5035893e-03
  3.9359992e-03
  4.0784618e-04
  5.7886587e-04
 -1.0483155e-03
 -2.7839153e-04
  1.3436968e+00
  4.1998620e-03
  6.8478659e-04
  4.4592451e-03
  3.0917188e-04
 -4.5282431e-03
 -6.1904016e-04
 -6.8225549e-04
  1.4790760e-03
 -2.8415553e-03
 -2.6469200e-03
  3.2406900e-04
 -6.6407314e-03
  8.7100023e-04
  1.5232780e-03
 -6.9112395e-04
 -1.1744323e-03
  1.3011198e-02
  3.1611772e-04
  5.4570134e-03
 -5.0980505e-04
 -4.2914827e-03
  2.6216154e-04
 -5.2462122e-04
  2.9753139e-03
 -1.8321262e-03
 -3.1129566e-03
 -1.2092750e-03
 -1.6179798e-03
  1.0683802e-03
 -1.1107408e-03
 -1.6200057e-03
  1.4372396e-03
  1.1076843e-03
  3.0671819e-03
 -1.9348757e-03
  5.4890604e-04
 -6.4704078e-04
  6.3735744e-05
  6.0858706e-04
 -4.9085089e-04
 -8.9987414e-04
  5.0691934e-04
  3.1710905e-04
 -1.0115130e-01
  5.4713018e-04
 -9.8924653e-04
 -1.7685855e-03
 -8.4806226e-05
 -1.4113265e-03
 -2.3989324e-04
  5.6762010e-04
 -1.6070501e-03
  3.6594685e-04
  8.1029395e-04
 -1.2455526e-04
 -6.2136736e-04
 -8.6159649e-04
  9.8558352e-04
  2.6089132e-03
  3.8217048e-03
 -2.0558044e-04
  2.9562784e-03
 -3.7150568e-04
 -1.9454738e-03
 -9.3649910e-04
 -1.7973562e-03
 -2.4905279e-03
  9.8860136e-04
  1.6272433e-04
 -8.8896905e-04
  1.4657789e-04
  4.5003256e-04
 -1.3055914e-03
  8.3833002e-04
 -1.0048035e-03
 -5.1509589e-04
  6.3117966e-04
  2.5488976e-03
  4.7522220e-03
 -2.1209337e-03
  6.8088464e-04
 -6.7790214e-04
  1.9434834e-03
 -1.1821097e-04
 -6.9671107e-05
  3.2243954e-03
 -9.1292174e-04
 -4.1922657e-03
  1.2230671e-03
 -9.3153806e-04
  4.4965759e-04
  7.6571223e-04
 -1.8643124e-03
 -2.5596870e-03
  1.8646132e-03
 -7.5134117e-04
 -2.3275646e-03
  6.5882079e-02
 -1.8430889e-03
  3.2698596e-04
  1.6644973e-03
 -3.4049651e-04
  4.2919052e-04
  3.1954472e-04
  1.9743410e-03
  2.2913428e-04
 -2.6174763e-03
  6.5906177e-04
 -1.2558145e-03
  3.2719882e-04
 -7.0768432e-04
 -4.5642030e-04
  1.1512081e-03
 -3.6847424e-03
  1.5191487e-03
 -9.4979303e-04
 -4.9165235e-04
  8.7653287e-05
  9.6393877e-04
 -5.8562588e-04
 -1.4562299e-04
 -2.6718893e-03
  9.1345329e-03
 -1.4506906e-03
  1.1326395e+00
  7.5683743e-01
 -2.8824033e-03
  9.5530477e-04
  1.0680064e+00
 -1.1224414e-01
 -3.5903442e-03
  5.9871310e-01
 -2.8039360e-01
  2.4251205e-01
  1.3024675e-03
 -2.5427081e-02
 -4.9837888e-04
 -1.2958835e-01
  4.5613811e-04
  1.2784076e-03
 -3.8545516e-03
 -1.3605971e-03
  1.3342040e-04
 -1.9081770e-02
 -1.7266199e-01
  2.8708693e-02
 -7.2475799e-05
  1.2096766e-02
 -2.3226152e-04
  2.2938811e-04
  1.8379712e-01
  2.7066865e-03
 -1.1545684e-05
 -9.1175403e-05
  1.1721545e-02
 -3.2965012e-02
 -1.1004590e-03
  3.8703312e-03
  1.2318513e-04
 -6.5132696e-04
  9.5135838e-05
  4.1699181e-03
 -4.1703261e-03
  1.7614894e-02
 -3.2513384e-03
  1.4352519e-04
 -1.0229117e-04
  1.2604022e-04
 -6.5169419e-04
  5.4148533e-03
  4.0285487e-04
  1.2454928e-03
  1.5845001e-03
 -4.4702351e-01
  1.0463328e-03
  3.4003004e-01
 -3.6921561e-02
 -1.0999741e-01
  1.7817189e-03
  2.6768886e-03
  4.8464110e-05
  1.3332441e-03
  1.2669537e-03
 -2.8107744e-03
  4.1233219e-04
 -1.6871846e-04
  2.7935370e-03
  4.0548219e-04
  4.4932128e-03
 -8.2128402e-04
  9.6016191e-04
 -5.9138956e-03
  1.7771118e-03
 -1.3848006e-03
 -3.1280851e-03
 -1.7634876e-03
  8.5189277e-03
  5.0960027e-04
  5.1850290e-04
 -8.7733869e-04
 -1.5158797e-04
  5.0312316e-04
 -9.4147930e-05
 -1.9420383e-03
  7.1795927e-03
  8.6656841e-04
 -1.4616775e-03
 -7.5782713e-04
  2.1468746e-03
  2.1544285e-04
 -2.8284505e-04
  9.9532062e-04
  2.2157826e+00
 -2.3714228e+00
  1.3376153e+00
 -9.6683294e-01
  6.3578868e-01
 -1.0908096e+00
 -8.2814389e-01
  1.2193899e+00
  3.0549031e-01
  5.2764469e-01
  3.6818720e-02
 -1.1115315e+00
  1.0293504e+00
 -4.2601767e-01
 -7.2395712e-01
 -6.2139123e-04
 -7.5621873e-02
  4.9160218e-01
 -1.7773212e+00
  2.9569870e-01
 -6.0993439e-01
  6.0268092e-01
 -1.3182403e-03
  5.9882522e-01
  3.6724877e-01
 -5.4107958e-01
  5.3876621e-01
 -3.1114322e-01
 -9.7121704e-01
 -2.6530673e-04
  2.5781545e-01
  5.0664324e-01
 -2.8319195e-01
  1.6794215e-01
 -1.5259187e-01
  1.5621021e-04
 -1.2094914e-01
 -4.2656178e-04
 -5.4834429e-03
  1.7515698e-01
 -1.9071588e-03
  5.9824079e-02
 -1.4853021e-03
  8.2023069e-04
 -2.8794289e-03
 -1.7253500e-03
 -3.8602808e-03
 -8.9769669e-02
  1.8856832e-01
  4.0294295e-03
 -7.6111592e-03
  2.1611340e-02
 -5.8107066e-04
 -9.9045178e-04
  8.5924752e-04
  3.8864282e-03
 -2.7290991e-02
 -5.2726358e-02
  2.5155917e-02
 -3.4246827e-03
  1.0806079e-03
  6.0688145e-03
 -1.6421743e-04
 -1.1966907e-03
 -4.5605712e-03
 -2.2966315e-03
  1.2560340e-03
 -2.7343165e-03
 -3.3151667e-04
  2.9189035e-04
  1.5259299e-03
 -2.3045936e-03
 -4.7478196e-03
 -5.3891689e-03
  4.1928724e-05
  1.0517188e-02
  4.2220276e-05
  1.3623822e-03
 -1.5551263e-03
 -8.0379832e-06
  1.9427385e-03
 -3.4665032e-03
  4.3174564e-03
 -2.6560051e-03
 -2.7762918e-04
 -1.7559057e-04
  2.0891924e-03
  1.7708712e-03
 -2.5791358e-03
  3.4445727e-03
  9.0789230e-04
 -7.2890759e-04
 -1.2715689e-03
  2.4771646e-03
 -3.0252215e-04
  2.7082191e-04
  1.0569743e-03
  8.0804399e-04
 -3.3168274e-04
 -1.2842567e-03
  2.6963869e-04
  1.1464978e-03
  1.9777222e-03
  7.5527541e-03
  2.7242368e-03
 -1.0892813e-03
  1.4517645e-03
  3.1534403e-03
 -1.4888248e-03
  1.9742155e-03
 -1.0562398e-03
 -3.6587036e-04
  3.0376972e-04
 -1.5370692e-03
 -1.1970174e-03
  1.0816872e-03
  7.1434490e-03
 -5.7978835e-04
  1.5104421e-03
  1.9154074e-03
 -1.4715205e-04
  2.9472678e-03
  7.2368886e-05
  5.7044812e-04
  5.7496686e-02
 -4.5662501e-04
 -1.3396862e-03
 -2.4111650e-03
 -2.7590720e-03
  8.1205537e-04
  1.8826805e-03
 -1.6176770e-04
 -4.5504418e-04
 -4.3562392e-04
  6.6649861e-04
  3.9980565e-03
 -8.6088316e-04
 -4.3113399e-03
 -4.3530273e-03
  7.8252051e-03
 -4.6335137e-03
  7.0091966e-04
  1.6809218e-03
 -7.7747105e-04
 -1.6658155e-03
 -2.9252423e-03
 -1.9861561e-04
  4.8465375e-03
  9.7002985e-04
  1.1423839e-03
  5.9436524e-04
  9.6143590e-04
 -9.8281668e-04
  1.0345532e-03
 -1.2326282e-03
  5.2839838e-05
  4.2445124e-03
  1.6514411e-03
  7.0727349e-04
 -4.1914289e-04
  1.1441000e-03
 -2.0743741e-03
 -1.1010513e-03
 -2.6109890e-04
 -1.4169277e-03
  1.0415125e-03
  1.3618462e-03
 -7.6847890e-04
  1.2333507e-03
 -4.3906749e-04
 -7.9840736e-04
 -6.4733520e-04
 -3.8828996e-03
  1.7552994e-03
 -3.0431084e-03
  2.2433393e-03
  7.0626386e-02
  2.7613090e-03
 -7.9769634e-05
  5.1413442e-04
  2.4302932e-03
  6.7654261e-03
 -2.0117385e-03
 -5.9138220e-02
 -5.9584547e-02
 -2.5707595e-03
  1.4979602e-04
  2.3772542e-03
 -4.2988098e-04
 -6.8906038e-03
 -3.5442293e-04
  7.0625724e-04
  6.7693496e-04
  6.1324827e-04
  4.7761295e-03
  4.3937916e-04
 -3.6290000e-04
  1.9722286e-04
  1.0207390e-03
 -1.3715748e-04
  3.8734330e-03
  3.1395251e-04
  5.8843740e-03
  7.9991319e-04
 -1.6910564e-03
 -7.6569314e-04
 -1.2219342e-02
 -3.5018212e-04
  2.0364756e-03
 -3.2273188e-04
  2.9259750e-03
  2.2333045e-04
 -1.8420524e-03
 -2.6113808e-03
  1.4555668e-03
 -1.8077402e-03
 -1.4859467e-03
  4.1371860e-04
  9.3521661e-04
  1.0402742e-03
  1.3967316e-03
  4.0432959e-04
  7.0748199e-04
  8.1744173e-04
  1.6669853e-03
 -5.9601566e-04
  5.6600384e-04
  1.9532719e-01
 -2.5360372e-05
  2.0074639e-03
 -7.0762704e-04
  2.2133766e-03
 -1.0766493e-03
 -3.3013907e-04
 -3.7426766e-04
 -1.3794141e-03
 -2.4950862e-04
 -1.4221339e-03
 -8.0450141e-04
  4.4667505e-04
 -2.6034310e-03
  2.2779914e-04
  1.6478735e-03
  1.9010626e-03
  2.4854250e-03
 -6.6393206e-04
 -3.0508760e-04
  1.8627328e-04
 -1.6122466e-04
  5.2115876e-05
 -3.2285228e-04
 -9.7861828e-04
 -1.5515888e-03
  2.5955524e-05
  4.0965687e-04
  1.0368838e-03
  3.5105508e-03
  8.0844987e-04
 -2.3020145e-03
 -7.0407294e-04
  7.6237263e-04
  1.0558311e-02
  7.9606415e-04
 -1.3572186e-03
  8.3839428e-04
  3.4530938e-05
  3.5384300e-03
 -8.8527869e-04
  1.7458968e-03
 -4.3201330e-04
  8.2464481e-04
  6.3144113e-04
  1.2275472e-03
 -3.8827790e-03
  7.1993563e-04
 -9.0490072e-04
  9.3791389e-04
 -5.3594075e-04
 -1.7570546e-03
  3.6688134e-04
 -7.7747181e-04
  1.4894798e-03
  3.5207503e-04
 -4.5799017e-05
  2.0273511e-04
 -5.0471845e-04
  7.5496867e-04
  1.1754176e-04
  7.1463081e-05
 -9.4913004e-05
  1.0586472e-03
 -3.2720594e-03
 -5.5434625e-04
  8.3384262e-03
 -1.7556050e-03
 -2.6555586e-05
  1.5306411e-03
 -4.9283961e-04
  1.2649529e-04
 -2.9886016e-03
  1.5609118e-03
 -2.4523726e-03
  7.6327659e-04
  3.8150174e-05
  6.0420437e-04
 -1.0424831e-03
 -5.4230899e-05
  1.8040193e-03
 -1.0494968e-03
 -1.3743690e-03
  7.9364533e-04
  9.5403625e-04
 -1.2018868e-03
 -5.3257006e-01
 -1.1911466e-03
 -1.9533701e-01
 -2.4362977e-04
  4.2469770e-04
 -2.2418511e-03
 -3.4227378e-03
 -4.5852928e-04
  4.2396449e-03
 -3.2088887e-03
 -6.1918283e-05
  4.8413640e-06
  2.8270698e-04
 -2.8782312e-03
 -2.3174554e-04
  1.2877662e-03
  3.5204489e-03
 -4.5059712e-04
 -1.7298469e-03
  8.0850796e-04
  6.8674078e-03
  5.5973954e-04
 -1.0045251e-03
 -1.3817500e-03
  3.0754344e-03
 -3.8679116e-03
 -2.0151343e-03
 -3.2368579e-03
  2.4260578e-01
 -2.2218155e-04
  5.8451272e-04
  9.1251725e-04
  6.7244627e-04
  5.2716793e-04
 -2.0473052e-03
 -3.8891303e-05
 -3.1440728e-04
  1.6089848e-03
  1.8919665e-04
 -4.8794353e-01
 -1.5811042e+00
  1.1062643e-02
 -6.3465548e-01
 -2.7276070e+00
 -1.1572304e+00
 -1.2310058e+00
 -1.6669832e+00
 -3.9083278e-01
 -1.1265319e-01
 -1.9955882e+00
  1.4298609e-03
 -1.4522971e-01
  3.4714058e-01
 -5.4706033e-02
  3.3959821e-03
  4.0970427e-01
 -1.7014558e+00
 -1.3993724e-01
 -9.3170635e-02
  2.9167527e-01
  3.1071503e-04
  8.0211967e-04
 -8.9072548e-03
 -1.7692293e+00
 -5.4114191e-03
 -3.6918718e-05
  3.8219428e-01
 -1.7796045e-03
  3.6148743e-03
 -2.1097223e-01
 -1.3800535e+00
  3.8777243e-02
 -2.1448376e-02
  3.2325691e-01
 -1.0519846e-02
 -4.1659756e-04
  4.4728341e-03
 -1.5326124e-03
  4.1734292e-03
 -5.0185720e-04
 -5.6222349e-04
  6.3643567e-03
 -2.2795491e-04
  1.3334888e-03
 -6.9044222e-04
 -8.0120051e-04
  5.3781789e-04
 -1.2145783e-03
 -1.2610111e-01
  3.1940986e-03
 -3.3590815e-03
  1.3558440e-02
  1.5627596e-03
 -9.2196150e-04
 -5.9934920e-03
 -5.4541795e-04
  5.8965683e-02
  2.0895729e-02
 -8.0696982e-04
 -1.2585225e-03
 -2.2217877e-02
 -6.0805830e-04
 -1.9451394e-04
 -5.8408635e-04
  1.1935276e-03
 -1.2882227e-03
  1.0050303e-02
 -4.2667948e-03
  4.8243959e-04
  2.2203887e-04
  2.1441502e-03
 -1.6989973e-03
  7.7004643e-04
 -4.8051629e-04
  5.4915133e-04
  9.2820392e-04
 -1.3555954e-03
  1.5769758e-03
 -4.6404082e-01
 -1.7668454e-04
 -1.8164217e-03
 -6.3997350e-04
 -7.8823383e-04
 -2.5228942e-03
  6.7632308e-04
  4.1171848e-03
 -8.0375746e-04
  1.3196026e-03
 -3.4420751e-03
 -1.2905801e-03
 -2.7152477e-04
  5.8051373e-04
  2.3175385e-03
 -1.3048432e-03
  1.2663020e-03
 -1.4431737e-03
  3.9389874e-03
  1.7337815e-03
  1.9416572e-03
  2.8768212e-03
  1.6948412e-04
  7.5108255e-06
 -1.6242000e-03
  5.2854361e-05
 -3.6658545e-04
  4.6534277e-04
  1.1239520e-03
 -6.3080492e-04
  1.1585469e-04
 -1.5507775e-03
  2.0859248e-03
 -2.8392777e-03
  5.0529023e-05
  1.3739562e-03
 -4.3612381e-04
  4.6243300e-04
  5.1523064e-04
 -9.1434270e-04
 -1.0938067e-03
  9.7962096e-05
  9.6865383e-04
 -2.3882341e-04
  1.0828412e-03
 -2.4439883e-03
  1.2478286e-03
  1.9613565e-03
  4.3691956e-03
  3.1091145e-04
  1.8353534e-01
 -1.9030561e-04
 -6.2810653e-04
 -1.5274293e-04
  1.2183390e-03
  1.8581553e-05
 -4.5344175e-05
 -2.9248174e-04
 -9.3268236e-04
  3.3270777e-04
  8.4211323e-03
  1.2407195e-02
  2.7221548e-03
 -9.9798827e-04
  1.2583913e-03
 -2.6561756e-04
  2.6875254e-04
 -2.9745861e-06
 -8.8151731e-04
 -3.1777303e-04
 -1.7909758e-03
 -2.6646319e-03
  8.0414116e-05
 -4.8078701e-04
  2.2576307e-03
 -1.3347714e-03
  3.2981968e-01
 -5.0828501e-04
  9.0610288e-04
 -7.8162295e-05
  3.6294369e-03
  1.6720406e-03
 -2.4347652e-03
  9.0585626e-04
  1.7483776e-03
 -2.9605231e-03
 -2.8088607e-03
 -3.8506011e-03
 -2.2213868e-04
 -3.3035519e-04
  2.5864731e-04
 -3.8210473e-03
 -2.7335449e-03
  1.4530631e-03
 -1.7364271e-04
  3.1885314e-03
 -2.1346894e-03
  1.0808332e-01
 -1.9460942e-01
  8.7576695e-02
  2.4369743e-03
  2.7716001e-02
  1.3050850e-01
  2.9877873e-02
  2.1117923e-01
  4.9644407e-02
  1.9039903e-02
 -1.9621858e-01
 -9.9407010e-02
 -7.0604350e-05
  1.8247513e-03
  1.8997925e-03
  1.1653637e-03
 -5.1347754e-04
 -5.3958964e-02
 -8.2554147e-03
  1.6459772e-02
  2.3714642e-01
  1.6186264e-03
 -2.6670969e-01
  1.0161065e-02
 -3.8880102e-02
 -2.7676713e-02
  1.9198807e-03
 -3.1773388e-04
 -3.3322975e-02
  9.9695544e-04
  1.8498797e-03
 -1.0982440e-03
 -1.1890816e-03
 -2.1551303e-03
  5.2114869e-03
 -5.6549836e-02
 -9.3144821e-03
  3.5262803e-04
  3.7931069e-03
 -1.3994299e-03
 -2.7536741e-03
  1.9495822e-02
  2.3053035e-03
 -3.3868835e-04
 -4.3553519e-03
  4.6681478e-03
 -9.6783519e-04
  4.2150263e-05
 -1.1193100e-04
 -1.1592882e-03
  2.0396430e-05
  1.5852301e-03
 -5.8566325e-04
 -1.2037531e-03
  8.2041469e-04
  1.0090347e-03
  1.7311069e-04
  2.0886366e-03
  5.2431459e-04
 -3.5115741e-03
 -7.5847970e-04
  5.8543403e-05
  2.0029256e-03
 -7.4843661e-04
 -1.8331961e-03
 -8.2711363e-04
  5.2211666e-04
  8.3587570e-03
 -1.4170953e-03
 -1.3865100e-04
 -1.5571916e-03
  2.1807785e-04
 -1.9259492e-03
  1.2378367e-03
 -4.3960419e-03
  1.8930479e-04
 -2.4456021e-03
  6.8821921e-04
  1.4994326e-03
 -1.3141383e-03
 -3.2077974e-04
 -3.2592585e-04
 -4.0800165e-04
 -1.4676792e-03
 -1.3738516e-03
  5.7324808e-04
  1.3173450e-03
 -4.1541019e-03
  1.5160600e+00
 -2.1690240e+00
  5.5636017e-04
 -2.9968935e-01
 -4.9347451e-01
 -9.6713269e-01
 -4.9824530e-01
  7.7466398e-01
  1.4221305e+00
 -2.4695645e-01
  4.3679677e-02
 -2.7353166e-02
 -1.4260712e-01
 -3.0558828e-01
 -6.5612596e-01
 -1.3012285e-03
 -6.3226569e-01
  2.2975990e-04
 -8.9479938e-02
  4.5314422e-01
 -6.5566778e-01
  1.3493717e-03
 -8.8126510e-02
 -1.3817571e-03
  1.2771810e-02
 -4.7780285e-04
 -2.2136148e-03
  1.0907707e-02
 -7.3367393e-01
  5.3756183e-04
 -3.0029181e-03
  8.4862905e-03
  2.0509153e-03
 -1.3593212e-01
  8.3472185e-02
 -1.0666009e-03
 -4.6444155e-04
  1.0455127e-03
  2.2458478e-03
 -8.1293483e-04
 -7.8249740e-04
  1.3521604e-01
 -2.5505247e-04
  3.3692911e-04
  6.5567100e-04
  1.5168048e-04
  5.8348081e-04
  1.8716429e-03
  2.3376858e-03
 -1.8902092e-04
  7.7084667e-04
  4.7895024e-03
 -1.9878137e-03
  5.0565728e-04
  7.9099229e-04
 -3.3501992e-03
 -3.7233101e-04
  1.4822721e-03
 -2.2638477e-03
 -7.3471945e-04
  7.0626294e-04
 -2.6704941e-03
  1.6062801e-03
 -1.8884260e-03
 -1.3272706e-03
 -3.0143023e-03
 -4.5219036e-03
  9.1437035e-04
  9.0398488e-04
 -1.7132683e-04
  3.1319854e-04
 -1.5887886e-04
  1.5459955e-04
  6.0860987e-04
 -5.6737093e-03
 -6.3331646e-04
 -5.8191392e-05
 -2.2215783e-03
  1.3025464e-03
  4.5045262e-04
  4.4253989e-04
 -4.0597236e-04
  1.6646965e-03
 -1.4632933e-03
 -1.5082165e-03
 -5.7771839e-03
 -1.0837147e-03
  4.6131662e-03
 -2.5114849e-01
  1.0224529e-01
  3.3350527e-01
  5.2221147e-03
 -1.5923585e-01
 -3.4852171e-01
  1.3447399e-01
 -1.5690675e-01
  5.1306903e-01
 -4.0308553e-01
 -2.6065704e-01
 -4.8541050e-02
 -2.2041070e-01
 -2.0751807e-01
 -9.6333914e-02
  1.1210547e-02
 -5.3782184e-03
 -5.7048582e-02
 -1.2487062e-02
 -5.4912275e-01
  1.2417849e-01
  1.8697368e-02
 -1.9951661e-01
  7.5038511e-01
 -3.2876116e-01
 -1.2005338e-01
  8.4300170e-04
 -2.5992382e-01
  8.3424775e-03
  2.7382413e-03
  3.5818049e-01
 -1.4396134e-01
  3.9370127e-02
  2.3951145e-01
 -2.6787132e-02
 -3.9988646e-01
 -1.0386094e-01
  2.6925828e-04
  2.6834043e-04
  9.8607468e-04
 -3.1807177e-02
  3.4478512e-03
  1.9244291e-02
 -2.3883728e-03
  1.1791785e-03
 -1.1451250e-01
 -5.5671239e-04
 -2.2557231e-03
 -2.5770185e-03
 -2.8053308e-03
 -9.6646120e-04
 -3.7582690e-04
  9.8372497e-02
  4.4064997e-03
 -1.4221254e-03
 -3.7833122e-03
 -3.0344434e-03
 -1.1867431e-03
 -1.1893746e-01
  3.9091711e-03
  1.9343215e-03
 -2.0276965e-03
  1.5673530e-04
  1.9103279e-03
  2.9816767e-03
  1.0363312e-03
 -1.1032930e-03
  1.6455383e-03
 -1.1398471e-03
  1.1629381e-03
  2.2992094e-03
  1.3932162e-04
  2.5748557e-03
 -1.3235607e-03
 -8.8952271e-05
  4.2836727e-03
  1.5220104e-03
  3.3486346e-04
 -2.9375479e-03
  1.9466301e-04
 -8.5123506e-04
 -1.9556999e-03
 -1.5612118e-03
 -6.4310129e-04
 -3.2927695e-04
  1.7672018e-04
  1.1370478e-03
 -6.9048471e-04
 -5.5929869e-01
 -5.1539791e-01
 -4.9749091e-03
  5.6314059e-02
  2.2724113e-01
  7.2921032e-01
 -6.5034081e-04
  1.0378565e+00
 -4.6871215e-04
  3.2027936e-04
  1.7587584e-03
 -4.1838661e-03
 -3.5798571e-01
 -1.0705194e-01
 -6.0122681e-04
 -9.7205437e-04
 -5.1666971e-04
  2.0467455e-04
  1.0351238e-03
  1.3089597e-03
  2.6758332e-03
  8.4705977e-04
 -8.8649411e-03
  4.6682573e-04
 -8.1343751e-04
 -2.0184955e-03
  4.0041390e-03
  2.9609073e-03
  3.2478932e-04
  2.4098581e-04
 -1.2994213e-03
 -3.2258886e-03
  9.3745282e-03
 -8.3047035e-04
 -2.3712026e-01
  1.0724224e-03
  2.2298780e-03
 -9.8834059e-04
  2.2576589e-03
 -4.0864319e-04
  2.0386715e-04
  4.6120808e-04
 -8.1653794e-04
 -7.8741298e-04
 -1.5372608e-03
  5.2909479e-02
  1.0777952e-03
 -1.1957197e-03
 -4.3849558e-01
 -2.2143075e-02
  2.3152176e-01
 -8.6789191e-02
 -9.2627786e-02
  8.7693678e-03
  2.8202355e-01
 -3.4184780e-03
  6.3965239e-02
  3.8947981e-02
  2.4045974e-02
  1.5253995e-03
  2.0174519e-03
 -3.2900330e-02
 -1.4218839e-03
 -1.0697085e-03
  9.5843710e-02
  5.7986291e-04
 -1.5177859e-02
  8.5106324e-03
 -1.9177252e-01
 -6.9079990e-03
  4.0141458e-07
 -3.4272969e-02
 -5.0938525e-03
  7.8939268e-04
  1.1409529e-02
 -5.6763440e-03
  3.1189667e-03
  7.6388866e-03
 -1.3699833e-03
 -6.4035895e-04
 -2.2520535e-03
 -4.5576075e-05
 -3.7948371e-04
  5.9604971e-04
  1.7535149e-03
  9.0887453e-03
 -1.0558962e-03
  1.6836211e-03
 -3.0245195e-04
  2.1883410e-03
 -1.6145714e-04
  1.5525920e-03
  1.0456301e-03
  3.1391629e-03
 -7.9951678e-06
 -4.9332131e-02
  9.0867310e-04
  1.8772042e-04
  2.9219473e-03
  3.8827659e-04
 -2.5268228e-04
 -4.3184715e-04
 -2.3425391e-04
 -1.0795576e-03
 -1.2561334e-03
  4.6485844e-03
 -3.5475797e-03
  3.1842722e-04
 -2.5967071e-03
 -3.8019122e-04
  4.8979232e-04
  2.7514559e-03
 -1.9945439e-03
  1.1747297e-03
 -1.8372753e-03
 -5.1831029e-04
 -2.6003087e-03
 -6.2272220e-04
  1.2146041e-04
 -7.2225231e-01
 -2.4850250e-03
 -8.7750913e-04
  2.4969415e-03
  2.1261692e-02
  3.1026646e-03
  2.4476982e-04
  2.1440941e-03
 -4.5461359e-04
  1.2636827e-03
 -3.4368687e-04
 -5.1115798e-03
 -3.3388869e-04
 -2.8934239e-03
 -7.5091730e-04
 -1.7538854e-03
  5.1981187e-05
  2.1830597e-04
  3.2619934e-03
  1.1108293e-03
 -4.8687784e-03
 -7.1307337e-03
  2.3174216e-04
 -1.9532416e-03
 -1.5190605e-03
 -3.8543344e-04
 -1.4768225e-01
 -1.4401129e-03
  1.7258266e-02
 -6.6169226e-03
 -3.5082237e-05
 -1.7351073e-03
 -3.7115896e-01
  8.5201464e-05
 -2.9882483e-04
 -2.6612505e-03
 -1.0291083e-03
 -1.6564515e-04
 -2.9279559e-03
  2.5667055e-03
 -3.0040490e-03
  1.7984682e-03
 -1.9459990e-03
  4.4938833e-03
 -2.1326274e-03
  3.2151278e-04
  1.0331935e-03
  5.3272245e-04
  7.7531417e-04
  4.3426227e-04
  4.5591244e-04
 -2.0523241e-03
  1.9308450e-03
  4.5019370e-03
  9.5236895e-04
  1.1610456e-02
 -5.8673145e-03
  1.1124508e+00
  1.0505699e+00
  3.1771037e-01
 -6.8991810e-01
  4.5738900e-01
  1.3663449e+00
 -3.3482087e-03
  9.3253875e-01
 -1.5045899e+00
  2.0066838e+00
 -4.9191479e-02
 -5.4276641e-04
  4.2974129e-01
  1.8837209e-01
  7.7632374e-01
 -1.1180713e-03
 -2.7616823e-03
 -2.3682890e-03
  1.1289084e-03
 -4.4776255e-01
  2.5660092e-01
  3.7228966e-01
 -1.3892836e-04
  1.9215242e+00
 -1.3585622e-02
 -2.6564430e-03
  1.6592728e-01
 -4.9258363e-02
 -1.0027136e-03
 -4.4252205e-04
  2.9141015e-01
 -9.4362418e-05
 -1.5363025e-03
  3.8774416e-01
 -7.3271996e-01
 -3.7642795e-04
 -2.6283273e-02
 -5.3182821e-04
  4.2112283e-03
  2.4606667e-03
  3.8261645e-04
 -1.9789251e-05
 -9.8585297e-06
 -1.7486549e-03
  1.0032102e-03
  1.1033240e-04
  2.3533907e-03
  1.7432205e-04
 -6.9830322e-04
  3.1648944e-03
  1.9548810e-05
 -7.0362317e-04
  9.5697469e-04
  2.1088141e-04
 -2.4345061e-03
  9.9290116e-04
  7.7311061e-03
  4.5664550e-04
 -1.4794497e-04
  2.7662449e-04
 -1.9567027e-03
  4.9527432e-03
  5.3396903e-04
  1.2036441e-03
 -1.1571036e-03
 -3.0617155e-03
 -1.5606403e-03
  4.4479850e-03
  8.0711255e-04
 -1.9201302e-04
  1.8748004e-04
  2.2173310e-03
  4.3941362e-04
  7.5513619e-04
  1.0279304e-03
  1.8196672e-03
  5.9950713e-04
 -2.4350835e-03
 -1.5463884e-05
  3.2640608e-05
 -2.1087646e-03
 -1.5044140e-03
  4.9436344e-03
  1.3714840e-03
 -9.5992768e-04
 -9.8619108e-05
 -8.2715112e-04
 -6.7461915e-06
 -1.0681887e-01
  6.4106798e-04
 -5.8422948e-04
  5.6143481e-02
 -1.4353890e-04
  3.5780721e-04
  9.0661400e-04
  2.0571257e-01
 -4.7270495e-02
  1.1425219e-02
  3.1940339e-04
 -4.1240505e-03
  6.8927708e-04
  5.3030532e-03
  1.2631746e-05
  2.5565694e-03
  1.6067673e-04
 -3.8085342e-03
  3.7573851e-04
  1.0914530e-04
  1.7473368e-03
 -4.2896165e-04
 -6.4814033e-04
  1.7992795e-02
 -1.4877034e-02
 -7.4402260e-04
 -1.3487792e-02
 -9.3341120e-02
  3.0833844e-04
 -2.9428487e-04
  4.8084685e-04
  2.3588355e-04
 -1.5233629e-03
  5.1579979e-04
 -3.7110206e-02
 -1.5641950e-03
 -4.8263388e-04
  9.9494518e-04
 -1.0539694e-03
  5.0175111e-03
  2.3380525e-03
  1.2653032e-03
  8.0264133e-04
  2.5899959e-04
  1.8972220e+00
  7.5232613e-01
 -2.1782783e-01
 -1.5570207e+00
  1.0493001e+00
 -5.3886491e-01
 -8.1801260e-01
 -6.1481553e-01
  9.9492043e-02
 -3.0650777e-01
  1.2335159e+00
  1.3955491e+00
  9.8708391e-02
 -6.2226152e-01
 -9.9784327e-01
 -2.2761458e-01
 -2.3397036e-02
  9.3113613e-01
  1.2916931e-02
  2.4653333e-01
 -4.4382501e-01
 -3.7630600e-01
  8.7026358e-01
 -1.9831961e+00
  6.5314853e-01
  2.0273442e+00
  6.2802458e-01
 -1.0110815e+00
  3.1725511e-02
 -1.8306150e-01
 -7.8505725e-01
  1.3318789e+00
 -4.5190424e-01
  5.4326200e-01
 -2.1963668e-01
  6.4122373e-01
  5.8455430e-03
 -1.3819238e-03
 -2.8297812e-02
 -2.6191819e-01
  1.8292238e-01
 -2.0020902e-01
 -9.2769384e-02
  1.2519045e-03
 -4.8800991e-04
 -4.9128309e-03
 -1.0818831e-03
  2.9784725e-03
 -1.9093326e-03
  1.9373551e-03
  6.9865393e-03
  3.0323875e-01
  5.3084106e-04
  4.8278130e-04
 -7.6875644e-04
 -1.6107557e-03
 -1.4421750e-04
 -5.7891677e-03
 -1.7808515e-04
  2.1922484e-04
 -9.9123304e-04
 -1.3188452e-02
 -8.3900086e-04
 -4.8362701e-03
 -2.6857472e-04
  2.7000956e-04
  2.4991708e-03
 -1.1128709e-03
 -9.2901152e-01
  1.3105544e-03
  1.1085233e-03
 -1.2424549e-03
  8.3090493e-04
  1.3702156e-03
 -6.8536948e-04
 -7.3561969e-05
  6.2706880e-04
  1.6407442e-04
 -7.5742789e-04
 -1.2494475e-03
 -2.3994714e-03
 -5.4462964e-04
  2.7551292e-03
 -3.2707364e-03
 -4.5047855e-04
 -1.4465984e-03
 -1.0437518e-03
  6.2872874e-05
 -2.3803996e-01
  1.2826112e-01
  6.9619395e-02
  7.1643263e-02
 -2.2862525e-01
 -2.5698653e-01
  1.6139030e-01
 -5.1228285e-01
 -1.3162378e-03
 -2.1207321e-01
  6.1206920e-03
  7.5381374e-01
  1.3244236e-01
  4.3318713e-01
  2.6525913e-03
 -4.4422317e-02
  1.7022947e-02
  1.4196591e-01
  4.0381655e-01
  1.5930440e-02
  2.5769654e-01
 -4.0942732e-02
  4.7878346e-01
 -4.1387917e-04
 -8.7823160e-04
  2.4072824e-01
  1.5331504e-01
  9.4551370e-02
  1.8255319e-01
 -5.1533058e-02
 -1.8592025e-01
 -5.5857585e-05
  8.0381997e-04
 -2.1504613e-02
 -6.9823377e-02
  6.1663135e-04
  8.0448665e-02
 -5.8766450e-03
 -4.6514794e-03
 -1.3641859e-03
  9.1984207e-03
 -9.4691493e-02
  5.4765865e-04
 -4.4211379e-04
  2.0360714e-03
  4.4441815e-03
 -2.0890408e-03
  2.6080449e-04
  6.3459855e-04
  1.3054997e-03
 -5.7613663e-04
  3.3419982e-01
 -2.0136135e-03
  1.5204265e-03
  1.3515402e-03
 -1.0194887e-03
  7.3508976e-04
  2.3212642e-03
 -1.8208614e-03
 -6.1611994e-04
 -3.7056784e-04
  4.8160588e-04
 -8.9403673e-04
 -3.7793592e-03
  2.5959089e-03
 -1.5875557e-06
 -2.3865800e-03
 -1.7587268e-03
  8.8542525e-04
  5.3631666e-04
  7.8273396e-04
 -3.2021138e-03
  2.3731326e-03
 -5.2579230e-04
  7.9957885e-05
  1.8561356e-03
  2.5369838e-02
  6.6824292e-04
 -9.6339197e-04
 -2.0107944e-03
  1.0925492e-03
 -3.7404220e-04
  3.2480718e-03
  6.3225598e-06
  2.1666610e-03
 -2.6217679e-04
  3.3506269e-03
 -3.9722750e-04
  1.4070336e-03
 -3.6130512e-01
 -7.9595798e-01
  6.0792857e-01
 -6.7675824e-04
 -2.2913364e-03
  2.1532821e-03
 -3.7019176e-04
 -3.7826579e-03
  1.9065079e-01
 -2.0647918e-01
  7.0838723e-04
 -2.1400207e-03
 -5.4769521e-04
  4.8670378e-01
  8.2308501e-01
 -2.0786956e-01
  1.3132354e-03
  4.7646239e-03
  7.4572390e-01
 -1.7493036e-01
  1.4524196e+00
  5.9747091e-04
 -1.8353476e-03
 -6.5252726e-04
  2.0911419e-03
 -1.1448023e-03
 -1.2179217e-04
  1.0511453e-03
 -3.4212189e+00
 -1.8458071e-03
  7.7821343e-05
  7.2429451e-05
 -4.3859079e-01
  2.1450196e-03
  1.9464434e+00
  1.4596309e-03
  4.1021496e-01
  1.7579371e-04
  1.9777485e-03
 -4.6445388e-01
 -1.3933033e-03
 -1.0650471e-04
  7.2465563e-01
 -2.1969830e-03
 -3.4052657e-03
  2.9083017e-01
  1.3840284e-03
 -1.2119877e-01
  3.0331789e-03
 -3.4186341e-02
  4.7288886e-01
 -6.0345358e-01
  4.8695701e-01
 -4.9518019e-02
 -1.0115479e-03
  5.1297594e-02
 -4.6769083e-02
 -1.2475990e-04
  6.0558754e-01
 -1.7022277e-01
 -6.3012126e-03
  2.9613370e-01
 -2.2172840e-01
 -4.6196055e-01
  5.0630599e-01
 -7.0108235e-01
  3.9728962e-02
  2.3440113e-02
 -2.5577945e-01
  2.7838644e-01
 -9.6187335e-01
  1.4416368e-01
  2.2320636e-04
  2.3544505e-03
  1.2048150e-01
 -4.1236039e-02
 -9.8352861e-03
 -1.2072532e-02
 -5.8565468e-01
 -2.2157073e-01
  2.6125129e-02
 -6.5431893e-02
 -6.5037358e-01
 -2.0724994e-03
 -3.7503436e-01
 -4.0350299e-02
 -7.3094594e-01
 -3.6571596e-02
 -2.1295476e-01
 -4.3383119e-01
  3.5748649e-02
  3.3582333e-02
 -3.1037071e-01
  1.3488228e-03
 -2.5324333e-01
  9.0669262e-01
 -1.3562687e-01
  7.3490858e-01
  7.2995231e-02
  3.6660531e+00
 -3.6229998e-01
  4.3294954e-01
 -9.6208328e-01
  9.6163549e-02
  5.4313436e-02
  5.7088006e-03
  1.2203736e+00
  2.8172639e-01
 -7.2826579e-02
 -2.6915449e-01
 -2.4771700e+00
 -2.4501960e-01
 -3.3891350e-01
  1.4307468e-01
  5.0693810e-01
  5.5628926e-01
  1.5955628e-01
  6.5171069e-01
  2.6102302e+00
  1.4871676e-03
 -1.0356797e-03
 -9.8175704e-01
 -1.9476099e-01
  7.5709361e-01
 -5.2961141e-01
  2.3918252e-01
 -7.3216790e-01
  2.6330948e-01
 -9.9884451e-04
  1.5737612e+00
  7.5334257e-01
  4.8785692e-01
  5.3782248e-01
 -5.2829184e-02
  2.6025975e+00
  9.3148392e-01
 -4.4833198e-01
  1.8072905e-04
  1.1389676e+00
  4.2877781e-01
 -1.3805004e-03
  9.5155291e-02
  4.1947225e-01
  6.6216588e-01
 -2.6787001e-01
  1.1724762e-01
 -1.2995737e+00
 -3.3041322e-01
  2.3283862e-01
 -8.5169630e-04
  3.3704144e-01
  2.1560302e+00
  7.6743597e-01
  6.7960203e-01
  2.2192024e-02
  1.2975862e+00
  5.6560728e-04
 -5.3558382e-05
  6.3994271e-01
  1.7939471e-02
  4.2071435e-01
  2.4444584e-03
 -1.3397713e+00
 -1.5251036e+00
 -8.8701028e-01
  3.6010747e-03
 -6.7759413e-01
  1.5443928e+00
  1.4153408e-02
  3.8738587e-01
 -4.5764923e-01
 -7.6219134e-02
  4.4340578e-01
 -4.0706041e-01
  6.9609594e-01
 -8.0580771e-01
 -1.8732051e+00
  3.4785569e-01
 -9.6573925e-01
  6.3216023e-02
 -1.0859023e+00
  1.1335512e-01
 -6.4796823e-01
 -6.7602992e-01
  2.1969061e-01
 -1.6855513e-03
  1.9215143e+00
 -1.6452842e+00
  4.9129933e-01
  1.1657543e+00
  2.7184727e+00
  1.5788420e-01
 -3.0208439e-01
  2.1438882e-05
  9.4587463e-01
  2.4356730e+00
  1.1870646e-01
  2.4828619e-01
 -2.0885204e-01
  2.5735340e+00
 -7.8412198e-02
  5.4683065e-01
  1.9487973e-01
  5.4635149e-01
 -9.6568143e-01
  7.4731972e-04
  3.1124610e-01
  5.7323241e-01
  8.6883001e-04
  4.3402816e-04
  5.4070443e-02
 -9.3355810e-04
 -4.6779835e-03
 -1.1171697e-01
 -1.8354081e-02
  1.3808303e-01
 -1.2339678e-01
 -7.2646362e-04
 -8.7137502e-01
 -3.4259984e-01
  3.0501226e-02
 -4.2313687e-03
  1.2976397e+00
  1.5964638e-03
  1.1984543e+00
 -6.0847163e-01
 -7.1633540e-02
 -3.4979272e-01
  2.5357733e+00
  2.1047655e-01
  1.6436948e-01
  3.8212067e-01
  1.5644984e+00
 -9.8095737e-02
  6.1225480e-01
 -7.7229360e-04
 -4.5546287e-01
  1.6298255e-01
 -4.8834363e-01
 -2.9077785e+00
 -3.8654262e-01
 -5.5523781e-04
 -7.0296094e-02
  1.4873834e-01
 -7.2644168e-01
 -4.1684270e-02
  2.9971978e-01
 -1.1390013e-01
  7.2713399e-01
 -9.3825227e-01
 -1.1216527e+00
  1.9346946e+00
 -1.0940264e+00
  1.8063760e-01
 -3.6475635e-01
 -4.0676939e-01
 -1.2455628e+00
 -5.0651348e-01
 -7.4595553e-01
 -8.3102107e-01
 -3.2614565e-01
 -3.4308829e-03
 -1.1030370e+00
 -6.2671877e-03
  5.7725936e-01
 -3.0986968e-01
  2.5353059e-01
  8.2650691e-01
  2.2569218e+00
  2.1049490e+00
  1.3917884e+00
  1.1095628e-01
 -1.9894257e-01
 -4.6094152e-01
 -5.5326277e-01
  1.1896477e-03
  4.7163880e-01
  3.9779323e-01
  8.3420748e-01
 -1.0299838e-01
 -1.1628422e+00
  3.5006464e-01
  1.4981700e+00
  6.5611255e-01
 -2.1668911e+00
 -8.0397710e-02
  1.8321087e+00
  7.9424322e-02
 -7.7445650e-01
 -5.3696108e-01
 -1.1631707e-01
 -5.2040443e-02
  1.5999519e+00
  9.4665015e-01
 -1.6864112e-01
  3.3770010e-02
 -1.5415239e-01
  2.1914287e+00
 -7.4647778e-01
 -7.1577758e-01
 -8.9490294e-01
 -7.3858279e-01
 -1.2556140e+00
 -1.6024240e+00
 -1.4651856e+00
 -3.6812198e-01
  4.9243656e-01
  3.3144739e-01
  2.1643834e-02
  8.5003424e-04
 -3.1283498e+00
  2.6382063e-02
 -1.9274761e-04
  4.8126670e-04
  1.4968840e+00
  1.8301474e-04
  1.2816032e-02
 -6.8171235e-04
  1.1563143e+00
  1.1484785e-01
 -1.5300794e-01
 -2.5521161e-04
  6.8354368e-01
  7.0078242e-01
  3.3290341e-02
 -8.0125581e-04
  3.8820577e+00
  3.2867049e-03
  7.8861201e-03
 -8.2167055e-05
 -6.7410225e-01
 -3.5894146e+00
 -4.8720161e-04
  1.3164111e-04
  5.2758622e-01
 -1.3622330e+00
  4.3311638e-01
  2.6383439e-02
 -2.5108472e-01
  1.6416408e-01
  9.8790951e-02
 -4.0053645e-01
  9.0966254e-01
 -1.2954956e+00
  1.8600193e-03
  1.7931102e-01
  4.6993259e-01
 -2.5302896e-01
 -5.3745002e-01
 -1.2796005e-03
 -7.7167428e-01
  4.3991599e-03
 -1.2497185e+00
 -2.1771036e-01
 -4.1777128e-01
  1.9627973e-01
  7.4567995e-04
  2.4410348e-01
 -7.6076627e-01
 -1.0392522e+00
  3.7077394e-01
  4.5272967e-01
 -1.4966874e-01
 -8.5095698e-01
  1.8950457e-03
  1.8239478e-03
 -1.2775050e-03
  9.3965093e-05
  5.1708585e-01
 -1.0685204e-01
  9.1731048e-01
  6.0711824e-04
  2.5032997e+00
  1.2385826e+00
 -6.3893974e-01
  1.2576941e+00
  9.4736803e-01
  9.4923183e-02
 -1.9093802e+00
  1.6601624e-03
  5.0359023e-01
 -1.7387289e-01
  8.1416899e-01
 -6.2378157e-02
  1.7936534e-01
  2.7379295e-04
 -1.2968029e-01
 -1.6783277e+00
 -6.5676466e-02
  7.5218327e-02
 -2.4884367e-01
  1.3497393e-03
  4.6991953e-01
 -1.6083230e-01
 -2.0301833e+00
  2.1261993e-04
  1.1544238e+00
 -4.5800958e-02
 -5.1910132e-01
 -6.3409716e-01
  2.1214743e+00
  1.8724126e-03
  8.6314899e-01
  1.2159561e-02
  2.9839182e-01
  4.5237553e-01
 -3.2931867e-01
  2.9526189e-01
  1.2017301e+00
  5.7264548e-02
  3.1297407e-01
  2.7052170e-01
  1.0648633e-01
  1.0915685e+00
 -3.3128798e-01
  1.7410225e+00
 -6.1994410e-01
 -5.1952256e-03
 -5.9769530e-04
  5.5963232e-05
  6.2548302e-02
  1.4130301e+00
  7.1557480e-01
  6.6230750e-01
  4.7085044e-01
  1.0275823e+00
 -2.2573999e-01
 -2.0945560e-02
 -5.6979895e-01
 -4.5024697e-02
  1.6420158e+00
 -1.1056045e-03
 -1.2067473e-01
  1.2134717e-01
  2.0366114e-01
  7.1771914e-01
 -1.3558961e+00
  1.5168567e-01
 -4.6514567e-02
  8.5608833e-02
  5.1508731e-01
 -1.3427314e+00
 -1.6004869e+00
  8.7764044e-04
 -1.0998513e+00
  8.0177796e-01
  8.9835428e-02
  5.2435619e-01
 -1.2339270e+00
  4.0317215e-02
 -2.3140135e+00
  3.0432317e-01
  6.1386728e-01
 -3.1679609e-01
 -1.2133558e+00
 -2.8438181e-02
  9.9414080e-01
 -9.5539188e-01
 -7.0520943e-01
  8.7015802e-01
  1.8740628e+00
 -6.6139311e-01
 -3.0354851e-01
  2.0666187e+00
  7.3364365e-01
  3.9326128e-01
  1.4413634e-01
  3.1436682e-01
  7.6173878e-01
  4.1357848e-01
  1.2823620e+00
 -4.0667388e-03
 -9.7357351e-01
 -6.5677112e-01
  9.0357357e-01
  8.7844175e-01
 -2.3343139e+00
  1.1539445e+00
  9.5282072e-01
  1.1996071e+00
  1.1773904e-01
  2.0348310e+00
  2.2665527e+00
  3.1983696e-02
 -6.3002044e-01
 -5.4646581e-01
  9.8593092e-01
  1.0295135e+00
  6.3866836e-01
 -1.2483662e-01
 -5.6922412e-01
 -2.1148820e+00
  1.4822954e+00
  3.4043172e-01
  2.3076081e+00
 -2.6372412e-01
  7.3153168e-01
 -8.6915290e-01
  3.2583067e+00
  1.7901851e+00
 -9.6070781e-02
 -1.2581317e+00
  1.2208427e-01
 -4.3085742e-01
 -2.5758418e-01
  1.7488846e+00
 -1.3470807e+00
  9.4170320e-01
  1.3827258e-02
  1.1903971e+00
  4.6248829e-01
  9.6107990e-01
  4.4067606e-02
  9.3431759e-01
  5.8454967e-01
  1.4210069e-01
  2.1285474e+00
 -2.8081756e-04
  1.0686306e-01
 -8.2145661e-01
 -2.2325622e-02
 -1.4646081e-03
 -3.9145839e-03
  8.2161569e-05
  6.7292231e-01
 -4.6497762e-01
 -3.7062606e-01
  1.0285024e-01
 -2.1137141e-01
 -3.7353671e-01
 -5.6890422e-01
 -2.3643336e-01
  1.2843554e+00
 -2.5053674e-04
  1.0066544e+00
  1.0736553e-03
  8.5405523e-01
 -2.7458897e-01
 -3.6814022e-01
  2.1162584e+00
 -1.3864356e+00
  1.4311619e-01
 -1.3066666e-03
 -1.0069396e+00
 -1.7887691e-01
 -8.6045194e-01
  1.0671231e+00
  3.5492092e-02
  5.5063868e-01
  4.3751910e-01
  1.7556658e+00
  9.8326784e-03
 -1.4623365e-01
 -8.8641571e-04
 -2.6208354e-04
 -3.4553659e-01
 -9.8747268e-02
 -4.7820118e-01
  4.9992713e-01
 -2.3672388e-01
  3.5509083e-02
 -2.3509946e-01
 -3.8903442e-01
  4.4557722e-03
  8.4281051e-01
 -4.0206078e-01
  1.0708659e+00
 -9.8785031e-01
  4.2717573e-01
 -6.5586764e-01
  1.8882276e+00
  1.6794904e+00
 -2.5650248e-04
  6.4288586e-02
  6.4726537e-01
 -6.0342226e-02
  3.1042972e-01
 -1.2035383e+00
  5.2759820e-01
  2.8241379e+00
  1.4701965e-01
  2.8952551e+00
 -3.0384138e+00
 -5.6196564e-01
  1.0841017e+00
  1.2856107e+00
  6.0829759e-01
  1.1977463e+00
 -4.4072151e-01
 -2.2265596e+00
  2.2104583e+00
  1.3148152e+00
 -4.1713573e-02
  4.8285574e-01
 -3.8561866e-01
 -5.6204104e-01
  1.4018264e-01
  1.9402647e+00
 -3.8313884e-01
 -2.4574323e-01
 -1.2094194e+00
  1.0651039e-01
 -5.7768613e-01
  6.5272778e-02
 -6.5464443e-01
  4.5277387e-02
 -8.5651177e-01
  1.2799435e-04
 -1.3639319e-01
  1.9617788e-01
 -1.2342826e+00
 -2.3488580e-01
  4.9256587e-01
  8.1050593e-01
 -6.4113230e-01
  7.6957360e-02
  1.4888765e-01
 -1.7261373e-02
 -2.3788477e-01
 -1.5877984e-02
 -4.8434275e-01
 -1.5379102e+00
 -1.5507506e+00
 -1.1153479e+00
 -2.2388004e-01
  2.0479329e-04
 -3.1860437e+00
  3.7034435e-04
  5.0318444e-01
  2.2723545e-01
  2.3309698e+00
 -1.0901263e-01
 -6.4393651e-01
  1.3964025e+00
  7.7316737e-01
 -9.0810806e-01
 -5.9004170e-01
 -2.0562258e+00
 -2.5480938e+00
 -1.7532597e-03
  1.1927222e+00
  1.0476843e+00
  7.1449310e-01
 -4.6195737e-01
 -1.3068935e+00
 -2.1845837e+00
  1.2131346e-01
 -2.0089418e-01
 -3.0543789e-04
 -7.8539431e-01
 -1.7183203e+00
  8.8869530e-01
  3.5262862e-01
  5.0272357e-01
 -3.5531268e-01
 -2.1219571e-01
 -4.4299921e-01
  4.9615929e-01
  1.9289173e+00
 -2.9231796e-01
 -8.0562395e-01
 -1.1765705e+00
  5.2200460e-01
  2.3087573e-01
  3.9045464e-02
  6.3665323e-02
 -9.6419138e-01
 -1.9488019e-01
 -1.6560911e-01
  1.7452095e-01
 -1.0394664e+00
 -6.4088440e-01
  9.4288345e-03
  1.2007358e+00
 -1.7331614e-01
  4.5442888e-01
  5.8180235e-02
  8.5999388e-01
 -7.9558307e-01
  9.8949575e-01
 -6.3722080e-01
 -2.8663909e+00
  8.1798369e-01
 -2.3679612e+00
  1.1256267e+00
  2.2830451e+00
  1.6841257e+00
  3.9174192e+00
  2.0280520e-02
  8.2045041e-02
 -9.4532329e-01
  1.3125670e-01
  9.9864202e-03
 -9.9531174e-01
  1.7363515e-01
 -1.1169559e+00
  9.9866366e-01
  1.2457552e+00
  8.9859027e-01
  1.8133732e+00
  3.1191655e-02
  6.2665194e-01
  4.1267660e-01
  1.5664573e+00
 -3.1570989e-01
 -1.9626455e-01
  2.2820109e-01
 -5.3501701e-01
  1.4075902e-01
  1.4187069e-01
  2.9231924e-01
  2.6590016e-01
  6.2902397e-01
  6.6359639e-01
 -2.0830427e-01
  1.2264299e+00
  2.6969567e-01
  5.0627929e-01
 -2.4678145e-01
  1.2666194e-01
 -9.1783457e-02
  3.5333353e-01
 -2.4405731e-01
 -3.2968265e-01
 -5.3770951e-04
  1.1931174e+00
 -2.3769591e+00
  1.1226791e+00
 -2.2701859e-01
  3.9279047e-01
 -1.9409524e-01
  1.3986439e-03
  6.9585031e-01
  2.8742373e-01
  4.1545494e-03
  4.5834914e-01
 -1.9439311e-01
  8.0419856e-01
 -3.6819667e-02
  1.1527423e+00
 -6.5910779e-02
  2.9705435e-01
 -2.7546003e-01
  2.3356319e-05
  8.2761955e-01
 -1.8402070e-01
  2.0776120e-01
  3.0388558e-01
 -5.8839893e-01
  8.2753766e-01
 -7.2863287e-01
  6.0071778e-01
 -1.8576519e-01
 -4.4689876e-01
  4.1624565e-02
 -3.5929270e-02
  4.9295643e-01
  3.3075356e-01
 -3.5231245e-01
  8.0021608e-01
 -2.8921327e-01
  1.1575713e+00
 -1.0491668e+00
  6.5492201e-01
 -3.4453130e-01
  2.4697971e-01
 -1.7470080e-01
 -1.1493974e-04
  1.2889455e-01
 -9.9198155e-02
  1.0876799e-01
  1.0071690e+00
  3.6882054e-02
  3.2838380e-01
  4.6723047e-01
  2.7707049e-01
 -5.8957696e-01
 -3.2642683e-01
 -5.4448360e-01
 -9.7592783e-01
 -1.8137968e-01
 -2.6932925e-01
 -2.3099561e-01
 -6.9754589e-03
 -2.1161883e+00
  1.7924735e-01
 -4.1820884e-01
 -5.7165183e-02
 -1.1250370e+00
  3.4286346e-02
 -1.1876755e+00
 -7.8041840e-01
  2.6573284e+00
 -1.1687022e-01
 -6.5274024e-01
  4.1842092e-02
 -1.4800477e+00
  2.5782126e-01
 -1.1898597e-01
 -9.1645575e-01
  8.7010926e-01
 -4.1191825e-01
 -1.4196131e+00
  1.7268134e-03
  3.2007489e+00
 -1.5849616e-01
  1.6998421e-01
 -2.1442167e-01
  1.4287518e+00
 -7.8620732e-01
 -2.3632653e-01
 -4.6331459e-01
 -5.9116457e-02
 -1.3091812e-01
 -7.0050794e-01
 -3.8688525e-03
  1.2047654e+00
 -4.4636038e-01
 -8.6870551e-01
 -5.3047353e-01
  1.9100174e+00
  5.5919969e-03
 -5.6218392e-01
 -5.8164448e-01
  6.9098628e-01
 -3.6930951e-01
 -2.6400587e-01
 -5.8913100e-01
  1.5057486e-01
  1.6350670e-03
 -8.2669273e-02
  4.8775041e-01
 -6.5276946e-04
 -4.2095155e-04
 -5.9780777e-01
  8.2862313e-04
 -4.6598754e-04
 -1.5946415e-03
  1.8194045e+00
  2.0367432e-01
 -4.2936960e-03
 -8.1173098e-04
 -1.0365492e-02
  1.7976470e+00
 -3.0944824e-01
  3.6500797e-01
 -9.9659324e-01
 -9.8675266e-02
  5.5287296e-01
 -7.0929998e-01
  9.9321038e-01
  2.0251024e+00
  1.4608415e+00
  4.9490598e-01
 -3.1570730e-01
 -9.5143914e-05
 -9.0669595e-02
 -1.2007775e-04
  2.2853276e-01
  9.6148956e-01
  3.4845197e-01
 -6.7260832e-01
  5.0032389e-01
  5.8686489e-01
  4.5124098e-04
  7.7121603e-01
  2.0252774e-02
  4.3231672e-01
  1.0149428e-02
  6.5486245e-02
 -7.1400517e-01
  2.5202495e-01
 -3.2911128e-01
 -6.8784803e-01
 -3.0735511e-01
  9.0254301e-01
 -5.9043016e-02
  6.8576849e-04
 -1.2716295e-02
  4.7711108e-02
 -3.6318916e-01
  5.5957228e-01
 -5.0850403e-03
 -1.1736187e+00
  6.8063937e-02
  2.8855821e-01
 -2.4313284e-03
 -9.6095260e-03
  2.0197167e-03
 -3.1426957e-01
 -4.9844821e-04
 -4.8265454e-01
  7.7962911e-01
  4.1961893e-01
 -5.1485467e-01
 -5.2679926e-01
 -6.1290687e-01
  1.5582140e-03
  4.8731631e-01
 -4.0029797e-01
  9.4324601e-01
  1.3916098e+00
 -4.5724321e-04
 -1.8551861e-01
  2.1599312e+00
  2.8129923e+00
 -4.6539697e-01
 -5.9087682e-01
  9.0767860e-01
 -3.2042980e-01
  2.3866678e-03
 -2.9407021e-01
 -2.5897374e-02
 -2.0272671e-01
 -6.1838403e-03
 -4.6999657e-01
  2.1626112e-01
  1.1247234e-02
 -5.5685163e-01
 -2.0136715e-01
 -9.4236240e-02
  1.2639765e+00
 -8.6261518e-02
 -3.8329855e-01
 -6.5003031e-01
  1.0610853e+00
  9.2607222e-02
 -4.9344587e-01
 -6.0692459e-01
  8.1463796e-01
  1.0093848e-01
 -1.5402137e-02
  2.3359172e-02
  2.3359172e-02
  2.3359172e-02
  2.3359172e-02
  2.3359172e-02
  2.3359172e-02
  2.3359172e-02
  2.3359172e-02
  2.3359172e-02
  3.7800722e-02
  3.7800722e-02
  3.7800722e-02
  3.7800722e-02
  3.7800722e-02
  3.7800722e-02
  3.7800722e-02
  2.9012233e-02
  2.9012233e-02
  2.9012233e-02
  2.9012233e-02
  2.9012233e-02
  2.9012233e-02
  2.9012233e-02
  1.3580502e-02
  1.3580502e-02
  1.3580502e-02
  1.3580502e-02
  1.3580502e-02
  1.3580502e-02
  1.3580502e-02
  5.7021868e-03
  5.7021868e-03
  5.7021868e-03
  5.7021868e-03
  5.7021868e-03
  5.7021868e-03
  5.7021868e-03
  1.2225810e-02
  1.2225810e-02
  1.2225810e-02
  1.2225810e-02
  1.2225810e-02
  1.2225810e-02
  1.2225810e-02
