nep4 2 Cu Se 
cutoff 7 5 100 44
n_max 8 6
basis_size 12 12
l_max 4 2 0
ANN 50 0
  6.3040352e-01
 -1.4566848e-01
 -9.7701859e-01
 -3.5020757e-01
  1.3066936e-01
  8.1891596e-02
  2.8119290e-01
  6.1919477e-02
  2.9607618e-01
 -2.9228601e-01
  1.0422270e-01
  3.1469101e-01
  5.2938306e-01
 -5.6509674e-01
 -9.9634923e-02
 -4.9977323e-01
 -1.8265046e-01
 -1.7354408e-01
  6.9177592e-01
  1.7285720e-01
 -1.3477771e-01
 -1.1796349e+00
  6.5475196e-02
 -3.1519973e-01
  3.5694227e-01
 -1.9869605e-01
  5.9341657e-01
  3.0897808e-01
  2.5377735e-01
  1.0038678e-01
 -3.9984483e-01
  7.0481151e-01
  6.5704668e-01
 -3.1878269e-01
 -1.8617356e-01
  2.2242704e-01
  1.5116771e-01
 -1.8753012e-01
  3.1672022e-01
  1.0241327e-01
  2.9568803e-01
 -3.8174787e-01
 -8.3482325e-02
  1.7394650e-01
 -5.9012551e-02
 -2.7462333e-02
  5.4974294e-01
  7.8342372e-01
  1.4567363e-01
 -8.4203102e-02
 -1.5185839e+00
 -4.2437904e-02
  1.9492367e-01
  4.1911457e-02
 -1.7530510e-02
 -2.4197239e-01
  8.1399477e-01
 -8.5288845e-02
 -1.2871382e-01
 -1.2505873e-01
 -2.5221550e-01
 -3.6176327e-01
  1.4173287e-01
 -9.6296579e-02
 -2.8933045e-01
  3.4506175e-01
  1.2990816e-01
 -1.5086756e+00
  5.1606792e-01
  1.1666889e+00
 -4.9090702e-02
 -6.3908905e-01
  4.9441159e-02
 -9.2256051e-03
 -8.4214449e-02
 -1.3677980e-01
 -1.2791538e-01
  2.2866538e-01
 -2.9965080e-02
  5.5212289e-01
  3.4352946e-01
 -7.5493979e-01
  1.1094976e-01
  9.3015833e-03
  6.5840125e-01
 -6.3756394e-01
 -4.1511357e-02
 -1.4258189e+00
  2.1150668e-01
  1.8255813e-01
 -2.4299234e-02
  6.3392669e-01
  3.2615653e-01
 -2.1917522e-01
 -2.9778352e-01
 -2.4407607e-01
  2.2080416e-02
 -2.1289880e+00
  2.9950479e-01
  2.2835797e-01
 -3.7813875e-01
  5.5312347e-01
  1.1396597e-01
  1.6166898e-04
  3.6459044e-02
  3.6124197e-01
  1.1404889e+00
  8.8553709e-01
 -1.0258508e+00
  2.9757810e-01
  3.5757631e-02
  1.2722291e-01
 -2.8508061e-01
 -3.3458561e-02
 -8.0245185e-01
  1.9890764e-01
  1.3231687e-01
 -2.0669077e-01
  6.6338921e-01
 -3.3228046e-01
  3.3592972e-01
 -1.8054892e-01
  1.1232011e-01
 -2.7632651e-01
  1.0384972e-01
  1.2903520e+00
 -5.6733958e-02
 -2.4512881e-01
  1.1492637e-01
 -9.9944165e-03
  2.9056285e-02
  3.3617386e-01
  1.1306288e+00
 -2.6977965e-01
  7.4590221e-02
 -6.4130142e-02
 -9.4810849e-01
 -1.1170032e-01
  2.9823667e-01
  2.1876368e-01
 -2.7968273e-01
 -6.7431852e-04
  2.7538571e-01
  4.9071911e-01
 -4.9342114e-01
 -2.2309412e-01
  1.7085528e-01
 -3.9985129e-01
 -8.6167675e-01
 -2.0705377e-01
  1.0050859e+00
  4.7506824e-01
 -2.2670317e-01
 -3.3976227e-02
  4.7253025e-01
 -6.4503707e-02
  5.3915811e-01
 -1.3817707e-01
 -5.3178000e-01
  2.7820396e-01
  7.1725147e-03
  9.5742869e-01
 -1.5769674e-01
  5.1939058e-01
  2.9755486e-03
 -7.6710111e-01
 -1.6071290e-01
  4.9528351e-01
  2.6879704e-01
  9.6197613e-03
  3.1692181e-03
  1.0539804e+00
 -4.2029062e-01
  4.5857283e-01
 -2.7054310e-02
  9.5646866e-02
  3.6999831e-01
  1.9838470e-01
  2.0273107e-01
  2.1610910e-02
  7.2038954e-01
  1.0176682e-01
  1.9148156e-01
  1.0498596e+00
 -1.5349992e-01
 -3.6948052e-01
 -1.4626480e+00
  4.7574344e-01
  2.7152833e-01
  1.5989915e-02
 -9.1204256e-02
  5.5057693e-01
  5.6663595e-02
  9.7341433e-02
 -9.6285570e-01
 -9.5488742e-02
 -1.7766751e-01
  3.6900409e-02
  1.7714992e-01
  1.6498938e-01
  5.2618212e-01
 -9.4716167e-01
  2.5785667e-01
 -2.1872565e-01
 -5.4196411e-01
 -4.5188707e-01
 -8.5906523e-01
  2.0706040e-01
  2.9000497e-01
  5.5289459e-01
  3.4387797e-02
  2.7014142e-01
 -5.5704560e-02
 -3.2583009e-02
  7.0408988e-01
  4.9351789e-02
 -1.5008725e-01
  6.2955225e-01
 -3.3315954e-01
  6.9098823e-02
  1.8788922e+00
  2.6153870e+00
 -1.5518628e+00
  7.3818260e-01
 -1.0233455e+00
  6.1791176e-01
 -8.1725162e-01
  1.6712902e-01
  6.0386982e-02
  8.2751498e-02
 -6.4821362e-01
  1.1157054e-01
  1.6809592e-01
  5.7608855e-01
 -1.2117240e+00
 -1.6905004e+00
  2.3106234e+00
 -1.6484562e-01
 -1.9773109e+00
  1.3226351e+00
  2.4405605e-01
  4.0064546e-01
  4.2561218e-02
 -3.9328369e-01
  8.4382182e-01
  4.3604103e-01
  3.2327849e-01
 -1.4387524e+00
 -1.0173645e+00
 -8.9239138e-01
 -1.2109229e-02
  2.9168302e-01
  3.1215009e-01
 -1.7247723e-01
  6.5757656e-01
  9.8233834e-02
  4.7329772e-01
 -3.2908750e-01
  7.6166350e-01
  9.4713914e-01
 -2.9374793e-01
 -4.2926490e-01
 -1.3788348e-01
  3.2607001e-01
 -1.6326623e+00
  5.2957809e-01
  1.3296540e+00
 -4.6929523e-01
 -1.2226892e+00
 -4.9816278e-01
 -1.3480909e+00
 -1.4463310e+00
 -7.9901539e-02
 -2.2026092e-01
 -3.0267861e-01
 -3.4093466e-01
 -1.6170041e-01
  4.5213453e-02
 -3.7424967e-01
 -4.6760350e-01
  3.5612112e-01
 -1.9778194e-01
  3.4913340e-01
  7.5597292e-01
  8.7918989e-02
  1.1265740e-01
  7.3977375e-01
  1.2272128e-01
 -3.1457037e-01
 -7.6944309e-01
  3.6832935e-01
 -1.2129289e-01
 -8.0840379e-01
  9.1663271e-01
 -2.3852374e-02
 -4.2626467e-01
 -2.6970002e-01
  2.6126885e-01
  5.4111701e-01
  1.3018221e-01
 -1.0970999e-01
  7.1000367e-01
 -1.0634985e-02
 -1.4555427e-01
  1.8353032e-01
  2.1945417e-01
  9.5813364e-01
 -9.7842395e-02
 -7.0355576e-01
 -2.6394855e-02
  6.4414477e-01
  9.4498806e-02
  9.2391932e-01
  1.7094965e-01
 -4.9185786e-01
  7.7012338e-02
  1.0981351e-02
 -7.2513008e-01
 -5.0978847e-02
 -5.6264770e-01
  3.0393013e-01
  8.6078882e-02
 -7.0050642e-02
 -2.1703348e-02
 -3.4283251e-01
 -5.5654389e-01
  2.4172671e-02
  6.1602426e-01
  1.2905867e-01
 -3.0741018e-01
 -2.1196632e-01
 -8.4524721e-01
 -1.1101852e-01
 -3.6138305e-01
 -1.5524150e-01
 -1.0172413e-01
  2.0549886e-02
  2.8529915e-01
  1.2726033e-01
 -1.2929500e+00
  1.9617622e-01
  7.0582402e-01
 -1.6784448e-02
 -2.7658838e-01
  9.6389100e-02
  3.3001316e-01
  1.7100702e-01
  1.3168137e-01
 -9.4296828e-02
 -3.5566193e-01
  3.1373668e-01
  8.8766128e-02
 -1.9052421e+00
 -2.4262892e-01
 -3.0030736e-01
  1.0728340e-01
  1.3169378e-01
  1.0940676e+00
  7.6032028e-02
 -5.9792411e-01
  1.0765291e+00
  3.1405270e-01
  3.8547361e-01
 -2.7042678e-01
  6.7352310e-02
  3.6039455e+00
 -4.2816219e-01
  6.5799987e-01
 -3.0699596e-01
 -8.5623735e-01
  2.5157003e+00
  3.6624494e-01
 -7.7105880e-02
  4.7360501e-01
 -8.1299897e-03
 -4.2680296e-01
 -1.3931367e-01
  3.6154798e-01
  6.1368501e-01
 -4.7615252e-02
  1.9526404e-01
  1.3949740e-01
 -2.3822506e-01
 -1.1133240e-01
 -2.2198784e-01
 -7.9606161e-02
  4.5889130e-01
 -1.8589672e-01
 -4.5235294e-01
 -3.2736278e-01
  1.0816324e-01
  9.3512423e-02
  1.7944452e-01
  1.1377134e+00
  4.7358620e-01
 -6.5292603e-01
  1.9072603e-01
 -3.6649102e-01
  6.9269586e-01
  4.6113515e-01
  3.8798138e-01
 -1.2273673e+00
 -9.3710953e-01
  9.2379606e-01
 -5.3370976e-01
  4.1976205e-01
 -5.8026516e-01
  3.6209849e-01
  9.3152171e-01
 -2.9390621e+00
 -4.2591562e+00
  1.2241814e+00
 -5.7815784e-01
  2.1295482e-01
  1.7831963e+00
  3.8723835e-01
 -1.0281899e+00
  5.9782803e-01
 -7.2228843e-01
 -1.3107928e+00
 -1.3166300e+00
 -2.5481880e+00
 -1.7715623e+00
  5.3364360e-01
  2.7512848e-01
  5.4530555e-01
 -4.9565048e+00
 -6.1572379e-01
 -2.1893675e+00
 -3.2962641e-01
  2.9169548e-01
  2.7604842e+00
  3.8424674e-01
 -1.1383549e+00
 -1.5274531e+00
 -7.6506180e-01
 -1.5951197e+00
  2.2930244e-01
  1.3206128e+00
  1.0617118e-01
  6.4021444e-01
 -1.0783491e-01
 -1.8774931e+00
 -1.5172893e-01
 -1.4114643e+00
  1.4281689e-01
 -4.4503975e-01
  3.6004927e-02
  3.0184186e-01
  6.6836625e-03
 -4.6264291e-02
 -1.9462460e-01
 -1.9335924e-01
 -4.1069502e-01
 -1.5773059e-01
 -3.4015760e+00
  1.0171916e+00
  1.4862531e-01
 -6.1696517e-01
 -3.3065870e-02
  2.7350011e-01
 -8.0695295e-01
  8.3555216e-01
  5.6532711e-01
  8.8277444e-02
  4.6856189e-03
 -2.7401155e-01
 -1.4541396e-01
  1.3299103e-01
  3.7652671e-02
 -9.1003932e-02
  2.8698675e-02
  5.3836721e-01
  1.3492554e-01
  2.2775228e-01
 -1.7458909e+00
 -8.0317862e-02
 -3.1761640e-01
 -3.1357583e-01
 -3.6740136e-01
 -2.8853947e-01
 -8.2183123e-01
  3.2112068e-01
  1.0417849e-01
  8.9877509e-03
 -8.3166200e-01
 -1.4952209e+00
  2.5227010e-01
 -2.9419808e+00
  6.6329941e-02
  7.5376201e-01
 -2.0692231e-01
 -2.0841439e-01
  1.7764549e-01
  6.9433779e-02
  7.8459553e-02
 -4.7032002e-01
 -1.1635083e+00
  1.4340240e-01
 -5.4746962e-01
  5.6475773e-02
  1.9882125e+00
 -8.1610167e-01
  1.4948863e-01
 -6.3295909e-03
  2.9098526e-01
 -1.8283451e-01
  7.0619516e-02
 -6.0988480e-01
  7.9141021e-02
 -1.1404710e-01
 -7.1057117e-01
 -1.3010761e-01
  2.4186422e-01
 -7.4556434e-01
  3.1588781e-01
 -1.6414383e-01
 -4.2382663e-01
  5.3088909e-01
 -1.4659174e-02
 -1.5421222e-01
 -2.0299920e-01
  3.5052267e-01
  3.2994172e-01
  9.4411820e-02
 -5.9274465e-01
 -3.5226375e-02
  2.2244704e-01
 -4.7202584e-01
 -9.6296906e-02
  7.4297115e-02
  1.0405276e-01
  9.9257600e-01
  5.9428941e-03
  2.8743000e+00
 -1.1150345e+00
  3.4021854e-01
 -3.6453083e-02
  4.2118782e-01
 -8.2194579e-01
 -4.9663198e-01
  1.7134352e-01
 -1.7725006e-03
  7.5979643e-02
 -5.1792163e-01
  5.0183050e-02
  2.8041834e-01
 -1.4186081e+00
 -1.0664788e-01
 -3.7322196e-01
  9.9660791e-02
 -6.5640956e-03
 -3.8005000e-01
 -3.8252976e-02
  7.9115056e-02
 -3.5853043e-02
 -5.9397209e-01
 -6.2763169e-02
  8.9275497e-01
  5.4911453e-01
 -2.6936696e+00
  7.7006675e-02
  4.9823371e-01
 -3.5781002e-01
  4.3352294e-01
  1.6602883e-01
  7.5536467e-02
 -3.7419487e-02
  4.0479976e-01
  4.6152234e-01
 -1.6190267e-01
 -1.2912726e-01
  8.0068551e-02
 -1.0824490e-01
  4.2579331e-02
 -4.1361502e-01
 -7.1001959e-01
 -4.6800175e-01
  3.5432363e-01
  2.8539088e+00
  6.6909373e-01
 -2.2167793e-01
 -5.8565295e-01
  9.1910444e-02
 -4.3654498e-01
  3.6854368e-01
 -2.0290855e-01
  2.2074190e-01
 -6.7036778e-02
  3.6214015e-01
 -1.0330486e-01
  5.7307035e-01
 -8.5380000e-01
  3.1343895e-01
 -9.9754471e-01
 -4.4540334e-01
  5.4590315e-02
 -1.4458832e-01
  2.7192023e-01
  2.4904396e-02
  1.5777718e-02
  1.0213325e+00
  5.0483900e-01
 -6.6521853e-02
  2.6082689e-01
  8.8195406e-02
  3.6132801e-01
 -1.6605259e-01
 -9.9864297e-02
 -9.6600997e-01
  3.6620867e-01
  7.6366466e-01
 -8.6412644e-01
 -5.2441162e-01
  5.3305335e-02
 -1.6277358e-03
 -2.1360311e-01
  1.0436252e+00
 -9.8398548e-01
 -4.5099570e-03
 -1.5497412e-01
  1.1895142e+00
 -9.7445428e-02
  1.1004560e-01
  1.0286170e+00
 -4.4244820e-01
  6.5645736e-01
  1.5949115e-01
  4.7579432e-01
 -2.5243172e-01
  8.9648992e-01
 -1.1315685e-01
  5.9695441e-01
 -4.1130030e-01
  2.2593384e+00
  2.2101735e-01
 -5.7997555e-02
 -9.0989769e-01
  8.1048852e-01
 -3.4744021e-01
 -1.9364450e-02
 -3.2228273e-01
 -3.5705602e-01
  8.7740809e-01
  4.3571934e-02
  4.7138539e-01
  1.5878296e-01
  1.0579575e+00
  3.8062635e-01
  2.7014223e-01
 -4.7515532e-01
 -4.3807265e-01
  9.5398766e-01
  1.0774652e+00
  1.6988061e-01
  1.9199289e+00
  2.3377606e-01
  1.1719121e-01
  2.6141039e-01
 -6.2595534e-01
  7.7837402e-01
  1.2397718e+00
  8.0480498e-01
  1.4627637e-01
 -9.2106789e-01
 -4.7924465e-01
 -1.1755036e+00
  4.9041077e-01
  2.4003813e-01
 -2.9620382e-01
 -2.8912230e+00
 -1.7029145e-01
  2.1638726e-01
 -4.0723568e-01
 -2.9324536e+00
 -1.7317653e+00
 -8.2312286e-01
 -9.2124325e-01
 -1.7558670e+00
  3.5068798e-01
 -4.4381598e-01
  1.7383767e+00
 -1.2788243e+00
 -1.2051865e-01
 -2.6497872e+00
 -6.2504864e-01
  1.6732941e+00
 -1.9174509e-01
  2.9251254e-01
 -4.6265525e-01
 -1.0955771e-01
 -1.1324996e+00
 -9.7193646e-01
 -2.5838545e-01
 -5.5546194e-01
  1.1083567e+00
 -2.4344894e-01
 -1.1605639e+00
 -4.9221170e-01
 -1.5295133e-01
 -3.9085586e-02
  8.4885901e-01
  9.4215727e-01
  7.7160269e-01
  5.5862613e-02
  2.5613564e-01
  2.5778279e-01
  1.2719315e-01
  1.1229524e-02
  1.5786748e-02
 -2.6208824e-01
  7.5240397e-01
  2.4444966e-02
  2.0878527e-01
 -3.8648257e-01
 -1.5128052e-01
 -7.3194999e-01
 -2.9601276e-01
  6.2686436e-02
 -2.1213180e-01
 -4.7866780e-02
  5.4889172e-02
  2.2802651e-01
  2.2570980e-01
 -9.2254937e-01
 -8.9383781e-01
  2.2116244e-01
  2.4567023e-01
  1.8472342e-01
 -2.1035004e-01
 -4.3024999e-01
 -4.1896525e-01
 -1.5344253e-01
  4.0657392e-01
 -2.3875976e-01
  6.1202183e-02
 -5.2685732e-01
  8.5719945e-03
  6.0598212e-01
  6.0925014e-02
  9.5813021e-02
  8.9658707e-02
 -2.1021271e-01
  6.9239832e-02
  1.2112115e-01
  6.2439835e-01
  1.1089059e-01
  6.2443221e-01
  9.8096117e-02
 -1.9796105e-01
  6.8090922e-01
  8.4495187e-02
  3.9107826e-01
  5.6592304e-01
  4.7244240e-02
 -1.5677410e-01
 -4.0669587e-01
  2.2335801e-01
 -7.9107636e-01
 -1.0262734e-02
  8.9007521e-01
 -1.5239903e-01
  2.1496751e+00
  7.3085167e-03
 -1.5347169e-01
  1.6633666e-01
  2.9262206e-01
  1.0984382e-01
 -7.4797010e-01
 -3.1242919e-01
  7.3858911e-01
 -3.7743849e-01
 -1.9908932e-01
  4.4184977e-01
  1.4358118e-02
 -3.9920151e-01
  3.5593468e-01
 -1.1676129e+00
 -2.6353189e-01
  3.3857682e-01
  3.0957252e-01
  8.4836006e-02
  8.2150209e-01
 -1.8929940e-02
  4.0251312e-01
 -1.0557954e-01
 -1.3095014e-01
 -2.5198907e-01
 -7.6783407e-01
 -1.3334873e-01
 -5.8237416e-01
 -2.7954915e-01
  3.0804169e-01
  1.7578473e+00
  7.3734289e-01
 -5.7334882e-01
  6.0209483e-01
  1.1322425e-01
  3.7145946e-02
 -7.9156405e-01
  1.5666232e-01
 -4.4184756e-02
 -3.1580877e-01
  1.1909239e-01
  2.5377867e-01
  1.8186714e-01
 -2.8655815e-01
 -4.3339160e-01
 -1.6796298e-01
  3.4718165e-01
 -3.5973212e-01
 -8.1499773e-01
 -3.6225939e-01
  2.0223036e+00
 -1.6238612e-01
  5.8578525e-02
  6.1723638e-01
 -6.4288400e-02
 -9.7727612e-02
 -1.3474917e-01
  5.9519905e-01
  1.3011113e-01
  1.5866518e-01
 -1.4416966e-01
 -6.9037414e-01
 -2.1336451e-02
  2.8543005e+00
 -1.2172459e-01
  5.8961906e+00
 -4.7752666e-01
  5.7856894e-01
  3.4797302e-01
 -1.7951920e+00
 -2.8517142e-01
  1.1105483e+00
  3.4618881e-01
 -7.9704463e-01
 -7.8178930e-01
  6.8471813e-01
 -4.0936384e-02
  4.8175016e-01
  1.6736743e+00
  4.9346244e-01
  1.3314311e-01
  1.1915879e+00
  6.3122772e-03
  4.8238430e-03
  1.3025109e-01
  9.3740694e-02
  5.7183754e-02
 -8.7657332e-01
 -1.2627178e-01
  1.5740499e-01
 -5.8175195e-02
  1.0080938e-01
  2.4657546e-01
  1.0341846e+00
  1.4835838e-03
  1.2371649e+00
  3.9330754e-01
  3.5050711e-01
 -1.8826029e-01
 -1.2685336e-02
  3.8278186e-01
  2.3694088e+00
 -1.4213237e-01
  1.4670080e-01
  8.7180579e-01
  2.7605557e-01
  1.0710346e+00
 -1.3432260e-01
  2.8376493e-01
  2.8266829e-01
  9.1354412e-01
  5.5339225e-02
  4.0046307e-01
  1.5633614e+00
 -4.8823047e+00
  4.5832840e-01
  2.4594776e-01
  1.0167960e+00
  1.0438730e+00
  5.2309114e-01
  4.7946283e-01
  6.1494958e-01
  1.4496104e-01
  4.8821861e-01
  1.1684119e+00
  7.9628950e-01
  6.7608488e-01
  8.4319606e-02
 -2.6719502e-01
 -8.9964288e-01
  9.2003781e-01
  2.0655875e+00
  7.6355869e-01
  6.9999564e-01
  2.7406201e+00
 -2.6369917e-01
 -1.2281066e-01
  2.0546198e+00
 -1.0311350e+00
  1.0272955e+00
  1.2686584e+00
  1.4385687e-01
  7.4650991e-01
  4.7419128e-01
 -1.9095447e-02
 -1.1204034e+00
  3.3736047e-01
 -6.3952738e-01
  5.8626777e-01
  6.2492073e-01
  4.6439430e-01
  2.2838767e+00
  2.8187501e-01
  7.7921510e-01
 -5.9522742e-01
  1.8633810e-01
 -3.7641153e-03
 -4.4303611e-01
 -3.8327613e-01
  2.8259274e-01
  6.5453023e-01
 -1.4028686e+00
 -2.0712444e-01
  1.2011147e+00
  8.2166024e-02
  4.2806473e-01
  5.0818026e-01
  8.5575831e-01
 -3.3185453e+00
 -2.9298806e-01
 -7.1403921e-01
 -2.1039739e-01
 -1.2531917e-01
  5.7420552e-02
 -5.8759439e-01
 -6.8487751e-01
 -1.5454924e-01
 -2.3778000e-01
 -3.0636050e-02
 -5.9437668e-01
  1.9758727e-01
  6.3130999e-01
  5.3744566e-01
  5.4706264e-02
  4.9588719e-01
  5.7882851e-01
  1.5590675e-01
  5.4587632e-02
 -1.2193141e-01
 -1.8392034e-01
 -3.4641750e-02
 -4.8543864e-01
  8.4522927e-01
 -2.9175419e-01
  2.8674543e-02
 -2.0991129e-01
 -9.2256790e-01
 -1.1228824e+00
 -3.7260237e-01
  7.7990603e-01
 -3.7752163e-01
 -2.3463444e-01
 -2.7995765e-01
  1.3533168e-02
  2.8941929e-01
 -2.2499935e-01
 -1.0366179e-01
 -3.9585495e-01
 -4.7786515e-02
 -1.3380177e+00
 -7.6027349e-02
  4.3791199e-01
  8.0888599e-01
 -1.6564128e+00
  2.0339069e-01
 -2.2954777e-01
  3.9647678e-01
  1.9623095e-01
  7.9497740e-02
  8.2160398e-02
  9.6955702e-02
 -5.7688993e-01
  6.0758814e-03
  7.7014431e-02
 -1.5787061e-01
 -1.1634357e-01
 -4.1300678e-01
  1.4495991e-01
  2.2927307e-01
  6.7125469e-02
  1.0496570e+00
  4.7806770e-02
 -3.0276063e-01
 -9.5900857e-01
  3.9600119e-01
 -3.3927658e-01
 -9.8627396e-02
  4.1004667e-01
 -6.4765757e-01
 -9.7709991e-02
  7.1839102e-02
 -2.2953197e-01
 -2.1092892e-01
 -7.6550514e-01
  5.0138021e-01
 -3.0666631e-01
  2.0742622e-01
 -2.1624921e-01
 -1.2336629e-01
 -6.2094516e-01
 -1.1040211e+00
  2.8036897e+00
  8.5171396e-01
 -1.4517248e+00
  1.5661501e+00
 -7.6385483e-02
  3.1040773e-01
  1.1537825e-01
 -1.1271178e-01
  2.4930229e+00
 -9.5194989e-01
  1.3688551e-01
  3.4153834e-02
 -1.4129720e+00
  4.1345824e-02
 -3.7607676e-01
  6.3472986e-02
  2.5432232e-01
 -1.1376689e-01
  1.3295880e-01
 -1.0484202e+00
 -3.0660110e+00
  1.1123591e-01
 -1.8016634e+00
  4.6614483e-01
 -1.0399321e-01
  2.2709376e-01
 -2.5375633e+00
  5.9936851e-01
  4.1732508e-01
 -2.3562127e-01
  2.6832161e-02
 -5.8803099e-01
  2.2215512e-01
 -7.3375720e-01
  2.6068148e-01
  1.9042104e-01
 -1.8766317e-01
 -4.4813983e-02
  1.3184333e-01
 -9.1617234e-02
 -4.1946968e-01
  1.4023590e-01
 -2.7314574e-01
  2.4349718e+00
 -2.3331156e-02
  8.4735578e-01
 -9.9655968e-01
 -4.6465114e-01
  1.1704222e+00
  8.2397664e-01
  6.6881776e-01
 -2.7475888e-01
 -7.7003068e-01
  6.5307146e-01
  1.5268995e-01
 -2.0779493e-01
 -2.6729860e+00
 -1.3895812e+00
 -5.8890933e-01
 -5.7920599e-01
 -1.3766348e+00
  1.4809540e-01
 -5.4729972e-03
 -3.1945962e-01
  6.3319594e-01
 -3.3737085e+00
 -1.3266690e+00
  7.4604072e-02
 -1.5960846e+00
  1.4992720e-01
 -3.0951163e-02
 -7.9476881e-01
  4.3061146e-01
 -7.5186497e-01
 -1.3899416e-01
 -5.7044649e-01
 -3.1546253e-01
 -1.5045698e+00
  1.0796391e+00
  1.6232408e+00
  4.3801010e-01
  5.5698518e-02
 -1.1037666e+00
 -5.0870979e-01
 -4.4542763e-01
  1.1135443e+00
  2.2789866e-01
  4.0167600e-01
  1.3598808e+00
 -1.0832900e-01
  3.0962152e+00
 -6.1341763e-02
  1.3624300e-02
  9.8874711e-02
  4.0005955e-01
  6.0791945e-01
  7.6520646e-01
  3.5246366e-01
 -1.3408060e+00
 -2.8953800e-01
  1.3826548e-01
  2.2052610e+00
 -8.0723532e-02
 -7.2810233e-01
 -2.2983512e-01
 -1.5856503e-01
  9.7637004e-01
 -1.9637609e-01
 -8.6185914e-01
  2.5661327e-02
 -7.5367838e-01
 -1.3482060e-01
  1.2991495e-01
 -1.9818541e+00
  3.9755470e-01
 -4.2553995e-02
 -4.1296789e-01
  8.2816556e-02
 -6.2142658e-01
 -1.1172530e-01
 -3.2325220e-01
 -1.0980101e+00
  1.3088104e-01
  3.7259543e-01
 -3.7008351e-01
 -7.8234732e-01
  3.2418448e-01
  7.0281500e-01
  4.9058050e-02
 -1.3778366e+00
  7.5682119e-02
  2.6137614e-01
 -5.2623200e-01
  4.7189981e-02
 -9.7865745e-02
 -3.6764354e-01
 -4.2387700e-01
  4.5096987e-01
  3.0750135e-02
  2.6973584e-01
 -7.4218833e-01
  8.5564211e-02
  1.2583199e-01
  4.0798819e-01
  3.0963293e-01
  3.6304787e-01
 -1.1062606e-01
  1.2156563e-01
 -3.4163070e-01
 -2.5230536e-01
 -4.8204124e-01
 -5.9620154e-01
  3.9615107e-01
 -3.2993004e-01
  2.0133817e-01
  1.5601128e-01
 -1.3565777e-01
 -1.1547747e-01
  1.7928028e-01
  7.9151356e-01
  5.4125335e-02
 -5.4564700e-04
 -3.7330100e-01
 -1.6424057e-01
 -3.4417838e-02
 -5.0204521e-01
 -5.2695431e-02
 -9.2855424e-01
  5.1924407e-01
  4.9792045e-01
 -4.9192440e-02
  4.2805895e-01
  1.1780083e-01
 -4.0196767e-01
 -7.9808295e-01
 -1.8280776e+00
  4.0366095e-01
 -1.2540761e+00
  1.3917843e+00
  9.4351327e-01
  4.6940312e-01
 -1.3243721e+00
  1.3545059e-01
 -2.7521057e+00
 -3.3392408e+00
 -2.5948668e+00
  1.2120475e+00
  2.1779442e+00
  2.5674040e+00
  1.6574118e+00
 -1.4080343e+00
 -1.8104970e+00
  2.0438024e-01
  5.0446820e-01
  1.6858298e+00
  5.1900942e-02
 -1.2524608e+00
 -1.5727497e+00
 -2.7706069e-01
 -5.9410506e-01
 -6.7469257e-01
  5.1626086e-01
 -4.3425683e-02
  5.4849958e-01
 -9.3062586e-01
  6.2284525e-03
  1.6849270e+00
 -9.6928507e-01
  1.6372859e+00
 -1.1556495e-01
 -4.2429653e-01
  6.1439121e-01
 -3.0681399e-01
 -4.1404521e-01
 -1.7510371e+00
  4.0745519e-02
 -1.7738212e+00
  7.1529830e-01
  1.3720458e+00
 -1.4782099e+00
 -1.4879472e+00
  2.2078870e-01
 -9.1125906e-01
 -1.2252324e+00
  5.5630481e-01
 -2.4681690e+00
  4.6564024e-02
 -4.6062853e-02
  2.7525148e-01
  5.5740434e-01
  9.9517959e-01
  9.9371749e-01
  1.4301607e-01
  7.2928941e-01
 -2.0596662e+00
 -1.5636351e-02
  1.0182190e-01
  5.7323331e-01
  5.8659621e-02
  1.0177394e-01
 -1.2665772e-01
 -3.0266216e-01
  2.0213167e-01
 -1.0793283e+00
  2.2546455e-01
  3.6548635e-01
 -3.0714196e-01
 -1.3945255e+00
  1.1379005e+00
  9.3072462e-01
 -1.2706514e-01
 -9.9740565e-02
 -4.9576887e-01
 -2.9212531e-01
 -4.8556101e-01
  1.2909370e-03
 -2.5623077e-01
  3.1451470e-01
 -4.0356213e-01
 -1.5835649e-01
 -3.8498971e-01
 -3.7289463e-02
 -3.2960638e-01
  8.5312587e-01
  4.6591428e-03
 -4.6027768e-01
  6.1847854e-01
 -3.3544153e-01
 -1.7902265e+00
  6.3008219e-01
  2.5705042e-01
  1.6762947e+00
  1.7129222e-02
  6.1174488e-01
 -4.3136245e-01
  1.5386347e-01
  1.1464808e-01
  4.8476514e-01
 -1.3324919e-01
 -8.9016026e-01
  6.5373218e-01
 -1.5126852e+00
 -2.7863729e-01
  2.9715028e-01
  2.9118377e-01
  2.5334632e-01
  1.9765261e-01
 -2.0852944e-01
  1.7325357e-02
 -2.1995762e-01
 -4.4183898e-01
  1.0092577e+00
  4.4006955e-02
  3.1519416e-01
  4.2929542e-01
  4.2871881e-01
 -2.0364504e-02
  3.8579518e-01
 -5.3192800e-01
 -4.7647890e-01
 -1.8814182e-01
  6.5788287e-01
 -6.2036704e-02
 -5.8029234e-02
 -1.7430151e-01
  5.9556270e-01
  5.7927787e-02
 -4.1455328e-01
 -5.1018584e-01
 -8.1984651e-01
  3.7846220e-01
 -6.3323539e-01
 -1.4611563e-01
  1.2673992e+00
  2.3283970e-01
  7.6914132e-01
 -1.3217095e+00
  1.2318436e+00
  9.5213419e-01
 -2.6292232e-01
 -6.3919508e-01
 -1.6855159e-01
  6.1492389e-01
 -2.1309899e-02
  3.8080895e-01
  2.5832963e-01
 -5.5559111e-01
  6.1132467e-01
  1.2681493e-01
 -2.8556639e-01
 -2.2643524e-01
 -1.4915302e-01
  1.6072960e-01
 -2.2780198e-01
  6.3114345e-02
  6.1514741e-01
  4.8105903e-02
 -6.9376415e-01
  2.4417394e-01
  3.1657335e-01
 -1.0263292e-01
 -1.4919645e-01
  3.3051395e-01
 -1.2713735e-01
  1.4790292e-01
  5.3663433e-01
  4.5284721e-01
  1.1144596e-01
  2.9771371e+00
 -9.6764922e-02
  1.7687225e-01
 -4.5387873e-01
 -1.0585827e+00
  4.1186026e-01
 -3.1909186e-02
 -7.7899799e-02
  1.0696232e+00
  4.5057175e-01
  8.1104279e-02
 -2.8048956e-01
  8.2228011e-01
  1.4624815e-01
  1.3806263e-01
 -1.2093192e-01
  3.1612805e-01
  5.5534393e-01
 -3.2450652e-01
  1.9531280e-01
  2.5775695e-01
 -2.9658186e-01
  4.2276466e-01
 -1.3588523e+00
 -2.5952792e-01
  1.8889824e-01
  2.4020715e-01
 -4.4516817e-01
 -4.6586162e-01
  4.9181792e-01
  4.0137875e-01
 -2.6741505e-01
  1.6499513e-01
 -5.8425421e-01
  2.1427421e-02
 -1.9924308e-01
 -5.7016605e-01
  8.6601153e-03
  5.1217341e-01
 -2.7241045e-01
  3.6042324e-01
 -4.2023849e-02
  6.5851504e-01
 -4.4587873e-02
  5.9921074e-01
 -1.4388680e-01
 -9.7423267e-01
  6.0691977e-01
  1.4659697e+00
 -5.0710839e-01
  2.7379119e-01
 -1.3778308e-01
  1.0943949e-01
  5.8282137e-01
 -2.0205547e-01
 -2.1828990e-01
  1.1014919e+00
  3.7220788e-01
 -1.2644894e-01
 -5.2473819e-01
  5.1295477e-01
 -2.2021315e-01
  3.2947421e-01
  4.8897463e-01
  4.3126836e-01
 -1.6797262e-01
 -1.0216171e-01
  4.8417088e-01
  8.5070509e-01
  4.8592615e-01
  3.7504515e-01
 -6.6214836e-01
 -3.2950663e-03
  6.0783404e-01
  8.8051057e-01
  1.2288607e-01
 -1.3030288e-01
 -3.9325498e-02
 -1.1388898e-01
 -1.4417849e-01
 -6.0269010e-01
 -3.6094195e-01
  2.9921034e-01
  2.7955353e-02
  1.0283422e-01
 -8.9455253e-01
  9.4447628e-02
 -2.4680729e-01
 -3.6262953e-01
 -3.6226147e-01
 -7.1711361e-02
 -6.5660560e-01
 -6.9130921e-01
 -3.4692439e-01
 -8.5374343e-01
  2.3085193e-01
  1.2699393e+00
  5.4497105e-01
  6.3615113e-02
 -3.9712813e-01
  7.0712060e-01
 -4.8529011e-01
  3.0015707e-01
  1.2475204e-01
  2.4237843e+00
  9.4055480e-01
  1.7419022e-01
 -3.8435605e-01
 -7.9282475e-01
  4.0930572e-01
 -6.9932356e-02
  2.1561289e+00
  5.6805444e-01
  9.3069077e-02
  1.1581986e-01
 -1.5283978e-01
 -1.9055484e-01
  3.8187388e-01
  9.5017344e-01
 -5.1736760e-01
 -2.4729387e-01
 -1.9771336e-02
 -8.9726463e-02
 -1.2820335e-01
 -3.8806954e-01
  1.9371823e+00
 -1.2785918e-01
 -1.3681498e-01
  1.4038682e-03
  1.4329951e-01
 -1.8669233e-02
  6.4952737e-01
 -1.2157808e-01
 -4.1999046e-02
  2.4704275e-01
  5.0072384e-01
  7.6026969e-02
  3.8334955e-02
  4.5391068e-02
 -1.4685690e+00
 -5.6045607e-02
 -2.5599596e-01
  8.9862269e-01
 -7.4868357e-01
 -2.7458280e-01
  1.8019736e+00
  1.6761476e-01
 -2.7275652e-01
  7.8936733e-02
 -1.9363664e-01
  2.2820935e-02
  1.0533798e-01
  1.4021704e-01
 -4.5851561e-01
 -3.5174936e-01
 -6.3781899e-01
 -3.7592468e-01
  4.9060717e-01
 -3.0386102e-01
 -4.5010951e-01
  1.0643360e-01
  2.5782087e-01
 -1.0768636e-01
 -7.0558631e-01
  1.7430562e-01
 -1.2653641e-01
 -1.3270423e-01
 -2.9495081e-01
  1.5324788e-01
  2.9843172e-01
 -7.5329989e-01
 -9.9910751e-02
  2.4281070e-01
 -7.4472797e-01
  5.4587555e-01
 -1.1178029e-01
  3.8790208e-01
 -2.9449437e-02
  1.0605382e+00
  4.6923825e-01
 -1.1089841e-01
 -5.8211911e-01
  3.0669835e-01
  5.6124592e-01
 -7.0054692e-01
 -7.9302318e-02
 -4.9607515e-01
  7.4373528e-02
 -2.8500494e-01
  4.3485785e-01
 -5.0516349e-01
 -7.6737648e-01
 -2.6808622e-01
  1.2992394e-02
  3.3228925e-01
  1.9136865e-01
  2.8676525e-01
  1.4280397e-01
  4.9587068e-01
  9.8196201e-02
  3.2364237e-01
  4.8795936e-01
 -9.1624826e-01
 -1.4027134e-01
  1.7921938e-01
  4.6854684e-01
 -2.1340422e-01
  1.7696536e-01
 -1.8500957e-01
  4.9689472e-01
 -3.2276958e-03
  3.9188838e-01
 -8.5921162e-01
  8.8551021e-01
  6.5190488e-01
 -2.2955610e-01
 -8.8790907e-03
 -6.4912832e-01
  2.2541842e-01
 -1.5802689e-02
  3.5776702e-01
  1.1933178e-02
  1.2921488e-01
  1.5369084e+00
  2.8476456e-01
 -3.7205639e-01
 -3.8765383e-01
  4.4112244e-01
 -5.9047270e-01
 -2.4532328e+00
  1.1975276e-01
 -1.5373394e-01
 -1.2884323e-01
  1.0353947e-01
  7.5536460e-02
 -7.5529492e-01
  3.2944988e-02
  8.7386250e-02
  1.6242894e+00
 -3.0692611e-02
  5.0495452e-01
  2.9084930e-01
  5.1495486e-01
 -2.1022279e-02
  1.1510459e-01
 -7.7648163e-01
 -1.9871001e-01
 -1.3478490e+00
 -1.7167991e-01
 -5.6849527e-01
  1.2034906e-01
  1.5516497e-01
  7.7771640e-01
 -2.1407261e-01
  1.6546288e-01
  2.0189460e-01
 -8.3210224e-01
  3.7526575e-01
  1.9760144e-01
 -4.7252405e-01
  1.8884876e-01
  6.5639876e-02
  2.2585315e-01
 -4.0701918e-02
 -3.8188314e-01
 -4.5073710e-02
  3.1661797e-01
  6.3884780e-03
 -7.0618320e-01
 -1.6487008e-01
  1.9983254e-02
  1.3825886e-01
  4.5371857e-01
 -2.0451622e-02
  4.7170073e-03
  4.2984784e-01
  8.1981167e-02
 -2.9547602e-01
  5.8321014e-02
  4.5463002e-01
 -1.3011583e+00
  3.5295492e-01
  1.0121446e+00
  2.6176628e-02
 -4.1901994e-01
 -9.3190044e-02
 -5.8978006e-02
  1.9603850e-01
 -5.8041994e-02
  2.8316987e-01
 -2.7009241e-02
 -2.1958953e-01
  8.9542913e-01
 -1.4393684e-01
  3.1582615e-01
  4.9078831e-01
  3.8252854e-01
  7.8897548e-01
  3.3756593e-01
  7.3232681e-02
  2.3746982e-01
  2.1955112e-01
  6.4530212e-01
  1.6569129e-01
  4.1786465e-01
 -2.3177376e-01
 -1.3660160e-01
 -5.9847355e-02
 -4.9923860e-02
  1.1918766e+00
  1.6417874e+00
  2.3074739e-01
  1.4149944e-02
  4.3898746e-01
  3.4040186e+00
 -5.5000401e-01
 -7.3389351e-01
 -7.4491161e-01
  9.6067524e-01
  1.2886196e+00
 -2.3427348e-01
  1.4670998e-01
 -1.6976136e-01
  2.4924919e-01
  4.4066826e-01
 -4.9882728e-01
 -1.2712941e-01
 -1.4041287e-01
 -1.3209004e+00
 -3.8813032e-02
 -2.9478288e-01
 -9.0081230e-02
  8.3727412e-02
 -1.7125224e-01
  3.5229665e-01
  1.0785425e-02
 -3.3128050e-01
 -2.8431836e-01
  5.4531276e-01
  1.7055926e-01
 -1.3165770e-01
  3.3571669e-01
 -3.6555997e-01
 -8.5518479e-01
  4.7427639e-01
  3.1413221e-01
 -9.8115164e-01
  3.9758289e-01
 -2.3630664e-01
 -4.7474197e-01
  6.6144526e-01
 -2.0532483e-01
  1.2533301e-01
 -6.0979230e-03
  1.3317116e-01
  9.0217119e-01
  1.7010491e-01
  3.3480743e-01
  1.9265254e-01
 -6.0405827e-01
 -1.0400032e-01
 -1.9042046e+00
 -7.1101241e-02
  1.1943895e+00
 -4.9409345e-02
  1.4738138e-01
 -2.8835022e-01
  1.6715102e-02
  2.6908344e-01
  1.9020338e-01
 -4.4428033e-01
  8.0546729e-02
  5.0287241e-01
  7.8153811e-02
 -1.5251304e-01
 -2.7000210e-01
 -9.5331419e-01
 -1.4200251e-01
  8.4405273e-02
  2.7299482e-01
  5.5916238e-01
  5.1450878e-01
  1.9294187e+00
 -7.9599196e-01
  4.3600447e-02
 -3.4197918e-01
  9.8971033e-01
 -2.4370232e-01
 -6.0570780e-02
  5.2784795e-01
  1.6771549e-01
 -8.3458088e-03
 -3.0567214e-01
 -1.6991191e-01
 -9.3812704e-01
 -3.7371570e-01
 -7.7267593e-01
  3.0901456e-01
 -2.5778577e+00
 -7.7602327e-01
 -3.1823021e-01
 -1.2023965e+00
  1.4819274e+00
 -2.8676009e-01
  7.0498598e-01
  5.0375199e-01
 -2.6063862e+00
 -5.3951281e-01
  8.7559748e-01
 -1.8259101e-02
 -5.1929432e-01
  1.2891498e+00
 -1.0498960e-01
 -4.6510744e-01
  4.1904849e-01
 -8.2805023e-02
 -5.3690797e-01
  6.4639404e-02
 -1.1250767e+00
  2.4241362e+00
  4.3219852e-01
 -1.6719860e-01
 -8.7844622e-01
  6.3924885e-01
 -2.3147893e-01
  8.7154880e-03
 -1.9372879e+00
  8.4579635e-01
 -1.6054596e-01
 -8.5607126e-02
  2.2643190e-02
  1.6617326e-01
  1.1791562e-01
 -8.3986354e-01
  2.8047925e-01
 -2.3320472e+00
 -1.4035319e-01
 -1.0634110e+00
  2.8293312e-01
 -3.7893611e-01
 -4.0548943e-02
  5.6577849e-01
 -1.1175401e+00
 -4.3499148e-01
 -3.1806466e-01
 -7.1630239e-01
  1.7589335e+00
  1.6406090e+00
  3.0199549e+00
  4.9748918e-01
 -5.0421733e-01
 -1.0462382e+00
 -6.2733173e-01
 -7.2382921e-03
 -2.6594338e-01
  1.9730911e-01
 -6.9202453e-01
  5.1951706e-01
 -2.9197812e-01
  2.1976355e-01
 -8.6554796e-02
  1.1102638e+00
 -5.1543880e-01
 -1.0018406e+00
 -2.1710342e-01
 -1.5581301e+00
  1.4207910e-01
 -2.0433262e-01
 -6.3486896e-02
  7.7679895e-02
  4.9749050e-02
  2.1800710e-01
  3.9724910e-01
 -4.7270173e-01
  3.1410339e-01
  7.6277435e-01
  7.1280354e-01
 -6.8130243e-01
  2.1621442e+00
  1.5382062e+00
  2.8029963e-01
 -2.2486869e-01
 -3.0234849e-01
 -1.3200268e+00
  1.1339482e-01
 -5.5045933e-01
  8.8943654e-01
  1.3564290e-01
 -1.7079592e+00
  1.2453172e+00
 -7.1413124e-01
  2.5267667e-01
  3.9529681e-01
 -1.7243853e+00
 -6.3637877e-01
 -5.0910562e-02
 -5.9102613e-01
 -1.6523877e+00
 -1.9319948e-02
 -5.6924456e-01
 -1.8003108e-01
  2.3496630e+00
 -2.9421358e+00
  2.3836650e-01
 -1.1951460e+00
  9.1183595e-02
 -7.0705903e-01
 -1.4372764e+00
 -8.1947351e-01
 -1.4222934e+00
 -1.3914940e-01
  6.9220439e-03
  7.8141028e-01
  2.6739305e-03
  2.5049675e-02
 -8.1874467e-02
 -6.5413892e-02
  4.7079772e-01
  3.1038314e-01
 -7.2933733e-01
 -4.5536023e-01
 -4.4314441e-01
  1.8216237e+00
 -1.9512103e-01
 -2.6882041e-01
  1.3460442e-01
  1.0892028e-01
 -3.5709966e-02
 -2.1401976e-01
  1.3681830e-01
  6.0580391e-01
 -9.7240001e-02
  1.1734743e+00
 -1.8921512e+00
 -1.6352751e+00
  1.8447864e+00
 -7.0381081e-01
  3.9353961e-01
 -5.2225459e-01
  9.4876289e-01
  3.8950313e-02
  1.0637648e+00
  7.0976895e-01
 -9.3506761e-02
 -5.3981650e-01
 -2.6069590e-01
  2.4555143e-02
  4.4166231e-01
 -1.0125326e-01
  1.4854686e-01
 -2.2085838e-01
 -9.3450561e-02
  1.9170567e-02
 -5.9288061e-01
 -2.7816886e-01
  3.7332201e-01
  5.3863756e-02
 -7.0366824e-01
 -3.0803416e-02
 -4.4809958e-01
  9.9095064e-01
  1.7932835e-01
  4.7240362e-02
 -4.9042392e-01
  3.4191850e-01
  4.0903155e-02
 -8.6786652e-01
 -1.5958805e-02
 -8.1378430e-01
  4.2125544e-01
  3.5569632e-01
  2.5106946e-01
 -2.8719229e-01
  4.9081093e-01
 -2.7794425e+00
 -9.8156512e-01
  1.8041596e+00
 -2.6840432e-02
  1.5563219e+00
 -1.0418213e-01
  3.9837897e-01
  3.4819331e+00
 -1.1513963e+00
 -5.3843212e-01
 -2.1030211e-01
  9.2381969e-02
 -2.2877928e-02
  1.1365339e-01
 -3.5906136e-01
 -4.0860009e-01
 -3.7267402e-02
 -4.6386263e-01
 -2.5087190e-01
 -1.9614391e-01
  1.0768951e-01
 -8.2781917e-01
 -6.4923739e-01
  8.3291274e-01
 -7.9890585e-01
 -1.5121743e-01
  3.8007814e-01
  2.6873377e-01
  4.2037222e-01
  1.3229018e-01
  1.4773847e-01
 -1.3551989e-01
  7.5412281e-02
  5.2264780e-01
  1.6903648e-01
 -6.6679223e-03
 -9.8351705e-01
 -2.5604165e-01
 -4.0349963e-01
  2.5506350e-01
 -1.8270172e-02
 -1.2737235e+00
  1.3987097e-01
 -4.0876865e-02
  5.5518083e-02
 -2.0459901e-01
 -5.1942360e-01
  2.8854057e-01
 -7.2012645e-01
  1.3656703e-01
 -2.5311595e-01
  1.1151341e+00
  1.3693592e-02
 -1.2241419e-02
 -4.2395073e-01
  6.7506206e-01
  4.9714398e-01
 -3.6460716e-01
 -6.8032444e-01
 -1.1050786e-01
 -3.4200737e-01
 -5.7922903e-02
  1.7000902e-01
  4.0765807e-01
 -3.1740898e-01
  4.7973251e-01
  8.8983588e-02
 -5.2031136e-01
 -1.1825721e-01
  2.7472126e-01
  3.0600983e-01
 -3.4340107e-01
 -2.1814793e-01
 -3.3726490e-01
 -2.1692368e-01
 -1.7567776e-01
 -1.8066046e-01
  2.2247064e-01
 -3.9432202e-02
  3.5777441e-01
  3.6263409e-01
 -4.1361299e-01
 -1.1684477e+00
 -5.3970057e-01
  5.3591337e-02
 -3.9562631e-01
 -4.0959397e-01
 -1.9074261e-02
  1.4848336e+00
  6.3599086e-01
 -1.3032110e+00
 -1.6132390e-01
  1.1611753e+00
  6.2268578e-02
 -1.6696553e-01
 -2.6915614e-02
 -2.9269809e-01
 -4.6266720e-02
  8.6630291e-01
  2.1034500e-01
 -4.9665588e-01
  2.0142892e-01
  1.0507773e-01
 -3.9776206e-01
  2.3898573e-01
 -4.2308590e-01
 -2.4532153e-01
 -1.8193065e-01
  6.0647035e-01
  2.3251802e-01
  7.8256553e-01
  7.7064133e-01
 -6.2912613e-01
 -3.2274419e-01
  7.5649433e-02
  1.2618226e+00
 -2.4025364e-02
  1.2846431e-01
  9.4813690e-02
 -5.0408787e-01
 -4.9241081e-01
 -4.3193780e-02
  1.1407436e-01
 -3.3775553e-01
 -3.4947950e-01
  3.5136366e-01
  2.0272724e-01
 -5.0837439e-01
  1.3008589e+00
  1.5215340e+00
 -1.0461792e-01
  5.4466319e-01
  2.1540866e+00
 -6.4292736e-02
 -1.6108494e+00
 -1.0095765e-01
  8.7679017e-01
  3.0744416e-01
  6.7077011e-01
 -1.8438427e+00
 -1.6070224e+00
 -2.0295776e-01
 -2.2461028e+00
 -1.3171682e-01
  5.8381949e-02
  1.0921578e-01
  7.7153899e-02
 -1.2607256e-01
  8.1260987e-02
 -3.4996545e-01
  1.5248680e-01
 -5.8229845e-02
 -8.4432328e-01
 -1.6361388e+00
 -3.1693044e-01
 -2.8758577e-01
  1.8985359e-01
 -8.8640440e-01
 -5.1554346e-01
 -2.2431583e+00
  4.0275061e-01
 -5.1646584e-01
 -2.6982066e-01
  6.4751737e-02
 -4.6108961e-01
 -3.6334491e-01
  1.2329362e-01
  8.7014365e-01
 -2.0087899e-01
  2.6916352e-01
 -1.1444945e+00
 -6.2370443e-01
 -7.5254524e-01
  6.6931897e-01
  2.1947069e-01
 -4.2466930e-01
  1.3108237e-01
 -1.4462796e-01
 -2.4868992e-01
 -4.9955457e-02
 -6.1982846e-01
  2.2408256e-01
 -2.0921740e-01
  6.0869241e-01
 -5.8503896e-01
 -6.9974673e-01
  3.5882671e-03
 -1.0395069e+00
 -9.3163192e-02
 -7.6912165e-01
  9.8154053e-02
 -1.7411117e-01
 -3.1137940e-01
 -3.3592220e-02
 -3.2696530e-01
 -3.8333185e-02
  3.9069718e-01
  2.2211081e-01
 -1.8639821e-01
 -1.5232004e-03
  4.8088580e-01
 -2.0309776e-01
  4.5395300e-01
 -3.9919221e-01
  5.1345432e-01
  6.4142168e-02
 -4.3578991e-01
  3.3496940e-01
  1.1796287e-01
  9.3991089e-01
  8.9694753e-02
 -2.6699001e-02
  1.5528683e-01
  1.9868078e-02
  3.7542319e-01
  2.3026830e-01
  1.6858973e-01
  5.8012617e-01
 -1.4488578e-02
  2.7094799e-01
  3.5733634e-01
 -7.8892285e-01
 -6.8875730e-02
  4.3503219e-01
 -5.8744036e-02
 -6.8536326e-02
 -2.3999944e-01
 -1.9049495e+00
 -6.2011540e-01
 -1.3051943e-02
  9.7083747e-02
  5.8415383e-02
  4.9205428e-01
 -4.7199169e-01
 -6.9141343e-02
 -1.3127893e-01
 -8.1428006e-02
 -8.7903939e-02
 -9.1724551e-01
  4.3271998e-01
 -4.5666784e-01
 -3.3147034e-01
 -2.8859317e-02
 -9.3409345e-02
  1.5049677e+00
 -1.9601893e-01
 -7.8425795e-01
 -2.3165090e-01
  4.3698621e-01
 -5.5136454e-01
  4.3942142e-01
  2.1950915e-01
 -4.0489739e-01
  4.3439257e-01
 -8.4839880e-02
 -3.4029655e-02
  2.9656798e-01
  8.3989635e-02
 -2.1881090e-01
 -3.6073413e+00
 -7.6115888e-01
 -2.0084612e-02
 -2.6178780e-01
 -2.8912619e-01
 -2.1295220e-01
  2.8015926e-01
 -6.7376769e-01
 -4.1761419e-01
 -5.6427228e-01
  1.8189122e-01
  1.1616620e-01
  8.0166698e-01
  4.5809600e-01
  1.3114007e-01
  1.8653919e-01
  4.9432665e-01
  5.3530687e-01
  6.0986020e-02
 -9.6260619e-01
 -7.6284635e-01
 -1.3094224e-01
  1.8212436e+00
  1.5229031e+00
  2.3793867e+00
  4.7477412e-01
  1.8843347e-01
 -9.6023983e-01
 -3.0405102e+00
 -1.2748576e+00
 -2.8765923e-01
 -1.1739682e+00
 -3.2140756e+00
  4.9569049e-01
  6.5738815e-03
  2.6612082e-02
 -6.8519145e-01
  8.6824769e-01
 -1.1289577e+00
  5.4723752e-01
 -1.1406161e+00
  9.1969800e-01
 -3.7069467e-01
  4.2392132e-01
 -6.8663102e-01
 -8.6857334e-02
  6.6013014e-01
  7.6058209e-01
 -1.2981994e-01
 -2.4043145e+00
  1.4647284e+00
 -1.0093509e+00
 -1.2624007e+00
  7.0126790e-01
  1.2796170e+00
  1.0280623e-01
  8.3944844e-03
  4.6943348e-02
 -8.3952743e-01
  8.3669345e-04
 -1.4278973e+00
  5.0842196e-01
  4.7642776e-01
  1.8775420e-01
 -4.0558386e-01
  1.2094374e+00
 -3.1304159e+00
  3.6639534e-02
  1.2720327e+00
  3.9534864e-01
 -6.1461002e-01
 -1.8989176e-02
  4.1543356e-01
 -1.3703425e+00
 -1.1048048e+00
  3.1152481e-01
 -4.2437634e+00
 -8.7717438e-01
 -3.4859172e-01
 -1.6643585e-01
 -1.1018205e+00
  1.4610285e-01
 -3.4088868e-01
 -5.1321872e-02
  8.7286234e-02
  3.8268790e-01
  1.3143034e+00
  6.7298746e-01
  2.6823413e+00
 -1.5201408e-02
  5.3250891e-01
  7.6228940e-01
 -2.9472953e-02
  1.2810798e-01
 -3.4858665e-01
 -7.5538576e-02
  2.5660354e-01
 -1.6839707e-01
  1.1476984e+00
 -6.2813193e-01
 -4.3208364e-02
  1.2037849e+00
 -2.0513095e-01
 -2.1582555e-02
 -1.3957676e+00
  7.6348811e-02
 -3.4943926e-01
 -7.4967337e-01
  4.2784402e-01
 -1.7313572e+00
  8.2621390e-01
 -4.3013513e-01
  1.2760375e-01
 -2.2186135e-01
  5.2815132e-02
  2.6074845e-01
  1.5736270e-01
  1.7684200e-01
 -6.2942106e-01
 -2.4097535e-01
 -6.0352099e-01
  3.4964103e-01
  5.7335490e-01
 -1.8904889e+00
  2.6136715e-02
 -4.0095934e-01
 -5.3782409e-01
 -4.6942353e-01
  4.7930056e-01
 -4.3529347e-01
  7.2723526e-01
 -4.2872521e-01
 -1.3300724e+00
 -7.1249300e-01
 -4.2625257e-01
 -9.4993639e-01
  6.1853606e-01
 -4.5309618e-01
 -9.1533691e-02
 -1.8222198e-01
 -4.5953450e-01
  1.9302487e-01
  2.5971371e-01
  5.7217407e-01
 -4.0957544e-02
 -2.6651746e-01
  6.4277284e-02
  3.9281900e+00
  8.6228445e-02
 -1.3436946e-01
  2.9133350e-01
 -3.3042166e+00
  5.6769168e-01
 -1.1098102e-02
  6.8453312e-01
 -2.3157921e-01
 -5.3994364e-01
 -7.9421014e-01
 -6.1789107e-01
 -2.8929165e-01
  9.5753960e-02
  1.1159535e-01
  6.7901701e-02
  4.0660191e-01
  3.8253856e-01
  1.4909975e-01
  4.9083058e-02
  4.3268126e-02
  2.1833260e-02
  6.9832634e-03
  2.2705688e-01
  2.5693223e-02
 -1.3164961e-01
 -4.1616762e-01
 -1.3367637e+00
 -9.1517717e-02
  3.2240719e-01
 -8.1760744e-03
  1.9296650e+00
  5.5495554e-01
  2.7346070e+00
 -3.9209157e-01
 -5.2963609e-01
 -7.1634215e-01
  1.5772800e+00
 -7.9705983e-01
 -5.3637952e-01
 -2.1403506e-02
  3.1363568e-01
  1.0800847e-01
 -1.7166653e-01
  6.9592372e-02
 -2.8838709e-01
 -2.6877949e-01
  2.2794006e+00
 -5.6797439e-01
 -9.5220780e-01
  5.5255920e-02
  9.9117011e-01
  6.0364074e-01
  3.2891123e+00
 -1.3853225e+00
  2.6096722e-01
  1.4849265e+00
 -4.3575895e-01
 -5.9727407e-01
 -6.5079176e-01
 -4.0984759e-01
  1.2003231e+00
 -2.7010328e-01
 -3.0769268e-01
  4.7110054e-01
 -3.0898705e-01
 -5.3472135e-02
  1.1930417e+00
 -2.5303653e-01
 -8.3812672e-01
  1.4403720e-01
 -1.5518030e+00
 -3.5157797e-01
  7.5245041e-01
 -3.9868647e-01
 -4.7393119e-01
 -2.9195994e-01
 -9.7016662e-01
  3.7883405e-02
 -9.7048742e-01
  2.5730399e-02
  1.8125762e-01
  6.5798752e-02
 -2.4521151e-01
  6.4386785e-01
  5.2846658e-01
 -2.4763787e-01
  3.0006829e-01
 -2.1705516e-01
 -6.4656988e-02
  2.2051847e-01
  7.5097412e-02
  4.8531753e-01
 -4.9282515e-01
  1.3165021e+00
  7.5919256e-02
 -2.9638153e-01
 -1.1779210e-01
  4.7156401e-03
 -1.0870653e-01
 -1.0889417e-01
  8.3997119e-03
 -7.1207797e-03
 -1.5172074e+00
  4.0878651e-01
  3.0493096e-02
  7.0255585e-02
 -2.1937931e-01
  6.9795209e-01
 -2.3336594e-01
 -1.9318782e+00
  5.2293502e-03
  3.7152231e-01
 -1.0764771e+00
 -5.1448122e-04
 -6.8370575e-01
 -5.6125104e-01
 -1.0901457e-02
 -8.3624923e-01
  1.8334720e-01
  9.7460115e-01
  4.7389483e-01
 -1.2539348e-01
  4.3567456e-02
 -6.4754939e-01
  2.6555368e-01
  5.6102192e-01
 -1.2354437e-01
  3.9925799e-05
 -3.0680954e-01
 -1.2951793e-01
  4.5046344e-01
 -1.1642690e-01
  4.2498145e-01
  3.2778305e-01
  2.3865232e-01
  3.2449982e-01
 -1.1773324e-01
  9.9432504e-01
  1.5252801e+00
 -5.3535563e-01
  8.5792518e-01
  7.3679559e-02
 -2.6366206e-02
 -9.9613446e-01
  1.0049949e+00
 -4.1162238e-02
 -9.0018831e-02
 -4.4996271e-01
  1.9010618e-01
  5.4822154e-02
  5.8266896e-01
 -2.2318392e-01
  6.3692641e-01
 -4.6197608e-01
 -5.5775130e-01
  9.0179342e-01
  3.0148521e-01
  1.2543000e-02
 -3.4943587e-01
  2.7349198e-02
  8.9022821e-01
 -1.5268688e-01
  4.6580699e-01
 -9.3144448e-03
  2.7751651e-01
 -2.7520961e-01
  6.0303986e-01
 -2.1937276e-01
  2.3115100e-01
  2.0468184e-01
 -5.0033774e-02
  1.9513914e-02
  1.0780817e-01
  2.1609923e-01
 -4.9264103e-01
  3.8455546e-01
  7.0735831e-03
  1.9155630e-01
 -2.1795841e-01
  2.2977790e-01
 -6.6022590e-02
  2.7800467e+00
  4.8000365e-02
 -1.8019927e-01
  4.5007947e-01
 -4.4458213e-01
 -1.4641134e-01
 -6.4468604e-01
  2.2078007e-01
  2.4885187e-01
 -4.0558338e-01
 -8.5860878e-02
  2.8097677e-01
 -6.0727572e-01
 -3.4462318e-01
 -4.3803820e-01
 -6.3528645e-01
 -1.8613614e-01
  1.4185916e-01
  3.3575723e-01
 -1.2413007e-01
 -7.4208987e-01
  5.4138768e-01
 -5.2539539e-01
 -9.1835260e-02
 -1.4932876e+00
  4.5534819e-01
  2.3600109e-02
  6.2232595e-02
  1.6164069e-01
 -1.1451082e+00
 -3.7772045e-01
 -6.3610208e-01
 -3.1111065e-01
 -6.4537358e-01
 -4.5843408e-02
 -1.6526939e-01
  8.6683333e-02
  3.0660313e-01
 -5.5530679e-01
 -3.1438270e-01
  1.5208349e+00
 -9.0834916e-02
  9.9785274e-01
  9.0048611e-01
  1.9166091e-01
  1.1024129e+00
  4.7843162e-02
 -1.4571154e+00
 -2.0208354e+00
 -9.2830980e-01
  1.1273015e+00
 -9.3315798e-01
 -3.8280761e-01
 -1.1032561e+00
 -2.6417673e-01
  5.7128954e-01
  5.4693788e-01
 -9.7827330e-02
  9.1080427e-01
 -2.8882003e-01
 -5.0623691e-01
 -2.6286456e-01
 -1.1884773e+00
  1.4603779e-01
  2.2885898e-01
  9.0810871e-03
  1.3368268e-01
  3.0606055e-01
 -1.8446621e-01
 -3.7050843e-02
  6.9241077e-01
 -3.7442845e-01
  3.0289404e-02
  4.3839568e-01
  1.6519328e+00
  5.1798600e-01
 -2.2082703e-01
 -1.6986120e-01
 -6.2500232e-01
 -1.1061890e-01
  1.4447895e-01
  8.9324005e-02
  1.5092885e-01
 -1.8373765e-02
 -1.3302565e+00
 -1.0149152e+00
 -7.8500187e-01
 -1.8854697e-01
  1.0968678e+00
 -1.0186379e+00
 -7.8028417e-01
  1.5771431e+00
  4.7537979e-01
  2.4455766e-01
 -7.1369612e-01
  9.5771188e-01
  1.4557383e+00
 -1.3815963e-01
  7.7403474e-01
  1.5797250e+00
  1.3386304e+00
 -7.4251604e-01
  1.6191968e-01
  1.0746388e+00
 -9.0557337e-03
 -3.1182528e-01
 -4.4842118e-01
  7.1862385e-02
 -1.6315829e+00
  2.4690983e+00
  1.0756146e+00
 -4.5982385e-01
 -8.0934456e-03
  4.9417508e-01
 -7.4197590e-01
  1.5264325e+00
 -7.5335842e-01
  1.7549217e-01
 -1.0457989e+00
 -1.3987971e-03
  1.7306274e+00
 -2.8469247e-01
  8.3423853e-02
  2.8625587e-01
 -1.1735459e-01
 -4.4848433e-01
  6.8022269e-01
  1.8533709e+00
  1.5776643e-03
  5.7707749e-02
  2.4189644e+00
 -4.0465879e-01
 -6.6555774e-01
 -9.5441766e-02
  4.2279494e-01
 -5.5416685e-01
  1.0648085e+00
 -1.4402255e-01
  5.1698339e-01
  3.8245225e-01
 -7.8788513e-01
 -3.2555145e-01
  9.7064149e-01
 -5.6186450e-01
 -1.4566043e-01
 -1.1923468e+00
  9.1320640e-01
  3.5880482e-01
  6.1472189e-01
 -1.1261664e-01
  8.2644291e-02
  3.0358726e-01
  5.0034788e-02
 -1.4047566e-01
  2.4083337e-01
 -3.3689287e-01
 -1.0278765e+00
 -3.7957889e-01
 -6.2147126e-02
 -7.8036243e-01
 -3.2812613e-01
  8.1066459e-01
  1.0708766e+00
 -3.0340829e-01
  1.1430212e-01
 -2.4012101e+00
  1.1388952e-01
  4.0784605e-02
  7.6184434e-01
  2.2847983e-01
 -9.0420115e-01
 -8.2954913e-02
 -3.5056719e-01
  8.4032696e-01
  1.6163050e-01
 -7.0252232e-02
  7.0143366e-01
  1.7241292e-01
  4.5274705e-01
  1.1332784e-01
 -6.6535152e-02
 -1.1986844e-02
 -3.6536807e-01
  3.9185971e-01
  4.9504635e-01
 -1.5869205e-01
  1.2480432e-01
  1.1592995e+00
 -5.5889779e-01
  1.0886268e-01
  8.6869138e-01
 -1.0971316e+00
  1.1040011e-01
  3.7438121e-01
  3.1271201e-01
  2.3938623e-01
 -2.7544299e-01
 -5.3204007e-02
 -1.3407134e-01
 -5.1416725e-02
  3.7042287e-01
  2.9250890e-01
  6.7854595e-01
 -9.0155661e-01
  4.5367390e-02
  2.9207972e-01
 -3.2251008e-02
 -1.5082835e-01
  1.6553223e-02
  2.6188719e-01
 -3.4889679e-02
  6.5281433e-01
 -9.6961850e-01
  5.2586317e-01
  6.0708035e-02
 -2.2440812e-01
 -7.8570533e-01
 -5.0850522e-02
  9.6887946e-02
  9.3802053e-01
  8.1394190e-01
  3.2343775e-02
 -1.2833545e-01
 -2.9936260e-01
 -1.1234106e+00
  2.3460530e-01
 -7.8583646e-01
 -1.3288198e-02
  8.7680405e-01
  1.4416444e-01
 -7.4570292e-01
 -1.0667388e+00
  1.1232162e-01
 -2.4045432e-01
 -1.3218704e-01
  5.3375870e-01
  1.4924584e-01
  1.0370600e+00
  3.8075194e-01
  2.3131460e-01
  1.6745394e-01
 -8.3316994e-01
 -8.2596058e-01
 -2.7594235e-02
  8.3045989e-01
 -1.7860039e-01
 -5.4507971e-02
 -6.9544828e-01
 -3.5001051e-02
  2.5502408e-01
 -4.0493929e-01
 -2.8543649e+00
 -1.2255488e-01
 -5.8694983e-01
 -1.8668869e-01
  3.3358134e-02
 -5.2878922e-01
 -1.8235192e-01
 -1.3426962e-01
  5.5637009e-02
  1.2827437e+00
  1.0793504e+00
 -1.7934054e+00
 -1.0321096e+00
  7.7677345e-01
  2.2246439e+00
  3.5608217e-01
 -2.5136784e-01
  6.7765749e-01
  5.1749349e-01
  2.9388595e+00
  2.3989463e-01
 -1.0209763e+00
  1.8379989e+00
 -5.9507889e-01
 -7.7060843e-01
 -1.1463281e+00
 -4.9031442e-01
  1.4020321e+00
 -8.9415181e-01
  8.9471877e-01
  2.4577852e-01
 -2.7435055e-01
 -2.4244316e-01
  1.2493579e+00
 -1.4754550e+00
 -2.8105086e-01
  4.1504550e+00
 -9.3055505e-01
  1.1770457e+00
  1.4487009e-01
 -3.4204754e-01
 -9.0977633e-01
 -6.7212641e-02
  1.0146452e+00
  5.4838389e-01
 -2.8241789e-01
 -5.3101722e-02
  6.5682501e-02
 -1.5727651e-01
 -6.6303924e-02
  8.4238458e-01
  1.1754708e-01
  2.2083361e-02
  1.8487206e-01
  2.8924206e-01
  3.6581311e-01
 -8.0786747e-01
  7.1108902e-01
  3.1060684e-01
 -9.3513563e-02
 -3.6220479e-01
  3.9874890e-01
  3.2801546e-02
  6.1154169e-01
 -2.7354607e-01
 -4.1100043e-01
  7.6921314e-02
 -6.4639211e-02
  4.6870822e-01
  2.0190038e-01
  6.3643956e-01
 -9.0451375e-02
 -3.5348159e-01
 -6.4758144e-02
  5.6079987e-02
  2.8780848e-04
  5.9452099e-01
 -3.8947530e-02
 -9.6924877e-01
 -2.0117436e-01
  3.8875908e-01
 -1.3862596e-01
  3.6018980e-01
 -2.3538251e-01
 -1.0921820e+00
  1.2420490e+00
  5.1749343e-01
 -7.6848306e-02
  3.3606570e+00
 -6.5501869e-01
  4.8032295e-02
  6.0711145e-01
 -1.1079060e-01
  3.7231535e-01
  1.2484328e-01
  7.4806833e-01
 -2.2655006e-01
  3.1231433e-01
 -4.1631791e-01
  7.1802596e-03
 -6.9212705e-01
 -8.4117168e-01
 -2.5309479e-01
  1.4668255e-01
 -4.0897968e-01
  2.1558321e-01
 -1.5401158e-01
 -1.2690544e-01
 -6.2761629e-01
 -2.8416196e-01
 -2.4782427e-01
 -7.1895830e-02
 -3.7112120e-01
 -1.6847704e-01
 -2.6708487e-01
  6.3624620e-02
 -5.3315318e-01
  1.9129267e-01
  1.1743143e-01
 -9.0826876e-02
 -9.0800691e-01
  5.4726982e-01
 -3.4116201e+00
 -5.1112548e-02
 -5.6992757e-01
  3.7115359e-01
  5.3328001e-01
  2.1997741e-01
  1.0603358e-01
 -3.4454435e-02
  3.3838454e-01
  2.6812699e-01
  3.6129642e-01
  2.3116343e+00
  7.4208945e-02
 -1.7646107e-01
  1.0159528e+00
 -2.0736307e-01
  6.7201090e-01
 -5.6151104e-01
  5.7338737e-02
 -7.3682137e-02
  1.3048769e-02
  2.4579047e-01
 -1.3122597e-01
  1.8527945e+00
 -3.2067123e-01
  2.7827638e-01
 -2.6464185e-01
  5.8241618e-01
 -6.9278330e-01
 -2.7832910e-01
 -4.9872506e-01
  7.4071872e-01
 -7.9030335e-01
 -8.3069760e-01
 -1.0417889e-01
  4.1685718e-01
 -1.2459022e-01
  3.5308823e-01
  1.1805172e-01
 -4.1112724e-01
 -5.5958289e-01
 -1.5875670e-01
  4.5363584e-01
  2.0094751e-01
 -6.8104476e-01
 -5.5642430e-02
 -3.9309222e-01
 -8.8230208e-02
  2.1758559e+00
 -4.4467518e-01
 -3.0234623e-01
  1.6490042e-01
 -8.6427742e-01
  5.7463390e-01
 -5.1724654e-02
  2.8824875e-01
 -9.3157597e-02
 -4.6477714e-01
  2.2853512e-01
  1.3442501e-01
  5.4021560e-02
  6.8321347e-02
  6.0342735e-01
  6.7407548e-02
 -4.5491338e-01
 -6.1978978e-01
 -7.6617010e-02
 -2.6346083e+00
  4.3591507e-02
 -3.9258355e-01
  5.5518651e-01
  4.9278021e-01
  7.6235011e-02
 -1.2456663e-02
  5.6816787e-02
  2.4261430e-01
 -7.9332495e-01
 -4.3335840e-01
  7.4366882e-02
  7.5970453e-01
 -1.6748633e-02
 -2.5573108e-02
 -1.5282869e-01
 -3.1838220e-01
 -3.8319558e-02
  1.2536956e+00
 -2.5515792e-01
  1.4835115e-01
  1.0866345e-01
 -2.2825775e-01
  2.0623961e-01
  5.2370816e-01
 -1.4592190e-01
  6.1536491e-01
 -1.0859568e-01
 -4.4311959e-01
  5.2602589e-02
  1.6783506e-02
  9.4626985e-02
 -3.3327091e+00
 -3.2229066e-01
  2.0689207e-01
 -1.1235057e-01
 -2.7591214e-03
  8.1800383e-01
  9.2226750e-01
  2.1348126e-01
  2.0232265e+00
  1.4957246e+00
 -6.2046182e-01
 -2.9102272e-01
 -1.4054716e-01
  6.0850978e-01
  2.4976966e+00
 -2.0765228e+00
  1.3855463e+00
 -6.8197072e-01
 -7.7381313e-02
  4.9319085e-01
  3.3165461e-01
  8.5345181e-03
  9.7665474e-02
  9.0049379e-02
  5.7099503e-01
 -4.3539759e-03
 -2.1178019e-01
 -1.5040106e-01
 -5.0900720e-02
 -2.6371771e-01
  4.2222655e-01
 -8.5200422e-02
 -9.7249426e-02
 -3.5548443e-01
 -2.2323769e-01
  9.0795720e-01
 -5.4515976e-01
 -1.0891058e-01
 -1.3257906e-01
  1.3519649e-01
  6.1546510e-01
 -3.9607137e-01
 -4.3306434e-01
  1.2714928e+00
  1.5244278e-01
 -1.6767964e-01
  4.1322815e-01
  2.6548624e-01
 -3.2437021e-01
 -1.0930747e-04
  9.6296519e-02
 -2.7346787e-01
  7.6232898e-01
 -3.1456679e-01
 -1.0257611e+00
  1.1825454e-01
 -1.3200378e+00
 -1.5063450e-01
 -2.4898221e-01
 -3.9504665e-01
 -8.2418770e-03
 -4.2035174e-01
  4.0112835e-01
 -4.5368481e-01
  3.9184338e-01
 -3.1139299e-01
  1.3869911e-01
 -9.5720768e-02
 -3.9001268e-01
  5.7751489e-01
  2.5040060e-01
 -6.3416757e-02
 -4.0838268e-01
 -5.7052052e-01
 -1.7026426e-02
 -7.5321877e-01
  1.3433406e-01
 -9.5275015e-02
  4.0204033e-02
 -2.4445626e-01
 -5.8707222e-04
  9.3253426e-02
 -4.9298942e-01
 -4.0069945e-02
 -6.2670015e-02
  8.0234593e-01
 -3.4571660e-01
  1.3992460e-01
 -2.7054965e-01
  3.6008172e-02
 -1.9722441e-01
  2.2079265e-01
  8.3854961e-01
 -5.0589257e-01
 -6.5677412e-02
 -8.3942585e-02
 -2.6266792e-01
 -5.0482627e-02
  5.6968611e-01
  3.5815465e-01
  4.8372483e-01
 -3.7257472e-01
  5.7432102e-04
 -4.7533220e-01
  1.4228490e-01
  1.3286110e+00
  2.1312661e-02
  7.0692819e-01
  3.7741530e-01
  6.6408014e-01
  2.2210576e-01
  1.5869615e+00
  8.0645412e-02
 -1.4005159e-01
  1.5222777e+00
  4.3312699e-01
  9.5366585e-01
 -2.9099948e+00
 -2.3377317e-01
 -7.0550747e-02
 -2.2233600e-02
  1.6476509e-01
  3.4675351e-01
  5.2766895e-01
  1.3369638e-01
  1.9289085e-01
  3.6174092e-02
  5.1766652e-01
  5.5062526e-01
 -6.5913290e-02
 -1.3013980e-01
  3.1497887e-01
 -2.8322339e-01
  2.4706993e-02
 -6.3751674e-01
  1.2975868e+00
  3.4594822e-01
 -4.0910214e-02
  6.3466507e-01
  8.0902988e-01
  1.3430560e-01
  3.7200432e-02
  9.6211985e-02
  1.4392504e-01
  4.3352766e+00
  4.5303273e-01
 -1.0989937e-01
 -1.4185113e-01
  4.2025703e-01
 -3.9008427e-01
 -6.1298817e-02
 -1.4339705e-01
  4.8221028e-01
  9.6402603e-01
 -1.9272527e-01
 -2.7001411e-01
 -1.0399231e+00
  8.4649257e-02
  4.3246627e-02
  2.9290089e-01
  2.8579575e-01
 -1.1757520e+00
 -4.3026233e-01
 -4.5751682e-01
  2.5786765e-02
 -3.6092088e-01
 -3.6767244e-01
 -2.2502747e-01
  6.6246039e-01
 -6.6195756e-02
 -3.5273112e-02
  1.0416834e+00
 -1.9325970e-01
  1.3586189e-01
  9.8307975e-02
 -3.2677391e-01
 -5.3535312e-01
  2.4463788e-01
 -5.8812991e-02
  1.7761865e-01
 -1.9731955e-01
  6.1224263e-02
  2.0455303e-02
 -4.3616781e-01
  3.5622278e-01
  8.2572728e-01
  1.3233894e+00
 -2.2895262e-01
  8.4535137e-02
 -6.7974910e-02
  4.2259514e-02
  5.0018173e-01
  3.6598524e-01
  1.3254226e+00
  5.5219010e-02
  9.7884113e-01
  2.5092328e-01
  2.7268320e-01
 -2.3549446e-01
  7.0037432e-02
 -4.3073100e-01
  4.0420058e-01
 -4.5406318e-01
 -4.1107607e-01
 -3.5107532e-01
  2.2172987e-01
  4.2056462e-01
  2.1781816e+00
  1.5127328e-01
 -3.3147305e-02
 -2.3895662e-01
 -3.2529607e-04
  2.1527293e-01
 -2.4893966e-01
  7.6831347e-01
  2.1083596e-01
 -7.0397025e-01
 -4.7820799e-02
  7.8612638e-01
 -1.9440058e-01
 -2.2648754e-02
 -2.9814261e-01
 -2.7091721e-01
  2.9201132e-01
  1.0188279e-01
  5.0722367e-01
 -5.6512777e-02
  6.9189256e-01
 -4.0610589e-02
  1.5316182e-01
 -5.2322203e-01
  2.2203168e-01
 -1.7302681e+00
 -1.4089668e-01
 -2.5699326e-01
  2.9028779e-01
 -1.2015135e+00
  2.8300755e+00
  4.3742932e-02
  1.7725205e-01
 -4.3435931e-01
 -4.1538966e-01
 -4.3674531e+00
  3.2959956e-01
  2.6951447e-01
  3.8986176e-01
 -1.1978098e+00
  6.2555432e-02
 -4.9034435e-02
 -2.4877518e-02
  6.2962329e-01
 -2.7449414e-02
  1.4743698e-01
 -1.3515173e-01
 -9.4278520e-01
  4.0727928e-01
  5.1887292e-01
 -1.3063817e-01
  1.1228291e+00
  1.0955530e-01
 -9.6062255e-01
 -1.0121088e-02
 -9.5029658e-01
  1.5255922e-02
 -7.8013283e-01
 -8.5725136e-02
 -3.3891875e-01
 -3.3685613e-01
 -6.7542911e-01
  3.1275988e-02
  3.0494916e-01
 -2.0760854e-01
 -2.6638287e-01
  5.7350695e-01
  1.5972205e-01
 -2.3372076e-01
  1.6181190e+00
 -6.9618216e-03
 -2.4381007e-01
 -2.3226388e-01
 -3.3153526e-02
 -1.5596910e+00
 -4.9685815e-01
  5.0323766e-01
  1.1186905e-01
 -2.3400684e-01
 -1.5201786e-01
 -5.0665826e-01
 -1.4163008e-01
  4.5751131e-01
  8.5402620e-01
  8.4904122e-01
 -2.7583346e-02
 -2.5641292e-01
 -3.8037136e-02
 -2.5256367e-02
  8.1352919e-02
 -2.8102136e-01
 -2.2425780e-01
  1.1580488e-01
 -4.2268902e-02
  2.6000732e-01
 -2.8541973e-01
  1.4181578e+00
 -1.3128045e-01
 -4.5137638e-01
  1.9007824e-01
 -8.5707217e-02
  1.6283342e-01
 -2.4714425e-01
 -3.8514280e-01
 -3.3020660e-02
 -7.4059093e-01
 -1.0067193e-01
 -1.1907923e+00
 -7.0842080e-02
 -7.8617208e-02
 -5.9864652e-01
 -4.4463303e-02
 -1.1238445e-01
 -6.9315863e-01
 -2.9285312e-01
  3.0276370e-01
  4.5351136e-01
 -6.9032305e-01
  3.9547738e-01
 -4.3028748e-01
 -1.4293427e+00
  3.0608606e-01
 -6.0687196e-01
  1.5175720e-01
 -2.9716238e-01
  4.7065824e-01
 -4.0711662e-01
 -2.8470254e-01
  1.2696818e-01
 -7.4229074e-01
 -2.7061808e-01
 -1.6348113e-01
 -6.3801348e-02
 -8.2294844e-02
  4.4326821e-01
  3.3255413e-01
 -4.5352492e-01
 -1.3402063e-01
  6.2089097e-01
  7.4560173e-02
  5.4424310e-01
  2.3301432e-01
 -4.5536458e-01
  1.3366982e-01
 -9.5953703e-01
 -4.8924828e-01
 -1.9820061e-01
 -5.3077459e-01
 -3.7663743e-01
  8.7668478e-02
  1.3232766e-01
  6.1183804e-01
 -4.4868490e-01
  7.6524973e-02
 -4.7231454e-01
 -5.3948021e-01
 -7.7898878e-01
  7.7497751e-02
  1.3306160e-02
  3.4893531e-01
  1.7459668e+00
 -3.4280804e-01
  5.5769873e-01
  1.0895665e+00
 -3.5289746e-02
  6.1680150e-01
 -8.7585352e-02
  2.9594564e-01
  6.6890752e-01
 -3.1060576e-01
 -8.7729776e-01
 -3.4129884e-02
  3.0885234e-02
  1.9600715e-01
 -4.8221266e-01
 -3.3046581e-02
  5.4372158e-03
  9.6551311e-01
  2.9309258e-02
 -4.5032513e-01
 -1.7315380e-02
  2.6407704e-01
 -1.6755644e+00
  4.1730988e-01
  5.6171089e-02
 -1.3686208e+00
  6.1482871e-01
  5.9609026e-01
  1.6003881e-01
 -9.5795631e-01
  6.0753364e-02
  1.3019749e+00
  7.2535086e-01
  1.0329385e+00
  1.9163817e-01
  1.9161685e+00
 -2.3830922e-01
  9.5718443e-02
 -4.3020290e-01
 -7.2419715e-01
  4.3650088e-01
 -1.4798313e-02
  4.5789137e-01
  3.8174838e-01
  4.4033963e-02
 -6.7612320e-01
 -1.5611197e-01
  3.0238444e-01
 -2.1432625e-01
  5.1434124e-01
 -2.8571910e-01
 -3.4781298e-01
 -4.6190143e-01
  2.9773170e-01
 -2.1902995e-01
  5.8788294e-01
 -1.3208559e-01
  2.5174376e-01
  3.8258761e-01
  1.4204467e-03
 -1.2413491e-02
 -3.9567387e-01
 -2.0453801e+00
  1.5152501e-01
 -7.6553702e-02
  8.9714557e-01
 -2.9843283e-01
 -2.8854355e-01
 -2.8371137e-01
  1.8390793e-01
 -4.2291090e-01
 -1.4973688e+00
 -3.9925873e-01
  7.3923624e-01
  7.1330518e-03
 -3.4059888e-01
  8.7607300e-01
 -6.8517840e-01
 -6.7250341e-02
 -1.1068037e-01
 -3.6019525e-01
  8.1046033e-01
 -3.1072253e-01
 -6.5180582e-01
  1.2051211e-01
 -7.3696560e-01
  1.4141147e+00
  2.9166412e-01
  2.1969086e-01
  5.1719898e-01
 -1.7169912e-01
 -7.4161418e-02
  3.0666378e-01
 -2.6016957e-01
 -2.3336340e-01
 -2.1932803e-01
 -2.9829195e-01
 -3.6653638e-01
  2.0670694e-01
  5.3345874e-02
 -4.1059509e-01
  1.0363139e-01
 -9.4772592e-02
  8.3742088e-01
 -8.0592847e-01
  1.1727598e-01
 -7.8329213e-02
  2.3567940e-01
  3.2891220e-01
 -7.8730065e-01
  5.3382689e-01
  1.4598259e-01
  1.8135719e-01
 -9.2376143e-02
  4.5558941e-01
 -2.8691655e-01
  7.0942140e-01
 -2.6518655e-01
  4.0239692e-01
  5.1591665e-01
  1.6423662e-01
 -5.0364894e-01
 -6.4374596e-02
 -4.0222135e-01
 -6.8982214e-01
  5.5932361e-01
  3.5335064e-01
  9.8331404e-01
 -3.0004111e-01
  1.5676488e+00
  2.7651712e-01
 -3.3625942e-01
  4.2749465e-01
 -2.2294125e-02
 -8.1127830e-02
 -1.6116324e-01
 -3.4224436e-01
 -4.7708295e-02
 -3.6044970e-01
 -3.2007456e-01
 -6.9600409e-01
 -3.4157687e-01
 -8.9915201e-02
  5.9646475e-01
  2.6600292e-01
 -8.7554735e-01
  3.9700392e-01
 -1.6584556e-01
  2.0493467e-01
 -2.0973715e-01
 -6.6617653e-02
  3.3761389e+00
  3.4237546e-01
 -2.6796645e-01
  2.7096999e-01
  1.0950404e+00
  3.6658674e-01
 -1.6715798e-01
 -2.0952006e-01
 -5.6348330e-01
 -7.1650058e-02
  4.3957162e-01
  6.2958807e-01
  3.8099936e-01
  7.0171505e-02
  6.4821437e-02
  7.8279454e-01
 -1.3020329e-01
  8.8710211e-02
 -3.6714610e-01
 -1.2877148e-01
 -4.4093230e-01
  1.4294821e+00
 -3.9488333e-01
 -7.5226384e-01
 -9.4040269e-01
 -1.0413340e+00
 -1.1582205e+00
 -1.2296172e-02
  7.6650065e-01
 -2.5270030e-01
  1.3048308e-01
 -5.8871806e-01
  9.4561857e-01
 -3.9748040e-01
 -1.1577342e-01
 -9.3353257e-02
  6.2435019e-01
 -5.6333053e-01
 -6.1333221e-01
  1.9255708e+00
 -4.3533278e-01
  5.1543795e-02
  7.6402314e-02
  1.0137300e-01
 -1.3456947e-01
  2.6542419e-01
 -3.2288080e-01
 -1.2742507e-01
 -3.0760750e-02
 -1.1155824e-01
 -2.7771202e-01
 -1.1800032e-02
  1.2234418e+00
  6.3209647e-01
  2.9793775e-01
 -2.4754258e-01
  2.7595302e-01
  3.3067590e-01
  1.2726997e-01
  7.7325708e-01
 -6.6621000e-01
 -3.1541688e+00
 -1.4417259e+00
 -5.7680094e-01
 -9.9612218e-01
 -2.8308942e+00
 -1.0967083e-01
 -2.1515329e-01
  1.9591475e+00
  1.7340599e+00
  1.9877568e+00
 -2.4417943e-01
 -4.2353338e-01
  8.6924911e-01
  5.1066577e-01
  2.7439094e-01
  6.7391104e-01
  3.6282879e-01
  1.4500285e+00
 -1.8260004e-02
  3.0476776e-01
 -1.3911300e+00
  8.7327570e-01
  5.7560688e-01
 -9.8056877e-03
  2.9091489e+00
  1.3011250e-01
  3.3078532e+00
  1.1704767e+00
 -5.4327365e-02
  8.5058373e-01
 -3.8475943e-01
  1.3214003e-01
 -4.6787435e-01
 -2.9436275e-02
 -8.7566358e-01
 -2.1841507e-01
 -3.0693269e-01
 -1.2587968e-01
 -4.3987140e-01
  5.0727732e-02
  1.2719513e-01
  4.9046421e-01
 -3.6563614e-01
 -2.8212175e-01
 -2.1640456e-01
  1.7229971e-02
 -3.4257528e-01
 -2.0120120e+00
 -9.5700130e-02
 -1.9337326e-01
 -4.2460269e-01
 -5.8307302e-01
 -2.4610739e-02
 -7.8690964e-01
  8.4056966e-02
 -2.3116097e-01
 -2.9785546e-02
 -1.5141699e-01
 -2.1675107e+00
 -4.8761010e-02
  9.8771855e-02
  5.8023983e-01
 -3.7430811e-01
 -1.4646731e-01
  2.7660826e-01
 -7.3171955e-01
  2.0988856e-01
  8.7648161e-02
 -5.6453282e-01
 -4.5694831e-01
 -8.0604428e-01
 -2.1299703e-01
 -2.9127767e-02
 -1.0093396e-01
 -2.0271261e-01
 -9.8144926e-02
  9.6238852e-02
  4.8177931e-01
 -6.7394590e-01
 -7.4149482e-02
 -5.1279515e-01
 -2.0174775e-01
  2.2760582e-01
  6.2761110e-01
 -8.9208037e-03
 -4.1052911e-01
  5.8521628e-01
 -2.8982288e-01
 -5.6895703e-02
 -3.3260051e-02
  1.2412581e+00
  1.0634933e+00
 -3.9530343e-01
  5.8351672e-01
  3.1717688e-01
  1.7636752e-01
 -3.8224769e-01
  5.3472835e-01
  3.9781529e-01
 -5.8040869e-01
 -1.6875879e+00
  6.6786692e-02
  5.2730238e-01
  8.1927389e-02
  5.3642732e-01
 -5.4540199e-01
  7.0799690e-01
 -3.9834151e-01
  7.5164562e-01
  1.3461643e+00
 -5.0043952e-01
  7.2366506e-01
 -2.1311794e-01
 -2.3449896e-01
 -2.0517150e-01
 -2.7544698e-01
 -3.4230503e-01
  4.5091584e-01
 -8.8225618e-02
  6.2531292e-01
 -2.9333106e-01
 -6.0263753e-02
  4.1466042e-01
  6.4388883e-01
 -8.2292807e-01
 -4.6184200e-01
  3.6983401e-02
  1.1268823e+00
 -4.9116611e-02
  1.1465016e-01
 -5.4876804e-01
 -1.0354205e-02
 -1.3376553e-01
 -8.8522631e-01
  9.5235074e-01
  1.1692537e+00
  2.7540773e-01
  4.4737045e-02
 -3.9884362e-01
  2.6391321e-01
 -1.6544595e-01
 -3.0617654e-02
 -7.1217048e-01
 -1.2497075e-01
 -1.2615095e-01
  2.7444196e-01
 -3.9313161e-01
  4.0178040e-01
 -2.3478396e-02
  4.9382485e-02
  6.3734555e-01
 -3.1070971e-01
  2.2676735e-01
  3.5811119e-02
 -2.4445610e-01
 -4.1486017e-02
 -3.0151007e-01
  1.3120376e-01
  1.9504382e-01
 -2.5437297e-02
 -3.9318082e-01
  1.0993690e-01
 -9.3334615e-02
  8.2242966e-02
 -1.3027322e-01
  3.1070176e-01
 -4.6247023e-01
 -3.8885288e-02
  7.4245200e-02
 -2.1849497e-01
  1.2488071e+00
  4.7361918e-02
 -1.1096195e+00
  1.1376226e-01
  1.3218102e-01
  1.7667136e-01
  4.0253317e-01
 -1.0694034e+00
 -9.6247876e-01
  1.1989295e-01
  7.3450498e-02
  2.0496759e-01
 -4.5058402e-01
  7.3878258e-01
  8.8967040e-02
  9.0234643e-01
  3.0747205e-01
  5.1166087e-01
 -2.8353137e-01
 -7.2969519e-02
 -5.2944529e-01
  1.8921193e-01
 -1.6247700e+00
  8.1549007e-01
  2.3856619e-03
 -1.2923832e-01
  6.7927539e-03
 -3.4952950e-02
  5.8054662e-01
  1.2451018e-01
  7.7239430e-01
 -1.5489747e-01
 -1.4733455e-01
  8.8530457e-01
 -7.7369824e-02
 -2.7097347e-01
 -5.9363866e-01
 -2.3981588e-02
  5.5462188e-01
 -7.7599651e-01
 -1.5613280e-01
  2.4854088e-01
  7.8236628e-01
 -1.8941627e-01
 -9.1019340e-02
  1.1674261e-01
  1.1570315e-01
  3.9881831e-01
  3.5737807e-01
 -1.3715483e+00
  3.4169476e-02
 -1.9820575e-02
  3.4221095e-01
  5.3161681e-01
 -8.6469099e-02
  2.5839379e+00
 -3.0248556e-01
 -2.4903567e-01
 -8.7925571e-01
  1.2153596e+00
  4.8718685e-01
  4.1305754e-01
 -9.4559425e-01
 -3.0088231e-01
 -3.1354401e-02
  9.9631912e-01
  4.5266190e-01
 -2.7535629e-02
 -2.6771629e-01
 -1.0355725e-01
 -1.5434675e-01
  3.6617547e-02
 -1.1878157e+00
  6.8874285e-02
 -2.1124247e-02
  4.5589513e-01
 -2.1388531e-02
  2.7620012e-01
  4.3840995e-01
 -3.6265445e-01
 -6.2569872e-02
  2.9104488e-02
 -1.6878057e-01
 -2.6022926e-01
  3.1210101e-01
 -3.8005751e-01
 -3.5414317e-01
  1.7928496e-02
  2.6005507e-01
  7.5091648e-01
 -1.6054894e-01
  8.0256812e-02
  1.5318647e-02
 -1.6064078e-01
 -4.1230005e-01
  1.3970258e+00
  1.9320194e+00
  5.9239000e-01
  2.1752040e+00
 -8.1174576e-01
  2.5374037e-01
 -4.3022430e-01
 -8.4148449e-01
 -2.4865384e-01
 -5.6525445e-01
 -3.1989135e-02
 -1.4158165e-02
 -3.3456054e-01
 -6.7129844e-01
 -1.4060783e-01
 -2.8991309e-01
  3.3540845e-01
 -9.8359421e-02
  4.3926325e-01
 -2.6430401e-01
  8.4854442e-01
 -4.8959509e-01
  2.7006343e-01
  2.2842646e-02
  8.4426010e-01
 -2.9834574e-01
 -7.1532911e-01
 -1.1964983e-01
  1.1205709e-01
  6.3001537e-01
  2.8179389e-01
 -5.7637995e-01
 -2.3203611e+00
  5.8349837e-02
  7.7081364e-01
  1.1486674e-02
 -4.1344640e-01
 -4.3963683e-01
  1.1346190e-01
  2.5585166e-01
  6.0332632e-01
 -3.4828478e-01
  5.1430601e-01
  2.6364589e-01
  8.8951135e-01
  2.5270224e-01
  3.6197874e-01
 -3.8997993e-01
 -1.0836927e+00
  3.6902824e-01
  3.5468557e-01
 -5.5893743e-01
 -2.9667082e-01
 -7.1690291e-01
  8.6534142e-02
 -1.7888004e-01
 -1.0561536e-01
 -4.3809360e-01
  1.1566116e-01
  4.5468441e-01
 -9.7038627e-02
  1.5353827e-01
  9.2297727e-01
 -2.3976003e-01
  6.2071705e-01
 -1.0062218e+00
  1.4402902e-01
 -6.8525726e-01
 -5.0184464e-01
 -4.5305833e-01
  1.5103890e-01
  4.7650096e-01
 -3.6617559e-01
 -3.6122733e-01
 -2.5040337e-01
 -4.9809381e-02
 -3.0338413e-01
 -2.7168202e-01
 -1.3602851e-02
 -3.0589652e-01
 -2.8344271e-01
 -5.6636035e-01
  5.9198242e-01
 -1.8599908e-01
 -1.9689748e-02
  1.3026528e-01
 -2.1112651e-01
  9.2174090e-02
 -1.0005326e+00
 -5.8534598e-01
  5.9107304e-01
 -2.9496187e-01
  1.4955357e+00
 -5.0268483e-01
  6.3251334e-01
  6.7015129e-01
  8.3223695e-01
  5.9239924e-02
 -5.2546817e-01
 -4.2447701e-01
  3.3063674e-01
 -3.7345910e-01
  2.7876109e-02
  3.8510105e-01
  8.0976534e-01
 -1.3631909e-01
 -2.1243861e-01
 -2.4098937e-01
  4.1134775e-01
  2.5523663e-01
 -1.0575465e+00
  4.0597752e-02
  6.7667313e-02
  4.3795049e-01
  4.9486810e-01
  1.7971836e-01
  1.4745457e-01
 -4.2327356e-01
  3.1408779e-02
  8.3173889e-01
 -1.6311562e-01
 -1.1948023e+00
 -3.0194074e-01
 -3.1490877e-02
 -1.7703595e-03
  1.3475496e-01
  1.7414796e-01
  1.2834018e+00
  1.1519079e-01
  1.0408618e-01
  3.6540702e-03
  2.7479273e-01
 -1.1892197e-01
  1.9538221e-01
 -8.0583058e-02
  1.1291796e+00
  4.0564883e-01
 -2.0959011e-01
 -1.9557911e-01
 -1.1517341e+00
  2.3828259e-01
 -4.9266762e-01
  1.2782508e-01
  4.7232205e-01
  4.3397073e-02
  1.1831599e-01
 -9.2734069e-02
  1.2547766e+00
  5.5577689e-01
 -8.5601889e-02
  3.3257696e-01
 -6.4493370e-01
  1.5299060e+00
 -2.7313116e-01
 -6.5579444e-02
 -4.7406219e-03
 -5.8829927e-01
  1.3117383e+00
 -6.0017567e-02
  3.9227059e-01
 -4.2645192e-01
 -1.0967126e-01
  7.7813655e-02
 -6.5037809e-02
  5.9621930e-01
 -4.0544009e-01
  1.7186196e-01
 -3.6298305e-01
 -1.5349045e-01
 -5.8773935e-01
 -6.2963068e-01
  4.4817351e-02
 -3.1100306e-01
 -7.4186951e-02
 -7.5153500e-01
  7.2173089e-02
 -5.0242275e-01
  5.9361827e-01
 -2.9795241e-01
  6.4821869e-02
  1.1164593e+00
  1.9002357e-01
  5.3017336e-01
  4.2068407e-01
  3.5951412e-01
 -2.7034525e-02
 -8.5430473e-02
 -1.9708382e-01
 -3.2156551e-01
 -1.1487281e-01
 -8.2649752e-02
  2.2932667e-01
 -3.5070238e-01
 -1.2806190e+00
  8.2772040e-01
  8.2999992e-01
  1.7461789e-01
  1.1425668e-01
  1.3789801e-01
 -1.4623632e-01
  1.7223822e-01
 -3.2953712e-01
  1.5672812e-01
 -4.0235701e-01
  3.9521903e-01
 -3.4008648e-02
 -3.6418805e-01
  7.7839844e-02
 -7.1631306e-01
  6.2503886e-01
  7.9419488e-01
  1.0805303e-01
 -1.7913416e-01
  4.8216768e-02
  4.1238737e-01
  6.2377638e-01
 -3.0470473e-01
 -2.9267377e-01
 -2.2366798e-01
  6.1655337e-01
  2.2350736e-01
  5.1622607e-02
  7.5754613e-01
 -1.5044591e-01
  2.1801050e-01
 -1.1230029e-01
 -9.7705543e-02
  4.0404230e-01
 -1.5982533e-01
  1.1233687e+00
 -3.6234137e-01
 -4.1165021e-01
  3.4848800e-01
  2.6535675e-01
 -1.3514911e+00
 -4.5227179e-01
 -1.2917954e+00
 -3.2136986e-01
 -1.3524292e-02
 -2.8184131e-01
  4.6197885e-01
  4.8456633e-01
  3.0269983e+00
 -4.5416020e-02
  6.8308830e-02
 -1.4781930e-01
 -4.2439583e-01
 -1.1850709e-01
  6.0594511e-01
 -3.7724656e-01
  2.9195631e-01
 -9.1439463e-02
 -8.3298914e-02
  1.1157145e-01
 -3.4564841e-01
 -3.4761092e-01
  3.9044085e-01
 -8.7929115e-02
  7.5488143e-02
  3.5462731e-01
 -1.9466232e-01
 -1.7277218e+00
 -2.7891245e-01
  6.2176496e-01
 -5.3981435e-01
 -1.9050764e+00
  2.2655092e-01
 -3.5026053e-01
 -5.0728178e-01
  1.5432295e-01
  6.7484784e-01
  6.3177146e-02
  5.7203282e-02
 -1.6481171e+00
 -3.3960307e-01
 -4.1512379e-01
 -6.6895705e-01
 -9.2806298e-01
  2.7556288e+00
 -1.5371573e-01
  6.3019401e-01
 -8.0404013e-01
 -1.7082952e-01
 -1.0962385e+00
  1.0975728e+00
 -1.7824170e-01
  7.8889117e-02
 -1.2565632e-01
  4.8702005e-01
 -2.0140684e-01
  2.3841552e-02
  6.9667190e-01
  1.8452253e-02
 -2.4907032e-01
  1.2567273e-01
 -3.9486770e-02
 -2.3142524e-01
  2.1028008e+00
  1.1181639e+00
 -7.9944700e-02
 -1.0293565e-01
  4.6350878e-01
 -6.1176783e-01
  2.9821593e-01
 -2.5226724e-01
  1.1318158e-01
  6.8930276e-03
  2.7350891e-01
  5.7806838e-01
  6.4031757e-02
  2.7825469e-01
 -1.6531290e+00
  4.5425338e-01
  2.2319689e-01
 -8.2020855e-01
  8.4003204e-01
  2.3753902e-01
 -5.6359720e-01
 -2.0991638e-01
 -8.2228410e-01
 -2.6609203e-01
  1.5268634e-01
  7.6946795e-01
 -7.3680013e-02
  1.7434551e-01
  4.6303096e-01
  1.1056380e-01
  3.7830290e-01
 -1.1772737e-01
 -2.8717078e-02
 -7.8556567e-02
  3.7233499e-01
 -3.8559414e-02
 -6.1547786e-01
 -1.2140436e-02
  5.4255795e-01
 -6.7056350e-02
 -6.5448470e-03
  3.0911291e+00
  1.8281391e-01
 -3.1670222e-01
  3.8604477e-01
 -7.9239041e-01
 -3.8845518e-01
  2.5261953e-01
  1.7430951e-01
  2.6633596e-01
  2.6312593e-02
 -4.0619826e-01
  8.0525041e-02
 -3.0243438e-01
  1.4548354e-01
  1.8882878e+00
 -1.1798791e+00
  1.1512513e-01
 -2.5562806e+00
  1.6352457e+00
  4.4847712e-01
 -3.5629568e-01
  4.5965877e-01
  5.5519086e-01
  3.5134849e-01
 -8.2575005e-01
  1.5431364e+00
  1.1821647e-01
 -8.1702155e-01
 -2.3086584e-01
 -4.9562877e-01
  7.3491859e-01
  2.8425211e-01
 -1.1337800e+00
  3.7243712e-01
  2.0019932e+00
  1.3067827e-01
  6.8638653e-02
 -3.4798986e-01
 -2.0134482e-01
  9.7443098e-01
 -4.8701143e-01
 -3.9022434e+00
  9.8939073e-01
 -8.8646524e-02
  2.9827595e+00
 -4.1699627e-01
 -6.9580674e-01
  1.8702484e+00
 -5.5567080e-01
 -3.5536692e-01
 -1.1390410e-01
  1.7414898e-01
 -3.5396171e-01
  8.7700091e-02
  1.2085279e-02
  9.9318135e-01
  2.1738262e-01
  1.8653075e-01
  2.4848551e-01
 -4.3519637e-01
 -3.4934667e-01
  1.2471317e-01
 -1.3062582e+00
 -3.4607089e-01
  5.8452837e-02
 -3.6490014e-01
 -2.1928944e-01
 -4.1589141e-05
  3.1130388e-02
 -1.4538214e-01
  1.3237661e-01
 -1.9927746e-01
 -8.1883661e-02
  1.1484675e-01
  4.1295062e-03
  1.0633990e-01
  2.0809220e-02
 -4.9401373e-03
 -3.7528381e-01
  1.6003853e-01
 -2.8492659e-01
  5.9604990e-01
 -1.9990639e-01
 -1.4173586e+00
 -2.8926572e-01
  6.6433400e-01
  1.1891985e-02
 -7.3624179e-02
 -5.3214595e-02
  8.5465588e-02
 -1.7130378e-01
  3.5454458e-01
  1.8284415e-01
  1.1186469e-02
  4.4699222e-01
  5.6927569e-02
  5.9896521e-04
 -2.6595440e-02
  3.8294032e-02
 -2.4293296e-02
  2.7936801e-01
 -7.6061076e-01
 -3.5564831e-01
 -9.1029859e-01
  3.4114528e-01
  1.1962931e+00
  4.2915356e-01
 -1.8804823e-01
 -1.6155528e+00
 -7.2980726e-01
 -7.8182250e-02
  1.3012171e+00
 -3.0819356e-01
 -8.7937683e-01
  1.9581348e-01
  6.0579282e-01
 -1.9337832e+00
 -3.1255266e-01
  7.5103360e-01
  3.9152288e-01
 -6.1821574e-01
  1.6396977e-01
 -1.2143836e+00
 -1.2618443e+00
 -4.5442066e-01
  8.0586892e-01
 -8.9310455e-01
 -1.1229402e+00
 -7.3204890e-02
  1.0250700e+00
 -5.2734143e-01
 -2.1907981e-02
  1.8645817e-01
 -1.6423935e-01
 -2.0684835e-01
  7.2924286e-02
 -1.6995859e-01
 -6.1744678e-01
  7.9092330e-01
  9.4741702e-01
 -1.7988216e-02
 -1.0931181e+00
 -1.4071066e+00
  3.9756536e-01
  4.8053694e-01
 -8.8738650e-01
 -4.8173361e-02
  3.1001720e-01
 -3.4586689e-01
  2.1766858e+00
  3.7635183e-01
  3.7252837e-01
 -4.9673241e-01
  2.4520667e-01
  2.6022086e-01
 -1.8175447e-01
  6.0274708e-01
  6.1434470e-02
 -2.8800458e-02
 -1.0544307e+00
 -1.2804263e+00
  6.7698732e-02
 -1.2832798e-01
  5.8585829e-01
  4.4592012e-02
 -8.5766250e-01
  4.7540197e-01
  1.3488516e-01
 -7.2154254e-02
  6.3355915e-02
  6.8757087e-02
 -5.0395206e-02
  1.6056857e-01
 -2.8076077e-01
 -7.6197875e-01
  1.8250910e+00
  2.7508971e-01
 -9.3522936e-02
 -3.6744198e-01
 -1.0109731e+00
 -9.2215456e-02
 -1.2848372e+00
  7.0041038e-02
 -1.9473225e-02
 -6.2029499e-01
  2.0253681e-02
  6.7686862e-01
  6.0609203e-02
 -2.4170400e-01
  2.2619557e-01
  1.0159795e+00
  5.4631817e-01
 -1.7316227e+00
 -1.4016357e-01
  2.3226182e-01
 -2.1471825e-01
  4.5572385e-01
 -2.5840077e-01
  2.0837544e-01
 -7.7990556e-01
 -1.0744547e+00
  7.7055609e-01
 -2.3168626e-01
 -3.2313333e+00
  1.5846853e+00
 -1.0693838e-01
  1.5121032e+00
 -1.1087344e+00
  4.0406190e-02
 -5.4681845e-02
  2.4147745e-02
  9.0472054e-01
 -1.7606516e+00
  4.7754434e-01
  3.0920875e-01
  4.2762339e-02
 -1.0858655e+00
 -4.6034712e-01
  1.0908109e+00
  9.1954309e-01
  2.6835531e-01
  7.6230213e-02
  2.2725803e-01
  6.6844951e-03
 -1.7002256e-01
  1.4139490e+00
  7.7557939e-01
  1.2409563e-01
 -2.4471888e-01
  6.8703425e-01
  3.9833319e-01
  2.8612906e-01
  3.6645851e-01
  3.1793299e-01
 -4.9814358e-01
  1.3741519e+00
  7.5886345e-01
 -2.1587045e-01
 -1.3256762e-02
  6.0447872e-01
  9.6421254e-01
  4.4686341e-01
  4.3333870e-01
  2.2197357e-01
 -4.6090159e-01
 -5.7472485e-01
  2.8477818e-01
  7.8516376e-01
  9.5031604e-02
  1.7510595e+00
  1.0614160e+00
  1.3059387e-01
 -7.5778812e-01
  1.6546068e-01
 -2.5523788e-01
 -4.6840775e-01
 -2.1866354e-01
  1.3117655e-03
 -8.2017976e-01
  1.4784019e-01
 -9.0240642e-02
 -1.1510233e+00
  5.4705924e-01
  9.4676688e-02
 -5.7181299e-02
 -6.2655306e-01
  1.0807104e+00
 -6.1291762e-02
 -1.5999283e-01
  2.5894469e-01
  8.6043097e-02
  5.9338892e-01
  1.7656076e-01
 -2.6219344e-01
  6.2849343e-02
  3.3176732e-01
 -7.1549511e-01
  1.4365083e-01
 -2.6226091e-01
 -8.7445533e-01
  6.6878843e-01
 -1.2150797e-01
 -2.5434399e-01
  3.4606266e-01
  2.5196746e-01
  4.0657541e-01
 -3.0933508e-01
 -7.1343891e-02
 -7.2995055e-01
 -3.2747582e-01
  5.7475996e-01
  1.3252692e-01
 -1.3247450e-01
  1.6101483e-01
 -2.1992671e-01
 -2.4115612e-01
 -4.6981353e-01
 -3.7361626e-03
  1.2218075e-01
 -7.7413499e-01
 -5.1110816e-01
 -3.3053550e-01
  7.7460515e-01
  1.8026738e-01
 -1.2177989e-01
 -4.0356144e-02
 -5.1093316e-01
  5.6369078e-01
 -1.1775784e+00
  8.0782920e-02
 -2.8269958e-01
  2.3862326e-01
  1.7098486e-02
 -9.5571518e-02
  9.1086961e-02
  1.7625874e-01
 -3.2625917e-01
  3.2541355e-01
 -4.7982863e-01
  1.5282705e-03
  5.7319570e-01
 -3.2338092e-01
 -2.7283809e-01
  3.0793098e-01
  6.3846983e-02
 -1.5121028e-01
 -1.0874021e+00
 -1.1715409e-01
 -8.9317018e-01
  1.1655569e+00
 -2.4268542e-01
 -6.6833591e-01
  1.9415885e-01
 -1.3399493e+00
 -4.9603453e-01
  4.4071853e-01
 -3.0097130e-01
  7.8563070e-01
 -1.1113286e+00
 -2.7076513e-01
 -8.3599395e-01
  3.6493886e-01
 -1.5254103e-01
 -7.5040221e-02
 -5.4519624e-02
 -9.5997058e-02
  6.1085030e-02
  9.8258817e-01
  1.6645625e+00
 -6.3890135e-01
 -2.2162769e+00
 -1.4083555e+00
 -2.4666753e-02
 -7.6150602e-01
 -1.2273905e-01
  8.4799761e-01
 -1.6375259e-01
  2.0767316e-01
 -2.2125934e-01
  5.9436816e-01
 -4.5258382e-01
 -5.4507059e-01
 -4.6399182e-01
 -2.7729383e+00
  1.6933577e-01
 -1.0501796e+00
  1.2909116e-02
  8.1265807e-01
 -1.6147445e+00
 -9.5383924e-01
 -5.8431894e-01
  1.3322881e+00
  1.6947496e-01
 -5.6353331e-01
  1.3324450e+00
 -2.8666773e-01
  4.2398410e+00
 -4.2852018e-02
 -8.0314475e-01
  3.4435180e-01
  3.2961991e+00
  1.7707732e+00
 -3.9692163e-02
 -2.4622306e-01
 -9.1830816e-04
  1.0400285e+00
 -3.7698165e-02
  6.8982667e-01
 -3.8383716e-01
 -2.9821475e+00
 -2.3478913e+00
 -6.8467629e-01
 -1.2022962e-01
 -4.2940840e-01
  6.7555606e-02
  4.7635651e-01
  1.2633937e-02
 -7.9504168e-01
  1.4295112e+00
  4.0453944e-01
  3.9709333e-01
  1.2039840e-01
 -9.5678404e-02
 -1.9624285e+00
 -1.9569544e+00
  8.3578244e-02
  1.6583282e+00
 -1.3508683e-01
  3.8424775e-01
  1.8994026e-01
  2.0044715e+00
 -1.0005621e+00
  3.2684214e-02
 -4.8132785e-02
  6.3233286e-02
  3.0942973e-01
  1.1883757e+00
 -1.9317458e+00
 -1.9582040e+00
  3.8433471e-01
  4.3953638e+00
 -6.2360424e-01
  1.0381390e+01
  2.2020154e+00
 -1.8038781e+00
 -8.7477767e-01
 -2.2215188e+00
  4.9936050e-01
  7.9144388e-01
 -3.6768816e+00
 -1.7940198e+00
  5.2741814e-01
  1.0240219e+00
  5.4833478e-01
 -1.1799462e+00
 -6.4967602e-02
 -3.3199631e-02
 -3.7692228e-01
 -1.1394036e+00
  5.2376170e+00
  2.4749508e+00
  7.8974491e-01
  3.0518916e-01
  1.0953166e+00
 -1.4238112e+00
 -6.5372092e-01
  1.2470580e+00
  1.6648364e-01
  4.1077402e-01
  1.8831915e-01
 -8.3093202e-01
 -1.4293386e+00
 -3.5224977e+00
  5.0608778e-01
  4.1728577e-01
 -6.8187378e-02
  1.3629301e+00
  8.0995774e-01
  6.6707075e-01
  1.1168635e+00
 -1.1038720e-01
 -1.8965946e+00
 -1.4838204e+00
  1.9754598e-01
  1.1728415e+00
 -1.1520684e+00
 -2.4934626e+00
  1.0897140e-01
 -1.1094601e+00
  1.8368280e-01
 -1.3529358e+00
 -1.7699872e+00
  2.4361153e-01
 -3.9943448e-01
  1.6450996e+00
 -1.9070746e+00
  4.6183920e+00
  2.1530511e+00
  5.8488427e-03
  2.7449808e-01
  8.2146209e-01
 -5.3510942e+00
 -8.8975322e-01
 -1.0370852e+00
 -4.4167194e+00
  1.4990842e+00
  9.6024299e-01
  8.0928665e-01
 -4.4904237e+00
  1.9315573e+00
 -4.2495811e-01
  1.5521284e+00
  4.6587481e+00
 -1.5275457e+00
 -1.8697588e+00
 -3.3359119e-01
 -3.3267125e-01
 -1.4685156e+00
  4.3621430e+00
  1.3299277e-01
 -1.4298241e+00
  4.3006027e-01
 -9.6399868e-01
 -9.5309788e-01
  1.0521274e+00
 -1.2663462e+00
 -5.2078646e-01
 -9.7577833e-02
  3.1506062e-01
 -1.9846618e+00
  3.0238860e+00
 -2.0349131e+00
  1.6008682e+00
 -1.6014047e+00
  6.2471688e-01
 -1.8717235e+00
  2.8138757e-01
  7.0504069e-01
 -3.4183386e-01
 -8.6082143e-01
 -1.6543429e+00
  2.8855767e+00
 -1.6359960e+00
  2.9716185e-01
 -3.1605404e-02
  3.3277633e+00
 -1.7674196e+00
  2.5815997e-01
  3.2964346e-01
  1.6091930e+00
  5.3771663e-01
 -3.8803506e-01
 -1.1955459e+00
 -2.7561903e-01
  5.5982542e-01
 -1.1166168e+00
  3.3322230e-01
 -1.1260105e-01
 -1.0487273e+00
 -1.1010870e+00
 -7.7474594e-01
  5.2436415e-02
  1.7307755e+00
  6.0514730e-01
 -2.0406494e+00
  2.1642070e+00
 -2.5166887e-01
  2.5784297e+00
  4.6830237e-01
  2.1534853e+00
  1.2552394e+00
 -2.3828278e-01
  1.4607288e-01
  1.1949813e+00
  7.0832723e-01
  8.7609333e-01
  1.3931652e+00
  8.1502396e-01
  2.2430770e+00
 -2.8046737e+00
 -2.6891062e+00
 -3.4111503e-01
  7.5043160e-01
 -6.2902516e-01
 -1.4408846e+00
  3.0080482e-01
  6.2650317e-01
 -2.3504386e+00
 -9.3836600e-01
 -1.4026630e+00
  2.5416991e-01
 -1.8992199e-01
 -1.4219936e+00
  1.4088886e+00
 -1.0789711e+00
 -1.9829724e+00
 -1.0188044e+00
  1.6411442e+00
 -7.8984869e-01
 -8.8271135e-01
  1.0365747e+00
 -1.3534872e-01
  1.2036680e+00
  3.9387560e-01
  1.6732112e+00
 -1.6090749e-01
  9.4278926e-01
 -1.2982386e+00
 -3.8573318e+00
 -2.0179185e-01
  1.8607656e+00
 -7.6331902e-01
 -5.8172744e-02
 -1.1218510e+00
 -3.1030903e+00
  2.5462630e+00
 -1.6800866e+00
 -1.4985275e-01
 -8.1567436e-02
  2.8728654e+00
 -2.9123852e+00
  1.3529502e+00
  1.7670114e+00
  2.7862039e-01
 -2.9180771e-01
 -3.8671363e-02
 -4.3953590e+00
  2.0699494e+00
 -9.0047263e-02
  2.4697909e+00
 -1.1724622e+00
  2.7827486e-01
 -2.7050766e-01
  2.0777516e+00
  1.4825693e+00
  3.9955124e-01
 -6.8738058e-02
 -2.1184163e-01
  8.5166514e-01
 -3.0303891e+00
  1.8515512e+00
  5.6246608e-01
 -7.8758430e-01
 -2.2451165e+00
 -7.6349837e-01
  2.0605445e+00
 -1.5719006e+00
 -1.8520716e+00
  1.5483810e+00
 -6.9768196e-01
 -3.1891562e-02
 -2.7631879e-01
  5.8485991e-01
 -7.7314898e-02
  1.0973371e+00
  6.1808124e-02
 -1.2295920e+00
  3.4240396e+00
 -1.3066752e-01
  8.0064404e-01
  3.5180643e-01
  5.2725017e-01
 -1.0137653e+00
 -2.6651523e+00
 -1.1685224e+00
  2.8424697e+00
  2.8165019e+00
 -3.2055852e-01
 -2.2775123e+00
  2.5566554e+00
 -2.5113590e-02
 -2.0683589e+00
 -1.1978686e+00
 -2.1383803e-01
 -5.1085067e-01
 -8.4274393e-01
  9.2387909e-01
 -7.2289258e-02
  1.8934818e-01
 -3.7387207e+00
 -1.0867813e+00
  1.9199719e+00
  1.5854156e+00
 -3.2520041e-01
 -1.0736315e-01
  2.9775164e+00
  2.7926639e-01
  9.2862070e-01
  1.5683773e+00
  1.3999575e+00
 -4.4878833e-02
  9.4800651e-01
  2.4920480e+00
 -8.5100931e-01
  1.9583950e+00
  1.6212647e+00
 -3.7773213e+00
  8.0792958e-01
  3.0576074e-01
  3.6782208e-01
  3.0287239e-01
  1.0261519e+00
 -4.2528620e-01
  3.8282294e-02
  1.5165980e+00
  8.0639794e-02
  4.4422174e-01
  1.0360017e+00
  8.2850903e-01
 -6.0910475e-01
 -1.3261653e-02
 -1.1429565e+00
  1.2289426e+00
  2.3447080e+00
  2.0227587e+00
 -9.5353490e-01
  3.1244884e+00
  1.0132864e+00
 -2.1861343e+00
 -1.8235675e+00
  7.3932421e-01
  1.0178753e+00
 -8.3598512e-01
  2.9921317e+00
 -2.3212337e+00
  1.2747343e+00
 -1.6894239e-01
  9.3067324e-01
  7.9421365e-01
 -7.9490662e-01
  6.1254889e-01
  6.6974646e-01
 -1.1497147e+00
 -6.9419742e-01
 -2.0125675e+00
 -4.9765047e-01
 -7.3017031e-01
  4.3262459e-02
  6.2178260e-01
  7.3602939e-01
  1.2572430e+00
 -5.3312391e-01
  3.0714979e+00
 -4.8219764e-01
 -2.3103806e-01
 -1.5636209e+00
 -1.2638178e-03
 -1.2515675e+00
  4.3089905e-01
 -1.2978040e+00
 -9.3190396e-01
  1.0094718e+00
 -6.1087334e-01
 -1.3569601e+00
 -1.8609201e+00
 -3.5653105e-01
 -1.3877829e+00
 -3.3888191e-01
  6.0313398e-01
 -2.4542008e-01
 -4.2438653e-01
 -1.3783690e+00
  2.7362549e-01
 -7.6358110e-01
  3.3217162e-01
  1.5323741e+00
  9.5840621e-01
 -4.5203704e-01
  2.7149589e+00
  7.3219693e-01
  1.2837490e+00
  1.3642207e+00
 -2.3592880e+00
 -4.0271535e+00
  4.4266269e-01
  2.0503447e+00
 -3.2800927e+00
  3.7734458e+00
 -5.7817954e-01
 -1.4929811e+00
  7.3480612e-01
  9.3106019e-01
 -3.6391947e-01
 -2.8445160e+00
  1.4458897e+00
 -9.0489519e-01
  1.1559438e+00
 -2.3340964e+00
 -3.4779087e-01
 -2.4338715e+00
 -5.2011818e-01
  2.7747962e+00
 -5.7893115e-01
  9.4117391e-01
  1.7325562e+00
  3.5474393e+00
 -7.6185399e-01
  8.3106416e-01
 -1.0703018e+00
  2.2721055e+00
 -1.2326764e-01
  6.4921129e-01
 -1.6859133e+00
 -1.5716769e+00
 -2.6085281e-01
 -7.7514774e-01
 -1.5006244e+00
  1.8660275e+00
  1.2891796e+00
 -4.8221853e-01
 -1.2027293e+00
  1.7994267e+00
  6.5086848e-01
  1.1256868e-01
  5.6230134e-01
  4.2637849e-01
 -3.5051316e-01
  1.2088410e+00
 -2.4527252e+00
  6.8095130e-01
  1.1052804e+00
 -2.1919551e+00
  2.0476906e-01
 -1.6048951e+00
  3.2031276e+00
 -1.4514412e+00
  9.2260140e-01
  6.3707232e-01
  2.7356619e-01
  2.6590381e+00
 -5.2959371e-01
 -2.5883710e-01
 -1.3409880e-01
  1.3131557e+00
  1.6181633e+00
  4.1078234e-01
 -2.4546626e-01
 -4.9776846e-01
  6.2143981e-01
 -1.7211132e+00
  1.4740415e+00
  1.2066209e-01
  3.5550168e-01
  1.8542035e+00
 -1.5838891e-01
 -1.2301096e+00
 -1.1089774e+00
  1.8363713e+00
  9.8579788e-01
 -2.1126750e+00
  1.0190724e+00
  4.8687500e-01
  7.2467291e-01
  1.4976154e-01
 -2.2687702e-01
 -2.4375947e-01
  2.6546922e-01
 -1.7419586e+00
  8.2138193e-01
 -2.4810565e-01
 -6.1976814e-01
 -5.5572128e-01
 -9.9440394e-03
  1.6299196e+00
  7.9962891e-01
  1.9146882e-01
  7.1097928e-01
  1.8791121e-01
 -2.5228280e-01
 -1.5336512e+00
 -9.5652080e-01
 -1.7257137e+00
  1.8483434e+00
  9.5574337e-01
  8.6764455e-01
  3.8856664e-01
  2.3297961e+00
  3.1856284e-01
  4.1573769e-01
  3.0032818e+00
 -1.1459086e-01
 -1.7653975e+00
  9.6519345e-01
  1.5943645e-01
 -3.2793027e-01
 -9.1116238e-01
 -4.3573074e+00
 -2.0751991e+00
 -2.2387660e+00
  2.9033706e+00
 -1.4114787e-01
  3.4270310e-01
  1.8113545e-01
 -2.1609951e-02
 -6.8576328e-02
  1.7890329e+00
  1.5885504e+00
 -8.4456223e-01
  2.8042603e+00
 -8.7962109e-01
  3.7991652e+00
  7.0284623e-01
  7.2291248e-02
 -2.2275159e+00
  8.2343793e-01
  3.2424703e+00
  1.0886035e+00
 -2.0504036e+00
  1.9292122e-01
  1.4374957e+00
  4.8853001e-01
  1.1240827e+00
 -1.8922122e-01
  1.1866157e+00
 -5.9501886e-01
 -3.1863911e+00
  4.4423184e-01
  3.2278100e-01
 -7.8118622e-02
 -4.1492489e-01
 -2.4711030e+00
 -2.0444553e+00
 -2.2981868e+00
 -1.2202162e-01
  9.6571401e-02
 -1.0159758e+00
 -3.1348410e+00
  1.4734517e-01
  1.6088377e+00
 -1.0573431e+00
 -2.8280577e-01
  1.4598824e+00
 -1.5032762e+00
 -1.1633557e+00
 -1.2181826e+00
 -1.2357686e+00
  9.8891407e-01
  5.4716361e-01
 -4.5166998e+00
 -2.4835865e+00
  3.6479482e-01
  1.6605921e+00
 -6.2466955e-01
 -7.1256632e-01
  4.9022275e-01
  2.5459781e-01
  3.4724435e-01
  1.1955316e+00
 -4.7495842e-01
 -1.4553645e+00
 -7.3741728e-01
  2.2895883e-01
  1.5798309e+00
  3.6092585e-01
  9.7759284e-02
 -5.4908210e-01
  2.0088882e+00
  1.6010928e+00
  1.0190388e+00
 -2.9735863e-01
  9.3727440e-01
  1.5941471e+00
  9.9509299e-01
 -6.5365064e-01
  3.4435380e-01
  6.1646569e-01
 -1.6912200e+00
 -1.9684399e+00
 -2.0120549e+00
  1.5332623e+00
  3.9896944e-01
 -1.3159057e+00
  1.8894120e+00
 -2.1999356e-01
 -1.2326468e+00
 -6.7574453e-01
 -9.4659096e-01
  1.2162365e+00
  2.8517887e-01
  9.6213549e-02
 -2.3441484e+00
 -7.5253487e-02
  1.1985619e-03
  2.9460936e+00
  9.9720919e-01
 -2.2594450e+00
 -4.1696167e-01
 -5.1704580e-01
 -2.1978487e-01
 -6.2970310e-02
 -3.1419715e-01
 -2.3187816e+00
 -1.6160158e+00
  1.0713890e-01
 -2.6562078e+00
 -1.1333077e+00
 -1.1400355e+00
 -2.1507618e-01
 -2.5510578e+00
  1.7054046e+00
  8.8815659e-01
 -1.9937643e-01
  1.9986972e+00
  8.1466007e-01
  1.4856710e-01
 -7.6743245e-01
  1.2998481e+00
 -4.2972904e-01
 -9.6800125e-01
 -8.3743429e-01
 -2.3404713e+00
 -6.6940230e-01
 -1.1054118e+00
 -7.3038626e-01
 -1.8475627e+00
  1.6110204e-01
 -3.8165095e-01
 -1.2117136e+00
 -9.9615014e-01
 -1.0888280e+00
  1.2471014e-01
 -2.5259006e-01
  2.0323320e-01
 -8.5624784e-01
  1.2094177e+00
  2.5029445e+00
  1.5481073e-01
 -2.9637676e-01
  2.7093115e+00
  3.6185303e+00
  4.6067405e+00
  6.8553942e-01
 -2.0918447e-01
 -1.5804921e+00
  2.5338224e-01
  2.7402556e-01
  1.5490477e+00
  1.2319984e+00
  3.2495451e+00
 -3.3101663e-01
 -1.1252481e+00
  9.2065471e-01
 -1.7451435e+00
  9.0972915e-02
 -1.3431320e+00
 -1.3887818e+00
 -8.6210507e-01
  4.8114061e-01
  1.2496279e-01
 -2.3094697e+00
  2.3133507e+00
 -8.6173135e-01
 -8.2757014e-01
 -2.6248991e-01
 -1.5803893e+00
 -1.4475760e-01
 -9.3090576e-01
  1.6964689e-01
 -4.7386928e+00
  3.9346692e-01
 -6.2700403e-01
  8.2356617e-02
 -6.6720712e-01
  6.7704850e-01
 -1.9619535e-01
 -5.4484099e-01
  1.3215296e+00
  6.5084928e-01
  2.3358769e+00
 -2.2397928e+00
 -1.7517465e+00
  7.7971853e-02
 -2.6433280e+00
 -4.0824246e+00
 -5.5640119e-01
 -3.1660217e-01
 -6.5922856e-01
  1.9677109e+00
  5.8314532e-01
  8.0658458e-02
 -8.0109715e-01
 -5.5467457e-01
 -1.7835027e+00
 -2.0368209e+00
 -6.5918607e-01
 -1.2239486e+00
 -1.4662468e-01
 -3.1291398e-01
  1.1133523e+00
  1.1825730e+00
  3.0245926e+00
  6.2804449e-01
 -1.5592622e+00
  2.4669423e+00
 -6.4777307e-02
  9.6230745e-01
 -2.6301529e+00
 -1.2514558e+00
  2.9915011e-01
  1.0979435e+00
 -1.2928883e+00
 -1.4057254e+00
 -9.0078878e-01
 -5.6057900e-01
  3.6966801e-02
  9.1856420e-02
  1.1140382e-02
 -1.0722024e+00
  2.0078802e-01
  1.4881620e+00
 -1.7508219e+00
 -9.1372496e-01
 -8.1440699e-01
  8.4549934e-01
 -7.3026288e-01
  8.9737624e-02
 -1.5584528e-01
  5.7649428e-01
 -5.1700425e-01
 -3.1775234e+00
 -1.0641403e+00
  4.9641937e-01
  2.9197514e+00
  4.3162721e-01
  2.7712266e+00
  1.4840044e+00
 -3.8113922e-01
 -1.5670612e+00
  1.5956720e+00
  1.4192671e+00
  1.6111139e+00
  2.3687944e-01
 -2.2545205e-01
 -1.3976130e+00
 -1.0495939e+00
 -1.5570443e+00
 -9.5253056e-01
  4.1359627e-01
  4.7652226e-02
  6.8914008e-01
  1.5683320e-01
 -6.3554776e-01
 -1.6395108e+00
  1.4333379e+00
  3.3637771e-01
 -2.6777940e+00
 -8.4143557e-02
  2.5173748e+00
  1.0601576e-01
 -9.5031959e-01
  1.9692730e+00
  2.1972001e+00
  7.1275481e-03
 -4.2814294e-01
 -1.1534081e+00
  1.9431814e+00
  1.4451032e+00
 -2.8702468e-01
 -1.2026066e+00
  1.1457222e+00
  1.5823517e+00
  2.6170236e-01
  9.7420044e-02
  6.6321999e-01
  7.8931677e-01
  7.4153060e-01
 -6.4706624e-01
  6.3857168e-02
 -2.8524220e-02
  5.6405056e-01
 -1.2388964e+00
 -4.3915498e-01
  7.3597515e-01
  2.0996792e+00
 -7.5135902e-02
 -1.1487144e-02
 -3.1380567e-01
 -1.1935562e+00
 -2.7689762e+00
 -1.2840723e+00
 -3.4721768e+00
  1.7744679e+00
  5.1631087e-01
  1.7030995e+00
  3.6032517e+00
 -3.4422234e-01
 -3.5965912e+00
  1.4418279e+00
  1.0644507e+00
 -4.2088776e+00
 -1.3195845e+00
 -7.8791535e-01
 -1.0411685e+00
 -2.2661173e+00
  6.3028574e-02
 -2.4591911e+00
 -3.7702864e-01
 -4.2540267e-01
 -2.2852719e+00
 -4.2391121e-01
  7.9120320e-01
 -6.1146277e-01
 -1.2670912e+00
  2.0872293e+00
  4.6672606e-01
 -3.0901377e+00
 -4.9862710e-01
  2.5466521e+00
  4.0418798e-01
 -1.4194140e-01
 -1.2331384e+00
  2.9797673e-01
 -6.0800153e-01
  5.8631659e-01
 -4.4962290e-01
 -7.9302692e-01
 -5.3800333e-01
  5.0948066e-01
  1.0339726e+00
 -6.7102993e-01
 -3.4458962e-01
 -6.3585693e-01
  9.1630191e-01
  1.8399328e-01
  7.7430344e-01
  2.0146796e-01
 -3.3342177e-01
  2.6662609e-01
  3.1573731e-01
  2.3015633e+00
 -3.5892332e-01
  1.5420439e-03
 -2.0464153e+00
 -2.8519616e-01
  3.2554170e-01
 -5.2771086e-01
  4.3178463e+00
  1.1079094e+00
  5.3869629e-01
 -1.6857800e+00
 -3.2456129e+00
  4.5156044e-01
 -2.2737902e-01
  2.6045561e-01
 -3.9890158e-01
 -9.9769372e-01
  1.1215810e+00
  9.3373436e-01
 -9.6734565e-01
  2.6954404e-01
 -1.6709873e-01
 -6.2459828e-03
  1.9823982e+00
  1.8863657e+00
  2.6981229e-01
 -6.1918139e-01
  1.9881784e+00
  9.3262851e-01
  1.5592546e+00
  5.1636010e-01
  1.8738736e+00
  1.4200327e-01
  4.3102479e-01
  7.6654530e-01
 -2.0349896e+00
 -6.6372120e-01
 -1.0184067e+00
  3.6559618e-01
 -1.7995243e+00
 -4.8040244e-01
 -1.5556326e-02
 -2.0352699e-01
 -1.3372232e+00
 -3.1014204e-01
  6.5654016e-01
  1.7928956e-02
  1.7928956e-02
  1.7928956e-02
  1.7928956e-02
  1.7928956e-02
  1.7928956e-02
  1.7928956e-02
  1.7928956e-02
  1.7928956e-02
  3.4313183e-02
  3.4313183e-02
  3.4313183e-02
  3.4313183e-02
  3.4313183e-02
  3.4313183e-02
  3.4313183e-02
  2.7671870e-02
  2.7671870e-02
  2.7671870e-02
  2.7671870e-02
  2.7671870e-02
  2.7671870e-02
  2.7671870e-02
  1.3580502e-02
  1.3580502e-02
  1.3580502e-02
  1.3580502e-02
  1.3580502e-02
  1.3580502e-02
  1.3580502e-02
  5.7021868e-03
  5.7021868e-03
  5.7021868e-03
  5.7021868e-03
  5.7021868e-03
  5.7021868e-03
  5.7021868e-03
  1.1793899e-02
  1.1793899e-02
  1.1793899e-02
  1.1793899e-02
  1.1793899e-02
  1.1793899e-02
  1.1793899e-02
