nep4 2 Cu Se 
cutoff 7 5 100 44
n_max 8 6
basis_size 12 12
l_max 4 2 0
ANN 50 0
  3.3163190e-01
  5.1094955e-03
  2.6222864e-01
  1.3799937e-01
 -9.2579633e-01
 -1.0701436e+00
  7.1476030e-01
  9.2584252e-01
 -1.1957052e+00
  8.5587275e-01
  2.0480149e-03
 -6.0629094e-01
  5.4020070e-02
 -8.7196432e-04
  2.3106843e-01
  8.6186570e-01
  1.8632916e-01
 -3.8602462e-03
 -1.1277389e-01
  6.4808196e-01
  1.7893934e-01
 -3.5681334e-01
  2.1648589e-01
  7.1098644e-01
 -1.4450756e-02
 -5.1752955e-01
 -4.5699743e-03
  2.2378807e-01
  2.0320860e-01
  3.4620732e-01
  2.5856337e-01
  2.7935929e-04
 -5.9854809e-02
 -6.1903022e-02
  3.2490706e-01
  2.2589122e-03
  2.0507781e-02
  2.0263495e-03
  1.3478193e-03
  1.3092121e-03
 -3.9411318e-01
 -3.4859255e-02
 -2.8483447e-04
 -1.2760411e-04
 -5.4847777e-02
  2.3537144e-01
  3.2511421e-02
 -1.0593475e-01
 -3.5018162e-04
  3.8437638e-01
  1.5117205e-04
  2.5864612e-02
  4.4112819e-01
  2.2295843e-01
  5.7122558e-01
 -5.4517615e-01
 -2.5311986e-01
 -4.6399618e-03
 -4.4636024e-04
  2.8760945e-02
 -4.7225166e-02
  3.0009577e-01
  4.7092602e-01
  1.3785865e-03
  2.7629733e-01
 -1.8301455e-03
  6.0811943e-01
 -1.3456909e-02
  5.3540114e-02
  7.5053349e-02
 -8.4767200e-02
 -2.4834962e-01
  3.8654238e-02
  4.2890182e-01
 -2.5047298e-04
  9.5140994e-02
  6.0221482e-02
  3.1091301e-02
  1.3444652e-01
 -4.5995276e-02
  5.1914161e-01
 -1.9985144e-03
  9.2354702e-04
  4.1319651e-04
  1.2074141e-02
 -3.1896343e-06
 -6.5549066e-06
 -1.1142936e-03
  8.9350715e-04
  8.4273826e-04
 -2.1693897e-03
 -5.7563244e-05
  5.9443829e-04
 -6.2136527e-04
  7.8128893e-03
  2.0004578e-03
  3.8158773e-03
 -2.7002607e-04
  1.3220120e-03
 -1.1308320e-03
 -6.9589057e-04
 -2.0073864e-04
  2.8367417e-03
  4.5565674e-03
  2.3604387e-03
  1.8290554e-03
  4.4784578e-03
  3.0482877e-03
 -9.1777329e-05
 -1.1592441e-03
 -8.7912672e-04
  7.8199385e-04
 -2.9992597e-04
  4.9595517e-05
 -2.1543596e-03
 -4.7047433e-04
  2.1262054e-04
  4.1477634e-03
 -7.4155454e-04
 -2.6251047e-04
  3.1125138e-03
 -3.9583625e-05
  1.9980990e-03
  6.5944968e-03
  1.7665646e-03
  2.5497342e-04
  7.3504547e-04
 -4.5677839e-04
 -9.8132889e-04
 -2.7319288e-04
 -9.1758202e-04
 -5.3288550e-03
  2.9562431e-04
 -1.2696236e-03
 -9.9972298e-05
 -2.4909966e-03
 -1.9986084e-01
  9.0642169e-04
  4.8468080e-03
 -3.6338053e-04
 -5.4720393e-04
  2.1739485e-04
 -8.1004837e-04
  2.2154914e-03
  4.8511145e-03
  2.2237108e-03
 -1.2575466e-03
 -2.6043269e-03
  4.1985145e-04
 -4.6684509e-03
 -1.3359196e-03
 -1.6896345e-05
 -4.7218744e-03
  3.2728456e-04
 -2.3939263e-04
  1.0760252e-03
 -2.0473152e-03
  2.0780140e-03
  8.3857775e-04
  2.9302493e-04
 -1.1958309e-03
 -1.7392323e-03
 -2.8072118e-03
 -2.0704512e-04
 -6.7507254e-04
 -1.7456975e-04
  5.4671136e-03
  1.8754276e-03
 -9.2842331e-04
  2.9713735e-03
  1.0348262e-03
 -2.3834428e-03
  1.6389904e-03
  4.6446905e-03
 -1.0154193e-03
  6.9221569e-04
 -5.8914977e-04
  1.9260974e-03
 -1.4286849e-03
 -1.1222942e-03
  1.5753851e-03
  1.5829952e-02
 -9.3937032e-02
  2.6950150e-04
 -1.3528864e-01
 -6.3226335e-03
 -1.0699153e-04
  1.2699036e-03
  2.7799264e-03
 -1.7237510e-03
  3.4179684e-04
  3.5974974e-04
 -5.4036744e-04
 -6.0089375e-03
  9.4561040e-04
 -1.4546133e-03
 -6.3608116e-03
  5.5275830e-03
 -2.2394634e-03
 -8.3861401e-04
 -3.7722988e-03
 -1.0948649e-03
  1.3044872e-03
  3.5151748e-03
 -2.6336163e-03
  9.7294117e-04
 -2.6273288e-04
 -6.0162094e-04
  7.7092135e-04
  6.7723461e-04
 -2.2761775e-03
 -8.4420515e-04
 -5.2635896e-04
  8.6840335e-04
 -9.0511277e-04
  2.3196056e-04
 -8.9936150e-04
  6.7566929e-04
  1.4252054e-03
  4.2952597e-03
  4.6635158e-03
  8.4523857e-04
  1.7843816e-03
 -3.3380662e-04
 -1.7014347e-03
 -1.6907511e+00
 -4.0867853e-06
 -5.0307703e-01
  8.7094381e-03
 -1.0811103e-03
  4.8308345e-04
 -3.7056974e-03
 -1.4221441e-04
 -3.8122822e-04
 -5.5688224e-03
 -8.8293152e-04
  8.4711437e-04
  1.3746821e-03
  3.9785584e-03
  1.7994142e-03
  9.1170623e-05
 -9.5534656e-04
  1.3500727e-03
 -2.8435740e-04
  6.6647527e-04
 -7.8554935e-05
 -2.6455692e-03
  4.4201508e-02
  1.8260386e-03
  2.8018455e-03
  6.3733920e-04
 -4.8522017e-04
 -1.0036927e-03
  1.6267544e-03
 -7.9718255e-04
 -1.9255984e-03
 -5.7663862e-04
  1.5066855e-03
 -1.7131495e-04
  3.3225422e-03
  1.2995871e-03
 -5.6031211e-03
  1.6335128e-03
 -1.4114362e-04
  1.3570506e-03
  1.8976915e-03
  5.8109844e-03
 -8.3893508e-04
 -2.1786161e-03
 -2.4048201e-04
 -2.7425179e-01
  2.0844345e-03
  2.9132181e-01
  1.1715444e-03
 -4.7448633e-04
 -2.7605123e-04
 -1.7188920e-01
  1.2688426e-05
  1.5278194e-03
  3.1038332e-03
 -2.0292217e-03
  1.1840620e-04
 -8.3527539e-04
  4.7629792e-03
  7.7886365e-02
 -9.6603559e-04
 -1.0028254e-01
  4.7776531e-03
  5.2335332e-03
 -4.6695946e-04
 -4.6798682e-01
 -1.7742028e-03
  9.3196020e-02
 -1.1138179e-03
 -3.0357856e-04
 -3.6611391e-04
 -3.1988686e-03
 -4.0883324e-03
 -8.1406324e-05
 -3.3561611e-03
  8.3455606e-04
 -1.0691790e-03
 -1.0260988e-04
 -1.2293849e-03
  5.0776056e-05
  3.1428144e-04
 -1.4114981e-03
 -1.9435189e-04
  4.8273796e-05
 -5.0709391e-04
  2.8957572e-04
 -8.7135486e-02
  2.5978333e-03
 -2.1506981e-03
 -4.3837732e-04
  2.0962539e-03
  1.1700488e-02
  4.9703680e-03
 -5.1042652e-03
  3.9083869e-03
  3.1260605e-04
  4.8523128e-05
 -1.5186352e-03
 -5.0676012e-05
  1.3791207e-03
  4.2744935e-04
  7.2076067e-04
  5.1771640e-05
  2.8240853e-03
  3.5144028e-04
 -1.8398354e-03
 -8.5387335e-05
 -8.5941242e-04
 -8.3952170e-04
  2.3827271e-03
 -2.2527226e-04
  7.5871962e-05
  1.0550788e-03
  3.7251011e-04
  6.4867089e-04
 -5.1074317e-03
 -1.7363988e-03
  1.3860592e-03
  1.8092266e-03
 -5.4624761e-03
  2.0845961e-03
 -4.0964652e-03
  1.0736823e-03
  2.1224858e-03
  1.1458903e-03
  4.3381704e-05
  7.7272323e-03
  5.6801329e-04
  1.2500867e-03
  5.3807849e-04
 -4.8406346e-04
 -5.0622231e-01
 -3.6367361e-04
 -1.3144243e-02
 -1.6831044e-03
 -4.4543013e-02
 -2.0242319e-03
  3.8526577e-03
  3.6403902e-03
  1.0188352e-03
 -2.7422216e-03
  2.4127364e-03
 -2.2931807e-03
 -6.5217256e-03
  8.1267226e-03
  6.9623687e-03
  1.1878285e-03
  1.7906392e-03
 -5.5118999e-04
  6.3944785e-03
 -1.8331476e-03
  3.5286760e-03
  3.3337991e-03
  3.6397594e-04
 -9.6921707e-03
  1.3471941e-03
  7.3210984e-02
  6.0225499e-04
  8.7662274e-04
  1.0013365e-03
 -4.0690732e-04
  2.0172678e-04
 -3.6967057e-03
  3.2150112e-03
 -1.5958387e-03
 -7.3994452e-04
 -5.1629147e-04
 -2.8873433e-04
 -3.9497437e-04
 -3.8642381e-04
 -4.4482048e-03
 -1.5023823e-03
 -7.0400065e-04
  5.2014174e-04
 -7.0639187e-04
 -2.5973136e-03
  3.7775701e-04
 -1.8520599e-04
  1.8815055e-03
  8.8512432e-04
 -1.8851068e-03
 -3.4113554e-03
  2.6093249e-03
  7.2502694e-04
 -2.0012092e-03
 -8.9562265e-04
 -2.0337937e-04
  1.1934409e-03
  2.6276023e-03
 -1.1637802e-03
  2.5337075e-03
 -2.3695685e-02
  1.0952262e-03
  3.2309634e-03
 -1.4085225e-03
  1.2497460e-03
  1.0044822e-03
 -3.0054114e-04
  8.0752984e-04
 -4.0666369e-04
 -7.0235162e-04
 -1.1528957e-03
 -4.1639060e-03
 -7.5232366e-04
 -1.3199737e-03
 -3.4300974e-04
  8.6272089e-04
 -2.4969187e-03
 -1.0584991e-03
  2.0447414e-04
  1.7974195e-03
 -4.3410104e-04
  4.7820070e-04
  8.4873813e-05
 -3.3593830e-03
  5.2127331e-01
 -3.7399694e-01
  2.6532540e-01
  7.5539225e-01
  2.3005328e-01
 -1.3166463e-01
 -2.0908694e-01
  1.7626337e+00
  4.5132214e-01
 -4.5803186e-01
  3.6393243e-01
  7.1459787e-04
 -7.6405931e-01
  4.1164196e-01
  5.9854034e-02
  8.1002116e-02
  1.4283812e-01
  5.2568160e-02
  1.2757212e-02
 -2.5638372e-01
 -2.6524186e-02
 -1.2323766e+00
  2.9666992e-03
 -1.3900669e-01
  3.4074768e-02
  1.0143565e-01
 -2.7131808e-01
  5.0327343e-01
  2.7058423e-01
  5.1031417e-01
  3.0829787e-02
  9.7053722e-02
  4.3979281e-01
 -4.0060226e-02
 -1.1159766e-02
  1.8452792e-04
  1.2029541e-01
 -1.8700935e-03
  1.6922009e-04
 -3.5040785e-04
  1.1081912e-03
  1.5345494e-02
  2.5107227e-03
 -4.9166377e-03
  1.7827530e-04
  1.6466733e-02
  6.7520909e-02
  1.1479026e-03
 -1.0720605e-03
 -2.4387386e-01
  6.2094624e-03
 -1.2265973e-01
 -3.1986510e-04
 -7.8970304e-04
  1.1318506e-04
  4.6972377e-04
 -2.1619352e-02
  1.1302774e-03
 -6.8849314e-04
 -1.6581926e-03
  2.2107693e-03
 -3.0171669e-03
 -4.2676171e-03
 -2.2501682e-01
 -2.6355382e-02
  3.3231254e-03
 -4.9948394e-02
 -2.4311208e-04
 -1.8035937e-03
 -4.4794781e-03
 -9.5084962e-04
  1.6390640e-01
 -3.2984761e-03
 -2.0377093e-04
 -1.6104286e-03
  9.8587887e-05
  6.8361999e-04
 -2.7125562e-03
  1.5066292e-03
 -3.2712502e-04
 -5.7362774e-03
  3.2286192e-03
 -1.0617670e-04
 -1.2840217e-03
 -6.9495104e-04
 -3.1242889e-04
 -1.1903262e-03
  1.1749119e-02
  1.2701941e-03
  5.4931839e-04
 -4.6435616e-04
 -5.2486476e-03
 -4.1036264e-04
  7.2442077e-04
 -1.8616565e-04
 -1.0025069e-03
  1.7977960e-04
 -7.6599646e-04
  1.6627433e-03
  6.0315547e-04
  6.5866165e-04
  1.8770728e-03
  4.5318422e-03
  8.3463418e-04
  2.5183978e-03
 -5.1265908e-04
  1.5927975e-03
  2.6155353e-04
 -3.1747215e-04
  1.2512688e-03
  2.7646797e-04
  2.5688304e-04
 -2.3332800e-04
 -9.2333525e-05
  1.8895973e-03
 -4.7605319e-04
 -7.3216943e-04
  7.4645242e-04
  1.0953860e-03
 -5.5293425e-04
 -8.1802119e-04
 -1.9205946e-03
 -1.7328969e-03
  4.8835713e-01
  3.6036887e-04
 -1.5976964e-02
  1.1175154e-05
 -2.6593124e-03
  1.1807317e-03
  2.2742175e-04
  6.4366031e-04
  1.7770161e-03
 -2.3585828e-03
 -1.0077535e-01
 -4.2712339e-04
  1.8595654e-04
  1.3116726e-03
  4.6359160e-04
  1.0459151e-03
 -1.6257270e-03
  1.2965456e-01
  1.0016339e-01
 -2.9676681e-04
 -2.0838706e-03
 -1.4881906e-04
  1.2584948e-03
  1.0628557e-03
 -2.3241090e-03
 -7.4224913e-04
 -1.4630464e-03
 -4.7919941e-03
 -1.8171241e-03
 -5.0122611e-02
  2.7708558e-04
  5.3221558e-04
  3.3795505e-04
 -8.0954365e-04
 -9.2518388e-04
  3.4924382e-03
  1.5575141e-03
 -2.6117396e-03
  5.8459083e-04
 -2.1696021e-03
  5.4718641e-04
 -1.7349044e-04
 -3.8948352e-04
 -2.9286387e-04
 -5.4533803e-04
  4.7918057e-04
  1.1475693e-04
 -9.8620646e-04
  4.4546847e-05
  9.8640937e-04
 -4.0752080e-04
 -1.1392420e-03
 -7.3558174e-04
 -1.7421206e-02
  3.0738747e-02
  2.3123685e-03
 -9.2739007e-04
 -3.8566987e-04
 -1.1520425e+00
  8.6139840e-01
 -6.6636368e-03
 -6.1780369e-01
 -1.1128645e-01
 -1.3314493e-02
 -8.5260224e-04
  2.8230958e-03
 -3.6672174e-03
  4.6984272e-04
  1.4321029e-03
 -8.8572223e-04
 -4.6443767e-03
 -4.4293222e-03
  3.6945325e-04
 -9.5319629e-01
  1.1635319e-03
 -1.2127372e-01
 -1.0173313e-03
 -1.0535598e-03
  2.2170068e-01
  1.2971658e-02
  1.3992409e-01
 -1.0019670e-03
  2.6913607e-04
 -4.3798581e-04
 -1.5562348e-03
 -2.6944107e-03
 -4.0503670e-04
  7.3070929e-04
  5.6864496e-04
 -1.4022265e-04
 -1.9951006e-03
 -7.1763468e-04
  2.5750855e-03
  9.9993777e-06
  4.0745925e-02
 -2.7571752e-04
  6.6306600e-03
  5.6224861e-03
 -1.7782497e-03
  1.2752521e-04
 -3.7112331e-04
 -1.9121279e-03
  6.1967247e-04
  3.9084731e-03
 -1.6551685e-01
  1.9429000e-03
  2.0702492e-04
  6.5584085e-04
 -4.6079117e-04
  2.1432859e-03
  8.8725977e-02
  3.9398254e-04
  4.9266876e-03
  8.4454328e-02
  3.2246162e-04
  7.8813033e-03
  8.6778856e-04
  6.1569258e-04
  7.4672222e-04
 -5.8066507e-06
  3.1890074e-04
  1.0774712e-03
 -1.0125021e-03
 -2.6615574e-03
 -5.4451666e-05
  3.3405062e-04
  1.2727850e-03
  4.0412153e-04
 -9.8100689e-05
 -1.1116009e-03
 -1.1252280e-03
 -9.8650903e-04
  6.5436262e-01
  4.6884542e-04
 -2.3229995e-03
 -1.0002396e-03
  1.1658655e-04
 -4.0238834e-04
 -1.3168819e-03
  8.8207331e-04
  2.4599091e-03
 -6.8578303e-02
  8.9048070e-01
  7.8888392e-01
  2.3586941e-03
  4.8581189e-01
  1.2222520e+00
  5.4384696e-01
 -2.8874868e-01
  7.0684093e-01
 -6.4762506e-05
 -1.7030636e-03
  2.1365529e-04
  2.4627140e-04
  3.3057607e-03
 -4.9302005e-04
 -2.3598199e-04
  8.0100792e-03
  4.4525412e-04
 -5.7180315e-02
  3.0275917e-04
 -6.2503201e-01
 -3.1369439e-04
 -7.4797028e-01
 -1.2724140e-03
  1.1411053e-03
  5.2116066e-01
 -2.7742404e-01
 -3.4893441e-01
 -1.8798018e-02
 -7.9520077e-01
 -1.0891230e-03
 -5.5627394e-03
 -1.0836504e-03
 -1.3466747e-04
 -6.9043962e-03
 -3.5656055e-03
 -7.6468335e-04
 -1.1750936e-03
 -1.9400507e-03
 -1.3438202e-03
  3.7433021e-02
  2.0096349e-03
 -1.9437762e-03
  4.7982964e-03
 -3.1335599e-04
  3.1301111e-05
 -3.5510134e-04
 -2.6021650e-04
  3.4262463e-03
  2.4929296e-04
  7.2384631e-04
 -5.0365838e-04
  5.6280044e-04
  8.6718537e-03
 -1.2170541e-03
 -3.4551201e-03
 -3.7049255e-04
 -3.6426954e-04
  1.1582492e-03
  3.4317905e-03
 -1.8599014e-03
 -3.4980406e-04
 -1.9007120e-03
  5.6733651e-04
 -2.2770483e-03
 -3.9461709e-05
  4.6524723e-04
  2.9507931e-03
  1.9597524e-04
 -3.6277007e-03
 -2.6292404e-05
  1.0369072e-03
 -5.3316029e-03
  9.5852418e-04
 -2.5579429e-03
 -2.3522973e-04
  4.6957569e-04
 -1.3670265e-03
 -6.3877489e-04
 -2.8245512e-04
  6.1267172e-05
 -1.2070790e-04
 -1.2413378e-01
 -6.2468136e-04
 -9.9726580e-04
 -1.2486160e-03
  4.8397039e-04
  3.8274801e-03
 -4.2069975e-02
 -2.8241558e-03
  1.3384668e-03
 -5.1193521e-04
 -3.2786111e-04
  7.8884169e-04
 -3.5860646e-04
 -4.8805077e-02
 -6.6235964e-03
  3.9173829e-04
 -3.2345629e-03
  8.1632909e-04
  1.5393975e-03
 -5.5321944e-03
 -2.6529322e-03
 -9.1447087e-05
  1.1993193e-02
 -8.6777745e-06
  2.0405911e-03
  3.0370118e-04
 -6.4432551e-03
  5.4337608e-05
 -3.0758504e-03
  9.8925736e-04
 -3.9131120e-03
 -1.3462879e-02
  3.0379691e-03
 -7.0500432e-04
 -1.1750790e-03
 -5.1647858e-03
  2.6649770e-03
 -1.6350870e-03
  6.2396552e-04
  6.8019365e-04
 -2.4084060e-03
  4.5190047e-04
 -1.6690770e-03
  3.5537931e-03
  9.4781164e-05
  2.9192431e-04
  8.5637637e-04
 -5.0029461e-04
 -3.4322526e-04
  3.2058114e-04
 -1.8852840e-03
 -1.2521583e-04
 -1.4377786e-03
 -1.8453298e-03
 -2.1663602e-02
 -5.5134250e-03
  1.2213309e-01
  3.1715860e-03
 -1.2105592e-03
 -2.5232235e-01
  2.7828179e-03
 -2.8646751e-03
 -3.1182996e-04
 -1.2212562e-03
 -6.9509313e-04
  3.8588780e-04
 -9.6890272e-04
 -2.4526301e-03
  8.3727641e-03
 -1.1127262e-04
 -4.5914052e-04
 -9.2377985e-04
  8.8134564e-02
  3.0938361e-03
 -4.0344559e-05
  7.9582166e-03
  1.1570810e-03
 -1.6083257e-05
 -1.6056158e-04
 -3.4356481e-04
 -3.4255441e-04
 -5.8158190e-04
  7.8927830e-04
 -2.1241887e-03
 -1.4883599e-03
  1.5133346e-03
  5.2299136e-03
 -1.0853086e-04
  9.7359356e-04
  4.5438954e-03
  5.2149134e-04
  2.6320945e-04
  8.7379827e-04
  3.0172407e-04
  1.5053892e-01
  5.4757704e-05
 -1.3025125e-04
 -2.6170519e-01
  3.5396659e-01
  1.5425424e-01
 -2.6866528e-01
 -9.0627931e-03
 -8.3429128e-01
  4.6823490e-03
  4.2074486e-03
  1.5107978e-03
 -1.2961884e-03
  7.5951248e-05
 -2.0982587e-04
 -1.2201604e-02
 -2.6507047e-04
  7.6911813e-03
  1.5274670e-03
 -1.0272405e-01
 -6.6833026e-03
 -1.7526168e-02
 -2.1966793e-04
 -2.9063254e-04
  3.9391275e-02
  2.4595635e-02
 -6.2775657e-02
 -1.2853558e-01
 -1.1466351e-01
 -5.3534942e-04
  3.3779911e-04
  5.3568571e-03
 -7.7874236e-02
 -1.0243221e-02
 -1.8693793e-01
 -2.5842728e-03
 -1.5338484e-04
 -7.8383187e-04
 -1.5408585e-03
 -5.2286545e-03
  3.0250435e-03
 -2.3436632e-02
  1.5486665e-03
 -1.4351052e-04
  5.8749248e-03
 -3.2220942e-01
  6.4584598e-02
 -2.2053809e-03
  5.0534420e-02
 -1.0336086e-01
  4.0349912e-02
 -4.1269045e-02
  5.0693449e-02
  8.9815054e-03
  1.8417472e-01
 -8.0999611e-03
 -2.5136533e-01
 -3.9183255e-04
  1.3592398e-03
  4.5672124e-03
 -4.9402225e-01
  2.5595209e-01
  2.0061332e-01
 -5.0795317e-04
  8.0131161e-01
 -6.5760169e-04
  5.0900888e-01
 -5.3372385e-04
  1.5471707e-01
 -3.8970999e-02
 -3.7091750e-01
  7.9191512e-01
  4.1287255e-02
  1.6074590e-04
  1.2278715e-03
  3.6966421e-03
 -4.0882044e-03
 -7.1627815e-04
 -3.1498440e-02
  3.7900198e-03
  8.3714500e-03
  7.1281862e-01
 -6.3420401e-04
 -2.6277801e-02
 -1.7377444e-02
  2.3078944e-03
 -2.7897286e-03
 -1.1716849e-02
  3.0115892e-03
  1.1425973e-03
 -3.0750071e-04
 -7.7299401e-04
  5.9529004e-04
 -6.7057216e-04
 -9.7552541e-04
 -1.0350075e-03
  1.9106457e-03
  3.1583691e-03
  2.8389604e-03
 -9.6478994e-05
 -3.1529388e-03
  4.3325560e-04
 -1.2396715e-03
 -4.7769907e-04
 -5.5247741e-03
 -1.6464371e-03
  9.1055455e-04
  1.2923721e-03
  2.6910556e-03
  5.0462043e-04
 -3.6139751e-04
  1.0615258e-04
  7.0052245e-04
 -1.7628158e-03
 -2.7141653e-03
  1.9214773e-03
  7.7992195e-04
 -1.9359207e-03
  4.0122334e-04
 -1.4199915e-03
 -3.1934137e-04
  1.7781698e-05
 -2.2148673e-04
  1.2391943e-03
  1.7542642e-04
 -1.0279131e-03
 -1.1545240e-03
 -6.6003442e-04
  1.0295752e-03
 -3.2346391e-03
  3.1243442e-05
  5.1548379e-04
  3.9060199e-01
 -3.6309347e-01
 -3.9152470e-03
 -1.0329947e-02
  4.5043567e-01
  4.8664880e-01
  1.0888443e-01
  1.7649342e-01
  2.0850368e-01
  1.4539099e-01
  1.5323304e-01
  2.7450285e-04
 -8.2314789e-04
 -8.0394832e-04
  6.2288395e-03
  2.2515699e-03
 -4.0982496e-03
  7.8220828e-04
  1.0173960e-01
  4.8541818e-02
 -7.7063625e-04
  2.0939482e-03
  1.4008682e+00
 -1.3609062e-04
  1.4002711e-05
  4.7688052e-05
  1.8440895e-01
  4.7200251e-01
  1.2712185e-03
  8.3833672e-02
 -3.9334353e-03
 -1.2917287e-03
  4.3630478e-04
  1.1173885e-03
  3.9327014e-04
  1.2131435e-03
  2.0512928e-01
  2.4475134e-04
 -2.0266720e-04
 -2.4043489e-04
 -2.1495046e-03
 -5.4783042e-04
 -1.6074374e-04
  9.7649813e-01
  3.5000611e-03
  9.7216386e-04
 -2.9170816e-03
  2.6290296e-03
 -9.1406971e-04
 -2.6745244e-04
 -7.3604602e-01
  8.6264900e-04
 -1.0463371e-02
 -2.3053447e-04
 -3.4581420e-03
 -2.9759869e-04
  1.5716024e-03
  1.1813202e-03
 -3.9291405e-03
  4.7366205e-03
  6.2300649e-05
 -2.2837985e-04
  3.6651437e-04
 -9.1561640e-04
  3.0968634e-03
 -1.7101171e-05
  5.7186250e-04
  2.9511170e-03
  1.9735112e-03
 -1.0729466e-03
  1.4846210e-03
  2.8326028e-04
 -1.0471090e-03
 -8.9850731e-04
  6.2136957e-04
  6.2250852e-05
 -5.7579437e-04
 -1.0759475e-03
 -9.5080480e-04
 -1.5093393e-03
  1.3533693e-03
 -1.8726458e-04
  5.4479518e-05
  1.3034759e-03
 -7.9682970e-04
 -2.3091200e-03
 -1.5461938e-04
 -1.3639152e-03
  1.3413109e-02
  1.1867703e-01
 -2.1810491e-01
  3.0402455e-01
 -1.0222228e-01
 -6.1269648e-02
  4.6077517e-01
  4.2784435e-01
 -1.6357090e-01
  5.3209776e-01
  6.0549080e-01
 -3.9126452e-02
  1.2865296e-01
  7.8567818e-02
  6.0171064e-02
  6.8740070e-01
  3.5099411e-01
  3.2289410e-01
  2.2460252e-01
  1.1384067e-02
 -5.4496706e-01
 -4.6493117e-02
  2.6564142e-01
  1.7929317e-01
  1.9157949e-01
  1.4219822e-02
 -4.8520304e-02
  6.1589259e-01
  6.1147787e-02
  1.2590807e-02
  1.6116238e-01
  1.7864837e-01
 -2.7200663e-01
 -2.9025948e-01
 -1.1330131e-01
  3.1721120e-04
  6.0919368e-01
 -1.1392648e-02
  1.3077873e-03
 -3.6197018e-02
 -2.8363918e-03
 -1.0361905e-03
 -1.5588455e-03
 -2.3694269e-03
  1.5128329e-01
 -1.6619948e-01
  4.5487047e-03
 -1.6179435e-03
 -8.5977837e-04
 -3.6917517e-01
  3.7404764e-04
 -8.3776063e-04
 -4.2817459e-04
  9.4483310e-04
 -8.6083892e-04
  5.9743627e-04
  9.1922685e-04
 -3.3850136e-04
  2.4339429e-03
 -1.1414187e-03
 -2.0253926e-03
 -5.7635608e-04
 -7.5568719e-04
 -2.3991952e-04
  1.5037048e-03
 -9.2913629e-05
 -7.2972119e-01
 -4.3357577e-04
 -1.4830939e-03
 -7.4323948e-04
 -7.4705249e-04
  8.0614467e-04
 -3.8484819e-04
  2.0473327e-03
  2.5191872e-05
  1.8517338e-04
 -3.0630163e-03
 -2.7022320e-03
 -4.9553844e-03
 -7.6634914e-04
 -2.2322754e-04
 -1.5189778e-03
  2.0740002e-03
 -3.8958678e-03
  1.2156490e-03
  2.2408706e-03
 -2.4740380e-04
  2.6367921e-03
 -1.9056670e-02
 -3.3480730e-02
  1.4558177e-02
 -2.1330498e-01
  6.9333911e-02
  2.0108223e-01
  1.6883080e-01
  4.8409332e-02
 -5.7568389e-01
  2.4851400e-01
  4.7595397e-01
 -2.3855349e-01
 -1.1995601e-02
  5.6570265e-03
  4.2388842e-02
  1.8724857e-02
 -2.1615313e-01
  2.5932389e-01
  2.7085552e-01
 -7.0481129e-02
  2.7901769e-01
 -6.1260988e-03
  2.6366848e-01
  2.8243416e-03
  2.0523189e-01
  3.7492025e-01
 -1.0893787e-01
 -1.2534787e-01
  1.5165897e-01
  2.3468386e-01
  6.1426491e-02
  1.2974004e-01
  9.6130569e-04
 -9.8724164e-02
 -9.8784210e-04
 -2.0670245e-04
  2.9487389e-01
  1.0020394e-03
 -1.6390847e-03
 -1.2376923e-02
 -8.8107318e-04
 -5.1649410e-02
  3.2857917e-03
 -5.1992363e-04
  4.8919726e-05
 -1.8463549e-03
  1.3344626e-04
  4.6877848e-04
  2.4219975e-04
 -1.9755005e-03
 -4.9756905e-03
 -1.0520187e-03
  5.1043727e-03
 -1.1303982e-03
 -1.2869992e-04
  1.8746033e-04
  1.5853388e-03
  2.2099302e-03
  6.5898690e-03
  1.8805760e-05
  1.1397564e-03
 -3.2379999e-04
 -5.5862748e-04
  2.8281478e-04
  5.3524709e-04
  8.9679402e-04
  7.4207247e-04
 -7.5740874e-04
 -5.8262111e-03
  9.7980921e-04
  8.5749300e-05
  3.5476629e-03
 -6.8592522e-03
  6.7021622e-04
 -1.6235956e-03
 -3.8300536e-03
  1.4207453e-03
 -1.3839247e-03
  1.5629863e-05
 -5.2096776e-04
 -1.0303381e-03
 -5.2508316e-04
  5.5692031e-04
 -3.8788884e-04
  1.4471159e-03
  3.5961482e-03
  3.8985803e-04
  1.4521977e-03
  1.5042225e-01
 -4.6081855e-03
  3.6780667e-03
  1.1766913e-02
 -3.2017656e-02
 -6.7038095e-01
 -5.6013072e-01
  2.3688283e-03
  2.0831023e-01
 -3.3746198e-02
  5.3904881e-03
  1.0727509e-03
 -3.3095367e-03
 -7.7416329e-04
  4.6816090e-04
  4.6938143e-04
 -1.1848409e-03
  4.2724464e-02
 -3.6002672e-04
 -2.2919444e-04
 -8.7452956e-02
 -5.0312538e-02
 -1.6821559e-01
  2.1224960e-03
  6.1442625e-02
  1.4498792e-02
  5.6843877e-02
 -9.6285969e-02
 -9.3838567e-04
 -1.3104334e-01
  8.9498505e-04
  6.9025665e-04
 -2.0110039e-03
 -3.2374614e-01
 -2.5514486e-01
 -1.3408938e-02
 -4.1260928e-02
 -3.9129639e-03
  2.6636228e-03
 -1.9445227e-03
  1.9035267e-03
 -1.5478863e-02
  1.9760719e-03
  5.3142067e-03
  3.0347717e-03
  1.5692959e-03
  3.7829718e-01
  2.6467298e-03
  4.1662459e-03
  4.6854955e-04
  6.9575049e-02
  3.0281662e-03
 -3.8589945e-01
  3.9764736e-03
  2.1883880e-03
  2.5224620e-03
  1.5362688e-02
  3.1490230e-03
  5.1173223e-03
  1.0382446e-03
 -5.0073499e-03
  9.2067504e-03
  2.2816409e-03
 -1.3189819e-03
  1.1967854e-02
  4.7150874e-04
  1.1346620e-02
 -1.1134407e-03
  2.4388889e-02
  5.6881050e-04
 -5.1206083e-04
 -5.7034981e-02
 -4.7685066e-04
  4.2835861e-03
 -5.0233968e-04
  1.9101496e-04
 -3.1025716e-04
 -3.7031636e-02
 -2.9539980e-03
  6.0165609e-04
  1.4042377e-02
  1.5904899e-03
 -6.1612651e-03
 -1.0827164e-03
 -1.3780633e-03
  5.0266357e-03
 -3.8289456e-03
 -1.8741199e-03
  8.2435436e-04
  2.7892236e-03
  4.0615967e-05
 -3.1397433e-03
 -1.3753632e-03
  1.2716179e-01
 -4.5709265e-03
 -1.4867854e-03
 -1.6517409e-03
  1.8867961e-04
 -2.2396999e-03
  1.3646048e-03
  6.5624376e-04
 -4.7882777e-04
  1.3417285e-03
  2.5526255e-03
 -5.8475824e-05
 -9.9279196e-04
 -1.4057430e-03
  1.2714124e-03
  1.7010468e-03
 -6.6138338e-04
  2.0791916e-03
 -1.4169153e-03
  2.4755509e-04
 -1.2008182e-03
  2.6126003e-01
  5.4110953e-04
 -5.8682298e-04
 -5.0412817e-04
 -2.4332171e-03
  1.3381942e-03
  1.9707275e-04
  4.5430544e-04
  1.4815659e-03
 -6.8756688e-04
  1.8017896e-03
 -1.9803755e-03
 -1.9065762e-03
  3.0973929e-04
  7.2370499e-04
  2.6157906e-03
 -1.0760063e-03
  2.1191235e-03
  2.6481305e-03
  2.0342678e-04
  1.7206407e-03
  4.0441006e-03
 -2.7664297e-04
 -1.0448083e-02
  5.2575823e-02
  2.4866005e-03
 -8.7471910e-02
  1.5519006e-05
 -2.4103053e-04
  2.9878998e-03
 -7.7827281e-05
 -1.0208637e-03
 -4.5134383e-04
  8.5522153e-04
  1.0412559e-03
  7.7882025e-04
  1.5396549e-04
 -4.8244437e-03
  1.1801028e-03
  1.9545865e-04
  2.6747703e-03
 -8.8938844e-04
  7.3256074e-03
  1.6656227e-03
 -5.4755034e-03
 -4.6742993e-04
  1.9432806e-03
  2.3810794e-03
  3.6293063e-03
 -5.9713778e-04
  2.0604781e-04
 -9.4787648e-04
  1.5645117e-02
 -2.0002995e-03
  2.7939640e-03
 -5.9699180e-04
  2.5803973e-03
  6.0386085e-03
  4.9412437e-04
  5.0617196e-04
  1.1273363e-03
 -4.7869408e-03
  5.5808463e-04
  1.7783605e-01
 -1.5969021e-04
 -1.0739820e-04
 -1.4316908e-03
 -9.2223006e-01
 -1.1280710e-01
 -2.9681963e-03
 -5.1084834e-01
  1.1978120e-03
  1.9855500e-04
 -6.9878501e-04
  2.9519873e-03
 -2.7090344e-03
  5.5134813e-03
 -7.7190378e-04
 -1.3683102e-03
 -1.2689912e-03
 -9.0532436e-04
  3.9168805e-02
  1.5135184e-03
 -1.3892131e-03
  2.0501561e-02
 -1.5282317e-03
  7.8427943e-04
 -2.0091072e-01
  1.8080912e-04
  5.4392744e-02
  7.0743859e-03
  4.5791607e-02
 -1.2204581e-03
 -3.4564699e-05
 -1.0163998e-03
  1.3073003e-03
  3.2102421e-01
 -9.2748069e-04
  3.7017653e-03
  1.3244650e-03
  9.5907785e-04
  2.1195151e-03
 -5.6769997e-03
  1.2194746e-03
 -2.0624916e-03
 -2.4664840e-03
  2.5192031e-01
 -1.5006523e+00
  5.8300322e-01
  6.9128770e-01
 -1.0370767e+00
  8.1892121e-01
  1.6358256e+00
 -5.7478338e-01
 -3.0087426e+00
  6.6286236e-01
 -1.7927682e-01
 -5.8852363e-01
 -1.8521862e-02
 -1.1990790e+00
 -1.9827876e-03
 -5.1091343e-02
 -4.0654790e-01
 -4.6341950e-01
 -2.1952224e-01
  2.6517853e-01
  1.4807564e+00
  2.7155265e-01
  5.4367757e-01
 -9.2057295e-02
 -4.1200700e-01
 -5.6187805e-02
 -4.3386805e-01
  2.9853615e-03
  1.2254000e-01
  3.8396131e-02
 -1.8704423e-01
 -1.2569545e-01
  1.3627659e-01
  2.2004559e-04
  4.1395238e-01
 -2.3483115e-03
 -6.9108605e-02
  8.3325268e-04
 -5.3395546e-04
  3.7356297e-04
 -1.0355973e-01
 -3.2479530e-03
  2.0120847e-03
 -2.7952381e-05
  1.2489150e-01
  1.4106566e-04
 -1.0063977e-03
 -9.4080926e-04
  1.0834337e-05
  5.3111091e-04
  2.9028100e-01
 -2.0439003e-03
 -3.0218314e-02
 -5.2487565e-04
 -6.1232463e-04
 -1.2738190e-03
 -1.3889063e-03
 -1.4755763e-03
  2.6247415e-03
 -1.2568695e-03
 -4.5431346e-02
  3.5470836e-03
 -1.2891664e-04
 -5.1072959e-05
  4.2187646e-02
 -2.1867879e-04
  1.5067416e-02
  1.3236777e+00
  1.3974695e-03
 -7.9566689e-04
 -4.4612433e-03
 -3.5229255e-02
  8.1865501e-04
 -2.1814408e-04
 -2.4037261e-03
  2.4218855e-03
  1.1280591e-03
 -1.7965499e-03
  1.4639065e-03
  6.8056383e-05
  7.3542388e-04
 -2.1985504e-03
 -1.1108551e-03
 -6.3693044e-03
  1.3745120e-03
  1.3497839e-03
  7.4743829e-04
 -1.0988524e-03
 -3.6466172e-01
  3.8267514e-01
 -1.3528886e-01
 -1.8362042e-01
 -6.0800510e-03
  1.0304638e-01
 -1.4361042e-01
  1.4225106e-01
  1.7101847e-01
 -6.7083710e-01
 -4.2615116e-01
  2.8785144e-03
  2.5984898e-01
 -1.6859053e-01
 -3.1162763e-03
 -3.0601391e-01
 -2.1125829e-01
 -4.3849182e-01
 -4.5386258e-01
 -6.5790734e-04
 -2.1240483e-01
  1.3332503e-01
 -2.5184438e-01
 -3.9881632e-01
 -6.3581854e-02
 -6.6768192e-02
 -1.5973088e-01
  6.4963365e-01
 -6.7911439e-02
 -2.0718941e-01
 -6.4499723e-03
 -5.5237629e-02
 -1.4961855e-03
 -1.8725535e-02
  2.1122743e-01
  6.3005555e-04
 -9.1029093e-02
  2.0937009e-02
  4.8673389e-04
  2.7686723e-02
  2.8702151e-03
 -1.7506991e-01
 -1.1242751e-03
  1.6830279e-01
  1.3376011e-03
 -9.4222951e-01
  3.8027048e-01
 -7.7377953e-02
  3.7962910e-02
  6.7229253e-01
  8.2330756e-02
  1.7802957e-01
 -3.6278546e-01
 -1.8562871e-01
  4.4242978e-01
  6.4907305e-02
 -1.4606219e-03
  1.0030489e+00
  1.2377955e-01
  6.4880694e-03
  4.4130248e-01
  3.8843611e-01
  4.7331601e-01
 -5.2534944e-01
 -6.2511986e-01
  5.4343802e-01
 -2.4134903e-01
  2.9328787e-03
  9.7089715e-02
 -2.8897822e-01
 -2.1616928e-01
  7.7701294e-01
  7.3834687e-01
  9.5961116e-02
  2.3197478e-01
  3.0505279e-01
  8.5008673e-02
 -1.5322255e-01
  1.3991368e-03
 -4.0135618e-02
  4.8793322e-01
 -2.5832837e-02
 -6.4306706e-04
 -5.6640886e-02
  8.7673636e-04
  2.0584005e-01
 -7.1155874e-04
 -3.0310652e-03
 -1.0021079e-01
  5.8092631e-02
 -2.1698825e-02
  7.8393612e-04
 -2.6603568e-02
 -5.2687172e-03
  8.3790929e-04
 -7.1176426e-03
  3.7464646e-01
 -3.0960902e-03
 -2.4113787e-02
 -4.0096149e-04
  3.9848927e-03
 -2.4625172e-03
 -2.1122377e-03
 -4.3462473e-03
  1.1097251e-02
 -5.8092871e-03
 -5.0359331e-03
 -5.3877351e-03
 -2.0273260e-04
  6.6960640e-03
 -1.2420826e-01
 -6.0903118e-04
 -2.2353064e-02
 -5.5401165e-02
  1.9287620e-02
  3.9907643e-01
 -2.9730280e-03
 -1.5336920e-03
 -5.8393378e-04
 -4.8061542e-04
 -1.3813296e-03
  3.4320113e-01
  1.1856828e-03
  1.2343196e-03
 -1.8725550e-04
  3.2011969e-03
 -4.6367207e-04
  2.8301601e-03
  8.8590558e-04
  9.5640746e-05
  1.3308781e-03
  3.5251530e-03
 -4.5526950e-03
  4.7286967e-04
 -8.4917658e-05
 -2.9871319e-04
  1.3975315e-03
 -1.2276868e-03
 -1.9924019e-03
  1.9576550e-03
  1.7513125e-03
 -1.7158544e-03
 -4.6576318e-04
  1.0512529e-03
  1.2068590e-03
  2.2811415e-03
  1.8240802e-03
  1.3656452e-03
 -2.1857978e-03
  1.4557067e-04
 -3.1971245e-04
  5.7004509e-06
 -7.8442629e-04
 -2.0900574e-03
 -2.8712969e-04
 -4.6371142e-03
 -3.8442379e-03
  8.4527896e-04
  2.3798058e-03
 -6.4242433e-04
 -1.4168618e-06
 -4.7872029e-04
  1.1175288e-03
  6.9009379e-04
 -2.4836923e-03
  5.4837117e-05
 -8.8463910e-04
  6.8188463e-03
  4.2838941e-04
 -2.5693339e-03
 -9.5554278e-04
  1.9593723e-03
 -1.2998242e-04
 -3.8892194e-04
  4.2324606e-03
 -2.4715678e-03
  3.0375909e-04
 -1.7078037e-04
  2.6393196e-04
  6.4527360e-04
 -1.9704336e-03
  5.7153840e-05
  6.1713089e-04
 -1.7160075e-03
  4.9615591e-03
 -6.4516580e-04
 -8.4326993e-04
 -3.0073859e-03
 -2.8607473e-03
  5.6942116e-04
  1.9494780e-04
 -1.8304127e-03
 -2.9745925e-04
  6.7612488e-04
 -2.8345664e-03
 -1.3965911e-03
 -6.8623736e-04
  1.0743177e-03
 -4.3356051e-03
 -1.0851689e-03
 -1.4250131e-03
 -4.7639705e-04
  5.9522729e-04
 -3.1950162e-03
  1.5361828e-04
  1.0983986e-03
  6.1331311e-04
 -9.8397606e-04
  1.1469329e-03
 -6.8158470e-04
  1.6018061e-04
 -8.5029396e-04
 -2.1139970e-03
 -7.6195563e-04
  1.3715522e-03
  2.8604569e-03
 -1.1315990e-03
  1.0768537e-01
  1.3151648e-03
 -2.5853446e-01
  1.4365486e+00
  9.6856731e-01
  2.3367722e-01
  1.0909127e+00
 -5.2196085e-01
 -4.5447013e-01
 -9.1558196e-02
  3.0319366e-01
 -2.8377930e-02
  8.3274889e-01
  1.6219480e-02
 -3.3869466e-03
  3.6443074e-03
  7.1911192e-03
  5.4284348e-04
  1.4380775e-01
  1.7324129e-01
  2.4695387e-01
  6.6759557e-02
 -1.4672144e-01
  1.0068823e+00
 -2.8226194e-01
  6.8405956e-01
 -2.6404011e-04
  8.5208699e-02
  2.5129601e-01
  1.0776343e+00
 -2.4319632e-02
  2.3241024e-01
  1.8259381e+00
  2.3033496e-03
 -5.4541108e-04
  3.3385609e-04
  3.6944151e-03
  9.5494026e-03
  2.4530273e-03
  6.2042207e-01
 -7.1391102e-04
 -2.3909558e-03
  7.9223979e-04
 -2.6797891e-01
 -6.1324742e-02
  4.8266896e-03
 -2.7245628e-02
  2.6740041e-03
 -2.7006217e-03
 -4.3744571e-04
 -1.3893194e-03
  1.7084479e-03
 -6.8898506e-02
  4.4337101e-03
  2.5257783e-03
 -1.3633270e-03
  1.9875306e-03
  1.4818646e-04
 -3.6712955e-03
 -1.2333348e-03
 -3.6992441e-04
 -1.6976866e-03
 -6.9854019e-04
  7.1478944e-04
 -2.8587444e-04
  8.7687973e-04
  5.4518091e-03
  7.1660895e-03
 -4.7840475e-04
 -1.2122637e-03
  1.1508029e-03
 -8.4079377e-04
  2.8898469e-03
  1.5367016e-03
 -1.7407550e-01
  1.7519599e-03
  5.0510895e-05
  2.6429590e-04
 -5.6308648e-03
  4.8798200e-04
 -1.1733428e-04
 -1.7968173e-03
 -1.7099257e-03
  5.8983127e-04
 -9.1982773e-04
 -1.5062710e-03
  3.0146721e-03
  3.9200779e-04
  8.9282129e-04
 -1.1355716e-03
  9.8602730e-04
 -9.5211848e-04
 -1.0669021e-03
 -1.3659636e-03
  5.7606853e-04
 -4.8437977e-04
  1.4926958e-03
 -2.4596227e-03
 -1.2980405e-03
 -2.2645839e-03
  1.3880727e-04
  1.3291895e-03
 -2.4179932e-04
 -7.2149117e-04
  8.6590304e-04
 -3.6366188e-04
 -7.0029113e-04
  1.8896992e-04
 -1.0591948e-03
 -7.2830706e-05
  6.2690456e-03
 -1.1084657e-03
  1.4709125e-03
  1.6089377e-04
 -3.6679273e-03
 -2.3710546e-03
  3.7158257e-04
  1.1537635e-03
  3.1762107e-03
  4.4217650e-03
 -1.1172995e-03
  1.8230986e-03
  1.0175023e-03
 -3.0489666e-03
 -9.0767379e-04
 -9.7070762e-05
  3.6471529e-04
  3.0077277e-03
 -4.8480002e-04
 -1.2699889e-03
 -8.1249233e-04
  1.6594501e-03
  1.2552184e-03
  1.7767121e-03
  1.8382727e-03
  8.4848535e-01
  1.0216966e-01
 -2.7155599e-01
  1.5593332e+00
 -1.1345843e+00
 -6.1895292e-02
  1.4064875e-01
 -6.8633008e-01
 -1.1692969e-01
  6.3737690e-01
 -6.5413737e-01
 -5.2570589e-02
  1.7987429e-01
 -7.9505724e-01
 -9.3726441e-02
 -9.3138099e-01
 -7.2848357e-02
 -5.7403046e-01
 -6.3143504e-01
 -1.6669412e-01
  7.7971959e-01
 -4.5967606e-01
 -7.3533738e-01
 -3.3700129e-01
 -6.8279779e-01
 -1.8393801e-01
  6.6639251e-01
  7.8603280e-01
 -2.3860895e-04
 -9.6317597e-02
 -1.5463653e-01
 -5.1418418e-01
 -3.2304477e-02
 -7.1583384e-01
  4.0939949e-03
 -7.4203627e-04
  8.5803075e-04
  2.5419024e-04
  7.0365792e-04
  1.2936568e-01
  1.3526060e-03
 -1.5086295e-01
 -9.1152322e-03
 -5.8982712e-03
  5.0588347e-02
 -2.2089174e-02
  4.4181772e-02
 -3.8324209e-04
  4.0235426e-03
 -1.7037167e-01
  1.3903186e-01
  2.8753930e-03
 -1.2755993e-01
  3.4388669e-02
  1.2748715e-01
 -1.5275006e-04
  7.7884668e-04
  2.9713637e-03
  2.6035926e-03
  1.7024647e-02
 -4.7488268e-03
  1.6715154e-01
  6.9252081e-02
 -4.6942784e-03
  6.6039473e-02
 -3.8042907e-03
  1.2205356e-01
  1.5239888e-03
  4.0810473e-02
  1.0309392e-01
  1.2465040e-05
 -6.8977766e-02
  3.7607641e-03
  2.1023105e-01
 -2.2878265e-04
  4.0807715e-03
  4.2408085e-03
 -5.6766458e-03
  2.0764853e-04
  2.4102097e-03
  2.9708343e-02
 -2.1175062e-04
  9.1212994e-04
 -6.0941291e-04
 -4.7902402e-04
  3.7383888e-04
 -9.5564057e-05
  1.0449459e-03
 -1.5491844e-03
  1.6014588e-03
  6.1654660e-05
 -2.0024471e-03
  1.0602890e-03
  4.3518925e-03
  1.3905123e-03
 -5.2337544e-03
  8.0275312e-03
  1.8682132e-03
 -7.0882863e-03
 -1.8440125e-03
 -9.5331913e-04
 -9.6859830e-04
 -2.2071430e-03
  1.2049758e-03
  1.3931437e-03
  3.6704226e-04
  1.1064993e-03
 -7.9097063e-04
 -1.5974960e-03
 -3.8497249e-04
  3.4817287e-03
  2.5193505e-03
 -2.3057811e-04
 -2.7129850e-03
 -8.0574758e-04
 -3.0228719e-01
 -2.1989783e-03
 -1.3230157e-03
 -1.5033451e-03
  2.7836608e-03
 -1.4457941e-03
  9.2331567e-05
  1.9786460e-03
  4.5312876e-03
 -2.7408691e-03
  1.6740917e-03
 -2.0556233e-04
  1.1538083e-03
 -2.3162507e-03
  1.3326864e-03
 -2.2236286e-03
 -1.4579892e-03
  7.2643533e-04
 -2.7190655e-01
  2.1932800e-03
 -2.0692882e-03
  1.1676882e-02
 -1.9779888e-01
  2.0254765e-01
 -2.1379378e-01
 -9.9534333e-02
  1.7202820e-01
  3.2632276e-02
 -1.2554559e-03
  2.7657349e-03
  2.2583983e-03
  4.4747107e-04
 -2.5908009e-04
 -1.1809264e-01
  5.6444430e-03
  3.3188036e-03
  1.3994570e-03
  1.5882495e-01
  5.0252239e-04
  1.6294647e-03
 -7.5865793e-04
  4.0308125e-03
  9.5838225e-03
 -5.0210137e-02
 -4.6876475e-02
 -5.6042930e-04
 -5.9100887e-05
  1.2200030e-03
  7.1519124e-04
  5.6416141e-03
  4.4078883e-03
 -1.0708430e-04
  8.0325175e-04
  1.4055640e-02
 -2.7382562e-01
 -1.2333989e-03
 -4.6149027e-03
 -6.4806186e-04
 -2.3092220e-03
  7.9661928e-04
 -3.7438823e-03
 -2.7750847e-03
 -4.0041364e-04
 -1.3520247e-03
  2.2765954e-03
  3.2577962e-03
 -7.5208046e-04
  5.1723011e-03
 -7.0335600e-04
  1.2711170e-03
 -2.5077960e-03
  4.8920102e-03
  1.9830636e-04
  6.2178755e-05
 -5.7872697e-03
  1.7723608e-03
  5.0559646e-04
  4.0487637e-04
  1.1133407e-03
 -4.9212290e-04
 -1.4477668e-03
 -9.3880459e-04
 -8.8209339e-04
 -2.4286108e-03
  1.4517925e-03
  4.7582541e-02
 -2.0678114e-04
 -2.4065444e-02
  1.1283000e-03
 -2.5084531e-03
 -1.6747165e-04
 -1.4362002e-03
 -4.0908408e-04
  3.8397680e-03
  3.9383019e-03
 -1.3295151e-04
  1.2084276e-03
  7.9509395e-05
 -4.6773511e-03
 -1.5810485e-03
  4.4318792e-04
 -2.8000271e-03
  5.1843151e-03
 -1.0361262e-03
  2.6679337e-03
  5.3535110e-01
 -1.3719895e+00
  2.7339071e-01
  9.6114904e-02
 -1.1461185e+00
  1.0665470e-01
  7.7019477e-01
 -7.1719676e-01
 -8.0950564e-01
  1.1242729e+00
  2.7407739e-01
 -1.1941960e-01
  4.6731008e-04
  5.0521950e-04
  2.4214045e-03
  2.9663704e-02
 -1.4557914e-01
  1.1841695e-01
  4.2345398e-03
 -1.9804104e-01
  9.5026088e-01
 -6.2121010e-01
  5.5168462e-01
 -3.4015826e-03
  6.0858149e-02
 -4.4503799e-01
  1.5439938e-01
 -4.2361274e-01
  7.1146023e-01
  1.0515041e+00
 -3.7780544e-04
  5.7548666e-03
  1.7059998e-01
 -1.1017932e-01
 -1.2203419e-03
  8.7037790e-01
  1.1562687e-01
  6.2264904e-04
  1.5021235e-03
 -5.0116987e-03
  1.2579861e-03
  3.4348857e-01
  2.1799146e-03
 -3.4509916e-04
  6.1510032e-01
 -1.4276472e+00
  1.8982323e-03
  7.3588290e-04
 -7.3715903e-02
  1.4713651e-03
  8.3808135e-04
 -2.3937365e-03
 -9.9625322e-04
  2.7568324e-03
  3.3109352e-01
 -2.3321104e-01
 -2.2687709e-03
  3.0643675e-01
  6.4322805e-01
 -1.2109648e-03
 -2.6038618e+00
 -4.8029941e-04
 -2.7027708e-03
  5.1081252e-01
 -1.9936892e-01
  6.6485566e-01
  2.2016482e-03
 -4.9364111e-01
  1.3024746e-01
  8.1141084e-01
 -2.5938891e-03
  2.3782872e-01
 -4.1313688e-05
 -6.6493645e-02
 -8.1599306e-04
  1.7308593e-03
 -9.6470315e-04
 -1.3104340e-01
  3.5337463e-02
 -1.9783665e-01
 -6.8159834e-02
 -8.1382567e-01
 -4.4770535e-02
 -1.6802322e-03
  2.9452490e-03
  1.8061082e+00
  1.0125800e-03
  1.0534048e-03
 -2.6475170e-01
  1.0033131e-01
 -1.5345308e-03
  1.0188007e-03
  5.0238601e-04
  5.0710547e-01
 -7.2407252e-01
  5.2903575e-01
 -5.2235667e-03
 -4.8907246e-02
 -1.5976092e-01
 -1.3405155e-01
  1.0928404e-01
 -2.2786581e-03
  1.2958737e-01
 -4.2905040e-02
  4.7555697e-01
 -1.3963473e-01
 -5.9815178e-05
 -1.1422521e-01
 -1.0939108e-01
  9.4758019e-02
  1.6987304e-01
  7.6034898e-03
 -1.1039754e-01
  1.4747854e-01
  8.3899307e-01
  2.8019023e-01
 -1.8249325e-02
  1.4055827e-01
  7.9058662e-02
  5.6130701e-01
  4.7616709e-02
  4.6945941e-01
 -2.0892177e-02
  7.4679148e-01
  1.9117993e-01
  8.1854692e-04
  4.9769804e-02
 -5.3363901e-01
 -6.8903214e-01
  1.3131864e-01
 -4.9516746e-01
  1.3692623e+00
 -2.5194427e-01
  1.1610714e-03
 -4.3960426e-02
  2.3447259e-01
  6.8242103e-02
  9.2290379e-03
 -4.7110027e-01
  2.6788211e-01
 -4.6955224e-02
  1.9751221e-01
  5.1532099e-03
  2.9206526e-01
  7.6132789e-02
 -1.4803561e-02
 -1.0810196e-01
  1.4020135e-01
  1.0058408e-02
 -1.8096615e-01
  2.0668788e-01
 -6.0360995e-04
 -5.0414238e-02
 -1.1554083e-01
 -4.0696010e-01
  1.8657191e-01
 -3.1670302e-02
 -3.9504415e-01
 -3.4724894e-01
 -1.9783205e-03
  2.1204266e-01
 -1.5004861e-01
  4.5911811e-02
  9.8161571e-02
 -3.4893844e-01
  1.5460301e-02
  1.9770209e-04
 -1.6492818e-02
 -3.2466781e-01
 -2.9636425e-01
 -3.1584933e-02
 -5.9522349e-01
 -1.9812575e-02
  2.8420916e-01
  3.4039295e-03
 -5.1517144e-02
 -1.9842671e-01
 -5.2693445e-02
 -2.1131903e-01
  2.4188803e-01
  1.1825982e-01
 -1.0107395e-01
  2.7782121e-04
  8.8367509e-03
 -9.0686098e-02
 -1.9758936e-02
 -2.1828890e-05
 -1.0444288e-01
 -5.5838132e-04
  6.2975293e-04
 -3.0541075e-03
 -2.2195438e-03
 -1.3961024e-03
 -5.5045815e-04
 -1.0438225e-03
 -1.2822646e-03
 -6.5707543e-04
 -2.5177968e-03
 -2.5649122e-03
  6.6300959e-04
  1.4195098e-03
 -1.1472530e-03
  4.6578012e-03
 -1.0682070e-03
 -5.9951469e-04
  1.1540883e-03
  3.0553437e-04
  3.3155724e-05
 -7.8544382e-04
  3.3558286e-03
 -1.5566540e-04
  1.1846214e-03
  9.3983952e-04
 -8.2554191e-04
  2.3962320e-03
  1.6559223e-02
  5.0180494e-03
 -2.5636565e-03
 -2.1782457e-03
 -3.6405781e-04
 -8.7791181e-04
  6.8651873e-04
 -2.4100298e-04
  2.5807897e-04
  1.3882034e-04
 -2.3167371e-03
 -1.0458615e-03
 -3.2484690e-03
  2.0352956e-03
  1.3808387e-03
  8.9319772e-04
 -2.0934022e-03
 -3.9884218e-04
  1.1427567e-04
 -3.8310068e-03
  2.0113024e-05
  5.7234487e-05
 -4.6558463e-04
  4.4166958e-03
 -8.2368357e-04
  2.2953453e-03
  1.2592562e-03
  2.9430643e-03
 -1.4912875e-03
  1.0754839e-03
  2.5646724e-03
 -1.0527418e-03
  1.4075035e-03
  1.1102543e-03
  7.2959589e-04
  1.3880168e-04
  1.5806167e-03
  2.4448868e-04
  2.3001172e-03
  2.6442268e-04
 -6.7986466e-04
  6.4949517e-04
 -2.3173643e-03
 -3.6156890e-03
 -3.0772628e-03
  3.3480232e-05
 -3.3913871e-05
 -6.7543227e-04
 -2.0250509e-04
  1.4563587e-03
 -1.4836827e-03
  2.4573528e-06
 -3.0565672e-03
 -8.0253985e-03
  5.9097633e-04
 -4.4676787e-03
  2.0242673e-03
  5.2545185e-04
 -4.0853317e-03
 -5.3183810e-04
  2.8440312e-03
  1.0490846e-03
 -5.8111723e-04
 -6.1602693e-02
 -2.5869492e-03
 -2.7098918e-01
  1.1068630e-03
  1.6569184e-01
 -2.3690481e-02
  8.7624125e-04
  1.4361989e-02
  1.5367798e-02
 -8.9621631e-04
  5.6372378e-02
  1.8895838e-02
 -1.5943515e-01
  2.7449778e-04
 -5.8455323e-04
  1.4014568e-02
 -4.5883108e-04
  8.7439152e-04
  2.8524965e-02
  4.2465306e-03
  1.0042737e-03
  9.2602277e-04
  2.3608764e-03
  4.8416588e-03
  8.4098231e-04
  1.9427879e-03
  2.5329543e-03
 -5.9018221e-02
  2.5197910e-02
  7.7643222e-03
  8.9501683e-03
 -1.3359942e-03
  3.2492371e-03
  1.3981052e-04
 -5.6442348e-03
  1.2344565e-02
 -4.4002519e-03
  6.1153725e-04
 -9.7473286e-04
 -1.8300749e-03
 -3.2103201e-03
  6.1615114e-04
  2.0781616e-03
  3.3707509e-04
  2.1716410e-01
  1.3071593e-04
  5.8637385e-04
  2.1578663e-04
 -1.3234818e-03
 -5.6278339e-04
 -1.2168384e-03
  1.6115830e-04
 -2.9658424e-03
  4.1631367e-03
  1.9324903e-04
 -2.2714050e-03
 -3.8671082e-01
  4.4029360e-03
  4.8829680e-03
  7.5063363e-05
  1.6516424e-03
 -1.4606252e-01
 -4.5424639e-04
 -1.3035355e-03
 -1.8412248e-03
 -5.8456801e-04
  5.3838157e-05
 -2.3355382e-03
  7.4054906e-04
  5.0336611e-04
 -2.2230403e-02
  3.1419217e-03
 -4.3145202e-02
 -9.8401597e-03
 -3.5444188e-03
  3.2784704e-03
 -5.9475112e-03
 -6.6192361e-04
  2.4199630e-03
 -1.2646583e-03
  2.2092499e-05
  1.5214937e-04
 -7.2323284e-03
 -9.7041810e-04
  2.1558022e-03
  9.2007377e-04
  9.2368596e-04
  2.5660609e-04
  1.0989153e-01
 -8.0125045e-04
  1.4311594e-03
 -2.2798893e-03
  2.8250445e-04
 -2.1598581e-04
  5.8534037e-04
  1.2401235e-03
  4.7842186e-04
  3.8855587e-04
 -8.0118154e-04
 -9.1469730e-05
 -2.2513059e-03
  3.0783825e-03
 -1.9971651e-05
  9.0020447e-04
 -9.9682354e-04
 -1.0910444e-03
  1.4611016e-01
  1.7476919e-03
 -2.3176341e-04
 -7.6126773e-04
  1.7493578e-03
  4.7106668e-04
 -4.7941227e-05
 -7.2939652e-03
  4.4182478e-04
  1.0211701e-03
  2.5156473e-03
 -1.7430910e-03
  4.2158938e-03
 -1.6763137e-03
 -6.0062022e-03
  3.9274018e-04
 -2.6286028e-03
 -1.1147690e-04
 -4.0514067e-02
 -2.5801928e-04
 -2.1534387e-03
 -3.2661099e-03
 -1.4865398e-04
  3.7654105e-04
  1.5168159e-03
 -7.6258404e-04
  3.9856462e-03
  9.2808768e-05
 -2.2514598e-03
 -4.4404808e-04
  1.2472858e-01
  1.0172081e-03
  1.2414905e-03
 -1.2199013e-03
  1.4906464e-03
  1.8166432e-03
 -2.5925143e-03
  5.4979412e-04
  2.6011548e-04
  2.8522368e-04
 -1.6896438e-03
  6.7709852e-04
  9.0705627e-04
  1.8291965e-03
 -6.5274077e-04
  3.2179407e-04
  1.4480122e-04
  1.4610279e-03
  2.3317976e-02
 -5.5552181e-04
  6.0599681e-04
  6.3299167e-04
  2.0787204e-04
  8.7286934e-04
  2.0116045e-04
  1.1001515e-03
  1.2178456e-03
  1.2308097e-03
  1.9962906e-03
  1.7932793e-03
 -1.2349217e-03
 -4.2156051e-03
  5.9848011e-04
  1.4640867e-04
  3.4682082e-03
 -1.1526409e-03
 -2.0278027e-04
 -4.8789657e-03
 -3.9785518e-03
 -1.3226629e-05
 -1.3513484e-03
  1.8582451e-03
  4.5870652e-04
  1.7805521e-03
 -6.4070348e-04
  6.4024609e-04
 -1.4580088e-03
 -1.4173812e-03
 -3.6375131e-05
 -6.6948525e-04
 -5.9511509e-05
  5.5112859e-04
 -2.3393314e-03
  3.5099604e-03
  2.7871097e-04
 -1.8591236e-05
  4.1794905e-04
 -2.2274503e-04
 -2.6048254e-03
 -2.4085490e-04
  4.6231016e-04
 -3.0705018e-04
  1.6788866e-03
 -4.6144158e-04
  1.0872529e-03
 -3.2524727e-03
 -8.5738872e-04
 -5.1163300e-04
 -1.4680988e-03
  8.7296090e-04
  1.9140941e-03
  1.6986340e-02
  7.3295651e-04
  8.8847044e-04
  2.9736632e-03
  3.1665729e-03
 -3.6946507e-03
  2.9109968e-03
 -1.1117799e-03
  7.0796523e-04
 -7.0200284e-04
 -9.7699708e-04
  5.7185549e-01
  2.5154331e-01
 -1.8726550e-01
  4.1420501e-01
 -1.4972229e-01
 -3.2190427e-01
 -2.1916299e+00
 -1.3000878e+00
 -1.5007529e-01
  6.4736493e-02
 -1.2931721e+00
  4.5632628e-01
  1.1880849e-01
 -2.6414877e-01
  5.4329816e-02
  1.8094690e-01
 -2.5663477e-01
 -8.7549710e-01
  1.2443196e-03
  3.4933680e-01
 -7.9625562e-02
  5.3189218e-01
  9.2901416e-02
  4.3129852e-01
 -9.1647935e-01
 -1.5676315e-03
 -9.1204728e-04
 -2.0840223e-01
 -3.2507765e-01
  1.1631598e+00
  9.3134379e-01
 -9.0804994e-01
 -3.1804848e-01
 -2.4819302e-03
 -1.4684723e-02
  1.0647508e-01
 -3.3660876e-03
 -4.1839294e-03
  2.8666278e-04
  1.5211282e-03
 -5.3598573e-03
 -1.8531126e-03
  3.5746139e-03
 -8.8951280e-03
  2.3479552e-03
 -9.9787163e-04
  5.1734556e-04
  1.9329367e-03
  3.2674379e-03
 -4.3093762e-04
 -4.4977001e-04
 -3.8340426e-04
  2.6804595e-03
 -3.3932252e-04
 -8.7625376e-06
  7.1000028e-04
  3.9995002e-04
  9.6446124e-04
 -1.2837390e-03
 -3.7636980e-04
  7.1308704e-04
 -1.2639416e-03
 -3.3081626e-04
  2.1360430e-03
 -1.2615504e-03
 -3.8452086e-04
  2.8344351e-03
 -7.5633061e-04
  2.0262529e-04
  3.8764817e-03
  1.4869529e-03
 -3.3962030e-03
 -4.5142911e-04
 -5.2541541e-04
  1.4338215e-03
  4.5881359e-04
  1.7097006e-03
 -4.2814524e-03
 -5.7370467e-03
 -8.2161621e-04
  1.5111074e-03
 -1.7470806e-03
 -8.0532918e-06
  1.3382831e-03
  1.0685095e-03
  4.6880462e-04
 -5.2233143e-03
 -6.0227065e-04
  1.4055566e-03
  1.6851572e-04
 -4.8743980e-03
  1.6127464e-03
  2.3493916e-03
  4.6835386e-04
 -3.7468374e-03
  3.2812324e-03
 -3.7398259e-04
 -2.1583892e-03
 -2.2644713e-04
 -1.5983685e-03
  6.5374939e-04
 -9.6053496e-04
  6.4917817e-04
  6.5710400e-03
 -1.6586474e-03
 -7.5501301e-03
 -7.7275734e-04
  2.4455425e-04
  8.6763344e-04
 -3.2256846e-03
 -1.7471766e-03
  1.1972173e-03
  4.5800742e-04
 -1.7734079e-03
  4.5081976e-01
 -1.4456733e-03
 -3.1550298e-04
  1.6151546e-03
 -7.7893515e-04
  3.9846878e-02
  8.7110437e-02
 -2.5029926e-04
 -4.5021100e-04
  1.1667003e-03
  3.3989764e-04
 -1.3352248e-03
  2.4052389e-04
 -6.1360194e-04
 -1.4784181e-03
  8.8158259e-03
  5.2766956e-04
  5.6427721e-02
 -1.1639987e-03
 -1.7169450e-03
 -4.8171841e-03
 -1.7575775e-03
  2.5187386e-03
 -5.8012072e-04
  1.0450264e-03
  1.0770361e-03
 -1.7661878e-03
 -3.5800322e-04
 -2.6407128e-03
 -1.1445290e-03
  1.4568021e-04
  3.2428964e-03
  1.3437448e-03
  5.3851545e-05
 -1.2497341e-03
  5.9758627e-04
 -3.4085948e-03
 -2.1174965e-05
 -1.3594788e-03
  9.1618346e-04
  9.0046279e-04
  3.3468651e-03
  1.2809641e-03
 -1.3794827e-03
 -8.0854236e-04
  2.7916909e-03
 -2.8069532e-03
  5.4063217e-05
  5.6856906e-04
  2.9646675e-04
  3.4541772e-03
 -1.6386543e-03
  1.7604883e-03
 -4.1340753e-03
 -4.7082562e-02
 -3.6860642e-03
 -1.1927888e-03
 -4.4757570e-03
 -2.1476771e-03
  1.7148182e-03
 -3.0015176e-04
 -6.1627394e-03
  2.3995358e-03
  9.4005774e-04
  2.1244410e-02
  7.7902200e-04
  7.0728689e-02
  1.4858483e-03
 -4.4237438e-01
 -1.7132596e-05
 -6.6369766e-04
  2.7610018e-05
 -2.5222711e-03
  1.9195951e-03
  3.9708748e-04
 -3.7769277e-03
 -1.0158365e-05
  4.6580297e-01
 -2.6531989e-04
  3.0460986e-03
  1.7935593e-04
 -4.5587304e-03
 -1.8460833e-02
 -2.3207488e-04
  1.6088547e-03
 -4.8805429e-03
 -6.7182642e-04
 -5.3119175e-03
  3.6633658e-01
 -8.6838892e-03
  1.1882432e-03
  5.4837554e-03
  1.4459926e-03
 -1.0266787e-03
 -9.9848351e-04
  4.1125710e-03
  3.3219406e-04
  4.9580978e-03
  3.0871823e-03
  1.6586090e-04
  2.4515117e-05
  2.0566671e-03
  3.6783764e-04
 -1.5214132e-04
 -2.4785695e-04
 -3.3789924e-03
  3.3681683e-04
  7.4311625e-05
  1.8185173e-01
 -1.6582526e-03
  2.7678913e-04
 -3.8161783e-03
  4.9722926e-03
  4.3375785e-03
 -2.1303734e-03
 -3.8464935e-04
  1.5631602e-03
  3.9322423e-03
  8.7295967e-04
  1.6087758e-03
 -1.9413962e-03
  1.0503887e-03
 -5.6680525e-04
  1.0034282e-03
  2.0323214e-03
  1.7452666e-03
  1.0463805e-04
 -3.9955263e-04
 -1.8642771e-03
  1.1092447e-03
 -1.6941469e-03
  1.2956975e-03
  1.2491413e-03
  1.4996210e-03
  1.1677056e-03
 -3.0853658e-04
  6.3250507e-03
  7.3615473e-04
 -1.7559878e-04
 -1.6469188e-03
 -9.9877849e-02
  1.5945582e-03
  2.5430668e-04
  1.1638380e-04
  7.9967279e-04
  3.1667850e-03
 -4.5364784e-04
 -2.2487836e-03
 -5.7585922e-04
 -1.2534930e-04
 -1.5841896e-03
  4.2844247e-03
 -1.9575533e-04
 -4.0647234e-03
 -5.5592763e-04
 -1.1848437e-03
  5.1958263e-03
 -7.9180900e-05
 -1.0816385e-03
 -6.4642780e-04
 -1.4268282e-03
  8.6766499e-04
  5.2244763e-04
  1.0397155e-03
 -2.5779316e-03
  7.1539416e-04
  4.6411066e-04
 -1.3762532e-04
 -2.5903434e-03
 -2.6401116e-03
 -1.2060197e-03
  4.5721871e-03
 -6.1296578e-04
 -1.7452125e-03
  9.1748501e-05
 -1.9339819e-03
  1.3674356e-03
  7.0562193e-05
  2.7506147e-04
  8.2088914e-04
  1.8411249e-04
 -1.3473318e-03
  1.0251804e-04
  2.4434752e-03
  8.2073011e-04
  6.9521886e-04
  1.6029039e-03
  2.1753458e-03
  4.9675570e-04
 -6.5209973e-04
  1.0669758e-04
 -1.6156462e-03
 -6.9036603e-04
 -2.6910333e-05
 -8.5746086e-01
 -1.3949244e+00
 -2.1297617e-01
 -9.9741906e-01
 -6.0811496e-01
  2.1019185e-01
 -2.1257092e-01
  1.2617381e+00
  1.1676911e+00
  7.7946997e-01
  5.4725325e-01
 -4.3837938e-01
 -8.4694587e-02
  1.1595042e-01
 -2.0852167e-02
 -5.7783031e-01
 -9.3486762e-01
  7.8815031e-01
 -1.8961772e-01
 -1.4310584e-03
  1.9480693e-01
 -7.1248516e-02
  4.2223777e-03
  8.1381109e-03
  3.7252644e-01
  5.6391388e-02
 -9.9023819e-01
  2.1595576e-01
  8.4974073e-02
 -7.4740601e-01
  3.4512540e-03
  1.1679131e-01
  3.2720074e-02
 -9.4197365e-03
  2.2858423e-01
 -2.4146459e-01
 -3.2928354e-01
  2.7119098e-03
 -5.5688556e-04
 -8.3973969e-04
  1.6345719e-03
  1.8436578e-03
 -7.5359934e-04
 -5.1399763e-04
 -7.4897730e-01
  6.1323488e-01
 -5.9037238e-01
  1.2884134e-02
  5.0005144e-01
 -3.6457408e-02
  4.9525854e-01
 -2.0714343e-04
  2.3664537e-01
  4.7081653e-03
 -1.4242984e-04
  2.5274951e-04
  6.2401795e-01
 -2.6211676e-03
  4.1499636e-03
  2.0417470e-01
  6.8352098e-04
 -1.0236255e-03
 -9.4748160e-04
  6.3479121e-04
 -3.3210721e-03
  5.0538285e-03
 -4.5943782e-03
 -1.7301061e-03
 -6.4894939e-03
 -1.8732336e-03
  2.5922975e-02
 -3.6790723e-03
 -3.2860233e-05
  2.8605321e-01
 -1.2467626e-02
  1.7921862e-04
 -1.5909302e-03
 -6.9357781e-04
  1.0128205e-03
  1.1342379e-03
  2.8942146e-03
 -2.8555503e-03
  7.3420908e-04
  3.7468629e-04
 -1.1408306e-03
  3.5971947e-04
  3.2750920e-03
 -3.9681094e-03
 -3.8208056e-02
 -1.4387286e-01
  5.7958055e-01
 -6.7617550e-02
 -7.2222002e-02
  1.5572812e-01
  6.7992342e-01
  8.0806956e-02
  1.1217458e-01
  5.1216047e-02
  5.4427415e-01
 -4.8452776e-02
 -1.6389215e-01
  5.7943106e-01
 -5.3579289e-02
 -4.1789092e-02
  1.6742710e-02
  4.1381234e-01
 -2.3151954e-01
  1.4375062e-02
  5.2294844e-01
 -1.9550666e-01
  1.2914767e-02
  4.8065417e-02
  1.7314212e-01
  1.8088910e-01
  1.3042718e-01
  5.5708432e-01
  1.6887227e-02
 -6.7856497e-01
  4.9943082e-02
  2.6107454e-01
  1.2605187e-01
 -9.2548656e-04
  1.6424243e-01
 -3.5361138e-03
 -3.2639693e-02
  9.8603681e-02
 -1.4413777e-04
 -5.6044869e-03
  9.1687664e-02
  3.4610601e-04
 -9.7393512e-04
  4.2847749e-02
  6.2566036e-01
 -5.7615448e-02
 -1.2204950e+00
  2.2002152e-01
  1.2060847e+00
  7.1363580e-01
 -2.5454118e+00
  4.3227207e-02
 -4.8090151e-04
 -1.7186661e-01
 -7.3378230e-03
 -4.4283521e-01
 -2.8610072e-01
 -3.4617604e-04
  9.1191411e-01
 -2.7407923e-01
 -1.3533878e-02
  3.9487984e-03
 -5.0119710e-01
 -1.2777096e-03
  4.2107492e-04
 -1.1987683e-02
 -2.8562520e-03
  4.8104869e-04
  1.0543208e-03
 -2.6342063e-03
 -4.1363478e-01
 -4.7126049e-04
 -3.0736208e-03
 -2.7845532e-01
  1.0345582e-02
  5.2253827e-03
 -7.0068040e-03
 -4.0897855e-01
  1.5815441e-03
  1.1372647e-03
 -2.9423600e-01
  1.0595142e-04
 -7.5428246e-04
 -8.4366102e-04
 -9.9383108e-04
  2.9867673e-03
 -2.8715758e-03
 -8.0912141e-05
  1.4720515e-03
  1.3178362e-01
 -1.0675709e+00
 -7.9288729e-06
  1.8203823e-01
 -2.6268186e-04
  1.8441335e-03
  1.0449135e-01
  1.0112654e-03
 -5.1701434e-02
 -2.3950320e-03
 -2.1956176e-03
  3.6375630e-01
 -1.2622122e-04
  2.2506269e-02
  2.1285070e-03
 -9.6810162e-03
  7.8408711e-04
  9.3532191e-04
  8.2521338e-04
  9.9866197e-04
  5.2633779e-03
 -1.1425949e-04
 -8.3794643e-04
  8.6184981e-04
 -2.5387502e-03
  2.8824393e-04
 -6.1976188e-04
 -4.4257249e-04
  4.5394260e-03
 -3.9166776e-03
 -4.6175923e-03
 -1.3451691e-03
  2.1262108e-03
  1.7854397e-03
 -4.0849657e-03
 -1.9765187e-03
 -1.1335879e-03
  1.4762136e-03
 -3.0890442e-03
 -4.2393128e-04
 -2.2344100e-03
  1.1039624e-03
  3.6158797e-04
  5.4355841e-03
 -1.4376852e-01
  6.4414275e-01
 -2.2770537e-01
  1.6230042e-01
 -2.7482998e-02
 -1.4536837e-01
 -4.9759930e-01
 -3.1946666e-04
  3.6044842e-01
  8.8085231e-05
  1.7661223e-04
 -1.2874259e-02
  2.3615402e-03
  1.7557475e-01
 -2.2670643e-01
  2.4644008e-01
  9.6990919e-04
 -4.2428695e-02
 -3.6386799e-03
 -1.0012796e-03
  3.7190008e-03
  7.9726093e-02
  1.7327513e-01
 -2.6015521e-04
  1.8832822e-01
  5.2122930e-03
  3.1693790e-03
  1.4702889e-02
 -2.2065826e-03
 -1.8915866e-01
  2.5091295e-03
  1.5533621e-03
  7.2183419e-04
 -6.9999753e-04
 -1.6820522e-01
 -9.3716690e-03
  3.8722340e-02
 -1.4730911e-03
  1.1623458e-03
  2.1067569e-03
 -1.8913762e-03
 -1.4012092e-03
 -1.6022781e-03
  8.9206643e-02
 -1.0602898e-02
 -2.3053024e-02
 -1.9634216e-01
  3.0969618e-02
 -4.9763054e-01
  3.2579198e-01
  5.9912971e-04
  1.8594569e-01
  1.2159328e-02
  1.6700889e-01
 -1.9491462e-01
  1.4862400e-01
  1.3740827e-01
  2.5943005e-02
  1.0142683e-03
 -1.5401121e-03
  9.5964633e-02
 -4.2849191e-02
  2.2607920e-01
  2.3937510e-01
  2.4520443e-05
  6.9865631e-03
  1.1195235e-02
  1.7408131e-02
  1.2611313e-01
  2.6134193e-01
  2.3005596e-01
  6.7436839e-03
 -1.4049859e-01
  6.3777250e-01
  1.5003800e-01
 -1.2229882e-03
  3.7053833e-06
  9.3144834e-02
 -5.4522287e-02
 -2.5762537e-02
  4.6681226e-03
  1.6512047e-04
 -1.1413486e-03
  2.7019533e-03
  3.9571121e-02
  3.0167952e-02
  8.2988804e-03
 -1.7372823e-03
  1.4053056e-03
  2.6748110e-02
  1.8611683e-03
  1.0822167e-03
 -8.3946297e-03
  2.7542585e-04
  1.4153842e-03
  8.2904653e-04
 -2.7740730e-03
 -3.8012892e-03
 -6.3750427e-04
 -1.8987816e-03
 -9.4035547e-04
  6.8115623e-06
  2.7665109e-03
  9.6914149e-04
 -1.5842640e-03
  3.6581844e-04
  1.3165538e-03
 -3.9027352e-04
 -1.5784042e-04
  8.8436564e-04
 -1.4564382e-03
  1.4663989e-03
 -2.7578613e-03
  1.3875074e-03
  1.1091172e-03
  8.7283360e-04
  7.7433084e-05
 -2.1423807e-04
 -7.9449825e-04
  5.3660013e-05
  1.4918291e-03
 -1.3773775e+00
  1.4975339e-03
 -9.5085532e-04
 -1.9849981e-03
  5.6707952e-04
 -7.0940662e-04
  2.1864313e-03
  1.5020020e-04
 -1.0657195e-03
  4.4048093e-03
  3.8445287e-04
 -5.5854965e-04
 -8.0201350e-02
 -1.1000445e-03
  8.7128108e-05
  1.6745812e-03
  6.9546292e-04
 -2.7418686e-03
 -1.7340581e-03
 -4.5655244e-03
 -1.3973955e-04
  6.4454542e-04
  1.8467525e-03
  2.8662367e-03
  8.2087645e-04
  1.1357266e-04
  5.5171741e-04
 -3.1576672e-01
 -8.3746650e-05
  4.1479617e-03
  7.1719114e-04
  2.3656372e-02
  1.1131044e-03
 -1.9017293e-03
 -4.9953739e-04
  1.2251718e-03
 -1.5706050e-03
 -1.0669024e-03
 -1.7007813e-05
 -2.1334842e-03
  4.9201162e-03
  3.5575919e-03
 -1.1081703e-03
 -5.9447769e-04
  4.4579754e-04
  2.7923794e-03
  1.6518626e-03
  1.6676369e-03
  3.0789088e-05
  7.7237928e-05
 -8.4548874e-04
  7.8020990e-02
 -1.1074504e-01
  1.6777832e-03
 -1.0371511e-03
  7.0727040e-04
  2.4846499e-03
  2.8185645e-04
  7.8442798e-04
 -4.2549003e-04
 -5.9227442e-04
  5.0869538e-03
  4.1581304e-03
  2.4600609e-04
  1.7196640e-03
  2.0463001e-03
  3.0340778e-04
  4.0932337e-04
  6.4556865e-04
  1.6369156e-03
  7.1229844e-04
  1.5473298e-03
 -9.3184807e-04
  1.7816139e-03
 -2.8235221e-04
  1.5321678e-02
  3.6794189e-04
 -4.8912485e-04
 -4.8940172e-03
  5.5789144e-04
  1.8983636e-03
  2.0045560e-04
 -4.7952887e-03
  1.0803193e-04
 -6.1757499e-05
 -1.2634456e-04
 -6.5756135e-04
  3.0897432e-03
  1.4155227e-04
 -1.7272807e-03
  4.7340587e-04
 -4.9316272e-04
  1.3685836e-03
  4.5140111e-04
  1.8241167e-03
  3.4801196e-05
  1.2546885e-04
 -2.9365418e-03
  3.1147407e-05
  4.4700908e-03
  1.3638781e-03
 -2.2231298e-04
 -6.9143332e-04
 -2.3327870e-04
 -3.2845601e-03
  1.4503139e-04
 -1.4141362e-04
  6.0406153e-04
  1.9654501e-03
 -1.1079255e-03
 -1.2626991e-03
 -7.3701330e-04
  1.2628291e-03
 -2.6120152e-04
  8.4339629e-04
 -2.3138935e-03
  7.6584506e-04
  4.9804407e-04
  1.2934535e-03
 -2.4307990e-03
  1.7964540e-03
  7.7842973e-04
  4.5788838e-03
  2.1841843e-05
 -1.6948061e-04
 -1.5301895e-03
  1.1305255e-03
 -3.8073745e-03
  6.2841205e-03
  8.2120125e-04
  6.9387484e-04
  1.2569583e-04
  8.7261392e-04
  2.6443225e-04
 -7.9995757e-03
 -1.2027128e-03
 -2.2851950e-03
 -1.1113321e-03
  3.4310282e-03
 -1.1389550e-03
 -3.8434303e-04
  1.0464247e-04
 -7.8721780e-01
 -5.5147266e-01
 -3.3815214e-01
  7.8216083e-03
  2.8757134e-01
  5.8504790e-01
  2.0280701e-01
 -4.7580269e-01
 -1.7348550e-03
 -1.3182138e-01
 -4.0407320e-03
  2.5273458e-04
 -5.4034716e-01
 -2.3980592e-03
 -1.3804287e-02
 -2.5337306e-01
  3.5554633e-01
  1.1265379e-03
 -2.5054961e-01
  5.4033834e-01
  3.2430899e-01
  7.7116773e-02
  4.9425643e-03
 -6.6335969e-02
 -1.9637248e-03
  1.0966992e-01
  1.6017769e-01
  6.6071823e-03
 -1.7302629e-02
  7.5149350e-04
  1.4767261e-01
  2.3857404e-03
  3.7025852e-04
  3.1784955e-01
  2.7837587e-04
  1.2913275e-01
 -1.4187125e-03
  4.1321561e-02
  3.0379263e-03
  8.6264423e-05
  1.4675135e-04
 -3.3593664e-03
 -1.7732527e-05
  9.8062074e-04
 -5.3073555e-02
 -1.4324889e-01
  4.6398118e-02
  2.1019781e-02
  2.2341594e-01
 -1.8825412e-01
 -2.5120205e-01
 -4.4198024e-01
 -3.6994689e-03
 -1.2420413e-01
 -3.6623004e-01
  5.4268632e-02
 -2.3664805e-01
 -4.0550545e-01
 -2.9574513e-01
  1.1324523e-01
  1.1181701e-01
 -2.8844529e-01
  5.6876902e-02
 -1.8680513e-01
 -4.0764081e-01
  1.8490496e-01
 -1.1721171e-01
 -7.5149480e-03
 -2.6993611e-01
 -2.2189167e-01
 -8.7545445e-04
 -4.7226706e-01
 -4.3038845e-02
  3.8742715e-01
 -1.7026221e-02
 -3.1664330e-01
 -1.7550211e-01
 -3.3912212e-03
 -2.6872247e-01
  3.2181680e-01
  1.1908875e-01
 -3.2481890e-02
  1.4849617e-03
  3.3798690e-03
 -2.3681562e-02
 -4.8214761e-03
 -2.4585037e-03
 -7.0020892e-02
 -8.6220389e-04
 -1.6204275e-03
  1.8134880e-03
  2.8834452e-03
 -2.3062818e-03
  1.5535930e-03
 -2.1176969e-03
  4.4209277e-04
 -9.7842794e-04
 -8.2023779e-04
 -2.4368933e-03
  8.6949719e-04
  1.5041640e-04
 -8.8359858e-04
 -3.4134177e-04
  4.4447258e-03
 -7.5847754e-04
 -9.8781020e-04
  4.2014188e-04
 -5.8007863e-04
  5.4377387e-03
  1.4736764e-03
 -2.9769859e-03
 -4.9981172e-06
  3.9748271e-04
  3.2235822e-04
 -6.2588276e-04
  5.1686751e-05
  2.7967358e-03
 -7.3648803e-04
  9.5378002e-04
 -4.4657331e-04
 -7.4665289e-04
 -1.1036011e-03
 -7.3390722e-04
 -5.4152784e-05
  1.9430944e-03
  2.2452527e-03
 -4.9791066e-04
  1.4583493e-06
 -1.9317161e-04
  3.9815418e-03
 -2.1733474e-03
 -2.3369468e-03
 -2.6310969e-03
 -8.3999475e-03
 -4.5566663e-01
  4.6251807e-04
 -5.6593010e-04
 -1.9051902e-02
  1.8849981e-03
  2.4323000e-03
  3.5655931e-02
 -1.2736276e-03
  1.1360131e-03
 -1.1280099e-03
  2.0528569e-04
 -1.3728617e-03
 -8.1810739e-04
 -1.0453874e-03
 -5.4536940e-04
  1.0162877e-03
 -9.1569554e-03
 -2.2931462e-03
  8.1407558e-04
  2.9167102e-05
 -1.8776658e-03
  3.4265576e-03
  3.8943782e-03
  8.3906646e-04
  3.6526915e-02
  3.6526727e-03
  1.8480287e-03
  2.6770807e-03
 -1.2760150e-04
  3.0330520e-03
  8.0738962e-04
  1.2398361e-03
  6.8683513e-03
  5.2481843e-04
 -4.1952198e-03
  6.6074049e-03
 -3.7384082e-03
  1.8612147e-04
  1.9439110e-03
  4.9467449e-04
  4.3316686e-05
  4.1057906e-04
  8.9771503e-01
  1.0897356e+00
 -1.8652296e+00
 -6.3198493e-03
  1.8533678e+00
  5.4433984e-01
  5.5319601e-01
  1.6487223e+00
  1.0983633e+00
 -7.7273941e-01
 -1.2649818e-03
 -8.3969772e-01
 -5.2944052e-01
 -4.3368698e-04
  5.6902587e-01
 -4.6175724e-01
 -8.5463071e-01
  1.0096334e-02
 -4.3166168e-02
  7.5507331e-01
 -7.6111726e-02
 -8.2944930e-03
 -4.8519918e-01
  1.5368851e-01
  2.6050171e-01
 -8.7906659e-01
 -5.7344848e-01
 -6.0072745e-04
  6.8507224e-02
 -2.7205744e-01
  6.4231819e-01
  2.2602390e-01
 -4.4536105e-04
 -3.8958001e-01
 -3.6139700e-03
  1.6819968e-04
 -9.0777743e-05
 -2.1084236e-01
 -1.1811568e-03
  2.4785604e-03
 -2.3818575e-02
  1.0173417e-03
 -2.6328192e-04
 -2.9861492e-03
 -1.1597659e-01
 -3.1840775e-02
  9.4283246e-02
 -5.8158733e-02
  3.7508443e-01
  2.7793771e-01
  7.4881303e-01
 -1.9859710e-01
 -2.7413595e-02
  1.5307224e-03
  1.0952787e-03
 -1.3257702e-03
 -2.6365501e-01
  5.3487860e-02
 -8.6571965e-03
 -1.6290835e-01
  4.1349204e-03
  3.5079011e-01
 -2.9663160e-01
  4.1504678e-01
  6.5213907e-01
  1.8318722e-01
  3.9237882e-03
 -2.2972612e-01
  3.5743462e-04
  1.5459977e-01
 -3.7875120e-02
  3.3924046e-01
 -3.0393627e-01
 -2.7736595e-01
 -8.1723064e-01
  3.4640611e-03
  6.9313927e-04
  4.7980615e-01
  2.2921763e-01
  1.5838894e-01
 -3.4982562e-01
  1.7358367e-01
 -2.4133108e-03
 -3.4523473e-04
  6.5408356e-02
  3.5726232e-03
 -7.8162411e-04
  2.4958809e-03
 -1.9073067e-03
  6.8441243e-04
 -5.0304569e-03
 -1.8120764e-03
 -9.7535492e-05
  5.0383760e-04
  1.7080113e-04
  1.8890409e-03
  3.0324532e-04
  2.9280345e-04
 -2.7046329e-03
 -8.5742981e-04
 -9.9385285e-04
 -1.5985824e-03
 -3.8169383e-03
 -1.9481778e-03
  3.5828329e-04
 -3.5624765e-03
  3.9095390e-03
 -5.6838937e-05
  2.3295670e-03
  2.7095288e-05
 -5.9184653e-04
  7.8367558e-04
 -1.6940859e-05
 -5.3808431e-04
  6.4903521e-05
 -1.4583289e-04
 -1.0550355e-03
  4.3195329e-04
  4.6001808e-04
 -1.7286949e-03
 -1.4453065e-03
  7.7367364e-04
 -2.6837899e-03
  1.0552697e-04
  1.1979905e-03
 -2.9418534e-03
 -1.5510534e-04
 -1.2414379e-04
 -3.2425886e-03
 -1.3880650e-04
  4.0160492e-03
 -4.0708837e-04
 -3.4188811e-04
  9.0240384e-04
  1.9483030e-01
 -2.8528015e-03
 -1.0151294e-03
  1.9651400e-03
  4.8966102e-02
  3.7893420e-05
  1.0374684e-03
  5.4775081e-03
  1.0920467e-03
 -8.1916442e-03
 -6.6722714e-05
 -1.5739216e-03
 -2.0551158e-03
 -2.0922546e-03
  4.0895850e-03
  3.2897096e-04
  7.3076453e-04
  1.7666710e-03
  5.4344680e-05
  1.2114520e-04
 -5.2643241e-04
  8.4176043e-04
  1.0229649e-03
 -9.4802579e-04
  2.3148879e-03
  4.0927120e-03
  2.1494695e-04
 -3.9651366e-03
 -6.1129592e-04
  7.7435467e-04
  1.8837125e-03
  2.7041035e-03
 -5.6045625e-04
 -3.3405013e-05
  8.6810696e-04
  6.0362864e-04
  3.2000407e-04
 -6.5275066e-04
  5.1280539e-03
 -2.0139042e-04
 -6.2991987e-04
  3.3556076e-03
  9.7693317e-04
 -1.7982100e-03
  3.7788739e-04
  2.1667991e-04
  1.2856309e-04
 -4.0035159e-03
 -5.2005867e-05
  1.1455873e-03
 -7.8766869e-04
 -3.4665118e-03
 -6.5814593e-04
 -1.0184288e-03
  1.2284899e-03
 -1.5670538e-03
 -8.7617254e-03
  1.7398904e-04
 -3.3880472e-03
  2.8237567e-04
  9.6470583e-04
 -1.7279866e-03
  2.4668053e-03
  1.1248430e-03
  3.9090298e-04
  1.7105492e-03
 -9.6867698e-05
 -7.2153064e-04
 -1.4466557e-04
 -4.9465161e-04
 -1.8823945e-03
  4.4919687e-04
  1.5474655e-04
  1.4958077e-03
 -1.3952563e-03
 -1.4001796e-03
 -8.7139360e-04
  8.8809640e-04
 -4.0384070e-03
  2.4610448e-03
  1.0347213e-03
  1.8977001e-03
 -9.6125784e-04
  3.4147652e-03
  1.6939010e-03
 -2.8705355e-03
 -2.6792189e-04
 -3.4499180e-04
 -2.6114169e-04
  3.8516372e-03
  8.5898186e-04
 -3.0550541e-04
  1.7752792e-03
  1.0958929e-04
  1.5032104e-03
  6.3741405e-04
  6.2877301e-04
  7.4844016e-04
  4.3192852e-04
 -1.8741115e-04
  2.1112249e-03
 -1.2664406e-03
 -5.1731705e-03
 -1.0324069e-03
 -2.8435257e-03
 -2.6194291e-05
 -5.0728867e-04
  1.4181808e-03
 -3.6520546e-03
  2.2614999e-03
  8.8001054e-04
  9.0506946e-05
  9.1646536e-05
 -1.4849101e-03
 -2.0632332e-03
  2.3924396e-03
  2.8943521e-04
  3.8732414e-04
  1.8271815e-04
  6.5162550e-03
  5.3000976e-03
 -1.6269003e-03
 -4.4646668e-03
 -2.6920112e-04
  3.6118536e-03
 -1.8736863e-03
 -1.4386278e-03
  1.2704115e-03
 -2.1137646e-03
  1.5034218e-04
  4.5463424e-03
  7.6375902e-05
 -1.1915253e-03
  1.7734757e-01
 -2.2689728e-03
 -1.0591410e-03
 -1.5168614e-03
  4.1120895e-04
 -2.3795040e-03
 -3.4925125e-03
 -7.1392534e-04
  2.3568734e-03
  3.2466946e-03
 -1.9687805e-01
  3.3223667e-04
 -7.3542952e-04
 -3.9162941e-04
 -2.6262184e-03
 -3.6108639e-04
  2.4038862e-04
 -2.9526078e-04
 -9.4290904e-04
 -2.4479476e-03
  1.0812781e-03
 -1.9050607e-03
  3.1532267e-01
 -2.0231917e-03
  1.2967704e-04
 -1.2446584e-03
  4.5091999e-04
 -2.8911056e-03
 -1.5890358e-03
 -1.8593287e-03
 -4.0536858e-03
 -1.1336959e-03
 -9.8015228e-04
 -3.0203126e-03
 -9.3157362e-04
  1.3955995e-03
 -3.7325358e-03
  1.8571052e-04
 -1.9170594e-04
  9.5903012e-04
 -1.4483754e-05
  3.1161604e-03
 -1.2565549e-03
  1.2764365e-03
 -3.2018507e-03
 -4.4854078e-04
 -8.2196167e-04
  4.2234960e-01
 -1.6981761e-03
 -2.7070451e-03
  1.4291006e-03
 -1.1910425e-03
  1.0491225e-01
 -1.7925900e-03
 -2.6403680e-03
 -1.5383456e-03
  9.3214290e-04
  3.2050273e-05
 -4.1429893e-04
  3.4745072e-03
  2.5594702e-03
 -1.1676187e-03
  1.7887028e-03
  5.6077295e-04
  2.2006390e-04
 -2.0325521e-03
  2.7302329e-03
  1.1447513e-03
 -1.3460554e-03
  1.6486521e-03
 -1.2070670e-03
 -7.4508148e-03
  5.2122572e-03
 -3.6415050e-03
 -4.1106201e-04
  1.8647349e-03
  1.3757650e+00
  5.1243156e-03
 -4.4273114e-04
  9.5442636e-04
  4.3086186e-03
  2.9857471e-04
 -1.1698522e-03
 -2.0673876e-03
  1.2011003e-03
 -2.7155410e-03
 -1.7071492e-04
 -2.0566833e-04
  1.3694981e-04
  3.9050969e-01
  1.4096705e-04
 -8.8863476e-04
  9.8323985e-04
  8.1555860e-04
  3.0958543e-03
  6.6177518e-04
 -1.3105902e-03
  3.4122315e-04
 -1.7810514e-04
 -3.9042301e-05
  1.2266928e-03
 -5.4440304e-04
 -1.9540044e-03
  1.8246097e-03
 -3.1615791e-03
  1.0852133e-03
  4.0398317e-04
  6.9665362e-04
 -4.1531818e-03
  6.9788395e-04
 -1.5947159e-03
 -2.8184029e-01
 -1.5095997e-04
 -1.1518353e-03
  1.2306018e-04
 -4.4780615e-04
 -4.1985940e-03
  3.7343113e-04
 -2.6686906e-03
  3.8707687e-04
 -1.1426285e-03
  1.7146384e-03
  4.0871406e-04
 -4.9654808e-04
  4.2980330e-04
 -1.3404565e-03
  1.1603194e-03
  6.1235175e-04
  1.3554009e-03
  2.6006107e-03
 -1.2255060e-03
  8.9994922e-02
  8.7469172e-01
  1.2786692e+00
  1.1019526e-03
 -1.0956390e+00
 -6.0414511e-01
  6.5798755e-04
 -1.1068492e-01
 -9.2544436e-02
  6.5909931e-04
  2.5643942e-01
 -8.1995070e-02
 -5.7065606e-01
  3.7523170e-03
  8.2273580e-02
 -1.4301245e-01
 -7.9885917e-04
  1.5233869e-03
 -1.0453936e-01
  1.6786618e-02
 -3.7972843e-03
 -7.4703796e-03
 -8.7490614e-04
 -9.6580060e-03
  1.0265171e-03
 -1.3026258e-01
 -1.0383895e-03
  2.0818132e-01
 -8.4672938e-04
 -1.5780168e-02
 -1.3325055e-03
 -1.2988232e-03
 -2.2264240e-02
  4.3010996e-03
  1.7107092e-03
 -1.4326390e-03
 -6.4915058e-04
  3.8623213e-05
 -3.7403309e-03
 -2.2794292e-03
 -1.4109663e-03
 -1.7781122e-02
 -1.3807769e-03
 -1.8997565e-03
 -1.5148158e-01
 -1.2246494e-03
 -1.5119975e-03
 -4.4290465e-04
  5.3359824e-03
  1.1901839e-03
  4.5636934e-03
  6.9164170e-04
  2.0558196e-04
 -3.9201342e-03
 -5.2319426e-04
 -4.7745279e-04
  1.5205736e-03
 -4.2213904e-04
 -7.3828548e-04
  1.2308257e-03
 -6.1614253e-04
  1.4819915e-03
  5.0725660e-04
  1.7247784e-03
 -7.8867495e-05
 -8.5791876e-04
  9.6847165e-05
 -1.1919520e-03
  3.1294621e-04
  6.6381111e-04
  1.2244881e-04
 -4.8728916e-04
  9.5829909e-04
 -5.7484256e-03
  4.8267285e-04
 -1.2255779e-04
  4.1496307e-03
 -1.2344011e-03
 -6.8532955e-04
 -4.8265702e-04
 -2.0811770e-03
  1.7122729e-03
 -4.3451386e-03
 -3.0913801e-04
 -2.8775088e-03
 -1.1124162e-03
 -2.0767906e-04
  2.6635700e-03
  2.7710816e-04
  1.8473953e-03
 -1.0316211e-03
  8.9805003e-04
  2.3258897e-03
 -1.2561962e-03
  2.4313994e-03
  7.9536234e-04
 -2.5590025e-03
  4.7452567e-04
 -2.4075639e-03
  4.1462146e-04
 -6.7194703e-04
 -1.7959077e-03
  9.6280803e-04
  2.1102692e-03
 -3.7597541e-03
 -2.1700764e-03
  1.8852613e-03
 -3.3049425e-04
  1.8743254e-03
 -9.2242635e-04
 -2.4077704e-04
  1.0305408e-03
 -1.0599726e-03
  6.5233919e-04
 -2.1124117e-03
  1.2949222e-03
 -1.4729137e-03
 -2.2046966e-05
  1.0589494e-03
  6.2367418e-03
  3.7405244e-04
 -7.8340573e-03
 -5.4255140e-04
  2.0415229e-03
  4.6144222e-04
  5.0480012e-06
  1.6576278e-03
  3.7247539e-04
  1.4109339e-04
  6.8145848e-05
 -8.1956017e-01
  4.6815950e-01
 -3.0113637e-01
 -4.3186132e-02
  3.8976517e-02
  1.3638808e-02
 -8.1544228e-02
  4.4738549e-01
  1.2041262e-02
 -5.0789845e-01
  5.2306527e-01
 -2.6879627e-03
 -9.4190091e-01
  3.0546039e-02
 -7.2020984e-01
 -1.0276260e-03
 -7.2253364e-01
  3.9005079e-03
 -1.0917000e-02
 -8.5827545e-05
  6.6682720e-04
  1.6730728e-02
 -7.1721904e-02
  2.2545367e-04
  4.8220879e-01
  4.9943657e-04
 -3.6973190e-01
  5.8437210e-02
 -5.3979740e-02
 -2.8488985e-01
  9.1535783e-01
  6.3284135e-01
  2.6240716e-02
 -7.6982449e-04
  1.2529636e-02
  1.0177582e-03
 -1.4152878e-03
  7.8551285e-04
 -2.0183334e-03
  8.2248845e-04
  3.6442562e-03
 -1.7495250e-03
  1.1500397e-03
  4.3820329e-03
 -2.5078712e-04
 -1.4994706e-01
 -7.4351265e-05
 -1.4251092e-03
  9.0136100e-04
 -5.8945123e-05
 -2.1896404e-03
 -1.0490420e-04
  1.4618349e-03
  1.1368087e-04
 -3.5041128e-04
 -2.5247156e-03
 -6.0959882e-03
 -2.5688389e-03
 -8.1151474e-04
 -2.7486045e-04
 -2.4871891e-03
 -5.4163177e-04
  1.0708657e-01
 -8.7628514e-04
  1.6435978e-03
 -8.4268308e-05
  1.4211929e-02
  3.6873962e-04
  7.8965985e-04
  1.3613998e-03
 -4.7578447e-05
 -4.6454513e-04
  5.5152678e-04
 -3.6833156e-04
 -5.9326034e-04
  2.8293310e-03
 -1.5332944e-04
  8.2995533e-04
  5.7156081e-05
  3.2494534e-03
 -7.9481245e-04
 -1.5668963e-03
  2.4983590e-03
 -1.2378118e-03
  3.5224282e-04
 -2.3504845e-03
  2.9871850e-03
 -3.4108919e-03
 -7.5123477e-04
  1.2153402e-02
 -2.2892699e-02
 -1.9645160e-03
 -1.3056765e-03
  2.0897221e-02
 -6.4657085e-02
  2.2250647e-03
 -3.4585602e-03
 -3.3591746e-03
 -3.8256025e-05
  9.0406276e-04
  4.0282905e-03
  2.2698264e-04
  1.0447415e-03
  3.7227476e-03
 -3.8613165e-03
 -5.4906437e-04
 -5.8370380e-04
 -9.7217625e-03
 -5.1595853e-05
 -1.1473926e-03
 -2.9356498e-03
 -5.2603165e-04
 -1.0722964e-03
 -6.0652671e-03
  1.0955104e-05
  4.4116291e-04
 -5.3605810e-03
  4.4747718e-02
 -6.4907365e-02
 -1.6421598e-04
 -1.0483600e-03
 -3.3326694e-03
 -8.2911522e-04
  9.8133553e-04
  2.3982618e-03
  9.4145804e-04
 -1.1323697e-03
  1.8494659e-03
  3.4504919e-03
  1.5539761e-03
 -1.4835796e-03
 -2.0583645e-03
  3.6988492e-04
  3.4079974e-04
  2.7024734e-03
 -1.4538676e-03
 -2.0964792e-02
  1.4128718e-03
 -1.3210590e-03
  4.9408358e-03
 -2.3737780e-03
 -5.3505437e-04
  2.8442897e-05
  1.8945860e-03
 -1.0197031e-03
 -1.4539913e-04
  7.2068447e-05
  4.3569980e-04
 -1.9676022e-03
  1.5072279e-04
  8.5624959e-04
  6.6293665e-05
 -6.9198367e-04
 -6.9765159e-04
  2.0048320e-03
 -2.9769892e-04
 -1.3704009e-03
 -1.0521150e-03
 -2.1369294e-03
  1.0366184e-03
 -1.2781238e-02
  9.0044261e-05
  6.3628168e-04
  4.3242285e-04
 -5.1724439e-04
  2.9871270e-01
 -1.8909301e-03
 -7.3202496e-04
  5.3452904e-04
  1.1592739e-03
  1.1505609e-03
  4.6513538e-04
  1.2852309e-03
 -1.3308489e-03
 -8.3400676e-04
  1.3114598e-03
  3.1180792e-03
  1.2232133e-04
  5.5239390e-04
  1.7443564e-04
 -2.5223775e-04
 -5.8236107e-04
  1.1749639e-03
  1.7220736e-05
  1.6826235e-03
  2.2473584e-03
  8.5089123e-06
 -4.0693145e-04
  1.4424334e-04
  9.0912334e-04
  1.2323792e-03
 -4.0789563e-03
 -2.5042910e-03
  7.6735276e-05
 -5.7827379e-04
 -1.7628788e-03
 -2.9006428e-03
 -9.9082734e-04
 -1.3566812e-03
 -1.0510840e-03
 -6.3937320e-04
 -9.3552301e-04
 -1.2966527e-03
  4.3996733e-05
 -1.1971785e-04
  5.3780216e-01
 -1.3075389e-03
 -2.3981615e-05
 -2.4646595e-03
  1.0609827e-03
 -1.7927934e-03
 -2.1166111e-04
  6.1020558e-04
 -1.1572710e-03
 -2.5150832e-04
 -4.0596682e-03
  5.0783216e-04
  3.3284510e-03
  7.8312639e-04
 -7.4100832e-04
 -2.5481719e-03
  7.2773435e-04
 -1.2326929e-02
  1.7901458e-02
  2.0194622e-03
  1.6332779e-05
 -3.2535468e-03
 -2.8434559e-04
  9.1420836e-04
 -8.5082260e-04
 -6.2578492e-04
  9.7529270e-04
 -1.3641416e-04
 -1.1736006e-03
 -3.7989419e-05
 -2.7112634e-04
  7.2156847e-04
  1.1016115e-03
 -5.7436002e-04
  3.5135278e-03
  1.3746622e-04
 -9.6281030e-05
  1.1422137e-04
 -3.3182942e-03
 -3.2881675e-03
 -7.7010819e-04
  3.0299264e-04
  1.0621839e-03
  1.5798797e-03
 -1.0607112e-03
 -1.0747275e-03
  1.8211873e-03
 -2.3118047e-04
 -2.8251405e-03
  1.3122228e-03
 -3.1902952e-04
  2.0563311e-03
  4.8923492e-03
 -2.3138484e-03
 -1.0596133e-04
 -4.7765728e-03
  8.6889247e-04
 -2.4886890e-03
  2.6267336e-03
  1.9041148e+00
 -4.8510175e-02
  5.4059565e-01
  4.0380090e-01
 -1.5160329e+00
  6.7183483e-01
 -5.5326562e-02
 -3.1169953e+00
 -1.0535709e+00
  6.7720675e-01
  2.5883999e-01
  6.5722203e-01
 -1.6414549e+00
  4.1373888e-01
  1.1763173e-01
 -2.3634902e-01
  1.1638296e+00
 -1.9015115e-01
 -2.1999326e-01
 -4.5617864e-01
  7.1958930e-04
  1.3766144e-01
  5.2349937e-01
  3.9511675e-01
 -7.5142659e-02
  9.2926127e-01
 -5.2570933e-01
  2.9868403e-01
 -5.0346309e-01
 -2.5397956e-01
  6.5699244e-01
 -6.8506412e-02
  4.3796706e-01
 -8.6618057e-03
  2.1309955e-01
 -4.4648921e-01
 -8.3677433e-02
  3.7567136e-01
 -1.1624862e-04
 -5.9436599e-04
  2.2403741e-01
  2.5763372e-03
 -4.2412413e-04
 -3.0354797e-04
  8.5477686e-01
 -2.5248137e-01
 -7.1601391e-01
 -1.1204866e+00
 -2.6740432e-01
 -8.0899906e-01
 -5.7188451e-01
  7.7055621e-01
 -7.5702793e-03
 -9.4088304e-01
  5.7527155e-05
  2.6025295e-01
  1.2755698e-01
  6.8775403e-01
 -2.1275308e-02
  1.5857440e-01
  1.8268728e-01
 -6.9197832e-04
 -2.4850855e-02
 -7.2249360e-02
  9.6792169e-02
  4.8334000e-01
 -1.5101460e-01
 -2.9101756e-01
 -6.4934969e-02
  1.2601599e-01
 -1.1440800e-02
  9.6633904e-02
 -4.6363834e-02
  5.1528756e-02
  7.8155294e-02
  9.9012582e-03
  7.7808648e-02
  3.5095003e-01
  1.6032486e-01
 -3.6557809e-01
 -3.4639251e-01
  2.6737249e-01
  7.8392791e-04
 -2.3163838e-02
  6.2961847e-02
  2.4238024e-03
  1.9699906e-04
  1.1392961e-01
  3.1021699e-01
  8.7955256e-04
 -2.9978537e-04
  8.9920103e-04
  1.2148696e-03
 -5.6025828e-03
 -1.7848675e-04
 -1.3072569e-03
 -2.0212379e+00
 -2.3762491e-03
 -2.1146960e-03
  1.8780928e-03
 -5.8749923e-04
 -5.2971315e-01
  1.6776584e-04
  7.4985486e-01
  5.2634633e-01
  9.3445549e-04
  1.5940342e+00
  1.0293401e-02
  2.6237212e-02
  1.2157813e-03
 -3.6556681e-03
  1.7940614e-04
  1.0974762e-03
  1.0749836e-03
  6.7534339e-01
 -3.4568794e-02
  1.4242177e-03
  2.6610687e-03
  2.2855103e+00
  3.3747334e-02
 -2.1809505e-03
  1.0034217e-03
  6.0057594e-04
 -9.3077659e-04
 -2.2501969e-03
  9.2330337e-01
 -4.7830760e-04
 -1.9380905e-01
 -2.0301901e-03
  9.6390076e-04
  5.3922373e-01
  2.0619624e-03
  6.8591314e-04
 -1.6953246e-03
  4.4794190e-03
 -1.0706877e-04
  4.7623998e-01
 -6.6255552e-01
 -9.6839929e-01
  1.1025823e-03
  6.5673381e-02
  4.0225276e-01
 -2.3798704e-01
 -1.8521084e-02
  5.3771898e-02
  4.6848436e-04
 -6.5561640e-01
 -1.8736161e-02
 -3.1989962e-02
  5.0527334e-02
 -2.6511946e-01
 -5.4268528e-02
  1.8918887e-03
  6.6204286e-01
 -3.1559220e-01
  7.8807610e-01
  5.0511891e-01
 -6.6575503e-01
  6.4595652e-01
  6.1590171e-01
 -1.0376046e-01
  4.8365295e-02
 -2.9962093e-02
 -5.8400806e-04
  5.8897471e-01
 -9.0871197e-01
  5.8684999e-04
  2.4457039e-01
 -6.9592685e-01
  1.1962200e+00
  1.8621664e-03
  1.5627661e-01
 -4.9636103e-02
  8.0994202e-04
 -3.9160610e-04
 -1.3970955e-01
  1.7258605e-02
 -4.6304893e-01
  8.7605976e-02
  1.3607263e-03
  4.1066656e-01
 -6.0637426e-03
 -1.6047338e-01
 -4.3350179e-03
 -3.1396259e-02
  1.2951890e-02
  2.5216708e+00
  1.1969440e+00
  2.9235644e+00
  1.4736805e+00
  2.9371216e+00
  2.3871913e+00
 -1.4932382e-01
 -3.2827380e-04
  1.6117978e-03
 -2.4027536e-02
  8.3175191e-04
 -4.3085497e-03
 -3.1545581e-03
  9.2206717e-01
  1.6434740e-01
 -1.5498039e-01
  5.4949212e-01
 -1.4546908e+00
 -9.3005687e-01
  1.8465363e-03
  1.6252990e-01
  5.4646152e-01
 -3.7436371e-03
 -5.2828815e-02
 -5.6657296e-01
 -9.2646700e-01
  5.7128847e-01
 -4.8473168e-02
 -4.6839239e-04
  9.4481093e-01
 -7.1840924e-01
 -4.5379108e-01
  2.7853197e-01
 -1.2525811e+00
  3.2645550e-01
 -1.6812618e+00
 -2.7901179e-04
 -2.1474330e+00
 -8.7619508e-03
 -1.6091125e-02
 -5.0744850e-02
 -7.8719693e-01
 -3.8311459e-02
 -3.3876586e-01
  8.8900514e-04
  1.0226775e+00
  2.7209789e-01
 -5.7936585e-01
  7.1920716e-05
  5.5060875e-01
  2.2295289e-01
  3.5179916e-01
 -3.0647668e-01
 -4.7354230e-01
  4.5438185e-01
  4.9618283e-01
  1.3108174e-02
  5.8119424e-02
  4.0400069e-02
  4.3196464e-01
 -2.6065406e-01
  3.3586447e-03
 -2.3115758e-02
  9.9655792e-02
  1.1376090e+00
 -8.1660837e-02
  8.3180135e-01
  1.2704755e-01
 -4.1804538e-04
 -7.0155019e-01
 -3.4240142e-01
 -1.1263927e+00
 -2.3587456e-01
  6.3871308e-03
  3.1704265e-03
 -1.9284949e+00
  1.4616201e+00
 -4.0381947e-01
  4.9552596e-01
 -3.4618616e-01
 -7.7400374e-01
 -1.3546431e+00
  5.7069797e-02
  3.7076876e-02
 -1.7740495e+00
 -4.2937737e-02
  6.4983809e-01
 -7.5969779e-01
 -8.8952053e-01
  1.6010061e-01
  1.5978563e-03
 -3.1456459e-01
  3.3768568e-02
 -1.7432089e+00
 -3.7253590e+00
 -7.1453583e-01
 -5.1143783e-01
 -1.2061195e+00
 -4.9644336e-01
  8.6153096e-01
 -4.6062899e-01
 -4.2575008e-01
 -1.2853489e-03
  2.4502014e-01
  4.9368775e-01
  2.1544498e-01
  1.7599927e+00
 -6.6058725e-01
 -1.9762989e-02
 -2.4058840e+00
 -4.7364274e-01
 -8.2160166e-04
  1.7951494e-03
 -4.8657602e-01
  2.1342649e-03
 -3.2506853e-03
 -2.3251159e-01
 -9.1148502e-01
 -2.7116513e-01
 -8.3224666e-01
  1.0932955e-02
  7.7547807e-01
  7.6638331e-04
  2.1803963e-01
  1.7373068e-03
 -3.5518978e+00
  4.9126544e-04
  8.8044293e-02
 -3.2402885e-01
 -2.2567308e+00
 -3.4479737e-02
 -8.1379199e-03
  3.0127871e-01
  2.0975806e-01
  2.4299140e+00
 -1.4157475e-02
  7.0599698e-02
  2.4039786e-01
 -2.7077043e-01
 -9.3876302e-01
  3.3789070e-03
 -5.7345241e-01
 -6.3559055e-01
 -9.1903768e-02
 -1.7617971e-02
 -9.2582327e-01
  9.7353309e-02
  3.8581184e-01
 -3.3173088e-02
 -6.3058132e-01
 -6.3961333e-01
 -2.5633374e-01
  1.9132877e-02
 -6.7971671e-01
  3.2147858e-01
 -8.2059902e-01
  1.7689873e-01
 -1.1563679e+00
 -2.3864710e-01
 -7.2220065e-02
 -1.3735381e-01
 -2.0406920e-01
 -3.5886726e-01
  3.1776873e-03
 -5.2949053e-04
 -7.0975429e-01
 -9.5054105e-02
 -3.3835045e-01
 -2.0672313e-03
  1.4006052e+00
  9.4305301e-01
 -7.7099013e-01
 -3.5673829e-03
 -3.9148095e-01
 -1.4181776e+00
  8.8940030e-01
  7.4271399e-01
 -9.1517456e-02
  6.8920146e-04
  3.8146508e-01
  8.9096306e-03
  2.9025498e-01
  3.3935967e-01
 -1.6633059e-01
 -7.1645755e-01
 -1.9827543e-01
 -1.5471396e-01
  3.9565854e-02
  7.2656387e-01
 -5.8203590e-01
 -5.6038928e-01
  8.6110407e-01
  1.2841321e-02
  1.1492367e+00
  1.2025335e-03
 -2.8971916e-01
 -3.2338166e-01
  2.4395750e-01
 -6.1989754e-02
  5.2413929e-01
 -2.0948552e-01
  6.3904011e-01
 -8.3277756e-01
  2.9290214e-01
  3.1695671e-02
  8.5995895e-01
 -6.4361250e-01
  2.0817900e-01
  7.7339008e-02
  7.6061982e-01
 -1.2779163e+00
  6.3899845e-01
 -8.4938735e-01
  7.8334108e-02
  5.8555514e-01
 -1.0006728e-02
 -9.1920042e-04
  5.8551186e-01
 -1.1611928e-03
  4.8489640e-03
  2.3920332e-01
 -6.9790363e-01
  1.5063994e+00
  3.6282295e-01
  9.9684529e-02
  1.1239036e+00
 -3.6325309e-01
 -1.7405695e-01
 -7.5355625e-01
  2.2535229e+00
 -8.8179624e-03
  2.2433624e+00
  1.7206924e-01
 -1.0298643e-01
  2.1073165e+00
  5.4411614e-01
  7.1751696e-01
  9.8632777e-01
 -3.8856098e-01
 -8.6623591e-01
  7.2748102e-02
  1.0911969e+00
  5.6222033e-02
  1.4741410e+00
 -8.8305548e-02
  1.0636986e-01
  1.2285180e+00
  1.2184172e+00
  6.0739201e-01
 -7.3724782e-01
  5.6999230e-01
 -7.5640845e-01
  2.5161947e-03
 -1.3965557e+00
  1.1912022e-03
 -1.8267945e+00
 -5.4185498e-01
 -9.0310812e-01
  7.6310354e-01
 -1.1912660e-01
 -3.6739290e-02
 -8.6004853e-01
  3.1770492e-01
 -1.8118680e+00
  1.8816988e-01
  1.8761668e-01
  9.7805550e-03
 -2.1012664e-01
 -2.3971777e-05
 -1.3669056e-01
  2.7292795e-03
  2.4236180e-02
 -5.6254258e-04
  3.2491592e-01
  2.8859952e-03
 -1.3715453e+00
  2.6080212e-02
 -5.1345032e-02
  1.5872117e-02
 -4.8164257e-01
  3.3148318e-03
  1.2888651e-01
 -7.2724547e-04
  8.5428478e-03
 -3.8592699e-01
  7.4253595e-01
  2.7985045e-01
  2.2269727e-01
 -4.6987188e-04
  1.6023570e-01
 -1.5767015e-03
 -1.0222150e+00
  4.1606382e-02
  6.4903444e-01
 -5.7598874e-05
  1.9499223e-01
 -1.7360403e-01
  5.0395370e-01
  3.3911917e-01
 -2.7947333e-01
 -1.0789953e-02
 -9.8653945e-05
 -2.1572874e-01
 -9.0862703e-01
 -1.3061236e-01
  1.0777266e+00
  1.9488789e-02
 -1.6304539e-01
  9.1591761e-02
  5.9418522e-02
  3.7971314e-02
  1.0555227e-01
  1.1459170e-03
  4.0299636e-01
 -5.7836890e-04
 -2.0389912e+00
 -4.8180816e-01
 -6.2700343e-01
  2.5638611e+00
  1.5037216e-01
  3.7487717e-03
  1.1114259e+00
  3.6913028e-01
 -2.9349294e-01
 -3.5731652e-01
  4.0303877e-01
 -7.5015999e-02
 -8.0828834e-01
 -4.3002591e-01
 -4.8296320e-01
  1.0667431e+00
  4.5951045e-01
  3.1319681e-01
  1.8602078e+00
  2.5481668e-01
 -4.8817286e-01
 -7.4957103e-01
  6.3307345e-01
  1.4519296e-03
 -6.2048399e-01
 -2.9821619e-03
  8.6149806e-01
  1.4359372e+00
 -2.4802127e+00
 -8.0580372e-01
 -1.3431466e+00
  1.0380088e+00
 -3.7041432e-01
  3.1668164e-02
  5.0135529e-01
  1.7285104e+00
  3.5752797e-01
 -1.4454058e-01
  1.6080338e-01
  2.5971347e-01
  5.1125836e-01
 -8.4926765e-03
  5.5450809e-01
  1.8835782e+00
 -8.1144065e-01
  1.4373370e-01
 -3.4132877e-01
 -4.3099675e-02
 -3.8291165e-01
  1.6775760e-03
  9.0691268e-01
  1.5745234e-01
  1.0610014e+00
  4.1272086e-01
  1.0156916e+00
 -8.9476615e-01
  5.6222477e-04
  3.1734842e-03
  2.5463855e+00
  2.7950317e-01
  1.1649164e-03
 -1.3706891e-01
 -2.3928387e+00
 -1.1012499e+00
 -4.8245138e-01
  6.1858636e-01
 -5.7781154e-01
 -8.8743784e-02
  1.7766389e-01
 -1.5662378e-03
  2.0821099e+00
  8.7827712e-04
 -4.8068836e-01
 -1.5044665e-02
  4.4209030e-01
 -1.6906897e+00
  1.5056618e-02
  6.4239919e-01
 -7.0645058e-01
 -9.4446200e-01
 -3.5024631e-01
 -7.3631501e-01
  3.3551827e-01
  8.7262046e-01
  6.0770041e-01
 -8.8158327e-01
  1.0638871e+00
 -7.6209712e-01
  9.0110797e-01
  2.5831124e-01
 -3.2667139e-01
 -4.3621495e-02
  3.3517519e-01
 -8.2281739e-01
 -2.7983624e-01
 -4.2245659e-01
  1.0898302e+00
  1.6453910e+00
 -6.6768706e-01
 -3.2369670e-04
  1.2164687e-01
  2.4567775e-01
 -1.1295421e+00
 -3.9236861e-01
 -1.2046074e+00
 -1.4444209e+00
 -5.0749499e-01
  1.2791304e-01
 -3.9539915e-01
 -3.6773625e-01
  2.7453536e-01
  1.5634727e-03
  4.2111313e-01
  1.7490307e+00
 -4.8853540e-01
 -8.5644278e-06
 -6.3549626e-01
  1.5248342e-01
  7.9879475e-01
  7.5111657e-01
 -2.6653676e+00
 -6.6861385e-01
  1.6652800e+00
 -2.2871704e-03
 -3.2565936e-01
  3.5316309e-01
 -9.3405116e-01
 -4.4006731e-02
 -3.7633854e-01
  4.2749283e-01
  3.6860570e-01
  6.0344499e-01
  3.5353404e-01
 -2.3952265e+00
  1.4711671e+00
  1.8903543e-03
 -9.8410183e-01
 -3.9961629e-02
 -2.8514102e-01
  3.0403870e-01
 -3.2071467e-02
  2.0379591e-01
 -2.2389463e-01
 -2.2301055e-01
 -4.0713346e-01
  4.6897593e-01
 -1.2618539e+00
  3.8157305e-01
 -1.0282406e+00
 -1.1243977e-02
 -9.1967016e-01
  2.0806114e-03
 -1.3516006e+00
 -6.4364952e-01
  7.2707659e-01
  2.1896738e-01
  1.5875000e-01
  1.2418588e+00
  1.9129641e+00
  4.4749662e-01
 -4.1229051e-01
 -3.0245289e-02
  5.4944575e-01
  6.0230782e-03
  9.2471230e-01
  3.4057004e-03
 -3.8160053e-01
  3.3962799e-04
 -1.2922890e+00
  2.5926527e-01
  3.1247118e+00
  1.2495854e+00
 -6.3199872e-01
 -9.3463659e-01
  9.2539591e-01
 -6.2549062e-02
  1.4134710e+00
  4.2635241e-01
 -1.3985697e-03
  9.2044175e-02
 -1.0401918e+00
 -2.8038618e-01
 -8.6043960e-01
  4.3593010e-01
 -2.4202936e+00
 -1.4758476e+00
  2.0237046e-01
 -1.2067871e-03
 -8.4335053e-01
  1.6731247e-01
  1.0733634e+00
  1.4834945e-01
 -9.5611519e-01
 -9.4906765e-01
  5.9383315e-01
  2.0787098e-01
  1.6136461e-01
 -6.6567683e-01
 -1.5537356e+00
  5.2530622e-01
  6.8938017e-01
 -2.8461850e-01
 -1.6615430e+00
  1.4258977e-03
  7.2931510e-01
  5.0390339e-01
 -8.2277846e-01
  1.9254303e-01
  9.0085149e-01
  1.1516215e-01
  1.0485113e+00
  9.8606753e-01
  1.1582787e+00
  9.6415675e-01
  1.4687365e+00
  3.2608312e-02
 -9.3007636e-01
 -1.0360709e+00
 -2.4010524e-01
 -4.5128402e-01
  3.1517446e-01
  3.0437267e-01
  9.5407903e-01
  1.3790401e+00
  2.0799969e-01
  1.3696599e+00
  1.4840968e+00
 -2.5613648e-01
 -1.0674539e+00
 -3.4891143e-01
 -2.1705585e+00
  6.6970870e-02
  4.4614401e-01
 -9.6278451e-04
 -7.7533418e-01
  5.4418182e-01
  2.2275283e+00
  1.6853086e+00
  1.6270463e+00
 -7.1997743e-04
  1.0351484e+00
  5.6027281e-01
  1.0220144e+00
  1.8832579e+00
 -1.4453123e+00
 -1.0715261e+00
 -2.0717542e+00
  1.0217850e+00
 -7.5947577e-01
  2.4020442e-01
 -9.9853379e-01
 -5.5225742e-01
  6.3929951e-01
  1.3568875e+00
  8.0904794e-01
 -1.6128288e-01
  7.9233462e-01
  1.0247164e+00
  1.2205741e+00
  5.6111795e-01
  8.0563992e-02
  1.0498487e+00
 -1.3917032e-01
 -4.0282291e-01
  3.4093909e-02
  3.8326597e-01
  5.5326678e-02
 -4.3943860e-03
 -7.2243825e-02
 -2.1985555e-02
 -1.6062293e+00
 -4.9090481e-01
  5.5720752e-01
  1.6640716e+00
 -6.5722501e-01
 -1.6320071e+00
 -8.2594668e-03
 -1.5132307e-01
  2.4341948e-01
  8.8307750e-01
  2.5422028e-01
  1.3829240e-01
 -1.9326148e+00
 -1.6018571e+00
  8.5713869e-01
  2.9340315e-01
  3.8629260e-02
 -3.7078075e-03
 -2.3073779e-02
 -5.9612405e-01
 -7.6255339e-01
 -1.7208882e-01
 -2.5991833e-01
  1.3567269e+00
 -7.2684300e-01
 -8.6506569e-01
  1.6489208e-02
  8.7760359e-01
  6.1472708e-01
  2.9774501e-03
  2.1691656e-01
  2.3471457e-01
  1.4276136e+00
 -1.1816223e-01
 -3.6419895e-02
 -1.8833029e-01
  7.2834134e-01
 -5.3838336e-01
 -2.5008914e-01
  3.1250209e-01
  4.7806747e-02
 -5.3308332e-01
  1.3842359e-01
  1.1583811e+00
 -7.2770542e-01
  2.4747272e+00
 -2.0044904e-02
  1.9882498e-02
 -2.4141060e-01
  9.2592207e-04
  6.0176998e-01
  1.5652663e-01
 -8.2432908e-01
  1.8292359e+00
  2.8716564e-01
  3.5211790e-01
 -1.8262714e+00
  1.2837212e+00
 -1.7810422e-03
  2.4615733e-01
 -4.6095261e-01
  1.0262705e-01
  6.8144089e-01
  1.1745985e-01
  7.7302253e-01
  1.5680101e+00
 -1.0612800e+00
  4.6251926e-01
 -8.8575727e-01
  4.2231393e-01
 -1.4046102e+00
  1.0861582e-01
  4.5174283e-01
  1.5004666e-01
 -1.7506509e+00
  1.0614951e+00
  8.4576118e-01
  3.4986076e-01
 -1.1137815e+00
  1.2480588e+00
  1.3871984e+00
  5.0567430e-01
  1.9453247e-01
  2.1211340e-01
  1.1710807e-01
 -1.2327504e+00
  1.1453856e+00
  2.7355716e-01
 -4.1263196e-01
 -6.6293544e-01
  3.7155238e-01
  9.3050428e-02
 -4.7436199e-01
 -2.6938033e-01
  2.3217434e-01
 -1.2257671e+00
  1.5119575e+00
 -1.3014623e+00
 -5.5390966e-01
 -8.8405097e-01
 -3.7415982e-03
 -7.5890577e-01
  4.6035919e-02
  3.1072876e+00
  3.9677808e-01
  1.5860281e+00
 -8.5064149e-01
 -1.4769374e+00
 -9.6337974e-01
 -3.0295160e+00
 -5.2177143e-01
  2.8206134e-01
 -6.2552905e-01
 -4.5866451e-01
  4.0970686e-01
  7.0745903e-01
 -1.0909938e+00
  1.2728983e+00
 -1.1185220e+00
 -2.2521312e+00
  2.5308627e-01
 -7.7832210e-01
 -3.2874858e-01
 -1.2194179e+00
  2.1124214e-01
 -3.5248584e-01
  1.2051157e-01
  1.1712370e-01
 -7.9370630e-01
  1.0943621e-01
  2.7077451e-01
  6.0287851e-01
 -2.3597279e+00
 -3.1972548e-01
 -3.3810690e-01
 -4.4100571e-01
 -1.9889627e-01
 -1.5915668e+00
 -1.7927524e-01
 -6.3609809e-01
  1.4482859e+00
 -7.3464555e-01
  4.4073174e-03
 -5.4750896e-01
  1.5236043e+00
  1.6117549e-01
 -1.2466471e-01
 -9.7237706e-01
  3.3053555e+00
 -1.8155411e-01
 -4.3293680e-03
  7.0419297e-02
  5.0251824e-01
  2.2474773e-02
  2.2747933e-03
 -9.0593112e-01
 -4.7660840e-01
 -1.1497954e+00
 -1.6323923e-01
  1.6321248e+00
 -1.5648710e+00
  5.2460092e-01
  3.6878087e-02
 -1.2309477e-03
 -2.1976347e-01
 -6.7628741e-01
 -3.0608520e-02
 -2.1445105e+00
  9.2807621e-02
 -3.3311993e-01
 -3.0442536e-01
  1.5135108e+00
  8.3827502e-01
  5.0504273e-01
  1.1673672e-01
  2.5531347e+00
 -8.7977964e-01
 -1.4957860e+00
 -2.0183731e-02
 -3.3255741e-03
  1.2078091e+00
  2.4314326e-01
  6.5389234e-01
  5.7087624e-03
  1.5044262e-01
 -2.4235912e-01
 -1.6726246e-02
 -3.2909787e-01
  1.9675757e-01
 -5.3790845e-02
  3.5764282e-03
 -1.0197698e-01
 -2.3293573e-01
 -1.1491368e-01
 -4.7957171e-02
 -3.4560746e-01
  1.3224699e-01
  2.8820574e-01
 -1.1321622e+00
  6.8776143e-01
 -1.9817064e+00
 -1.5316470e+00
 -7.2526592e-01
  2.3076127e+00
  7.1754301e-01
  2.7342280e-02
  1.0846444e+00
 -6.7595756e-01
 -1.0941960e+00
 -2.0994658e+00
  3.9212796e-01
  4.1144290e+00
  1.8673407e+00
  4.2867827e-01
 -1.2004379e+00
  2.5130439e+00
  9.9671736e-02
 -3.7174276e-01
  1.2264106e+00
 -1.9735881e+00
 -1.1064938e+00
 -4.9589777e-01
  6.3882977e-01
 -1.2882638e+00
  1.7404927e+00
  6.8205535e-01
 -1.2661059e+00
  1.3255924e+00
  5.1712710e-01
 -5.3540146e-01
 -4.6008867e-01
  4.5396480e-01
 -5.1820242e-01
 -2.6786119e-01
  1.2049618e+00
 -6.1987823e-01
 -1.5892367e-01
  2.2109860e-01
 -2.5257915e-01
 -1.3761271e+00
  2.1563193e-01
 -6.1938542e-01
 -1.4433858e+00
 -8.8359910e-01
 -6.1990716e-02
 -2.0610982e-01
 -7.6481724e-01
 -1.0128467e+00
 -1.8043111e-01
  1.5515132e-01
  1.7928956e-02
  1.7928956e-02
  1.7928956e-02
  1.7928956e-02
  1.7928956e-02
  1.7928956e-02
  1.7928956e-02
  1.7928956e-02
  1.7928956e-02
  3.4313183e-02
  3.4313183e-02
  3.4313183e-02
  3.4313183e-02
  3.4313183e-02
  3.4313183e-02
  3.4313183e-02
  2.7671870e-02
  2.7671870e-02
  2.7671870e-02
  2.7671870e-02
  2.7671870e-02
  2.7671870e-02
  2.7671870e-02
  1.3580502e-02
  1.3580502e-02
  1.3580502e-02
  1.3580502e-02
  1.3580502e-02
  1.3580502e-02
  1.3580502e-02
  5.7021868e-03
  5.7021868e-03
  5.7021868e-03
  5.7021868e-03
  5.7021868e-03
  5.7021868e-03
  5.7021868e-03
  1.1793899e-02
  1.1793899e-02
  1.1793899e-02
  1.1793899e-02
  1.1793899e-02
  1.1793899e-02
  1.1793899e-02
