nep4 2 Cu Se 
cutoff 7 5 100 44
n_max 8 6
basis_size 12 12
l_max 4 2 0
ANN 50 0
  3.4739223e-01
 -2.9939638e-02
  2.4895765e-01
  2.3571916e-01
 -9.1904324e-01
 -1.0766358e+00
  7.1570712e-01
  9.2760801e-01
 -1.1963484e+00
  8.5408735e-01
  3.2932579e-04
 -4.5113862e-01
  8.8182122e-02
  2.5760297e-02
  1.6049996e-01
  8.7776238e-01
  1.8557288e-01
 -1.6150746e-02
 -2.5257033e-01
  6.5924442e-01
  2.2847413e-01
 -9.1387105e-01
  1.8079789e-01
  7.5930029e-01
 -9.9772334e-02
 -4.8148453e-01
 -2.4626274e-02
  2.1532211e-01
  1.1443921e-01
  3.5001516e-01
  3.6550355e-01
 -2.8919654e-03
 -1.4025472e-01
 -5.4976191e-02
  2.5174147e-01
  4.5393575e-02
 -1.0869795e-02
  1.3488043e-03
 -2.8655270e-02
  5.5402730e-02
 -3.0568042e-01
  2.3790014e-03
 -1.8105621e-02
  2.5587333e-03
 -6.7771487e-02
  2.3217873e-01
  1.8990027e-02
 -1.0479487e-01
 -1.8752243e-03
  3.6334756e-01
  2.8350449e-04
  7.5599603e-02
  4.3630081e-01
  1.6399512e-01
  5.4087889e-01
 -5.2009839e-01
 -2.4745336e-01
  2.7224040e-03
  8.3184959e-03
  7.9466701e-03
 -4.2091846e-02
  2.2963400e-01
  3.4886640e-01
 -1.3675620e-02
  2.4519843e-01
 -4.6947729e-03
  6.1776936e-01
 -6.7303278e-02
  2.3647867e-02
  1.1888406e-01
 -5.9348494e-02
 -2.4300461e-01
  1.1638217e-01
  4.5708829e-01
  8.6988602e-03
  2.4063297e-02
  2.8472638e-02
  1.1837409e-02
  2.1818507e-01
 -1.0999544e-01
  5.4829168e-01
 -4.3135744e-02
 -5.7946686e-03
  1.4915567e-02
  8.2019335e-03
  1.2626146e-02
 -1.7444760e-02
 -1.5720498e-02
 -4.9332618e-03
  7.2403629e-03
 -4.4884561e-03
 -3.8629059e-02
 -1.8193439e-02
  1.2748421e-02
 -7.5966567e-03
  4.2670765e-03
 -5.5490914e-03
 -2.0189893e-02
 -4.2059137e-03
 -2.7471613e-02
 -1.8237364e-02
  4.1857265e-02
 -1.1662574e-02
  1.7893644e-02
 -1.4816295e-02
 -1.1999333e-02
  1.1872856e-02
  1.1146332e-03
  4.2825475e-02
 -3.6804695e-03
  1.2325162e-02
 -4.9225716e-03
  1.7388472e-03
 -4.0158670e-02
 -1.3017181e-02
 -1.2278674e-03
  5.0798007e-03
 -2.3328716e-02
  3.3179473e-03
  1.7387273e-02
  2.5152776e-02
  5.6381035e-04
 -1.4643175e-02
  9.8832762e-03
 -1.5371902e-02
 -1.0201054e-02
  1.7261200e-02
 -4.0645152e-04
 -5.8047352e-03
  1.0049762e-02
  5.9556030e-02
 -1.2369469e-02
 -3.4734342e-02
  1.0074168e-02
 -1.2771863e-02
  6.2284847e-03
 -3.5255387e-01
  1.0683607e-02
  2.7323702e-02
 -4.7880444e-03
  8.9900099e-02
  8.2671409e-03
 -4.3545994e-03
 -6.3934466e-03
  3.1980611e-03
  8.7442184e-03
  1.0983132e-02
 -1.5187354e-02
 -1.4961167e-02
 -5.9174849e-03
  1.6702637e-03
 -1.6281471e-02
 -2.2546064e-02
  2.5283275e-03
 -5.2482961e-03
  5.3679515e-03
 -1.3947317e-02
 -3.4460705e-02
  1.4583514e-02
 -2.5192499e-03
 -1.0502960e-02
 -3.9049960e-03
 -7.3157325e-03
  2.0507429e-02
 -3.9908965e-04
 -1.8700700e-02
 -2.0264760e-02
 -5.4041971e-03
  1.3154286e-02
  9.6515176e-04
  4.6104148e-02
  7.0708995e-03
  2.3731124e-02
 -1.2462300e-02
  1.9155748e-02
  6.1396435e-03
 -7.2420533e-03
 -2.4286430e-01
 -7.5295763e-03
  1.6879270e-02
  1.1912058e-01
 -2.0910999e-02
 -2.7506211e-01
 -6.5911310e-03
 -5.5238855e-01
 -7.9719154e-03
 -1.0731232e-02
 -1.3384760e-02
 -3.0523282e-05
  2.0699583e-02
  6.4967396e-03
 -6.6128601e-03
  8.4281657e-03
  2.1359701e-02
  4.0946804e-02
  2.7734084e-02
  5.7982489e-02
  1.5289124e-02
 -6.0052006e-04
 -6.8308776e-03
 -2.2072769e-03
 -6.6607641e-03
 -4.2467873e-05
  3.5104305e-02
 -3.1110745e-02
 -3.1800005e-03
 -1.2278828e-02
  2.3057947e-02
 -4.6058437e-03
  1.6061217e-02
  8.1567643e-03
 -8.2357652e-02
 -7.2910406e-02
  2.8631261e-03
 -1.4581108e+00
  5.4479927e-02
 -1.9063350e-02
  1.8739026e-02
  6.8272133e-03
  4.5222469e-02
 -1.3768009e-03
 -4.3058943e-02
  8.2269358e-03
  2.1324480e-02
 -1.1629704e-04
 -2.1119411e+00
 -1.6896881e-02
 -8.0320919e-01
  3.1467795e-02
  4.6999160e-02
  4.5823762e-03
  1.4381116e-02
 -3.6303237e-02
  3.5969487e-03
 -1.5838817e-02
 -9.3854694e-03
  9.1603175e-03
  3.3793315e-02
  1.2215508e-02
 -7.1234874e-02
  9.1355052e-03
  4.3364177e-03
  1.2676596e-02
 -1.8843191e-02
  1.0049181e-02
 -7.1863243e-03
  2.7809395e-02
  6.7153089e-02
 -3.8151711e-03
  2.3350978e-02
 -2.2184776e-02
  6.6244309e-03
  3.3654580e-03
  2.1387124e-03
 -2.5654862e-02
 -6.9506555e-03
  1.8744819e-02
  1.9751405e-02
 -2.4589676e-02
 -1.9328211e-02
 -1.3235497e-02
  5.0546035e-02
  4.6080961e-03
 -1.0126688e-02
  4.3467235e-02
 -3.1308734e-03
  4.8169764e-03
  1.6450243e-02
  4.2033130e-03
 -3.5810653e-02
 -3.3725303e-01
 -1.2143445e-04
  4.9722132e-01
  1.1191665e-02
  6.2920498e-03
 -1.1605056e-02
 -3.5106432e-01
 -1.6015515e-02
  1.1378659e-02
 -9.0220002e-03
 -1.8890031e-02
  2.6563505e-02
  2.8495606e-02
 -5.6752185e-03
  1.2217090e-01
  8.5066929e-03
 -1.3021570e-01
 -5.4800925e-03
  7.2846398e-02
  8.3962522e-02
 -4.8660633e-01
  2.8795822e-02
  1.3989033e-01
  5.0053746e-01
  2.6295109e-02
 -2.4463162e-03
 -4.7043534e-03
 -3.7045412e-02
  8.5447058e-03
 -7.2885677e-03
  4.3350518e-02
  2.9872172e-06
  1.2010573e-02
 -4.2897328e-03
 -1.7325962e-02
 -2.0804100e-02
  2.1332277e-02
  3.2747202e-02
 -1.7466953e-02
  4.0466599e-02
 -3.3277333e-02
 -8.6600631e-02
  2.7592093e-02
  9.6430872e-03
  9.9595450e-03
 -2.1828070e-02
  1.1401587e-02
 -1.1440961e-02
 -1.1831490e-02
 -3.0170111e-03
  5.1022144e-03
  1.0495817e-02
  1.5520910e-02
  3.4985423e-02
  1.0825567e-02
 -1.6975388e-02
 -3.5654085e-03
 -5.8373634e-04
 -1.3021651e-02
  2.4157554e-02
 -1.4388357e-02
  5.4384433e-03
 -2.5171246e-02
 -6.9651096e-03
 -9.7881816e-03
  5.6947814e-03
 -1.9700605e-02
 -1.3976734e-02
 -1.6723184e-02
  1.0166232e-02
 -1.6572956e-02
 -1.3585973e-02
 -5.6844324e-02
  5.2903476e-03
 -3.3140030e-02
  5.9325900e-03
  9.6297059e-03
 -2.7558464e-03
 -2.5508158e-02
 -7.2024614e-03
  3.0247977e-03
  1.1115883e-02
  1.1165713e-02
 -1.3468897e-02
  1.5874179e-02
 -1.6215963e-02
 -5.2856439e-01
 -4.7414089e-03
 -6.9845676e-02
  4.5139622e-04
 -8.1479780e-02
 -2.7675169e-02
 -1.5723150e-02
 -9.7479142e-02
 -7.1309162e-03
  2.8936243e-02
  8.5680652e-04
  2.2069281e-03
  1.3732758e-02
  5.1896010e-02
  4.0602185e-02
  2.7234251e-02
  3.1812798e-02
  1.9342186e-02
  1.3844715e-02
 -5.4227794e-03
  4.5311423e-03
 -6.5886197e-03
  9.0122892e-04
 -3.9939471e-03
  6.3996334e-03
  1.2564640e-01
 -3.0274136e-02
  1.6681815e-02
 -1.6471356e-02
 -1.7432084e-02
 -4.9009761e-03
 -2.3412282e-02
  6.8572001e-04
  1.8527448e-02
 -9.2556030e-03
  5.3128661e-03
  6.5560654e-02
 -3.2645579e-02
  2.5363259e-03
 -1.8981736e-02
  2.1396335e-02
  5.1731067e-03
 -4.4711549e-03
 -1.4128600e-03
 -2.0469457e-02
  4.5859218e-02
 -3.3258332e-03
 -1.1086215e-02
 -9.6709922e-02
 -1.4943782e-02
  2.2054102e-02
 -1.6574869e-03
 -1.4599650e-03
  1.0172916e-02
 -1.0141326e-02
  2.2117815e-03
  2.2413751e-02
 -2.1849288e-02
 -4.6583321e-02
 -9.8785404e-03
 -1.9680043e-01
 -8.5291415e-03
 -1.8715276e-03
  2.2413356e-02
 -9.4362840e-02
  4.6836443e-02
  2.3047123e-03
  2.1661535e-02
 -2.1817738e-02
 -4.6871860e-02
 -9.7904718e-03
 -2.1947993e-02
  3.2736605e-03
  9.0460037e-04
 -3.5468176e-02
  4.3433450e-02
 -2.2023080e-02
  5.0342502e-03
 -9.0489024e-03
 -2.6045302e-03
 -1.1992525e-02
  4.5170847e-02
 -5.7067988e-03
  3.5045561e-03
  4.9497971e-01
 -3.4628978e-01
  3.2125273e-01
  8.5990524e-01
  2.2211666e-01
 -1.6859098e-01
 -2.1665540e-01
  1.9414983e+00
  4.5680720e-01
 -5.2534354e-01
  3.5697636e-01
 -4.9679440e-02
 -7.8598899e-01
  5.6088483e-01
  6.3755256e-03
  3.1827312e-02
  2.3496902e-01
  7.8294396e-02
  4.1590843e-02
 -2.5657195e-01
 -3.1240735e-02
 -1.7182677e+00
  1.1841139e-03
 -1.6828029e-01
  4.5667570e-02
  1.0816957e-01
 -3.2454219e-01
  5.1187545e-01
  3.8531309e-01
  5.0449401e-01
  3.6149532e-02
  2.2884144e-01
  4.6077576e-01
  1.3005740e-03
 -1.6562641e-02
 -1.0690140e-02
  2.9722077e-01
 -2.6496900e-02
 -1.5780000e-02
 -1.0317873e-02
  5.1311585e-03
  8.2517534e-02
 -1.7705488e-03
 -3.7280828e-02
  6.1881799e-02
  1.0893383e-02
  1.1010297e-01
 -1.5817832e-02
  1.3877616e-02
 -4.1065404e-01
  2.2071188e-02
 -3.2536459e-01
 -4.7449861e-03
 -1.3102698e-02
 -8.5647060e-03
  1.9071227e-02
 -3.3813536e-02
 -3.0280717e-05
  1.6389471e-02
  8.1488229e-03
  3.5467766e-02
  6.9100191e-03
 -4.7695152e-02
 -2.8187045e-01
 -6.0744192e-02
  4.2144630e-02
 -4.2557560e-02
  2.8846220e-03
  2.6511453e-02
 -1.1404088e-02
 -3.5788849e-04
  1.7550597e-01
  7.5380097e-04
 -1.3381721e-03
 -6.7478851e-03
 -4.3058372e-03
 -2.1314122e-01
  1.0905497e-02
 -1.0648272e-02
  1.2008236e-02
  1.9654746e-03
 -5.3860941e-03
  5.5819646e-02
 -2.3320664e-02
  1.6051453e-02
  1.7338438e-02
 -8.8561606e-03
  5.0060041e-02
 -8.4649781e-03
 -3.1367335e-03
  9.4405785e-03
  3.4872671e-03
 -8.0152117e-03
 -3.5138025e-03
  9.0191454e-02
  2.5897611e-02
 -1.6057654e-04
  3.4845646e-02
 -9.3714343e-03
  2.3468311e-03
 -1.7517002e-02
  1.7888943e-03
 -4.3746922e-03
  5.0826505e-02
 -7.4564087e-01
  1.7019130e-01
 -1.1570794e-03
 -6.9112377e-03
  1.0098178e-02
  3.7389358e-03
 -4.0071285e-03
  1.0651803e-02
 -1.5634343e-02
 -4.4951253e-03
  6.6280314e-05
 -5.6452146e-03
  1.1553096e-02
 -2.8699718e-03
  2.1898046e-02
  4.7828481e-03
  9.1653373e-03
 -7.2148163e-03
  2.3856049e-03
  4.8951897e-01
 -1.1291495e-03
 -9.9325605e-02
 -2.9527233e-04
  9.5472019e-03
  7.9807490e-03
  1.4530256e-02
  1.9220442e-03
  2.0259742e-02
 -8.1709807e-04
 -1.0461718e-01
 -7.9769129e-04
  1.1080152e-03
 -6.4459867e-03
  5.0077949e-02
  2.0311367e-02
 -5.4791033e-02
  1.9776873e-01
  1.0386191e-01
 -1.1167648e-02
  1.5037972e-02
  1.9572251e-02
  5.1071681e-02
 -5.9566898e-03
 -6.7024222e-03
  6.3738497e-03
 -2.8340610e-02
  2.3011543e-02
  3.1782833e-03
 -5.8145911e-02
  1.9850018e-02
  8.2083093e-03
 -1.5532420e-02
 -4.6677057e-02
 -4.9949601e-02
 -3.2338577e-03
 -6.3986131e-03
 -3.3276264e-02
 -3.7354160e-02
  1.8322926e-02
  1.1040830e-02
 -6.4939582e-03
  9.0272091e-03
  7.3237363e-03
  3.6821276e-02
  7.8774514e-03
 -1.7156319e-03
 -3.6308616e-02
  2.4940306e-02
 -3.1686272e-02
 -1.8981504e-03
 -1.7324965e-02
 -1.7168587e-02
 -7.0602752e-02
 -1.0584629e-02
 -9.9063687e-02
  8.7855794e-03
  1.0656276e-02
 -1.1965135e+00
  8.8453627e-01
  2.9017054e-03
 -6.4428860e-01
 -2.2505343e-01
  6.6615427e-03
  2.1889066e-02
  3.8368893e-03
 -1.9298345e-02
 -1.5612401e-02
 -3.1413753e-03
  3.9918618e-03
 -3.0929130e-02
 -3.1217920e-02
 -4.7838688e-02
 -1.0348601e+00
 -8.5643250e-03
 -2.6651326e-01
 -6.0605288e-02
  2.3114946e-02
  2.6734030e-01
 -2.4753734e-02
  1.9129318e-01
 -3.4247901e-02
 -8.9304438e-03
 -4.9606133e-03
 -3.2642677e-02
  1.0733649e-02
 -5.0304052e-03
 -3.3804300e-01
 -2.4292514e-02
 -4.2996515e-02
 -1.0648109e-02
 -2.3388818e-02
  1.7489366e-02
 -1.5567426e-02
  4.7792349e-02
 -8.3477171e-03
  2.3414040e-02
  8.6899940e-03
 -1.6908979e-02
  6.2173720e-02
 -2.8915821e-02
 -6.6195205e-03
  1.8628558e-02
 -1.6517702e-02
 -4.1677484e-01
 -1.9374609e-02
  4.1424029e-02
 -2.7232026e-03
  1.6510598e-02
  2.6512635e-04
  1.0811392e-01
 -1.0530879e-02
  1.8489920e-02
  8.1477523e-02
  6.2856223e-03
  2.4396457e-02
 -4.0338952e-02
  2.6880981e-02
 -1.9844241e-02
  6.5502226e-02
 -6.4666476e-03
  3.1549044e-02
  3.2702379e-03
 -1.2220252e-01
 -2.0045435e-02
  2.2860318e-02
  9.4509043e-02
  4.4896446e-02
 -3.6067415e-02
  1.3567591e-01
 -7.3398403e-03
 -1.1650584e-02
  6.6510677e-01
 -4.4922987e-03
 -1.3585684e-01
  4.2067617e-02
  2.7786613e-02
 -2.5834122e-03
  1.0577782e-02
  1.0561855e-02
 -2.4988728e-02
 -7.2740756e-02
  9.4457197e-01
  8.9739966e-01
  1.2512463e-02
  6.8022418e-01
  1.2676119e+00
  5.6008279e-01
 -2.9321259e-01
  7.0804977e-01
 -2.0987192e-02
 -1.4488155e-02
 -9.1108987e-03
  6.2037352e-04
  6.1795428e-02
 -2.8794061e-04
 -3.2022353e-03
 -1.5467134e-03
  1.6121659e-02
 -8.1054069e-02
 -1.0346905e-01
 -6.6552854e-01
 -3.7979279e-02
 -7.2738826e-01
 -1.6251970e-02
 -2.0908972e-02
  6.5556163e-01
 -2.8650621e-01
 -3.1115597e-01
 -1.1063466e-02
 -8.1400877e-01
  1.2812701e-03
 -2.7206620e-02
 -3.9692065e-03
 -2.5775132e-01
 -2.5595142e-02
 -1.5591310e-02
  8.5492413e-03
 -1.1278490e-02
  2.0433556e-02
 -9.1030793e-03
  2.9623809e-01
 -1.6077006e-02
  4.6814359e-03
 -9.7519774e-03
 -3.5821889e-03
  1.3684070e-02
 -8.5403770e-03
 -2.8668107e-03
  2.7963687e-02
 -4.8761219e-02
  4.0670585e-02
 -5.9005274e-03
  5.6428369e-03
 -8.7025173e-02
  8.5987383e-03
 -8.6630974e-03
 -6.3703870e-03
 -2.6315358e-02
  5.0267801e-03
  3.0760348e-02
 -3.4070950e-02
 -3.6253529e-03
 -2.8837994e-02
  7.0569436e-03
  5.6793443e-03
 -3.8439019e-03
  1.2317415e-02
  2.0778906e-02
  1.6663438e-03
 -9.8023079e-03
  5.0638700e-03
 -2.3827221e-02
  2.5288840e-03
 -6.7686159e-03
 -6.2635592e-03
  7.3975231e-03
  1.9439584e-02
  6.0319074e-04
  6.2344142e-04
 -1.4932940e-02
 -8.7255510e-03
  8.2376506e-03
 -1.3056375e-01
 -2.3921058e+00
  1.2383955e-02
 -6.4396858e-04
 -5.5713393e-03
 -1.8972877e-02
 -7.9573643e-01
  4.2087227e-02
 -7.1468525e-02
  4.2521344e-03
 -7.2923102e-03
 -1.3427326e-03
  1.4523619e-01
 -1.6531195e-01
 -1.6045773e-01
 -3.6688024e-01
  7.6780408e-03
 -2.0165907e-02
 -1.0816466e-02
 -1.1477767e-02
  3.6648640e-03
 -4.0221270e-03
  4.2180309e-01
 -1.8576967e-02
 -2.5840584e-02
  1.1770714e-02
 -1.7710115e-01
  2.2625609e-03
 -1.5079686e-01
 -2.3916770e-02
  9.5884828e-03
 -1.0976944e-02
  2.6526319e-02
 -2.5054542e-02
 -3.9077368e-02
 -1.8191649e-02
 -6.5467493e-03
 -8.4427362e-03
  7.0301276e-03
  1.5136951e-02
  1.0029194e-02
 -4.2436444e-03
 -2.6869349e-02
 -9.1663962e-03
  1.3628637e-02
  9.0861265e-03
 -2.1286428e-03
  1.7762542e-02
 -2.3296203e-03
 -7.1719890e-03
 -1.8500283e-02
  7.8057097e-03
 -1.4187247e-02
 -3.6096713e-03
 -7.6709256e-02
 -7.2954562e-03
  8.9810967e-01
 -9.7332850e-02
  2.4388025e-02
 -2.5916851e-01
 -1.6115362e-02
 -5.1107216e-03
  1.7348582e-02
  3.1066351e-03
  1.9786280e-02
  2.2211554e-04
 -6.5780506e-03
  9.0157120e-03
  1.2634325e-02
 -3.0935150e-02
  1.0303458e-02
 -1.3819198e-02
  8.8335171e-02
  6.0890242e-04
  2.1956975e-02
 -2.0132760e-02
 -1.8849045e-03
  8.3992165e-03
  4.5889661e-02
 -1.5891083e-02
 -3.8260026e-03
 -1.5420940e-02
  2.8985986e-03
 -6.1557284e-03
  1.4019147e-02
 -3.5181038e-02
  9.5764576e-03
 -8.8087246e-03
 -1.8742274e-02
  2.5273070e-02
 -1.0684465e-02
 -1.4626528e-03
  1.0715380e-02
  1.9529423e-02
  1.5648523e-01
  2.7912967e-02
  3.5647443e-03
 -3.1052157e-01
  1.8373452e-01
  9.3960688e-02
 -2.7857614e-01
  7.1428992e-02
 -9.3013102e-01
  7.9440488e-04
 -2.1374632e-02
  2.9167533e-03
 -3.2328913e-04
 -1.3743206e-02
 -4.8577487e-02
 -6.2323049e-02
 -1.1117356e-03
  6.3620761e-02
 -2.5660414e-03
 -1.3482399e-01
  9.3753384e-03
 -8.6251833e-03
 -3.1889505e-03
  2.8429786e-03
  1.1034953e-02
  3.8533278e-02
 -2.6206659e-02
 -8.5026473e-02
 -1.8741798e-01
 -3.8241645e-04
  2.5736935e-02
 -9.2638051e-03
 -5.4830652e-02
 -4.8278645e-02
 -2.5161382e-02
 -2.7044306e-02
 -2.0834887e-03
 -3.1091414e-02
  3.7164111e-02
 -9.7340290e-03
  8.7274117e-03
  3.9319480e-03
 -8.4576639e-04
  1.7452542e-02
 -2.6610797e-02
 -3.3209181e-01
  2.2079201e-02
 -1.3597943e-02
  1.4583370e-01
 -1.0102364e-01
  3.7604515e-02
 -9.8921008e-02
  8.3177008e-02
 -1.0303412e-01
  2.5007811e-01
 -2.1310315e-02
 -3.2088286e-01
  1.4451426e-03
 -5.2516427e-02
 -6.0568983e-03
 -6.2945461e-01
  2.5110087e-01
  1.9158460e-01
  2.6704418e-02
  9.5118362e-01
 -1.1734641e-02
  5.1108599e-01
  1.3630299e-03
  1.3980031e-01
 -5.3413305e-02
 -4.0526447e-01
  8.1725657e-01
  5.6980629e-02
  3.3481664e-04
  6.8574250e-03
  9.5578767e-02
 -3.5494042e-03
 -3.2301135e-03
 -9.9525794e-02
 -7.4316608e-03
  1.2787916e-02
  8.3994669e-01
  1.2772152e-02
 -1.8569885e-01
 -3.0865282e-02
  4.9311422e-02
  2.7063549e-02
 -8.1253879e-02
 -2.0122856e-02
  1.0407235e-02
 -1.4584409e-02
  5.3909477e-03
  4.2915225e-02
  5.0900960e-03
 -5.6806188e-03
 -7.9112835e-03
 -6.4139618e-03
  1.5880016e-03
 -7.1480828e-03
  2.1044182e-04
 -3.5445180e-03
  6.1183041e-03
 -5.9967134e-03
 -2.5807792e-01
 -1.2257273e-02
  6.8979184e-03
  3.1885165e-03
  8.6217439e-03
 -3.8547661e-02
 -1.1068077e-02
 -2.4109121e-02
 -3.2274106e-03
  3.4968290e-03
  3.2931184e-03
 -5.1090010e-03
  4.7542243e-03
 -3.4837169e-03
  6.3512870e-03
 -7.2094430e-03
 -1.2983613e-02
 -1.1371875e-03
  3.5847761e-02
  5.0667822e-03
 -4.9410169e-03
 -1.1963189e-02
  1.9892752e-02
 -3.7924042e-03
 -1.4728669e-02
 -8.8112392e-03
 -2.9111654e-03
 -3.5764205e-03
  7.5683231e-04
  6.8520123e-01
 -5.9525859e-01
  3.0037159e-01
 -8.1483284e-03
  7.3513740e-01
  5.0702280e-01
  1.5844204e-01
  2.0259494e-01
  2.5211161e-01
  3.4924871e-01
  4.7324511e-01
 -1.6959379e-03
  1.7622076e-02
 -1.3854592e-03
  1.2913854e-01
  5.7117194e-02
 -2.1287052e-02
  1.0290867e-02
  4.5746633e-01
  9.8936543e-02
  6.8768576e-02
  3.3546142e-02
  1.4263278e+00
  8.7624304e-02
  1.5000475e-02
 -1.1508246e-02
  2.2215179e-01
  8.3814788e-01
  1.0402074e-02
  1.6182098e-01
  3.2394219e-02
  2.1288177e-02
  3.1844921e-02
 -3.1436995e-02
 -8.9745717e-03
 -1.8724622e-02
  2.6899931e-01
  2.6443947e-02
 -1.0151498e-02
  5.8936954e-02
 -5.7713827e-05
 -2.7373901e-02
  3.5643391e-03
  1.1242629e+00
 -3.8644078e-03
 -1.9931914e-02
  9.7829793e-03
 -4.3714116e-03
  7.9774737e-02
 -4.0228511e-03
 -7.8186530e-01
  2.2580955e-02
 -4.4539377e-02
  1.0720920e-02
  5.8395988e-03
 -5.2258885e-03
 -2.2335630e-02
 -1.3695027e-02
 -3.6399709e-03
  1.1605301e-02
  2.0658408e-04
 -8.5095409e-03
  4.6508042e-03
  1.2788056e-02
  8.1209363e-03
 -1.0301951e-02
  1.2878680e-03
 -3.7973945e-03
  4.0130299e-02
  4.4424748e-03
  5.7304651e-03
 -9.0983093e-02
  1.6479310e-02
 -1.1561785e-02
  1.4767746e-02
  2.9656934e-02
 -9.9578295e-03
 -3.1851802e-03
  5.0241183e-03
 -5.2856775e-03
  4.3055445e-02
  6.9746459e-03
  1.4994079e-03
 -1.6443487e-02
  3.4936287e-02
  2.1715514e-02
  6.8937247e-03
  4.3359883e-03
 -4.2365432e-02
  1.2310619e-01
 -2.0406814e-01
  2.8422943e-01
 -1.1008549e-01
 -4.6967041e-02
  4.7138938e-01
  4.1268453e-01
 -1.6034810e-01
  5.4507154e-01
  3.2446462e-01
 -1.4176282e-01
  9.5207393e-02
 -2.9494646e-03
 -1.4909893e-02
  6.9346398e-01
  4.6829963e-01
  7.7487268e-02
  2.7361196e-01
  1.5685573e-02
 -5.8247274e-01
 -3.8673133e-02
  2.2515266e-01
  1.7762235e-01
  3.6466233e-02
  2.7756130e-02
 -4.6560526e-02
  6.6492403e-01
  7.4770823e-02
 -9.1761246e-02
  7.0675552e-02
  5.1465720e-02
 -3.6255607e-01
 -2.9360592e-01
 -1.5291233e-01
  2.1241646e-04
  3.8913152e-01
 -5.4017678e-03
  1.1014573e-02
 -4.0466752e-02
 -2.9999051e-02
  2.2980331e-02
  2.5113231e-02
 -1.6065842e-02
  1.8015762e-01
 -1.7213510e-01
  3.1106705e-03
 -3.5299298e-03
  5.9828635e-02
 -5.8952999e-01
 -1.7605738e-03
 -4.5208554e-03
 -8.5594133e-03
  1.2206968e-02
  1.9843400e-02
  1.5950495e-02
  2.1683853e-02
  1.6761832e-02
 -1.5930206e-02
  9.4850613e-03
 -1.1937703e-02
 -3.4065633e-03
  2.8932746e-02
  1.2388028e-04
  4.1344753e-03
 -5.5077118e-03
 -9.4073838e-01
 -1.3565269e-02
 -1.2124491e-02
 -7.6545905e-03
  5.6803994e-02
 -3.7201066e-02
 -1.6211353e-03
 -5.7551078e-02
  2.0576895e-03
  8.9804865e-03
 -5.0423066e-03
 -8.1933485e-03
  6.1905163e-04
  1.3818253e-02
 -6.7090704e-03
  1.0931462e-02
 -4.1083517e-03
 -6.1433525e-03
 -1.0864342e-02
  1.3342567e-03
  3.7786877e-03
 -5.5469509e-02
 -2.3184331e-02
 -2.0880157e-03
  1.6417189e-02
 -2.4220331e-01
  4.6308920e-02
  2.0191437e-01
  1.5725227e-01
  4.6632186e-02
 -5.8061731e-01
  2.5135717e-01
  4.6349487e-01
 -3.2545969e-01
 -4.6338379e-02
 -9.7797662e-03
  7.8191310e-02
  3.7995923e-02
 -2.0608915e-01
  2.5629869e-01
  1.4357188e-01
 -6.6058397e-02
  2.7385759e-01
 -1.0103662e-03
  2.5989470e-01
 -1.7374387e-03
  5.9461210e-02
  3.7172776e-01
 -1.2707114e-01
 -1.2047809e-01
  1.2214462e-01
  2.2110827e-01
  8.6720742e-02
  6.1919417e-02
 -4.7863703e-03
 -1.0005858e-01
 -4.0989328e-02
 -3.0178232e-03
  3.4614632e-01
  5.0163968e-04
  5.7506412e-03
 -2.8741267e-03
  3.5905130e-02
 -1.6285293e-01
  1.8661542e-02
  5.5179402e-02
 -5.4160450e-03
  3.4277417e-02
  8.9277513e-05
  3.6720213e-02
 -3.8743760e-02
 -5.8098808e-03
 -3.1047401e-01
 -3.5195239e-03
  1.2698077e-02
 -7.1087908e-03
  8.7606022e-05
 -5.5583715e-03
  6.7155068e-03
  3.5712488e-02
 -5.7125531e-02
  3.4361568e-03
 -9.4475513e-03
  1.2896750e-02
  2.2494551e-02
  2.4183556e-03
  3.1366441e-02
 -4.6250774e-03
 -9.8156836e-04
 -6.6327257e-03
 -2.6857434e-02
 -1.6439209e-02
 -9.9444985e-03
 -3.1082436e-02
  1.1008112e-02
 -1.6346758e-02
  1.2998041e-03
 -1.9107841e-02
  1.6643348e-03
  3.5349071e-02
 -1.2523921e-03
  2.3688609e-04
  2.6873080e-02
 -1.3360775e-02
  8.6087072e-03
  9.6112601e-03
 -1.3803193e-02
 -2.9143125e-02
 -5.0770566e-03
  1.2805359e-02
  2.9440546e-01
  8.2649849e-04
 -5.8888827e-02
 -1.6259771e-02
 -7.3038287e-02
 -1.0184524e+00
 -5.7018608e-01
  1.3895754e-02
  2.0394418e-01
 -6.6070682e-03
 -1.1854232e-02
 -3.1169195e-02
  5.8691602e-02
 -9.3030870e-02
 -1.2779584e-03
 -3.2455593e-02
 -6.2044226e-02
  1.9919761e-02
  1.6256033e-03
 -3.5292555e-03
 -1.4501981e-01
 -5.0796151e-02
 -6.8932615e-02
  3.7048974e-03
 -1.4439406e-02
 -2.4529228e-03
  1.3202760e-02
 -5.7430748e-02
 -3.3630326e-03
 -2.1284968e-01
  4.6023667e-02
 -3.1147897e-04
 -4.4497896e-02
 -2.6107338e-01
 -2.0115395e-01
 -1.4380444e-02
 -9.6170977e-02
 -1.3091058e-02
  1.0764718e-02
 -2.0861519e-03
 -7.8315465e-03
 -1.7559184e-02
  5.3124991e-03
 -1.7085239e-02
 -4.6560359e-03
  2.8223742e-03
  4.8597518e-01
 -6.5295748e-02
 -8.3684763e-03
 -2.1774868e-02
  1.1621372e-01
 -3.5844976e-03
 -4.2873463e-01
  6.9834970e-02
  9.1940444e-04
 -8.1694834e-03
 -4.1446649e-03
  1.3949011e-02
  1.5642725e-02
  1.8248128e-02
  3.6146217e-03
  8.9354999e-03
  6.9105536e-02
 -4.8497234e-02
  7.6261990e-02
 -1.6674610e-02
  8.9462390e-03
  7.4504912e-03
  4.0179417e-02
 -1.1603414e-01
 -5.7488963e-02
 -1.5166592e-02
  5.3477377e-02
  2.7330503e-02
 -1.6416285e-02
  8.0454461e-03
  2.1691633e-02
 -2.0025147e-02
 -1.6333889e-03
 -7.5504882e-03
  4.3978062e-02
 -2.3601618e-02
 -1.8988136e-02
  3.1496942e-02
  1.6220420e-04
  1.3702200e-03
  8.2694134e-03
 -3.9966991e-03
  3.3145244e-03
 -1.2182873e-02
  2.6819777e-02
 -5.5379579e-03
 -3.6303981e-03
  1.4437906e-01
 -1.7319238e-01
  8.2635516e-03
  9.8893791e-03
  2.3274038e-02
  1.2899076e-02
 -8.3564734e-03
 -4.4756591e-02
 -1.1577355e-03
 -2.1383325e-03
  1.9776084e-02
  3.8405936e-03
 -4.6373750e-03
 -8.8542756e-03
 -9.8494510e-04
  1.2174053e-02
 -1.6985252e-02
 -6.6055823e-03
 -3.1259358e-03
 -2.1863554e-02
 -1.7387373e-04
  2.5846747e-01
 -3.3839919e-02
  3.2145035e-02
  1.2666658e-02
 -4.1953707e-03
  1.4351152e-02
 -2.4614069e-03
  3.5442205e-03
 -1.0664874e-01
 -4.2001493e-02
 -2.7938295e-02
 -9.0682087e-03
  1.3204794e-03
  2.1214362e-03
 -5.8590947e-04
 -1.4197918e-02
  1.1657179e-02
  1.2352750e-02
  1.4631335e-02
  1.1090296e-02
  1.3569950e-02
  1.8002627e-02
 -2.4297243e-02
 -8.5521728e-02
  1.2247990e-01
 -1.3693017e-03
 -1.0098705e-01
  2.6028184e-02
 -6.9313557e-03
 -4.6034209e-02
 -1.8969083e-02
  8.6226277e-03
  1.6733725e-03
  9.2602782e-03
 -1.0285409e-02
  2.9272091e-02
  1.2293505e-02
  9.5832152e-03
 -2.4144379e-03
  5.4822913e-03
  1.5531689e-03
  1.0305840e-02
 -4.8394017e-03
 -6.3154124e-02
  1.0728775e-02
 -3.9745141e-02
  1.0643422e-02
  5.1011540e-02
 -8.1112571e-03
 -5.2499026e-03
  4.7280438e-02
  4.4769995e-04
  1.2057738e-02
 -1.4160627e-02
 -1.7837113e-02
  1.5089542e-02
 -6.9806889e-02
 -3.3449084e-02
 -2.3282602e-02
 -9.1093592e-04
  1.9501831e-02
 -1.1208079e-02
 -8.5131777e-03
  3.5026965e-01
 -8.9969533e-03
 -7.3313182e-03
  4.7776818e-02
 -1.0404848e+00
 -1.1379370e-01
  5.9565296e-03
 -5.6415361e-01
  1.1770182e-02
 -4.9824212e-03
 -1.5729114e-02
 -3.1423166e-03
  1.0780784e-02
  4.2190589e-03
  3.0341735e-03
  4.1684066e-03
 -1.7238185e-03
 -3.1227844e-03
  2.8253067e-01
 -3.1118063e-02
  2.3001898e-03
  2.0788922e-03
  5.0791847e-03
 -3.3559939e-03
 -2.8495362e-01
  4.6880335e-02
  3.8689386e-02
 -6.2343176e-03
 -6.9248816e-03
  2.2487730e-02
  2.9659726e-02
 -9.4974576e-04
  1.0567294e-02
  3.3461851e-01
  1.2976678e-02
 -1.3154189e-03
 -5.8633625e-04
  2.0838924e-02
 -1.9101398e-02
 -8.7681971e-02
 -1.2489239e-02
  5.3311228e-03
  8.5750092e-03
  2.7438733e-01
 -1.5173566e+00
  6.1453789e-01
  7.3968756e-01
 -1.0098279e+00
  8.3417261e-01
  1.6383417e+00
 -5.8802879e-01
 -3.0235283e+00
  7.0791560e-01
 -1.4201692e-01
 -4.7157940e-01
  3.8341800e-04
 -1.2439598e+00
  1.8993303e-02
 -7.7347606e-02
 -3.7514183e-01
 -7.9421002e-01
 -2.7253813e-01
  3.6407152e-01
  1.4956459e+00
  3.0233696e-01
  7.1437323e-01
 -1.0083561e-01
 -3.9539245e-01
 -3.4262847e-02
 -4.5965719e-01
 -1.3000237e-02
  5.9145942e-02
 -7.4895555e-03
 -2.8840196e-01
 -3.5762781e-01
  1.9524619e-01
 -4.1335236e-02
  7.0005083e-01
 -4.4651139e-03
 -1.1097331e-01
 -2.6698576e-02
  3.3656918e-02
 -8.9809196e-03
 -9.0058528e-02
  2.8838001e-03
 -2.1799461e-03
  2.1252580e-02
  2.0313022e-01
  5.8006747e-03
  1.4224872e-02
  5.8129653e-03
 -2.4441935e-02
  2.9115969e-02
  3.0263847e-01
  3.1858020e-02
 -3.2036066e-02
 -1.6519392e-02
  1.4946769e-02
 -6.0701016e-03
  4.5923479e-03
 -1.6037004e-02
 -9.8636344e-02
 -5.6226728e-03
 -3.0462258e-02
  4.8382979e-02
  7.7496148e-03
 -7.3159306e-04
  6.6447668e-02
 -2.2398964e-02
  5.8580600e-02
  1.4590127e+00
  3.7142433e-02
 -1.0684431e-02
 -2.4565324e-02
 -4.7446519e-02
  9.7154099e-03
  1.5845466e-02
  4.7529448e-02
 -3.0794044e-03
 -5.3140139e-03
  5.3653761e-04
  5.6007551e-03
  8.6609125e-03
 -5.0933319e-03
  7.9057245e-03
 -2.6378263e-02
 -7.0485664e-03
  8.0032814e-03
 -1.9470060e-02
 -7.4478509e-03
  3.1932812e-02
 -3.7392512e-01
  3.8080481e-01
 -5.5773754e-02
 -1.9787315e-01
  5.4738406e-02
  1.3686207e-01
 -1.4139991e-01
  1.4465643e-01
  1.8228248e-01
 -6.8333369e-01
 -2.9002720e-01
 -7.4773752e-03
  2.8887159e-01
 -2.8533387e-01
 -3.6468119e-03
 -5.1837873e-01
 -4.1555411e-01
 -4.4754305e-01
 -4.2894784e-01
 -9.9669332e-03
 -2.0602241e-01
  2.3291804e-01
 -2.6563379e-01
 -4.9251121e-01
 -5.5168312e-02
 -8.1872255e-02
 -2.3878779e-01
  6.5035832e-01
 -1.2368842e-01
 -2.0869412e-01
  8.8226441e-03
 -6.0066182e-02
  2.0596026e-01
 -2.9363643e-02
  1.6685197e-01
 -7.8806439e-03
 -8.4320940e-02
  1.1929323e-02
 -4.2052711e-03
  1.6364247e-02
  3.9916444e-03
 -3.1298998e-01
 -2.4946487e-02
  1.6783075e-01
  5.8112223e-02
 -9.4234729e-01
  2.8551415e-01
  1.8982170e-02
  1.7041434e-02
  6.5149492e-01
  6.7262448e-02
  1.6502479e-01
 -3.7908494e-01
 -1.9544710e-01
  3.8072434e-01
  5.1723272e-01
  2.1410270e-02
  1.0582604e+00
  8.7632053e-02
 -3.2466070e-03
  4.4786364e-01
  3.5765165e-01
  4.5547345e-01
 -5.3504205e-01
 -6.6979319e-01
  6.0966110e-01
 -2.7626795e-01
 -5.8960970e-03
  3.2819625e-02
 -3.4535179e-01
 -2.0627488e-01
  7.7625054e-01
  7.0956147e-01
  9.0542413e-02
  3.6683440e-01
  2.3770332e-01
  7.0111021e-02
 -1.1974393e-01
 -6.4893076e-03
 -7.4655361e-02
  5.2049530e-01
 -1.6320627e-02
 -3.4590758e-02
  5.1788846e-03
 -5.3911623e-02
  1.8653630e-01
 -4.2796293e-03
  9.5910773e-02
 -1.4278238e-01
  4.6594068e-02
 -7.9377368e-02
 -2.8155495e-03
 -6.5136408e-03
 -1.2293942e-02
  3.9427863e-03
 -4.0891930e-03
  4.3790653e-01
 -1.0230812e-01
 -6.0095560e-02
  2.0218868e-02
  3.9377727e-02
 -1.9878488e-02
  3.5046794e-02
  2.1202855e-02
  5.0554313e-02
 -1.1815780e-02
 -2.4028080e-02
 -1.3915414e-04
 -1.3921683e-02
  6.7515783e-03
 -1.3155906e-01
 -1.8537429e-04
 -3.6526471e-02
 -4.6892080e-02
  5.4426216e-02
  4.5375019e-01
  4.1400507e-02
 -1.3760495e-02
 -5.3043522e-02
 -4.3592691e-02
  2.8192888e-03
  4.3459958e-01
 -5.8550080e-03
 -1.7736301e-02
  3.9273612e-03
  3.6018964e-02
 -2.2276253e-02
  1.5682660e-02
  8.7372558e-03
  2.8342873e-02
 -2.2978593e-02
  1.8469634e-02
  2.7368318e-02
 -6.0349633e-03
 -1.4351021e-03
  6.5264076e-02
  3.0815932e-03
 -1.2740029e-02
 -1.3627505e-02
  2.8772703e-03
  1.0188976e-02
  8.1226719e-04
  4.9753599e-03
 -2.7289409e-02
  1.6467586e-02
 -5.3980015e-03
  2.6167618e-02
 -1.7352006e-04
  9.6563669e-04
 -1.6735611e-02
 -4.1560819e-03
  3.0003455e-02
  1.2402196e-04
 -8.0678724e-03
  7.2887330e-03
 -3.6411718e-02
 -8.7895133e-03
  2.4413304e-04
 -2.9087663e-02
  1.0213687e-02
  3.4008656e-02
 -9.2230691e-03
  2.6362301e-03
  3.3339672e-03
 -6.3653681e-03
 -3.1323146e-02
 -1.4029287e-02
  6.0517168e-01
 -1.5105112e-03
  1.5759891e-02
 -7.9386398e-02
 -8.3336025e-04
 -2.6649304e-02
 -1.7846804e-02
 -1.3435472e-02
 -1.2908194e-02
  1.2907066e-02
  4.6900520e-03
  1.2616939e-02
  3.3512179e-02
  1.2032166e-02
  1.2413971e-03
 -2.8030647e-02
 -5.2206013e-03
  3.3262357e-02
 -2.7434418e-03
  1.8781759e-03
  2.2124676e-02
  4.8698364e-03
  8.5803000e-03
  3.2071716e-03
  5.1752217e-02
  2.3922245e-01
 -1.7052144e-04
 -2.5953040e-02
 -9.4508408e-03
  4.2031325e-02
  2.5088834e-02
 -7.0186444e-03
  2.9752692e-02
  2.2734841e-02
  1.6293533e-02
  2.8837752e-03
  6.7924387e-03
 -2.3894939e-03
 -1.0151957e-01
  1.1921500e-02
 -7.8769084e-03
  1.3802728e-02
 -2.1201205e-03
  1.6862819e-02
 -4.5989878e-03
 -1.8027729e-03
  3.8141876e-03
  8.9730415e-03
  1.0264439e-02
  8.2318671e-03
  1.9505779e-01
 -9.5765535e-03
 -3.3389732e-01
  1.4623017e+00
  9.7254443e-01
  2.1226339e-01
  1.1972005e+00
 -5.1010811e-01
 -4.5397541e-01
 -9.7805187e-02
  3.0418339e-01
 -2.0821493e-02
  1.2593448e+00
  2.6723545e-02
 -2.3164864e-01
  7.2330788e-02
  3.8824393e-03
  1.1685680e-02
  2.0780437e-01
  4.5095891e-01
  1.0252463e-01
  1.9607466e-01
 -3.1433767e-01
  1.0320565e+00
 -3.8840300e-01
  9.0002179e-01
  1.1074404e-01
  4.9654566e-02
  3.1532604e-01
  1.1849272e+00
 -5.3030558e-02
  3.5135001e-01
  1.9576999e+00
  9.8314248e-03
  1.6396530e-02
 -5.7876934e-03
 -9.3628421e-02
 -4.6424959e-03
  3.9489120e-03
  7.3094493e-01
 -1.3533131e-02
  1.4420630e-02
 -1.6981703e-03
 -1.1234510e-01
 -9.4230339e-02
  3.8010053e-02
 -1.2463537e-01
  3.4710091e-02
 -1.3294289e-02
 -9.0543000e-04
  2.9134583e-03
  6.8425924e-02
 -4.3555441e-01
  1.1743812e-02
  9.1408117e-04
 -1.9115962e-02
 -2.8958427e-02
  2.2916406e-02
 -1.8694248e-02
  1.9996747e-02
 -1.3911124e-02
  9.7757783e-03
  2.4187812e-03
  2.1562370e-02
  1.2107101e-02
 -3.2627427e-03
 -2.9790137e-02
 -2.7656281e-02
  4.6614688e-03
 -8.3535900e-03
 -3.8397092e-02
  1.8066267e-02
  4.5807692e-03
  1.0813670e-02
 -1.8343695e-01
 -1.5044229e-02
 -9.6701039e-03
 -1.4186276e-02
 -3.2941874e-02
  1.6738631e-02
 -8.6005051e-03
 -2.2111008e-02
 -5.0094780e-03
 -3.9654985e-02
  1.0538929e-02
 -4.7704093e-03
 -2.1324988e-02
 -4.9353563e-03
 -1.7573614e-02
 -1.4349268e-02
  2.8988287e-02
 -1.7230934e-02
 -2.2284331e-02
 -3.5936106e-04
 -1.9332932e-02
 -1.6885031e-02
  8.7566487e-03
 -2.9300516e-02
 -3.0510882e-03
 -4.8111717e-04
  4.0487098e-03
  2.1350523e-03
 -1.8672564e-03
 -4.4932310e-03
  1.3239952e-02
 -5.4719253e-04
  1.4028355e-02
  4.0661572e-03
  1.3081902e-02
  6.2546926e-04
  1.7392406e-02
 -3.1565450e-02
 -5.2730315e-03
 -5.5118790e-03
  6.1974841e-01
 -6.1572744e-03
 -1.7781973e-02
  2.8476189e-03
  9.8056830e-02
 -1.6420495e-02
 -5.3790356e-03
  2.3762935e-03
  7.0051136e-03
 -1.7838985e-02
  5.7488852e-03
  4.1708681e-03
 -1.1544202e-02
 -6.3594967e-02
 -6.8628746e-03
 -5.4898993e-03
  1.8288484e-02
  8.4410608e-04
  2.6622403e-02
  1.1304572e-02
  2.8581438e-03
  9.2831045e-01
  8.8724449e-02
 -2.6944128e-01
  1.6467915e+00
 -1.2076026e+00
 -7.6263830e-02
  1.3640845e-01
 -6.4887536e-01
 -1.2135985e-01
  6.4583570e-01
 -1.1398308e+00
 -7.0484728e-02
  2.2455192e-01
 -1.0714335e+00
 -3.1584252e-02
 -1.0259032e+00
 -1.8977596e-01
 -6.6409475e-01
 -6.9362932e-01
 -1.7582354e-01
  8.4990382e-01
 -4.6559274e-01
 -7.4427444e-01
 -3.7057218e-01
 -1.0092386e+00
 -2.3165129e-01
  6.0878378e-01
  7.6992494e-01
 -8.5808821e-02
 -1.6196008e-01
 -1.8008056e-01
 -5.1004386e-01
 -1.4647961e-01
 -7.1614885e-01
  2.1132107e-01
 -1.0004975e-02
 -1.7131487e-02
  2.1709708e-02
  1.9718388e-02
  5.1304009e-02
 -5.8624377e-03
 -2.0347793e-01
 -1.2142334e-02
 -1.9800436e-02
  3.0138662e-02
 -2.2523908e-02
  4.9926870e-02
 -1.1911806e-02
 -7.3435935e-03
 -1.8571383e-01
  1.3985263e-01
  1.9571846e-03
 -1.3121578e-01
 -3.1725813e-02
  7.9965433e-03
 -8.3017731e-03
 -1.7630918e-02
  7.6641971e-03
  1.8029869e-02
 -8.0697117e-03
  6.4314804e-03
  8.0737889e-02
  2.9388594e-02
  1.2124332e-02
  6.1682541e-02
  7.7327038e-04
  1.5462716e-01
  1.1067167e-03
  2.3569006e-02
  1.1065172e-01
 -2.4103478e-04
 -1.2635149e-01
  4.9379826e-02
  2.1039169e-01
  7.0345141e-03
  1.9375969e-02
  7.5984485e-03
 -4.8674386e-02
  1.2440605e-02
 -3.9400358e-02
  5.0270673e-02
  3.6404373e-03
  2.7390083e-02
 -1.0200569e-02
 -3.5457604e-02
  2.8702004e-03
  4.9026888e-03
 -6.9305212e-03
  2.0097739e-01
  4.6108020e-03
 -6.2880036e-03
 -1.7550522e-03
 -5.6758630e-03
  4.3656249e-02
  1.9329570e-02
 -2.5280420e-02
  4.6324447e-02
 -1.3439942e-02
  1.9495419e-03
  7.7819489e-03
  1.2325352e-02
  1.4386049e-02
  3.3733495e-02
 -2.2827284e-02
 -4.3517994e-03
  1.5371936e-02
 -3.0997198e-02
 -1.5758250e-02
 -1.9981284e-02
 -6.1610923e-04
  1.0962327e-02
  1.5309794e-03
 -1.3578651e-02
 -2.9104450e-03
  3.4237348e-02
 -4.5292503e-01
  6.4253556e-03
 -1.7749448e-03
  8.5192341e-03
 -6.5640006e-03
  7.2112796e-04
 -7.6262066e-03
  2.6370483e-02
  1.8418390e-02
  1.8485395e-03
  8.6104153e-03
 -5.7379343e-04
 -1.3683261e-03
 -1.4814517e-02
 -1.3807134e-02
 -3.0341599e-02
 -1.1513419e-02
 -1.0167439e-02
 -3.0977029e-01
  8.6906552e-03
  5.5990059e-02
  5.4066014e-03
 -2.3815252e-01
  2.3548603e-01
 -3.7691799e-01
 -1.2572452e-01
  2.2664766e-01
 -7.6636900e-03
 -4.2641368e-03
  1.6953491e-02
 -4.3229796e-02
  1.4543278e-02
 -3.1067280e-02
 -1.0113698e-01
 -5.8830134e-04
  7.5909540e-02
 -1.9932489e-04
  2.3772204e-01
  1.7022552e-03
  1.2120674e-02
 -9.7714476e-03
  1.7754041e-02
  5.0712917e-03
 -1.3029234e-01
 -4.8870046e-02
  8.1240311e-03
  4.6647433e-02
 -4.6300162e-02
 -6.2487712e-03
 -8.3301412e-03
 -4.1942024e-03
  1.1628844e-02
 -9.1955892e-04
 -6.3433377e-03
 -2.7373907e-01
  2.4659722e-03
 -1.3716189e-02
  2.1044789e-02
 -1.6119502e-02
  7.1664881e-03
 -2.5919404e-02
  9.2993965e-03
  8.5327048e-03
 -1.6535250e-02
 -2.1881780e-03
  3.5924517e-02
 -2.9088759e-03
 -7.9542836e-03
 -3.3337502e-03
 -7.0788744e-03
  1.6527785e-02
  5.2761440e-03
 -1.6772142e-03
  1.1157831e-02
  2.0288368e-04
 -1.6462209e-02
  1.7373040e-02
 -1.8377868e-03
  9.0134731e-03
  4.6894229e-03
 -1.6527066e-02
  5.9477236e-02
 -1.1684928e-02
 -9.4591249e-03
  1.8597033e-02
  5.9867781e-02
  1.2526708e-02
 -7.7436782e-02
  2.9091989e-03
  8.1268372e-03
  7.9862038e-03
  8.3808340e-03
 -5.1614204e-03
  7.6639485e-03
 -3.3086058e-02
 -6.6826213e-04
  5.7139499e-03
 -2.8713557e-03
 -8.3062537e-03
 -1.6934773e-02
 -5.6968760e-03
  1.8196190e-02
  1.3665633e-02
  8.5860547e-03
 -3.4762900e-03
  5.5074364e-01
 -1.6611668e+00
  3.2806766e-01
  1.7314011e-01
 -1.1768985e+00
  1.6956680e-01
  7.7487445e-01
 -7.7066004e-01
 -8.3460712e-01
  1.2713462e+00
  2.4270047e-01
 -9.7732656e-02
 -1.5237387e-02
  9.2828097e-03
 -2.7612404e-03
  1.4197642e-02
 -1.2084760e-01
  1.3023975e-01
  8.4887613e-03
 -2.9809588e-01
  9.5164514e-01
 -1.0243984e+00
  6.1460650e-01
  3.5608925e-02
  7.8219935e-02
 -5.9946311e-01
  1.6880119e-01
 -5.0414675e-01
  7.1805972e-01
  1.0501387e+00
 -1.0270601e-02
 -6.9922791e-03
  1.9419457e-01
 -2.2292471e-01
  6.9668158e-03
  1.0271999e+00
  2.7803841e-01
 -1.1917091e-03
 -9.6672298e-03
  9.7923493e-03
 -6.8178568e-03
  4.3363008e-01
  5.8399243e-03
 -5.0483085e-03
  6.1501360e-01
 -1.4879357e+00
 -1.5175671e-02
  8.8033406e-03
 -2.9155985e-01
 -6.1711639e-02
  1.2190315e-02
 -4.0324237e-03
  1.4745244e-02
  4.3186671e-03
  3.3079931e-01
 -2.4765801e-01
 -8.0576232e-03
  3.2613835e-01
  7.9739773e-01
 -2.7258581e-02
 -2.6241436e+00
 -1.5762152e-02
  8.5149356e-04
  6.7755705e-01
 -2.2153665e-01
  6.6397047e-01
  1.8918714e-02
 -5.1714450e-01
  1.1718966e-01
  8.3618647e-01
  1.6517418e-03
  2.4550634e-02
 -6.1057699e-03
 -6.2956899e-02
  6.3216306e-02
  8.3256010e-03
 -4.8951805e-03
 -1.2884136e-01
  3.7768010e-02
 -2.0521398e-01
 -4.5030951e-02
 -8.6004865e-01
 -3.8490329e-02
 -2.4327083e-02
 -3.8185246e-02
  1.8177739e+00
  3.7794653e-02
  2.7109765e-02
 -2.6760903e-01
  2.6772937e-01
 -2.1344777e-02
  4.8671044e-02
  1.0201613e-02
  5.0693595e-01
 -6.8701875e-01
  4.9170622e-01
 -4.8732646e-03
 -5.9394516e-02
 -1.6675363e-01
 -1.3888599e-01
  1.1471526e-01
 -2.7210793e-02
  1.2803426e-01
 -4.6372220e-02
  4.6424764e-01
 -1.4172715e-01
  3.1781413e-02
 -1.5077391e-01
 -1.0935622e-01
  9.3342431e-02
  1.7073585e-01
  2.4792982e-02
 -1.0112266e-01
  2.6604077e-01
  8.0331701e-01
  2.7100134e-01
 -1.7065836e-02
  1.3987121e-01
  7.8147285e-02
  5.5437380e-01
  3.9130315e-02
  4.5238420e-01
 -2.1503765e-02
  7.4034417e-01
  1.5687452e-01
  9.2387283e-03
  8.3135992e-02
 -5.2904683e-01
 -6.5812147e-01
  1.1859926e-01
 -4.8090476e-01
  1.3272277e+00
 -2.3467831e-01
 -3.5993405e-02
 -4.7721121e-02
  2.0969804e-01
  6.2850900e-02
 -1.0670723e-02
 -4.6705341e-01
  2.0083478e-01
 -4.6769559e-02
  1.1950365e-01
  7.4632131e-02
  2.4215952e-01
  9.2125043e-02
 -9.8226741e-03
 -1.1018164e-01
  1.4497104e-01
 -5.9629787e-02
 -1.8838607e-01
  2.3845257e-01
 -2.5734322e-02
 -4.6619061e-02
 -1.1002889e-01
 -2.8037083e-01
  2.6922193e-01
 -1.2854258e-02
 -4.2285788e-01
 -3.7608349e-01
 -1.2599500e-01
  2.2361103e-01
 -1.5715510e-01
  2.2436623e-02
  1.4712165e-01
 -3.0729601e-01
  4.6977349e-02
  1.5916262e-02
 -1.7170710e-02
 -3.3680546e-01
 -2.8276169e-01
 -2.8797604e-02
 -5.3807336e-01
 -1.2411260e-02
  2.7680898e-01
  1.8081240e-02
 -2.4614422e-02
 -1.2834530e-01
 -2.0106554e-01
 -1.8936870e-01
  1.6579391e-01
  8.3398402e-02
 -8.4407590e-02
  3.6649683e-03
  8.8339495e-03
 -2.0040330e-01
 -1.5116450e-03
 -5.9062201e-03
 -7.0279300e-02
  1.4301583e-01
 -9.8924004e-03
 -7.8375777e-04
  2.0529304e-02
 -3.7389282e-02
  5.2746609e-03
  2.9658228e-02
 -7.9230387e-03
 -1.1003662e-02
  3.6373306e-03
  5.5361528e-02
 -3.4226369e-02
  2.1464953e-02
 -5.0639538e-03
  4.3567114e-02
  5.1694452e-03
 -2.7846081e-02
  5.9140038e-02
  5.7081291e-03
  8.5033214e-04
  3.2067105e-02
  7.2911349e-03
  1.1843173e-03
 -1.0776726e-02
  7.2245379e-03
  1.2807777e-03
  3.9844015e-03
  1.0491339e-01
  6.8750538e-02
  6.0254438e-03
  2.9021795e-03
  2.9501140e-02
  1.9096237e-02
 -1.8331928e-03
 -1.9101072e-02
 -1.8827327e-02
 -5.3223586e-03
 -4.0037911e-03
  6.3854391e-03
  2.2240676e-02
 -2.7425984e-02
  1.5061593e-02
  1.6477744e-03
  1.2045121e-02
  1.1836715e-02
 -3.1930424e-02
 -4.9364280e-02
 -1.0905460e-02
 -4.7642377e-04
  2.6535294e-03
  1.9640781e-02
 -4.6631941e-03
 -4.4407614e-04
  7.5751264e-03
  3.8711481e-02
 -2.0610098e-02
  1.2878511e-02
 -1.0657324e-03
  2.8728165e-03
  5.2851215e-03
 -1.7690092e-02
  3.8023775e-03
  2.1354569e-02
  3.3676671e-03
  5.3885020e-04
  1.8677194e-02
  3.2083639e-03
  3.9388269e-02
  2.2757724e-03
 -1.5801715e-02
  5.1002619e-03
  2.8626882e-02
 -3.0724553e-02
  9.9360349e-04
  1.1423235e-03
 -2.1566018e-03
 -4.8726690e-03
 -1.4724812e-02
  1.2518648e-02
  2.0766944e-02
 -1.4720558e-02
  1.9121002e-02
 -1.3515494e-02
 -2.4784158e-04
  6.9515854e-03
  7.9302827e-04
 -1.1016363e-02
  1.0599853e-02
 -2.8027368e-03
  1.4931018e-02
 -2.0014586e-02
 -1.4853907e-02
 -6.4923865e-01
 -2.4356419e-02
  1.5332730e-01
 -5.2148793e-02
  2.9798227e-03
 -3.0088341e-03
 -6.3948343e-03
  4.0025152e-03
  3.9673273e-02
  2.7597774e-02
 -1.8499853e-01
 -3.8298365e-02
 -9.1817193e-02
  2.2869147e-02
  9.4284387e-03
  6.9626108e-02
  6.3761540e-02
  3.2664025e-03
  2.9938230e-02
  8.0978461e-03
 -9.8085990e-03
  1.1155601e-02
  2.9821260e-02
  8.4017947e-02
  7.9464708e-03
 -1.0088809e-01
  1.9182209e-03
  9.1669738e-02
  1.7758073e-02
 -1.0542632e-02
  2.7332913e-02
 -7.5297686e-03
  5.3396057e-03
 -9.6319700e-03
 -1.9964967e-02
 -4.7609873e-02
  3.1387564e-02
 -1.1463730e-02
 -8.4394487e-03
 -1.4728297e-02
 -1.2152900e-02
 -8.3430689e-03
  3.2217285e-01
 -1.8696861e-02
  2.6034689e-02
  1.7195453e-01
 -2.7621962e-02
  1.4108730e-02
 -2.4965744e-02
 -7.7150320e-03
  1.5283871e-02
  5.0534308e-03
 -4.3091863e-01
  8.0917776e-03
 -4.3999010e-01
  1.1466746e-02
  8.8839166e-02
 -4.9996570e-02
 -4.7587161e-03
 -1.4573862e-01
 -2.7470730e-02
 -2.6508209e-03
 -1.3192944e-02
  2.8846350e-02
 -2.7205365e-02
  8.0208369e-03
 -1.9422360e-02
  8.6038448e-03
 -9.8321058e-02
  4.3797523e-01
 -1.7216162e-01
 -1.5767258e-02
 -5.8187190e-03
  1.2028985e-02
 -1.2737184e-02
  6.4895153e-03
  6.1091441e-03
  8.9881234e-03
 -2.0429188e-02
  1.3584625e-02
 -7.8324728e-02
 -2.0924538e-02
  3.1979415e-03
 -6.3385726e-03
  6.9501298e-04
 -1.5660452e-02
  2.8295612e-01
  3.6857440e-04
 -3.0776529e-02
 -1.4816737e-02
  8.1619471e-03
 -3.2256721e-03
  3.4214403e-03
  3.3473399e-02
 -7.1845390e-03
 -2.7280056e-03
 -1.7803978e-02
 -1.2704754e-02
 -1.3701634e-02
 -1.8387666e-02
 -8.8030376e-02
  6.4603682e-03
 -1.9026760e-02
 -7.2725164e-03
  1.9345668e-01
  1.0528306e-02
  1.6468154e-02
  7.0184618e-03
  8.1191575e-03
  1.4407888e-02
 -2.2295315e-04
  2.1195613e-02
 -4.6082581e-03
 -1.3055479e-02
 -1.1341148e-03
 -4.6168953e-02
 -3.0560121e-03
  2.2781385e-02
 -2.9242160e-02
  2.3592166e-03
  2.4126759e-02
 -7.0364256e-03
 -4.0646486e-02
 -9.3693547e-03
 -1.1766359e-02
  1.2762681e-02
  1.8561054e-02
  1.2972377e-02
  2.8598873e-02
  1.5055877e-03
 -9.3047433e-02
  1.1626301e-02
  2.2772603e-02
  1.2361567e-03
  1.4012356e-01
 -1.1417472e-01
  2.0820513e-02
  4.2424137e-03
  9.2118606e-04
 -1.0533390e-02
  4.8052712e-04
 -1.3676996e-03
  6.7564948e-03
 -9.9765975e-04
 -2.4295194e-02
  3.9077215e-02
 -2.6067493e-02
 -1.3250772e-02
  1.2005027e-04
 -1.8991472e-02
  7.0489664e-03
 -7.7146366e-03
  1.6099438e-01
  7.2571989e-03
 -4.9070098e-02
  2.6275044e-02
 -9.2236362e-03
 -8.3695855e-03
 -9.6590696e-03
 -8.8307261e-03
  2.9800187e-03
 -2.6139757e-02
 -1.4694776e-02
 -1.5175006e-02
  1.4352551e-01
  3.1535074e-02
  3.8978835e-03
 -7.7912421e-04
  7.9458160e-03
  1.6375463e-02
  1.8666958e-03
  2.6206661e-03
  1.5195084e-02
 -1.2054940e-02
 -6.2080538e-03
  8.3879434e-02
  6.1211977e-03
  4.2289048e-03
  5.1204460e-03
 -1.4097921e-02
  7.6076095e-03
 -2.4963953e-03
  3.0776572e-03
  1.8890264e-02
  6.7555811e-03
  1.8230943e-02
 -1.8855155e-02
 -1.2269814e-02
  1.8485144e-02
 -1.4861882e-03
 -4.1323029e-03
  1.4616819e-02
  5.9925541e-03
  5.8440678e-02
  9.7406032e-03
  1.9146213e-02
  2.6407771e-02
 -5.3628585e-03
 -1.5788195e-03
 -2.4921200e-03
  7.6633636e-03
  2.1420079e-03
 -1.7278224e-02
  1.2068629e-02
  4.5536000e-02
  6.2543705e-02
  1.8976269e-02
 -8.4536029e-03
  1.4617703e-03
 -6.6370848e-03
 -4.7001019e-02
  3.4911698e-03
 -3.2930389e-02
 -1.3450593e-02
 -7.7107684e-03
  3.0785341e-02
  5.4724526e-01
  2.4921396e-01
 -1.9333570e-01
  3.0120447e-01
 -1.4670423e-01
 -3.2147890e-01
 -2.1895850e+00
 -1.3318733e+00
 -1.3711843e-01
  2.4110709e-01
 -1.6490927e+00
  5.1159954e-01
  3.0288339e-01
 -2.1601033e-01
  7.9753902e-03
  2.2033656e-01
 -5.6811470e-01
 -7.7928412e-01
  2.5731304e-01
  4.0008864e-01
 -2.8716022e-01
  5.8042926e-01
  1.3887690e-01
  5.5350578e-01
 -1.2176673e+00
 -2.9549085e-02
  1.1412859e-02
 -6.3437784e-01
 -4.3678734e-01
  1.4114842e+00
  1.1712517e+00
 -9.8062611e-01
 -3.1884828e-01
 -4.5349654e-02
 -8.9123808e-03
  1.9860637e-01
  3.0666862e-02
  9.3581784e-04
  4.6838474e-02
  4.5609057e-02
 -7.3423125e-02
 -1.1993997e-02
  9.7109945e-03
 -2.5117714e-02
 -1.2107709e-02
 -3.5603936e-03
 -1.1108802e-02
 -2.6044246e-02
  5.5070408e-03
 -2.6411461e-02
 -1.9798376e-02
 -6.0246401e-03
 -2.3394239e-03
 -2.0602830e-03
 -1.0876433e-02
 -2.1638317e-02
 -1.5448407e-02
  9.2503559e-03
  1.3409810e-03
  3.2162867e-02
 -8.2372557e-03
  1.0732098e-02
 -6.9571903e-04
 -2.3026962e-02
  2.8955817e-02
  1.0406379e-02
  1.9529435e-03
  1.6036039e-02
 -1.3941764e-02
  2.7625091e-02
  7.4854945e-03
 -1.3529155e-03
  7.5938068e-03
  1.0627275e-02
 -8.6453627e-05
  5.4128813e-03
 -4.0346719e-03
 -1.2327733e-03
  8.1210700e-04
 -2.0719927e-03
  3.6147502e-03
  7.5079245e-03
 -2.2581131e-03
 -1.9089114e-02
 -5.9271515e-03
 -1.5610557e-02
 -5.4820823e-03
  3.5629846e-04
 -1.0427014e-02
  1.2470491e-04
 -3.3601280e-03
 -5.3343885e-03
  1.7598256e-02
  3.5320327e-04
  2.3757530e-02
 -6.6630701e-03
  8.9478381e-03
 -1.0998165e-03
 -4.3977117e-03
  2.8104249e-02
  4.4321474e-03
 -1.4235144e-02
  9.8599922e-03
  2.2629604e-02
  3.6046363e-02
  8.5530581e-04
  1.5460630e-02
  6.4702951e-03
  9.2350364e-02
  1.1930347e-02
  7.0348680e-03
 -2.1658294e-02
 -3.6794962e-03
  1.7788269e-02
  1.2743590e+00
  3.4076497e-03
  1.6964136e-02
  4.6024150e-03
  1.2800433e-02
  4.4532631e-02
  9.3557008e-02
 -2.9189009e-03
  1.8421255e-02
  5.9263278e-03
  1.8580351e-03
  1.5148874e-03
  2.2210114e-02
  5.4488350e-03
 -5.2842614e-03
  6.9095544e-03
  1.4517745e-02
  6.0964491e-02
  4.0157884e-03
 -7.1405671e-03
 -5.9503806e-03
  2.5116969e-03
  3.0455687e-03
 -6.8341829e-03
  2.9742299e-03
  2.0178698e-02
 -5.6248289e-03
  6.9386572e-02
  3.5941783e-02
 -4.5651849e-04
  1.1110549e-01
 -3.8426276e-04
 -6.2452344e-04
  2.2781598e-03
 -5.0303899e-02
  1.0996576e-02
 -2.8386756e-03
 -4.3142829e-03
 -5.8470934e-04
 -3.3027055e-03
  3.6943227e-02
  6.9027012e-03
 -6.9532631e-04
  2.0120021e-02
  3.1964738e-02
 -5.2961120e-03
 -4.5448616e-03
 -1.8529018e-02
 -9.0628779e-03
 -1.9262617e-02
 -1.3111256e-02
 -1.8141173e-02
  1.5738024e-04
  1.0412064e-02
 -1.1497990e-01
  3.8789019e-02
  1.0240364e-02
 -1.1730557e-02
  1.1522418e-02
 -5.4504694e-03
 -2.3197237e-02
  7.2485320e-03
 -1.0450089e-03
 -5.2970711e-02
  2.4936631e-02
 -1.9638671e-02
  3.9989814e-01
  1.1809651e-02
 -5.8202785e-01
  2.3859072e-02
  1.0827766e-03
 -2.2185696e-02
 -1.1687477e-02
 -2.4696700e-03
  6.7454255e-03
 -2.9088411e-02
 -1.6188260e-02
  5.2719218e-01
  2.8161097e-03
 -7.1467981e-02
  1.8253140e-02
 -5.1250439e-02
 -7.0095368e-02
  1.9534757e-02
  2.3078762e-02
 -9.5342356e-04
 -4.7900219e-02
  9.2215911e-03
  3.8654333e-01
 -5.8860026e-02
  7.0978012e-03
  3.4947887e-02
  1.5353464e-02
 -2.6426431e-02
 -5.8886465e-03
  4.1577071e-03
 -5.5260425e-03
  3.1491704e-02
  2.5194802e-04
  3.3059381e-03
 -1.0222004e-02
 -1.6883880e-02
 -7.7145889e-02
 -1.4877987e-01
 -1.5434957e-02
 -2.4242148e-02
  1.1101220e-02
  7.8949118e-03
  2.3569846e-01
  5.5916817e-03
  6.2769423e-03
  2.2451263e-03
 -6.7117944e-04
  1.4985025e-02
  1.0500836e-02
  1.9581893e-02
  5.6497417e-03
 -5.0595184e-03
  1.7342182e-02
 -8.9411773e-03
  6.5247193e-03
  2.3057709e-02
  1.5056285e-03
 -2.0644495e-02
  3.2972753e-02
  2.2900220e-02
 -1.1626060e-02
 -2.0486487e-02
 -1.1689644e-02
  2.0595534e-02
 -1.1454417e-03
  1.1358436e-03
  6.2624342e-03
 -1.0989388e-02
  6.0341307e-03
  6.9727916e-03
 -4.4601834e-03
 -4.4377749e-03
  1.2666469e-02
  1.2750721e-02
 -3.4304684e-01
  2.9391134e-03
 -2.2798770e-03
 -1.0257896e-02
  4.5272667e-02
  2.1021895e-02
 -1.5387205e-02
  1.7018205e-02
 -4.8040316e-02
 -8.4543750e-03
 -2.8848872e-01
 -2.0000376e-03
  1.0745762e-02
 -7.1029635e-03
  2.9207036e-02
  2.0835515e-02
  6.9795660e-04
 -1.8170524e-02
  8.9653432e-03
  1.3639953e-02
 -2.1033750e-03
 -1.2744117e-02
  7.5085741e-03
  4.9166314e-02
  2.1943251e-02
 -1.3129549e-02
 -8.7689860e-03
  2.3992739e-03
  2.3181788e-03
  3.0568309e-02
  1.0465370e-03
 -6.6745444e-03
  2.5160157e-04
 -3.6737852e-02
  1.0218656e-02
  1.3845207e-02
  7.6224678e-03
 -1.2077201e-02
  1.7615370e-02
  1.9207394e-02
 -6.9027059e-03
  6.6851862e-03
  1.4460323e-02
  2.6307056e-02
 -2.6332339e-02
  6.7401573e-04
 -2.4825886e-03
 -8.9350287e-03
  2.9053925e-02
 -2.5937140e-02
  2.8744584e-02
 -1.7514296e-02
  1.8669486e-02
  4.3700341e-02
 -9.8272353e-01
 -1.3905172e+00
 -2.0606427e-01
 -1.0233386e+00
 -6.7015165e-01
  2.3091280e-01
 -2.2080643e-01
  1.2779032e+00
  1.2549983e+00
  7.9142964e-01
  6.0533351e-01
 -3.8918877e-01
 -7.7059858e-02
  1.6926278e-01
  1.2365307e-01
 -8.2570821e-01
 -1.0078295e+00
  8.1869090e-01
 -1.4338453e-01
 -5.9628822e-02
  2.2721466e-01
 -7.7533059e-02
 -5.8522526e-02
  3.8866175e-03
  3.7492794e-01
  1.7108206e-01
 -1.1608531e+00
  2.0609358e-01
  1.4613317e-02
 -9.0341812e-01
 -3.9265998e-02
  1.9642043e-01
  2.9371744e-02
 -1.1938205e-02
  4.2946157e-01
 -3.7428021e-01
 -4.6117315e-01
  6.9622599e-02
  4.8728008e-03
  1.1684619e-01
  5.5668231e-02
  6.2195133e-02
 -2.1091722e-02
  6.9617461e-03
 -8.5730451e-01
  8.4218532e-01
 -6.1084664e-01
  6.6947348e-02
  6.2535775e-01
 -1.6217348e-01
  6.8340737e-01
  2.9496176e-03
  3.2589066e-01
  8.7204129e-02
 -1.8739095e-01
 -1.1437056e-02
  8.9786130e-01
 -8.6874431e-03
 -5.2971267e-03
  2.8455254e-01
 -3.5914749e-02
 -2.8386537e-02
  1.0615487e-02
 -4.7798842e-02
 -1.2920091e-02
 -8.2857255e-03
  4.2844866e-03
 -1.0184236e-02
 -2.7952153e-02
  2.2774402e-03
  7.2665162e-02
 -5.6001689e-02
  2.2940312e-01
  3.5064751e-01
  1.4599829e-02
 -2.2648477e-03
 -4.3130338e-02
  4.1689370e-02
 -1.9371819e-02
 -4.7806511e-04
 -3.9589987e-03
 -1.7531441e-03
 -3.0479219e-03
  5.1753599e-02
 -1.0721061e-01
 -1.2625710e-02
  1.4622615e-02
 -1.7310653e-02
 -4.0136024e-02
 -1.4263190e-01
  5.9243435e-01
 -3.9943427e-02
 -5.4487465e-03
  1.7037849e-01
  6.5948164e-01
  7.3583163e-02
  1.2197697e-01
  6.2359922e-02
  5.5897444e-01
 -3.5433970e-02
 -1.8688047e-01
  6.0856789e-01
 -7.8336067e-02
 -4.4053882e-02
 -4.7140483e-02
  3.6689016e-01
 -2.7527049e-01
  3.2200739e-02
  5.7526135e-01
 -2.2909234e-01
  4.8352487e-02
  4.3419518e-02
  1.2949577e-01
  2.1112259e-01
  1.5120260e-01
  3.1919998e-01
  5.5501265e-03
 -6.9784170e-01
  5.7769600e-02
  9.6018761e-02
  2.2140287e-01
  6.7611244e-03
  3.7251848e-01
 -3.2408461e-02
 -8.1550121e-02
  9.7233273e-02
 -7.3013278e-03
 -3.3078805e-02
  8.1222199e-02
  6.0507976e-02
  4.3534357e-02
  4.9981721e-02
  6.0677540e-01
 -1.9308294e-01
 -1.2315077e+00
  2.4063526e-01
  1.3033339e+00
  7.9575944e-01
 -2.7058973e+00
  1.6207211e-01
 -2.4353871e-03
 -6.9238842e-02
 -1.0089409e-01
 -5.5539310e-01
 -2.2656767e-01
 -2.2610039e-02
  9.4845080e-01
 -1.3744652e-01
 -1.4579929e-02
 -8.5295765e-03
 -5.2717566e-01
  3.5406251e-02
  2.5435500e-02
 -1.6044211e-02
 -6.1234280e-02
 -1.0964440e-03
 -4.1933125e-03
 -9.2112683e-02
 -3.1802210e-01
  7.7035879e-03
  1.4589642e-02
 -3.0917397e-01
  2.0036858e-03
  1.2911214e-02
 -3.2019183e-02
 -3.8885814e-01
  1.3312714e-02
 -3.4099970e-02
 -1.5776396e-01
  1.3596664e-02
  8.6758621e-03
  4.2033419e-03
  1.1216430e-02
 -9.1012763e-03
  5.6382059e-03
  2.4412632e-02
 -1.8289153e-02
  1.3272524e-01
 -1.0658082e+00
  2.1683726e-02
  4.5248315e-01
 -6.4199477e-02
 -4.7743963e-03
  1.0162207e-01
 -3.4742050e-03
 -3.1413424e-01
  5.4375068e-03
 -1.3926373e-02
  3.5381246e-01
 -5.4504946e-03
  7.5916700e-02
 -9.4818720e-04
  2.6246330e-02
  2.0753101e-02
 -5.3226426e-02
  2.5300777e-02
  1.6662967e-03
 -3.7407447e-02
  9.3671493e-04
  2.3456570e-03
  1.2755188e-02
 -3.9106384e-02
 -4.6559967e-02
  4.5384206e-03
  4.0678110e-04
 -8.7059056e-04
  5.3837872e-04
 -4.7663897e-03
 -6.4323515e-02
 -2.1126060e-02
  1.6972885e-02
 -1.8563716e-02
  6.5666311e-03
  1.7602615e-02
  2.8627342e-02
 -7.7924589e-03
 -7.2212038e-03
  6.7147880e-04
  2.2859668e-02
  4.9624145e-03
 -8.2207954e-04
 -1.5336496e-01
  6.5471774e-01
 -4.4841337e-01
  1.5545721e-01
 -4.7449674e-02
 -1.8641356e-01
 -5.0748259e-01
  8.3653316e-02
  4.0555987e-01
  2.6139533e-03
 -7.5087310e-03
 -3.9083157e-02
  8.1755407e-03
  1.9464500e-01
 -2.5082874e-01
  3.1593138e-01
  2.2965720e-02
 -2.5611725e-02
  4.5006005e-03
  2.7829224e-02
  1.9040396e-03
  1.2278990e-01
  2.1646987e-01
 -4.8029065e-02
  3.1152776e-01
 -1.1789510e-01
  3.2476269e-02
  4.1606452e-02
 -7.2912890e-03
 -1.8120934e-01
  5.2597586e-02
  1.0109859e-02
 -9.4463462e-03
  6.4429506e-03
 -2.5915197e-01
  8.1699034e-03
  3.7457820e-02
  5.8800902e-02
 -7.1134195e-03
  4.3527079e-03
 -6.5803183e-03
 -3.8177261e-01
  3.9602336e-02
  1.6186157e-01
 -1.1809333e-02
 -7.9566436e-03
 -2.4003716e-01
  5.9748504e-02
 -6.5705431e-01
  3.2171798e-01
  9.1962546e-02
  2.2101678e-01
  5.2773356e-03
  2.3604128e-01
 -2.9452673e-01
  1.6258751e-01
  1.6434018e-01
  9.7932741e-03
  1.8166630e-03
 -4.0458128e-02
  1.3548966e-01
 -5.0338800e-04
  3.4254396e-01
  9.4031207e-02
 -8.5119689e-03
 -1.2965109e-03
  2.3579791e-02
  1.8197985e-02
  1.5440859e-01
  2.6097575e-01
  3.1042793e-01
 -1.6333044e-03
 -1.0254467e-01
  7.1122950e-01
  1.3639367e-01
  6.6014327e-02
  1.0966859e-03
  3.3067036e-02
 -7.7353701e-02
 -1.2302304e-01
  1.3130321e-03
 -3.6815777e-02
 -2.7785036e-03
  3.5028629e-02
  2.0047893e-01
  1.7671499e-01
  2.4436228e-02
 -8.0775116e-03
  1.5916560e-02
  4.4596184e-02
 -1.8723916e-04
 -3.1211809e-04
 -1.1071687e-02
 -1.6654760e-02
 -9.8083401e-04
  3.6533161e-03
  1.1534789e-02
 -1.3953881e-02
 -4.8736166e-03
  2.2693273e-02
  1.5854696e-02
  1.0846071e-02
  1.2236038e-02
 -3.9996086e-03
 -1.3732457e-02
  3.4243289e-02
  2.6891479e-02
  2.1284297e-03
 -3.1345529e-03
 -7.9570673e-02
 -4.7590774e-03
  1.3049312e-02
  2.5869580e-03
 -5.4620255e-02
  6.2870472e-03
 -2.6535178e-02
  8.0299983e-03
 -8.1114853e-03
  9.7664613e-03
 -2.3525688e-03
 -5.6049913e-02
 -1.3792335e+00
  1.1829537e-04
  3.3672951e-02
  1.2439198e-02
 -2.6774106e-03
  1.0505423e-02
 -1.2250656e-02
  9.0282727e-03
 -5.6597060e-03
 -1.1334289e-03
 -1.1590219e-02
 -1.1560690e-02
 -6.7177914e-02
  2.1160543e-02
 -5.9695467e-03
 -2.5371346e-04
 -7.1158689e-03
 -1.4305727e-03
 -3.2416150e-02
 -3.2262874e-03
 -8.0363564e-03
  1.5034965e-02
 -1.2118150e-02
  1.3506333e-02
 -2.2423487e-02
  5.6204791e-03
  4.8674449e-02
 -3.6127603e-01
  4.5823739e-03
  5.6040282e-03
  3.0769875e-02
  2.9787038e-02
  8.8350037e-03
 -3.1624578e-02
 -1.8884355e-03
  2.9470278e-03
 -1.1931230e-02
 -2.2570973e-02
  2.0134199e-02
 -1.4202220e-03
 -6.3738078e-03
  2.7913041e-02
 -2.6747838e-02
  1.1712717e-02
  1.2017120e-02
  2.6137908e-03
 -2.0903295e-02
  5.1581818e-03
 -3.2528017e-03
  2.8063167e-02
  5.9768599e-03
  9.6053064e-02
 -5.1724946e-01
  1.3974220e-02
 -1.9255152e-03
  2.4902886e-02
 -3.9916001e-03
 -6.1839418e-03
  4.8436699e-03
  1.1509875e-02
 -2.4050448e-02
 -2.5601385e-03
  4.6087738e-02
  8.1115309e-04
  1.0020516e-02
 -1.8263116e-02
  2.1883374e-02
 -6.2145842e-03
 -2.8580163e-02
  5.8571696e-03
 -4.3860474e-03
  2.3443850e-02
  7.5578922e-03
 -5.0957324e-03
  2.3552710e-03
  2.7541583e-02
  1.5413350e-02
  1.7942652e-02
 -8.5176192e-03
  1.0655985e-02
  1.1673464e-02
  1.7818600e-03
  8.2629612e-03
 -2.3172950e-02
 -1.2660261e-02
  1.1703598e-03
 -3.2269708e-03
  8.0389315e-03
  3.9877240e-03
  2.2192316e-02
 -6.5074321e-03
 -6.3478490e-03
 -4.2792447e-03
 -1.5987167e-03
 -7.1699074e-03
  3.6838427e-03
  5.5591245e-03
 -2.7023498e-02
  1.9730864e-02
  3.3946618e-02
  7.4516796e-02
  5.9453389e-03
 -2.1569259e-02
 -2.4408458e-02
 -2.0524925e-02
  4.2141724e-02
  2.0111751e-02
  1.2580533e-02
 -1.2063835e-01
  1.1754881e-03
  8.0576912e-03
  2.0982448e-02
 -3.3891960e-03
  1.2397095e-02
 -5.7301624e-03
 -2.1730824e-03
 -2.2347916e-03
  6.5609692e-03
 -2.3956431e-02
  4.6163290e-03
  1.2560840e-02
 -3.5077769e-02
  2.4412845e-03
 -1.3368234e-02
 -2.8193945e-02
 -7.3478874e-03
 -2.1490427e-02
  3.6642677e-03
  2.5874567e-03
 -1.3519555e-03
 -1.2166388e-02
 -3.5863889e-03
  1.5161141e+00
 -4.2314641e-03
  2.9587727e-02
 -9.4969859e-03
 -9.6259126e-04
  4.7288258e-02
 -1.9238157e-02
  9.9813016e-03
  5.4146545e-03
  3.6896069e-03
 -8.4116417e-01
 -5.4439121e-01
 -3.3690503e-01
 -2.8990917e-02
  3.3852887e-01
  6.1383682e-01
  1.7613746e-01
 -4.0023112e-01
  1.9801464e-03
 -1.2585521e-01
 -2.4934664e-02
  1.5282303e-02
 -5.1828057e-01
  8.8998444e-02
 -2.6553981e-02
 -3.5524282e-01
  3.3019820e-01
 -1.0567734e-02
 -3.5684231e-01
  6.3093740e-01
  4.1286319e-01
  9.2881776e-02
  1.6820414e-02
 -1.4558916e-01
  2.0056223e-03
  2.3485108e-01
  2.5774428e-01
 -1.8022632e-02
 -3.4154975e-03
  3.1657026e-03
  1.2131207e-01
 -1.1271829e-01
 -1.2507050e-01
  2.9512846e-01
  9.1215093e-03
  1.0110015e-01
 -6.5199718e-02
  7.1341775e-02
 -4.8910048e-02
 -6.6678370e-03
  2.4513643e-02
 -1.2265285e-03
  9.9609736e-03
  9.5242821e-03
 -8.3609670e-02
 -1.2319603e-01
  2.9127229e-02
 -3.6821577e-03
  2.1213229e-01
 -2.0892720e-01
 -2.3492965e-01
 -4.6384457e-01
  7.2185937e-03
 -1.2478447e-01
 -4.1921803e-01
  1.2492517e-01
 -2.2144558e-01
 -3.6206865e-01
 -3.0566028e-01
  1.3113365e-01
  2.2446519e-01
 -1.9211781e-01
  2.0179609e-02
 -2.1949583e-01
 -4.0801328e-01
  2.0640127e-01
 -1.8327449e-01
  4.7225725e-02
 -2.3651311e-01
 -1.7187434e-01
  4.7213975e-03
 -2.1675262e-01
 -5.8432613e-02
  3.2694563e-01
 -4.2390283e-02
 -4.6690786e-01
 -8.6117305e-02
 -8.0887247e-03
 -1.3786215e-01
  3.4944406e-01
  1.1043595e-01
 -6.4942829e-02
  2.1495719e-02
  8.2508950e-03
  2.3375280e-01
 -5.6031854e-03
  5.8745481e-02
 -1.1398792e-01
 -6.8164058e-04
  1.7616624e-02
  2.2922693e-02
 -2.4915069e-02
 -1.2690859e-02
 -6.7067808e-03
  2.1229483e-02
 -1.5922918e-03
  4.9061321e-02
 -6.0242349e-03
 -3.1062258e-02
  1.6237940e-03
  1.0137479e-02
  1.0376893e-02
 -6.9632772e-03
 -7.9768598e-03
  1.0301201e-02
  7.4548408e-02
 -7.0255431e-03
  1.5073223e-04
 -2.4292497e-03
  2.5025189e-02
  1.2939669e-02
 -2.7719480e-03
  5.7563600e-03
  7.9593072e-03
 -4.1910587e-03
 -3.3514701e-02
 -5.2247047e-02
 -4.3807472e-03
  5.8077006e-03
  1.5129526e-02
  1.4845734e-02
  1.5072169e-02
 -5.3714081e-03
 -1.3554710e-02
 -2.5690680e-02
  1.4163788e-02
 -4.9617942e-03
  2.0823698e-02
 -2.8980017e-02
 -1.6784936e-02
  2.1380935e-02
 -3.5667416e-02
  1.2240652e-03
  1.3667054e-02
 -4.6331331e-01
  1.0313820e-03
 -2.5594997e-01
 -2.3500450e-02
 -1.0080941e-01
  1.8052012e-02
  4.4962831e-02
 -5.1542963e-03
  2.7580647e-02
 -1.5893810e-03
 -4.0318061e-02
  8.1804860e-03
  1.2717900e-02
 -3.0830534e-02
  6.9791256e-03
  9.4856870e-01
 -2.7340734e-02
  1.6949397e-02
 -6.2972205e-03
  6.6090790e-03
 -7.6685962e-03
  2.1100407e-02
  1.6306330e-02
  2.3937775e-02
  8.7022074e-02
  3.6591947e-02
  1.2588220e-02
  6.0541295e-03
  1.2858862e-02
  2.1684987e-02
  3.9718798e-03
 -2.7019443e-02
 -2.5408460e-02
 -6.2482320e-03
 -1.0281457e-01
  3.7638683e-02
  1.1621551e-02
  1.2036879e-02
  8.2648750e-03
  5.4173805e-03
  2.2527296e-05
  2.9380354e-03
  7.6806080e-01
  1.1193597e+00
 -1.8517818e+00
 -1.8423238e-03
  1.8317710e+00
  5.4820663e-01
  5.4532748e-01
  1.9505439e+00
  1.1964544e+00
 -7.5258797e-01
 -2.3285095e-01
 -8.4515661e-01
 -5.0748706e-01
 -2.9786116e-01
  5.3501588e-01
 -6.0485357e-01
 -1.0799663e+00
 -9.0751238e-03
 -6.8154968e-02
  7.6454282e-01
 -1.7529006e-01
  4.0611070e-02
 -5.6962705e-01
  1.9940327e-01
  2.7981859e-01
 -8.1157291e-01
 -6.6571021e-01
 -2.5848050e-02
  2.9657047e-02
 -1.7543514e-01
  7.6654178e-01
  3.8003123e-01
 -1.9354433e-02
 -3.7256885e-01
  1.1054371e-02
 -3.8440764e-02
 -2.3488289e-02
 -2.2510168e-01
 -6.3668653e-02
 -5.7117650e-03
 -9.3148246e-02
  1.3456745e-02
 -5.6088287e-03
  6.3822162e-04
 -1.2845381e-01
 -5.3750511e-02
  1.0317700e-01
 -7.9303898e-02
  4.2788371e-01
  2.7992293e-01
  7.6789027e-01
 -1.8236534e-01
 -1.1068674e-01
  3.6291538e-03
 -3.2444035e-03
  4.3808375e-03
 -2.6017955e-01
  1.2380407e-01
 -3.8179696e-02
 -1.4611046e-01
 -5.5983579e-03
  3.5778970e-01
 -3.0928034e-01
  3.8829505e-01
  3.9174417e-01
  1.4828114e-01
 -4.1373990e-02
 -2.7783385e-01
  1.3982797e-03
  7.8149684e-02
  8.7525873e-03
  4.2552570e-01
 -2.3419024e-01
 -1.3304970e-01
 -8.5150927e-01
  5.1160950e-02
 -1.3038122e-02
  5.0422782e-01
  2.7353185e-01
  1.9101014e-02
 -2.8924939e-01
  1.5251893e-01
 -1.8479379e-03
  1.2136295e-02
  2.3128476e-02
  2.0835496e-02
 -2.3715151e-03
  1.0256849e-02
  1.4989248e-03
  1.3756890e-02
  1.8902467e-01
 -7.0767757e-03
  1.1423673e-02
 -5.7019680e-03
 -6.5695159e-03
 -5.2019740e-03
 -1.8371223e-02
 -1.7897418e-02
  9.9224336e-03
  2.3866380e-03
  4.9466211e-03
 -7.8863949e-03
 -1.7353747e-02
 -2.5922095e-02
 -3.4184467e-02
 -9.0982188e-03
  2.8271230e-02
 -9.6017038e-03
 -1.1461144e-02
  1.2358123e-02
  1.0147467e-02
  9.4275484e-03
 -3.8485648e-03
  1.5417570e-02
  1.4559489e-02
  3.1631740e-03
 -2.8034931e-02
  8.1151016e-02
 -5.2294517e-03
 -1.3491685e-02
  8.1851007e-04
  6.2056812e-03
 -9.4853006e-03
 -2.2268062e-04
  4.5982283e-03
 -2.7067708e-03
 -3.0005101e-02
  1.9306626e-02
 -8.9259267e-02
 -2.1844596e-02
  4.0256299e-02
 -9.8877484e-03
  1.5175195e-03
  4.6970658e-03
  4.4350311e-01
 -1.2227936e-02
 -1.3182056e-02
 -1.5171175e-02
 -1.4513573e-02
 -3.0765754e-01
 -1.3457058e-03
  1.2051747e-02
  1.3099426e-02
 -6.1044469e-03
 -9.1631319e-03
  3.5924409e-02
 -3.7833888e-02
 -1.6788961e-02
 -7.8570925e-02
 -3.2230187e-02
  7.2589200e-03
 -2.0173653e-03
 -4.4153929e-03
  1.1884786e-02
 -9.4104861e-04
  2.7796566e-02
  2.4809004e-03
 -1.0704568e-02
  7.7788299e-04
  1.4854498e-02
  2.4936505e-02
 -1.8913908e-02
  1.1760974e-02
 -4.4572856e-02
  4.6971045e-03
  2.1415048e-03
 -2.3241809e-02
  4.5486144e-03
 -2.8847703e-03
 -8.6290145e-04
  3.1898476e-02
  4.6709571e-03
 -9.4919279e-03
 -7.4280994e-03
  1.6102672e-02
 -5.6419935e-02
  9.9127740e-04
 -2.2351336e-02
  2.5381966e-02
  2.5945684e-02
 -1.8833576e-02
 -9.2001064e-03
 -7.3456895e-03
  2.2678408e-03
 -5.1990286e-03
 -9.9554658e-04
 -6.8929894e-03
  2.6209420e-02
 -1.0085627e-02
  1.0462569e-02
  2.5109467e-03
 -8.0590658e-03
 -3.5064122e-01
 -3.7859413e-03
 -6.0931691e-03
 -5.8405872e-02
 -2.2904957e-03
  2.2691190e-02
  5.7255019e-02
 -1.4379699e-02
  9.7424500e-03
 -2.6556521e-03
 -8.5323816e-03
 -1.1666213e-02
 -9.6843851e-04
 -3.7461035e-03
 -4.7827821e-02
  1.1987342e-03
 -1.4321717e-02
  2.4884548e-02
 -1.7903395e-02
 -1.8143194e-03
  1.6951991e-02
 -3.9631326e-02
 -1.3213964e-02
 -7.3817896e-04
  5.1802942e-03
 -3.0199781e-02
  1.3707113e-04
  4.0151510e-02
 -6.6579664e-03
  5.2223471e-03
  3.1852704e-02
  5.4021301e-03
  2.8162839e-02
  1.0654552e-02
 -4.4852621e-03
  1.7183106e-02
 -1.2789255e-02
 -3.0259125e-02
 -1.2545023e-02
  4.6510046e-05
  3.5697188e-02
 -3.2517467e-02
 -5.7216305e-03
  1.6098388e-02
 -3.6595721e-02
  9.2038233e-03
 -1.1440148e-03
 -2.2273615e-02
  2.2195862e-03
 -1.6073577e-02
 -5.4190303e-03
 -2.1367669e-03
 -1.2793965e-03
 -1.0122713e-03
 -3.8564259e-03
  3.4260467e-02
  2.9163766e-03
  6.4738594e-02
  3.4391969e-02
 -1.0545165e-03
 -4.0262517e-02
  5.1831786e-04
 -5.2168183e-03
  2.0722367e-02
 -4.8393402e-03
 -9.5451553e-04
  1.5565439e-02
  2.0433296e-02
 -2.3599682e-02
 -2.1279749e-02
 -1.3337382e-02
 -1.6941831e-03
  1.2726028e-02
  1.3291708e-02
 -2.0793749e-03
  7.9522109e-01
  1.3015306e-02
  1.2712615e-02
 -1.3041173e-02
  6.0188114e-03
  6.9970982e-03
 -1.7864669e-03
 -1.5235978e-02
 -1.1648153e-02
 -1.4910368e-02
 -2.2057603e-01
  2.0043500e-02
  6.2285922e-03
  1.6333451e-02
 -1.7979925e-02
 -1.6911492e-02
 -4.1593458e-03
  1.0895962e-03
 -6.1079413e-03
  6.1447038e-03
 -1.1473103e-02
  1.6583024e-02
  3.6416799e-01
 -2.4381422e-02
  6.5421616e-03
 -3.8573865e-02
  4.6072315e-02
  8.4022842e-03
  4.0293545e-02
 -7.3914756e-03
 -1.1798004e-03
 -2.5810627e-02
 -1.7577507e-02
  3.4602182e-03
 -1.3539763e-02
 -4.2696269e-03
  2.0498177e-03
 -6.4090420e-03
 -1.0228891e-02
  6.7933807e-03
  1.9435333e-02
 -3.5472793e-04
 -1.2608627e-02
  2.7465313e-03
  1.2639277e-02
  2.0909425e-02
  3.3769454e-04
  4.4549587e-01
 -3.8008410e-02
  2.8312819e-02
  3.0463761e-02
 -3.8395014e-02
  1.3263322e-01
 -1.0943787e-02
 -1.3131498e-02
 -3.1764747e-04
 -2.0776819e-03
  4.1984200e-02
  3.2276551e-03
 -1.0454268e-02
  2.0944441e-02
 -7.2057739e-02
  2.1063138e-02
  2.5252650e-02
  1.3117668e-02
 -1.7555457e-02
  1.7377485e-02
 -9.7432337e-04
 -4.8696045e-03
  1.8071672e-03
  4.7689360e-03
  2.6868077e-03
 -9.4817746e-03
 -2.4640227e-02
  4.8626782e-03
 -1.6515607e-02
  1.8810062e+00
  1.5469330e-02
 -5.8135577e-04
  1.4597652e-02
 -3.3038314e-03
  5.5914102e-03
  7.4881120e-03
 -1.3674081e-03
 -2.4561243e-02
 -7.4966936e-03
  5.8047026e-03
 -9.8521728e-03
 -1.4623377e-02
  4.0999413e-01
 -1.5164110e-03
  3.7050534e-03
 -2.0525301e-02
  8.7009929e-03
  2.7597971e-02
  2.8480701e-03
 -2.8599566e-04
  7.3044561e-05
  3.6679655e-02
  6.2602712e-03
  1.6667254e-03
  4.0575485e-03
 -6.9563575e-03
  1.3752004e-02
  9.1076363e-03
 -4.9275812e-03
  3.6046673e-02
 -1.4457203e-02
 -3.2481803e-03
  8.4519219e-03
 -5.6400783e-03
 -3.0787253e-01
  5.4527065e-03
  1.2227711e-03
  2.5504548e-03
  8.8554882e-03
 -3.3545882e-02
  4.9212873e-02
 -1.0543475e-02
 -1.3795660e-02
  1.3050615e-02
 -1.4816730e-02
  2.2562951e-02
  7.1931398e-03
 -7.0183970e-02
  5.4461164e-03
  2.1598686e-02
 -2.4788310e-03
  7.1027535e-03
  1.2183354e-02
  3.2430706e-03
  1.1729593e-01
  1.1627448e+00
  1.2815036e+00
  3.4993444e-02
 -1.1073595e+00
 -7.9026222e-01
 -1.1256485e-01
 -1.2047205e-01
 -4.9460649e-02
  1.0335715e-02
  3.3758157e-01
 -4.6631355e-02
 -6.5064162e-01
  8.9855539e-03
  2.0844704e-01
 -9.6251592e-02
  1.9480109e-03
  9.2610475e-03
 -4.2162633e-01
  9.2041276e-02
 -4.6177074e-02
 -8.1481626e-03
 -1.2167828e-02
 -1.3882460e-01
  7.8215249e-02
 -2.6768991e-01
  1.3563100e-02
  3.5235280e-01
 -4.0881041e-02
 -5.1128071e-02
 -6.1318153e-03
  7.3867319e-03
 -1.4333528e-02
  2.2272471e-02
  5.6783158e-02
  7.3273890e-03
  8.3177267e-03
  1.5243502e-02
 -1.1632414e-02
 -2.1408243e-02
 -1.9064257e-02
  5.7130358e-03
 -8.8501880e-03
 -4.7254413e-02
 -3.2553479e-01
 -6.6596642e-03
  1.1076345e-03
 -5.5236807e-03
  7.4127913e-03
 -4.6253256e-03
 -1.2460402e-02
  2.4116514e-03
  6.7314105e-03
 -7.4517494e-03
  8.3937226e-03
 -3.2359276e-02
 -3.7273914e-03
  1.9344711e-03
 -1.0783456e-02
  4.5218341e-02
  4.0068496e-03
  1.3729776e-01
  1.7022710e-02
  1.3942098e-02
 -4.8207277e-03
  3.3185966e-03
 -3.2639143e-04
 -6.0096937e-03
  7.8883283e-03
 -7.1582012e-03
  2.2353347e-02
 -1.0219544e-02
 -1.5029995e-02
  9.9173142e-03
  1.1077345e-02
 -4.0350631e-03
  3.5971805e-02
 -6.2195912e-02
  3.3202365e-02
 -1.8755866e-02
 -1.7755859e-02
  3.3753077e-03
  1.5084830e-02
  9.3450584e-04
 -1.6638085e-03
 -1.6587973e-02
  3.3768651e-03
  2.6177442e-02
 -2.3147529e-01
  1.6072551e-03
  1.6622245e-05
  2.2836495e-02
  7.1299449e-03
 -1.7919112e-02
  2.2509252e-03
  2.4560078e-03
  9.1245286e-02
  2.4031183e-02
 -6.7088951e-04
 -3.5441633e-02
 -8.5691800e-03
  2.9921282e-02
 -1.5977736e-01
 -2.3315914e-02
  1.8300032e-02
  1.0972441e-03
 -4.5309570e-03
  8.5117891e-03
  2.0712629e-02
  2.9977119e-02
 -8.4986212e-03
 -1.4449498e-03
  3.8234279e-03
  1.3737773e-02
  3.9349841e-03
  2.3902389e-03
 -9.8890555e-04
 -1.8030033e-04
 -7.8195920e-03
  4.2531081e-03
 -1.1705124e-02
  1.1595519e-02
 -1.6206207e-02
  1.2690558e-02
 -3.4237526e-02
 -9.9430035e-04
 -6.4966311e-03
  3.6603346e-02
  2.8884444e-02
 -1.1458270e-02
 -8.3421052e-01
  4.7892100e-01
 -3.1376135e-01
 -2.2780569e-02
  4.5725886e-02
  1.7081166e-02
 -8.0781877e-02
  4.3231753e-01
  2.4536159e-02
 -5.6838316e-01
  6.0265821e-01
 -1.1206158e-01
 -9.8495996e-01
  4.9264297e-02
 -6.5381336e-01
 -2.8334865e-02
 -7.7929997e-01
  8.9194596e-02
 -3.5507537e-02
  6.3641081e-03
  5.0588444e-02
  3.8556990e-03
 -9.3708292e-02
  9.8296795e-03
  3.3741903e-01
 -3.8312168e-03
 -3.3287424e-01
 -1.1672784e-02
 -1.2581892e-01
 -2.3143396e-01
  9.2726427e-01
  6.5496606e-01
 -2.6672408e-03
 -4.8122620e-03
  2.1076586e-02
 -7.3533291e-03
  8.0219433e-02
  3.0540284e-02
  1.5531910e-02
  2.3995885e-03
  2.1634517e-02
  4.4598669e-02
 -4.4935076e-03
 -1.2957817e-03
  4.4299425e-03
 -2.0085441e-01
 -3.8646159e-03
  2.2191696e-02
  8.1746252e-03
 -7.6983348e-03
 -5.9878477e-04
 -1.2011454e-02
  2.0025600e-02
  2.3152156e-02
 -1.2007644e-03
 -1.9718919e-02
  4.4059176e-03
  1.1113578e-02
 -1.1867370e-02
 -2.4079166e-02
 -1.6434569e-02
 -1.0876674e-02
  1.4481711e-01
 -2.9209396e-04
  9.3319807e-03
 -7.4862610e-03
  2.6051868e-02
  2.3006331e-02
 -2.2664606e-03
  1.1801899e-02
  1.5403593e-03
 -1.8510468e-03
 -5.2701849e-03
  8.0673201e-03
  5.1990794e-03
 -9.3714371e-03
 -1.3863128e-03
 -1.1410311e-02
 -3.0909330e-03
  3.0101091e-02
 -5.4265340e-03
 -9.9529065e-03
 -2.4862606e-03
  4.6133725e-03
 -1.2825365e-02
 -4.3451306e-03
 -2.0911940e-04
  2.9837022e-02
 -8.9455275e-03
  1.7076110e-02
 -3.4702711e-02
 -2.4176692e-03
  2.1596183e-04
  2.8970569e-02
 -2.0413122e-01
  1.1151633e-02
 -2.2217147e-03
 -1.7685771e-03
 -5.0081839e-03
 -1.6699603e-03
 -2.0475326e-01
  6.4386334e-04
 -1.0519670e-03
  6.4505520e-03
  2.4506047e-02
 -9.1565195e-03
  1.2432871e-02
 -8.1357220e-03
 -2.5088593e-02
 -2.3856733e-02
  1.0754143e-02
  1.3457393e-02
 -5.7732929e-03
 -9.8150596e-03
 -2.5974473e-02
 -2.3131160e-02
 -1.6340058e-02
 -1.3677962e-03
 -1.2680900e-01
 -8.1666075e-03
  2.1473512e-02
 -2.6750535e-02
 -4.3751709e-02
 -1.7584093e-02
  7.4389070e-02
 -4.6054449e-02
 -3.4831047e-02
  1.4569586e-02
  7.2009531e-03
 -1.1091805e-02
  1.1026443e-02
  1.0717025e-02
 -7.2686039e-02
  7.7757519e-03
  1.0772796e-03
 -2.8635733e-02
 -4.8280954e-02
 -1.4047463e-01
 -3.8673326e-02
 -8.8277357e-03
  2.6002754e-03
  2.1238895e-02
 -2.3132425e-02
  4.0064991e-02
  1.0007986e-02
  2.5217671e-02
 -5.5479255e-02
 -1.1652093e-03
 -1.4087044e-02
 -3.9643366e-02
  4.6383739e-03
 -1.7672689e-01
 -6.7391992e-03
 -1.3017119e-04
 -2.8292043e-03
 -5.7619642e-03
 -1.3931192e-02
  1.1604086e-02
 -3.0057325e-03
 -3.9741322e-03
 -2.8097881e-02
 -1.8450290e-02
 -3.4533296e-02
 -5.2234894e-03
 -2.8589494e-03
  6.2087178e-01
 -5.9858896e-03
 -9.9637555e-03
  3.9520976e-03
 -4.0091489e-02
  3.5690377e-03
 -4.2527877e-03
  2.7388243e-02
 -6.8083126e-04
  8.8587888e-03
 -5.8976579e-03
  2.7378822e-02
 -5.6142779e-03
  1.5015183e-02
 -7.1560121e-03
 -1.0837808e-02
  2.3908252e-02
 -1.7783635e-03
  1.7586445e-02
 -1.3303148e-02
 -1.4865432e-02
 -7.7977101e-04
 -9.2417356e-03
  1.0785688e-02
  9.9166054e-03
  7.6146796e-05
  2.3533159e-03
 -3.1711676e-03
 -5.3734421e-03
  2.8138920e-03
 -6.5567922e-03
  1.5366126e-03
  2.3730682e-02
  1.9932468e-03
  7.4013341e-03
  3.2482821e-02
 -6.1879950e-03
  3.7566165e-04
  2.6897592e-03
 -2.5732212e-02
  7.4742061e-01
  5.8143148e-03
 -1.2532044e-02
 -1.8260114e-02
  3.5021558e-02
 -3.6564320e-02
 -8.6834095e-03
  4.4077862e-04
 -3.9784998e-02
  4.1582640e-03
  2.6747473e-02
  3.0714940e-02
  2.4173263e-02
  7.1200775e-03
  4.3453234e-03
  7.0936820e-03
 -2.0182416e-02
 -3.6787473e-02
 -7.0619024e-03
  1.0706922e-02
  2.8030288e-03
 -5.1107764e-02
 -2.2544891e-01
  4.3518227e-03
 -2.7794593e-03
 -2.5299346e-02
 -3.9341543e-03
  4.6177294e-02
  1.9755322e-02
  1.2717955e-02
 -2.4099881e-02
  5.3813439e-02
 -7.8102625e-03
 -2.9447224e-02
 -3.6706436e-02
  1.8480852e-02
  1.9630541e-03
  3.4870092e-02
 -9.2734583e-03
  1.1313864e-02
 -2.7003538e-02
  2.1167334e-02
  8.7627778e-03
  8.2488237e-03
 -2.2165632e-02
 -3.9336290e-03
 -3.5441574e-04
  4.3313494e-03
  2.3653360e-02
  9.2464527e-03
 -8.4335962e-04
  3.4384280e-03
  7.5914357e-03
  6.4606904e-03
 -1.5198190e-03
  3.0987216e-02
 -1.0961485e-02
 -2.6321956e-03
  3.3515811e-02
  1.9134337e+00
 -2.4120450e-02
  5.4501945e-01
  4.4324619e-01
 -1.5167630e+00
  6.7681336e-01
 -5.3798214e-02
 -3.1655240e+00
 -1.0191413e+00
  7.3125994e-01
  2.3187326e-01
  6.6983986e-01
 -1.7204462e+00
  2.2980084e-01
  5.7323575e-02
 -2.6600879e-01
  1.2418855e+00
 -1.7350481e-01
 -3.1210643e-01
 -3.9938557e-01
  3.0455189e-03
  2.1084103e-01
  4.6298209e-01
  4.9630710e-01
 -7.3387966e-02
  9.4975352e-01
 -5.6516570e-01
  4.2050314e-01
 -6.4797717e-01
 -2.2787236e-01
  7.7219313e-01
 -7.5174004e-02
  4.3660462e-01
 -5.1256316e-04
  1.8118289e-01
 -4.4926319e-01
 -1.1259725e-01
  4.6446732e-01
 -9.0893358e-03
 -4.0927799e-03
  2.1428917e-01
  2.2030909e-02
  1.1169492e-01
  2.1701040e-02
  8.5721564e-01
 -2.5498950e-01
 -7.1687812e-01
 -1.0969983e+00
 -2.6948947e-01
 -8.0297494e-01
 -5.5905753e-01
  6.6329980e-01
 -9.8044060e-02
 -1.0095327e+00
 -1.0487336e-01
  5.2051026e-01
  1.2335581e-01
  7.2933477e-01
 -1.0518215e-02
  1.3965464e-01
  1.6855931e-01
 -4.3101959e-02
 -1.9154517e-02
 -2.0383568e-02
  1.5313935e-01
  6.0305232e-01
 -1.1574884e-01
 -2.9769975e-01
 -6.6412546e-02
  6.9539115e-02
 -8.4188901e-02
  1.4894135e-01
 -9.4151758e-02
  1.1352940e-01
  8.1564009e-02
  1.9960876e-01
  1.9523484e-01
  4.0081224e-01
  1.6231580e-01
 -4.3365836e-01
 -3.4838828e-01
  3.5437542e-01
  2.4691505e-02
 -6.6657625e-03
  4.0347666e-02
  2.0054584e-02
  1.1287111e-02
  1.5493180e-01
  4.1471964e-01
 -8.0011375e-03
 -1.4102604e-02
 -1.3424017e-01
 -1.8838120e-01
  7.3366957e-03
  2.3827862e-02
 -2.1577820e-02
 -2.0229559e+00
  5.0050132e-02
  1.5562156e-02
  2.3920799e-02
 -3.5401434e-02
 -5.6788027e-01
 -7.5045433e-03
  7.3933357e-01
  5.3936577e-01
 -7.0704450e-03
  1.6569304e+00
 -2.7186589e-02
  2.3937931e-02
 -1.1872106e-02
  9.8725399e-03
 -1.8371159e-02
 -4.0962249e-02
 -1.1336271e-02
  6.7801440e-01
 -5.0355241e-02
 -8.5769054e-03
  1.6261546e-01
  2.3002295e+00
  1.0289638e-02
 -4.0586996e-03
  1.6071439e-02
 -4.3011606e-03
  6.0157543e-03
  3.1133980e-02
  1.2069049e+00
 -1.9709086e-02
 -1.9433692e-01
 -2.5100361e-03
 -3.0352904e-02
  5.4168874e-01
 -4.6328362e-04
 -1.2708909e-03
 -4.5535387e-04
  2.2719614e-03
  1.1068845e-02
  5.1023185e-01
 -6.8905276e-01
 -8.0018646e-01
  5.5416353e-02
  7.1394086e-02
  3.0756655e-01
 -2.3459153e-01
 -4.0275692e-03
  5.2898921e-02
  2.0929787e-02
 -6.4728361e-01
 -2.0099651e-02
 -3.3204608e-02
  9.4568573e-02
 -2.4816231e-01
 -6.6903174e-02
 -4.9239455e-04
  5.7634246e-01
 -2.8637758e-01
  6.9895941e-01
  3.8115206e-01
 -7.7283639e-01
  6.5846395e-01
  5.4776269e-01
 -5.4296896e-02
  5.7984062e-02
 -3.4637373e-02
 -7.0022017e-02
  5.4273885e-01
 -6.5530944e-01
  2.8371826e-02
  2.3094061e-01
 -6.5048081e-01
  1.1580435e+00
 -4.4473249e-02
  2.2849739e-01
 -6.9267705e-02
  1.1345684e-03
 -1.4129580e-03
 -1.4644764e-01
  1.7885020e-02
 -4.1590929e-01
  8.7009385e-02
  7.1992926e-02
  3.7638581e-01
  3.2229447e-03
 -2.1601224e-01
 -1.1150025e-02
 -3.9612491e-02
  8.5214265e-02
  2.2853696e+00
  1.1100382e+00
  2.9911222e+00
  1.6613985e+00
  3.1132271e+00
  2.4091363e+00
 -2.0949613e-01
  8.0672884e-03
 -3.6207000e-03
 -1.3496023e-01
 -1.2950135e-02
 -5.7204448e-02
 -2.9892605e-02
  1.2031556e+00
  3.1822142e-01
 -2.4269336e-01
  6.7236114e-01
 -1.4919027e+00
 -1.0244645e+00
 -1.0261004e-01
  2.9687867e-01
  5.8944786e-01
  5.8398778e-03
 -2.0480210e-02
 -5.8659256e-01
 -1.0356398e+00
  6.7148548e-01
 -4.6675038e-02
 -2.8186571e-03
  1.1107787e+00
 -8.0588663e-01
 -6.1150950e-01
  3.2466149e-01
 -1.2537308e+00
  3.9796329e-01
 -1.8231076e+00
  7.4051186e-02
 -2.3105879e+00
 -9.5552122e-03
 -2.3918554e-02
 -2.3911773e-01
 -7.8359377e-01
 -8.1907041e-02
 -6.6593850e-01
 -1.7976517e-02
  1.0244851e+00
  3.9305967e-01
 -5.7739604e-01
  1.2109471e-02
  5.7781005e-01
  3.4619495e-01
  3.5256055e-01
 -4.6632659e-01
 -4.5056835e-01
  5.9669399e-01
  5.2904195e-01
  2.2955844e-04
  2.1805881e-01
  1.7247748e-01
  9.3719870e-01
 -2.4516848e-01
 -4.8487466e-02
 -2.1664619e-03
  1.4427859e-01
  1.1196512e+00
 -3.0477446e-01
  7.3186600e-01
  1.2747625e-01
  1.3476589e-01
 -8.5534805e-01
 -3.1999329e-01
 -1.1579298e+00
 -1.2237291e-01
 -5.0446701e-01
 -1.7648486e-02
 -1.9939147e+00
  1.6247755e+00
 -4.3468803e-01
  5.3851008e-01
 -4.4667989e-01
 -8.8986474e-01
 -1.4201280e+00
  6.3681930e-02
  2.1446802e-02
 -1.7871373e+00
 -6.8297558e-02
  7.1789593e-01
 -8.5064411e-01
 -1.1481413e+00
  1.7806894e-01
  5.4500410e-03
 -3.2540682e-01
  1.4849991e-02
 -1.7673208e+00
 -3.7835317e+00
 -7.3269999e-01
 -5.3900278e-01
 -1.2084171e+00
 -6.7135566e-01
  9.0137416e-01
 -4.1287014e-01
 -3.9895093e-01
  2.7571220e-02
  1.7647679e-01
  6.1213011e-01
  2.3026124e-01
  1.8199223e+00
 -6.7997956e-01
  7.0629157e-02
 -2.4363337e+00
 -5.3706145e-01
 -4.1642962e-03
  3.8877971e-02
 -7.0394623e-01
  1.1912006e-02
 -2.0086335e-02
 -7.2794810e-02
 -9.7664165e-01
 -2.9992497e-01
 -1.0043207e+00
  1.1231886e-01
  7.8528243e-01
  1.4321004e-02
  5.7207823e-01
 -5.9011430e-03
 -3.6722560e+00
 -4.3803626e-03
  7.6637246e-02
 -3.1981146e-01
 -2.3031123e+00
 -2.7488017e-02
  6.0834568e-03
  3.2561800e-01
  2.0770419e-01
  2.4344165e+00
 -1.3705261e-02
  1.2647565e-01
  2.5935054e-01
 -2.8231591e-01
 -9.5332456e-01
 -4.2423736e-03
 -6.0508341e-01
 -7.6255763e-01
 -1.2306855e-01
  9.8412260e-03
 -9.4966149e-01
  1.6941158e-01
  5.0199133e-01
 -3.2062560e-02
 -6.2380016e-01
 -9.8297936e-01
 -2.1657234e-01
  1.8403737e-02
 -6.9787210e-01
  3.2725853e-01
 -9.3690282e-01
  3.8128734e-01
 -1.1621885e+00
 -2.4818324e-01
 -9.0513103e-02
 -2.2877713e-01
 -2.0294632e-01
 -4.9747205e-01
 -5.8319088e-02
  6.1446065e-03
 -7.2227621e-01
 -5.7606652e-02
 -5.0277472e-01
  7.1142456e-03
  1.3951077e+00
  9.8407942e-01
 -7.8186834e-01
 -2.5624661e-02
 -4.0781602e-01
 -1.6440103e+00
  1.2533360e+00
  1.1147537e+00
 -1.0278226e-01
 -4.0069036e-03
  5.6908911e-01
 -4.7846567e-03
  3.1449974e-01
  3.4583613e-01
 -1.5455072e-01
 -9.2735755e-01
 -1.7784666e-01
 -1.5830249e-01
 -3.9869221e-03
  6.9835103e-01
 -5.8191770e-01
 -5.7827789e-01
  9.2232054e-01
 -1.4461675e-03
  1.1762167e+00
  3.8225807e-02
 -3.8255718e-01
 -3.6741653e-01
  2.5018752e-01
 -1.2112445e-01
  5.7301545e-01
 -3.6035383e-01
  6.9569910e-01
 -8.3654326e-01
  2.9851148e-01
  3.1396379e-03
  8.8590813e-01
 -6.5700531e-01
  2.1814686e-01
  1.6608694e-01
  8.0235726e-01
 -1.3405880e+00
  6.9847900e-01
 -8.6588770e-01
  7.9726025e-02
  6.9666255e-01
 -4.9052592e-02
 -2.4762353e-02
  6.3437736e-01
  6.7538256e-04
 -9.7468786e-05
  2.9616711e-01
 -8.2836163e-01
  1.6567413e+00
  3.9642408e-01
  9.0865709e-02
  1.1621792e+00
 -3.6844614e-01
 -1.9974460e-01
 -7.7860004e-01
  2.3006620e+00
  2.0881982e-03
  2.5586700e+00
  1.8170148e-01
 -8.4397987e-02
  2.3240087e+00
  5.4672253e-01
  6.8281686e-01
  9.8915285e-01
 -4.9912009e-01
 -8.5936320e-01
  1.2032351e-01
  1.1402550e+00
  2.5725705e-03
  1.6075027e+00
 -6.9854110e-02
  8.3188258e-02
  1.2604523e+00
  1.2749194e+00
  6.6027117e-01
 -7.3725986e-01
  5.8086944e-01
 -7.5887626e-01
 -7.6086558e-02
 -1.4023900e+00
  7.3800795e-02
 -1.9306437e+00
 -7.4814099e-01
 -9.5333588e-01
  7.6062167e-01
 -1.2728682e-01
 -2.1573354e-01
 -8.9350963e-01
  3.2156798e-01
 -1.8119042e+00
  3.1313068e-01
  9.9056885e-02
  9.3444400e-02
 -2.6280639e-01
 -4.2219507e-03
 -1.4247902e-01
 -1.6908750e-02
  1.1707594e-01
 -7.3961683e-02
  8.3364189e-01
 -7.1259327e-03
 -1.4211780e+00
  1.3203651e-01
 -2.2402930e-01
  2.3425076e-02
 -2.7016711e-01
 -1.6720811e-01
  2.9701677e-01
 -6.8941228e-02
 -1.0943548e-02
 -3.7311512e-01
  8.6024958e-01
  3.0282778e-01
  2.8924927e-01
  2.6101090e-02
  2.7926549e-02
 -2.4957383e-02
 -9.9105471e-01
  4.5484751e-02
  6.7534101e-01
 -7.6063842e-02
  1.9593893e-01
 -2.8543392e-01
  6.6152358e-01
  1.6168627e-01
 -3.6876231e-01
  1.3788742e-02
  3.6111072e-02
 -3.2586262e-01
 -9.4060814e-01
 -1.5316120e-01
  1.0906861e+00
 -7.8744354e-04
 -1.8998620e-01
 -3.2919189e-01
  2.8436216e-02
  4.1430771e-02
  1.1472193e-01
  4.7861692e-04
  5.0303429e-01
 -1.4905399e-01
 -2.1710625e+00
 -5.4719001e-01
 -6.5206552e-01
  2.5995154e+00
  1.7455731e-01
  8.6171821e-02
  1.2131599e+00
  2.4860364e-01
 -2.8148845e-01
 -2.9215789e-01
  3.8911656e-01
 -7.7571511e-02
 -8.1403416e-01
 -4.8538342e-01
 -5.1355565e-01
  1.0488212e+00
  4.6474198e-01
  2.8469753e-01
  2.0791199e+00
  4.0423757e-01
 -5.0267422e-01
 -8.2139033e-01
  5.7440305e-01
 -1.0231609e-02
 -6.1006868e-01
  5.1951450e-03
  9.4855380e-01
  1.4003900e+00
 -2.4864759e+00
 -9.7813976e-01
 -1.3810204e+00
  1.2136720e+00
 -3.9648989e-01
 -2.0564167e-01
  5.0079781e-01
  1.8181767e+00
  4.8057088e-01
 -8.2997844e-02
  1.1639845e-01
  2.4589905e-01
  5.1026261e-01
  2.2086589e-02
  6.0592425e-01
  2.0994396e+00
 -9.7790074e-01
  1.4279389e-01
 -3.8404256e-01
 -1.0398068e-01
 -4.9844748e-01
  6.4191118e-02
  9.4310308e-01
  7.7201247e-02
  1.0966810e+00
  4.3529668e-01
  1.0219918e+00
 -8.9821315e-01
 -1.5418051e-03
 -8.8015798e-04
  2.5600927e+00
  8.4960723e-01
  5.5905219e-02
 -3.0637330e-01
 -2.3902912e+00
 -1.1507037e+00
 -6.3281000e-01
  6.3438767e-01
 -5.7492626e-01
 -1.1729906e-01
  4.3766424e-02
 -1.8840471e-02
  2.0844214e+00
  8.1265636e-02
 -7.1480680e-01
  1.2600683e-03
  4.4415584e-01
 -1.7690052e+00
 -1.4947265e-03
  5.1313102e-01
 -6.9454199e-01
 -9.5478052e-01
 -3.8658834e-01
 -7.2608930e-01
  3.3579427e-01
  9.9949461e-01
  6.4548016e-01
 -9.8208290e-01
  1.0671641e+00
 -8.1505841e-01
  9.0676409e-01
  2.1589768e-01
 -3.1417623e-01
 -4.5794833e-02
  3.8312566e-01
 -8.1990027e-01
 -2.9839811e-01
 -6.3379925e-01
  1.1346937e+00
  1.7535738e+00
 -6.6744435e-01
  5.9270300e-04
  1.3584882e-01
  3.4840998e-01
 -1.1455390e+00
 -5.2430767e-01
 -1.2351480e+00
 -1.4647785e+00
 -5.1921856e-01
  1.5031970e-01
 -4.2020652e-01
 -4.2314568e-01
  3.2216001e-01
 -1.2349109e-01
  4.1028675e-01
  1.7500806e+00
 -4.8351476e-01
 -2.7044345e-02
 -6.3462830e-01
  1.5632151e-01
  8.0698824e-01
  8.5412371e-01
 -2.8726144e+00
 -6.8445778e-01
  1.7385558e+00
  2.1644389e-02
 -4.1044340e-01
  3.0419010e-01
 -9.5337850e-01
 -3.6913410e-01
 -3.9948249e-01
  4.4598812e-01
  4.1609770e-01
  7.9021543e-01
  3.7115893e-01
 -2.5149848e+00
  1.5228773e+00
  8.9358771e-03
 -9.8448449e-01
 -3.8448550e-02
 -4.1011176e-01
  4.3633860e-01
 -4.1905038e-02
  5.2494809e-02
 -2.7535042e-01
 -5.7886159e-01
 -4.1021451e-01
  4.8511383e-01
 -1.3742005e+00
  4.8525620e-01
 -1.0728433e+00
 -4.9495054e-03
 -1.0280935e+00
  3.3602357e-02
 -1.3788621e+00
 -6.5930837e-01
  7.8946614e-01
  6.9933826e-01
  2.2315012e-01
  1.2989086e+00
  1.9135507e+00
  4.7973958e-01
 -5.3361481e-01
 -2.2532943e-01
  4.3639052e-01
  1.0824214e-02
  9.1438693e-01
  1.7588537e-03
 -3.5339600e-01
 -2.0387026e-02
 -1.2793578e+00
  4.2705756e-01
  3.1388235e+00
  1.4035379e+00
 -6.8030983e-01
 -1.3939523e+00
  1.0495321e+00
 -1.2298780e-02
  1.4802090e+00
  4.3507320e-01
  5.8671195e-02
  1.1954638e-01
 -9.9684989e-01
 -3.1419775e-01
 -1.0777899e+00
  3.7745014e-01
 -2.5291250e+00
 -1.7263179e+00
  9.9598676e-02
  1.2130003e-02
 -1.3285835e+00
  6.5815233e-02
  1.0549281e+00
  2.3190232e-01
 -9.5799506e-01
 -1.1022682e+00
  7.8093171e-01
  2.7743879e-01
  2.6988858e-01
 -7.4980772e-01
 -1.5806425e+00
  5.5592382e-01
  8.7753791e-01
 -4.7417307e-01
 -1.7100332e+00
  1.9316408e-03
  7.4895835e-01
  5.4577100e-01
 -8.9558792e-01
  1.2156727e-01
  8.9251292e-01
  1.1176460e-01
  1.0688441e+00
  1.0411499e+00
  1.3282373e+00
  1.0923500e+00
  2.0514560e+00
  1.8850978e-01
 -7.8809822e-01
 -8.6610919e-01
 -2.2298434e-01
 -5.7747900e-01
  2.6957521e-01
  2.0609492e-01
  9.7967052e-01
  1.4242022e+00
  6.5040745e-02
  1.3724833e+00
  1.4965426e+00
 -1.4293900e-01
 -1.0472720e+00
 -3.7937781e-01
 -2.1819048e+00
  6.8395935e-02
  4.0837982e-01
 -2.4719611e-02
 -8.0641657e-01
  6.6234946e-01
  2.2809193e+00
  1.6859365e+00
  1.6328961e+00
 -4.5669298e-03
  9.6339202e-01
  6.9566584e-01
  1.0458902e+00
  1.9371197e+00
 -1.5270275e+00
 -1.1481878e+00
 -2.1336508e+00
  1.0495138e+00
 -7.7262712e-01
  1.9429639e-01
 -1.0062698e+00
 -5.5270225e-01
  7.5550735e-01
  1.3980480e+00
  8.1010097e-01
 -2.9538023e-01
  8.9689726e-01
  1.2324696e+00
  1.2200494e+00
  5.2517247e-01
  1.6920826e-01
  1.0383222e+00
 -6.9363909e-03
 -3.4956044e-01
  8.8381208e-04
  1.7053474e-01
  3.7213828e-02
 -2.3115246e-02
 -5.2177656e-02
 -2.9603766e-02
 -1.6603475e+00
 -4.9688423e-01
  4.7088620e-01
  1.6527344e+00
 -7.7661669e-01
 -1.5241420e+00
 -9.9231847e-02
 -3.6773804e-01
  2.3501007e-01
  8.6411434e-01
  3.4039247e-01
  1.9043353e-01
 -1.8743819e+00
 -1.5574192e+00
  9.4915915e-01
  1.7936979e-01
  2.7081812e-02
  1.4759858e-02
 -1.0861573e-01
 -5.6208676e-01
 -9.2511314e-01
 -2.0247586e-01
 -3.7081644e-01
  1.4211645e+00
 -7.7129227e-01
 -1.2649525e+00
  3.5507582e-02
  8.6736059e-01
  6.4242601e-01
 -3.1618781e-02
  2.5239250e-01
  2.1028624e-01
  1.4652449e+00
 -1.8460536e-01
 -5.3646728e-02
 -2.0283002e-01
  7.2801989e-01
 -6.8582457e-01
 -2.9336902e-01
  3.6911669e-01
  2.7748374e-02
 -6.8632936e-01
  1.3774598e-01
  1.1310036e+00
 -7.2003818e-01
  2.5342705e+00
 -1.4876072e-02
  1.1155311e-01
 -4.8025310e-02
  2.1021934e-02
  6.4356381e-01
  1.9822448e-01
 -1.0376699e+00
  2.0132959e+00
  3.5694572e-01
  1.0882641e-01
 -1.8188124e+00
  1.5209796e+00
  8.8794798e-02
  3.4329832e-01
 -4.4157636e-01
  1.3574806e-01
  7.1681935e-01
  2.9181886e-02
  9.8800051e-01
  1.8195698e+00
 -1.0614339e+00
  4.7011116e-01
 -8.6154056e-01
  2.3094814e-01
 -1.4469146e+00
  1.6963023e-01
  4.5396927e-01
  2.6658246e-01
 -1.9130903e+00
  1.3564255e+00
  8.5828650e-01
  3.5393834e-01
 -1.1377311e+00
  1.2840650e+00
  1.3955419e+00
  4.4692636e-01
  2.3350835e-01
  1.8400159e-01
  4.7175918e-02
 -1.8309427e+00
  1.2091841e+00
  1.7673194e-01
 -4.0609995e-01
 -1.2036494e+00
  3.5992092e-01
  1.2436946e-01
 -4.8325589e-01
 -5.4983646e-01
  2.5831014e-01
 -1.4281033e+00
  1.6656836e+00
 -1.3347535e+00
 -7.6977748e-01
 -1.1309617e+00
 -1.1133171e-02
 -1.2219440e+00
 -1.2526302e-01
  3.3032060e+00
  3.5264313e-01
  1.6206073e+00
 -8.3183628e-01
 -1.1103778e+00
 -9.7289228e-01
 -3.2000196e+00
 -6.0986257e-01
  2.7918401e-01
 -7.3786896e-01
 -3.7650681e-01
  4.2861706e-01
  7.0219415e-01
 -1.1404947e+00
  1.3386571e+00
 -1.1368470e+00
 -2.4015250e+00
  2.4902649e-01
 -5.4930538e-01
 -2.6540613e-01
 -1.2982248e+00
  2.7634993e-01
 -3.1059927e-01
  1.1748633e-01
  8.6358488e-02
 -9.1791159e-01
  1.3426580e-01
  2.7238342e-01
  7.0622259e-01
 -2.6088648e+00
 -3.7750861e-01
 -3.5869563e-01
 -4.7888160e-01
 -2.0097387e-01
 -1.6348256e+00
 -1.6871597e-01
 -6.9448191e-01
  1.4957998e+00
 -7.5779504e-01
  2.2241399e-02
 -6.4577454e-01
  1.6259245e+00
  2.0404695e-01
 -1.3416919e-01
 -1.0476304e+00
  3.3529031e+00
 -1.2458074e-01
  9.0409853e-03
  8.2065105e-02
  5.9917194e-01
  3.4064966e-01
 -9.9924952e-03
 -5.3156060e-01
 -3.5126498e-01
 -1.1796315e+00
  5.2899905e-03
  1.7006898e+00
 -1.7196313e+00
  4.9667311e-01
  2.4215609e-02
 -2.7302750e-03
 -7.5889133e-02
 -6.9843692e-01
 -1.3238448e-01
 -2.5142260e+00
  2.9710766e-02
 -3.4720072e-01
 -3.3898899e-01
  1.5225281e+00
  8.4054416e-01
  5.6798446e-01
  1.0899533e-01
  2.6157215e+00
 -9.4931805e-01
 -1.4994459e+00
 -9.1460235e-03
  2.7821156e-01
  1.1977698e+00
  3.9930582e-01
  6.6342980e-01
 -9.4556928e-02
  1.5484402e-01
 -2.4325965e-01
 -2.2724232e-02
 -5.3984058e-01
  2.2672801e-01
 -1.8332049e-02
 -5.1357366e-02
 -2.6725951e-01
 -3.4672901e-01
 -6.0713008e-02
 -1.0767280e-01
 -4.0525159e-01
  4.1457642e-02
  3.9484710e-01
 -1.1704679e+00
  6.6509300e-01
 -2.0160408e+00
 -1.5705489e+00
 -8.5923237e-01
  2.4802718e+00
  8.0093956e-01
  1.7903380e-01
  1.1177888e+00
 -6.3650233e-01
 -1.1396928e+00
 -2.7296147e+00
  4.0996248e-01
  4.1151075e+00
  1.9336898e+00
  3.9556631e-01
 -1.2002778e+00
  2.5037212e+00
  2.8123913e-02
 -1.1834728e-01
  1.2831185e+00
 -1.9019852e+00
 -1.0466044e+00
 -3.3824351e-01
  6.4036047e-01
 -1.3225058e+00
  1.8065717e+00
  5.6610405e-01
 -1.3224956e+00
  1.3097539e+00
  4.5182359e-01
 -4.5852360e-01
 -4.5592579e-01
  4.8551068e-01
 -5.5950624e-01
 -1.6629313e-01
  1.2707616e+00
 -4.9663955e-01
 -1.5790033e-01
  3.8635641e-01
 -2.7381793e-01
 -1.3824855e+00
  1.9100754e-01
 -6.2502551e-01
 -1.4625866e+00
 -9.7883892e-01
 -7.6337107e-02
 -1.8475479e-01
 -7.6047409e-01
 -1.1121122e+00
 -2.1790554e-01
  1.4556696e-01
  1.7928956e-02
  1.7928956e-02
  1.7928956e-02
  1.7928956e-02
  1.7928956e-02
  1.7928956e-02
  1.7928956e-02
  1.7928956e-02
  1.7928956e-02
  3.4313183e-02
  3.4313183e-02
  3.4313183e-02
  3.4313183e-02
  3.4313183e-02
  3.4313183e-02
  3.4313183e-02
  2.7671870e-02
  2.7671870e-02
  2.7671870e-02
  2.7671870e-02
  2.7671870e-02
  2.7671870e-02
  2.7671870e-02
  1.3580502e-02
  1.3580502e-02
  1.3580502e-02
  1.3580502e-02
  1.3580502e-02
  1.3580502e-02
  1.3580502e-02
  5.7021868e-03
  5.7021868e-03
  5.7021868e-03
  5.7021868e-03
  5.7021868e-03
  5.7021868e-03
  5.7021868e-03
  1.1793899e-02
  1.1793899e-02
  1.1793899e-02
  1.1793899e-02
  1.1793899e-02
  1.1793899e-02
  1.1793899e-02
