nep4 2 Cu Se 
cutoff 7 4 101 21
n_max 4 4
basis_size 12 12
l_max 4 2 0
ANN 30 0
 -3.4221776e-02
  8.4748389e-03
  6.0611773e-01
  1.4878315e-04
  2.1179892e-01
  1.7825617e-01
  1.0307061e-01
  7.0311084e-02
  1.5861750e-02
  3.9788443e-03
  4.4370946e-02
 -1.4750252e-03
 -8.2609229e-05
  5.9453398e-01
 -4.6332535e-01
  2.5293825e-04
  1.4568437e-03
 -5.5303331e-04
 -6.1259973e-03
  1.5384102e-02
  1.6854220e-04
  5.1329106e-02
  4.8131552e-03
  3.3012496e-03
 -1.0526840e-02
  9.9657439e-02
 -5.6590012e-04
 -9.4860734e-05
 -5.4548774e-03
 -2.1719888e-02
  3.5685312e-04
  1.9493995e-03
  3.2915662e-03
 -3.4346157e-03
  3.3819429e-03
 -1.5906881e-03
 -1.7726605e-03
 -4.9802260e-03
 -5.3047505e-04
 -5.4439055e-03
 -1.0903499e-03
 -1.9780886e-03
  2.4654687e-04
 -1.2040031e-03
 -6.0404494e-04
 -3.8453212e-03
 -3.5228441e-06
  1.3568479e-03
  2.1318521e-04
 -7.8559481e-04
 -3.0060108e-03
 -2.0170258e-03
  1.7239582e-03
  5.2384206e-04
 -1.0361543e-03
  2.4224678e-03
 -8.8412291e-04
  4.7383088e-04
 -2.2297457e-03
 -7.5721787e-04
  2.8032612e-02
  6.0853024e-05
 -5.9147453e-05
  1.1884404e-04
 -4.5137363e-03
  1.5260827e-03
  1.0765587e-03
  1.1508927e-03
  5.8659883e-03
 -1.0243438e-03
 -7.1181572e-04
  1.5226670e-03
  7.6840137e-04
 -3.4643829e-04
 -2.0814645e-05
 -4.7302428e-03
 -6.5234135e-04
 -4.0770392e-06
  6.6094857e-04
  2.6001348e-03
 -2.7318767e-04
 -1.7195658e-03
 -1.3560790e-03
  1.5931688e-03
  1.1878630e-04
 -5.9671770e-04
 -4.4543267e-04
 -2.3560449e-03
 -1.7623032e-03
  9.1427006e-04
  2.7976407e-02
 -1.4088920e-03
  8.7742531e-04
 -5.2859310e-02
 -4.6279805e-05
 -9.9893496e-04
  3.8608725e-04
  5.3593307e-04
 -7.2983681e-04
 -6.9213827e-04
 -2.4353369e-04
 -3.8217346e-04
  2.9017390e-03
  2.1636845e-03
  4.4250996e-03
  4.4139958e-04
  3.8377737e-05
  3.0847159e-03
  7.4396459e-03
  1.4466538e-01
  8.1802846e-04
  2.0495660e-03
  8.5683330e-04
 -3.3068753e-04
  7.7823235e-04
 -1.4726897e-03
 -3.6064363e-03
  1.3387722e-03
  2.2722527e-03
 -2.7526007e-03
 -2.8269558e-04
  5.2687374e-04
  8.8045645e-01
  2.2656893e-02
  7.1555352e-01
 -2.1679886e-02
  3.1138619e-04
 -3.1665906e-02
 -1.5061873e-03
 -1.9040481e-03
 -6.7499763e-04
 -2.0773334e-03
 -5.5399295e-02
 -2.0376795e-03
  3.7677284e-02
  5.7772351e-03
  9.3705510e-04
 -2.4140300e-01
  1.5694968e-03
 -5.0941062e-01
 -3.5969508e-03
  2.7975487e-03
  1.3024309e-03
  2.5335953e-03
 -3.1268355e-03
 -2.7601535e-03
  3.8304302e-04
  9.9846930e-04
 -7.7031652e-04
 -4.1979220e-04
 -1.2983090e+00
 -5.5969640e-04
 -2.0741531e-01
  2.5286049e-01
  8.3475792e-01
  1.2219938e-02
  1.5486160e-01
  2.6686841e-01
  4.8816046e-01
  4.6893783e-02
  6.8510073e-01
  1.1709484e+00
 -1.6801755e+00
  1.4048398e+00
  3.9690879e-01
  1.8851113e-01
  1.4894016e-04
  1.6314864e+00
 -6.3934207e-01
 -2.1094761e+00
 -7.6574460e-02
  1.1107868e+00
  2.5473273e-01
  3.7693661e-01
 -2.5360063e-02
 -1.0306692e+00
 -1.0352399e-03
  8.3743684e-02
  2.0274434e-03
 -7.9375726e-01
  6.5330620e-04
  6.4804911e-04
 -4.0255056e-04
 -1.7418370e-03
 -3.2870185e-01
  1.7688358e-03
 -2.5047876e-03
 -1.3445164e-03
 -8.8685157e-04
 -4.1350638e-04
 -3.4116645e-04
 -3.6377617e-04
  5.2654052e-01
  3.6907493e-04
  1.2094401e-03
 -6.1617640e-04
 -9.9561713e-04
  2.9172311e-03
 -1.1377612e-03
 -5.9926726e-02
 -7.1375782e-04
 -1.3783219e-03
  4.9468281e-04
 -1.0622005e-03
  1.3133499e-03
  1.1823843e-03
  4.0227227e-04
 -7.6579914e-04
  1.4344119e-03
  1.1254734e-03
  4.0032455e-01
 -3.1651089e-01
 -3.5144118e-04
  5.3588217e-03
  1.4775325e-01
  1.8700324e-04
 -2.2544066e-04
 -5.7490529e-03
 -1.0206451e-04
  3.5744885e-01
  1.2505469e-01
 -8.2344130e-02
 -3.5628867e-01
 -3.4171843e-03
 -2.4627808e-01
  3.2744077e-03
 -6.4351177e-04
 -2.5020239e-03
  1.0614263e-02
  1.3266427e-02
 -2.5523049e-04
  4.1912347e-03
 -1.4049397e-03
  1.2569153e-01
 -1.6551025e-02
  5.0521310e-04
  9.0699410e-04
  3.6070327e-04
 -2.5246106e-03
 -3.8256673e-03
  1.0918549e+00
 -1.0516164e+00
  9.0948063e-01
  1.2891082e-03
  2.7762476e-01
 -1.0429121e-03
  1.3180128e-02
  1.0659831e-03
  9.3069582e-05
  1.0869992e-04
  1.0841052e-01
  1.0525962e-02
 -1.3772720e-04
 -2.3347347e-03
  7.3738825e-01
  7.9747960e-03
  4.6185192e-01
  3.0585113e-01
  2.3200137e-03
 -7.2770290e-02
  1.5139971e-03
  9.8066621e-02
  1.8723893e-01
  1.8036461e-03
  1.5706593e-03
  2.3829215e-03
 -1.4790651e-04
  1.6625377e-03
  1.1982493e-03
  1.4171330e-03
 -7.6034950e-05
 -1.2767465e-03
  1.6530214e-03
  8.7025115e-04
  4.0559866e-04
  1.9993866e-03
  1.4108419e-03
  1.8406310e-05
  1.1457765e-03
 -2.6466339e-03
 -4.7630287e-04
 -1.1190433e-03
  7.8316452e-04
 -1.0529854e-03
  2.1770655e-05
  8.2329393e-04
  3.1991161e-03
 -2.5879415e-03
 -2.9430490e-03
 -1.9346325e-03
  3.6436056e-03
  6.6275825e-04
  1.2975030e-03
 -1.3969111e-03
  3.1683708e-03
  2.5642472e-03
  3.3397111e-03
 -2.9772893e-04
 -2.6656559e-03
 -1.1859541e-03
 -1.1329251e-01
 -1.1115292e-01
  1.2994796e-02
  4.4367774e-03
  1.2328551e-01
  5.7654915e-04
  2.9964637e-02
  6.8024953e-04
 -8.1818213e-04
  6.6202823e-03
  5.8976971e-03
  1.3226677e-03
 -4.0610585e-02
 -6.4532869e-02
 -4.4694144e-04
  7.2618075e-02
  2.2387172e-03
 -7.3562944e-03
  2.2375926e-03
  8.7696716e-02
 -1.2629719e-03
  2.3959666e-01
  7.7841461e-02
  2.3977454e-03
 -3.6772195e-02
  5.7026021e-02
  8.7946093e-05
  6.9721532e-04
  1.0836949e-03
 -1.5857147e-02
 -1.7505666e-03
  1.2561126e-05
  4.7745390e-04
 -1.5347979e-03
 -3.2063723e-02
 -1.0630809e-03
 -2.8127721e-03
 -5.7648623e-04
  2.5841836e-03
 -9.2295420e-01
 -1.0986276e-03
  1.2340856e-04
  1.4503349e-03
  2.7971670e-03
 -1.8520543e-03
 -5.6765908e-05
  1.6115084e-03
  6.1089848e-04
  3.5880232e-04
  2.9603267e-05
 -2.5549289e-03
 -3.4545153e-02
 -1.2680781e-03
 -5.2880808e-03
 -1.1543561e-04
 -2.0418928e-03
 -2.7012683e-03
  9.4730081e-04
  8.4189553e-05
  1.6771792e-03
  6.6078115e-01
  8.1068462e-01
 -4.1641563e-01
 -4.4205463e-03
  3.7410042e-01
 -5.9251148e-01
  2.1034093e-03
 -4.6719161e-01
  4.2294219e-02
  9.2444956e-01
  1.4150073e-01
 -1.2324268e-01
 -4.4675514e-01
 -4.4213544e-04
 -8.8033664e-01
 -6.8379951e-01
 -2.3254408e-02
  6.7868739e-02
  1.3972569e-01
  1.9775113e-01
  2.2326253e-04
 -3.6357442e-01
 -3.3018878e-01
  2.3321635e-01
  5.9911829e-01
 -2.1320491e-03
  2.2309944e-03
 -2.6153831e-04
 -1.4207396e-02
  6.1327327e-02
  1.3920348e+00
  2.3839693e-03
  1.4730023e-04
 -3.0437836e-03
 -3.3277711e-01
  1.5506397e-03
 -7.5337768e-04
 -5.5794084e-01
 -1.5133746e-04
 -1.3301686e-04
  7.3391350e-04
 -1.8179067e-03
  3.7885392e-03
 -1.0915769e-03
  8.7472245e-02
  3.2721320e-04
 -2.5337508e-03
  1.6906507e-02
  8.0329413e-04
  6.1071862e-04
 -3.9516424e-04
 -3.4577125e-03
 -5.5671087e-04
 -2.4808147e-03
 -1.3401639e-04
 -9.2187902e-04
 -1.0955419e-03
 -1.2260024e-03
  1.1313518e-03
 -5.7829719e-05
  1.1703603e-01
  6.9687605e-01
  1.9925533e-02
  1.1318483e-03
  1.1021270e-01
 -4.3319948e-03
 -2.2765977e-04
  5.3967367e-04
  2.6934722e-04
  2.6755047e-04
  9.8608981e-04
 -1.2154210e-01
 -1.1514630e-03
  3.4085726e-03
 -8.0446243e-01
 -2.0619385e-02
  1.1162950e-03
  2.1193261e-01
  1.1616938e-03
  7.9981863e-01
 -3.8138038e-05
 -4.8762791e-02
 -2.8668823e-02
  4.9669226e-03
 -3.3840755e-05
 -2.0933386e-03
  6.0986527e-03
 -5.2787177e-03
 -1.5975977e-03
  3.8806567e-04
 -3.7477988e-01
 -4.8174551e-01
  1.4470302e+00
  2.1162545e-02
  1.4090674e+00
 -4.3838274e-01
 -1.3955649e-03
 -5.0097275e-01
  2.2156797e-02
  7.3715985e-01
  1.6518109e+00
 -1.7625217e-01
 -2.3504555e+00
 -5.3497398e-01
 -3.0574581e-01
  6.4243507e-03
  5.9962776e-03
  3.3280921e+00
  3.1893760e-01
 -1.7068621e+00
 -2.6146588e-01
  8.7785703e-04
 -6.0692162e-04
  1.1113272e+00
 -2.6909807e-01
  3.4512675e-03
  1.5416435e-02
 -3.7372569e-03
  4.4411852e-04
 -1.6263206e-01
 -8.2154578e-01
  3.9376757e-01
 -4.1837353e-01
  4.0663901e-01
  4.4098932e-01
 -4.9978241e-01
 -1.9993702e-01
 -1.5684907e-01
 -9.6215689e-01
 -8.4301966e-01
 -8.8599765e-01
 -1.2150149e+00
 -3.5259947e-01
 -4.3484479e-01
  3.3542678e-01
 -7.2167349e-01
 -2.6053121e+00
  3.4653819e-01
 -8.0723560e-01
 -4.9486369e-02
 -1.1827470e-03
 -1.0451989e+00
 -4.9307945e-01
  7.0665777e-03
  1.0817648e+00
 -5.0429690e-01
 -8.5490242e-02
 -2.1072086e-02
  8.6086579e-02
  7.4589837e-01
 -9.1589403e-01
  1.2335539e-01
  6.9906557e-01
 -7.5962162e-01
 -2.4957910e-01
 -2.2738308e-04
 -1.8564578e-03
  6.2631303e-01
  2.6263520e-01
  1.1810157e+00
  2.6470682e-01
 -2.3246212e-02
 -5.2386248e-01
 -4.9207654e-02
 -3.3833328e-01
 -3.3691099e-01
 -2.4375243e+00
 -1.4093000e+00
 -5.3670514e-01
  1.5620035e+00
  8.1379502e-04
 -1.7869312e+00
 -1.4835869e+00
 -3.8610685e-01
 -9.4817162e-02
 -2.1051519e-01
  7.5423062e-02
 -1.6726081e-03
 -2.8564763e-01
 -5.4505289e-01
 -1.3854162e+00
 -6.6654205e-01
  1.3867687e-01
 -2.4901098e-04
  1.8402240e+00
  1.5096185e-03
  3.0151919e-01
  9.5238735e-04
 -5.0209898e-01
  4.1911448e-03
  2.0150053e-03
  4.5684543e-03
 -1.2833260e-03
 -9.9984303e-02
  5.6219666e-05
  4.1092047e-03
  4.8490911e-06
  2.5130040e-04
 -7.9921615e-01
  1.2336475e-01
 -1.5649969e-03
  7.8127511e-02
  1.1698455e-04
  4.6930293e-04
  2.3162891e-03
  2.1771076e-03
 -4.2695698e-04
  1.8200136e-04
 -5.5970503e-03
  1.4869256e-03
 -2.9768044e-02
  2.6658422e-01
  3.9524868e-02
 -3.2023394e-01
 -1.0080968e-01
 -1.2025108e+00
  1.0322379e+00
  2.9930992e-03
  7.8645396e-01
  2.7053510e-03
  6.0419112e-02
  1.9052885e+00
 -8.5599035e-02
  1.7034294e-02
 -4.3734154e-01
  1.6200373e-01
  2.0502560e+00
 -4.0039471e-01
  8.0689138e-01
  4.3116134e-01
 -1.3737750e-01
  9.7372597e-01
  2.9446718e-01
  3.7857753e-01
 -6.2375659e-01
  2.4360900e-01
 -1.9857397e-03
  4.7754589e-01
  1.2649287e-01
 -9.1001494e-03
  1.7269366e+00
  1.6548108e+00
  4.8013294e-01
  2.6032293e-01
 -7.5989670e-01
  3.8841933e-02
 -2.8801343e-01
  6.0503233e-02
  1.3509288e+00
 -3.9208993e-01
 -7.3792860e-02
  1.6544003e-04
  1.8539197e+00
  1.2330914e+00
  1.5662706e+00
 -7.2588044e-04
  2.5709919e-03
  1.1894416e+00
  9.0802109e-01
  1.1558124e+00
  1.8865860e-01
 -1.3363244e-02
  4.5515164e-03
 -4.6127688e-02
  4.6190429e-01
 -1.3010206e-03
  3.8591693e-03
  5.6437641e-02
  5.9754884e-01
 -4.0049939e-03
  2.9159078e-01
  1.1376550e+00
 -5.9927547e-01
 -1.8207061e+00
  3.1252575e-01
  3.4208611e-02
 -3.5949200e-01
  8.1845833e-04
  8.5523045e-01
 -1.6552322e-01
 -1.0403343e-02
 -8.6891539e-03
  4.0849999e-01
  1.4699900e+00
 -1.7445242e-01
 -1.8252324e-01
  5.2966243e-01
 -1.0931753e-01
  1.8625484e-01
 -1.2303791e+00
  1.1404105e-02
 -2.2595921e-01
 -2.8301758e-01
  4.5004958e-01
  5.8183901e-05
 -1.0595503e-02
 -4.4696727e-01
 -1.2539395e-03
  5.6144432e-03
 -7.5544935e-04
  1.0304588e-03
  2.3985929e-03
 -6.8123927e-03
  3.0680286e-04
  9.2101283e-05
  1.1193159e-05
  2.0021042e-03
 -8.3028077e-04
  3.8487004e-04
  2.5050639e-04
 -5.5862023e-05
 -1.6295186e-03
 -1.3822912e-03
 -1.8694148e-03
  2.1501249e-03
  5.3051705e-03
  7.9593761e-04
  4.6091375e-04
 -1.4279492e-03
 -1.3785919e-03
  3.2280812e-05
 -1.3820573e-03
 -2.8131180e-06
  2.1572916e-03
  2.5055851e-04
 -1.1239776e-04
 -7.3616247e-04
  5.5949396e-04
  8.4588781e-04
  9.2561310e-04
  7.3683709e-01
  4.3303234e-04
 -3.2700680e-03
  2.1257707e-01
 -1.2275394e-02
 -3.7677560e-04
 -7.1174954e-04
  1.4117297e-03
  8.4888332e-02
 -1.7008458e-03
 -2.9425516e-03
  1.1516848e-03
 -1.6321922e-03
  8.2463026e-04
  7.1089065e-01
  3.3855316e-04
  7.1275391e-04
 -4.0073362e-01
  2.2229755e-04
  8.6250406e-04
  1.2085523e-03
 -4.6967663e-04
  5.2550988e-04
 -1.6693467e-03
  5.7756959e-05
 -2.5158282e-04
  8.3220622e-04
 -9.2948787e-04
 -1.7971225e-04
  3.7776446e-03
 -7.2148250e-05
 -2.1314258e-02
  7.3307650e-03
  9.2741958e-04
  7.2663671e-01
 -1.9711231e-01
  3.7782178e-03
 -1.0898880e-01
  8.3082332e-04
  3.4139943e-01
  2.7385432e-01
 -2.0132849e-01
 -2.8460443e-01
 -1.0128954e-03
 -3.9701554e-01
 -3.7190132e-04
 -2.3956101e-03
 -4.7734572e-04
  2.5665076e-02
  4.8503887e-02
 -3.6078366e-03
 -4.6315896e-03
  1.0080036e-03
  3.8906690e-02
 -5.6789216e-02
  2.2937900e-03
  1.1696997e-03
 -1.1509014e-03
 -2.7270033e-03
 -1.2243115e-03
  2.9785836e-01
  2.8659847e-01
 -1.4736852e-01
  8.2175732e-01
 -4.2884439e-01
  1.8459206e-03
  1.3779821e-03
  3.0907458e-01
  4.6568942e-01
  2.1219465e-01
  1.4983979e-01
  1.1827833e-03
 -1.7275591e+00
  5.4476517e-01
 -8.5496150e-02
  1.9264297e-01
 -1.5436681e-03
  5.1200134e-01
  9.2750812e-01
 -1.1780127e+00
 -2.6093610e-03
  3.2809043e-01
  4.7560930e-03
  9.9703997e-02
 -3.5988706e-01
  9.7819142e-02
  4.8990464e-03
 -6.6197291e-03
 -2.9354811e-01
 -1.9653244e-03
  1.2518102e+00
  4.2963866e-02
 -5.9071577e-01
  2.4145648e+00
  1.0001764e+00
  2.7496615e-01
  9.2162471e-04
  7.0953247e-04
  1.8482392e-01
 -1.0267121e+00
 -5.6966239e-01
  7.6671308e-01
  1.4721756e+00
 -2.4157026e-01
  6.0527819e-01
  1.4369885e-03
  4.6137118e-01
  2.9421574e-01
 -1.7914856e-02
  1.5696932e-03
  2.3235826e-02
 -2.1218900e-03
 -1.1421243e-03
 -1.0373549e-02
  1.4920168e-01
  1.5127955e-03
 -1.7945078e-03
 -1.3328728e-03
  1.3946080e-01
  4.8840735e-02
 -1.4903145e+00
  1.0107527e-02
  5.2869081e-01
 -3.3958796e-01
  7.7772729e-02
 -4.7709639e-03
 -2.1787581e-03
  2.8306292e-04
  1.6571232e-04
  9.7810976e-02
  1.1513337e-02
 -2.9462099e-01
 -3.9596355e-01
 -9.2255212e-03
 -3.4992939e-01
 -1.4990544e-01
 -1.6579238e-01
 -3.9033338e-01
 -3.2056081e-03
  1.9829592e-01
 -2.5966035e-03
 -2.2498214e-01
 -1.0723443e-01
 -1.9866643e-03
  1.5730181e-03
 -5.5089528e-03
 -1.8660765e-04
  9.4283151e-04
 -6.7880012e-02
 -2.9592178e-05
  4.8610190e-01
  3.2446375e-03
 -9.3520992e-03
 -5.5818609e-03
  4.5773447e-01
  9.1441011e-04
  2.0930695e-03
  1.0659727e-03
  2.6776830e-03
 -1.0563097e-02
 -1.3043996e-03
  8.4515486e-04
  6.9903725e-01
  2.7681924e-03
  7.8144290e-02
  7.4252230e-04
 -1.7060321e-03
  9.2210814e-02
 -1.3066034e-03
  3.2080572e-02
  2.1082089e-04
 -2.3012061e-03
 -6.7795827e-03
  3.5783826e-04
 -2.7566031e-04
 -8.0345350e-04
 -3.0090788e-03
 -4.3065539e-03
  1.6812665e-03
 -9.6546888e-04
 -7.1738228e-05
  3.9225270e-04
  1.0519353e-03
  4.1496474e-05
 -5.7864940e-04
 -4.5506802e-04
 -1.1547855e-03
  3.2588548e-04
 -3.0932867e-04
 -2.3575863e-03
 -2.5472906e-04
 -2.4908623e-03
 -2.9669676e-04
  1.6456601e-03
  2.2932698e-03
  1.1321510e-03
 -2.0497029e-03
  1.6274920e-04
 -3.0489091e-03
 -1.8857691e-03
  8.8042230e-05
  6.1376550e-04
 -4.0792278e-04
  8.4717045e-05
  9.7573001e-04
  9.3181955e-04
  4.9564906e-04
 -1.0052589e-03
  2.7535547e-04
  7.4596610e-05
  6.2420148e-01
 -5.6550035e-04
  1.7385836e-03
  8.3522667e-04
 -1.0356237e+00
 -4.4591728e-01
  3.4247917e-01
 -7.7010590e-01
  5.6006402e-01
 -1.6999546e-04
  3.1746356e-04
  3.7710718e-04
  1.9533645e+00
  6.3473779e-01
  6.7251247e-01
 -8.5679007e-01
 -3.2646912e-01
 -1.7382020e+00
  5.8089721e-01
  1.3154142e+00
  4.7828972e-01
  6.7946869e-01
 -1.2301683e-03
  2.4992649e-01
 -3.6406749e-01
  3.6827126e-01
  6.1242157e-01
 -2.0630455e+00
  2.6707342e-01
  1.3347426e-04
  4.2518184e-01
  5.0137046e-04
 -9.1855554e-03
 -5.8204412e-02
  2.5403309e-01
  3.0825561e-01
 -1.3482383e-01
  5.2082950e-01
  1.8962297e-01
 -1.0813175e-03
  2.4585970e-01
 -1.8239473e-01
 -4.0803352e-01
 -1.0219553e-01
 -1.5154694e-01
  3.0097315e-01
 -4.4820055e-01
 -4.7771323e-01
  1.7437997e-01
  8.4066892e-01
 -2.3337625e-01
 -2.2405809e-01
 -2.1076289e-03
 -1.1566485e-01
  2.9648760e-01
  3.6968321e-01
 -2.7733946e-01
 -2.9586279e-01
 -1.3786919e-01
 -3.3061480e-04
  2.6117981e-04
  1.1133143e-03
  2.2705144e-04
  4.2036647e-04
  2.3078476e-04
 -1.9050302e-04
  7.9226570e-04
 -1.3010225e-03
 -1.0125537e-03
  2.0307940e-03
 -1.4146559e-03
  4.1037856e-04
 -6.3827145e-04
 -1.9382883e-03
 -4.3072418e-04
  2.4130146e-03
  1.6889272e-03
 -2.7659801e-03
  5.4881815e-04
  5.6687993e-04
 -1.9259781e-03
  3.6852405e-04
  1.3056665e-03
 -1.1215165e-03
 -1.5536402e-03
  7.9769071e-04
 -1.7876491e-04
  2.1259901e-03
  2.6780416e-03
  7.9537061e-04
 -3.3050494e-03
  1.8092422e-03
 -1.4440669e-03
 -1.3882230e-03
  7.6899299e-04
  8.4757875e-04
 -6.8382249e-04
  2.4891357e-05
  3.5353831e-03
 -2.7321202e-03
  5.7156535e-04
  8.8116614e-04
  1.2724567e-04
  1.3549086e-03
  6.1090779e-04
  7.4030249e-04
 -1.4972914e-03
 -2.4480000e-04
 -1.5288645e-03
 -2.8690905e-03
 -6.5566704e-04
  1.3515288e-03
 -3.6896404e-04
 -1.0722084e-03
 -2.1059255e-04
  5.7263562e-04
  1.7993141e-03
 -1.2352143e-03
  2.2430392e-03
 -8.8112557e-04
 -1.1119956e+00
 -2.3302177e-01
 -2.3037511e-01
  2.5829637e-01
  7.5669265e-01
 -3.9740178e-01
 -9.2849180e-02
 -3.2305449e-01
  3.7128699e-01
  9.9375993e-02
  4.3848592e-01
 -2.1856180e-01
 -5.8176637e-02
  1.3543641e-02
 -1.5816166e-01
 -2.0064423e-03
 -1.4606832e+00
 -1.8042171e-03
 -2.2438246e-01
 -2.0978273e-01
 -4.7494209e-01
 -2.7220461e-01
  4.6260014e-02
  6.7491308e-02
 -1.0174096e+00
 -1.4422494e-03
  7.4329123e-02
  2.9663751e-03
  4.9279481e-02
 -3.1562862e-03
 -5.5470508e-01
 -7.9760391e-01
  1.1932671e+00
  7.0166111e-01
 -1.3960129e+00
  3.1606758e-01
  6.2221867e-01
  2.5590706e-01
 -1.0839832e-02
  3.8177082e-01
  7.0958629e-02
  7.0122176e-01
  2.7244714e-01
 -1.8283136e-01
  2.6559168e-01
  4.4270486e-01
  5.0147033e-01
  7.6137625e-02
  3.0365067e-02
  2.8438169e-01
  1.9137648e-01
  7.3354858e-01
  3.2556179e-01
 -1.9930372e-01
  6.6034243e-02
  1.0740577e-03
 -3.1514394e-03
 -2.0298194e-03
 -6.1367557e-04
  1.3183928e-03
 -7.9184794e-01
  3.2778427e-03
  1.1790977e+00
  6.0515040e-01
 -2.3109509e-01
  7.9119360e-01
  2.3663567e-02
  1.0906928e-03
 -1.1723006e+00
 -7.2116512e-01
  6.1204270e-02
  1.0782523e-03
 -5.9504277e-01
  1.8146598e-01
 -2.4229279e-02
  5.0024170e-01
  9.2236552e-04
  1.2876726e-03
 -6.2551147e-01
 -1.4500788e-03
  4.2037642e-01
 -1.3061059e-01
  2.3610927e-03
  3.4592974e-01
  2.2536887e-01
  2.2380440e-03
  1.5844550e-03
 -4.7521986e-05
  4.5302333e-04
 -2.8599554e-04
  2.0819141e-04
  2.0774128e-04
 -2.7736428e-03
  1.5636828e-03
  5.5448140e-04
  1.5121462e-03
 -5.0482835e-04
  1.6817418e-03
  4.5042275e-03
  4.9697910e-04
 -4.8220594e-04
  5.4452947e-04
  2.2804632e-04
 -5.1235798e-04
 -6.4131868e-04
  4.0405031e-04
  3.1905252e-04
 -4.8426399e-03
 -2.0848401e-03
 -4.5893202e-04
  9.9379220e-05
  9.4118854e-04
 -2.3769566e-03
  1.4529376e-03
  6.1744312e-04
  7.8634266e-04
  6.8507832e-04
  5.4791034e-04
  9.5805153e-05
  8.9923065e-05
  2.1939696e-01
  2.1390052e+00
  4.2278999e-01
  3.2322529e-01
  3.2084954e-01
 -8.0827707e-01
 -4.6575910e-01
  8.4931087e-01
  8.0417120e-01
 -8.4067893e-01
 -3.2948673e-01
 -5.3947234e-01
  4.2907424e-02
  6.0119647e-01
  7.5981802e-01
 -7.4779439e-01
  2.7531478e-01
  1.0994224e-01
  1.5316407e-01
 -6.8522049e-03
 -1.4006824e+00
  5.6506860e-01
 -8.5305497e-02
 -3.5632525e-02
  8.4761345e-01
 -4.3485698e-04
 -7.6948270e-02
 -5.4335922e-02
 -3.2070693e-01
  1.9437340e-01
  1.4839519e-03
 -3.1252706e-04
  2.2665530e-03
  2.8752326e-03
  2.9500804e-03
 -1.2415021e-03
 -1.2832705e-04
  1.2977858e-04
 -1.1473938e-03
 -4.1824795e-05
  1.0311715e-03
  1.1883365e-03
  1.0255079e-03
 -1.0962822e-03
  8.6193427e-04
  6.3974236e-05
 -4.8702653e-04
 -4.6218862e-05
 -3.6657939e-03
  2.7273039e-03
 -1.1363444e-03
 -2.6873634e-03
 -6.1127590e-04
 -1.6710801e-03
 -2.0139338e-03
  4.4847230e-04
  3.3269159e-03
  3.9725970e-03
  1.4149883e-03
  1.2507711e-03
  5.9562805e-04
 -1.9528540e-02
  4.4803873e-02
 -2.9767131e-02
  1.7375133e-03
 -2.5842502e-03
 -5.4998591e-04
 -2.4255905e-03
  1.4714197e-03
  5.5018684e-04
 -2.5430094e-03
  1.3731283e-03
 -4.4519280e-04
  4.8033730e-04
  2.9265084e-03
 -4.9374974e-04
  1.2709453e-03
  2.7723692e-04
  4.0975744e-03
 -2.7425725e-03
  1.0745893e-03
 -3.1211311e-03
  2.3317598e-03
 -7.4172707e-04
  1.2729819e-03
  6.9532578e-04
 -1.6114977e-03
 -1.0371943e-03
 -7.2666310e-04
  3.6389218e-04
 -2.0151332e-02
 -1.2807927e+00
  3.4319628e-03
  6.2635684e-01
 -9.6356817e-02
 -9.6068613e-04
 -6.0572947e-04
  5.9536460e-04
  1.2167851e-03
 -1.1983638e-03
 -3.3952272e-04
  8.6938357e-04
  5.8579602e-04
 -6.0171157e-04
 -1.4719241e-03
  7.9248723e-04
  3.2162986e-04
  6.8998989e-04
  4.0182075e-04
  1.6713667e-03
  2.4308322e-03
 -6.0851697e-04
  1.5336098e-04
 -3.0916964e-04
 -3.5749134e-04
  1.1595825e-03
  2.3344336e-03
  1.0242470e-03
  2.5975308e-03
 -4.6936277e-04
 -1.4423430e-03
  2.8066812e-03
  3.7296047e-03
 -7.9882686e-04
 -3.9141774e-04
 -1.7918041e-04
  1.0675207e-03
 -9.4534806e-04
 -6.6841091e-04
  7.6028460e-04
  1.8887292e-04
  1.0420691e-03
 -1.5373137e-04
  1.0372401e-03
  1.7536565e-04
 -2.0647517e-03
 -3.8694490e-03
  2.6453317e-03
 -2.3440297e-03
  3.8376148e-03
  7.5913500e-05
 -1.6810957e-03
 -1.6657098e-03
 -1.1577833e-03
 -5.0460885e-04
  8.1667956e-04
 -3.8175119e-04
 -9.2258613e-04
 -1.0246837e-03
 -8.1244914e-05
 -1.8535030e-01
 -4.9739763e-01
 -4.1662326e-01
 -7.2034991e-01
 -1.2627488e+00
 -6.1249360e-03
  1.7559822e-03
 -2.6886484e-02
 -1.3633001e-01
 -2.1638316e-01
 -1.1752506e-04
 -6.3781429e-04
 -1.3474698e-04
  5.2626204e-01
  9.0159969e-03
 -2.5035647e-01
  5.3725409e-05
 -1.2798232e-01
 -3.7202020e-03
 -4.0535367e-01
  6.2588295e-03
 -1.5669828e-03
 -5.3480961e-03
 -1.9379164e-04
 -1.5095554e-03
  6.5696961e-04
  1.3604396e-04
  1.0926848e-03
  5.3435550e-03
 -2.1118324e-04
 -1.9708238e-04
  3.2201494e-04
 -3.4424707e-03
  2.8899161e-03
 -2.8981711e-04
  2.0736982e-03
 -6.4559170e-04
 -2.8922502e-04
  5.2008039e-04
 -1.3269584e-04
  4.5481918e-04
 -6.4513297e-04
 -1.6159611e-03
 -2.6364312e+00
  9.9296903e-04
 -2.3208435e-03
 -2.4433718e-03
 -1.2480986e-03
  1.3239528e+00
  6.5408320e-05
 -4.9354520e-04
  7.5532001e-04
  9.9785009e-04
 -1.3834153e-03
 -4.7502451e-04
  1.0655004e-03
  3.9988881e-04
  5.8245121e-05
  2.9028999e-04
 -1.6933121e-03
  8.9573279e-02
 -2.7933022e-01
  1.6465458e-01
 -3.1715757e-01
  1.8840857e-01
 -8.4165186e-03
 -1.4331024e-02
  8.5452475e-02
  1.4794028e-01
  2.6369828e-04
 -1.7161496e-01
  6.5415056e-04
  2.2917707e-03
 -9.9817768e-02
  1.0668072e-02
 -2.0426755e-01
  7.0696988e-06
 -1.2243160e-03
  2.8035071e-04
 -3.0089808e-01
 -2.7785087e-01
  1.4533341e-01
  1.9857552e-04
 -1.2829031e-01
  3.6826972e-02
 -2.7740968e-03
 -1.3933537e-03
 -2.5228823e-02
 -3.7268468e-03
 -2.1487675e-03
  3.4549723e-03
 -3.8330510e-01
  7.1069098e-04
 -1.1091420e-01
 -1.7063548e-04
 -1.7326203e-03
  2.6695736e-02
  2.1472736e-03
  3.6678370e-03
 -4.2218203e-04
 -2.4000979e-03
  4.2477035e-04
 -1.7275180e-04
 -2.2324717e-03
 -2.3934005e-04
 -3.7092499e-03
  6.5302243e-04
 -5.9491897e-04
  7.2659767e-04
 -5.4505100e-03
 -7.6695345e-04
  1.6745240e-03
  2.0996779e-03
 -7.6917611e-04
  9.9953741e-04
 -1.6578116e-03
 -6.5332074e-03
 -2.1586367e-03
 -5.5911334e-04
 -7.4276431e-03
 -1.6022468e-01
 -3.1898924e-04
 -7.5344479e-04
 -4.2372796e-01
  1.4568132e-03
 -1.3877677e-03
  6.4799207e-04
  1.1388963e-04
 -1.6990901e-04
  3.9598273e-04
  2.8233109e-03
 -4.4807611e-04
 -3.4472828e-03
  2.0412263e-03
 -6.1683031e-04
 -3.2883929e-04
  1.4654973e-03
 -4.0092820e-04
 -3.3233000e-04
  6.1846635e-04
  3.7081278e-05
 -1.4487812e-03
  7.3928817e-04
 -2.5736059e-03
 -1.7335844e-03
 -2.3546845e-03
  1.6840438e-03
 -1.0159954e-03
 -3.2863766e-04
 -6.9762568e-04
 -9.9993443e-01
  7.4741149e-01
 -4.2231235e-01
  5.8435148e-01
 -8.4154308e-05
  4.2736768e-03
  6.0653824e-01
 -4.4970494e-04
 -8.9805365e-02
  1.3440311e-02
  3.9152272e-02
 -7.5985678e-03
  7.5157534e-04
  2.4968135e-01
 -1.4684528e-01
  2.0821610e-01
  7.6225714e-04
 -3.0331869e-02
  1.8746268e-04
  1.8072613e+00
  6.2220979e-02
 -1.1170430e-02
 -1.7021004e-03
  2.3537199e-01
 -2.3760679e-01
  4.2294017e-03
  7.5234426e-04
  1.3475976e-02
  1.5283972e-03
 -1.0203787e-03
 -5.5335037e-04
  1.1557109e-03
 -6.5771618e-04
  2.0448258e-03
  1.5716190e-03
 -2.6321947e-04
 -2.1981349e-04
 -3.3836088e-03
 -1.6404546e-03
 -4.8614788e-04
  1.7125427e-03
 -1.6133445e-03
 -8.1735122e-04
 -4.0930414e-04
  1.4895903e-03
 -3.3081687e-04
 -3.8963417e-04
 -4.7421746e-04
  3.2072491e-04
 -7.9138449e-04
 -2.7767601e-03
  6.9445372e-04
 -3.0815240e-04
 -2.1500346e-04
  1.1628191e-03
 -3.1646602e-03
 -1.2787405e-03
 -6.4137619e-04
 -6.6387973e-04
  1.0812074e-03
  9.3596840e-01
  1.5098079e+00
 -1.3413050e+00
 -3.7612250e-01
  1.9213562e+00
  2.7892527e-01
  1.5688941e-02
 -2.2602560e-01
 -1.0442420e-01
  1.0007346e+00
 -7.4599292e-03
 -4.2842340e-01
  1.5848207e-01
  1.1481217e+00
  3.2556647e-01
 -9.4985496e-03
 -1.1858250e-02
 -1.7784373e-01
  4.1681407e-03
  1.2419176e+00
  3.4767273e-01
 -7.7492589e-01
 -1.0207973e+00
  2.5422326e-01
  6.0120600e-01
  2.4983839e-03
  1.0226903e-03
  6.5053187e-02
  3.0260789e-03
  4.0192818e-03
  1.8983864e-03
 -7.7019997e-02
  3.1443099e-03
  3.6266079e-04
  1.1041909e-03
 -3.0027004e-06
 -4.8155402e-05
 -3.8785033e-04
  2.5545270e-04
  4.8373273e-05
  4.2700570e-04
  3.6217612e-03
 -2.8293306e-04
  1.7069149e-03
 -6.4006029e-04
  4.9390423e-05
  6.0456974e-04
 -1.5298423e-04
 -5.4390531e-04
 -2.9267743e-04
 -1.5083335e-03
 -1.8844374e-03
 -1.0460180e-05
  1.7103818e-03
 -1.4800255e-03
 -4.9503095e-04
 -2.3850640e-03
  2.1135136e-03
  8.3876186e-04
  3.9223436e-04
  4.9189001e-04
  1.8032549e-01
  4.9234938e-02
 -1.3531044e-01
 -1.0555587e-02
 -3.2235630e-02
 -4.6018772e-02
  1.2225059e-03
  6.2907897e-02
 -2.1646321e-01
  1.4996058e-03
  5.3343037e-04
 -8.1803487e-04
 -1.0959788e-03
  3.0437341e-02
 -2.8626109e-02
  2.6680069e-04
 -2.4092703e-03
 -1.9636399e-03
 -1.0363885e-02
 -1.3841701e-01
  1.0944588e-02
  1.0543931e-03
  5.6892430e-05
  4.5418978e-02
  2.3464446e-03
 -4.2408903e-04
 -8.7644043e-04
 -2.2605991e-03
  1.0939842e-03
  1.0698930e-04
 -4.8556957e-02
  4.6512182e-04
 -8.0642384e-04
  9.5262371e-02
 -2.6421560e-04
  5.3848349e-04
  1.9492465e-03
 -1.3491185e-04
 -3.2154318e-02
  1.0095898e-03
  7.2222413e-04
 -2.7540047e-04
  1.2613514e-03
 -3.1015335e-04
  4.7005160e-05
  2.4682328e-03
  1.0118849e-03
 -1.3873756e-03
 -2.1366479e-02
  2.9343921e-03
  4.8394752e-05
 -8.6096267e-04
  3.9009537e-04
  6.5220828e-04
  5.9779111e-04
  1.2815327e-03
 -3.5803008e-04
  5.5516483e-03
  1.4120821e-04
  1.6356312e+00
  1.1575147e+00
 -8.2339001e-01
  6.8748939e-01
 -4.8465550e-01
  2.7843624e-02
  2.2320428e-01
  2.6531875e-01
  3.3751847e-03
  1.1858851e+00
 -3.2667580e-01
 -3.1991940e-02
  9.3720925e-01
 -1.8472553e-03
  1.8183237e-01
 -2.2610432e-01
  1.2143000e-03
 -4.0797919e-02
  6.7204350e-01
 -1.1119082e-01
 -3.4560567e-01
  4.3108691e-02
 -2.2038322e-02
 -9.3019038e-02
 -2.0783972e-03
  3.3348263e-04
 -2.8396519e-03
 -3.3132352e-03
 -7.8839920e-03
  4.1403063e-04
 -6.4242381e-04
 -1.3920662e-03
  6.7561551e-04
 -1.2051604e-04
  1.6695377e-03
 -3.6344983e-04
  4.3904272e-04
 -4.9097172e-04
 -9.9388673e-04
 -2.0658416e-03
  7.2439108e-04
  1.3478987e-03
  9.5109583e-04
  3.6961180e-03
 -3.6351418e-03
  4.8931630e-04
  3.4588034e-04
  5.2613544e-04
 -3.8341357e-04
  8.6573133e-04
  1.0640156e-03
 -9.2859863e-04
 -1.7479061e-03
 -2.3871053e-03
  5.2013661e-04
 -2.0068339e-03
 -4.9758353e-04
  2.7326739e-04
 -6.7229266e-04
  5.3168664e-04
 -3.2662386e-03
 -1.1739103e-03
  6.2307023e-04
  3.1638164e-03
 -1.6865170e-03
 -1.6603742e-03
  3.8206824e-03
 -2.5913588e-04
 -2.0936620e-03
 -2.1425392e-03
 -3.0392711e-04
  2.4045803e-04
  6.7500956e-04
  5.2073161e-04
 -4.0171552e-05
 -1.4545722e-04
 -6.5350544e-04
  1.8087329e-03
  6.1595900e-04
  2.3354036e-03
 -1.7473293e-03
  3.3791142e-04
  9.0564543e-04
  1.7572604e-03
  1.2622752e-04
  1.4790500e-03
  4.5804610e-04
 -2.9524992e-05
 -1.4807732e-03
 -4.0106559e-03
  5.7417806e-04
  7.6909654e-02
  5.0095975e-01
 -5.6015068e-01
  2.2568204e-01
  5.1387906e-01
  6.6768189e-05
  4.2266417e-01
  1.3272418e-01
  7.8756911e-01
  1.6150917e-03
  6.8362933e-03
 -2.9511294e-01
 -5.1109529e-01
 -9.1876549e-01
  9.5038261e-04
  2.0115739e-03
  2.5616467e-03
  1.4124946e-02
  7.0007821e-04
 -1.5658541e-03
 -5.2475475e-04
 -1.2104652e-03
 -2.1459763e-03
 -5.1102634e-03
  3.7769327e-04
 -1.3450750e-03
 -3.4367392e-04
  1.1174527e-03
 -1.1046114e-03
 -1.5280415e+00
  4.7936395e-01
  3.6414072e-01
 -5.4146391e-01
  5.1348501e-01
  2.2490929e-01
  2.3907286e-01
 -4.8724860e-01
 -7.6673009e-02
  8.7122787e-03
  1.4664732e+00
 -5.7514668e-01
 -3.3850283e-03
  3.6151850e-04
 -1.0102274e+00
  8.0936646e-01
  2.7034473e-01
 -1.4458400e-03
 -5.2301532e-01
  1.0768331e+00
  4.2564899e-01
 -5.5368412e-01
 -6.7593709e-02
  2.8026780e-01
  1.6761975e+00
  2.0750728e-03
  1.6201692e-04
  9.6271381e-02
  2.4488343e-01
 -2.3052206e-03
 -2.6468481e-03
 -2.2050433e-03
  2.4876662e-04
 -1.2334356e-04
  1.6951708e-01
  3.3174552e-02
 -4.6058656e-03
  1.9439607e-04
  2.2981763e-03
  3.9570671e-04
 -1.8655842e-03
  1.9251683e-03
 -2.5013413e-03
 -3.0045921e-04
  1.7887312e-03
 -3.2381853e-03
  7.9910288e-04
  5.2445335e-05
  2.0973778e-03
 -1.3675138e-02
 -1.4546756e-03
 -3.3484929e-04
 -2.3905111e-03
 -2.0061273e-04
  4.5887532e-04
  4.6310457e-04
  9.9533878e-04
  1.8786013e-05
 -1.2822396e-03
  1.7404966e-03
  3.3938685e-03
  2.1188504e-03
  1.7375289e-04
 -3.4132667e-04
  4.0354932e-04
  2.3687370e-03
 -1.1160043e-02
 -3.1403031e-03
  3.6160398e-04
 -2.9635135e-04
  2.8498927e-03
  4.4718054e-03
 -5.1135500e-04
 -8.2896900e-04
 -7.6619128e-04
  4.4353714e-04
  1.8704359e-03
 -6.7972904e-04
 -1.8565805e-03
  5.0755264e-04
 -5.9975102e-04
 -8.1820373e-04
 -3.5660376e-04
 -6.9759029e-04
  1.8425046e-04
 -1.1904191e-03
 -1.1798621e-03
  3.9213794e-04
  1.1329486e-03
 -1.8140267e-03
  1.7577219e-01
  1.8894087e-01
  2.8109461e-01
  2.1881051e-01
 -6.3649900e-02
 -8.5248360e-03
 -7.0192806e-02
  1.1747313e-01
  8.1491306e-02
 -1.7055437e-01
 -7.8139119e-02
  9.6977025e-04
  1.6064643e-03
 -1.7527409e-01
  9.8385410e-03
 -2.3943657e-01
  1.4867938e-04
 -4.5240495e-02
  9.4160810e-02
 -1.0618015e-01
 -1.5209255e-01
  5.0997484e-01
  1.2031061e-03
 -1.2703146e-01
  1.2319560e-01
 -2.8877631e-02
 -3.3315044e-02
 -3.4341002e-01
 -2.8593773e-01
 -7.7456963e-04
  1.2802558e-03
  9.8025694e-04
 -8.2147293e-02
  1.7408180e+00
 -5.0525522e-01
 -9.6213946e-04
 -1.1311080e+00
  3.1839220e-03
  2.2334708e-03
  2.8918195e-01
 -2.2473349e-03
 -1.1880112e-01
 -7.5605890e-04
  3.8386348e-03
  4.0566293e-04
 -3.5116446e-01
 -5.7606918e-01
  6.3931552e-04
 -4.5203760e-01
  1.1171919e-04
  3.0938314e-02
  1.8229931e-04
  6.1747515e-01
  2.4004730e-03
  1.7567181e-03
  4.6920959e-02
 -1.0954328e+00
 -1.8138281e-04
  1.9248608e-03
  2.2804280e-04
  5.5091880e-04
 -2.1414524e-03
 -1.2367586e+00
  1.8232597e+00
 -4.1421801e-01
 -1.1955808e-04
  1.3998119e+00
  4.2150181e-04
  7.5548992e-02
 -8.2993782e-01
 -5.0594352e-02
 -5.3361070e-01
  5.1525324e-03
  4.1903451e-01
  9.8570116e-02
 -8.6922854e-02
 -3.6822170e-01
  5.6298533e-03
 -5.7150733e-01
  2.2550110e-02
  4.4572857e-01
  7.7219456e-02
  5.0347382e-01
 -2.5735971e-02
  3.5048542e-03
 -2.7244982e-01
 -5.7394099e-01
  1.2745172e-01
  4.2727965e-04
  9.9756688e-01
  1.4293312e+00
  8.4753287e-01
 -1.9588853e+00
  1.9604634e-02
 -1.9781087e-01
 -1.6151467e-01
  8.8178688e-01
 -6.5040952e-01
  6.5004241e-01
 -7.6921976e-01
 -9.5420468e-01
 -1.3278707e+00
 -1.5361036e+00
  6.9410330e-01
 -5.4897230e-02
  1.8817805e+00
  1.0389616e+00
  1.0985782e+00
  1.5038836e+00
  1.7654470e-01
  5.9457368e-01
 -9.4509619e-01
 -6.6760975e-01
  1.8098534e+00
 -1.0365169e+00
 -2.1627490e-01
 -4.6794257e-01
 -6.7883235e-01
 -3.9585777e-02
  1.4715823e+00
  3.7709620e+00
 -2.0872793e-04
  1.4576615e+00
  9.2074949e-01
  1.8065910e+00
  1.6827802e-01
 -7.4814400e-03
 -2.2194536e-02
  1.9839604e-01
  3.3603531e-01
  2.0408708e-01
 -1.2170668e+00
 -2.4681635e-01
 -5.4327494e-01
  1.2753965e+00
 -1.6836141e-01
  8.4882873e-01
 -3.2585642e-01
  1.0730470e+00
  5.0500643e-01
  1.0073495e+00
 -2.9999828e-01
 -9.6812785e-02
  2.4131887e-02
  5.5233032e-01
 -1.6759812e+00
 -6.2113327e-01
  1.9367774e-01
 -1.0431670e-03
 -9.2802328e-01
  4.3979892e-01
 -1.5012448e+00
  7.4325174e-01
  3.9315858e-01
 -7.5907862e-01
 -1.5795001e+00
 -2.4059961e+00
 -2.8290832e+00
  1.2084061e+00
 -6.8252409e-01
  7.9857588e-01
 -3.3489385e+00
  2.6471162e-01
  1.1428862e-01
 -2.2392724e+00
  9.8078275e-01
 -1.5390091e+00
  1.9945681e+00
 -8.0597209e-05
  2.8526545e+00
  6.2956125e-01
  3.7232397e+00
 -1.0785339e+00
 -1.2774326e+00
 -1.0126602e-01
  1.5338640e+00
  5.0885957e-01
 -1.1586028e+00
  2.8679723e-01
 -1.7946321e+00
 -1.0033460e+00
  6.3746047e-01
  8.9460576e-01
 -7.4510473e-01
  7.4480468e-01
  9.2733878e-01
 -1.5860347e-01
  3.6702159e-01
  9.1021788e-01
 -6.5240711e-01
  7.6418541e-02
  7.9124498e-01
  1.1727253e-01
 -6.5022945e-01
 -1.6472895e-02
  2.7460915e-01
 -1.1046970e+00
  3.1421927e-01
 -1.6206431e+00
 -1.7774652e-04
 -1.1986583e-03
  2.2861724e-01
  3.9789599e-04
  1.7049743e-03
 -1.5356237e-01
 -1.0963002e+00
 -1.2450234e+00
 -6.1234917e-02
  2.3686223e-02
 -7.0192111e-01
 -1.7267390e+00
  6.2979293e-01
  1.0181518e-01
 -7.4972910e-01
 -9.3243316e-02
 -3.7670222e-03
 -9.7089577e-01
 -3.7017757e-01
  1.0741985e+00
 -7.2447705e-01
 -6.6942066e-01
 -5.7364036e-03
 -9.6194208e-01
 -7.3042524e-01
 -1.1963362e-01
  4.1308743e-01
 -1.4223741e-01
  6.9969958e-01
  1.5393291e+00
  1.9647700e+00
  2.2692468e+00
 -1.0866506e-01
  1.7136016e+00
  1.0171295e-01
 -8.5169047e-01
 -1.2871461e+00
 -8.5308629e-01
 -9.9660316e-03
 -7.9101479e-01
 -8.4908307e-01
 -5.9780645e-01
 -3.3339840e-01
 -1.3799909e-01
  1.9125460e-01
 -1.2428179e+00
 -1.1493485e-02
  4.1277900e-01
 -7.7336413e-01
  1.7030501e+00
  8.7693357e-01
  3.3902645e-05
 -2.3541477e-01
  7.8162163e-02
  8.9680471e-02
  3.1416569e-02
 -9.4244885e-01
 -2.1916309e-02
  4.6552080e-01
  2.8351957e-03
  1.5004343e+00
  1.6807835e-03
  1.0026008e+00
  1.1113035e-03
 -1.0323877e+00
  1.6568204e+00
  8.1751722e-01
  3.7390273e-03
 -1.6937464e+00
 -1.8599659e-01
  7.7816218e-01
 -7.7461696e-04
 -1.6767259e+00
 -2.9230029e-03
 -2.9299480e-01
  4.6258932e-03
 -4.3604574e-01
  1.1684356e+00
  1.6900206e+00
 -3.5504979e-01
 -2.0073459e-01
 -4.3702185e-01
  1.3474011e+00
 -1.7507105e-01
 -6.4007658e-01
 -5.1946014e-01
  1.3011941e+00
  2.9335756e-04
 -2.2448766e-01
  5.0830102e-01
 -4.3563208e-01
 -3.1942326e-01
 -7.2385335e-01
  8.6946148e-01
  6.6788697e-01
  8.0461368e-02
 -5.0420705e-03
  2.3713070e-01
  5.2649564e-01
 -2.7436510e-01
  1.6538196e+00
 -2.8984697e-04
  9.6298620e-02
 -1.1358323e-01
  8.9249021e-04
  9.0819621e-01
 -1.2596909e+00
 -5.4679692e-02
  7.1538597e-01
 -1.0442731e+00
  4.8014021e-01
  5.0715578e-01
  1.7084660e-01
  3.7924758e-01
  1.6748019e+00
 -6.5571886e-01
 -1.3781267e+00
  1.7576996e+00
 -5.3743076e-01
 -2.2858427e+00
  1.3855127e+00
 -8.8806784e-01
  2.9106731e+00
 -3.4838203e-02
 -1.0361400e+00
  7.4248153e-01
  6.0340768e-01
  1.0936999e-01
  5.9148616e-01
  8.0087829e-01
 -2.0081271e-01
  5.9272879e-01
  6.9797814e-01
 -2.4818833e-01
 -1.2776132e+00
  1.7102787e+00
  4.4808665e-01
  7.2518897e-01
  4.2987487e-01
 -1.1670490e-01
 -9.3722355e-01
  1.3905617e+00
  5.6626236e-01
 -2.7973673e-01
 -8.2993513e-01
  5.1204598e-01
  1.0178134e+00
  4.9495447e-01
 -2.1241543e-01
  1.2774418e-01
  1.4450277e-01
 -4.6182338e-02
  1.7310591e-01
 -1.3747412e+00
 -1.5409274e+00
  4.8947263e-01
 -3.5406047e-04
 -3.8436681e-01
 -4.8057789e-01
  1.7087114e-03
  5.4863864e-01
  2.1450171e+00
 -1.5084630e+00
  9.0368755e-02
 -2.9549131e-01
 -4.7193801e-01
 -1.3972633e+00
  3.1292433e-01
  2.5864744e-01
  1.7315651e+00
  4.5777023e-01
 -5.1602048e-01
  8.7962312e-01
  1.4623089e+00
 -5.9712738e-01
  8.0029917e-01
  5.9981787e-01
 -9.2485285e-01
 -3.1878692e-01
  7.5069623e-04
  7.8204861e-03
  2.1433027e+00
  1.4437776e+00
  1.2294157e-01
 -1.2028481e+00
 -8.1981319e-01
 -4.1579287e-02
 -1.3612116e-03
  2.5764832e-01
  4.1490355e-01
 -1.3928595e+00
  1.6007721e-01
  4.9090326e-01
  8.6151719e-01
  7.9613990e-01
  1.9371506e-02
 -7.6549817e-03
  1.4649446e-01
  1.7587780e+00
  2.4369375e-01
 -4.5961937e-01
 -1.0387942e+00
  6.3815624e-01
 -5.5010780e-03
 -7.6888096e-01
  2.0722706e+00
 -3.0873588e-01
 -2.7465703e+00
 -1.6443691e+00
  5.8452904e-01
  1.0602962e-01
 -7.9478428e-02
  1.3699915e+00
 -3.0887980e+00
  2.0641707e-02
 -5.6481260e-01
 -4.1777290e-02
  6.6334414e-01
  5.7209200e-01
 -1.4657474e+00
 -1.2410854e+00
 -4.8872608e-01
  1.1093065e-01
 -1.3361785e+00
 -6.0318470e-01
  7.0457047e-01
 -1.9382930e+00
  6.0828158e-04
  3.0639696e-01
  1.8358113e+00
 -1.1101487e-01
 -1.0166351e+00
 -4.1266212e-01
  3.0637667e-01
  5.2444494e-01
 -2.2572443e-01
  2.4329530e-01
 -2.1527622e+00
  1.7807695e+00
 -3.8590008e-01
  1.2870035e+00
  9.3866187e-01
  5.1589382e-01
 -1.2150770e+00
  1.0052159e+00
  1.5816337e+00
  4.0181646e-01
 -2.0104146e+00
 -2.1857460e-01
  1.7779647e-01
  8.5775331e-02
 -6.3554835e-01
 -3.2663456e-01
 -2.1220948e-01
  9.1335094e-01
 -5.2163053e-01
 -3.7453786e-01
  1.6404277e-01
  3.2141539e-01
 -1.3093390e+00
 -7.2303437e-02
 -4.8354473e+00
 -2.9468453e-01
 -1.0443549e-04
 -1.0796878e-01
  1.7936890e-01
  6.9051838e-01
 -5.6816292e-01
 -5.4923618e-01
 -1.5594321e+00
 -1.0670269e+00
 -5.8929688e-01
  1.4471793e-01
  1.1105036e+00
  4.3930832e-02
 -6.9796309e-02
 -2.6452088e-01
 -1.5601954e+00
  9.2126954e-01
 -5.3760672e-01
  1.0760436e+00
 -8.7938362e-01
 -3.8746718e-01
 -1.6825677e-01
  2.4125955e+00
  1.2213209e+00
 -5.5180404e-02
 -7.4689037e-01
  7.2012931e-01
  3.1444764e-01
 -1.8675416e+00
 -2.9015553e-03
 -1.1396922e+00
 -3.0133793e-01
 -7.5767612e-01
 -5.2452844e-01
 -1.3565422e+00
 -2.8519398e-01
 -6.2615997e-01
 -3.0813658e-01
 -5.1835871e-01
 -5.7227075e-02
 -2.0215376e-01
 -1.0858604e-01
 -2.0552483e-01
 -7.8904308e-02
 -5.9184259e-01
 -4.4384947e-01
  8.6020964e-01
  2.4156393e-01
 -4.1189802e-01
 -2.0063443e+00
  9.8212004e-01
 -1.9619386e-01
 -1.0989053e-03
 -1.6988865e-03
 -1.7923170e+00
 -1.5758088e+00
 -2.7284980e+00
 -5.2997434e-01
  8.6875552e-01
 -7.7521378e-01
 -4.7597724e-01
  1.0525915e-04
 -5.4414175e-03
 -1.0393432e+00
 -1.3582678e+00
 -1.1403854e-01
  2.2248013e-01
  7.5720459e-02
 -1.0850630e+00
 -2.5305867e-01
  1.6205682e+00
 -8.4293109e-01
  1.8945225e+00
  7.2654111e-05
 -7.8862047e-01
 -5.9509969e-01
  1.0839422e+00
 -5.3516281e-01
 -1.1016701e+00
  6.0707396e-01
  9.5139533e-02
  1.2329154e-05
  1.7630045e+00
 -1.1391494e+00
 -6.8274337e-01
 -8.1675645e-04
  1.8345109e+00
 -1.4637769e+00
 -5.6595898e-01
 -3.3606505e-01
 -3.6076356e-02
 -5.2635503e-01
 -7.1368247e-01
  2.8986419e-03
  1.0465664e-01
  4.7277257e-01
 -2.6790529e-01
 -9.0967894e-01
 -5.4247767e-01
  1.2152725e+00
  6.6283166e-01
  1.5443000e-03
  1.1483991e-03
  3.7614265e-01
  2.5305492e-01
  4.8790816e-03
  1.7676039e+00
  7.9410458e-01
  1.5277888e-01
 -1.0888920e+00
  4.4286144e-01
 -6.5473965e-03
  7.5903207e-02
  1.2717686e+00
 -1.1714189e-02
 -4.5867725e-03
 -3.9766735e-01
 -1.7929889e+00
  3.9754906e-01
  1.1226332e+00
  1.3186362e+00
  9.7830683e-01
  3.0108151e-01
 -6.0133588e-01
  6.3560194e-01
 -8.4636587e-01
  1.5075792e-01
 -1.0973827e-01
  1.1948446e+00
  2.0483947e-01
  5.6422836e-01
  8.1184022e-03
  9.5354176e-01
 -4.0806013e-01
  4.7440130e-02
  6.9145805e-01
  7.2553955e-02
  3.4441999e-03
 -2.2721815e-01
  1.6704568e+00
 -1.6395648e-01
 -2.3241411e-01
 -1.2968548e-01
  1.5277312e+00
  4.0730855e-01
 -1.0819225e-01
  1.7267783e-01
  4.8292461e-01
  3.4693795e-01
 -4.5242026e-01
  2.3359172e-02
  2.3359172e-02
  2.3359172e-02
  2.3359172e-02
  2.3359172e-02
  1.0008992e-01
  1.0008992e-01
  1.0008992e-01
  1.0008992e-01
  1.0008992e-01
  7.6365598e-02
  7.6365598e-02
  7.6365598e-02
  7.6365598e-02
  7.6365598e-02
  3.3227548e-02
  3.3227548e-02
  3.3227548e-02
  3.3227548e-02
  3.3227548e-02
  1.5595984e-02
  1.5595984e-02
  1.5595984e-02
  1.5595984e-02
  1.5595984e-02
  5.0654486e-02
  5.0654486e-02
  5.0654486e-02
  5.0654486e-02
  5.0654486e-02
