nep4 2 Cu Se 
cutoff 7 5 100 44
n_max 8 6
basis_size 12 12
l_max 4 2 0
ANN 50 0
  9.7374372e-02
 -3.2419502e-04
  6.9437847e-03
  2.0232967e-03
 -2.6959297e-03
 -3.4019842e-03
 -2.1004943e-02
  3.8238843e-03
 -1.0113225e-03
 -3.2304851e-03
  2.1603378e-03
 -6.1198608e-03
 -2.4509777e-03
  3.7432262e-03
 -4.0520541e-03
  2.4784841e-03
  8.3520710e-03
  1.7928680e-03
  8.5010454e-03
  2.4462927e-02
 -2.6104636e-03
 -6.0152174e-03
 -1.6511194e-03
  1.1804397e-02
  2.1128126e-03
 -1.5953952e-03
  5.9334622e-03
  1.5054087e-03
 -3.1292887e-04
  1.4370879e-03
 -5.1887892e-04
  1.9675426e-03
 -1.0317902e-03
 -3.0065048e-03
 -1.7586502e-03
 -5.4683825e-03
  6.7137461e-04
  5.0896495e-03
  6.6212411e-03
 -4.0917322e-03
 -1.5458190e-02
  1.8616214e-03
 -3.6326069e-03
 -1.9404185e-03
 -1.4068265e-02
  3.1648641e-03
 -6.5862546e-03
  8.8506466e-04
 -5.9441384e-04
  1.6131031e-05
 -8.2858168e-03
 -2.3737147e-03
  1.7816436e-02
  6.4341212e-03
  3.7496851e-04
 -4.9955747e-03
  1.3403236e-03
 -4.7952249e-03
 -1.1462275e-03
 -5.1266458e-03
 -1.1590321e-03
  1.0864883e-02
  2.1367241e-03
 -9.2277280e-04
 -6.9451034e-03
  4.7122194e-03
 -5.7783746e-04
  8.6206514e-03
  1.0884677e-03
 -2.8761672e-03
 -9.0440677e-04
  1.9410726e-03
  2.2105098e-02
 -4.4123176e-03
  3.0609015e-03
 -4.4240123e-03
 -2.6570021e-03
  6.3588130e-03
  1.3716734e-03
 -3.2104813e-03
 -5.6408057e-03
  6.5414868e-03
  2.9384717e-03
 -1.0620391e-01
  4.4461023e-03
  1.4468238e-03
 -2.4340459e-04
 -8.4209116e-03
  3.9274326e-01
  7.5827521e-01
  2.7055445e-01
  1.2483180e-01
  3.2241270e-03
 -1.0793365e+00
  4.1456765e-01
  4.9154514e-01
 -1.0175067e+00
  6.0328877e-01
  3.1173727e-01
 -4.1374970e-02
 -5.6863576e-02
 -3.4705852e-03
  1.9405499e-03
  1.2627060e+00
  1.0976620e-01
  8.1229344e-02
  8.3990240e-01
 -3.0987613e-02
  5.6803489e-01
  1.2227737e-03
  6.9554704e-01
 -3.6912471e-01
  8.8085437e-01
 -4.5485394e-03
  1.1856805e-01
  3.8584614e-01
  6.0707414e-01
 -3.0324096e-02
 -6.9579054e-03
  2.7771502e+00
  1.6261909e-02
 -1.2670548e-01
 -3.6600167e-01
  5.4032288e-02
  5.1391426e-02
 -2.3205607e-01
  6.7525572e-05
 -2.1843184e-03
 -1.1774689e-01
 -3.6426821e-01
  3.5638934e-01
 -9.7995214e-03
  3.2873496e-01
 -9.6024849e-02
 -6.9785219e-01
 -4.5011467e-01
  3.6140597e-01
  8.9215852e-02
 -9.5803016e-01
 -5.1777148e-01
  7.0435362e-04
 -1.2959298e-01
  7.4259844e-03
 -5.5829510e-02
 -4.2554125e-02
 -1.1182178e-02
  4.8227408e-03
  2.1357317e-03
  4.1231971e-02
 -2.8530802e-03
  5.3072623e-03
  1.6896253e-02
  1.9671102e-01
  6.2841680e-03
  1.9704023e-01
  1.6407156e-01
  6.7089510e-04
  1.1068996e-02
 -1.0867981e-01
  5.6753568e-02
  5.3317696e-03
 -7.2695585e-03
 -5.3618578e-03
 -1.2481323e-02
  1.0745449e-01
  1.6120134e-01
  2.5285932e-03
  1.3661028e-02
 -1.1570469e-03
 -4.2089438e-03
 -4.2626308e-03
  3.7105386e-03
  7.0279883e-04
 -5.4495418e-03
 -1.1450976e-02
 -5.5621089e-03
 -2.2631752e-01
 -2.0414589e-01
  3.9856434e-01
  2.3429174e+00
 -1.1462086e-01
 -1.1219540e+00
  3.3667278e-01
  1.7357117e-03
  8.9145881e-01
 -1.0103455e+00
  2.8126296e-03
  2.2712421e-01
  1.2324849e+00
 -2.6606235e-01
  5.8023089e-01
  5.9521925e-01
  1.3632978e+00
 -1.2688388e-01
  5.3891248e-01
  2.2999808e-01
 -3.0084518e-01
  2.2795749e-01
 -2.3832468e-02
  7.9434991e-01
 -2.2497012e-01
  8.5120416e-01
 -5.7837937e-02
 -1.9490796e+00
  7.0408380e-01
  6.8013780e-02
  1.1255855e-01
  2.6503645e-02
  1.3599418e-03
  1.8533503e-01
  2.3973282e-02
  2.7052766e-01
  1.8394093e-01
  2.2182129e-03
  9.8981010e-03
 -3.0412358e-01
  5.0578761e-05
 -1.2793168e-02
 -2.7161369e-03
  8.9213638e-05
  2.7499716e-03
  1.0060957e-01
 -1.2137672e-01
 -9.9169109e-03
 -1.2504343e-02
 -2.1508569e-01
  3.9635003e-01
  1.3282775e-03
  1.1209572e-02
 -1.1148285e-02
  2.7521558e-03
 -1.3374190e-03
 -1.5169792e-03
  1.0087856e-04
 -2.2465580e-03
 -2.1517482e-03
  4.4174143e-03
 -1.1280655e-02
 -1.4832078e-02
 -3.6752230e-05
  2.4906057e-03
  7.7108680e-03
  2.4157343e-06
  5.1981327e-03
 -1.2059647e-02
  2.8133981e-03
  2.5099341e-03
  2.7999954e-04
  3.1174885e-02
 -6.9147995e-04
  2.2609672e-03
 -7.7925585e-03
 -3.5336305e-04
  1.2534290e-02
  1.6208951e-03
 -1.0304004e-03
  5.7377419e-03
  6.0333004e-03
  2.7189420e-03
  8.3886515e-03
  1.1428699e-03
 -4.6520363e-04
 -2.5395229e-03
  8.1789149e-03
 -8.9196908e-01
  5.9935790e-01
  6.1822927e-01
  5.1995867e-01
 -2.0746724e-01
 -9.2892653e-01
 -4.1553393e-01
  8.7506458e-02
 -8.7873834e-01
  1.1822798e+00
  1.5390689e-02
 -9.5704830e-01
  3.7192994e-01
 -1.8843985e-03
 -3.1857822e-02
  3.0536745e-02
  2.2431591e-03
  9.0666360e-01
 -4.5538604e-01
 -6.7590833e-01
  1.0630366e+00
  6.3827179e-02
 -1.3230692e-01
 -8.4093994e-01
  3.8359118e-01
  9.5968348e-01
 -1.0617042e+00
  9.6297093e-02
 -3.5504749e-01
  1.2152398e+00
 -9.8193502e-01
  1.0982165e-01
 -1.9052075e-03
 -1.5246503e-02
  5.9568226e-01
 -1.1158409e-02
  1.2973384e-02
  9.6491887e-04
  4.8778937e-04
  1.2879457e-02
 -3.3224873e-02
 -2.7170009e-03
  6.4764060e-02
 -2.8841025e-03
  5.3566986e-01
 -1.4247828e+00
 -1.0963905e-01
  9.0116954e-01
 -9.5444483e-01
  1.1657552e+00
  5.4830398e-02
 -1.4754894e-01
  3.9328739e-02
 -6.5252664e-03
 -7.9020375e-04
  4.8861302e-02
 -7.0955069e-03
 -4.4563366e-03
  2.7041940e-03
 -8.8639736e-02
 -3.2439223e-01
 -1.0218145e-03
 -7.9663670e-01
  1.6932727e-03
 -5.1368852e-03
 -1.2033429e-01
 -3.4459248e-02
  1.0469513e-01
 -4.7474802e-02
  4.7729597e-03
 -1.9785807e-01
  2.2796015e-04
 -3.8314401e-04
 -1.0645531e-02
 -2.3141263e-01
 -4.1059619e-03
  3.1634425e-03
 -1.0963595e-03
 -3.0990127e-01
 -2.1714186e-02
 -7.4387148e-02
  7.9676822e-02
  1.7450118e-04
  2.3985417e-01
  1.0842505e-02
  6.1505614e-04
 -1.1359325e-01
 -1.5930197e-03
 -1.8147027e-02
  6.5352851e-01
  3.0538689e-02
  8.0136335e-01
  2.4662767e-01
 -1.7769821e-02
 -3.1197917e-02
  1.0311445e-02
 -4.4384124e-03
  2.9218628e-04
 -1.9912617e-02
  2.1011031e-03
 -6.0589723e-03
  1.4010146e-03
 -3.7124422e-03
 -5.0112888e-02
 -1.0495987e-02
 -2.6340294e-04
 -5.2211672e-02
  1.0570458e-03
 -2.6108174e-02
 -6.9524921e-02
  1.7697459e-02
  1.8071823e-01
 -1.2216577e-03
 -6.8996912e-03
 -2.7305163e-03
 -7.8305948e-01
 -2.0844210e-04
  2.8170517e-03
 -2.9459478e-02
  2.2974610e-03
 -4.9075382e-03
 -7.3346775e-03
 -2.2385200e-02
  8.8486774e-04
  9.5394673e-05
 -5.0665513e-03
 -2.4274057e-03
  1.4610146e-03
  7.4732746e-03
  3.5416312e-04
  1.2819194e-02
  4.8124436e-03
  4.4961724e-01
  1.4593023e-01
 -3.3337575e-01
  2.5141507e-01
 -7.8040683e-01
 -1.7816912e-01
 -8.2226723e-02
  1.6655263e-02
 -3.5446241e-01
 -2.7951922e-03
 -5.8046013e-02
 -2.3332995e-01
 -3.6084729e-01
  1.5134062e-03
 -3.1294982e-04
  4.8403712e-03
  5.0040680e-01
  4.6641417e-03
  1.1161062e-01
 -8.6767981e-03
  7.6330630e-03
  1.5041993e-03
 -2.0178584e-03
  6.1178081e-02
 -3.1456677e-03
 -3.2790836e-02
  1.4102167e-03
  6.1017577e-02
 -3.3730986e-03
 -8.2708872e-04
 -4.7847475e-03
  4.0001143e-03
 -4.8964610e-03
 -4.3410501e-03
 -6.2957527e-03
 -6.1647105e-04
  1.8313190e-03
 -2.4247862e-02
 -5.4097301e-03
 -9.5940437e-03
  2.4570248e-03
 -3.7587713e-03
  2.2955027e-03
  2.8343401e-03
 -1.3549237e-02
 -5.9654298e-03
 -3.5552050e-03
 -2.1951422e-02
 -1.8000957e-02
 -1.0557204e-02
  1.5949743e-04
 -2.8091716e-03
  3.0773506e-03
  4.2852042e-03
 -3.0526072e-03
  2.8204345e-03
  2.9563834e-03
  7.4610789e-03
 -1.0620624e-02
  2.0809402e-03
 -1.2398973e-03
 -2.0076553e-03
 -2.9252439e-03
 -3.6701906e-04
  3.8576624e-03
  1.0289574e-02
 -8.2176561e-03
 -5.4550706e-03
  1.0578497e-04
 -1.8128431e-03
 -3.1697284e-03
 -1.0878983e-05
 -2.4006038e-03
 -4.8712045e-03
  1.0649796e-02
  1.0254746e-04
 -3.6428999e-03
  3.1563274e-03
 -3.2107315e-03
 -5.8819656e-03
  1.7385435e-03
 -9.6415421e-03
 -5.2782702e-03
 -7.6021883e-03
 -5.5386578e-03
 -9.3078911e-03
  3.4751906e-04
  3.1608720e-03
  1.4406739e-01
 -8.1624366e-02
  2.3622528e-01
  1.5077469e-01
  1.3933030e-02
 -1.1491914e-01
 -2.5592363e-01
  8.2525171e-02
  4.9509630e-02
  3.5763008e-03
 -1.8414873e-01
  2.2334117e-01
 -2.4146809e-01
  1.2817316e-02
  3.9762892e-02
  1.3082784e-01
  7.7336333e-03
  1.2091840e-01
  6.0516816e-01
 -4.4863503e-03
 -5.1709270e-01
 -2.2773427e-04
 -3.9348947e-03
  8.7566577e-02
 -1.2420359e-01
  6.8991512e-02
  3.8365069e-01
  1.5388346e-01
  1.3048033e-01
 -1.8696147e-01
  2.6988390e-01
 -3.0530724e-01
  2.5116974e-01
 -5.3728051e-02
  1.7545704e-02
 -4.4886582e-03
 -2.5650263e-01
 -3.8014788e-02
 -8.1350222e-02
  1.2765664e-01
  9.3341574e-02
  1.7133409e-01
 -3.8769543e-02
 -4.1606682e-03
 -2.9576715e-02
  1.0721068e-02
  1.1010505e-01
  5.9329979e-02
  3.3839364e-02
  4.9620381e-01
  3.1444302e-01
 -3.9052435e-03
  1.5905572e-02
 -3.5401210e-03
  1.9464223e-04
  2.1694593e-02
 -4.3896711e-03
  2.7955293e-03
  3.8534009e-03
  4.7536930e-03
 -6.7275320e-04
 -6.6470858e-03
 -1.0142282e-01
 -1.4023817e-04
 -3.2855077e-03
  3.4614019e-03
  1.9092838e-03
 -4.6117466e-02
 -1.1587576e-03
 -2.5792797e-03
 -5.2087005e-02
  5.9018952e-01
  2.8320844e-03
 -3.8096784e-03
 -1.4203907e-03
 -2.4286471e-03
 -7.4010254e-03
 -8.0694864e-03
 -3.9504040e-03
  8.5815033e-03
 -7.0261220e-03
 -9.5522450e-04
 -1.2565532e-03
 -1.1457372e-03
  1.2647891e-03
  3.5131159e-03
 -1.9771566e-03
 -3.4546731e-03
 -1.1923946e-02
  4.1261464e-02
 -6.9398936e-03
 -2.1473182e-04
  8.5133156e-03
 -1.8314223e-03
  6.5348983e-02
 -2.6532108e-01
 -1.2427932e-03
  3.4940280e-03
 -3.5835137e-03
 -5.2361633e-05
 -1.7194342e-03
  6.7662955e-03
  2.1166723e-02
 -7.1565486e-03
 -3.6904160e-03
  2.7866096e-03
  7.1689044e-04
 -1.1099738e-03
  2.7604306e-03
 -5.2286536e-03
 -4.4239781e-04
 -1.4153946e-02
 -3.2465979e-02
  4.9607269e-04
  1.5539874e-03
  5.6991983e-02
 -1.3350172e-03
 -8.4179232e-04
 -9.6877711e-03
 -5.0609782e-03
  9.0607343e-04
 -8.3970098e-04
  1.5246597e-03
  1.2125284e-04
  5.0352735e-04
  1.2364941e-02
 -4.7020586e-03
  1.5462753e-02
  2.1018763e-03
  7.8944094e-04
 -1.5000232e-03
 -1.6384710e-03
  2.8820913e-03
  1.0159516e-01
 -3.3813468e-03
  1.4236635e-03
 -1.5232721e-02
 -1.6318657e-03
  2.1606074e-03
  1.1147299e-03
 -2.2604973e-03
 -6.2797772e-05
 -1.2218135e-03
  8.0324551e-03
  7.6469308e-04
  1.5894176e-03
  7.3060999e-04
 -3.1292641e-03
 -3.6441134e-03
  7.0500523e-03
  2.0972763e-03
  5.5735218e-03
  4.2763916e-03
  8.9749834e-03
  2.9490939e-03
  1.5598474e-02
 -9.8473299e-03
 -1.5954357e-03
 -6.5737646e-03
  4.2223126e-02
  1.4158584e-03
 -1.3005594e-04
  4.7482885e-03
 -1.0788039e-02
 -1.0113040e-03
  6.7905914e-03
  9.1455865e-04
 -4.9788208e-04
 -3.2373096e-03
  7.0403381e-03
  6.4976572e-04
 -4.9423245e-03
 -5.1150229e-03
 -2.6992583e-03
 -5.9462087e-03
  1.4029410e-03
  3.4459013e-01
 -2.5687373e-01
  1.8213329e-01
 -6.1641078e-02
  3.5683519e-01
 -8.4218669e-01
 -7.5568867e-01
 -4.7327816e-02
 -1.2092224e-02
  2.0663352e-03
 -4.4731707e-03
  9.4039589e-03
 -9.3966752e-04
  3.9509609e-03
 -2.9264186e-03
  1.8291371e-02
 -2.9711169e-03
 -1.1720374e-01
 -1.1933069e-01
 -5.4694660e-02
  5.1147666e-02
 -5.1899918e-04
  7.5232543e-02
  1.0883379e-01
  1.3659437e-02
  1.4917716e-01
 -5.6061830e-02
 -1.7032130e-01
 -1.5869536e-01
  2.9432855e-03
 -2.2706663e-05
 -1.2097189e-03
  1.1513055e-02
  5.5734040e-03
 -1.7601240e-02
 -5.3187902e-04
 -1.8000181e-05
 -7.1410351e-02
  2.1596882e-04
 -7.8417324e-02
  3.5669876e-04
  1.4327827e-03
 -5.5182097e-03
 -1.2165923e-03
 -7.4839406e-03
  1.3836374e-03
  1.0201032e-02
 -8.8130916e-04
  1.5359372e-03
 -2.0969377e-03
 -2.0559100e-02
 -1.1558054e-03
  1.8021136e-03
  4.1777473e-03
 -1.0566192e-02
 -2.1858566e-02
  8.1103127e-03
 -9.1244187e-03
  1.2757331e-02
 -4.4737838e-04
 -8.7973708e-04
 -8.2625059e-04
  2.8629783e-03
  4.5951031e-04
 -6.6258335e-03
 -1.6686111e-03
  1.6022091e-03
  4.7502411e-04
 -1.7396153e-03
 -1.7188493e-03
 -6.8202540e-02
 -1.2965759e-03
  1.6625458e-03
  1.0468129e-02
  1.9496257e-03
 -1.6924777e-03
 -3.8896943e-03
 -2.1862769e-03
 -2.5362284e-03
  2.6353213e-04
  9.5236860e-04
  2.8488761e-01
 -1.7385560e-03
  2.2540794e-04
  2.7109399e-03
 -1.0436038e-03
  3.3064935e-01
  4.0004719e-03
  2.0659172e-03
 -8.3860289e-03
  8.8401081e-05
 -3.7453217e-03
 -2.2720867e-03
 -1.1226609e-02
  5.5095451e-03
  4.2103715e-03
 -4.0258169e-03
  2.9359967e-04
 -4.0262949e-04
  1.6318194e-03
 -7.3396950e-05
  5.6131226e-03
  2.1921627e-03
 -3.5944465e-03
  2.0800389e-03
  5.5003185e-03
 -4.9079587e-03
  9.6369432e-03
  7.7611175e-03
  6.1053080e-03
  7.7177829e-04
  2.7132910e-02
 -3.9290180e-03
  1.1618910e-03
 -2.3057794e-02
  2.2696669e-03
  1.3761006e-03
 -4.2740703e-03
 -1.0053206e-03
  3.9176118e-02
 -2.9522970e-03
  2.1863744e-02
  6.5218778e-03
  7.1696686e-03
 -5.4829423e-03
 -1.4588543e-03
 -6.0222335e-03
 -1.4079891e-03
 -3.1768833e-03
 -9.1074463e-03
 -1.3332631e-02
 -3.3398014e-03
 -3.3367262e-03
  6.0727081e-04
 -5.3882855e-03
  5.3720861e-03
  7.5099425e-04
 -3.2059599e-03
 -8.2351282e-05
  5.5898917e-03
  6.9337472e-02
  1.0425963e-03
 -1.8266153e-03
  1.8217243e-03
  1.6632315e-04
 -1.2827135e-02
  3.7571133e-04
  4.8026424e-03
  1.1878669e-02
  7.2690351e-03
 -1.3505113e-02
  7.0389849e-03
  5.2084373e-03
 -1.2294991e-03
  1.9436218e-03
 -3.3798879e-03
 -1.3776348e-02
 -1.0367146e-02
 -2.8346789e-03
  3.5437664e-03
  1.2485964e-03
  1.5354415e-03
 -1.1701073e-02
  3.1989738e-03
  2.4001766e-03
  8.9104765e-04
  3.4566014e-03
 -2.7375696e-03
  3.2549244e-03
 -4.7602254e-05
 -1.5154686e-03
  6.3419407e-03
 -7.2872010e-03
  3.5945002e-03
 -1.5736572e-03
 -1.1959088e-03
  5.4340339e-01
 -3.1857986e-02
  1.6365294e-01
 -1.3607161e-01
  5.0834063e-02
 -4.4797938e-02
  3.5586491e-01
  9.1029607e-02
 -1.3255247e+00
  4.4974919e-02
  6.1263818e-02
 -4.5878526e-02
 -2.0625047e-02
  1.3347507e-03
 -4.6161410e-01
 -4.8924781e-02
 -1.3224380e-01
  1.1126515e-01
 -1.0509790e-01
 -3.6924335e-01
  1.0235269e-02
 -4.2068323e-01
  2.0499746e-03
 -3.2677236e-01
  2.7225423e-01
 -8.4232353e-02
 -6.6325426e-01
 -3.5305417e-01
 -1.2254046e-01
 -7.7242233e-02
  1.5989564e-02
  1.2375985e-03
  4.1540787e-01
  1.1946349e-02
  7.5901812e-01
  1.5776241e-02
 -1.4835203e-02
 -1.1721704e-01
  3.8704334e-04
  7.4325025e-02
 -9.5292246e-03
 -3.8767152e-04
 -4.2480337e-03
 -3.0558905e-02
 -8.4308197e-04
 -8.2045859e-03
 -1.8835149e-03
 -9.8382369e-02
  8.7855541e-04
 -1.4281259e-02
 -1.1228822e-01
 -2.1608151e-03
  2.4024432e-03
 -7.1839988e-04
  8.6362381e-03
  1.6471819e-04
 -3.0295691e-03
 -1.6497627e-03
 -5.6865411e-03
  6.4381412e-03
 -1.2800948e-03
 -8.7377056e-03
 -2.9696086e-03
 -6.0375002e-03
 -1.0028645e-02
  2.1749004e-03
  4.9518570e-03
  7.6439930e-04
 -2.7354877e-03
 -7.2781229e-05
  1.5460688e-03
 -9.3203951e-03
 -4.7153602e-03
 -8.4590791e-03
  1.3361580e-03
  7.5853313e-03
  3.0418441e-03
  1.1260143e-03
  6.2756389e-03
  1.6699370e-02
 -2.1565924e-03
 -5.2613025e-03
 -9.1669563e-04
  1.6361266e-02
  2.9119302e-03
 -2.7815312e-02
  1.3058910e-03
 -3.5084900e-03
 -9.0326482e-01
  8.6717832e-01
  6.8325102e-02
  7.2086126e-01
 -1.8904893e+00
  2.0772424e-01
 -7.6600796e-01
  2.2414398e-01
 -9.0764892e-01
  3.0954713e-01
  5.1944688e-02
 -5.5091631e-01
  4.7065393e-04
 -4.7237478e-02
 -6.1355907e-01
  1.7155336e-01
  9.1258399e-02
  2.1732689e-01
  1.6410793e-01
 -1.0354736e-01
  3.0389673e-01
 -4.8050131e-03
 -6.2066164e-02
  4.0270101e-02
  5.2213871e-01
  1.7632380e-02
 -1.9638300e-01
 -3.4431931e-01
 -3.2580870e-03
  7.9412274e-03
 -2.5894246e-03
  2.2376855e-01
 -4.7930520e-02
 -1.6025786e-01
  3.3685464e-02
 -1.1547042e-02
  4.2593372e-03
  1.6467899e-02
  3.7962070e-04
  1.0459990e-02
  1.2820987e-03
  5.0417031e-04
 -2.2740106e-03
  7.2099650e-03
  2.2219839e-02
 -4.9894783e-03
 -1.2148448e-03
 -5.9315402e-02
  3.9001204e-02
 -4.9343679e-02
  1.0945088e-03
 -8.8853762e-02
  2.5493424e-02
 -1.2313968e-03
 -2.6468877e-03
  3.9290600e-03
  3.9182664e-03
  9.4088670e-03
 -2.1021251e-04
 -1.3086377e-02
  5.5231615e-03
 -7.1188941e-04
 -7.8105191e-03
  7.0123367e-02
 -5.2218726e-03
 -7.3615561e-04
 -3.6156049e-03
  5.2811094e-03
 -6.5352512e-03
  2.2756306e-03
  9.0473378e-03
  5.3619803e-03
  1.9728171e-02
  1.0944385e-02
  3.7930722e-03
 -2.8822056e-03
 -6.7153010e-03
 -3.1126624e-03
 -1.3013963e-03
 -2.3579174e-03
 -7.9873959e-03
  4.6004080e-03
  5.9730578e-03
  1.2342505e-03
  6.9816541e-03
  8.0347352e-05
 -1.5229344e-03
 -1.5179793e-03
 -4.0451880e-04
 -1.3310212e-02
 -1.9454602e-03
 -1.6929533e-02
 -4.6354402e-03
 -2.3522514e-01
 -5.3029525e-01
 -7.8220395e-03
  8.5493200e-05
 -1.5470542e-03
 -5.1982244e-03
 -1.7915526e-03
 -1.4213604e-03
  7.0548092e-04
 -2.3544570e-03
  4.5538703e-03
  8.4211603e-03
 -8.1364643e-03
 -3.8531690e-03
  4.9324902e-03
  8.0914889e-03
  1.1960806e-03
  5.5977592e-04
 -2.1096275e-03
  2.8400426e-04
  3.3424026e-03
 -2.7337151e-03
  7.3249317e-03
  4.4822288e-03
 -2.3346117e-03
 -2.0039068e-03
 -1.9892682e-03
 -1.5800776e-02
  2.7708143e-03
 -2.5525391e-03
 -4.5742802e-03
 -8.0485716e-03
  7.6958984e-03
  1.2675041e-02
 -2.0392106e-03
 -4.8566405e-03
  1.9686483e-02
 -1.1474874e-02
  5.7796976e-03
  2.5071743e-01
 -4.8454599e-03
  8.5998876e-03
 -3.9183593e-01
 -1.1776321e-03
  3.0728057e-01
  1.3612446e-01
 -3.9014721e-03
 -2.5855325e-02
  1.4099215e-02
 -2.8645098e-03
 -4.6355585e-03
 -2.7465771e-03
 -7.7535392e-04
  2.5986144e-03
  1.1981661e-02
 -4.6191216e-03
  4.2729140e-03
 -9.2576735e-02
  9.8787434e-04
  1.4530844e-03
 -1.4111353e-03
 -8.0456375e-05
 -9.2149209e-03
  1.0908192e-02
 -5.1055953e-04
 -9.8635592e-03
 -4.8137102e-03
  1.2139396e-02
 -3.0876817e-03
  8.0720736e-03
  4.0933671e-03
  8.3751753e-03
 -3.0786558e-03
  2.3241824e-02
 -4.3130154e-03
  8.7675551e-04
 -3.2601047e-03
  1.8796755e-03
 -2.3168507e-03
  1.8731827e-01
 -1.0771791e-02
  4.1282289e-03
  1.4524730e-03
 -6.4214435e-04
 -1.3428678e-01
  1.2073373e-02
 -1.0944911e-01
  4.0320191e-03
  9.7675659e-03
  4.9358312e-02
  3.3597602e-03
  7.5969072e-03
 -1.0963299e-03
 -3.3653576e-03
  9.7985025e-03
 -9.3482056e-04
  1.4405185e-03
 -6.2396370e-02
  4.6552456e-04
 -3.1568982e-02
  4.0452293e-04
  4.1388511e-03
 -7.0501612e-03
 -7.2340760e-03
  4.7388006e-04
  1.0171824e-04
  1.6049969e-01
 -1.0799086e-02
  3.4065211e-01
 -2.0296175e-03
  4.8448000e-02
 -2.0942076e-03
  4.2422800e-03
 -1.1884616e-02
 -2.4121029e-02
  1.4920972e-03
 -2.1663883e-03
 -6.3063814e-03
  1.2914529e-03
 -3.3323015e-03
 -3.1304022e-03
  7.1974483e-04
 -4.1511981e-03
 -6.6738501e-03
  6.3539157e-03
 -5.6984895e-03
  4.6303528e-03
 -5.2204248e-03
  1.1931072e-03
 -2.0953692e-03
  3.3528174e-03
 -7.1278419e-03
  1.1198061e-02
 -2.2285329e-03
 -5.6341374e-03
 -2.5611678e-03
  2.9814383e-04
 -4.4861403e-03
  1.0692962e-02
 -1.8309997e-03
  1.2917097e-03
  3.0111539e-04
 -5.1406147e-03
  2.9270889e-04
  7.8138732e-04
  4.4414178e-03
  3.6985360e-02
 -1.2695136e-02
 -6.5052626e-03
 -8.5255655e-04
  1.9533719e-01
 -3.2665555e-03
 -6.4038970e-03
  2.6061574e-03
  6.5542315e-04
 -2.5656252e-04
  6.7483243e-03
  1.2480400e-02
  3.7535515e-03
  9.5521426e-04
  7.2934368e-04
 -3.9642984e-03
 -7.5554894e-03
 -2.2140865e-03
 -1.0080888e-03
 -9.5617846e-03
 -3.4050108e-03
  6.0742251e-03
  8.6087985e-03
 -7.2815530e-03
  6.1614658e-03
 -7.8770779e-03
  4.5420580e-02
 -5.6417279e-02
  5.8778701e-03
  1.2193471e-02
  8.9775259e-03
  1.8138008e-03
 -5.4831789e-03
  3.0406187e-03
 -3.3085872e-03
 -3.4789091e-01
 -1.4112345e-03
  2.7526496e-03
 -2.1637208e-04
 -2.3708171e-03
  8.4325708e-03
  2.9816271e-03
  1.0041194e-03
 -2.3784567e-02
 -3.9072451e-03
 -5.9955064e-03
 -1.3558238e-03
  1.6347903e-03
 -1.6034148e-03
 -8.1403814e-03
  5.0233854e-03
 -4.5780018e-03
  1.1423102e-02
 -3.2367413e-03
  4.4172532e-03
  2.7269043e-04
 -5.5714045e-02
 -4.3147323e-03
  1.6897792e-02
 -1.8227638e-03
 -1.8503139e-04
  3.3176073e-04
  2.8721143e-03
 -2.6311022e-03
 -2.1117628e-03
  4.6177756e-04
 -6.3761757e-03
 -1.0112467e-02
 -1.4733402e-03
 -2.7726555e-01
 -6.6177873e-03
 -2.7973579e-02
 -6.0257781e-01
  2.9793564e-02
  3.9333221e-01
  2.0233326e-01
 -2.0273166e-02
 -1.0344741e-01
 -1.7202804e-02
 -7.0699804e-02
  4.6001881e-02
 -9.3357854e-02
  3.0232179e-03
  3.9843661e-03
 -2.1686548e-02
 -3.0160508e-01
 -3.8855100e-01
 -1.7355880e-01
 -2.2850277e-02
 -1.7675275e-01
 -1.9242981e-01
  8.3558256e-04
  3.0755049e-01
 -3.4331140e-01
 -5.1106113e-01
  2.6046630e-02
  7.0063531e-02
 -4.6558963e-04
 -3.8126647e-02
  2.3201533e-02
 -2.4429916e-01
  1.2678583e-02
  5.0998688e-02
 -1.9499355e-03
 -9.0413438e-03
 -1.3791034e-01
  2.1897454e-03
 -4.3002641e-04
  2.1945860e-03
  3.6667651e-03
 -5.9524006e-03
 -3.6447965e-02
  3.9770999e-03
 -7.1647145e-02
  1.2729546e-01
 -3.2789207e-01
  5.5385809e-02
  2.8065690e-01
  6.2193018e-01
  3.9329669e-01
  1.9523488e-02
 -7.4021276e-03
 -6.7677735e-03
 -9.9710445e-04
 -4.4794646e-03
  1.6186379e-01
 -4.3961396e-03
 -4.3815263e-03
 -6.6890521e-03
 -1.1131873e-03
  6.5284315e-03
  1.4461571e-02
  4.0276162e-04
  4.4261320e-03
  1.7912466e-03
 -1.0537386e-03
  4.1490041e-02
 -4.8642145e-03
 -1.1417388e-03
  2.0039058e-04
  6.1793476e-02
  1.2898352e-03
 -1.3601583e-03
 -1.1282825e-02
 -5.6764269e-03
 -1.6283229e-04
 -7.2182631e-03
 -8.1035576e-04
 -6.1219023e-04
 -5.0776009e-04
  5.6799129e-03
 -5.8436543e-03
  7.0408161e-04
  1.3478968e-02
  7.0107961e-03
  5.5890920e-04
  6.7249796e-04
 -2.3098469e-01
 -5.4032456e-02
  2.3218206e-01
 -1.3716586e-01
 -1.3481814e-01
 -6.2065668e-02
 -1.8606499e-01
 -8.0913559e-02
 -3.9988659e-02
 -3.0977571e-01
 -1.5146816e-02
  6.3497922e-03
  1.6928895e-03
  8.7472005e-04
  6.5405122e-03
 -1.5848947e-03
  2.6200700e-01
 -5.1022064e-02
 -3.0720726e-01
 -6.1477672e-02
 -3.6783520e-02
  3.9341621e-04
 -8.2666259e-03
 -6.8993199e-05
 -1.3770567e-01
  1.7077535e-01
 -7.8684259e-03
  5.0630435e-02
  4.0302565e-03
 -5.7879267e-03
 -8.7931700e-02
 -1.5656316e-01
 -1.5638462e-01
  7.7257408e-03
  7.2878774e-04
 -1.5254802e-02
 -4.3860087e-03
  1.1042891e-01
  1.4088824e-03
 -1.0012463e-02
  2.4852473e-03
  5.6119054e-04
  4.6927945e-04
  2.5461796e-03
  8.3820326e-03
  1.3101268e-01
 -5.8762735e-01
  4.3529022e-02
 -2.0520066e-01
  4.4537908e-01
 -3.8523185e-01
 -2.6586330e-02
 -3.2558564e-02
 -4.2190785e-03
  2.2044787e-03
  6.2684476e-01
 -3.2896944e-03
  3.6682847e-03
  1.2614897e-01
  1.2732036e-01
 -1.4730116e+00
  8.9161113e-02
 -4.4893999e-02
 -5.4104924e-03
 -1.0138719e-01
  4.0749797e-01
  1.9755140e-01
 -7.2742760e-01
 -2.8382370e-01
 -5.7598180e-01
  1.9374102e-01
 -1.0507381e+00
  5.1256321e-02
 -2.3496917e-01
 -9.2036021e-01
  1.5221420e-02
 -9.4328910e-01
  3.5122644e-02
 -2.0638099e-01
  1.0705562e-02
 -9.4589218e-03
  1.0493538e-02
  6.4583453e-03
  5.4983836e-01
  3.8262038e-03
  8.9022189e-02
 -4.3255272e-03
 -5.0507896e-03
 -1.5375067e-03
 -2.2396490e-03
  2.3459692e-03
  2.4541505e-03
  6.5143919e-04
 -5.3325167e-04
 -1.3495937e-03
 -4.3457458e-03
 -4.4129748e-04
  1.3523058e-03
 -4.5798513e-01
 -4.1555995e-03
 -3.7037525e-03
  1.2935612e-03
 -2.1097714e-03
 -1.9183203e-03
  9.5247850e-04
  5.8120983e-03
  1.2294810e-02
 -2.0711860e-03
  3.6863626e-03
  6.0889102e-04
  1.4408632e-03
 -1.0393381e-03
  2.8171157e-04
  8.3621213e-04
  7.1482155e-03
 -9.9153183e-03
 -5.3685554e-03
  1.2009457e-03
  1.4187421e-03
 -2.3477729e-03
  3.7448206e-03
  2.7185802e-03
  1.9240731e-03
  1.7708661e-03
 -1.3441461e-02
  4.2289505e-03
  2.6707456e-03
 -4.7413651e-03
  6.9853803e-04
 -9.1916341e-03
 -4.5784749e-03
 -5.7850563e-04
  1.6392052e-01
 -8.1578511e-01
 -2.3565559e-02
 -1.6848332e-01
  1.6889161e-01
 -6.7204136e-01
 -2.7230662e-01
 -3.6629817e-01
 -7.4513450e-02
  3.3264562e-01
  1.3719659e-01
  2.2486255e-01
  3.2660541e-01
  5.2011283e-03
  2.0578263e-02
 -2.5855649e-02
 -1.7213245e-01
  3.1183319e-02
 -2.3054205e-01
  3.4376275e-02
  1.5336084e-01
 -2.8350631e-02
 -1.4928730e-01
  5.7002139e-01
  1.2230358e-01
  6.7388576e-01
  2.4187413e-01
  4.9224755e-01
  7.5374842e-02
 -9.5155096e-01
 -8.7710470e-02
  4.4696659e-01
  1.6094337e-01
 -2.2095345e-02
 -1.3703997e-01
 -8.1181916e-04
 -1.1920286e-01
  4.4871038e-01
 -1.2005876e-02
 -2.5619585e-03
  1.6493938e-03
 -5.6973961e-03
  6.2672747e-03
  1.8179158e-02
  7.2327591e-03
 -1.7466011e-02
  1.0548707e-03
  8.3924504e-03
 -2.1007240e-03
  4.3335412e-02
 -1.0762529e-02
 -3.4171669e-04
  6.5984190e-03
  3.1239470e-03
 -5.7276869e-03
 -3.4817497e-04
  6.3382916e-04
 -1.1796459e-01
  8.4830876e-03
  2.9194816e-03
  5.1865885e-03
  2.8403039e-04
  4.0218318e-03
 -5.7524143e-05
  3.1709772e-02
  2.4654111e-04
 -2.4223659e-04
  1.1019959e-03
 -7.1323633e-02
 -2.1330973e-03
 -4.8796521e-03
 -5.9438548e-03
  2.8212261e-03
  3.0750204e-03
 -1.0744729e-02
 -2.4816478e-03
 -3.5712884e-03
 -8.9801699e-03
 -4.7720829e-03
  9.7855576e-04
  1.0359703e-02
  4.4190898e-03
  7.5295102e-04
  2.4184654e-04
 -6.1181933e-03
  1.4713849e-03
  4.6611293e-03
  4.1867346e-03
  3.0641201e-01
 -6.9970739e-01
 -6.1354649e-01
  1.2598821e+00
  1.8960007e-01
 -7.5827521e-01
  5.9532743e-02
  3.4218886e-01
 -6.9371365e-02
 -6.9334245e-01
 -1.4354713e+00
  6.2138611e-01
  9.2522405e-02
 -1.9773201e-04
  3.9087638e-05
  3.7986301e-02
  1.1286028e-01
 -4.6068147e-01
  1.8024143e-02
  8.4390827e-03
 -1.4360559e-01
 -9.9577904e-03
  9.1639322e-01
 -9.2439806e-01
 -4.3905106e-01
  1.0451702e-01
 -7.5011306e-02
  1.0130490e+00
 -1.7166948e-02
 -4.6583645e-02
  2.1179882e-03
 -2.2562967e-01
  6.5116996e-01
  1.4309412e-01
 -4.2896503e-01
  5.6693893e-02
 -1.2277304e-03
  1.5448302e-03
 -1.4252699e-02
 -2.2518842e-03
  7.9741620e-02
  3.1802610e-01
 -7.9166656e-03
  5.8735758e-02
 -3.3521294e-03
  1.7816645e-01
  3.6258860e-03
  4.7739134e-03
  4.5989724e-03
  1.3923720e-03
 -2.2759456e-03
 -4.5288188e-04
 -4.3594572e-03
  2.4385664e-03
  6.8441494e-03
  1.8847996e-03
  3.4501683e-03
 -8.7415054e-03
  7.5506624e-03
  5.2769249e-03
  3.7340249e-04
 -5.2279845e-04
  1.4329609e-04
 -2.3567965e-03
  1.4054652e-01
 -1.1696033e-02
  4.4965134e-03
 -6.4599281e-04
 -5.7662609e-03
 -5.6223474e-03
  8.5527054e-04
  3.1333878e-03
 -1.2303155e-03
 -1.1336190e-02
  4.3221395e-03
 -3.2693185e-03
 -1.7385031e-03
  5.3847302e-03
  1.2246057e-02
  3.8886084e-03
 -1.2005027e-02
 -6.6656070e-03
  4.3150866e-03
 -2.0652784e-03
  1.7165367e-01
 -9.5934644e-03
  2.3462027e-03
 -1.2504847e-02
  4.5890626e-02
  5.7461876e-02
  4.0590897e-01
 -6.0217392e-02
 -1.1966804e-01
  1.2734625e-01
 -9.2921609e-01
  3.1883201e-01
 -5.8307797e-01
  3.7314880e-01
 -1.4864138e-01
  9.9536488e-03
 -9.8535784e-02
  7.5927906e-02
  3.9075166e-02
 -4.6335137e-01
 -3.0604950e-01
  3.4780200e-03
 -1.7314844e-01
 -7.8586843e-03
  2.4311241e-02
 -1.0011438e-01
  1.5707280e-01
  1.2696265e-01
  1.1056452e-03
 -6.1354354e-02
  2.1448634e-03
  4.5605993e-01
  1.7306173e-02
  1.8617196e-04
 -3.3979872e-01
  1.8820502e-02
 -1.0352499e-01
  1.0543167e-01
 -3.4359740e-03
 -4.8081824e-03
 -1.4748193e-01
 -2.5096151e-01
  4.3186820e-03
  1.5738419e-01
 -4.1529560e-03
 -1.6240428e-01
  2.3818703e-01
  2.2654205e-03
  4.3664942e-04
 -2.4902413e-03
  3.9630192e-03
  1.9672783e-03
  2.6533001e-03
  6.2904535e-03
 -2.8439844e-03
  4.5587245e-04
  3.4364880e-04
 -2.2414363e-04
  2.5690133e-03
  1.2416010e-03
 -3.0997675e-04
 -1.6178182e-04
 -1.9801822e-02
  2.8314972e-03
 -2.4830720e-03
 -1.2907630e-03
  7.1091936e-03
 -3.2208646e-03
  5.1024406e-05
 -2.9670873e-03
  7.6601757e-03
 -6.6278605e-03
  3.8162881e-01
 -6.9057627e-04
 -6.2441025e-03
  3.9923005e-04
 -1.0750944e-02
  2.4675464e-03
 -5.4290146e-03
  2.7909584e-03
 -1.4880474e-04
 -1.8535862e-03
  1.8500936e-03
  4.4919779e-03
  6.4959186e-03
  7.1407529e-03
 -6.8002404e-03
  4.1248143e-02
  5.1684724e-03
 -7.9577428e-04
  2.1416720e-03
 -9.9428920e-03
  3.6040112e-02
  3.6592862e-01
  3.3125874e-02
  1.2384319e-01
  1.0239255e-01
 -6.4708275e-01
 -5.7380950e-01
 -1.2415512e-02
  3.7581578e-01
  4.0772099e-02
  1.5993024e-01
  2.4965402e-01
  6.2170126e-02
 -1.9965192e-02
  2.5986743e-01
  4.0625483e-01
 -1.4760375e-01
  4.2101897e-02
  3.5498764e-02
  1.5400823e-02
 -1.7221895e-01
  5.1647335e-01
  2.8683688e-02
  2.6668715e-01
  9.3417624e-03
 -1.6716665e-01
  1.0118650e-02
  1.3081206e-01
 -3.4159159e-03
  1.2818262e-01
 -7.6414339e-02
  1.8584719e-01
  3.6610126e-02
 -1.2006576e-02
 -8.1128813e-02
  1.0177857e-02
  3.5590410e-02
 -1.1355525e-01
  6.2077241e-03
  1.5289693e-03
  2.9524631e-04
 -9.2348866e-03
  2.4836340e-03
 -8.1251643e-04
 -2.5374034e-01
 -1.9466674e-01
  6.7654252e-03
  3.6131889e-01
  3.4808520e-02
 -1.2271471e-01
 -1.3300139e+00
 -9.2767682e-03
 -4.0304281e-02
 -2.5370696e-01
 -1.2982226e-02
  6.5827351e-03
 -2.2592993e-01
  6.6527249e-03
 -9.9936023e-02
  1.3949241e-02
 -5.5768549e-01
 -7.3261656e-02
 -1.7060226e-01
 -5.9516239e-01
  4.5724299e-02
 -1.8796402e-01
  4.5846367e-01
  1.2666088e+00
  5.9787769e-02
  1.4972663e-01
  3.7679944e-02
 -1.6130847e-01
 -3.2410502e-01
 -4.3888073e-02
  1.4203892e-02
 -1.0622141e-01
 -3.5996258e-04
  6.7478791e-03
  6.2441897e-02
  1.9625688e-02
  1.9509986e-02
  1.1216827e-03
  5.3126048e-03
  5.1176529e-02
  9.3874838e-03
  2.7000180e-01
 -7.5401969e-02
  2.4627731e-03
  5.5894577e-03
 -3.1585756e-03
  4.4689435e-03
 -3.3012497e-01
 -1.2631924e-01
 -3.4692783e-02
 -6.2853836e-02
  1.2050517e-02
  8.5772912e-04
  5.3271779e-04
  1.0966735e-02
  2.3725075e-03
  7.2173048e-03
 -7.0772222e-03
  2.6455130e-03
  5.7815867e-03
 -1.7950013e-03
 -7.3455542e-04
 -1.1765554e+00
  3.4357805e-03
  6.4199660e-03
  8.8388463e-03
  5.0262450e-03
 -1.6048521e-02
  3.6268029e-06
 -7.5731741e-04
  4.3009352e-03
 -1.3476998e-02
  1.1705076e-02
 -1.8005983e-03
  2.5780173e-03
 -1.1114178e-02
  5.3670388e-03
 -5.4547880e-03
  1.5727062e-02
 -2.5556702e-03
 -6.9809158e-04
  1.1766157e-02
  7.6986859e-03
  3.6004465e-04
  1.1162328e-02
  8.8155130e-04
 -4.4458658e-03
 -1.6300124e-03
 -5.3745396e-02
  3.2086718e-01
  1.0174357e-03
  5.5528820e-01
  1.6703914e-01
 -9.7668296e-01
  9.3894847e-02
 -6.5433732e-03
 -9.7328844e-04
 -2.9701632e-03
 -4.3432019e-04
 -3.4001351e-03
 -4.0322151e-03
 -1.6003232e-02
  2.7685710e-03
  2.8212469e-03
 -9.4514730e-04
  2.8476794e-03
 -4.7471859e-02
  4.2711645e-03
  2.8911065e-03
  2.1861470e-03
 -5.7767602e-03
 -5.9030601e-04
 -1.5141760e-02
 -1.1804309e-03
 -9.2992932e-03
 -5.2486700e-03
  1.4890595e-02
 -3.5920599e-03
  3.0464677e-02
 -3.6581159e-03
  3.2625683e-03
  1.1388650e-02
 -1.8515807e-02
  2.2708026e-03
  5.5545726e-04
  5.8965124e-03
 -4.2963205e-03
 -6.2511628e-04
 -2.5328891e-03
  4.3964828e-03
  4.0125176e-03
  6.7782626e-03
 -7.0425761e-03
  1.1031329e-02
 -6.5394733e-03
  5.6850037e-04
  2.3832520e-02
  1.0909015e+00
  1.3586169e-02
  5.2178032e-03
 -1.2358486e-02
  4.1179312e-03
  2.9515175e-03
  4.4903737e-03
  1.8655902e-03
 -1.4936196e-02
  1.8182164e-03
  6.8974961e-04
  2.3026261e-03
 -1.3065781e-03
 -4.3102275e-03
  1.3849153e-02
 -3.6208797e-03
 -3.6933124e-03
 -2.0801071e-03
 -7.9129688e-02
 -1.6636978e-03
 -3.4702881e-03
  7.3857501e-04
  1.1612279e-03
  7.4655972e-03
 -7.3038222e-04
 -1.4055553e-03
  7.8745838e-03
 -2.3232277e-03
 -4.5472262e-03
 -1.6865778e-03
  2.6941216e-03
  7.8928256e-03
 -2.2350389e-03
  1.3074114e-03
  1.2962206e-03
  1.3786183e-02
 -2.9032922e-04
  6.1959559e-03
 -1.0887790e-03
 -2.6732538e-02
 -1.5281196e-03
 -2.8668158e-03
  1.4706593e-02
 -1.0496696e-02
 -1.5964119e-03
 -1.9854389e-02
 -7.1786307e-03
  1.3244429e-03
 -9.4362367e-03
  4.3742819e-04
 -1.3152178e-04
  5.1585012e-03
 -9.2490285e-04
 -1.4798315e-03
 -4.3766773e-03
 -5.7065990e-03
  3.7378354e-03
 -1.1978427e-02
  1.0443797e-03
 -1.0472813e-03
  6.2151812e-03
 -3.3680354e-03
 -5.5580633e-03
  3.1723191e-03
  6.7908564e-03
  1.6581051e-03
 -1.0491455e-02
 -1.1686832e-03
  2.8491940e-03
  1.9902457e-04
  9.0894382e-04
  3.4119182e-03
  5.5321358e-04
  9.2433317e-04
 -9.1438391e-04
 -2.7381752e-03
  3.5084856e-03
  1.9006510e-03
  2.0022974e-03
 -2.2768909e-03
 -1.1932745e-02
 -2.1260572e-03
  1.5492409e-03
 -3.8421072e-02
 -3.3520650e-02
  1.1766857e-01
 -4.9029854e-01
  2.6839200e-01
  3.6661518e-01
 -1.8522684e-01
 -1.0935994e+00
 -5.9822284e-02
 -6.3168156e-01
 -2.2760298e-02
 -1.8184990e-01
  6.1184353e-01
 -4.7559267e-01
  7.0025250e-02
  1.6536035e-01
  5.2734029e-01
  6.9766685e-02
  9.2270933e-02
  6.5137190e-01
  1.0228546e-01
 -1.1026262e-01
 -4.2092934e-01
 -6.8864661e-01
 -6.5562153e-01
 -2.9614472e-01
  8.8075179e-01
  2.3856048e-02
  2.8812179e-02
 -3.9474037e-01
 -1.5513371e-01
 -2.7720660e-01
 -1.1601027e-01
  1.0819043e-01
  1.4333417e-01
 -1.5646294e-01
 -7.3245898e-02
  5.3869199e-02
 -1.1511162e-01
 -2.6668939e-01
 -3.9987271e-03
 -4.6960767e-02
 -2.7568617e-01
  2.7734756e-01
 -1.3935876e+00
  4.0192914e-01
  3.7865674e-01
  2.0104267e-01
 -7.3156726e-01
 -9.6084142e-01
  9.6767217e-01
 -4.2346084e-01
  1.7716530e-01
  3.9402547e-01
  1.4925177e+00
  5.2470479e-02
  6.8348050e-01
  2.1275110e-03
 -6.9531173e-02
  6.6846585e-01
 -1.7896004e-01
  2.4861190e+00
  2.5003526e-02
  3.3586985e-03
  2.4287944e-01
  3.9564900e-02
 -1.9141638e-01
 -1.2857902e-01
  1.0332249e+00
  5.9868540e-03
  2.0403256e-01
  3.4957144e-01
 -4.7136220e-01
  2.3967527e-02
  1.5578040e-01
  4.5969397e-01
  3.9115198e-02
 -1.1350358e-03
  1.5815245e-02
  4.6425039e-04
 -1.7865357e-04
  1.5383920e-01
  8.3099976e-03
 -6.6700138e-02
 -3.6192995e-03
  1.4597541e-03
  1.6541055e-03
  2.5064875e-03
 -3.1341875e-03
  2.9097276e-03
 -3.7922743e-03
  3.4717997e-03
 -4.3329749e-02
 -2.1292176e-03
  4.6955156e-03
 -3.9706491e-03
  4.7424864e-03
  2.0017200e-03
 -1.4628797e-03
  2.7855879e-03
 -1.6880820e-03
 -3.2012863e-03
 -2.4338001e-03
 -5.6295395e-03
 -4.4387672e-03
 -1.5585846e-04
  7.4282777e-04
 -3.1321128e-03
 -1.6948739e-03
  1.3919473e-02
 -2.8340209e-03
  1.9682660e-03
  4.3136110e-03
  4.8377961e-03
  4.6514539e-04
  1.0286232e-02
  3.6944763e-03
  3.7770648e-03
 -8.6813385e-04
 -2.2532275e-02
 -9.7218584e-03
 -2.0648960e-03
  7.1616136e-03
 -4.5800610e-03
 -8.6075328e-03
  9.8826189e-05
 -4.4731726e-03
 -9.7184936e-03
 -8.7382318e-03
  1.0869345e-02
 -5.0525274e-04
  4.6944995e-03
  2.5935983e-03
 -2.4085518e-03
 -1.9909199e-03
 -4.6785264e-03
  3.7597406e-03
  6.7659440e-03
  2.8615806e-01
 -1.2179109e-03
  2.4090204e-03
  6.1104191e-04
  2.9665185e-03
  6.2784029e-04
  9.9519961e-02
  3.7930505e-03
  1.4022839e-03
 -8.7281503e-04
 -6.5766424e-03
  7.0735402e-03
 -2.1736491e-03
  1.0617869e-03
  4.2718071e-03
 -1.0056339e-02
 -1.3390547e-03
  7.6974686e-03
 -7.9180803e-03
  1.0575969e-02
  1.2664796e-01
  1.0725691e-03
 -1.8406617e-03
 -4.1756546e-03
 -1.1315524e-03
  4.6777334e-03
  5.3504556e-03
  1.4861252e-03
 -1.2150196e-02
 -4.6474161e-03
 -1.8696027e-03
  2.5078568e-03
  2.7561369e-03
 -2.0945340e-03
  3.2318856e-03
  2.5084917e-03
 -6.3798297e-03
  3.3693332e-03
 -6.9869764e-02
  6.7252852e-02
 -4.2199308e-01
  8.7126635e-02
  2.0740710e-01
  6.9437459e-02
 -4.1255164e-01
 -4.6348456e-02
  8.4098680e-03
 -1.5909310e-02
 -1.0024050e-02
  2.8371939e-02
 -1.9254610e-02
 -1.8417465e-03
  3.3756351e-04
 -1.8518058e-03
 -2.5546709e-03
 -3.1115144e-02
 -1.4559328e-02
 -3.9762137e-03
  4.3226038e-03
 -2.0380627e-05
 -5.3248085e-02
  6.7079268e-02
 -1.4398144e-01
  1.2740887e-03
 -2.3175422e-02
  1.3701554e-01
  1.2370998e-02
 -3.3567969e-03
 -3.0266575e-03
 -1.1537520e-02
 -2.9188129e-03
  4.1284509e-02
  2.8141850e-04
  3.4787948e-03
  5.5366652e-03
  3.5932367e-03
  1.2310368e-02
  1.6572012e-06
  2.1481497e-02
 -3.2897608e-04
 -1.4877637e-02
  1.7793854e-03
 -2.2851327e-03
 -4.3757297e-03
  6.9841452e-02
 -4.4262096e-01
  1.8968779e+00
 -1.3948403e-01
  1.8651974e-01
 -1.2654728e+00
  1.2874083e-02
  3.0245653e-01
 -1.2179356e-02
  9.1081852e-01
 -1.0522577e+00
 -1.6882096e-04
  1.7487153e-03
 -2.7156290e-01
 -4.1577490e-03
 -5.5432990e-03
  6.2448261e-03
  5.7669912e-02
 -2.9112768e-01
 -6.8178689e-01
  1.4422031e-03
  3.9258465e-02
  3.1584103e-03
  1.5932987e-02
 -1.3168785e-04
  3.6497624e-03
 -4.5067021e-01
  4.2841125e-01
  4.7987275e-02
 -2.7521436e+00
 -1.2682911e-03
 -7.1768111e-01
 -2.6836293e-05
 -2.9471532e-01
  3.8171004e-04
  6.1747033e-02
 -1.0805813e-02
  3.6126141e-02
 -8.1091672e-02
  2.6028278e-01
 -6.5100510e-03
 -3.2543226e-03
  6.6027627e-03
  5.3604215e-01
  2.6155663e+00
 -2.0694460e-03
  1.6051277e-03
  5.5672061e-03
  2.3559103e-02
 -1.5337970e-02
  2.7519825e-01
 -6.9104534e-01
 -2.3887017e-01
 -1.2511076e-01
  2.3169814e-01
 -2.2690038e-01
  4.7459862e-01
  6.5051955e-01
 -1.4981890e-02
 -1.3730768e+00
 -1.4741261e+00
 -7.5336635e-02
 -6.3824236e-02
 -1.0382540e+00
  4.7138240e-03
 -7.4179139e-04
 -1.7080735e-02
  1.8588662e-01
  3.9539631e-02
  2.4965274e-01
 -5.8551662e-02
 -9.6981779e-02
  1.0612663e-01
 -7.8471661e-02
 -1.8190106e-02
 -9.2945687e-02
 -3.3842289e-01
  1.7427148e-01
 -2.2879991e-01
 -7.9858124e-01
  5.3519141e-03
  3.4940642e-01
  7.5985953e-02
 -2.3673306e-01
  3.1521723e-03
  7.0596051e-01
  8.8802585e-03
  4.4103062e-01
 -4.7921312e-01
  1.7990038e-01
 -8.1547342e-02
  3.3562653e-02
 -1.0415033e-02
 -6.2989700e-01
  3.6454222e-01
  3.7283322e-03
 -9.8872697e-03
 -1.4570895e-01
  5.1515782e-03
 -1.2162385e-03
 -1.6319949e-02
  4.6637310e-03
 -6.6034042e-04
  1.5452193e-03
  8.0248353e-04
 -5.9184055e-03
 -2.3358339e-02
  2.5069306e-03
  5.5261278e-03
  1.5086132e-03
  1.0825437e-02
 -3.0163194e-03
  9.0509102e-02
 -1.2174337e-03
  1.4186089e-02
  2.5710363e-03
  1.3340076e-03
 -9.2356559e-03
 -5.3914599e-03
 -2.4075517e-03
 -1.1277816e-03
  1.4627961e-03
  1.2262541e-02
  2.6771463e-03
 -4.7073998e-03
  7.0616079e-04
 -6.3740779e-03
  2.0837369e-03
 -3.2343904e-03
  1.9683579e-03
  3.6398927e-03
 -4.7420976e-03
  1.0524348e-03
 -5.8495835e-03
  2.1120671e-02
 -1.5217145e-03
  1.6233798e-03
  9.6103491e-04
  6.8597065e-04
 -1.4855182e-03
 -3.1713950e-03
  1.7414941e-03
 -1.4943971e-03
  4.8405970e-03
  2.5565731e-03
 -6.0555506e-03
  5.4880907e-04
  1.2061239e-03
 -1.1129937e-03
 -4.2893765e-03
  2.9107458e-03
 -4.1907828e-04
  3.3515543e-03
 -2.1610726e-01
 -2.3558506e-01
  9.8378574e-03
  6.7699086e-03
  5.3507806e-04
  6.9003990e-03
  1.6255884e-03
 -2.0392928e-03
 -1.7257518e-03
 -1.3143350e-03
 -4.9958774e-03
  7.6122927e-03
  1.9954678e-03
 -1.1510215e-03
 -1.5342683e-03
 -9.0862727e-03
 -7.3601739e-03
 -6.2761403e-04
  7.7029392e-03
  4.6698074e-03
  1.3174682e-03
 -2.5174282e-03
  8.1977120e-04
 -2.6354464e-03
  1.0150487e-03
 -1.5966636e-03
  3.5956334e-03
 -2.0421019e-03
 -1.0663953e-02
  3.2729085e-03
  7.8156302e-03
 -3.3105216e-03
  5.6040622e-03
 -3.4530410e-01
 -8.0373259e-03
 -4.4111670e-03
 -1.6477496e-03
  1.1527399e-02
 -1.3341906e-02
 -3.2963678e-02
 -8.1679642e-01
  2.2244409e-01
 -2.5614630e-03
  1.1210110e-02
 -1.2367014e-02
 -1.4048768e-03
 -2.5709998e-03
 -2.9508807e-03
 -8.9187286e-04
  2.3780749e-03
 -2.2612161e-03
  2.0931796e-03
  1.9882172e-02
 -8.2690606e-04
 -6.5679295e-04
 -1.0131189e-01
  4.8733768e-03
 -2.2807992e-03
  5.1221782e-03
 -7.3785274e-03
  3.8060586e-03
 -8.8644447e-04
 -2.7312099e-03
 -4.2580110e-03
  5.0146608e-03
 -2.3241416e-03
  4.1805552e-03
  1.5554565e-03
 -2.5370659e-02
  6.0375086e-03
 -3.2464939e-03
  5.8646319e-03
  1.2542454e-03
 -1.0317296e-03
 -2.1452475e-03
  1.0411630e-03
 -2.3001465e-03
 -3.1935885e+00
 -3.5049403e-01
 -2.1215138e-01
 -3.2055283e-01
 -1.1812422e+00
  4.0451303e-01
  5.9673518e-01
 -1.7530797e+00
 -1.2024303e-01
  1.1491601e-01
 -1.0523389e-03
 -3.6483985e-01
 -8.1649488e-01
  1.7482673e-01
 -1.7671581e-01
  3.5661379e-01
  6.6780873e-02
 -7.5926319e-02
  2.2495900e-01
 -2.2808917e-01
  1.8975015e-03
 -2.7935630e-01
  3.6290020e-01
 -2.0470573e-02
  2.5440726e-02
 -4.5088789e-01
  1.7986819e-03
 -1.8760502e-02
  1.2252826e-03
  1.0374610e-02
  4.2224075e-03
 -7.1743731e-03
  1.4976674e-03
  1.5857046e-02
 -7.0071861e-04
  3.9376173e-02
  3.4030590e-03
 -3.2655972e-03
 -3.0249404e-04
  1.0369213e-03
 -8.8621028e-02
  1.3844769e-03
  6.2423316e-03
 -9.1750249e-03
  4.5922119e-02
 -1.2155217e+00
 -9.7192079e-01
  7.2395134e-01
  2.2345799e-01
  2.5561082e-01
 -6.4810628e-01
 -3.5085341e-01
 -7.4806046e-01
 -9.7910398e-01
 -5.0308239e-01
 -2.1935594e-01
 -3.9112095e-02
  6.3252551e-03
  2.8009856e-01
 -7.8116137e-01
  1.0241266e-01
 -7.7550220e-01
 -7.6301374e-02
  1.7607752e-03
 -6.3899285e-01
  3.7551571e-02
 -4.9722737e-01
 -7.0573401e-01
 -6.4672136e-01
 -4.1366714e-01
 -1.5972292e-01
 -6.2655911e-02
  1.4561753e-01
 -7.0670801e-01
 -2.6860505e-01
 -5.6333596e-01
 -4.7056958e-02
  1.9644266e-01
  4.3603759e-03
 -3.7921664e-01
 -7.5336045e-01
  1.0496824e-02
  1.1163186e-01
  2.3102881e-02
  2.1803766e-03
  2.0115627e-02
 -1.8002719e-02
  6.5477127e-03
  2.0441985e-01
 -6.0619110e-01
 -8.9072901e-01
  3.1863905e-02
 -1.8505284e-01
  1.3129541e-01
 -6.4599542e-03
 -7.7071473e-02
  9.1125393e-01
 -2.5698802e-01
  3.1271276e-01
  4.2411513e-03
  2.3186131e-01
  1.1456669e-01
  1.0664128e-01
  5.1030796e-03
  1.0022651e-01
  1.8205689e-02
 -5.0917417e-02
  8.0003783e-02
  3.9336737e-03
  6.9382915e-04
  1.8598941e-01
 -2.9813655e-02
  1.2960762e-02
  8.5773729e-02
 -6.4767920e-03
  3.8171397e-03
 -1.6012520e-01
  1.3692159e-02
 -5.9143403e-03
 -8.1089819e-03
  5.4331496e-02
  1.9896796e-02
 -1.5713811e-02
  1.4961992e-01
  8.9666165e-02
 -3.1857211e-02
 -7.5425068e-03
 -1.2999766e-02
  1.1092528e-01
 -1.3238675e-02
  4.6561453e-03
 -3.2446475e-04
 -4.3757726e-02
  1.5332826e-03
 -4.2512724e-03
  1.1373308e-02
  1.5031680e-02
 -1.5835161e-03
  9.9905998e-02
 -1.1501253e-01
 -1.2489018e-03
 -1.2906879e-02
 -1.0602891e-03
 -1.4628466e-02
 -1.4597327e-03
  1.3168451e-03
  1.9180613e-03
 -1.5843736e-02
 -2.2940303e-04
  2.5033050e-03
 -1.0931927e-02
  7.7807754e-03
  3.3535426e-03
 -1.7373620e-03
  7.0888050e-02
  8.9412834e-03
  1.3287828e-02
  9.2219375e-04
  4.4939308e-03
 -4.2398740e-03
 -5.9032440e-03
 -1.9922010e-03
  5.6330971e-03
  5.1725074e-05
 -3.4712191e-04
 -6.3694082e-03
  9.0128724e-03
 -4.2695357e-03
  1.0984488e-02
  2.2317732e-03
 -1.6779560e-03
  1.8885729e-03
  2.1016522e-04
  6.0664047e-04
 -5.0326041e-03
 -2.6142306e-04
  1.7606850e-01
 -1.9673277e-03
  5.3579368e-02
  5.5659786e-03
 -1.1454663e-01
 -2.9063672e-03
  3.3508954e-03
 -6.7620367e-02
 -3.4112092e-03
  7.0443139e-03
  1.1905890e-03
  4.1914347e-05
 -3.2304622e-02
  5.5739763e-03
 -2.3673188e-02
  7.9544336e-02
 -8.1576558e-04
 -4.8517406e-02
  3.6191382e-04
  6.0332566e-03
  5.6456757e-04
  4.5449095e-04
  5.8963168e-03
  1.3503239e-02
  5.7423841e-03
 -3.6905848e-03
 -4.1569010e-03
 -7.0147086e-03
  9.8205889e-03
 -6.9826618e-03
  3.7217312e-03
 -1.7794177e-02
 -2.6647677e-03
  2.4925452e-04
  8.2363626e-03
  1.7040636e-03
 -1.2161164e-03
 -2.3482577e-04
 -5.6999195e-03
  3.1892355e-03
 -9.5335692e-03
  1.8255476e-02
  1.4695277e-02
  7.5179446e-03
  9.6076161e-02
  6.2044448e-01
  7.3907459e-01
 -1.7797559e-02
  4.5812414e-03
  1.2333771e+00
  5.7646167e-01
 -2.8227028e-02
 -1.1743890e+00
  8.3941789e-03
 -7.4535012e-03
 -2.2400166e-03
  3.7085971e-01
 -1.1162716e-03
  1.0959071e-01
 -3.9281914e-01
 -1.4418247e-01
 -7.7993278e-03
  1.5978567e-02
 -1.6226268e-01
  2.1722592e-02
 -1.3589482e-01
 -6.9232829e-02
  3.5102889e-01
 -1.5049195e-02
 -9.7105373e-04
 -3.9680693e-03
  4.2804512e-03
  4.2458706e-02
 -1.5255971e-02
  4.4015432e-03
 -9.0324972e-03
 -2.4512943e-03
  1.1787254e-01
  4.3108701e-03
 -6.8053510e-03
 -6.6870498e-03
  9.3144430e-03
  7.9534696e-03
  2.8527810e-04
 -1.2506790e-02
  6.1841740e-04
 -2.7923877e-03
  2.1459260e-03
 -2.8736138e-01
  5.1367915e-01
 -9.7062713e-01
 -1.2138379e-01
 -2.4058053e-01
  2.2125202e-01
  2.1996692e-01
  3.4567997e-02
  1.8654110e+00
  1.0465620e+00
 -7.9625687e-03
 -1.0699034e-02
 -4.0484988e-03
 -1.0455617e-01
 -1.0030040e-02
 -3.7120944e-01
 -1.1866718e-01
  7.6144221e-03
  5.3230599e-02
 -2.0656788e-01
  4.0584859e-03
 -5.9873199e-01
 -1.2155258e-01
  1.2461454e-01
  4.6915331e-04
 -3.3219615e-01
 -2.8966394e-01
  5.3487647e-02
 -4.6579525e-02
  3.6138570e-04
  1.1661075e-01
 -4.8941425e-03
 -3.7166055e-02
 -3.7238160e-01
 -6.6597303e-03
 -6.0183352e-01
 -1.0769319e-02
  3.0113773e-03
 -3.6462673e-03
  1.4179896e-03
 -1.3938783e-02
  1.1049043e-03
 -1.6187106e-03
 -8.4511557e-04
  8.3889580e-01
  3.7625721e-01
  1.7271430e+00
  4.9803925e-01
  2.5596601e-01
 -7.5027573e-01
 -2.0353931e-01
  3.9080885e-01
 -9.3911201e-01
 -7.6241899e-01
  4.5644224e-01
  7.8797984e-01
  2.4007028e-01
 -1.5585741e-03
 -7.4173576e-01
 -8.2569587e-01
 -3.4496725e-01
 -1.8425575e-02
  6.0211704e-03
  3.0056931e-02
 -1.7649855e-02
  6.4796412e-01
 -3.1138413e-02
 -1.3499296e-01
  4.0191477e-03
  6.0324681e-01
  1.1862744e-01
 -1.2414141e-01
 -2.7030995e-02
 -2.2982661e-01
 -1.0876036e-01
  5.2686600e-04
  1.6557598e-02
  6.0419984e-02
 -2.2460441e-01
 -8.1156403e-02
  1.3031411e-02
 -8.2748279e-02
 -9.0950206e-03
  3.4821481e-02
  1.7470859e-01
 -6.1697252e-02
  1.3111276e-03
  3.4250354e-03
 -8.8770632e-03
  4.7977682e-04
  6.1096945e-03
  3.1993372e-04
  3.1981023e-04
  2.0731632e-03
 -1.2318837e-02
 -2.5491072e-03
 -5.8032423e-03
  5.2334573e-03
 -4.7787703e-03
  7.7832415e-04
 -6.6173030e-05
 -3.3579613e-03
  2.6996899e-03
  3.5386439e-04
  3.5344350e-01
 -6.7603057e-03
 -1.7191363e-02
  4.6527591e-03
 -2.6099947e-03
 -4.2571984e-03
  1.6937956e-02
  1.2952143e-03
  2.6939921e-03
 -1.1888720e-03
 -1.0209542e-02
  7.0343132e-04
 -7.2982552e-04
 -5.9259636e-03
  1.6563566e-03
  1.9490769e-03
  1.1081401e-03
 -7.0303632e-04
 -9.4511751e-03
  1.5628407e-02
  5.4512578e-03
  5.6925006e-03
  9.9593131e-03
  1.6557503e-03
 -4.0333168e-04
  4.1961693e-03
 -3.2287387e-03
  2.9710755e-03
 -8.9930616e-02
 -9.4162308e-02
  4.9252534e-01
 -7.6110207e-02
 -3.7189276e-04
 -3.2346115e-02
 -1.0739182e-01
 -3.7221447e-01
 -1.1864695e-01
  3.6035421e-01
 -9.4794564e-02
 -3.0302208e-02
  1.9570483e-01
 -1.1477699e-01
  1.8508103e-01
  5.5911241e-04
 -7.6033208e-03
  1.7971150e-03
  1.0371493e-01
 -1.1554483e-01
 -2.6631479e-03
 -5.7422113e-02
 -7.9673929e-03
  2.6388460e-01
 -2.8826029e-03
 -2.3838191e-01
  2.3110877e-01
  5.0484589e-03
  8.2329005e-02
  3.9321715e-03
  3.0379260e-02
  1.6600086e-03
  1.6333235e-03
  8.7789081e-02
 -2.4139094e-03
  9.3135126e-03
 -3.0556247e-02
  1.4477751e-01
  1.6584130e-02
  3.0861257e-03
 -3.3381152e-01
  1.2915267e-01
  2.7001079e-07
 -1.0506721e-02
  1.9124694e+00
  8.1313336e-01
 -4.2700171e-01
  7.6398426e-03
 -9.8176450e-03
 -5.6476539e-01
 -6.9561422e-01
  1.6141758e+00
 -3.2418841e-03
  2.3777060e-01
  9.9230185e-03
  1.8519309e-01
  1.1941928e-01
 -1.8640471e-01
  1.0811961e-01
  1.0766115e-03
  8.1133442e-03
  2.0176917e-02
 -6.6630086e-03
  1.7848097e-01
  6.4214788e-02
 -2.6189450e-02
 -1.3827940e-04
 -9.8691732e-03
  1.2248587e-02
  1.5131058e-01
 -9.8420186e-03
  5.6681910e-04
 -4.7682475e-02
 -1.2006826e-03
 -3.1596883e-03
  1.4601680e-03
 -2.3209022e-03
 -2.5199021e-03
 -3.7891441e-03
  2.4704109e-03
  3.7399918e-04
  6.0235005e-04
  2.3170153e-03
  6.7855872e-04
  3.7143733e-02
 -2.1480424e-03
 -1.0631934e-02
  1.1599842e-02
 -3.1021522e-02
 -4.0593633e-01
 -2.6728010e-03
  5.3914213e-01
  4.3917942e-01
  7.2332405e-02
 -1.2914537e-01
  4.9823131e-02
  2.7148899e-02
 -2.9412410e-01
 -2.7999282e-01
 -1.2451459e-01
 -8.9496903e-02
  9.3484083e-03
  1.7599975e-01
 -3.6705387e-01
 -1.4125634e-03
 -2.7308035e-01
  7.0379199e-03
  1.2618137e-02
 -1.8063214e-01
  1.9322947e-01
 -1.6315985e-01
 -9.7497225e-02
 -3.7418294e-01
 -2.3445641e-01
  5.1019751e-02
 -8.7261498e-02
 -5.9285410e-02
 -3.1985396e-01
  4.3428903e-03
 -1.1661910e-01
 -1.3714871e-01
  1.7508930e-01
 -3.5986011e-03
  1.0199717e-03
 -3.0488956e-01
  7.9047643e-02
  1.0490760e-02
  8.6008571e-02
 -3.2159074e-03
  1.6635446e-01
  2.5387851e-03
 -6.8238061e-03
 -3.1524103e-02
 -1.2751009e-03
  7.9029342e-03
  4.8041798e-04
  2.0635528e-03
  7.6813349e-03
  1.0406497e-03
  2.8071431e-02
  4.3082093e-03
  2.0238580e-03
  8.0498531e-03
 -4.5146872e-03
 -2.9234693e-03
  8.3153937e-03
  1.5789436e-02
  7.5000315e-04
  5.2154821e-04
  1.5952901e-03
  2.0441958e-03
 -1.5343901e-03
 -4.8244293e-04
 -3.3397127e-03
 -4.8483477e-04
 -1.4019807e-04
 -5.5867704e-03
  1.2979981e-02
 -1.6530348e-02
  2.4883307e-03
  1.2286334e-02
  5.3148083e-03
  1.1898512e-03
 -4.3469835e-03
 -1.2419026e-02
 -9.3203923e-03
  3.3452378e-03
 -7.4080366e-04
  4.3235244e-03
  9.5723933e-03
  2.4551714e-03
 -1.6424797e-03
 -5.5090203e-03
 -8.2355170e-03
 -9.8084169e-04
  1.3305999e-02
  2.2570780e-03
 -1.2231735e-02
  1.0213336e-03
  3.0511678e-03
 -6.6929543e-04
 -1.5840509e-03
  9.9506183e-04
  5.9522586e-03
 -1.9155391e-01
 -1.1748789e-03
  5.6866403e-03
 -3.4527187e-03
 -4.1575446e-03
 -6.7520919e-03
  7.5839064e-03
  7.5784521e-03
 -6.1811070e-04
  2.4793944e-03
  5.2827066e-03
  7.0853741e-05
 -8.7349517e-03
 -1.9751154e-03
  1.9147933e-03
 -3.2435011e-03
 -8.5539483e-03
  2.9561790e-03
 -7.2994810e-03
  5.6007528e-03
 -5.5936854e-03
  1.6422615e-03
  9.3350913e-03
 -5.3177390e-02
 -1.1915264e-04
  4.4159433e-03
 -8.2376821e-04
 -2.6008969e-03
 -5.7310569e-03
 -4.0010163e-03
  4.2600841e-03
  1.3801631e-03
  2.0880387e-03
 -1.5390127e-03
 -1.0481260e-03
  7.3964782e-03
  9.2135310e-01
  9.2492886e-02
 -4.9504042e-03
  6.6426066e-03
  2.2004008e-01
  5.4306728e-03
  7.9616100e-02
 -1.2822866e-02
 -1.2766051e-02
 -1.1869460e-01
  3.8337135e-03
 -9.5707402e-03
  2.1914182e-02
 -2.0354973e-01
 -9.0469055e-02
 -5.9917346e-02
 -1.1854445e-03
 -3.0744607e-03
  2.9209140e-03
 -1.0017736e-01
  3.5382437e-03
 -4.5774519e-04
 -4.7155186e-03
 -4.5343891e-02
 -3.3619578e-03
  2.0275466e-02
  1.3696748e-02
 -4.3014069e-03
  1.8315619e-01
 -3.8988355e-03
 -1.6088843e-02
 -4.5195725e-03
 -4.7336708e-04
 -8.8158799e-03
 -9.7901449e-03
 -1.0010002e-01
  2.6421503e-03
 -1.2328129e-02
  4.5747822e-03
 -1.6194286e-03
  6.4024450e-03
 -6.0210712e-03
 -3.6804201e-03
 -8.9992704e-03
 -2.7577894e-02
  2.4236378e-03
  2.8191710e-02
 -3.6662340e-04
 -1.8212487e-03
 -6.9182357e-03
  5.5415905e-03
 -7.5353077e-03
  8.3607197e-02
  4.2045128e-02
  2.1223156e-03
  6.5685250e-03
 -2.9696411e-02
 -2.3059556e-03
 -9.7128488e-02
  4.9425126e-04
 -4.1289907e-03
 -8.1296507e-03
 -1.9288359e-03
  1.9128022e-03
 -2.6619611e-03
  1.3664667e-04
 -4.5239381e-04
  1.5891863e-02
 -6.1164348e-04
 -1.1531066e-02
  1.0201653e-02
  4.1037882e-03
 -4.0505449e-03
  2.0858364e-03
 -1.4373304e-03
 -1.2412521e-03
 -2.1639559e-03
 -7.5271877e-05
  1.0439389e-02
  3.5380821e-03
 -2.8921268e-04
  1.2391098e-02
  3.9860462e-03
 -1.2632303e-02
 -4.0856679e-03
  2.0662110e-02
 -2.0933424e-03
  3.0903702e-03
 -6.8987522e-04
 -2.5149311e-03
  2.7429357e-03
  6.0871928e-03
 -3.9365534e-03
  4.1651763e-03
  1.5750295e-02
  1.7874638e-02
  4.5875083e-03
  2.9194218e-03
 -5.6692096e-04
  1.5487971e-03
 -2.5217291e-03
 -4.6814834e-03
  2.7869004e-03
  3.1705562e-03
  1.7374987e-03
  1.2671878e-03
 -3.0023819e-03
 -5.1607811e-03
 -2.9395767e-03
  3.6590388e-03
 -8.4128510e-04
  4.1242661e-03
  5.8901231e-03
 -6.6495463e-03
 -1.4390460e-03
  7.2490950e-03
 -6.2284982e-03
  4.6497518e-03
  4.3712528e-03
  7.3929788e-03
 -3.6314344e-03
 -5.5549657e-03
  1.6772850e-01
 -6.3153179e-03
 -1.2544108e-03
  1.1445151e-03
  2.6271369e-03
 -1.5853556e-03
 -1.6604241e-02
 -1.5953009e-03
 -1.8306948e-03
  1.5284887e-03
  2.0075126e-03
 -6.8781357e-03
 -4.8971074e-03
  9.4913511e-04
  4.7170175e-03
 -3.2435246e-03
 -3.5040425e-03
  9.6014095e-04
  8.3883181e-03
  9.5433643e-07
 -6.5570390e-03
  5.6065794e-04
 -6.7405798e-04
  2.4681729e-03
 -4.7247815e-03
  6.0104579e-04
  4.5187373e-02
  1.9502102e-03
 -6.7739808e-03
 -2.9923466e-03
  3.2970528e-03
  2.9301518e-03
 -6.8540836e-04
  1.6056132e-03
  3.3656827e-03
  1.8859101e-03
 -9.6746627e-03
  2.0851034e-03
  5.3507006e-03
  6.7507764e-03
  1.7352772e-03
  8.6100562e-04
  1.6401598e-03
 -1.6474057e-04
 -8.1033725e-04
 -2.7885304e-03
 -1.8866677e-02
  5.5943104e-03
  2.5270036e-03
 -6.6058086e-03
 -1.0086156e-03
 -2.1140454e-03
  6.6555813e-03
  8.1143640e-03
 -6.8079466e-01
  2.3401202e-01
  1.8536167e-01
 -4.3508835e-02
 -2.4551809e-02
 -1.1577005e-01
  1.4540061e-01
  1.4268476e-01
  1.7028134e-01
  3.5219032e-02
 -7.4352980e-02
  9.0637058e-03
 -5.3750491e-01
  1.3412645e-03
 -2.2900195e-01
  2.0585844e-01
 -3.3755675e-01
  1.4900304e-03
  1.6028666e-03
 -4.4165269e-01
  4.3164720e-03
 -4.0544599e-02
  3.6048077e-02
  3.4601521e-03
  7.9259071e-03
 -5.5407244e-01
 -9.2027280e-03
 -1.1867164e-03
  9.8861605e-02
  1.3582323e-02
  4.0333290e-02
 -2.3064590e-03
  8.6646415e-03
 -4.0732100e-04
  8.7800215e-04
  1.5815215e-01
  1.0947732e-03
  1.3520312e-03
  2.0405832e-03
  1.3062960e-02
 -1.1174399e-01
  2.8811824e-03
  5.2434243e-03
 -4.4573192e-03
  2.5029596e-02
  5.0592669e-03
  1.2016040e-02
 -1.1585283e-04
  8.9143010e-05
 -2.6020147e-02
  2.0822873e-03
 -6.7337085e-03
  1.3231108e-02
  1.1252972e-02
  3.0650913e-03
 -3.3462159e-03
 -3.9963674e-04
  9.3655521e-03
 -1.5170178e-02
  9.9608339e-03
  4.7763530e-03
 -3.8839425e-03
  5.2671507e-03
 -5.7000238e-02
 -3.8286450e-04
  6.6228001e-03
  1.0711123e-03
  3.4309349e-03
  1.8626190e-04
  1.0625695e-02
 -3.7770797e-03
 -6.2996423e-04
  1.2193198e-03
  3.3718140e-03
 -6.7515029e-03
  4.0335027e-03
 -8.7729301e-03
  6.8622362e-04
 -5.3714518e-04
  1.8224968e-02
 -1.6595791e-03
  4.6421043e-03
 -3.6250375e-02
  3.1846599e-03
 -8.6768335e-03
  3.1329129e-02
 -5.0429055e-03
  4.7228206e-03
 -4.7097211e-03
  2.5549042e-04
  5.0197814e-02
  2.3459811e-03
  3.1233882e-03
 -2.0861868e-03
  6.2133581e-03
  9.4686681e-03
 -1.7122688e-02
 -4.5887628e-03
 -2.7810712e-03
 -4.7263154e-04
  4.6258215e-03
  7.3453812e-03
 -2.0695275e-02
 -2.6320063e-03
 -1.1070391e-02
 -6.1697830e-03
  8.6095827e-03
 -6.1540055e-04
  1.1274613e-02
  2.0826771e-04
 -6.7658909e-04
  1.7978498e-05
  3.1953494e-03
  2.4312674e-03
  2.7075503e-04
 -8.7395757e-03
  4.2575557e-02
 -7.9244254e-03
  4.6678316e-03
 -1.6278042e-03
 -5.1046675e-03
 -3.8413098e-03
  7.6793320e-03
  7.2324383e-03
 -5.2492903e-03
  1.6315458e-03
  6.8280580e-03
 -4.9689552e-03
 -2.9599126e-03
 -1.9906964e-03
  7.5906147e-03
 -6.6562300e-03
 -3.1260317e-03
  1.0991250e-03
 -6.3944021e-03
  5.4012090e-03
 -2.7595803e-03
  1.0238595e-01
  1.7534192e-03
 -3.3701293e-02
 -5.5560800e-03
  1.2174941e-03
  8.0336649e-03
  8.5189790e-03
  2.5539610e-03
 -3.1473278e-04
 -3.1972863e-03
  4.1079889e-03
  7.8954652e-04
 -6.7666643e-03
  9.3051756e-04
 -4.0668426e-03
 -2.1446338e-03
 -1.4122784e-03
  1.7603725e-02
 -2.1156925e-03
  7.4803247e-03
 -2.7709130e-02
 -1.3834152e-03
  2.7206355e-05
 -4.8129028e-03
  1.9426650e-03
 -1.2871498e-03
 -3.9849598e-03
  7.2772062e-04
 -5.5468199e-04
  4.2520929e-04
 -3.8468414e-03
 -4.4242246e-03
  8.1442418e-03
 -2.8367552e-03
 -6.7370711e-05
  8.8301357e-03
 -2.3704797e-03
 -1.5718286e-03
 -1.2598497e-02
  2.7208094e-02
  1.0094106e-02
 -7.3780186e-02
  1.3289647e-02
  9.8584175e-02
  1.1856919e-01
  1.9690672e-01
  2.2046259e-01
 -3.0088492e-02
 -2.7359901e-02
 -2.0027659e-03
  3.8843988e-03
  2.1399946e-04
  9.6134236e-03
  8.2956672e-02
  4.4805319e-03
  6.5886497e-02
  2.1041329e-03
 -4.7076386e-03
 -4.7337826e-02
 -3.3836404e-03
 -3.1271863e-03
  2.0937048e-02
 -3.0510443e-01
  1.2505642e-04
  6.3272454e-03
  1.0609259e-03
  2.4597119e-03
 -7.3963642e-02
  3.5990614e-03
 -3.7852548e-02
  1.2056557e-01
  1.6620249e-02
 -2.2301499e-03
  7.5423100e-04
  1.3949273e-02
  1.7339531e-03
  6.2495535e-03
 -1.5415796e-03
  1.6104516e-03
 -5.0575496e-04
 -6.1925268e-03
 -7.9874313e-03
  5.3062895e-03
 -2.7231255e-01
 -8.3778597e-02
 -3.4628338e-01
 -1.9380083e-02
 -1.3165525e-01
  8.4844388e-02
  3.2774966e-02
 -9.0199765e-03
  9.6135929e-02
  3.7055588e-01
 -2.3209859e-01
  5.9576328e-03
  8.3211981e-02
 -4.2111211e-02
 -5.2951504e-02
 -1.7899327e-04
 -8.6432602e-03
  5.0727623e-03
  8.2985377e-03
  1.9061079e-03
  7.8585461e-02
 -6.2487174e-02
 -2.8712202e-03
  1.6298687e-01
 -1.3777326e-02
 -8.3780468e-02
  3.6732755e-03
 -1.5294105e-03
  3.5444275e-02
 -2.6848610e-03
  5.4612923e-03
 -1.7769897e-02
 -2.3600109e-02
 -1.1239612e+00
  6.4489553e-03
 -8.8542290e-02
 -1.2496074e-02
 -3.9008865e-04
  1.5002228e-02
 -1.1820574e-03
 -2.4852024e-02
 -1.6688856e-03
  7.8996364e-04
 -1.6692118e-04
 -2.4054714e-03
  3.0085081e-03
 -1.3674878e-03
  3.8996213e-03
 -2.5549626e-03
  4.1073742e-03
 -5.2621854e-03
 -2.8468797e-02
 -2.1939695e-02
  1.4913923e-03
  2.8141455e-03
 -4.6707373e-03
 -7.0677660e-03
 -1.9273880e-03
  4.1512074e-04
 -3.8624590e-04
 -9.2872512e-04
  1.0508505e-02
  1.3993856e-03
  8.0160244e-04
  3.5059196e-03
  2.9460033e-03
  3.1802317e-03
 -1.0786288e-02
  8.2341945e-03
  4.2772223e-03
 -1.0204029e-03
 -4.4543501e-03
 -2.8110456e-03
 -2.2293629e-02
 -6.2751798e-03
  1.4972651e-03
  8.4631359e-03
  5.1063262e-03
 -5.5807061e-04
  3.0055497e-04
 -1.5077208e-03
  2.7122321e-03
  1.8418103e-02
 -2.6548842e-03
  7.9669766e-03
 -3.0061207e-03
  3.2297424e-03
  3.2974097e-03
 -1.0598103e-01
 -1.0867475e-02
  4.2843457e-02
  1.9302222e-01
  4.6525959e-02
  4.8196121e-04
 -6.2448939e-04
 -6.7310385e-02
  3.7026219e-02
 -9.4005562e-02
  1.3968168e-01
 -1.0519248e-01
  8.4905237e-02
  1.5904002e-01
  3.0458176e-01
 -4.1203988e-03
  2.0002036e-01
  5.9381101e-02
 -3.5276718e-02
  1.9106880e-02
  5.2475087e-02
 -1.6981518e-01
  1.7242691e-01
 -1.8685380e-01
  1.8168643e-01
  1.2980770e-01
  1.4478292e-01
  2.4608802e-02
 -8.9495750e-03
  1.6799799e-01
 -1.4329691e-01
  6.4843528e-02
  1.2842794e-01
 -2.2902654e-01
 -6.9720214e-03
 -5.0361973e-04
  1.3950360e-01
 -1.2553874e-01
 -1.9392030e-02
 -9.5056914e-02
  7.8959480e-02
 -6.1624009e-02
  4.5886296e-03
 -3.2209989e-03
  2.4375424e-02
 -3.7760429e-02
 -6.9224678e-02
  7.1567169e-04
 -2.0846551e-04
  1.4576796e-03
 -4.7403411e-04
 -1.6082065e-02
 -1.9347207e-03
  1.0194464e-02
  7.8398833e-04
  2.4794138e-03
  4.1861534e-03
 -5.5173719e-03
 -2.0507252e-01
 -8.8352375e-03
  4.1660652e-03
  1.5841539e-03
  1.6770517e-03
  6.8971282e-03
  2.6271222e-03
  1.2157615e-02
 -2.1416771e-01
  1.2461971e-02
 -9.8876320e-03
 -1.3384050e-02
 -5.7454983e-04
 -2.5567308e-02
  1.5958903e-03
 -1.2415388e-02
 -4.5971270e-03
 -5.5654626e-04
 -1.9241355e-03
  2.5007337e-02
 -1.5346010e-03
  2.6663388e-03
 -5.1006270e-03
  2.8475658e-03
  2.5474122e-03
  1.8326787e-03
  3.5395217e-03
  3.1843106e-03
 -1.2048918e-03
  2.6234365e-03
  1.3596980e-01
 -1.1093274e-03
  1.6702821e-02
  8.9598205e-03
 -7.1668914e-03
 -1.6695741e-03
 -5.5464957e-04
  7.1545042e-02
 -8.4491782e-02
  1.6273132e-02
  6.1478841e-01
  9.8280450e-03
  6.9048071e-01
 -4.3845717e-03
 -3.7766308e-01
 -4.1935127e-03
 -4.5359335e-03
 -2.2727184e-03
  1.5166554e-03
 -2.4800729e-03
 -4.9035354e-03
 -1.0737682e-02
  1.8340361e-03
  6.8950851e-04
 -6.7956923e-03
 -2.4711101e-03
  1.8052199e-01
 -3.4774104e-05
  5.9732828e-02
 -6.9558597e-04
  6.9595943e-03
  1.4253622e-03
 -3.0540572e-03
 -5.9113074e-05
 -8.9611728e-03
  2.4183951e-03
  7.0998780e-03
  2.7343426e-03
 -4.0137926e-03
 -3.2912306e-03
 -6.6904863e-04
 -4.6616350e-03
  7.2354218e-03
 -2.2126683e-03
 -5.7012035e-04
  4.3335441e-03
  9.0891803e-03
 -1.0077067e-02
 -2.1372084e-03
 -8.2589602e-03
  3.1289733e-03
  4.2341609e-02
 -6.9494825e-04
 -9.0392120e-04
 -7.5671216e-04
  4.1927989e-03
  1.8181023e-03
  3.5468473e-03
  7.6039988e-03
  1.0928595e-02
 -9.3211222e-04
 -1.4717099e-02
  4.5289917e-04
 -4.1933954e-03
 -5.5285133e-03
  9.0362588e-03
  1.2882606e-03
 -5.4276013e-04
 -1.6343507e-03
 -9.7390627e-03
  9.0364013e-03
 -1.5717419e-04
 -1.2730869e-02
 -1.8479795e-03
 -1.3049023e-02
  1.7385697e-03
 -2.3373766e-03
  9.0085864e-03
 -2.6735051e-03
 -1.0171465e-03
 -1.3798448e-03
 -6.0629398e-03
  3.6108117e-03
 -1.0379067e-03
  6.1643287e-03
 -1.2496165e-02
 -2.1243710e-03
  1.4541176e-03
 -1.2247737e-01
  4.5639512e-01
  6.0951281e-01
  3.0190256e-01
 -2.8300509e-01
 -1.6671594e+00
 -1.4551198e+00
 -1.1907282e+00
 -2.3425786e+00
 -5.2747124e-01
  4.2337548e-02
  6.8734479e-01
  3.9664784e-01
 -2.6217163e-02
 -4.7607034e-01
 -5.8233458e-01
 -6.1425501e-01
 -2.2691399e-01
  6.8634287e-02
  1.1502450e+00
  1.5228810e-03
 -2.9760066e-02
 -7.7833366e-01
 -8.1574690e-01
 -3.2216694e-02
  6.1520898e-01
  5.5683870e-02
  7.3670577e-03
 -1.5984191e-01
 -5.1417518e-01
 -1.5731184e-01
 -3.9392184e-03
  2.8750163e-02
  1.1287969e-01
 -1.5708920e-02
 -1.1706395e-02
  7.8862729e-03
  5.4772012e-03
 -3.7658378e-05
 -3.9434116e-03
  1.6946813e-01
 -4.2496622e-02
  1.2904608e-03
  3.0872725e-02
  1.5716778e-02
  6.8695936e-03
 -3.7834416e-03
 -1.3393795e-03
  7.9045276e-04
  1.0922655e-03
 -9.0720726e-04
  2.3315784e-03
 -4.5680581e-03
  6.0646737e-04
  2.9108766e-03
 -2.4866743e-03
 -8.8054250e-04
  1.1468255e-02
 -6.1414214e-03
 -1.0084897e-02
 -1.7123283e-03
  7.5644325e-03
 -6.4079100e-03
 -7.5357337e-03
 -5.0334157e-03
  8.9427587e-03
  1.4703376e-03
 -2.9329406e-03
 -5.8461400e-04
  1.7052137e-03
 -1.6750834e-03
  1.4330185e-03
 -5.9918985e-03
  9.2140809e-03
 -2.2623988e-03
 -1.2425776e-04
 -6.0341903e-03
  9.3479520e-03
 -1.4690580e-02
  2.7249735e-03
  3.3886451e-03
  1.1912465e-02
 -2.1198434e-03
 -7.9559432e-03
 -1.8669632e-03
 -2.6906149e-03
 -4.0006172e-03
  3.1921128e-03
  6.2856442e-01
  7.4676136e-03
 -6.8273046e-04
  1.7082377e-01
 -5.9161820e-02
 -1.4746253e-01
  8.7289326e-02
 -6.6093326e-01
 -9.9131547e-02
  3.2118905e-01
 -5.8984139e-04
  5.8459328e-04
 -3.2912266e-02
  6.5434854e-03
 -3.9114160e-03
  2.2952808e-01
  1.5035322e-03
  7.7412915e-03
  9.2844656e-03
  3.3837836e-03
  1.2989143e-02
  6.3876868e-03
  2.0542118e-04
 -3.6993038e-03
 -2.2293548e-03
 -2.1324181e-03
 -5.2711591e-03
  6.2580584e-03
 -1.3426094e-01
  1.3240366e-02
 -8.2976818e-03
 -4.8602847e-03
  6.0274070e-03
  4.6702545e-02
  2.7456717e-03
 -1.2512380e-02
 -1.3607505e-01
  6.6482406e-03
  3.8427114e-03
 -5.1245419e-03
 -1.3822603e-02
  1.4705414e-01
  2.9970699e-03
 -8.3975197e-04
 -2.0570411e-01
 -8.7296525e-03
 -6.3755229e-02
 -9.3380980e-02
  2.8873936e-03
  2.9628158e-02
 -1.1535439e-02
 -3.7688291e-01
 -1.1009249e-01
 -1.9409713e-01
  1.6966094e-01
 -4.2687468e-02
  1.5507792e-03
  1.6210884e-01
  4.5339003e-02
  1.2734761e-03
  4.7341455e-03
  4.5763191e-02
 -1.5231179e-02
 -3.2587592e-03
 -2.5858532e-03
 -2.5789412e-02
  3.1935453e-01
 -1.6171765e-01
  1.3422246e-01
  1.8719850e-02
 -2.8509501e-02
  3.8195129e-03
  6.3465737e-02
  9.7244503e-03
 -4.6930563e-02
  1.1607034e-02
  1.4414096e-02
 -7.0870933e-03
  6.4503797e-03
 -3.8169748e-03
  5.0226776e-03
 -2.2928554e-03
 -4.1698273e-02
 -2.8624170e-02
  4.9533121e-02
  7.1707400e-03
  3.9456580e-03
  9.1715500e-02
 -6.4657938e-01
 -1.9687475e+00
 -1.3976779e+00
 -1.2028997e-03
 -1.3376938e+00
  5.9899563e-01
  3.5032195e-01
 -1.7030640e+00
 -2.3714441e-01
 -4.6319425e-01
  2.5668660e-01
 -2.0522426e-03
  2.1668169e+00
  3.3096984e-01
  1.9881855e-01
  1.6923802e-01
  5.6346029e-01
  1.0142084e-01
  2.8538033e-03
 -3.1633675e-02
  8.4699392e-02
 -2.0757987e-04
  1.5416545e-01
 -1.6994541e+00
  3.1235831e-02
  4.1869492e-03
  9.4969594e-01
 -1.4947422e-03
 -1.7531754e-01
  3.3143431e-02
  2.5457004e-03
  2.0475343e-02
  1.5812454e-01
  1.1568713e-01
  3.4742849e-03
 -1.0561882e+00
 -3.8067105e-01
 -3.8067583e-02
 -4.2741898e-02
 -8.9221410e-03
  5.5852335e-02
 -3.6205661e-02
 -3.1627663e-03
  1.1769151e-02
  7.3063177e-01
  3.0193236e-02
 -1.0638410e+00
 -1.0090228e-01
  4.0540218e-02
 -1.0754211e-01
  1.1105828e-03
  6.5271348e-01
 -4.8353896e-03
 -5.1309369e-03
  2.8005342e-03
  2.2193557e-04
 -1.9632557e-03
 -3.0490207e-03
 -5.9457794e-03
 -1.0703536e-02
  2.0950632e-01
  1.7034365e-03
  3.6329564e-03
  2.8598991e-03
 -7.2363475e-03
  4.1376991e-04
 -7.0425076e-04
 -1.8084497e-03
  9.6542767e-04
  4.1109528e-03
  5.9745228e-04
  7.4750115e-03
 -1.2608715e-02
  4.0435907e-03
  4.8587550e-04
 -6.8186538e-04
  1.0250518e-02
 -1.1704530e-04
  5.1126182e-03
  1.2971501e-02
 -3.3062079e-03
 -5.7368954e-03
 -1.4199745e-03
 -1.7687401e-03
  1.5833816e-03
  3.1333074e-01
  1.9366496e-03
  1.0153831e-02
 -4.6819073e-01
  4.9261495e-01
  2.9233241e-01
 -1.9702582e-02
 -8.2302731e-01
  3.3667132e-02
  2.1007209e-01
  7.6223886e-01
  6.6033363e-01
 -1.0974106e+00
  1.4424140e+00
 -8.5257423e-01
 -2.7733771e-02
  2.1844578e-01
 -3.7399244e-01
  1.8016493e-01
 -6.7161560e-02
  9.5517683e-01
 -7.6222944e-01
 -4.2191938e-01
  1.9002277e-01
 -3.1116217e-01
  9.3145078e-01
 -2.8802352e+00
  8.2255018e-01
  4.6652696e-01
 -8.6714268e-01
  4.1121611e-01
  9.5031160e-01
  1.1378266e+00
 -2.6522580e-01
  1.7283925e-01
  5.6342608e-01
  9.6866095e-01
  3.5215113e-01
 -1.2790618e+00
  1.1368501e+00
 -2.6121868e-02
 -1.3870041e-01
 -1.4399882e-01
  2.5129925e-02
 -1.3342218e-02
  7.5251453e-02
  1.1792158e-03
  1.2572342e-01
 -5.3230900e-02
  7.0765927e-02
 -1.0279490e-02
  1.1154537e-03
  1.3685487e-01
  1.3475358e-03
 -2.0512506e-01
  1.4614535e-02
  1.1137764e-01
 -1.2431963e-01
  1.9392621e-02
  1.4992998e-04
 -2.0451778e-01
 -1.0554795e-01
  7.3434734e-03
 -1.6512375e-01
 -3.8490474e-02
  3.5441620e-03
  1.3062349e-02
 -1.2020195e-02
 -7.6800711e-02
 -1.9444193e-01
  4.1190195e-01
 -1.6087033e-02
 -6.0367428e-02
  1.3660775e-03
 -3.6594239e-03
 -2.3978988e-03
  1.8688958e-02
 -2.4446482e-03
 -1.0815836e-02
 -4.3901768e-02
  1.6238211e-01
  1.3833684e-03
  4.8878579e-03
 -1.0543607e-02
  5.6199981e-03
 -1.5577333e-03
  2.1411270e-02
 -1.0394711e-01
  4.3352731e-03
  7.9052448e-03
  3.5036178e-03
 -1.1413179e-01
  2.3393640e-03
 -2.0505002e-01
 -7.3677194e-03
  2.3243339e-03
  2.4978989e-03
 -1.4018983e-01
  4.3913247e-03
  2.4575496e-01
 -2.8326672e-03
  6.8275640e-03
 -9.1231922e-03
  1.1287598e-02
  7.7034242e-04
  3.1774972e-02
  9.9423493e-04
  3.8784652e-03
  1.0862074e-02
 -3.5008171e-03
 -1.8020278e-03
  2.3538605e-03
 -1.8120850e-03
  1.1625405e-02
 -1.0947438e-02
  1.4123367e-02
  2.0633505e-03
  1.4620003e-03
 -2.1868264e-03
 -7.0897685e-03
  3.3940119e-03
 -5.1103602e-03
 -3.7606030e-03
  7.7681569e-03
 -1.2517336e-01
  1.2117253e-03
  3.7458056e-04
  5.5599026e-03
  4.9856352e-03
  2.2999458e-03
 -8.5597904e-04
  3.7586853e-02
 -3.1571770e-03
  4.2479476e-03
  1.2119951e-02
  5.4257756e-01
 -6.7185396e-03
 -1.8854827e-01
  7.9927519e-02
 -1.8985517e-04
  1.0357928e-02
  7.1344748e-02
  1.3025540e-01
 -3.0364761e-01
  4.2601439e-01
 -3.0757124e-03
 -6.9351988e-03
  1.6661595e-01
  3.5076331e-02
  3.3275145e-03
 -2.6264028e-03
 -8.8771246e-03
 -1.4089018e-03
  6.9854014e-02
 -1.1041692e+00
 -4.1013304e-03
  5.1635026e-04
  1.0903869e-02
 -3.6866630e-03
 -5.1018514e-04
 -1.5858784e-01
 -9.9364575e-03
  1.0369499e-03
 -6.9235184e-04
  5.3750812e-03
  2.0079776e-03
  3.1421795e-03
  3.2922899e-04
  9.1007669e-03
  1.4205329e-03
 -1.1563053e-01
  1.3154336e-03
 -7.2740749e-03
 -7.8276563e-03
  2.0096730e-03
 -1.8931194e-01
  2.1916018e-03
  2.2347195e-02
 -4.8727714e-03
  1.6924144e-01
  1.1078606e-03
  4.5610458e-02
 -9.4826430e-02
 -2.9510767e-03
  1.2777452e-02
 -6.6279271e-04
  2.2596888e-01
  1.4825617e-03
  1.3999416e-02
  6.9832976e-04
  1.7358046e-03
 -6.0512446e-02
 -9.1461174e-02
 -3.2230297e-01
 -1.4088780e-03
  5.5276547e-03
 -1.9409768e-02
  7.8758644e-03
 -6.1421660e-03
 -7.9135140e-03
  3.0393788e-04
 -2.6277499e-03
  1.4366810e-02
  2.8068235e-03
 -1.6977647e-02
 -4.6280148e-03
 -7.6765944e-03
  1.4884413e-02
  1.1004005e-02
  7.4886163e-03
  3.0549837e-03
 -3.8750104e-03
  2.6150286e-02
  1.0489775e-02
  3.6223374e-02
 -9.2287892e-03
 -1.3135212e-03
  7.7003264e-05
  7.6657273e-03
 -5.2925939e-04
  9.4386432e-03
 -2.2510919e-03
 -8.7862574e-03
 -1.2685058e-01
 -1.8058378e+00
  2.0661964e+00
  3.6500764e-01
 -1.8735636e-02
  9.3490022e-01
  1.3245236e+00
  5.9138644e-01
  6.4938277e-01
  8.8030189e-01
 -4.0213206e-01
 -6.7133105e-01
 -6.5423822e-01
  1.2695230e-02
 -8.6724028e-02
 -3.1269404e-01
 -1.0011739e-01
 -3.4862220e-02
 -8.8193885e-04
 -1.0061879e+00
 -2.3571369e-01
  9.7981721e-01
 -4.3538520e-01
  2.2594179e-01
 -1.7370588e-01
 -5.0861919e-01
 -8.0913621e-01
  4.4398251e-04
  5.6049746e-01
 -4.5926747e-01
 -4.3145563e-03
 -3.0946074e-02
 -2.9317629e-01
  1.4252919e-01
 -3.8190737e-02
 -9.7640522e-02
 -2.5832704e-01
  3.5055154e-03
  1.4282057e-02
  3.0744735e-03
 -2.5903940e-01
  3.7196984e-03
  2.5615804e-03
 -3.1781851e-03
 -4.1192472e-02
 -2.2387740e-01
 -8.3867379e-02
  1.0271338e-03
  1.6167124e-03
 -6.5591233e-03
  3.0719207e-04
  2.8587542e-02
  3.4562761e-01
  2.8104563e-03
  1.0461214e-03
 -1.3321593e-03
  1.5893315e-04
  5.0784624e-04
  1.5587719e-02
  1.7819177e-01
 -7.6351903e-04
  2.6090427e-03
 -2.9269720e-03
  6.4778384e-03
  6.5787216e-03
  1.5001741e-04
  1.2465869e-02
  8.4945455e-04
  1.1243620e-03
  2.3286155e-04
  2.2091249e-02
  3.5232711e-03
 -1.2652707e-02
  1.9684965e-03
 -3.5364054e-02
  4.3186464e-04
 -3.1930536e-03
  3.6094308e-02
  4.0689725e-03
 -1.1298539e-02
  1.0169342e-02
  2.8583342e-03
  2.7018706e-03
  1.0320489e-02
  2.3942212e-02
 -1.4131293e-02
 -2.6505892e-03
  6.0253432e-03
  8.2979128e-03
 -1.9771040e-03
 -4.2402651e-03
 -2.9915862e-04
 -2.1498851e-03
  1.4565617e-03
 -1.9420439e-03
 -4.3264623e-03
  8.0574118e-03
 -3.3296994e-03
  1.1706764e-04
  1.9692152e-03
 -1.8346413e-03
  5.6389030e-03
 -2.8740577e-03
 -1.3400187e-02
 -7.2154878e-03
  5.8827144e-03
  1.2433886e-03
 -4.3079921e-04
  2.1337902e-03
  4.4851901e-04
 -8.1629204e-03
  4.3779607e-03
  3.1004807e-03
 -1.1119114e-03
 -5.7102526e-03
 -2.4560629e-03
  5.2419314e-03
  2.7133606e-03
  2.8251445e-05
  4.8008625e-04
  5.8897110e-03
  2.1968884e-03
  1.1757296e-03
 -4.2533941e-04
 -3.3792187e-03
 -1.8975019e-04
 -1.3669045e-04
 -1.4602925e-03
  1.2748566e-02
  5.9898105e-04
 -2.6338242e-03
 -7.8626918e-03
 -1.2590555e-03
  1.2966114e-04
  6.2516630e-03
 -8.6003626e-03
  9.9950959e-04
 -8.9522684e-03
 -3.6271389e-03
 -6.2124562e-03
  4.7823093e-03
  4.8669237e-03
 -1.8311392e-03
  1.9434054e-04
 -6.7301886e-04
  6.8541765e-03
  5.4679895e-03
  1.2236066e-03
  3.7478104e-02
 -5.6857527e-03
 -2.9755400e-02
  8.9316512e-05
  1.6202248e-05
  1.0944935e-03
  1.0739094e-02
  7.2430498e-03
 -6.4093922e-03
 -5.4315557e-03
  7.2764726e-03
  2.6214726e-03
 -7.5651638e-02
 -2.0554252e-02
 -4.7730878e-03
 -2.1096847e-03
  5.6053894e-03
 -3.8829586e-01
  2.6168462e-03
  8.4687409e-04
 -1.9377696e-03
  9.5572977e-05
  1.5121928e-03
 -6.1049056e-03
 -9.7373184e-03
  2.5337848e-03
 -1.3139905e-02
  1.0413210e-02
  1.0202873e-01
 -4.2172903e-03
 -1.5381419e-03
 -8.0388285e-02
  1.1574440e-03
  2.0483253e-04
  3.9540222e-03
  4.0141791e-01
  1.9847400e-01
  1.8241373e-03
  6.2418012e-03
  4.9765110e-03
 -3.0560708e-03
 -2.0033149e-02
  1.3815889e-03
  1.1009783e-02
 -2.1113995e-03
 -5.0673070e-03
  2.5397853e-03
  1.6095486e-02
 -4.4858651e-03
  4.9170217e-04
  1.9841376e-03
 -3.0544619e-03
 -3.0708548e-03
  5.3641954e-03
 -3.2665194e-03
 -2.7583381e-03
 -8.6581516e-01
  3.3840593e-03
  6.2383888e-03
  1.2174598e-02
 -3.3331574e-03
 -6.4596869e-03
 -4.7354824e-03
  1.5150738e-04
  8.0636451e-03
  7.1487552e-03
  8.6378427e-03
  4.2236485e-03
 -4.2697703e-03
  1.0106618e-03
  2.3626911e-03
 -1.0563580e-02
 -1.8548768e-03
  5.5307220e-04
  1.7073764e-03
 -5.2697882e-03
  1.4144317e-03
  1.1004277e-03
 -9.8392717e-04
  6.0560727e-03
  1.0084675e-03
 -4.6052993e-04
  6.5750685e-03
  1.5934644e-02
 -1.3402633e-02
 -6.9527938e-03
 -6.6439672e-03
 -1.1669671e-02
 -4.3719783e-03
 -1.0769584e-03
 -8.1689097e-03
  7.3289466e-03
  1.9120373e-05
  7.4151240e-04
  1.1626248e-02
  2.4705345e-03
 -9.1107339e-03
  4.6144092e-01
  3.4872659e-02
 -1.7475465e-02
  6.5432503e-03
 -7.9757124e-03
 -9.0270685e-03
 -2.8012411e-03
 -4.0678834e-03
 -1.0656076e-02
 -3.9955070e-03
 -3.2536299e-03
  3.0922117e-03
  1.9056060e-03
 -4.9271560e-03
  8.6351419e-03
 -5.4813665e-03
 -7.1242107e-03
 -1.5403787e-03
 -3.1765376e-03
  5.5465717e-03
 -8.3842780e-03
  4.1707447e-03
 -6.0879029e-03
 -3.2433220e-03
  2.8037620e-03
 -2.1598607e-02
 -6.5437080e-03
 -2.5872020e-03
  1.2584399e-02
 -1.9090299e-02
 -2.5125588e-03
  3.8583740e-03
  2.3748733e-03
 -2.4920295e-04
  6.2681064e-03
 -1.8109502e-02
  2.8697099e-03
  5.2853947e-04
 -4.9013309e-03
 -4.7866525e-03
 -8.3167767e-03
 -1.2559307e-02
 -2.8500566e-05
 -3.2564078e-03
  2.1702575e-03
  1.2309493e-02
  4.0465416e-03
 -2.3029367e-03
  7.9034381e-03
  5.6569437e-03
 -1.3650366e-03
 -6.3962168e-03
  1.3439065e-03
  1.8030410e-03
 -5.5619567e-03
  4.3111122e-03
 -1.7037707e-03
 -3.0908827e-03
  3.3354731e-03
  6.1014964e-04
 -9.3630906e-03
  7.2036413e-03
  1.4475186e-03
  3.5065468e-03
  5.5787858e-04
 -1.2726506e-02
  2.1197453e+00
 -1.3844472e-01
 -1.2011699e-01
  1.4591232e-03
 -7.4519321e-02
  2.2566471e-01
 -1.3215115e+00
 -1.1378448e+00
  1.6596379e-03
  2.1070805e-01
 -1.9290796e-01
 -3.1116977e-01
  7.4762409e-04
 -3.9137774e-03
  3.0853705e-02
  3.4294229e-03
 -6.9206972e-03
  3.8310983e-03
 -3.6912161e-01
 -3.2710729e-03
  2.9110031e-03
  9.3549090e-03
  3.0960789e-02
 -4.1965181e-01
 -3.0984897e-03
  7.2745993e-03
 -9.0855006e-03
 -3.0339740e-03
 -2.1773828e-02
 -9.9060607e-01
  7.5874291e-03
 -1.5244758e+00
  2.1999255e-02
  3.5671201e-01
  2.6237905e-02
  1.9652126e+00
 -2.1438548e-01
 -9.2701558e-03
  4.1495827e-01
  5.3179679e-03
  8.9948960e-02
  1.1549565e-02
  9.8317419e-04
  2.5406056e-03
  3.6096836e-03
  3.2274202e-03
 -1.4947549e-03
  7.2733574e-02
 -6.4216023e-03
 -1.1536549e-01
 -3.8946626e-01
 -8.6406302e-01
  4.1568416e-01
  1.0444171e-01
 -1.8397830e-01
 -1.5508549e-01
 -1.1746789e+00
  8.9438850e-01
 -1.8599243e-03
 -1.1317394e+00
  2.3821159e-01
 -6.9809657e-01
  1.3488288e-03
 -8.8787712e-03
  1.0366381e+00
 -8.1824787e-02
  2.7711414e-02
 -2.3370603e-04
 -1.6353359e+00
 -2.2429135e-02
 -5.5566631e-02
  2.2617663e-05
  2.6720396e-01
 -9.6393037e-01
  2.1142980e-02
  5.3579456e-01
 -1.5648088e-01
 -1.7368327e-01
 -2.4450766e-02
  7.0830899e-01
 -2.1551784e-02
 -2.5782993e-01
  3.5391146e-01
  3.9970377e-01
  1.0340011e-01
  7.7687132e-01
 -5.5553371e-01
  2.0496647e-01
 -5.9024417e-01
 -1.9958016e-01
 -5.4681289e-01
  1.6817749e-01
  2.1505419e-02
  2.6674934e-03
 -5.4179545e-02
 -6.9161206e-02
 -4.5375692e-04
  1.2896521e+00
 -3.8935616e+00
 -1.6455156e-01
  5.8423710e-01
 -7.9106539e-01
  1.4606247e-03
 -4.8160255e-02
 -2.4266663e-01
  3.2280799e-02
  1.2498560e+00
  2.8645599e-01
  1.9978819e+00
  4.7971299e-01
 -5.9282988e-01
 -6.1323255e-01
 -7.0849258e-01
 -5.6327200e-01
 -8.5202999e-02
 -2.8344753e-01
 -1.6166199e+00
  1.6853071e-04
 -6.5390939e-01
 -1.6802597e-01
 -1.1899443e+00
 -3.3207569e+00
  4.4800377e-01
 -6.1805278e-01
 -7.7269608e-01
  8.4726405e-01
 -1.8429285e-01
  5.5242109e-01
 -4.2491717e+00
  7.2517246e-02
  1.2209289e-01
 -3.3970001e-01
 -3.4508424e+00
  1.9063152e-01
 -1.3316936e+00
 -5.8340442e-01
 -6.1348617e-01
  1.7516048e-01
  1.0249697e+00
 -3.2229275e-01
 -6.8207037e-01
 -6.3912821e-01
  4.5603591e-01
  3.5385734e-01
 -1.3782294e-01
  3.4380537e-01
  1.0980923e+00
 -1.1918102e-01
 -3.4364223e-01
 -2.6752332e-01
  1.3462141e+00
 -1.7373815e+00
 -1.7481340e+00
  2.0429621e+00
  1.0442857e+00
  1.1778671e-02
 -7.0547312e-02
  1.5911810e-01
 -1.2936701e-01
 -5.1504987e-01
  2.2163198e-03
 -6.4005029e-01
 -7.1581103e-02
  2.0131578e+00
  3.8803831e-01
  1.2789941e-01
  1.0192466e+00
  3.6340322e-02
  7.8941596e-01
  1.1069334e-01
  9.9376369e-01
  5.0988239e-01
  7.8935313e-01
 -9.0749264e-01
 -4.0241641e-01
  7.5017430e-02
 -1.6474648e+00
  2.7359951e-02
  1.8305984e-01
  2.9985816e-04
 -1.7148323e+00
  3.2548568e-01
  1.4319733e+00
  1.1506687e+00
 -8.0575645e-03
  3.5685405e-01
  1.7959819e+00
  9.2715967e-01
 -3.3183906e-03
  1.2037305e-01
 -4.6995801e-01
  6.4941905e-02
  5.1079750e-01
 -3.4246469e-01
 -1.0430192e-01
  7.6403111e-02
 -3.3252484e-01
 -2.4900489e-01
 -1.1001616e+00
 -1.1014853e+00
 -9.4668694e-02
 -7.1487379e-01
 -9.5918469e-02
  1.3502470e+00
  4.1772082e-01
 -2.0624609e-01
 -1.0548879e-03
  2.3413335e-03
 -7.7847147e-01
  2.0138272e-04
  5.0241541e-02
 -2.8503321e-03
  4.6877784e-01
  6.6042417e-01
  1.0404252e-01
 -1.6230656e-01
 -1.0128281e+00
 -1.1795596e+00
  6.6744137e-01
 -7.4830219e-02
  1.5160111e-02
 -1.2588701e-03
  1.6854324e+00
  1.1322597e-01
  1.3035131e+00
  7.3175502e-01
  1.0938764e+00
 -4.0451071e-01
 -7.5993037e-01
 -7.1670460e-03
  2.5999171e-01
  5.5794245e-01
 -1.0946264e+00
  1.0387889e-01
 -8.0327820e-03
 -1.7207883e-02
  1.0891488e+00
  6.0187048e-01
  5.3804401e-02
  3.8747333e-03
  3.4041804e-01
 -1.6473233e+00
  4.2920709e-01
 -9.1260833e-01
 -2.2897630e+00
 -2.2552199e+00
 -1.4849803e+00
  6.9588218e-03
 -6.2382770e-01
 -1.0835378e+00
  1.4743385e+00
 -7.4961203e-01
 -8.3486885e-01
  3.8884526e-01
 -1.6971080e-01
  9.7960287e-01
 -9.9925196e-01
 -2.7533052e-02
  2.6634520e-02
  5.9303039e-01
 -2.0926543e-01
 -2.6548056e-02
  9.6010089e-01
 -3.8896221e-01
  7.8763968e-01
  1.0010400e-02
  1.7505760e+00
 -5.9372735e-01
  8.2513613e-01
 -1.3602953e+00
  2.8224049e+00
  9.4568509e-01
  3.3983284e-01
  6.5573859e-03
 -6.9737983e-01
 -7.2219610e-01
  1.5100704e+00
 -1.4087419e-01
  1.5118016e-01
 -4.9969187e-01
 -2.7702358e-02
 -1.2613809e-01
  3.0773953e-02
  3.4339390e+00
  1.0358233e+00
  2.7906451e-01
  7.0501250e-01
 -1.2015314e-01
 -1.6335617e+00
 -7.1842253e-02
  7.3164099e-01
  7.2029628e-02
 -9.6640513e-05
 -3.3057183e-01
  2.1678929e-01
  2.3849895e-03
  7.8860568e-03
 -2.6212253e-02
 -3.0107057e-01
  1.3183595e+00
  8.9462645e-02
 -3.0152500e-01
  1.0950122e-01
  9.3252641e-01
 -3.5012406e-01
 -1.1000005e-02
  2.4057281e+00
  2.3921617e-05
  1.3167577e+00
 -1.2704892e+00
  9.3831163e-04
 -1.6081207e-02
 -7.3782039e-01
 -3.7241774e-03
  6.9008291e-02
 -4.6113972e-04
  1.7172646e-02
  2.9665574e-03
  8.2013410e-01
 -6.4634043e-03
  1.5944815e+00
 -1.6591090e+00
  6.4286679e-02
 -8.0226183e-02
 -3.4570663e+00
  2.6742537e-02
 -4.9261130e-02
  3.0811003e-01
  5.1643455e-01
  2.0194378e-01
  1.2896648e-01
 -1.5825674e-01
 -2.2523293e+00
 -2.2628914e-01
  3.8848099e-01
 -3.1103766e-01
 -4.3544444e-01
  1.2165763e+00
  1.0826246e+00
 -1.7145369e+00
 -1.6143026e+00
  4.9976477e-01
 -1.5132736e-02
 -8.3850026e-02
 -3.7117553e-01
 -1.4488726e+00
  2.8469449e-01
  5.9798902e-01
  1.1150576e+00
 -7.5317943e-01
  2.3154624e-01
 -5.9675373e-02
  1.9723717e+00
  1.5649467e+00
 -9.1056398e-05
  5.5781436e-01
 -4.6988887e-01
  6.1860734e-01
  1.7976379e+00
 -2.4643269e-01
  3.2614741e-01
 -1.3775029e+00
 -8.3589327e-01
 -5.8929473e-01
  2.0980519e-01
 -6.8910047e-02
  1.3284531e+00
  1.4145108e-01
 -5.3322732e-02
  2.3571637e+00
  2.8040919e+00
  2.5865179e-01
 -1.4133629e-01
 -9.2219841e-01
 -1.2382903e+00
 -1.2926006e+00
  2.0377793e+00
  2.7348604e-02
  3.0424097e-01
  7.9011220e-01
 -1.1648151e+00
  1.3464332e+00
 -3.0616790e-01
 -1.0267340e+00
 -8.2708591e-01
 -1.3363321e-01
  7.7075529e-01
 -3.6726308e-01
 -8.6375982e-01
 -3.4386006e-01
 -7.2897512e-01
  1.0036590e-02
  9.7254562e-01
  5.4868031e-01
  2.0103912e+00
  1.1020585e+00
 -1.3440818e-01
 -3.0413276e-01
 -5.4844718e-02
  1.5534127e-01
  1.4840163e+00
 -2.7994841e-01
  5.6871146e-01
 -2.8977312e-02
  2.8097212e-01
 -4.1764489e-01
 -4.4474375e-01
 -1.6375974e-01
  2.2903940e-02
 -1.4398783e+00
  1.0849289e+00
  8.9530903e-01
 -1.0484104e-01
  6.4084369e-01
  4.1600782e-03
  3.9664409e-03
  2.0320830e+00
  6.0901721e-03
  1.5315285e-04
 -1.2736685e-02
 -4.9888304e-01
  2.9983073e-01
  9.9661148e-01
  3.8049322e-01
  1.7890905e-01
 -1.0501864e+00
  5.2056789e-01
  2.5822649e-02
  1.2715626e+00
 -2.2995821e-04
  2.2882044e-01
 -5.0993827e-03
 -9.5830184e-01
  1.9364066e-01
 -2.6558986e-02
  5.2823764e-03
 -1.4316540e+00
 -1.0507412e+00
  3.8447636e-01
  1.7529914e+00
 -2.5177154e-01
 -4.5607116e-02
 -6.8070793e-01
  5.2855742e-01
  3.7133604e-01
 -3.7561098e-01
  1.5830310e-01
  8.5222796e-02
 -6.8744051e-01
 -3.1727275e-01
  8.6340255e-01
  9.5583922e-01
  1.3408012e+00
 -3.4511536e-03
  8.7475872e-01
 -3.2575551e-01
 -1.1085579e+00
  9.2706728e-01
  1.6343968e-01
  4.7856745e-01
  7.9852200e-01
  1.3576250e-01
 -2.8478846e-01
 -2.4518174e-01
  3.7486565e+00
 -2.4250638e-01
 -5.6288447e-03
  3.6425076e-03
  7.6126456e-02
  3.1403021e-03
  6.1023720e-03
 -3.8127500e-01
  6.6152990e-01
 -1.1052043e-03
 -9.9186726e-02
  9.4002998e-03
  8.9516896e-01
  1.7563794e-02
 -1.5298390e-01
  3.6033487e-01
  1.1950756e+00
  3.4112819e-03
  2.3893623e+00
 -7.9490620e-01
  8.9534953e-02
  8.3387101e-01
 -3.6494508e-02
  4.8270732e-02
  1.5675393e+00
  2.1093287e-01
 -1.8787092e-01
  1.7136782e-01
  9.1423166e-01
 -5.4741789e-02
  5.6077868e-01
 -2.9323546e-02
 -2.6072088e-01
  2.7410945e-01
  4.5539837e-02
 -4.0864218e-03
 -4.0434772e-01
  1.8672921e-02
 -2.2451791e-01
 -6.5202051e-04
  1.2698658e+00
 -7.0636220e-02
 -5.7397699e-01
  9.8702847e-05
 -7.5048131e-01
  1.5379241e-02
  1.7845537e-01
 -4.0865216e-01
  7.7986574e-01
  3.8127053e-01
  3.9007425e-01
  1.5154929e-03
 -3.8889717e-02
 -4.5069687e-02
  1.7372204e-02
  7.1711773e-03
  4.0610428e+00
  6.5516174e-04
  1.0807443e-01
 -2.1261621e-01
 -1.0400735e-01
 -1.7840669e+00
 -1.5857777e-01
 -3.4789784e+00
  7.9973295e-02
 -4.8469263e-01
  9.4398552e-01
  8.8566417e-01
  3.0614195e+00
 -1.0811333e-01
 -4.0591747e-01
 -8.8836515e-01
 -1.5532804e-01
  1.6483763e-01
 -5.5497462e-01
  1.6653936e-01
 -1.9033890e+00
  2.5407571e-01
  9.6268082e-01
  6.8842494e-01
  1.0504700e+00
  9.1353869e-03
  2.5616348e-01
  2.0509868e+00
  2.2495835e+00
 -1.5171481e+00
 -1.0487444e+00
 -1.1644691e+00
  1.2737566e+00
  1.0745833e-01
  2.2698469e-01
 -1.2964395e+00
 -4.7100315e+00
 -6.1392760e-01
  6.4937711e-01
 -4.7789905e-02
 -1.6314929e+00
 -5.8175072e-02
  7.2576535e-01
  1.1767045e-01
 -2.1362286e+00
  5.6025743e-01
  3.1283358e-01
  2.0297358e+00
  9.8552459e-01
 -1.7388532e-01
 -6.6409892e-01
  1.2765198e+00
  3.7604549e+00
  2.2137172e-03
 -5.3747904e-01
 -3.1237414e+00
 -2.0341604e+00
 -1.4328460e+00
  3.5804200e-01
  2.1029153e+00
  2.5977957e-01
  2.9532146e-02
 -2.9416704e-01
 -7.6131402e-03
  2.7069122e-01
 -9.9395889e-01
 -1.5546312e+00
 -1.4603928e+00
 -2.7354804e-01
 -2.9416084e+00
  5.2871668e-01
  7.5231129e-01
  5.6082261e-01
 -7.9018199e-01
  2.6673293e-01
  7.4525785e-01
 -4.4560570e-01
 -2.0335960e-01
  4.3240669e-01
 -3.3661328e-02
 -1.3923028e-02
 -7.4528027e-01
 -2.3852017e-02
  1.1672435e-02
  5.5591315e-01
 -1.6503410e+00
  1.0294436e+00
  5.2940762e-01
  9.6630920e-03
 -4.0071297e-01
  9.0384036e-01
  5.3362179e-01
 -5.1199573e-01
  6.2386280e-01
  4.4780588e-01
  4.5036867e-01
 -3.6688113e-01
  5.5712175e-01
  6.6957879e-01
  6.8032557e-01
 -1.1439023e+00
  1.2088172e+00
 -3.5595398e+00
 -1.6555898e-02
  7.1376413e-01
  2.7528340e-03
  1.2488999e+00
 -2.3836617e+00
 -1.5190877e+00
 -1.9446446e-01
  8.0160487e-01
  1.1145120e+00
 -7.3208533e-02
  5.5426639e-01
 -1.5036540e+00
  7.6152354e-01
  2.4734745e+00
  8.6510554e-03
  5.9484619e-01
 -2.9038446e+00
 -6.7661107e-01
  3.7287068e-01
 -3.0794168e-01
  5.6713722e-03
 -3.1206229e-01
  7.8531634e-03
 -2.6268229e+00
  2.8107526e+00
  1.4621565e+00
  5.1614958e-01
 -1.2395936e+00
  1.0280682e+00
  6.3292193e-01
  3.7969160e-01
  8.8677156e-01
 -1.5562348e+00
 -1.2857492e+00
 -5.7800554e-02
 -5.0301929e-03
 -1.2877962e-01
  4.8990303e-01
  3.1254405e-01
 -1.1810235e+00
  1.5139214e+00
  1.6810373e+00
 -4.9880501e-03
 -6.8693101e-01
  9.2158633e-01
  1.2625678e+00
  1.1067514e-01
 -9.8933971e-01
  1.9437681e+00
 -1.3298789e+00
  3.1073225e-01
 -2.9643855e-04
  6.7235422e-01
  8.3417707e-04
  2.5065649e-02
  4.6428597e-01
  1.6258830e-01
  9.5754957e-01
 -2.7103601e-03
 -5.7556367e-01
  2.9263558e+00
  1.7946889e-01
  2.1805539e+00
  1.6428770e-01
  1.4929541e+00
 -9.1094151e-02
 -1.1612766e+00
  1.5697224e-01
 -3.1683105e-01
  1.8341627e+00
  1.9789137e+00
 -7.2881997e-01
  8.1893849e-01
 -2.0038399e-01
 -4.4475328e-02
  1.6530699e-01
  6.9102079e-01
 -3.8985607e-01
  4.5141831e-01
  6.6653806e-01
 -3.4594554e-01
  7.7120990e-01
  7.2878432e-01
  3.5136220e-01
 -1.2069068e+00
  4.1506916e-01
  1.8367136e-02
 -2.8962705e-01
 -6.8314439e-01
  2.3480028e-01
  2.7595320e-01
 -1.5300757e-04
  3.4758332e-01
  2.2521152e-01
  7.3754817e-01
 -2.3155381e-01
  3.4360778e-01
  2.6373041e-01
  5.3401965e-01
 -1.6582742e-01
  1.5355434e+00
  1.7539649e+00
 -4.2454472e-01
 -6.0602659e-01
 -8.4250774e-03
 -6.2913765e-05
  1.2980027e-03
  3.0130681e-01
  9.6187454e-01
 -2.3334830e+00
 -3.3306614e-01
 -8.9545453e-01
  3.2040286e-01
 -6.0743266e-01
  1.0504698e+00
 -8.9667815e-01
  1.7030234e-03
 -2.2086949e+00
 -8.2200509e-01
  5.7326263e-01
  3.9897826e-01
 -4.4021791e-01
  1.2505226e+00
  1.8594320e-01
  2.1586175e-01
  1.2733423e+00
  1.1905582e+00
 -1.5552372e-02
 -1.8659082e-01
 -1.8542340e-02
 -2.6059034e-01
 -7.5210530e-01
  3.5997128e-01
  1.0029463e-01
  1.7105099e+00
 -1.1010432e+00
  1.2249808e+00
  1.8913759e+00
  1.3990406e+00
 -5.0302804e-01
  5.7831645e-01
  2.0630522e+00
  7.4845701e-03
  1.2768365e-01
  4.8522301e-02
  9.6479946e-01
 -3.0387212e-02
 -9.1024607e-02
 -1.9325472e-01
  1.3150630e-02
  2.1724394e-01
 -1.5911034e+00
  1.6906466e+00
 -1.1267071e+00
  1.0954364e-03
  1.2491310e-01
  4.7434306e-01
 -4.1895681e-03
 -4.0331495e-04
 -1.1254472e-03
 -5.0669122e-02
 -1.1761664e-01
  5.0670762e-02
  2.2829647e+00
  7.4558282e-01
 -4.0369052e-01
  3.1868503e-03
 -1.1686619e-01
  3.9185813e-01
 -2.9169592e-01
  3.2372246e-03
 -8.5338384e-01
 -1.5038823e-01
 -9.5166796e-01
 -5.8614346e-03
 -1.6406685e-02
  5.5883765e-01
 -9.1485180e-02
 -2.9021509e-03
  7.1166652e-01
  9.9930370e-01
  1.6117301e+00
  2.8741065e-01
  3.7799644e-01
  1.7939031e+00
 -6.3808835e-01
 -2.6998606e-01
  5.6619936e-01
  2.3471405e-01
  1.1611742e+00
  4.9366793e-01
  9.8364836e-01
 -1.6162108e-01
  7.7097428e-01
 -1.6186881e-01
  7.3224664e-01
  2.8130409e-01
 -2.7066123e-01
  1.9005202e-01
  1.2554902e-01
  8.9996642e-01
 -5.3458953e-01
  8.8604651e-03
 -1.0416657e-01
  3.2866862e-01
 -5.1616001e-01
  2.7634820e-01
  2.0999461e-03
  8.8765189e-02
 -1.3819662e-01
  4.7549076e-04
  2.2034625e-02
 -1.9051384e-02
  1.6788380e-01
  4.5482910e-01
 -7.4125215e-02
  6.9355989e-01
 -6.6022062e-01
 -4.3552879e-02
 -4.7128138e-01
 -2.1792090e-01
 -3.1240734e-01
  6.6593403e-01
  5.4417056e-01
  4.2583802e-01
  1.8155889e-01
  1.0820094e-02
 -5.5850524e-02
  1.2205564e+00
 -4.7338340e-01
 -1.7959592e-01
 -9.4866985e-01
 -2.0207249e-01
  9.0421790e-01
  6.7257655e-01
  4.0845150e-01
  9.2744190e-01
 -1.4762186e+00
 -2.2584725e-02
 -8.3679199e-01
  2.6885867e-01
 -2.0551765e+00
  5.6087005e-01
 -3.7581855e-01
  1.2762935e-01
 -1.2574009e+00
  2.4681187e-03
  3.2819247e-01
 -2.7314585e-05
  4.9325857e-02
  3.2642614e-02
  4.9341980e-01
  8.1919646e-01
  1.8402305e-01
  1.5356512e-01
  1.7868602e+00
 -4.7367662e-01
 -2.8578406e-03
  1.3368256e+00
 -3.8697946e-01
  1.0609739e-01
 -1.8902380e-02
  4.8897469e-01
  3.5255887e-02
 -7.3821455e-01
 -1.9767277e-01
 -7.6167494e-01
 -5.0736785e-01
  7.9061550e-01
 -1.4138396e+00
  2.7571661e+00
 -2.0309873e-03
  6.0813564e-01
 -1.9906495e+00
  5.0119931e-01
  6.5052375e-02
 -1.4292625e+00
  4.4985756e-02
 -6.3610154e-01
  1.3068531e+00
  1.7460371e+00
  1.1388931e+00
  2.7475777e+00
  1.4950321e-03
  3.1383082e-01
 -5.7941442e-03
  3.8376385e-01
 -3.0274904e+00
 -9.5760047e-01
 -6.2100810e-01
 -1.7370456e-01
  7.3337823e-02
  2.3045120e-01
  6.0882445e-02
  8.4613484e-01
  9.1478169e-01
  1.0125246e+00
  4.4173560e-01
  2.1477830e+00
  8.3030677e-01
  9.7324014e-02
  2.1466844e-02
  1.2572516e+00
 -2.7732843e-01
 -5.5906379e-01
 -2.0096590e-01
  1.5426167e-02
  2.3359172e-02
  2.3359172e-02
  2.3359172e-02
  2.3359172e-02
  2.3359172e-02
  2.3359172e-02
  2.3359172e-02
  2.3359172e-02
  2.3359172e-02
  3.7800722e-02
  3.7800722e-02
  3.7800722e-02
  3.7800722e-02
  3.7800722e-02
  3.7800722e-02
  3.7800722e-02
  2.9012233e-02
  2.9012233e-02
  2.9012233e-02
  2.9012233e-02
  2.9012233e-02
  2.9012233e-02
  2.9012233e-02
  1.3580502e-02
  1.3580502e-02
  1.3580502e-02
  1.3580502e-02
  1.3580502e-02
  1.3580502e-02
  1.3580502e-02
  5.7021868e-03
  5.7021868e-03
  5.7021868e-03
  5.7021868e-03
  5.7021868e-03
  5.7021868e-03
  5.7021868e-03
  1.2225810e-02
  1.2225810e-02
  1.2225810e-02
  1.2225810e-02
  1.2225810e-02
  1.2225810e-02
  1.2225810e-02
