nep4 2 Cu Se 
cutoff 7 5 100 44
n_max 8 6
basis_size 12 12
l_max 4 2 0
ANN 50 0
 -3.9562741e-01
  2.0615302e-01
 -1.1519332e-01
  3.9429683e-03
  8.4226465e-01
 -2.4096704e-01
  4.9303004e-01
 -4.8275101e-01
  6.9704436e-02
  3.4946598e-02
  1.1070165e-01
  3.6413025e-02
  2.9828707e-02
  5.0378665e-02
  5.7446474e-01
  1.0466315e-02
  3.0299861e-02
 -1.8993005e-02
 -1.5787624e-02
  3.8833361e-02
 -9.1264896e-02
  5.1863128e-03
 -8.2641467e-02
  1.3022764e-01
  2.2269340e-02
  3.0282361e-02
  4.0130880e-02
  2.5979981e-01
  1.6493328e-01
 -2.1810688e-01
 -2.2933576e-02
  9.4138972e-02
 -1.0660585e-01
 -6.0065806e-02
 -4.2548329e-02
 -4.1875333e-02
 -5.9988862e-03
  9.7540654e-02
 -7.5540148e-02
 -1.1898646e-01
  4.2801436e-02
 -6.0625654e-03
 -4.5116905e-02
 -1.5960778e-03
  4.1348067e-01
  4.8253182e-02
  8.6366020e-02
  1.3488959e-01
 -7.7316833e-01
  1.2918659e+00
 -1.7345401e-02
  5.1519066e-02
 -2.5315219e-01
 -2.0371078e-01
  8.8057607e-02
  1.2758467e-01
 -2.7835315e-02
  4.4045760e-04
  1.6636981e-01
 -2.6297105e-02
 -4.7561303e-02
 -1.8279389e-02
  2.7798424e-02
  2.7202068e-02
 -2.8329399e+00
  7.0482276e-02
  1.7330244e-03
 -2.1006054e-01
 -1.0388601e-02
 -3.1346151e-01
  3.1933133e-02
 -6.5085441e-02
 -2.8113139e-01
 -4.7701085e-01
  2.1230057e-01
 -2.4250668e-02
  1.5054679e-02
 -4.7363102e-01
 -1.2341335e-02
  1.3659716e-01
  1.9799873e-02
 -4.9138211e-02
  1.8778209e-02
 -1.2460764e-02
  4.0110283e-02
  5.7791844e-02
  2.6930895e-02
 -3.4158537e-03
 -1.1368860e-01
  5.0659573e-01
  3.2291565e+00
  5.2387905e-01
  2.5491977e-01
  1.1344035e+00
  4.7508746e-01
 -4.5330629e-02
  9.1404706e-02
 -8.7709285e-02
 -4.9408514e-02
 -9.6109979e-02
  8.4184669e-03
  2.2364719e-02
 -2.1663122e-02
 -1.7115805e-01
  3.7425581e-02
 -1.5750754e-01
 -8.6005014e-01
 -6.2177993e-02
 -1.4501993e-01
 -5.0222320e-03
  2.1240911e-02
 -1.1744398e-02
  8.9482091e-02
  2.2525084e-01
  1.4763486e-02
 -8.8815652e-02
  8.3072826e-02
 -1.3371080e-01
 -1.4379323e-01
 -2.3878764e-02
 -6.8336222e-03
  1.2671095e-02
 -2.3658058e-02
  6.1269067e-03
 -6.2945825e-03
 -1.3620962e-02
 -1.3561752e-03
  3.5878778e-02
  2.0900244e-01
  7.7551015e-02
  8.4573142e-03
 -3.6036596e-03
  2.7718711e-01
  5.4860348e-01
 -5.7091065e-02
 -8.9635514e-02
  1.2517401e+00
 -2.4874447e-02
 -1.6795126e-01
 -2.3274145e-01
 -5.6476313e-01
 -3.4584362e-02
  1.8382625e-01
  2.0335473e-03
 -1.3541205e-02
  2.1267536e-01
  2.4874318e-01
  1.4199646e-01
  2.8050381e-01
 -3.5229492e+00
  7.5157815e-01
  2.7870163e-01
  8.0274248e-01
  1.8584205e-02
  8.4179854e-01
 -1.4198148e-01
  4.4368871e-02
 -2.2868769e-01
 -1.1770324e-01
 -1.3735355e-01
 -3.1276226e-02
  1.2335745e-01
 -5.9888400e-03
  7.6728642e-02
 -3.0596355e-02
 -9.2507005e-03
  6.7979572e-03
  3.5249129e-02
  1.2925582e-01
  5.5250917e-02
  1.6839080e-02
 -6.1575323e-02
  1.8989447e-01
 -9.8005101e-02
  7.6761097e-03
 -2.8203541e-02
  4.1983286e-03
  2.6513172e-02
  3.3484362e-02
  1.1646244e-02
 -1.3402766e-01
  6.2460065e-01
 -7.6442331e-01
 -1.0096492e-01
 -9.1867340e-01
  5.9924647e-02
  5.8211748e-02
  2.5802545e-02
  4.0154915e-02
 -6.2431488e-02
  7.3562074e-04
  1.9431440e-02
 -1.4289558e-01
 -6.2020265e-02
  1.5722806e-02
 -2.7999144e-02
  7.8474551e-02
  2.1164509e-02
 -4.9098775e-02
  3.3966113e-02
  1.9326275e-03
 -2.5205551e-02
 -1.5642844e-02
 -4.6221189e-02
 -1.9605502e-02
 -8.9049608e-02
  8.4947407e-02
 -3.1813480e-02
  1.0620299e-02
 -1.0886469e-01
 -1.8728707e-02
 -9.9993367e-03
  4.7390554e-02
  6.5992065e-02
  1.9923266e-02
  3.1623133e-02
 -4.5378640e-02
  1.7710868e-02
 -1.7986268e-01
 -1.3379146e-03
 -7.3317963e-01
  7.1599674e-01
  1.8486445e-01
 -5.2740055e-01
  4.7563684e-01
 -1.0031716e+00
 -3.7606683e+00
  1.5763152e+00
 -1.4620185e+00
  1.2202320e-01
  2.2700928e-01
  7.2471023e-02
 -1.0685736e+00
 -7.7498192e-01
  7.9821154e-02
 -5.7326958e-02
  5.3115571e-03
  3.1133687e-01
  4.2392331e-01
 -4.8697961e-04
  1.6763602e-01
 -1.6590782e-02
  1.9011022e-01
  1.7022875e-01
 -4.6317847e-03
 -1.5910730e-02
 -3.5153229e-02
 -5.1273143e-01
  4.6699092e-02
  5.5129904e-02
  1.7067944e-03
 -3.3693690e-02
 -1.8194844e-01
 -4.9824721e-01
 -3.2008827e-01
 -4.0497839e-02
 -2.7867638e-02
 -4.4792090e-03
  3.1231545e-02
  7.7293396e-02
 -2.7458720e-02
 -2.0013098e-02
 -1.9630621e-01
 -1.0935111e-01
  1.0433763e+00
  1.2486566e+00
 -7.0577431e-01
  1.0878066e+00
 -4.0997323e-01
 -2.0301917e+00
 -8.2702786e-01
 -1.4576237e+00
 -1.1653432e+00
  3.0867791e-02
 -6.3205995e-02
 -3.6780179e-02
 -6.8309240e-02
 -9.0301044e-02
  1.5092742e+00
 -4.6976283e-04
  4.4887200e-01
  1.0047879e-02
  6.6979239e-03
 -5.6422484e-01
  3.6804146e-01
  7.6675564e-01
 -1.2319802e-01
 -1.9362919e+00
  6.2286679e-02
  1.3439360e+00
 -1.0930390e+00
  7.6728962e-02
  2.6090705e+00
  1.6121563e-01
 -6.5505749e-01
 -5.8386739e-02
 -7.3912486e-02
 -3.5591632e-02
 -8.7204002e-02
 -4.1420804e-04
  1.3448672e-03
  9.1538787e-02
  1.3012281e-02
  1.8314086e-04
 -5.1692288e-02
 -6.5977285e-03
  4.7995370e-02
  8.6313691e-03
 -1.1319002e-01
  5.4394035e-03
  1.7989667e-02
 -2.8153583e-01
  4.0558044e-02
  9.1527343e-02
  5.3995941e-02
 -2.9055446e-02
 -4.4655497e-03
  1.6318921e-02
  9.3627244e-02
  7.8331679e-03
 -3.6057096e-02
 -5.2124176e-02
  2.6583754e-02
 -1.4161193e-02
 -6.4953454e-02
  7.7985134e-03
 -5.9450973e-02
  5.0629087e-02
  3.9801378e-02
  5.1881492e-02
  1.8044066e-02
  4.4501580e-02
 -6.4273506e-02
 -5.1464740e-02
  4.8319072e-01
  3.3452600e-02
  4.8093023e-03
 -2.7193688e-02
 -4.2637818e-02
 -1.5489666e-02
  1.8119045e-02
  7.8080073e-02
 -1.0217066e-01
 -2.2257138e-03
  4.0393872e-03
  1.3920453e-01
 -1.0834623e-02
  4.4228274e-02
  7.6776326e-02
 -1.4569357e-02
  8.4847756e-02
 -9.3619339e-03
  8.9702033e-02
  1.7847580e-01
  9.8900981e-02
 -3.2928908e-01
 -2.9649678e-01
 -2.7660340e-01
 -5.9585196e-01
  1.6879119e-02
  3.5382500e-01
  1.0014835e-02
  1.2986320e-02
 -3.2769439e-01
 -1.5375194e-02
  6.0136330e-01
  1.4263727e-01
 -6.0750592e-01
  1.0858009e-01
 -2.0154652e-01
  1.7911086e-02
  1.4119478e-01
  7.1744251e-01
  2.1885660e-02
  5.1252369e-02
  8.8580467e-02
 -1.5689069e-01
  7.5291790e-02
  2.2020993e-01
  2.4100272e-02
 -3.3938149e-01
 -1.3421048e-01
  7.5825606e-04
 -2.3562182e-03
 -1.5222728e-01
  7.0933834e-02
 -3.5564902e-01
  4.8910931e-02
 -1.4136042e-01
 -2.3876812e-01
  2.2251759e-02
  6.6175545e-03
 -2.7356954e-02
  3.8950179e-02
 -2.4023758e-02
 -1.5856946e-02
  8.7026012e-01
 -1.8024625e+00
  1.4690303e+00
  1.1548048e-01
 -3.7265760e-01
 -1.0804621e+00
  4.5549658e-01
 -1.4923213e-01
 -3.5495272e-01
 -6.8248447e-04
  1.0409446e-03
  4.8458155e-02
  1.6581471e+00
  5.0205743e-01
  8.2037345e-02
  7.1732834e-02
  1.2220932e-01
  5.0944068e-02
 -1.9513273e-01
 -2.7923122e-01
 -1.7559366e-02
  2.0864862e-01
  1.6573901e-01
 -1.0683845e-01
  1.8837826e-02
  3.4127879e+00
 -7.8603767e-02
  1.4252258e-02
 -4.8736018e-01
  6.4418912e-02
 -9.2653677e-02
  1.0241384e-02
  3.3111963e-01
  2.8453055e-01
  2.6720852e-01
 -5.2996004e-01
  8.1568313e-01
  1.9796924e-01
 -1.5439545e-02
  1.7024640e-02
  2.0466238e-02
 -2.0021563e-03
  3.6331058e-02
  4.1038435e-02
 -1.6549866e-01
 -4.3152180e-04
 -5.3560805e-02
  3.7345000e-02
  1.3360502e-01
 -1.0993091e+00
  3.6897905e-02
  2.6714658e-02
  2.6513486e+00
  9.1464752e-03
  4.0878374e-02
  1.1215157e-01
 -8.7052122e-02
 -6.0372509e-02
  4.2752288e-02
  5.0913438e-02
  1.7941872e-02
 -1.7241679e-02
 -1.8364850e-02
 -8.4625416e-02
 -4.2373039e-02
  1.0544522e-01
  3.0484747e-02
 -1.2176076e-02
  6.8203993e-02
  2.3777117e-03
 -3.1156855e-02
  2.1247407e-03
  1.1162640e-02
  7.0097171e-02
 -2.3990156e-02
  5.1894926e-02
  1.9227423e-02
  8.5233608e-03
  3.8615383e-02
 -7.9780802e-02
  8.4169231e-02
 -1.4568835e-02
 -2.7204320e-02
  6.3954266e-03
 -3.6040670e-03
  4.1991500e-03
 -7.4685350e-02
  7.6405570e-02
 -4.7040269e-01
  6.2652612e-01
  1.1173387e+00
 -7.8734130e-01
  6.5914357e-01
  6.4489293e-01
  1.4282891e+00
  1.7227684e+00
 -3.6735436e-01
  1.0696840e-01
 -6.6391903e-01
  6.1450028e-01
  1.2567140e+00
 -6.2703468e-02
 -2.6330888e+00
 -2.7381119e-01
 -1.5670878e+00
  1.2093778e-01
  1.6258897e+00
  9.9188119e-01
 -2.1350700e-01
 -3.5738799e-01
 -1.8528746e-01
 -1.1556745e+00
 -8.1338114e-01
  2.0249205e+00
 -3.4303254e-01
  9.2027944e-01
  6.3892019e-01
 -3.7825394e+00
 -6.2673521e-01
 -1.4177999e-01
  2.1174653e+00
 -2.0094420e-01
 -7.2137475e-01
  1.2066723e-01
 -3.1847765e+00
 -1.1733308e+00
 -7.8975774e-02
  6.3845879e-01
 -6.7664695e-01
  9.6434706e-01
  6.9476151e-01
 -2.5255111e-01
  1.6096181e-01
  9.2253499e-02
 -2.9015528e-02
  6.2699658e-01
 -1.7839892e-01
 -6.9252014e-01
 -1.1933327e-01
  1.6463158e+00
 -2.8584409e+00
 -4.3122634e-01
 -6.0351860e-02
 -3.8291851e-01
 -6.6574448e-01
 -8.6089581e-02
 -9.5599286e-02
  2.4479540e-01
  1.9406365e-01
 -3.0841911e-01
 -3.8929820e-01
 -2.1342102e-02
 -7.6747671e-02
 -1.5839407e+00
  3.8786314e-02
 -1.0471825e-01
 -2.9135797e-02
  3.3063683e-01
 -4.7281065e+00
 -3.6789421e-02
 -1.2369652e-01
  4.8702322e-02
  4.9598545e-02
  8.8622816e-02
  3.7696194e-02
  1.5266179e-02
  7.9097189e-02
 -4.7612265e-02
 -1.1372275e-01
 -7.1804106e-02
 -1.3787936e-01
 -3.0241637e-02
 -9.8324887e-02
  6.6024221e-02
 -1.2797119e-01
  1.4980309e-01
 -7.7491713e-01
  1.0300883e+00
  6.2744755e-01
  7.7562100e-01
 -1.7828548e+00
 -5.3248870e-01
 -9.3837410e-01
  6.0395086e-01
 -1.1639326e+00
  5.6519019e-03
 -5.4337755e-03
 -3.9686093e-01
 -1.0930687e-02
 -8.4763014e-01
  1.0401282e-01
  7.9294711e-01
  6.0363638e-01
 -6.8581212e-01
  1.4013625e+00
 -3.6240205e-01
 -6.9362395e-02
  3.1821251e-01
  1.1081026e+00
 -2.3431637e+00
  1.2932459e+00
  9.9193066e-02
  1.5040258e-01
  3.8978286e-02
 -2.6866400e-01
  2.9828531e-01
 -1.6086463e+00
  8.1862845e-03
  6.6550769e-02
  5.9593163e-02
  3.5665065e-02
  6.9194019e-01
  9.3912929e-01
  1.8095365e-02
  9.9212855e-02
 -1.0829843e+00
  8.5474610e-02
  4.9765041e-01
  7.8846104e-03
 -7.1098544e-02
  2.5727463e+00
 -9.4754985e-03
  4.4357944e-01
  5.8260894e-01
 -1.2493763e+00
 -6.2937386e-02
  4.5130825e-01
 -7.2670028e-02
 -1.0002613e+00
  1.9184323e-01
 -2.6858438e-02
 -7.9790339e-02
 -1.5879381e-02
 -2.2981750e-02
 -1.0831267e-01
 -1.5754671e-01
  1.2064449e-01
  8.8795856e-02
  3.1428894e-01
 -4.1569665e-01
 -1.3383129e-01
 -3.3495177e-02
 -3.8309589e-02
  3.5570139e-01
 -1.8809570e-02
  2.3065047e-02
  1.7206647e-02
  1.1517381e-02
 -1.4795379e-02
 -1.3868482e-01
 -2.8391662e-01
 -2.5370806e-03
 -1.1641810e-01
 -1.1603842e-01
  1.0209733e-01
 -1.0642624e-02
  5.0997734e-02
  6.2158734e-02
 -1.3015401e-03
 -5.9266663e-01
 -1.2360441e-01
 -2.1342201e-02
  1.0827620e-01
 -3.5675574e-02
  8.6156346e-02
  1.5640917e-01
  1.6366184e-01
  1.0642833e-01
  1.2602280e-01
 -2.3804809e-01
 -2.4843280e-01
 -4.9665000e-02
 -5.6265268e-02
 -8.3725065e-02
  1.3296744e-02
  5.9858538e-02
  2.9826146e-03
 -2.4716200e-02
  3.8395505e-02
  1.6139837e-02
  2.6050663e-02
  1.0329068e-01
  2.1038255e-02
  9.1218483e-03
 -1.2781074e-02
  2.0109089e-02
 -1.1858662e-02
  1.0236382e-01
  3.6359480e-01
 -1.4571606e-02
  9.3396977e-02
  8.2907178e-02
  2.5072403e-02
  2.3897953e-02
 -4.3568563e-02
 -3.1357063e-03
 -8.2329594e-02
 -1.0016260e-02
  1.6981515e-03
  2.0937683e-01
  1.7801128e-01
  1.4918021e-02
  1.4975467e-02
  2.4723403e-02
 -1.8871453e-01
  6.6957665e-03
  6.2354352e-02
 -4.5224708e-02
  9.2256153e-01
  1.6576657e-01
 -2.4677967e-01
  1.1325892e-01
  1.8408313e-01
  2.1628025e-01
  4.8883796e-02
 -5.5150542e-02
  1.1424263e-01
  1.2696613e-02
 -6.0952101e-03
 -6.8803760e-03
  3.5100941e-02
  1.7744750e-01
  4.7554757e-02
 -9.5920824e-02
  2.1465726e-02
  2.4474123e-03
 -7.3675528e-02
  2.2892779e-01
 -4.6941571e-02
 -5.4712035e-02
  1.7765105e-01
  7.1566880e-02
 -2.0165455e-02
  7.8613840e-02
  9.8702297e-02
  1.9640299e-02
  1.3684566e-01
  1.4737410e-02
 -9.4265761e-03
  1.4188185e-02
 -1.3313157e-02
  6.5051997e-04
 -9.1233060e-02
 -4.4701982e-02
  4.1378626e-01
  7.3869221e-02
 -3.7918440e-01
 -1.9958094e-02
  3.7340634e-02
  1.6377054e-02
  5.3259181e-03
 -5.3101750e-03
  6.3195869e-02
 -1.4220439e-01
  1.6507544e-01
 -1.1146559e-01
 -9.2525147e-02
 -9.2739314e-01
  3.0660906e-01
 -1.4055319e-02
  4.5433652e-02
  1.6834049e-01
 -5.5166446e-03
 -1.7858181e-02
  2.4330482e-02
 -4.2619210e-02
  1.9083129e-03
  2.6731420e-02
  2.9485464e-02
 -8.4413253e-03
  1.0692079e-01
 -8.0879974e-01
 -1.4903928e-01
 -3.5694833e-03
 -5.7980157e-02
  8.8565126e-02
 -1.5656850e-03
  1.1730725e-01
  1.0593080e-01
 -3.1077627e-03
 -2.0907262e-01
 -7.6273665e-02
 -3.1710932e-01
  7.6375492e-02
 -1.6427707e-02
 -7.1008608e-02
 -4.7526136e-02
  6.7522451e-02
 -1.1226902e-02
 -8.5630454e-02
 -1.8012954e-02
  2.1448353e-01
 -4.8605518e+00
  9.2389502e-02
  8.5562073e-02
  1.5015298e-02
 -3.8328809e-01
 -8.8757426e-02
  8.7189656e-01
  6.8113047e-01
 -6.1416429e-01
 -3.3586571e-01
  2.4323502e-01
  7.8290731e-01
  4.5287940e-01
  1.1278404e-01
 -3.1174254e-01
  3.9195576e-01
  1.6466509e-01
  6.0285640e-01
  1.0248138e-02
 -9.2737740e-01
 -8.3319753e-02
 -1.8340142e-01
 -1.1560084e-02
  7.1969666e-02
  3.0539131e-01
 -2.6053533e-01
 -8.1809066e-02
  7.2143954e-01
 -9.7126439e-02
  5.0173032e-01
  3.0025819e-01
 -2.0047480e-01
 -6.0067300e-02
 -1.0425855e+00
 -7.1566856e-01
 -1.1938620e-01
  1.7146030e-03
  6.4226896e-02
  7.3867840e-01
 -2.4057299e-01
 -6.1130810e-01
 -1.0172211e-01
 -8.5003749e-02
  2.2258271e-01
 -5.1215701e-02
  5.8897670e-02
  3.9102457e-02
 -3.8786583e-02
 -9.4742522e-02
 -5.7655439e-02
 -9.6066661e-02
 -6.9817960e-02
 -2.0257254e-01
  1.1840140e-01
 -1.6645826e-03
  6.6511184e-02
  1.4326327e-02
  3.6124844e-02
 -3.2596057e-04
 -1.1514837e-02
 -4.4527128e-02
  4.6799622e-02
  2.5665686e-02
  5.0863963e-01
 -4.5228102e-03
  5.2959183e-03
 -3.2037012e-02
 -4.9862970e-02
  1.4444668e-02
 -1.1822036e-02
 -7.3754871e-01
  4.8536666e-02
 -4.1580211e-02
  1.3355503e-02
  4.4382006e-02
  7.7144150e-04
  7.6852083e-02
 -4.0098049e-02
 -1.1352362e-02
  4.6798591e-02
 -6.6594165e-03
  2.4059811e-03
  1.4183443e-02
  5.7787853e-03
 -5.1490642e-02
 -8.7943941e-02
 -1.7951435e-01
  2.2634489e-02
  3.8404085e-02
 -2.0840307e-01
 -9.0025619e-02
  5.4368678e-02
  7.0894390e-01
  9.0736622e-01
 -6.4662910e-01
  2.5600535e-01
  5.0801051e-01
 -3.4094444e-01
  1.5008670e+00
 -1.8472534e+00
 -6.9607055e-01
  3.9857034e-02
  5.1295303e-02
 -1.0066229e+00
 -3.3476147e-01
 -4.0862650e-01
 -8.5695785e-01
 -1.6809413e+00
 -7.8176266e-01
 -1.8473776e-02
  9.2851035e-02
  2.1605283e-01
 -8.9475167e-01
  9.4559711e-01
 -3.8769352e-01
 -1.1649525e-01
 -3.6279941e-01
 -1.2858409e+00
 -7.1845019e-01
 -1.7748506e+00
  4.8611307e-01
 -9.9674296e-01
  1.3527270e-01
 -2.9149202e-01
 -7.2442222e-01
  2.8529413e+00
 -1.3413827e+00
 -7.7177942e-02
 -1.0532638e+00
 -5.4484829e-03
 -1.3411836e-01
 -2.1399975e+00
 -4.0779173e-01
 -2.5120360e-01
 -8.2996207e-01
 -2.6700001e-02
 -8.0135450e-02
  8.3417118e-01
  4.1092521e-01
 -1.0286972e-01
  2.1711381e-01
 -2.1194057e-01
 -4.5399043e-01
 -1.4130893e-01
 -6.2555182e-01
  4.6191716e-01
  2.5873351e-01
 -9.1105117e-05
  5.0602991e-02
 -4.2611688e-01
  4.5759562e-02
  4.5159962e-02
  2.3612687e-01
  9.1270363e-01
 -7.7896684e-01
  2.1466866e-01
 -6.5227114e-02
 -5.8077115e-01
 -4.9688321e-01
  2.0978045e-02
 -3.9296336e-02
  2.4429247e-02
 -1.0603238e-02
 -1.3290378e-01
  1.1657417e+00
  2.6752549e-01
 -1.9860702e-02
 -2.4941666e-02
 -3.6159515e-01
 -2.8724757e-01
  2.4821387e-01
 -5.0890278e-02
  9.2479996e-02
  5.3319669e-01
  9.8256180e-03
 -1.6910516e-01
  2.1283273e-03
  5.1779831e-03
 -2.1673466e-01
  7.1468681e-02
 -1.2882095e-02
  3.3948055e-01
  2.3494508e-02
  4.3554537e-02
  5.0808507e-01
  1.4561622e-01
 -7.1646625e-01
 -1.3286372e-02
 -2.0922882e-02
 -2.3447283e-02
  2.8458390e-02
 -2.0380639e-02
 -1.2366142e-01
  2.2610638e-01
  2.2829376e-02
 -5.1080219e-02
 -9.9789724e-03
  2.7634384e-02
  4.2539254e-02
 -1.4247204e-01
  2.2599632e-02
 -1.6222805e-02
  1.3609790e-02
  1.4969317e-02
  7.3915206e-02
  4.2940482e-02
  1.1449025e-02
  1.0732844e-01
  3.8340804e-01
  4.9003139e-03
  8.6368948e-02
  1.7680887e-02
  2.8910412e-02
  2.5960587e-02
  7.5068958e-02
  2.0982885e+00
  1.6962264e+00
  4.6327192e-02
 -1.8643287e-01
 -1.6793897e-02
 -8.8495985e-03
 -4.7831487e-02
 -1.1697218e-01
  1.0568858e-02
  2.8582901e-02
 -1.9842237e-02
  3.3887994e-01
  2.7044158e-02
  5.0473094e-02
  1.0410107e-01
  2.3306431e-01
 -2.6755744e-01
  3.2895221e-04
 -2.2934059e-02
 -2.8756345e-03
 -1.2992796e-02
 -3.5962984e-02
  3.3901684e-02
 -1.9688187e-02
  3.5450488e-02
  2.0520696e-02
  1.4814548e-03
  6.0542740e-02
  1.2288864e-02
 -2.5376186e-02
  4.1594040e-02
 -2.0215064e-03
  2.4514012e-01
  5.0321057e-02
  2.0687014e-02
 -1.4744020e-02
  9.5184250e-03
 -4.4378418e-02
 -1.9921241e-02
  3.1425867e-02
  5.4763872e-02
  4.1451685e-02
 -2.3331923e-02
  4.6099439e-01
 -1.1295665e-02
  2.1398602e-02
 -4.6608649e-02
 -8.6389035e-02
  2.5263999e-02
  2.2288255e-01
 -3.1453714e-02
 -4.2387168e-04
  7.3009230e-02
  4.2181683e-01
 -8.7503880e-02
  5.5407360e-02
  7.8851718e-01
 -1.3516686e+00
 -9.6725100e-01
 -5.9791100e-01
 -4.2130068e-01
  1.1900752e+00
  3.9445233e-02
 -2.7812395e-02
  2.2574818e-01
 -5.4319229e-02
  1.1128016e+00
  2.5093712e-02
  5.3177115e-02
 -2.0892449e-01
  8.6007960e-02
  4.3402657e-02
  1.4007661e-01
  7.6447153e-01
 -7.4357569e-02
 -1.4874573e-02
  7.8922510e-02
  1.7203020e-03
 -6.0957629e-02
 -8.9463241e-02
 -3.9182816e-02
  2.4095463e-02
 -1.2265306e-01
 -4.3396872e-01
 -1.1508984e-02
  2.9422320e-02
 -3.3572465e-02
  5.3849104e-03
 -9.5619395e-02
  3.4076981e-02
  5.3407691e-02
  4.8063897e-02
 -3.5310075e-02
  2.4472456e-02
  2.4792477e-02
 -9.9186599e-02
 -1.5804205e-02
  1.0589679e-01
  6.8464316e-02
  1.8848151e+00
 -2.1143427e-02
  1.0663242e+00
 -6.1774027e-02
 -1.9706491e-01
 -8.6148838e-03
  1.7181692e+00
 -3.6616541e-02
 -6.3890754e-03
 -3.4524590e-02
 -2.3842562e-02
 -1.0191514e-02
 -4.2965453e-02
 -4.1648906e-02
 -1.5185226e-02
 -6.3247502e-02
  3.0115493e-02
  4.4931034e-03
  6.2970258e-02
  5.4507613e-02
  4.1092459e-02
 -2.4804750e-02
 -1.6980361e-02
 -1.2092781e-01
  1.0699698e-01
 -2.5450535e-02
 -3.0666333e-01
  1.0353175e-01
 -2.7936677e-02
  3.8571727e-02
  3.6360193e-02
  5.8923587e-03
 -1.8916905e-02
  4.9984328e-02
  7.9520762e-02
 -1.7556174e-02
 -1.9117741e-02
 -7.3781349e-02
  2.3201410e-02
 -8.5490756e-04
  6.6880174e-02
 -4.8703421e-04
 -1.7521168e-01
 -3.6289236e-01
 -9.4734621e-01
  1.5114529e-02
 -6.6554137e-02
  8.8254968e-03
  1.6530204e+00
 -3.5107691e-02
 -9.0922278e-01
 -1.0734738e-02
 -5.2325260e-02
  2.8729395e-03
 -2.5977822e-02
  5.2316811e-02
 -1.2042000e-01
  4.3220807e-02
  6.3093722e-02
 -2.7119096e-02
  1.2140027e-01
 -5.2744754e-02
  1.2351676e-01
  2.9649335e-01
 -1.1949085e-01
  1.4766350e-01
  3.0281726e-02
 -6.4939752e-02
 -2.9414278e-03
  4.4026402e-01
 -2.3745283e-02
 -3.1554360e-02
  7.4254170e-02
  1.5444507e-02
  1.6770774e-01
  1.1475699e-01
  3.7707340e-02
  3.7057991e-03
  9.6149355e-02
 -9.7592752e-03
  1.3904880e+00
 -1.5963912e-02
 -4.5925077e-02
 -5.8217186e-02
 -1.0863190e-02
 -7.6542273e-02
 -3.6942035e-02
 -1.1169408e-03
  8.8537246e-02
  3.9564103e-02
 -6.8474784e-02
  1.8798338e-02
 -1.9142227e-01
 -1.9608650e-02
  2.8474769e-02
  2.1147326e-02
  2.7248397e-02
  2.2299496e-02
  2.7163865e-02
  2.5645744e-02
 -5.2559551e-02
 -2.7404008e-02
  2.7196582e-02
  4.8957789e-01
  4.6176098e-02
  1.1004657e-03
  6.9191046e-03
  7.6339394e-02
 -6.5354604e-01
  7.0996024e-04
  2.4073193e-02
 -8.4073174e-01
  2.6929668e-01
  1.0490764e-01
 -1.5693593e-01
  1.7599759e-01
 -1.3883160e-01
 -2.9805783e-02
  1.3415903e-01
 -1.1722173e-02
  4.1420460e-02
 -1.3261977e-01
 -4.2948492e-02
 -8.6418036e-03
 -1.5359325e-02
 -4.1552529e-02
  6.7584328e-02
  6.1507735e-02
  2.2301842e-02
  8.9839555e-02
  3.7767690e-01
 -1.4424084e-02
 -7.0048726e-01
  2.4528842e-01
  7.9173565e-02
 -3.3110049e-02
  1.9339297e+00
 -3.0730098e-01
  1.3852507e+00
 -4.1434083e-02
  2.6445702e-01
 -5.7400781e-01
 -8.1373081e-03
  1.9331014e-02
  9.2386387e-02
  2.1492727e-03
 -1.2521579e-02
  6.1126533e-03
  8.9625247e-02
  4.9995773e-02
 -1.6663638e-03
 -1.6932053e-02
  5.1184732e-02
 -9.1966093e-03
  1.2875659e-02
 -5.2111369e-02
 -1.6831081e-02
  2.7543822e-01
 -5.0982374e-01
  8.9647677e-03
 -1.8869635e-01
  5.7162322e-02
 -6.9096521e-04
 -2.6269861e-02
  2.7388650e-01
  6.1710156e-03
 -1.3376740e-01
 -1.7765948e-01
 -4.3073725e-03
  8.2911499e-02
 -2.5416646e-02
  1.4937945e-02
  4.8437282e-03
  3.0365327e-02
 -2.2378321e-01
  1.2094412e+00
 -6.3035876e-01
 -2.1798565e+00
  2.1537585e+00
  1.3904667e+00
  1.0683818e+00
 -7.4993275e-02
 -6.8444544e-01
  1.4524086e-02
 -1.8364987e-01
  2.3760410e-02
 -4.1684973e-01
  6.7962892e-03
  1.4992859e+00
  1.3558446e+00
  7.5325674e-01
  3.6078027e-01
  1.1045698e+00
 -7.8697342e-01
 -2.0582193e-01
 -9.3316424e-01
  4.7952218e+00
 -5.9113687e-01
  4.0129149e-01
 -2.0551209e+00
 -1.0052611e+00
 -4.1436797e-01
  7.6155674e-01
  6.3096249e-01
  7.0764124e-02
 -7.9957515e-02
 -1.9096684e-02
 -1.0314938e+00
  3.7828270e-02
  2.3410564e-02
  9.8050994e-01
 -2.5156653e-02
 -2.9675009e-02
 -2.1977496e-01
  4.5049357e-01
 -1.3158746e-02
  1.3125233e-01
  8.6583264e-02
  1.6372852e-01
  2.6555307e-02
 -2.4027750e-04
  3.3616383e-02
 -3.9543739e-01
  9.2191927e-02
 -2.2900447e-01
 -5.8075869e-03
  7.3324537e-01
 -1.9712087e-02
 -6.9336351e-03
  2.3940554e-02
 -5.0065584e-02
 -1.0098551e-02
  9.2511982e-02
  8.9120544e-02
 -3.9173192e-03
  6.1823007e-02
 -2.5069848e-02
 -7.2461672e-02
 -1.6965082e-01
  1.3856801e-01
  1.1204131e-02
 -3.6768194e-02
  2.3912138e-01
 -5.5552437e-03
  1.0195075e-01
  2.0367403e-02
  9.0035960e-02
  7.6222491e-01
 -4.8019119e-02
  5.7116551e-03
  4.0103775e-04
 -5.3835541e-02
  5.4769418e-03
 -1.1808703e-02
  1.7827246e-03
 -1.1903603e+00
  2.6484987e-01
 -4.8362933e-02
 -6.4675249e-03
  4.1395117e-02
 -2.0658724e-02
  2.1842387e-02
  4.5717013e-01
 -1.0331181e-01
 -1.1946713e+00
 -5.0391012e-01
  2.4498100e+00
 -2.3598905e+00
 -5.2674556e-01
 -7.1778888e-01
 -1.2093363e+00
  9.5263727e-02
 -9.6085712e-02
  2.5617352e-02
 -1.8852407e-01
 -1.4375979e-03
 -6.8898477e-02
 -4.0380083e-02
 -5.8723441e-03
 -3.4824762e-01
  1.7852496e-01
 -2.1065995e-03
 -9.8882097e-01
 -9.3550213e-02
 -3.3932250e-02
  2.3743303e-01
 -1.1844403e-02
  2.7042341e-01
 -4.1464847e-02
 -2.1134619e-02
  4.6346316e-04
 -1.9976771e-01
  3.1576732e-01
 -5.3380910e-02
 -4.9637505e-03
  4.5804426e-02
 -4.2306855e-03
 -8.9439377e-02
  7.3892111e-04
  8.9096604e-05
 -1.3924228e-02
 -9.0541132e-04
 -1.7247768e-02
 -5.3972147e-02
 -3.9413802e-02
 -4.6356391e-02
  1.1915911e-01
 -4.2617688e-01
 -1.8447021e-03
 -1.2133621e-01
 -4.5382547e-01
  7.0636237e-01
 -3.8674131e-02
 -6.7453820e-01
  1.0205091e+00
 -2.7978390e-01
 -1.1357530e-01
 -8.0995256e-01
 -4.7840241e-01
  5.0838226e-03
 -1.5225410e-01
  5.5559814e-01
 -1.5524005e-02
 -5.7504827e-01
 -2.1365583e-01
 -1.7843841e-01
 -4.7732815e-01
  4.2487869e-01
  6.8892604e-01
  4.1745655e-02
  1.1251036e-01
 -6.1172891e-01
 -1.7919026e-01
  1.2215561e+00
 -1.8724693e-01
  1.2324600e-01
 -7.2436267e-01
  5.5245888e-01
 -1.1017747e-01
 -2.4519481e-02
 -1.5114177e-02
 -6.3707787e-01
  1.7435400e-01
  2.0426895e-01
  4.9058232e-02
 -1.0997660e-01
  4.5424141e-02
 -4.3388777e-03
 -1.8464741e-01
 -6.0521033e-02
  7.6189183e-02
 -5.2469689e-02
  1.4168462e-02
 -1.0291179e-01
  5.6824386e-01
  2.3843225e-02
 -1.2720428e-02
 -1.5765682e-02
  2.1629112e-02
  1.0641766e-02
  3.1868123e-02
  3.0467970e-02
 -4.4323660e-02
 -9.7919423e-03
  3.9992996e-02
  1.8445279e-02
 -9.1917496e-03
 -2.1873087e-02
 -3.9830268e-04
 -4.4485964e-03
 -1.1125086e-01
 -2.1845046e-02
  9.0131693e-02
  8.6869940e-02
  1.6697975e-02
  2.2738457e-02
 -2.9402446e-02
  2.9374588e-01
  5.1602140e-02
 -7.3493280e-02
  2.9957913e-02
  1.2274044e-02
  2.6185902e-02
 -6.2154863e-02
  4.2678941e-02
  3.0714747e-02
  6.6329703e-02
 -8.1543047e-03
 -2.1120705e-02
 -3.4874447e-02
 -8.4219929e-03
 -6.5106869e-02
 -6.7249894e-02
 -4.8667528e-02
 -1.1050785e+00
 -7.4361926e-01
 -4.6524587e-01
 -9.6520253e-02
 -6.2748367e-01
  3.6315775e-01
  8.5219586e-01
 -9.8929578e-01
 -4.6496031e-01
  8.3591260e-02
 -4.5940123e-02
 -9.8038986e-03
  3.9824229e-02
  2.5138238e-01
  9.8388590e-02
 -1.8089324e-02
 -1.0546698e-01
 -1.6395390e+00
  2.5439197e-01
  8.5376807e-02
 -5.1328507e-03
 -1.1155368e-02
  5.2207913e-02
 -9.4189152e-02
 -2.4194078e-01
 -1.6051807e+00
 -2.3678666e-01
 -2.7419329e-02
 -1.2748685e+00
 -1.1075339e-01
 -4.8486504e-01
 -1.4132674e-01
  3.6995730e-01
  2.1354283e-01
 -7.5104665e-03
 -2.3999278e-02
 -4.6438392e-02
  5.1643558e-02
  4.2498257e-02
  2.0741299e-02
  3.4260802e-02
  1.3982596e-02
 -6.6868320e-02
 -2.7777376e-02
 -7.8061497e-01
  6.7665324e-02
 -1.0324135e-02
  4.0928662e-01
 -8.2588680e-02
 -1.9533192e-01
 -1.6139889e-02
  1.0290934e-01
 -1.8329251e+00
  1.1710126e-01
 -9.1703899e-02
 -5.3503629e-02
 -2.8296119e-02
 -4.3416098e-02
 -4.4833991e-01
  7.5264521e-02
  1.3400640e-02
 -5.0001595e-02
 -1.5592668e-03
  1.9977197e-02
 -1.5111420e-01
 -1.7875133e-02
 -1.0275841e-01
  9.3126474e-03
  2.8594069e-02
 -9.5986128e-03
 -2.8489842e-03
  3.4896068e-02
  2.4002729e-02
  5.7270288e-02
 -6.3664153e-02
 -4.8891231e-02
 -1.6254622e-02
  1.3499927e-02
 -1.3429622e-01
  1.1969175e-02
  3.1638324e-02
  3.5911832e-02
 -4.1150533e-02
  2.4487408e-02
 -3.7769724e-03
 -3.1943142e+00
 -2.3876678e-02
 -1.0304548e-01
 -2.5564069e-01
  2.0161510e-01
  1.0060381e-02
 -2.3337310e-02
 -1.0949375e-02
  3.6613590e-01
  2.8021377e-02
  3.4873244e-01
 -3.2195304e-02
 -3.7251953e-02
 -3.5995655e-02
 -4.8213489e-02
 -1.7817880e-03
  1.9606616e-02
  3.3817276e-02
 -4.9377557e-02
 -1.9210773e-02
 -2.1991968e-02
 -5.1537156e-03
  1.2824753e-01
  8.0013257e-03
 -1.3902751e-01
  1.0496259e-01
  2.4714123e-02
  8.6081046e-01
 -2.1891946e-02
  8.4542893e-03
 -1.2364343e-04
  6.7579940e-02
 -4.7067657e-02
  2.5018689e-01
  3.8975544e-02
  6.4974390e-02
 -2.3441512e-02
 -4.5386087e-03
 -3.6345612e-02
  5.3569879e-02
  7.2143730e-03
 -4.0407769e-02
  1.9407911e-02
  1.3583821e-02
  5.8567543e-02
 -2.8057992e-02
 -2.3766292e-02
  4.2512831e-01
 -1.4034146e-01
  5.7454307e-02
 -1.3018832e-01
  7.7107204e-03
  1.5850453e+00
 -1.0864930e-02
  1.4464994e-01
 -7.5984174e-01
 -2.2290859e-02
  1.3596493e-01
  2.7999822e-03
 -3.3651564e-02
  3.3132114e-02
  2.8450504e-02
  4.8707239e-02
  4.9880411e-02
 -8.1269741e-02
 -6.4786404e-02
 -1.2905873e-02
 -9.4279612e-04
 -2.2298241e-02
  2.3236971e-02
 -5.1529586e-02
  1.0039406e-01
  9.4318226e-02
  7.7460162e-02
  3.3615284e-02
 -4.7894649e-02
 -3.5992756e-02
 -8.1200805e-03
 -5.0572000e-02
  9.1554578e-03
 -9.6661560e-03
 -6.2908687e-02
  4.3631539e-02
 -6.5650241e-03
 -9.4922349e-02
 -1.2641315e-03
  2.0342672e-02
  1.5764295e-01
 -6.4964190e-02
  4.1530319e-02
 -3.7129492e-02
  2.5050104e-01
 -6.6666342e-02
  2.5285534e-03
  1.1555628e-02
 -1.7296690e-01
  2.8761838e-02
  1.2249079e+00
  3.5801444e-02
  3.7095913e-01
  5.1063169e-03
 -1.2029218e-02
 -1.5120095e-01
 -8.1639670e-02
 -1.4595698e-01
  9.6858274e-03
 -3.3843238e-02
  1.0437100e-01
 -6.5332413e-02
 -1.9217014e-01
  5.8230147e-02
 -3.1133464e-02
 -3.1226559e-02
 -1.8600296e-02
  8.8728294e-02
 -5.6557868e-02
 -7.2272872e-03
  5.9562740e-03
  2.5805876e-02
  2.7566394e-02
 -1.1810793e-01
 -5.6753896e-02
  5.1007204e-02
  4.2498328e-02
  4.7618218e-02
 -1.8170848e-02
 -3.5560327e-03
  2.5588892e-02
  2.1121277e-02
  7.6955952e-02
 -3.1929053e-03
  5.4362729e-02
  4.3807551e-02
  1.0724088e-02
  6.6469781e-02
  4.4260967e-01
  2.6656863e-01
  4.0751100e-02
  2.5347197e-02
  9.6246773e-01
  1.0939749e-01
  1.4495596e+00
  1.7989064e-02
  1.7899923e-02
  7.0352717e-03
  3.7166998e-02
 -2.4570489e-02
  1.7307740e-02
  2.3051618e-02
  4.1425720e-02
 -2.1973895e-03
  1.0301515e-01
  2.0616612e-01
 -1.4612619e-02
 -7.1081943e-03
 -6.4953573e-02
 -8.6748771e-02
 -2.6609367e-01
  7.7942379e-02
 -3.8430687e-02
 -6.0773812e-02
  7.7209380e-03
 -1.0515148e-01
  3.7840870e-01
  1.6060480e-01
 -1.5044406e-01
 -9.3106870e-03
 -1.7856197e-01
  1.2213740e-02
 -5.8511388e-02
 -3.0341733e-02
 -8.0533519e-02
  1.3769944e-02
 -1.8348828e-02
 -1.8121527e-01
  3.2434419e-02
 -9.6192211e-03
 -1.1428107e-01
 -1.5921781e-02
  1.0175768e+00
  2.0398071e+00
  8.3697754e-01
 -4.2477563e-01
 -9.0113646e-01
  9.5603988e-03
  1.5329156e+00
  3.1421721e+00
  7.9166067e-01
  2.2492390e-02
  3.4070443e-02
  8.0079031e-01
  2.3502399e-01
  1.1281873e-01
  2.9851982e-01
  4.4792500e-01
  7.6145756e-01
  3.7940058e-01
 -1.3691833e+00
  2.0070961e-01
  8.7682152e-01
 -1.2102824e+00
  1.3574322e+00
 -1.2485643e-01
 -1.4461572e-03
 -1.2009259e+00
 -8.8241966e-03
  4.0886575e-01
  4.1124439e-01
 -7.5817076e-03
  2.9738808e-01
  1.1350668e-01
 -2.5621513e-02
 -2.0283814e-01
 -1.2735622e+00
  1.6161098e-01
 -2.8116867e-02
 -2.0163810e+00
  3.2691900e-02
  5.8989886e-02
  2.9439492e-02
  4.8000544e-02
 -2.4191486e-02
  1.0653827e-03
  1.1477219e-01
 -1.3487364e-01
  2.7351075e-01
 -1.0260678e-02
 -1.5077640e-02
  9.2492259e-01
  1.7352486e-01
 -2.4599236e-01
 -2.0173471e+00
  4.0549299e-01
 -6.9751188e-02
  6.4895409e-01
 -8.1625074e-01
  1.9704416e-02
 -1.8159556e-01
  1.3972722e-02
 -3.1769794e-01
  4.2511299e-03
  8.3529614e-03
  5.3755801e-02
  2.7566329e-01
 -1.4841911e-01
 -1.8998916e-01
  2.5311869e-01
  5.6195449e-02
 -2.9382625e-01
 -2.6634562e-01
 -2.9535124e-01
 -3.6875587e-02
 -3.3295449e-02
 -6.1062579e-03
 -9.3973950e-03
 -8.5180858e-03
 -1.1187915e-01
  4.9142517e-02
 -7.7256992e-02
  1.6125778e-02
  1.4254169e-01
  2.5172334e-02
  7.8358152e-04
 -7.1882737e-01
 -5.8726307e-02
 -1.0150310e-01
 -9.0044234e-03
 -1.2381326e+00
  1.8955989e-02
  4.6714583e-01
  5.4376143e-01
 -2.5474000e-01
 -3.0923292e-01
  3.1229572e-02
  6.3337731e-01
 -9.0112381e-02
  1.5445554e-02
 -1.3223529e-01
  1.6781364e-02
 -3.5874616e-02
  2.6507785e+00
  6.2637323e-01
  1.3436896e-01
  1.2479027e-01
  1.2465975e-01
 -4.9625784e-02
 -7.0025599e-01
 -8.8320494e-02
  4.5081830e-01
  2.6807327e-02
 -1.1722556e-02
  1.1424208e-01
  3.1106973e-01
 -1.9881381e-02
 -1.0410423e-01
  1.1862253e-02
  4.6883050e-01
  5.9695140e-02
 -1.0929981e-02
  6.3460581e-03
  1.2334149e-02
 -4.1831285e-03
  1.7002618e-02
  2.0524800e-01
  5.6050706e-01
  3.9292570e-02
  3.5954922e-02
 -6.8952418e-03
  3.3955645e-02
 -2.4065214e-01
 -1.6562544e-01
 -5.7967577e-02
 -3.9911869e-01
  3.5882834e-02
  8.9657791e-02
 -4.8400890e-02
  3.9199363e-03
  1.8103470e-01
  1.6415801e-02
 -3.8867801e-01
 -8.5397558e-03
  1.7686640e-01
  3.0454069e-03
  1.4083545e-01
  1.6779358e-02
 -2.4337687e-02
 -4.6086007e-01
  2.7576016e-02
 -1.5942219e-01
 -1.4408037e-01
 -1.0612091e-01
 -1.4062256e-01
  2.7817262e-02
  2.8498208e-02
 -8.2507795e-01
 -1.7052896e-01
 -7.0896529e-02
  4.0965441e-01
  1.2403207e-01
 -3.1178689e-01
  2.3879112e-01
  6.4445622e-02
 -2.3399854e-01
  1.8566143e-02
  9.4816387e-03
 -4.5158166e-02
  2.4829828e-03
 -1.8161025e-02
 -1.8618000e-01
 -2.6689459e-02
  6.6029377e-02
 -3.5581760e-02
  5.0163336e-02
  4.7012813e-02
  4.9486756e-02
 -1.0208373e+00
  1.1064779e+00
 -4.4492140e-01
 -4.6300685e-01
  9.7910535e-01
  6.0757697e-01
 -2.7974198e+00
  9.0499121e-01
 -9.5616978e-01
 -1.7748756e+00
 -5.9075590e-02
 -3.1875160e+00
  5.6777668e-01
  1.6006891e+00
  4.4932702e-01
  7.7103716e-03
 -6.3054854e-01
 -3.7047711e-01
  6.2635881e-01
  3.0924452e-02
 -7.2044052e-02
  1.4102805e+00
  4.2375955e-01
 -9.8855710e-01
  9.4296712e-01
 -1.4186631e+00
  5.7106692e-01
 -4.1443518e-01
  6.0692608e-01
 -1.4243193e-01
 -2.2463883e-01
  4.6067530e-01
 -3.2957777e-01
 -2.3651688e+00
  6.4609718e-01
 -8.2991749e-02
 -4.5040479e-01
 -3.1415308e-01
 -1.8999997e-01
 -1.3768247e-01
  2.3815230e-02
  8.1413835e-02
  3.8958514e-01
 -2.1146717e-02
 -9.0833217e-01
 -4.1755566e-01
  1.0756868e-01
  2.7759832e-01
 -1.7814793e-01
 -3.1908352e+00
  1.2649525e+00
  3.5555795e-02
 -8.0662978e-01
 -2.7456227e-01
  3.6386687e-03
 -3.9005242e-02
  4.3886542e-02
 -2.9199757e-04
  4.6776649e-01
  7.3193749e-03
 -2.1640211e-01
 -3.8374763e-02
 -4.4463262e-01
  1.0492384e-01
  7.4801780e-02
 -8.6936074e-01
 -8.5946277e-02
 -2.9474449e-01
  1.1057041e+00
 -4.1003296e-01
  2.3276964e-02
 -5.4958731e-02
 -1.8364370e-02
 -2.8446475e-01
  7.8364640e-02
  6.1846066e-02
  8.0153719e-02
 -6.7177713e-02
  2.6075268e-02
  6.4465841e-03
 -3.3877052e-02
 -1.3812728e-01
  1.7047921e-02
  2.3017826e-03
  5.2988518e-02
  4.1865405e-01
  2.8495315e-02
  2.4965916e-02
 -4.3825784e-01
 -2.5510887e-02
 -1.0526922e-01
  7.6503709e-02
  2.1552418e-01
 -2.6164150e+00
 -3.5898867e-01
 -1.8451086e-01
  1.1646306e-01
  3.7598982e-02
  6.1126113e-02
 -4.9647883e-02
 -1.4254904e-01
 -2.1263149e-01
 -1.7462148e-01
 -3.1258345e-02
  2.9633380e-02
 -2.0588897e-02
  1.5722239e-01
 -2.7604491e-02
  1.9353013e-02
  3.2432087e-02
 -4.0688119e-03
  3.0650740e-02
  2.3642756e-02
 -5.6267355e-02
 -5.0867647e-02
 -1.6417211e-01
  2.4936873e-02
  6.2064216e-02
  7.4219659e-02
 -1.2221516e-02
 -5.5781235e-03
 -1.9880619e-02
 -1.0304153e-03
  3.4390058e-02
 -4.6583090e-02
 -2.3675773e-02
  1.7588397e-02
 -1.7043104e-02
  1.5598413e-02
  8.6582219e-03
 -3.5428259e-01
 -5.5863447e-02
  1.7179869e-01
 -3.1255570e-03
 -4.6484675e-02
  6.8999720e-03
 -7.9824422e-03
  9.3206060e-01
 -4.8524388e-03
  1.4678078e-02
 -3.9987820e-01
 -4.3707564e-03
  7.1544006e-02
  7.9005167e-02
 -2.8889641e-02
  4.2850222e-02
  1.4332405e-01
 -1.3518124e-03
 -4.0497869e-02
 -7.2843224e-02
 -1.3225878e-02
  1.1272689e-01
 -2.8667076e-02
  1.8711863e-01
 -4.8149120e-02
  4.3708358e-02
 -1.2175608e-01
  5.9538648e-02
  2.2184238e-02
  5.8719767e-03
 -8.8953398e-02
 -1.4478054e-02
  1.5419346e-01
  2.2683803e-02
  9.7770929e-02
 -1.4168382e-02
 -9.6369319e-02
  8.7314658e-02
 -3.4362350e-02
 -3.6135107e-02
  4.7264695e-02
 -8.3590053e-02
 -7.2833430e-03
 -5.7219886e-03
  1.0187997e-02
 -2.3222629e-02
 -5.9308702e-01
 -2.0071502e+00
 -1.7971078e-01
 -6.0956240e-01
  8.4035712e-01
 -6.2515730e-01
  2.6994714e-01
 -9.5092691e-02
  5.6643659e-01
  3.7564236e-01
 -4.4307116e-02
  3.6625147e-02
  8.9802425e-03
 -2.1209870e-02
 -7.6103032e-02
 -2.2378132e-01
 -1.8519515e-01
 -6.1899829e-01
  4.1270242e-03
 -3.0134428e-01
 -4.2338412e-02
  8.8824578e-02
 -1.9832048e-01
  1.2415463e-01
 -7.9586208e-03
  5.6410939e-01
 -2.5595316e-01
  2.4557844e-01
  4.0309865e-02
  8.9721605e-03
 -3.0516616e-01
  1.1431218e-02
  2.9707592e-02
  2.5279859e-01
  1.7764141e-01
 -5.1606286e-01
  1.9230688e-01
  1.1866530e-02
  2.6235675e-02
 -3.3595109e-01
 -3.7640739e-02
 -9.6081659e-02
  1.3053888e-01
 -8.5041314e-02
 -1.1818186e-01
 -1.9322814e-01
  2.8802037e-01
 -4.6823940e-01
 -3.0281124e-01
 -4.1902557e-01
  1.1554610e+00
  1.1356889e-02
 -6.8971845e-03
 -5.6412321e-01
 -4.0272760e-01
 -1.2793765e+00
 -4.2638549e-01
  7.6893139e-01
 -1.2706192e-01
  6.4744484e-01
  3.7220001e-01
  2.4398755e-02
  1.0519158e+00
  5.8074301e-01
  5.3512162e-01
 -1.0566291e-01
  8.6163121e-01
  2.3526050e-01
  7.3665634e-02
  1.9138636e-02
 -3.9803809e-01
  3.9443433e-01
 -7.6802647e-01
 -7.9161063e-02
  1.0370150e-01
  7.3249027e-02
  4.3605608e-01
  3.4844175e-02
 -1.6308400e-01
 -1.1307891e-01
  1.0529203e-01
 -4.2441316e-02
  2.5660446e-02
  2.1123001e-04
 -2.3000080e-02
 -1.1203687e-02
  4.6519068e-01
 -4.3852895e-02
  4.0985757e-01
 -3.9328423e-01
 -1.7513750e+00
 -1.3400944e+00
 -9.1449285e-01
 -8.4540188e-01
 -1.7643625e-01
 -1.3872914e+00
  1.4286065e+00
  5.7972819e-01
 -7.3572353e-02
 -1.8452741e-01
  3.9174733e-01
  2.4148116e+00
  1.2895552e+00
 -5.2427027e-02
  1.1872244e+00
  4.8693010e-01
 -1.3437121e+00
 -3.4351975e-01
 -1.9297278e+00
 -1.2247002e+00
 -1.3531562e-02
  5.2364338e-02
  1.3614440e+00
  5.9726280e-01
 -1.4823033e+00
  7.1625823e-01
  3.3464357e-01
  2.0732405e-02
 -5.3101987e-02
 -7.4034464e-01
 -1.8019894e+00
  1.2585120e-01
  8.1298389e-02
 -7.7777827e-01
  2.9329774e+00
 -6.3507986e-01
  7.0964836e-02
  1.1944770e-01
  7.8023487e-01
  8.3683771e-01
 -2.0287443e-02
 -4.3811446e-01
 -3.1771615e-01
 -4.5640403e-01
 -1.4844042e-02
 -4.3941434e-02
  2.2963999e-01
 -1.7531492e+00
  7.5083464e-01
 -8.2479066e-01
 -1.9408548e-01
  2.7037057e-01
  2.1285179e+00
  2.6577163e+00
  1.9727711e-01
  1.5474972e-01
 -1.1995585e+00
  1.9902197e-01
  5.3251040e-01
 -7.6071954e-01
 -6.9707388e-01
  2.3415245e-01
  5.4024220e-01
  1.0243731e-01
 -1.3010928e-01
 -4.7073010e-01
 -4.3629855e-01
 -1.4601405e-02
 -4.0689403e-01
  1.1536313e+00
  1.6754752e-01
 -3.5374202e-02
  1.0658900e+00
 -2.8782413e+00
  9.0030271e-01
 -2.7012555e-02
 -1.3190162e+00
  3.4091058e-01
  8.1283525e-02
  9.8699935e-02
  2.0405517e+00
  2.3451000e-02
 -8.7532930e-02
 -4.2815086e-01
  5.2616172e-02
 -1.3582228e+00
 -4.4216398e-02
  3.0865449e-01
  1.8923448e-01
  3.6921445e-01
  1.9679418e-01
 -3.4639436e-01
 -2.9314270e+00
 -1.4838035e+00
  1.4105484e+00
 -1.5411904e-01
  1.4278189e+00
  8.1618631e-01
 -4.2777166e-02
  9.7653002e-02
  4.7026476e-01
  2.9781174e-02
  6.0160484e-02
  3.7133980e-01
  1.8908285e-02
  1.0313023e-01
 -5.3411059e-02
 -7.2056949e-02
  4.3346334e-02
  1.1234128e-01
  1.4137086e-01
  2.5234479e-01
  2.7545068e-02
  2.9598452e-02
  8.6561643e-02
  4.0172033e-02
  7.7748299e-02
  4.2239387e-02
 -5.4558851e-02
 -3.4864072e-02
 -2.2189241e-02
  1.6092892e+00
 -4.3713223e-02
 -6.1448138e-02
 -1.9340083e-02
 -2.7716927e-02
 -4.3427814e-03
  2.4849283e-02
 -1.2819232e-01
 -1.3023330e-01
 -2.1906480e-02
  5.2600157e-02
  2.2144431e-02
  4.8304066e-02
  9.3370318e-02
  5.1176816e-02
  2.5415616e-02
 -1.3309710e-02
 -5.6276947e-02
  8.9523494e-03
 -9.8618835e-02
 -1.0459542e-02
 -2.7358709e-02
 -3.9378956e-02
  5.6176763e-02
 -2.7700853e+00
  1.5161052e-02
  1.6260706e-02
 -5.5316086e-03
  4.8061568e-02
 -9.0783425e-02
  9.1165118e-03
 -1.4620764e-02
 -2.2129469e-02
 -1.5056692e-01
  4.4728257e-03
  2.1082667e-01
 -2.2111187e-02
  5.0438706e-02
  6.9866613e-02
 -1.2626444e-01
 -4.9781043e-02
 -5.9729367e-03
  1.8899523e-02
  4.2347729e-02
 -1.0081956e-01
 -1.6722155e-01
  4.1657109e-02
 -1.2875339e-01
 -4.0021776e-03
 -2.8789245e-02
  9.0833135e-02
  4.8043747e-03
 -1.3552533e-01
  4.1469704e-02
  7.9596415e-02
 -7.4530393e-02
  2.3308065e-02
  1.0116654e-01
  5.0448414e-02
 -3.3905860e-02
  4.8515614e-02
  4.0201999e-02
  9.1210365e-02
  8.4019247e-03
 -3.5695683e-02
 -2.0185946e-01
  1.3456690e-01
 -7.7775317e-01
 -4.1235557e-01
 -1.4544685e-01
  2.8425750e-01
  7.9454768e-01
 -4.6210885e-01
 -2.4848902e-03
  2.5467652e-01
 -8.8844895e-03
 -1.1746695e-03
 -9.6741661e-02
 -1.0997654e-01
 -1.2217796e-01
 -1.4046472e-01
  5.8839418e-02
 -3.9104708e-02
 -3.9693737e-01
  1.4739682e-01
 -7.0199706e-02
 -4.7141728e-01
  7.6568224e-03
  1.3530514e-02
 -7.5508140e-02
  1.5323121e-03
 -1.8207370e-01
  8.0472611e-02
  1.8939128e-02
 -1.8490839e-01
  1.6665727e-01
 -9.5776595e-02
  2.5109101e-02
  1.0459223e-01
 -3.4418246e-01
  2.3021623e-02
 -7.7552922e-02
  5.2998420e-02
 -7.4336521e-02
  2.5527072e-01
  7.6059625e-03
 -4.5334198e-02
  2.5945593e-02
  2.2209845e-03
 -4.6887502e-02
  4.5506335e-03
 -5.5181839e-02
 -7.5369850e-02
  2.4682548e-02
 -9.3402302e-01
  1.4174744e-02
 -1.9392763e-01
 -2.4781790e-02
 -4.0557981e-02
  7.6343358e-02
 -9.3468033e-02
  2.5608083e-02
  6.5869689e-03
 -7.3425621e-02
 -1.8374136e-03
  2.0978188e-02
  2.1893039e-02
  1.5465164e-02
  6.5180375e-03
 -2.3131954e-02
 -6.1488631e-03
  3.0132186e-02
 -1.7969593e-02
 -4.0776663e-02
 -2.2271121e-01
  8.2501277e-02
  1.4526928e-03
 -2.9573265e-01
 -4.3136038e-02
 -1.4485780e-02
 -1.3120065e-02
  3.1827807e-02
  3.2464363e-02
 -3.0864140e-02
  1.9796457e-02
  2.4925193e-02
 -3.0516349e-03
 -1.0175315e-01
 -9.2040241e-02
 -9.8600034e-03
  2.4041056e-03
 -3.8344681e-02
  5.4510683e-02
 -1.6447814e-01
  1.1161319e-07
 -3.6581680e-02
  1.0333333e-02
 -1.1241717e-03
 -2.0489639e-02
  7.7218391e-02
 -1.2097594e-02
  1.9731359e-03
  4.5196060e-03
  7.8955600e-03
  3.2817286e-01
 -1.4166391e-02
 -6.7643747e-02
  1.0750385e-02
  1.4084496e-02
  2.4808748e-02
  2.1441609e-02
 -4.0898006e-02
  9.4096787e-02
 -1.5471035e-02
  1.7262073e-02
  3.5136476e-02
 -2.0141147e-02
 -2.0750934e-02
 -1.0888088e-02
  4.6341387e-03
  1.2099935e-01
 -1.2216689e-02
 -7.1657196e-02
  3.7438415e-02
  6.3903153e-02
  9.6442821e-03
  1.1819380e-01
 -2.1780409e-02
 -1.6006708e-02
  8.6393096e-03
 -1.1493213e-02
 -3.8503841e-02
 -3.8554301e-03
 -7.4037127e-02
 -1.2792507e-02
 -7.4355885e-02
 -7.3317274e-02
 -4.1861389e-02
 -1.7159265e-02
 -2.5042525e-01
  1.0850056e-01
 -5.2412736e-01
 -1.3095063e+00
  2.0749958e+00
 -3.7508836e-01
  4.2375047e-03
  2.0885400e-02
 -3.2574378e-02
  1.4645308e-02
  1.2477024e-02
  1.1318649e-01
  4.9511876e-02
 -5.4789994e-02
 -9.5455088e-03
 -5.2411385e-02
  2.5214326e-02
  5.0259054e-02
 -2.9366314e-03
  2.9251812e-02
  3.4547053e-02
 -2.5362007e-02
 -4.7227368e-04
 -5.6165852e-02
 -1.8855718e-01
  2.8073808e-02
  4.2470347e-02
  2.5008870e-03
  2.6816370e-02
 -2.3749392e-02
  3.8352951e-02
  8.1670493e-02
 -1.0103935e-01
  2.1616049e-01
  1.0900122e-02
  4.8309896e-02
 -2.6331758e-02
  9.0176664e-02
  2.3644187e-02
  1.8158024e-02
  1.2206062e-03
  1.9226617e-01
 -2.3083399e-01
 -1.8343484e-01
  2.5214660e-01
  2.5499821e-01
 -9.1590869e-01
  1.2221010e-01
  1.7698167e-01
 -4.4380134e-01
 -6.6032827e-02
 -9.3042612e-02
  2.6045721e-02
 -1.0994982e-01
 -2.4596472e-01
 -4.3959504e-01
 -9.2477813e-02
 -9.9064261e-03
  1.9972356e-02
  2.8825509e-03
 -5.9248619e-03
 -2.1241287e-02
 -2.2651970e-02
  7.2055453e-01
 -3.2079485e-03
  1.8613644e-02
  2.4213156e-02
  4.6818007e-02
  7.3302113e-02
 -9.7897863e-03
 -2.3114139e-02
  2.4830378e-03
 -4.4002991e-02
 -2.0017575e-02
  2.7257230e-02
 -4.9719911e-02
 -5.3963102e-02
 -2.6214406e-01
 -1.0557475e-03
  7.4482118e-03
  4.2361073e-02
  1.5602672e-02
 -1.3809711e-02
 -3.0424219e-02
  4.1783899e-02
  1.9134457e-03
  1.2793298e-01
 -1.4889655e+00
 -1.1105743e-01
 -1.8601587e+00
 -1.3375454e+00
  1.3813218e+00
  3.8246998e-01
  3.5058489e-01
  4.3818641e-01
  3.8784611e-01
  2.5192216e-01
 -1.4786483e-01
  2.9192418e-01
 -1.3060486e-01
 -1.6261247e-01
  1.0639502e-01
  3.4742987e-01
 -1.2487005e-01
  8.8449150e-01
  3.5901326e-01
  3.2915786e-01
 -1.5319830e-01
  1.9650115e-01
 -8.1331140e-01
  3.9133942e-01
 -4.7810757e-01
 -5.0311023e-01
  7.7872984e-02
 -7.5281578e-01
  8.3516073e-01
  8.7272614e-02
  1.0650633e-02
 -1.6419914e-02
  3.2870919e-03
 -3.0427185e-01
  5.0797051e-01
  1.2831837e-01
  1.0395568e-02
  1.7727633e-01
 -1.0997173e+00
 -3.1186886e-02
  3.2377027e-02
 -2.2236302e-01
  5.9786841e-02
  3.7734758e-02
  8.0587761e-03
 -8.9750506e-02
  3.3409217e-01
  6.5204859e-01
  7.7060533e-01
 -3.1042659e-01
 -5.2026391e-02
  1.4323725e+00
  5.1522125e-02
  7.2265223e-02
  6.4960390e-02
  8.3825879e-02
 -5.8719039e-01
  3.5816815e-01
  4.6730839e-02
  3.4704827e-02
  2.0595051e-02
 -2.9279616e-01
 -6.3100532e-02
  7.3808283e-02
 -1.1245804e-01
 -3.7093803e-02
 -1.9282174e-01
  1.3258170e-01
  1.1724066e-01
 -5.7050470e-02
 -2.8198823e-02
 -1.8843327e-02
 -3.8203001e-02
 -1.0439603e-01
  3.4648152e-03
  3.2235122e-01
  1.7259654e-02
  7.5619933e-03
 -3.0114736e-02
 -7.7560671e-02
 -7.7038661e-02
 -2.1713090e-03
  4.5834713e-02
  1.3902143e-01
 -4.0186983e-02
  1.5210535e-02
  1.2077277e-03
 -5.5640823e-01
  7.5510770e-02
  2.9498287e-02
 -2.6738289e-01
 -1.6525645e+00
  6.3422370e-01
  9.3223518e-01
 -5.0689813e-02
  5.0955868e-01
 -3.9618816e-03
 -1.9144683e-01
  1.1945077e+00
  3.1357175e-01
  2.9944884e-02
  2.3042085e+00
 -3.0611157e-03
  6.2841535e-01
  2.0270588e-01
  1.4286447e+00
  3.7711509e-02
  5.4912722e-01
 -5.3659058e-01
  6.6286445e-02
 -8.8482216e-02
  5.1952964e-01
  2.0189863e-01
  3.0033305e-02
 -3.0148882e-01
  4.2593473e-01
  1.0244191e-01
 -2.8118566e-02
 -4.1122828e-03
  1.0825077e-02
  4.7103992e-01
 -1.0196064e+00
  4.8000392e-01
 -2.3380347e-02
 -8.3202261e-01
  1.2847987e-01
 -6.6342540e-03
  1.9341455e-01
 -1.2238516e-01
 -4.3661464e-03
  2.6941061e-02
 -1.8971854e+00
  2.7851316e-03
  3.7904587e-01
  2.7938646e-01
 -6.9423750e-02
 -2.2303155e-01
 -3.7666487e-03
  6.3696814e-01
 -4.7623625e-01
 -2.6717332e-01
  3.5776101e-02
  6.4830698e-02
  2.4874013e-02
 -1.6916339e-01
  1.0008764e-01
 -6.1492771e-01
  1.6333167e-02
  1.0783369e-01
  1.3861614e-01
 -1.0177454e+00
 -1.6149221e-02
  3.0511867e-02
 -5.3190172e-01
 -7.4716248e-02
 -7.1058191e-02
  1.0423929e-01
 -1.3952084e-01
 -8.3310507e-02
 -2.4347237e-01
 -8.9470714e-01
 -4.0132750e-02
  1.0000902e-01
 -1.1515361e-01
 -4.5121759e-01
 -5.9094285e-03
  7.6355650e-03
 -2.3613633e-01
 -6.3314748e-01
  4.7626416e-03
  3.6534925e-03
  6.6646710e-03
  1.6749848e-02
 -1.7963052e-02
  6.4645737e-02
  3.4163222e-01
  8.3503991e-02
 -9.6556199e-01
 -5.7966188e-02
 -4.7068074e-02
 -1.7621553e-01
 -7.7134095e-02
  3.8457474e-01
  3.2820452e-02
  8.0932761e-03
  4.3582745e-02
 -9.0424709e-02
  3.8465541e-02
  1.7528383e-01
  7.9389073e-02
 -2.1877629e-01
 -1.0000858e-01
  1.0926859e-01
  1.0613333e-02
  8.8744145e-03
 -3.0690430e-02
  2.0224011e-02
  2.8775761e-02
 -3.0316902e-02
 -2.9774152e-02
 -5.4361332e-02
 -2.4154876e-01
  2.1566506e-03
 -2.4932284e-02
 -1.5047508e-02
 -7.2421014e-02
  7.1165919e-02
  4.6965592e-02
 -1.0544427e-02
  3.9188892e-02
  2.6935535e-03
 -5.6636725e-02
 -2.6626906e-03
 -7.7475153e-02
 -2.1125635e-02
  1.1962666e-01
 -1.1657438e-01
 -5.0076395e-02
 -1.0408752e-01
  8.1651688e-02
 -1.1062033e-02
  1.2580847e+00
 -2.8446535e-02
 -1.7296804e-01
  8.4059703e-01
  1.1476878e-02
 -4.6160791e-02
  1.0160072e+00
  2.5770180e-02
  3.6009885e-03
  9.6755121e-03
 -2.5391797e-02
 -1.0155706e-02
 -4.0458612e-02
  4.4867694e-02
 -1.6417794e-03
 -7.2137952e-02
 -3.0054091e-03
 -1.0312038e-02
 -1.4438070e-02
  1.3564778e-02
 -1.3561104e-02
  2.0246837e-02
  4.6723057e-02
 -7.6308377e-02
  5.0884306e-02
  3.4984030e-02
 -4.2271301e-02
 -1.2480429e-01
  3.3272314e-01
 -4.7464833e-02
  6.4324878e-02
 -6.7519516e-02
  2.0731831e-01
 -2.1742489e-02
 -1.0697735e-02
 -5.1321819e-02
  2.7737424e-02
 -1.4326533e-02
 -4.9249530e-03
 -5.2162185e-03
 -1.8991821e-02
 -2.1176361e-01
  4.0037906e-01
  3.1758081e-02
 -1.1958893e-01
 -4.4163570e-02
 -1.2757411e+00
  5.7253517e-02
 -5.7265731e-03
 -4.8019815e-02
  2.4306059e-02
  1.7609173e-02
  5.5746082e-04
  6.9702250e-01
 -2.0293031e-02
 -4.5943350e-02
 -4.7070207e-03
 -9.9918209e-03
 -4.7837116e-02
 -5.8728009e-02
  1.9191539e-02
  2.4483424e-02
 -6.8609878e-02
  3.9592325e-03
 -4.5776710e-02
 -5.4831855e-02
  3.4530759e-02
  3.9798110e-03
  8.5699521e-03
  2.8552935e-02
 -2.1054313e-02
 -6.6154867e-02
  4.6473119e-02
  3.0054994e-02
 -3.7433621e-02
 -4.1100699e-02
 -9.2178443e-03
  2.8903870e-02
 -9.4850520e-03
 -1.0798365e-02
  2.1735599e-02
 -1.1528534e-01
 -1.4867488e-01
 -2.4261378e-02
 -3.7715789e-03
  1.3932398e-01
 -1.5853866e+00
 -9.1609068e-02
  1.2498798e-01
 -1.8772397e+00
 -2.0443544e+00
  1.0423341e+00
 -6.5339237e-01
 -6.0289198e-01
 -4.2324880e-01
 -4.7196731e-02
 -2.5006661e-01
 -9.5981476e-04
 -2.5398448e-01
  3.9387468e-01
  5.6691921e-01
 -5.9868142e-02
  4.6114754e-03
 -1.1227498e-02
  8.4549445e-01
  3.9677165e-02
  5.8488274e-01
 -3.6306914e-02
  1.9319288e-01
  8.6000130e-02
 -2.3852041e-02
  1.8070306e-01
 -1.1050914e-01
  4.0191185e-01
  2.7222562e-01
  7.1441889e-02
 -1.8689562e-02
  1.9123282e-02
  1.0877568e-01
  4.1182067e-02
  2.1558201e-01
  1.7482831e-01
  1.6432998e-01
  4.6534110e-02
  2.8350070e-01
  4.0476048e-01
  4.3356949e-03
 -1.4853339e-02
  1.6177036e-02
  4.7058028e-01
 -9.1535628e-02
  7.2925119e-03
  1.9466466e-01
  3.2835145e-02
 -1.2586986e-01
 -1.0567424e+00
 -8.9714044e-01
  8.2007974e-02
 -6.3577332e-02
  6.5806311e-01
  5.3807318e-02
 -3.6378112e-04
  2.6585120e-01
 -2.5384384e-01
  4.2431191e-02
 -6.9785970e-01
 -8.5315350e-03
  1.8301556e-01
 -1.1296993e-01
  4.8059903e-02
 -1.3593778e-03
 -9.1573577e-03
  1.0505117e+00
  4.9825005e-02
  3.0527968e-02
  3.2684574e-01
  6.4148828e-02
  2.0308718e-02
 -2.0228907e-01
  2.0266708e-02
 -4.2577986e-02
  1.8057154e-02
  1.5315422e-01
 -5.0715327e-02
 -8.8131651e-03
 -1.9866509e-02
  8.6098136e-03
 -3.5932797e-01
 -7.3886868e-03
 -2.9734848e-03
  1.9921442e-02
  1.6619870e-04
  9.0622738e-02
  4.0017448e-02
 -1.5897980e-01
  2.0048039e-01
 -8.5963771e-02
 -2.8533064e-02
 -1.7209391e-01
  1.1295563e-02
 -1.6702360e-02
  7.0712343e-02
 -7.2753564e-02
 -2.9614840e-02
  2.0915356e-02
  1.5589896e-01
  8.7093571e-03
  7.8224605e-03
  3.0636759e-02
 -1.1577543e-01
 -2.8205007e-02
 -1.1939096e-01
 -2.0671825e-01
 -5.2129950e-02
 -5.3359266e-02
 -5.8071725e-02
  1.6171563e-01
 -1.4284182e-01
 -5.9610851e-02
  1.7449493e-02
 -1.8180527e-01
  8.9740716e-03
  2.2671996e-03
 -5.5506326e-02
 -7.4778013e-02
  5.1224725e-03
  4.4620913e-01
 -6.9826320e-02
 -2.6628356e-02
 -7.1319394e-02
 -1.8262843e-02
 -1.0116310e-01
 -2.5132908e-02
  2.9863769e-01
 -4.1564457e-02
  8.9161396e-03
  3.5517104e-02
 -6.7974359e-01
  1.8674100e-02
 -2.7062899e-01
  3.1281479e-02
  7.5609118e-02
  2.8087951e-03
  2.0835784e-01
 -8.2114972e-03
  9.8793514e-02
  2.1887113e-01
  2.4161227e-02
  1.9243350e-02
 -1.1424651e-01
  2.6109265e-02
 -5.3204671e-03
 -7.4910015e-02
  4.5079510e-03
  1.9787436e-02
 -2.5945902e-02
  1.0018073e-02
 -1.6579904e-02
 -8.9656990e-03
 -2.0677425e-02
  1.2553278e-01
  1.0180595e-01
  9.2831347e-03
  4.3927327e-02
  7.4436940e-02
 -1.4954370e-02
 -1.9262388e-02
  3.7003919e-02
  2.9097689e-02
  9.2433821e-03
  9.7521208e-02
 -1.8683236e-02
 -1.0143915e-02
  2.0348941e-01
  1.6405194e-01
 -1.1047218e-02
 -1.9363634e-02
 -2.1284208e-02
 -6.7145461e-03
  3.0447252e-02
 -8.0507375e-02
  5.4287449e-03
  1.2149405e+00
  2.9258645e+00
 -2.3468018e+00
  1.7330964e+00
 -6.5305638e-01
  1.2978470e+00
  2.6615005e+00
 -2.1852903e+00
 -3.2463245e+00
  6.9173974e-01
 -4.7924854e-02
 -7.0006889e-01
 -3.5511479e-01
  1.1701841e+00
 -8.4076867e-02
 -1.7881915e-02
 -4.1570652e-01
 -4.4375736e-01
  7.3366588e-01
  9.8011696e-01
  1.1318792e+00
 -8.4045821e-01
 -1.9434075e-01
  1.7851964e-02
  5.0737355e-02
 -2.8336000e-01
 -4.7421443e-01
  7.1933132e-01
  6.8110889e-01
  4.9074136e-02
 -3.3476461e-02
 -2.6950970e-01
 -2.0708097e-02
  9.8754212e-02
  1.3992727e-01
 -1.6380648e-01
 -2.7575386e-03
 -6.1340332e-02
  2.3050118e-02
 -8.3429724e-02
  3.1660665e-03
 -1.4753061e-02
  4.2461269e-02
  2.9029444e-02
 -2.4892859e+00
  1.0614337e-01
  3.2652433e-03
  7.5137098e-03
 -6.5351322e-02
  2.2889929e-01
 -6.4017646e-02
 -4.5431021e-01
  1.1286535e-03
  5.5322722e-02
 -4.1508415e-01
 -5.4409280e-02
 -4.8705861e-01
  2.4916504e-01
 -2.4851764e-02
 -4.3606645e-01
 -1.5166020e-01
 -1.4584819e-02
  1.4659624e-01
  1.3238440e-01
  3.0574761e-02
  2.5504207e-02
 -2.0390087e-01
 -3.9689276e-02
 -1.1031661e-01
 -8.3011091e-02
 -1.3257336e-02
  9.2174411e-02
 -1.8325168e-01
  1.9127876e-02
 -8.6865529e-02
 -2.4547398e-02
 -1.5238850e-01
  1.0035357e-02
  9.4770208e-02
  4.6771970e-02
  9.2540026e-02
 -1.2240825e-01
 -6.5184617e-03
 -4.1124884e-02
  7.9936296e-02
  1.4654614e-02
  8.9089721e-02
  8.6670533e-02
 -1.5241459e-02
  7.4276641e-02
 -2.0356322e-02
 -6.9353022e-03
 -3.8800783e-02
  1.0284122e-01
  1.4117858e-01
  1.9758909e+00
  3.1587616e-02
 -8.7633692e-02
 -1.5622205e-01
  6.4982213e-02
  9.3516894e-02
 -9.9278696e-02
  1.7144043e-02
 -1.0451054e-02
 -1.0604596e-01
 -3.6112610e-03
 -6.2434111e-02
 -1.4806718e-01
  2.1267403e-02
 -6.2443860e-02
  9.0062972e-03
 -6.9545239e-02
 -2.2091709e-02
  1.3792798e-01
 -3.3648565e-02
 -2.3098655e-02
  2.6202582e-02
  1.0063607e-01
  7.8326426e-03
 -6.9887146e-02
 -8.2143180e-02
 -5.8358774e-02
  4.6038389e-02
  4.7082469e-02
 -3.7838884e-02
 -3.5507491e-01
 -1.0108032e-01
  2.8092954e-03
 -4.7044650e-02
 -2.1940119e+00
 -2.1397654e-02
  2.4139457e+00
  6.5764838e-01
 -1.3973595e-01
 -4.0702564e-01
  7.0728290e-01
  6.8369943e-01
  2.4090746e-01
  2.7668230e-02
 -2.2717427e-01
 -2.9190633e-01
 -7.6763503e-02
  1.2123650e-01
 -8.2096480e-02
  7.2465032e-01
  1.5507884e-01
  1.6853367e-01
 -1.2520466e-02
  1.4737476e-02
 -1.2367378e-01
 -3.1835720e-02
 -2.3594486e-02
  4.4263354e-01
  4.5093730e-01
 -7.1139656e-02
 -2.1569002e-02
  9.5891450e-03
 -5.7823643e-02
  2.6796678e-01
 -8.8485880e-03
  2.9475811e-01
 -5.0648367e-01
 -1.3181664e-01
 -2.6190469e-01
 -2.9132017e-01
 -1.4084928e-01
  1.6152887e-01
 -2.7931184e-01
 -9.9487290e-02
  4.3123603e-02
 -7.2382718e-02
 -1.8818486e-02
  2.1186946e-01
 -6.9407083e-02
 -9.0421289e-03
  7.3069341e-02
 -1.0630671e+00
 -3.6988163e-01
  2.9840228e-01
 -1.7613132e+00
 -1.8388788e+00
  1.0706961e-02
 -9.1346107e-02
  1.3955797e+00
  1.8168328e+00
  5.4550260e-01
 -8.7573600e-01
  1.3910048e+00
  8.4022397e-01
 -3.0584291e-01
 -3.5939147e+00
  6.9287300e-01
  2.6705641e-01
 -1.7790071e+00
 -5.5066711e-01
 -6.4912453e-02
 -6.0961133e-01
  8.0856271e-02
  7.7775252e-01
  8.2938462e-01
 -2.3918878e-02
 -1.0015982e+00
  6.1624992e-01
  7.0233166e-01
 -2.8270869e+00
  1.6013448e+00
  4.9475327e-01
  2.3832905e+00
 -5.7217050e-01
 -1.2791735e+00
 -2.9669604e-01
 -1.5775476e+00
  3.6209700e-01
  1.3473444e-02
  8.7727487e-01
 -1.5788598e-01
  1.4556284e-01
  5.1255345e-01
 -3.4463558e-01
  5.4348921e-03
 -5.8957271e-02
 -7.4749934e-03
 -5.0034481e-01
 -1.5246080e-02
 -2.5068471e-01
 -3.7866914e-01
 -4.9556337e-02
 -2.5925409e-02
 -6.5823728e-03
  2.6885720e-02
 -1.2771720e-02
  7.4085422e-02
  2.6457831e-01
 -5.2575311e-03
 -4.0610455e-02
  5.1700149e-02
 -3.6587834e-02
 -4.8504118e-02
  2.6350399e-03
  5.9913839e-03
  1.1668117e-03
  1.6697468e-03
  7.2752550e-02
 -3.2761332e-02
  6.6170648e-02
 -9.5753931e-04
 -3.3788905e-03
 -1.2955230e-02
 -1.8070281e-01
 -7.0633642e-02
 -8.4063355e-03
  4.4550542e-03
 -1.0199405e-01
  2.8427143e-02
 -1.3092928e-01
  8.1180170e-02
 -1.0841704e-02
  2.5910765e-02
 -1.3075842e-01
  1.3261677e-01
  6.0757706e-03
 -8.0985483e-04
 -5.9603803e-02
  6.4459899e-03
  4.2293735e-02
 -7.3215775e-02
  4.3029180e-01
  7.4433088e-03
  5.0287217e-01
  1.1423701e+00
 -2.7131822e-02
  2.3706380e-02
  1.9080043e-02
 -1.8767383e-02
 -1.1169577e-01
 -3.1761307e-02
  2.4378839e-01
 -6.2364237e-03
 -1.5883434e+00
 -1.9122079e-02
 -2.0831975e-01
  9.6553117e-02
  1.7514217e-01
  1.0641675e-02
  2.2512959e-02
 -9.9802297e-04
 -3.6924053e-02
 -2.5578657e-02
 -2.0494051e-03
 -1.7164405e-02
  3.3838082e-02
 -3.5637129e-02
 -2.8223233e-02
 -5.3666502e-02
  4.9789261e-02
  6.6118827e-04
  2.7602220e-02
 -7.5091752e-03
 -1.8163564e-02
  1.4910746e-02
  1.6844286e-02
 -4.3628745e-02
  4.5846675e-02
 -1.6085640e-01
  4.1779030e-02
 -1.3820445e-03
 -7.8184623e-03
  8.1937879e-02
 -4.5718947e-01
  6.0925764e-01
  2.9587978e-01
  3.7562963e-01
 -2.1107873e-01
 -2.7295849e-01
  4.2783874e-01
 -5.8814508e-01
  5.1817131e-01
  8.2648648e-03
  6.9048420e-02
  4.9957693e-02
 -4.9898630e-01
  1.7268109e-01
  3.7477545e-02
  6.4804614e-02
 -7.9416466e-01
  2.1657554e-02
 -2.1623838e-01
  1.0989650e-01
 -7.6165376e-03
  1.5651272e-01
  2.9123630e-03
 -2.4489166e-01
 -2.4927714e-01
  1.3276748e-01
 -1.3521540e-01
 -5.1913291e-02
  1.0689646e+00
 -3.3177847e-01
 -1.4970512e-02
 -6.9539964e-02
  4.5655131e-01
 -5.6549191e-01
  5.3744324e-02
 -3.1592932e-01
 -6.7323506e-02
  8.5435510e-03
 -1.1457991e-01
  2.0284534e-01
  5.8063291e-02
 -3.0423190e-02
 -1.4038619e-01
 -3.9673313e-02
  6.1973084e-02
  5.1259555e-02
 -6.2367314e-01
  4.9573416e-01
 -8.0546804e-02
 -2.3750715e-01
  6.3136242e-02
 -4.4285476e-02
 -8.3596073e-04
  1.3413053e-03
  7.2380804e-02
 -4.2276490e-01
  7.9259271e-04
 -4.1048415e-04
  3.3869711e-04
  1.2222806e-03
 -8.9519443e-03
  6.9799446e-02
 -3.1159075e-02
 -1.9699346e-01
  8.3721615e-03
 -1.6224600e-02
 -9.2805609e-02
  1.6369699e-02
 -2.0681068e-03
  1.8787477e-04
 -2.4266498e-02
  8.6170714e-03
 -8.8117421e-02
 -2.6185289e-02
 -3.9051226e-03
 -1.5431413e-02
 -1.8251897e-03
  3.3956538e-03
  9.8829325e-03
 -6.6249408e-02
  1.7204184e-02
 -8.8141784e-03
 -2.3433832e-02
 -1.9289041e-02
 -1.1747860e-03
  8.0493744e-03
  2.5475871e-02
  2.2915890e-02
  7.7568293e-02
  6.0146224e-02
 -1.0946110e+00
  5.3251106e-01
 -8.6531371e-02
 -7.3449574e-02
 -6.3023970e-02
 -1.0407240e-01
 -1.2692529e-01
 -4.5872214e-03
  4.5820095e-02
  8.9297956e-03
 -3.4800928e-02
  1.6189341e-02
  2.9019965e-02
  5.0260415e-03
 -9.6722044e-02
 -1.7756873e-01
 -3.6443513e-02
  5.4518990e-02
 -7.8005351e-02
 -1.6954781e-02
 -3.2071143e-02
 -1.3466622e-02
 -1.0183886e-01
 -1.3877472e-01
 -5.0735332e-02
  2.1486621e-02
 -6.4583287e-02
 -1.1224994e-02
  8.8765875e-02
 -3.2841723e-02
  6.4448662e-02
  2.5119394e-02
  7.8076962e-05
 -1.1299520e-02
  1.5075552e-01
  1.5771206e-02
  5.1133618e-02
 -2.8399525e-02
  1.4878786e-02
  1.9093284e-01
  9.5689666e-01
 -6.2854597e-03
  1.9283742e-02
 -2.8305778e-02
  4.6414721e-01
  3.8526777e-02
 -6.7070556e-01
 -3.0070231e-03
  7.8377269e-02
  1.2790664e-01
 -2.6158668e-02
 -1.7248511e-02
  1.8293068e-02
 -1.6665332e-02
  1.0123885e-01
 -3.3196874e-03
 -1.0219796e-02
 -1.1743432e-01
  1.7346656e-02
  6.9923565e-02
  1.4911164e-02
 -5.4368958e-02
  1.7047705e-01
 -3.0080404e-02
 -9.5786657e-03
  2.0943576e-02
  8.4998393e-03
  7.6462150e-02
 -1.2448470e-02
 -1.3293469e-02
  1.3595409e-02
  3.3028618e-02
 -4.9101472e-02
  2.3446605e-02
 -1.2219580e-01
 -3.7961487e-02
 -1.6647364e-01
 -4.3831713e-02
  2.9339256e-02
 -8.8291839e-02
 -3.2471467e-02
 -2.6837229e-03
  2.3762517e-02
  3.1491723e-02
 -4.0090472e-02
  8.9014299e-02
 -4.1284014e-02
  5.7564569e-01
 -8.5875982e-01
 -3.3189970e-01
 -2.2041716e-01
  1.5351522e+00
 -4.9186382e-01
 -2.0439307e-01
  3.2672759e-02
 -1.4037745e-01
 -2.1413034e-02
  1.2398806e-02
  3.3412704e-01
  1.0229139e+00
 -7.7885854e-01
 -2.8514838e-02
  9.8920310e-01
 -1.0427229e-02
  1.6468929e-01
 -2.5295684e-01
  7.6533747e-03
 -5.5648964e-02
 -6.5082815e-03
  2.6133171e-01
  1.5800838e-01
  6.4814799e-03
 -5.6875911e-02
 -4.9085252e-02
  3.2822579e-01
 -1.6707664e-02
 -6.4556771e-03
 -3.3840799e-01
  1.3662364e-02
  1.0529890e-01
 -6.2215501e-03
  4.8273298e-01
 -2.0570219e-02
 -1.7393276e-01
  5.3444177e-02
 -8.1774436e-02
 -2.9024249e-02
 -1.3974654e-03
 -1.4692172e-01
 -3.9391439e-02
  2.5478372e-01
 -2.0223504e-01
 -3.1970307e-01
  1.4714298e-01
  1.4254587e-02
  1.4894823e+00
 -6.5056789e-01
  3.2046061e-02
 -4.2762527e-01
  2.4046905e-01
  3.6978636e-02
  7.8491852e-02
  1.3990384e-02
 -3.7500197e-01
 -1.7153136e-01
 -2.2580145e-01
 -3.0575484e-02
  1.3044319e-01
  4.0245354e-02
 -1.1709521e-02
  4.8918854e-03
 -6.3475817e-02
 -2.5424498e-01
  9.3834931e-03
 -1.7569970e-02
 -5.6779671e-01
 -9.3228078e-01
 -4.8081776e-01
 -2.0781288e-01
 -6.7388877e-02
  6.4882599e-02
 -4.3835836e-03
 -1.0907634e-01
 -4.7466496e-01
  8.7179989e-03
 -2.9782203e-01
 -3.3851247e-02
 -1.0468658e-01
 -6.3337935e-03
  5.5756755e-03
  2.9681200e-02
  2.8273221e-02
  1.0716429e-01
 -5.5001561e-02
  1.6972637e-02
  5.0635226e-03
  2.1679690e-01
 -4.8757479e-02
 -5.7291216e-01
 -3.5102537e-01
 -1.9034186e-02
  1.4275871e-02
 -4.2865582e-02
 -4.8851501e-03
 -1.0675526e-01
  2.6539662e-01
 -1.7479543e-02
  7.6008532e-03
  1.3058283e-03
  5.1350061e-02
 -9.7587286e-03
  1.1126131e-02
 -4.7328034e-03
 -4.7222868e-02
 -2.6530044e-02
  6.9665477e-02
  3.0858001e-01
 -3.0460782e-02
 -7.4345479e-04
  7.6465430e-03
  1.8721946e-01
  1.0676284e-01
 -4.5288829e-03
  1.0439093e-01
  2.1124434e-01
  7.1236491e-02
 -7.1819454e-02
 -1.7385812e-02
 -4.0162046e-02
 -1.2532038e-02
  1.7789861e-02
 -4.0437225e-02
  2.5729327e-02
 -6.0999993e-02
  9.1652982e-03
 -8.3445370e-02
  1.0476114e-02
  2.4368322e-02
 -5.2740538e-01
 -9.8067159e-03
  8.4183741e-01
  7.9407997e-02
  2.7677724e-01
 -3.8891953e-01
 -4.1965333e-01
 -5.4577273e-01
 -8.3038861e-01
  3.8955610e-02
 -1.0297491e-02
  2.0366079e-01
  5.3595883e-01
 -7.7572441e-01
  3.8019449e-01
  9.1811465e-03
 -1.8105164e-01
  2.8386064e-02
 -1.0472164e+00
 -3.2096868e-06
 -4.0363017e-01
  1.5440379e-01
  1.7178561e-01
  4.4732127e-02
  1.9804843e-02
  2.3644502e-01
  2.0144497e-01
 -5.0376810e-02
  2.0783162e-03
  8.2091816e-02
  2.3014571e-01
  7.4831867e-03
 -2.3127839e-01
  1.2641045e-01
  4.4018394e-01
  5.0194059e-03
  9.0490319e-03
  1.7506963e-02
  5.3357143e-02
  5.2363824e-02
  4.7981702e-03
 -7.2466116e-03
  5.7279166e-02
  4.7111828e-02
  6.6235924e-01
 -1.7808573e-01
  6.1229903e-01
  2.1559807e-02
  1.5783229e+00
 -8.5267293e-01
 -1.9548266e-01
 -1.8548927e+00
 -1.9505502e+00
  5.3410679e-01
 -3.5171755e-02
 -8.7659138e-01
  6.5086401e-01
  4.4846174e-01
 -1.9622365e+00
  1.6901849e-02
 -3.3984351e-01
  7.7489063e-02
  1.0238267e+00
  1.1378856e+00
  6.8650618e-03
 -9.8387569e-01
  3.4882590e-02
  1.4803755e-01
  2.8129360e-02
 -5.3680784e-01
 -2.0837799e-01
  7.3402882e-02
 -2.3123448e+00
  1.0171957e-01
 -6.6644989e-02
  3.2169044e-03
  1.2695804e+00
 -2.2936422e-01
  1.3308975e+00
 -2.9004642e-01
  1.2180958e-01
  1.8138659e-01
  7.2362751e-02
 -1.0903981e-01
  8.4869061e-03
 -1.6657459e-02
 -8.5490227e-01
  2.3295112e-02
  3.5508085e-02
  2.7792343e-01
 -1.0929173e-01
 -1.0021537e-02
 -1.0338895e+00
 -1.9323805e-01
  6.9413842e-03
  1.3580102e-02
  5.3311698e-05
  1.5423714e-01
 -2.2904435e-02
  1.5325552e-01
  4.5701542e-01
 -1.8647854e-01
 -2.1041696e-01
  1.1600385e-02
 -5.2047417e-02
  3.0019021e-02
 -9.4843730e-03
  6.5813512e-02
 -5.7226766e-02
  8.0338717e-02
 -4.6036676e-02
  7.8808414e-03
  3.0115953e-01
  5.8844887e-02
  2.7865994e-01
  7.6204471e-02
 -4.0007837e-02
  6.1214078e-02
  4.1196153e-02
 -2.9019805e-02
 -2.6351368e-01
 -2.0546618e-01
  2.4568619e-02
  2.1596089e-02
  9.0179127e-03
  1.7238110e-03
 -2.3231314e-02
 -1.6837347e-02
 -1.2071381e-01
  4.7390193e-02
  6.1528236e-03
 -1.2039301e-01
  5.9161562e-01
  9.8840278e-01
 -3.9209044e-01
 -7.1263826e-01
  3.1936398e-01
  8.3855504e-01
 -3.1056197e-02
  1.0681532e-01
  1.3801504e+00
  1.0699795e+00
 -4.3521285e-02
 -1.0900640e+00
 -1.4052169e-01
 -2.1412350e-01
  6.7456460e-01
  9.3340564e-01
  2.9788476e-01
 -6.5864418e-03
 -1.0084627e+00
  5.5942351e-01
 -6.8895575e-03
  1.7084545e-01
  1.3661625e+00
  4.8009232e-03
  7.0215267e-01
 -4.5565936e-01
  8.1111741e-01
 -2.6819789e-01
 -2.9057685e-01
  1.6868863e+00
  3.8040739e-01
  5.7247594e-02
 -3.7838227e-01
  3.6923757e-01
  4.2319906e-01
  1.9996956e-01
  5.8805472e-01
  6.8221897e-02
  3.3230427e-01
  1.8096361e-01
  9.8954082e-02
  2.4970062e-04
  1.6315546e-02
 -8.1278622e-02
 -2.6354805e-01
 -1.0081164e+00
  9.7357649e-01
 -8.8718522e-01
  1.9543959e+00
 -2.4807538e-01
 -1.1376468e+00
 -3.4240857e-01
  2.1561213e+00
  2.1292517e-01
  1.0650832e-02
 -1.1443385e+00
  9.6886456e-01
 -1.7274581e+00
  8.5800505e-01
  3.4867898e-02
  6.2970316e-01
  1.0515358e+00
 -1.9341624e+00
  3.8863817e-01
 -9.7478348e-01
  1.7709780e-02
  1.7524600e-02
  1.0043367e+00
 -1.5421634e+00
  6.1304793e-02
 -6.0396291e-02
 -1.2691444e+00
 -2.5098303e-01
  1.5403876e-01
  8.0987386e-02
  8.9839445e-03
  1.7020798e-01
  2.4461164e-01
 -1.1123841e+00
 -4.3964154e-01
 -7.5534560e-02
 -5.8665715e-02
  9.4579756e-03
  5.5532128e-01
 -1.6313857e-01
 -2.0275638e-01
  3.2489127e-01
  2.3487709e-02
 -1.0221085e-01
  2.0605960e-01
 -3.0747825e-01
  1.8222350e-01
 -5.9017420e-01
  4.8153642e-01
  9.8578680e-01
  8.6936313e-01
 -7.6833379e-01
  2.7632701e-01
  6.7141458e-02
 -1.6548444e+00
 -1.7049769e-01
 -1.0819786e-01
  1.1993289e-01
 -1.3576087e-02
  3.2067550e-03
  2.5319034e-01
  7.5254786e-01
 -2.2200805e-01
  1.4568461e-01
 -8.6127751e-02
 -2.5097476e-02
 -1.7987661e-02
  1.9039771e-01
 -3.1104755e-01
  1.8576352e-01
 -7.2318740e-02
  2.5107243e+00
  1.1067910e-01
 -1.1406626e-01
 -5.0989552e-03
  5.9733325e-01
  2.7551329e-01
  4.7746071e-01
  1.7797371e-02
  8.9378230e-02
 -5.1133331e-02
  7.9786673e-02
 -5.8112200e-04
 -1.0777626e-02
  6.4161651e-02
 -1.6138839e-02
  5.4184195e-02
 -4.5917854e-02
  2.2180156e-01
 -7.4028766e-01
 -1.1574611e-01
  2.4585917e+00
 -1.0169503e-01
  1.4537895e-01
  3.2658365e-02
  6.2386140e-02
  3.1630609e-02
 -5.5335581e-02
 -1.1137419e-02
  3.6429338e-02
 -3.9006613e-02
 -1.0308903e-03
 -7.1105850e-04
 -1.6099513e-03
  6.7817066e-03
  2.3080893e-02
  5.2223396e-03
  8.1040740e-02
 -6.5079212e-02
  2.0758290e-02
 -3.3029460e-03
  2.8579880e-02
  2.3264095e-02
 -3.2568242e-02
  7.2473753e-04
 -8.3546124e-02
 -1.8759774e-02
  1.9908514e-02
  6.2726736e-02
  1.9850876e-02
 -7.2548212e-03
  6.5520354e-02
  2.0127878e+00
  3.1573337e-02
 -3.1952489e-02
 -1.0429692e-02
  1.5320573e-02
  5.8732383e-02
 -1.6681431e-02
 -2.6491247e-03
 -3.4799557e-02
 -7.6696184e-03
  3.4585011e-03
 -2.1925239e-02
 -1.7871846e-02
 -3.3227503e-02
 -2.8869988e-02
  4.7827549e-02
  3.0864960e-01
  4.3147441e-02
 -8.5812863e-03
  1.3997532e-02
 -6.2291499e-02
  4.7593340e-02
  6.1058220e-03
  2.9692082e-02
  2.1348558e-02
  1.0806984e-01
 -4.7266308e-02
  1.4284693e-02
  1.7125746e-02
  5.3315191e-03
 -1.1529987e-02
  1.1475417e-02
  3.8081933e-02
 -5.6208923e-02
 -2.9620379e-03
  3.4290203e-01
 -4.8982505e-02
 -1.1278016e-01
  1.1679400e-02
 -7.3102407e-02
  7.2371453e-02
  1.1705222e-02
 -7.3137574e-02
 -4.7130629e-02
 -6.1663955e-02
 -5.5283006e-02
  7.8154489e-02
  1.7740026e-02
  4.6863705e-02
 -1.0916630e-01
  2.0968279e-02
  1.4391690e-02
 -5.0342940e-02
  9.3059979e-02
 -1.8626761e-02
 -2.5260378e-02
 -1.2820318e-01
  1.6853647e-02
 -5.1742919e-02
  2.4440514e-02
  6.9292083e-02
  8.0017924e-02
 -8.7427804e-03
 -3.3474453e-02
  9.4535705e-03
 -2.8016929e-02
  1.7652549e-02
  3.9424784e-02
  9.6109575e-03
 -2.3900129e-02
  1.8511811e-02
 -2.3145071e-01
  9.4183860e-03
 -1.5617957e-02
 -1.0682375e-02
 -2.0064633e-02
  2.3811473e-02
  1.2235881e-02
 -7.0168316e-01
  2.2190364e-02
 -1.9468525e-02
 -4.0323254e-02
 -1.1862637e-03
  1.7256981e-02
 -3.2183595e-02
 -7.3055156e-02
  2.2779971e-01
  3.5810210e-02
  9.7959474e-02
  1.0502899e-01
  3.5202470e-02
 -2.4525223e-02
 -3.3574790e-02
  4.5599476e-03
 -3.8293850e-02
 -1.4140622e-01
  2.9785238e-02
 -1.7151829e-02
 -8.0023721e-02
  9.7234875e-02
 -3.3712178e-02
  3.2077023e-01
  2.9107136e-01
  1.3113590e-01
  6.0497630e-02
  2.6258663e-03
 -6.8456985e-02
  4.0992254e-01
  1.4154822e-01
 -5.4401822e-02
  5.4106195e-02
 -2.1390039e-02
 -5.4191496e-02
 -4.5193505e-02
 -1.8010195e-02
  3.6205001e-02
 -1.8121287e-02
 -4.9233334e-03
  4.3715805e-02
 -9.6836071e-03
  3.9790455e-02
 -5.1649366e-02
 -2.7114876e-02
 -1.4463106e-01
  1.2814103e-01
  1.4859571e-02
 -4.2131439e-02
  6.2481022e-01
  7.0849073e-01
  1.3482256e-02
 -9.8229907e-03
 -2.7442812e-03
  3.2621156e-02
  1.1791274e-01
  4.9790531e-02
  8.7484583e-02
 -2.0525001e-02
 -3.1377785e-03
 -2.2497151e-02
 -4.8206840e-02
  3.8239760e-03
 -9.9527013e-01
 -1.8299863e-02
 -1.8819812e-01
  1.5375082e-01
  7.9566032e-02
  5.8050376e-01
  3.1979978e-02
 -5.7804719e-02
  2.8789850e-02
 -4.0790722e-01
 -3.6422998e-02
 -3.8816765e-02
 -2.8355766e-02
 -6.4701796e-02
 -1.1973058e-02
  4.9679756e-02
  1.7118679e-01
 -2.5808770e-02
 -1.0843598e+00
  2.1801692e-01
 -2.0681369e-01
  8.2704508e-01
  5.0461280e-01
  3.5647067e-01
 -1.9797871e-02
 -1.4325927e-01
 -7.4858743e-01
  2.4327470e-02
  1.0233449e-01
  3.0987155e-01
  3.3713199e-02
 -1.8528649e-01
 -2.8693563e-01
 -1.3487799e-02
  3.9719112e-02
  1.2189637e-01
  4.6561077e-02
 -3.0566473e-02
 -1.0279603e-02
  2.5841998e-02
 -1.2551154e-01
 -5.9946064e-02
 -1.5721449e-01
  1.5561682e-01
  6.6134411e-01
 -1.1262373e+00
  4.5135850e-01
 -4.3881249e-02
  1.3779816e-01
  8.4300041e-01
  8.9896120e-02
  1.1730483e+00
  9.3229157e-01
 -1.4709985e-01
  9.4376914e-02
  3.5789028e-02
  4.2603750e-02
 -1.6166873e-01
 -5.9828597e-01
 -3.4154668e-02
  2.8577583e-02
  4.0681876e-02
 -7.6637737e-02
  1.6994560e-01
 -1.0502809e-01
  2.3151469e-01
 -5.6008259e-03
 -1.1003127e-02
  3.3047408e-01
  1.2614393e-01
  7.2689451e-02
 -3.5732307e-02
  1.8094504e-01
  9.1107987e-02
  1.3847613e-02
  1.3055420e-01
  6.4275347e-02
 -1.4484659e-01
  1.6960025e-01
  2.8350096e-02
  1.9629076e+00
  7.3666133e-02
  1.7681384e-01
 -7.4124582e-02
  7.8847945e-02
 -5.2533079e-02
  3.9046444e-02
  2.0110736e-02
 -8.8698128e-03
  4.0341008e-02
 -2.4323466e-01
 -2.4273316e-04
 -9.1826355e-01
  3.2396201e-02
  2.2991228e-01
 -3.1132603e-01
 -2.4417514e-01
 -9.8261461e-03
 -7.5229481e-02
  2.3743586e-01
  2.9920338e-02
  1.1050175e-02
  2.7862327e-02
  2.1385677e-02
  4.6575028e-02
  1.0866401e-02
  4.8361847e-01
 -1.7989849e-01
  3.5193653e-03
 -5.7399827e-01
  1.1225448e-01
 -1.2141819e-01
 -7.1211969e-03
 -8.8500246e-02
 -6.2200773e-01
  9.7610302e-02
 -3.2188830e-01
  9.6627235e-02
 -1.5939444e-01
 -1.7446078e-02
  3.8386397e-02
  3.2730410e-01
 -1.3449229e-01
  4.3104305e-03
  2.2986930e-02
 -4.9947765e-02
  1.5681604e-01
 -1.5442368e-01
 -1.3181318e-01
 -2.0751661e-02
  6.8323603e-03
 -4.2521488e-03
  6.3263872e-03
 -8.0732159e-02
 -1.0303146e-02
 -1.2951633e-02
  2.6237217e-01
 -2.2746989e-01
 -1.1345595e-02
 -2.1156933e-02
 -2.0204304e-02
  3.0240159e-02
 -6.9732055e-02
 -2.5911334e-03
  2.7484315e-02
  4.5948830e-02
 -6.4423181e-02
  1.2888393e-02
  2.7316693e-02
 -4.8577706e-03
  7.9937382e-03
  5.7378188e-02
 -3.3821113e-02
 -6.4884163e-02
  1.8789561e-01
 -1.0136023e-02
 -2.7291423e-02
  2.3553176e-02
 -1.2113005e-02
 -3.5594337e-02
 -5.9589386e-01
  2.4188887e-02
  3.1166617e-02
  5.0015676e-01
 -1.0803049e-01
 -2.2275811e-02
 -2.5783962e-01
  7.5527854e-02
  7.3847859e-03
  3.9049010e-03
  1.0214246e-02
  9.3647681e-02
 -2.5238058e-02
  8.1601376e-03
 -5.7818372e-02
 -5.7775110e-02
  1.6410893e-01
 -8.8228518e-01
  7.5187182e-01
  1.0134012e-02
 -1.1758294e-01
  3.6871585e-01
  1.5954019e-01
  2.1483436e-01
 -2.5322604e-01
  2.8436735e-02
  8.2884301e-03
 -2.0431954e-02
 -4.1657254e-02
 -7.2497740e-02
 -6.6716784e-01
 -2.0999198e-01
  3.8206872e-02
  9.9417764e-01
 -2.6021162e-01
  9.5332436e-02
 -1.3373552e-01
  1.4443258e-02
  1.9888436e-02
  4.5124651e-03
  5.6962598e-02
  8.8572204e-03
 -5.2186418e-01
  1.7984761e-01
 -4.5574254e-01
 -2.0533560e-01
 -2.8345466e-02
  6.3045785e-02
  3.8951617e-02
 -1.5926678e-02
 -2.5373902e-02
 -5.1821120e-02
 -4.1858017e-02
  5.0338473e-02
 -1.6373977e-01
  1.3660066e-02
  3.4409082e-03
 -2.7123779e-02
  8.3435059e-02
  7.9823233e-02
 -5.6170709e-02
 -5.1890010e-01
 -1.1624173e-01
 -3.5104517e-02
 -9.9657673e-01
  4.9779363e-02
  4.0543242e-03
 -4.9193338e-01
  2.8899735e-01
  2.4751769e-02
  4.9291775e-02
  7.8479797e-02
 -1.8789093e-03
 -2.5052356e-02
  1.4555456e-02
  1.0583809e-01
  2.5994768e-02
 -9.3869958e-03
 -1.0022317e-02
  2.4251058e+00
  3.4378808e-02
 -1.9618668e-02
 -1.7078729e-01
  4.5580849e-02
 -4.7431584e-02
  7.4204028e-02
  1.0462672e-02
  1.0529638e-01
 -3.8861882e-02
 -1.2364522e-02
  2.2833854e-02
  1.7323349e-01
  3.2716256e-02
  1.0322841e-02
 -2.0723782e-02
 -1.6863905e-02
 -5.3438209e-02
 -7.4727692e-02
  7.5196989e-02
 -6.9420207e-03
 -2.2700332e-02
  1.5309073e-02
  2.3744386e-02
 -6.4964287e-02
  9.5823571e-02
  1.3340085e-02
 -5.0806593e-02
  9.3631268e-02
 -8.5362814e-02
 -1.1157151e+00
 -1.7465014e-02
 -5.1577139e-01
  5.0910443e-02
  1.5542382e-02
 -6.3960436e-03
 -3.8644914e-03
 -2.4736173e-02
  1.6309015e-02
  1.3678320e-02
 -2.5276471e-02
 -2.5653901e-02
 -1.1859944e-02
  2.7239245e-01
  9.7503401e-03
  4.3879163e-02
 -8.0476455e-02
  4.8338395e-02
 -3.7562672e-02
 -1.0786294e-01
 -2.4399964e-02
  4.2158090e-02
 -4.2487487e-02
 -3.5204262e-02
 -5.9061823e-03
 -1.2670627e-01
 -4.0956005e-01
 -6.7173392e-03
  2.4989121e-02
 -5.0355479e-02
  5.6892861e-02
  1.3519192e-01
 -3.4071829e-02
 -1.2585997e-02
 -1.0508642e-02
  7.8428701e-02
 -1.8547176e-01
  1.4154317e-03
 -2.5328983e-02
  4.3549463e-03
  1.8191999e-02
  2.0433953e-01
 -2.2696448e-02
 -1.7480066e-02
 -4.7252823e-02
  5.0722561e-03
  5.9711468e-01
 -8.1676496e-03
  1.4936605e-02
  6.0441017e-02
 -8.3384961e-02
  9.9635571e-02
 -7.3490933e-02
  2.6419390e-02
 -1.1013506e-01
 -4.2727813e-02
 -1.6491085e-02
  7.6032661e-02
 -4.2971045e-02
 -1.0668663e-03
  1.9734860e-03
 -4.5912057e-02
 -2.7458858e+00
  5.4576218e-02
 -6.3145906e-02
 -2.1555603e-02
  5.3852953e-02
 -3.5144896e-03
  6.3434012e-02
 -4.5937441e-02
 -2.3852823e-02
 -8.1342394e-03
  4.2070658e-03
 -1.0865239e-02
  1.8624634e-03
  3.8450260e-02
  6.8467081e-02
  1.1165684e-02
  6.5701720e-03
  2.2109261e-02
  2.8861510e-03
  4.2463634e-02
  1.7482772e-02
  1.5574591e-01
 -2.1283893e-01
  9.2403865e-01
  2.9711357e-01
 -5.1444802e-02
  6.4699399e-01
 -4.2120883e-01
  1.9489287e-01
 -1.3425308e-03
  7.4730003e-01
 -2.9499788e-02
  1.5422630e-01
 -2.2833344e-02
  2.3506869e-02
 -4.9155959e-01
 -7.2019324e-02
 -2.4053648e-02
  2.8218556e-02
 -8.8988763e-01
  6.9432512e-02
  3.1427369e-02
 -1.3265890e+00
 -4.6118641e-01
  3.0828181e-01
 -1.1459849e-02
 -6.7034060e-01
  1.1404247e-02
  5.5052817e-02
 -1.2165967e-02
  5.8016311e-02
 -3.4906518e-01
  4.2828879e-01
 -4.9713886e-01
 -2.0916094e-01
 -2.3820667e-01
  2.9716196e+00
  2.2418625e+00
  5.5118626e-01
  4.7393718e-01
  1.8639909e-01
  8.4552485e-03
 -2.5724877e-02
 -2.5329723e-03
  4.0193963e-01
 -3.1021747e-01
  8.7510496e-02
 -6.7824093e-03
  5.2848262e-01
  1.8069383e-02
  1.1684444e-01
  6.4641899e-01
 -3.6875416e-02
 -1.0275290e+00
 -8.9051682e-01
  4.3410171e-02
  1.3142697e+00
 -3.9073288e-01
  4.5332202e-01
 -2.1841066e+00
  2.2335893e-01
 -2.2337816e+00
 -7.9184496e-01
  2.3813613e-01
 -1.0122195e-01
  1.3113198e-01
 -2.2170472e+00
 -1.5589333e-01
  1.0359585e-01
  7.7143055e-01
 -7.0130706e-01
  1.2804943e-04
 -1.2178707e+00
  6.7191923e-01
  9.1144300e-01
  4.0466194e+00
 -2.5331330e-01
  1.4687052e-01
  2.6678434e-01
 -1.9480587e-03
  3.2276753e-01
 -8.1747890e-01
  9.3946296e-01
  4.2003354e-01
  1.5739334e-01
 -1.3261757e+00
  7.4191731e-01
 -5.6661081e-01
  2.8452364e-01
 -8.3754200e-01
 -2.6494326e-02
  3.9206631e-03
  1.1398032e-01
  2.5113742e+00
 -1.6227618e+00
  1.7517260e+00
  8.2731374e-02
 -8.6582327e-01
 -2.2968612e+00
 -6.1232293e-01
  2.3178069e-02
  6.7391758e+00
  1.0629930e+00
  2.1750150e+00
  1.7312894e-02
 -4.0675473e+00
  3.1018319e-02
 -3.1819478e-01
 -4.0699971e-01
 -1.6393465e-01
  2.5919371e+00
  2.4621599e+00
  1.7334144e+00
  6.4948261e-01
 -5.2402085e-01
  3.7637208e+00
  1.3663296e+00
 -4.6796894e+00
 -3.4298782e+00
 -1.1048531e-02
 -5.4657334e-01
 -1.1674463e-01
 -1.0586607e+00
  1.4074382e-01
 -2.9811285e+00
  2.5111899e+00
 -1.3364372e+00
  2.3349798e+00
 -1.9016261e+00
 -2.8919384e+00
  1.6086283e+00
 -3.1307573e+00
 -6.2932593e-01
  2.3426720e-01
  2.9444718e+00
 -3.1517320e+00
  1.7855016e+00
 -2.7657807e-01
  2.4973931e+00
 -2.3504039e-02
 -4.0322280e-01
  1.6907700e-03
 -3.2809907e-01
  1.2201736e+00
  1.7572492e-01
 -1.1716646e+00
 -1.6057414e+00
  1.1318164e+00
 -1.1549575e+00
 -2.1727192e+00
 -1.5457722e+00
  1.9955823e-02
  1.6535933e+00
 -5.2860963e-01
  7.1545100e-01
 -1.4721151e-01
 -4.0405187e-01
  9.4514352e-01
  1.7576486e+00
  2.3940113e+00
 -4.5013213e+00
  1.2710746e-01
 -1.2782819e+00
 -1.3447990e+00
  4.0878785e-01
 -5.1287675e-01
 -3.9135805e-01
 -6.9892949e-01
 -6.4499408e-02
 -7.8046367e-02
 -4.0346656e-02
  3.1401747e-01
  6.7747962e-01
 -2.8923791e-02
  2.1157565e+00
 -1.6438432e+00
  1.3827076e+00
  1.3667935e+00
 -2.0858823e-01
  8.4670568e-01
 -3.4347531e-01
  1.4906045e-02
 -9.9425572e-01
 -2.7680511e+00
 -2.6133370e+00
 -5.7814580e-01
  8.9373696e-01
 -7.1641433e-01
  2.4728227e+00
  3.1719928e+00
  1.0067799e+00
 -1.9433638e+00
  3.9160904e-01
  7.4796759e-02
 -2.9665571e-01
 -1.3704389e-01
  6.9330931e-01
 -3.3899179e-01
 -1.1709211e+00
  2.1483862e+00
 -3.1482866e-01
 -2.4931699e-01
 -4.0734980e-01
  9.5928025e-01
  2.1966078e+00
  1.0974230e+00
  9.3964982e-01
  5.7972234e-01
 -5.3027445e-01
  7.5958043e-01
 -2.0238228e+00
 -1.1268367e-01
 -2.9800462e-02
  4.4731613e-02
  8.6146909e-01
  2.2661266e-01
 -1.9676349e+00
 -4.0753460e-03
 -5.9977365e-01
 -2.9079626e+00
  1.1773029e-01
 -2.6505632e+00
 -2.9636705e-01
 -3.9512998e-01
  2.2196071e+00
  1.1939459e-01
  3.3426344e-01
  7.0720989e-01
  3.4611347e+00
 -8.6490852e-01
 -2.8207835e-02
 -3.4213167e-01
  1.1097051e+00
  5.8395177e-01
  8.5689557e-01
 -5.3123310e-02
  6.5661156e-01
  2.5326583e-01
 -5.5307174e-01
  2.2301266e+00
  4.9130306e+00
  2.2764048e-01
 -7.7728993e-01
  7.3342603e-01
  4.4020963e-01
  1.2997581e+00
 -1.2188679e+00
 -2.9231507e-01
  2.8177009e+00
  1.2697754e+00
 -1.0425690e+00
 -2.7213147e-01
  6.8204540e-01
  2.8305009e-01
 -2.9686698e-01
 -6.6019964e-01
  1.3025668e+00
 -6.4945853e-01
  1.7361227e-01
 -3.1606424e+00
  4.3210096e+00
 -2.7434328e+00
  5.2803062e-02
 -3.7539423e-01
 -7.1214432e-01
  8.0486172e-01
 -5.5047971e-01
  1.0622914e+00
  1.8972048e+00
  5.6974897e+00
 -7.6997370e-01
 -7.2855884e-01
 -3.7800971e-01
 -2.9972370e+00
  2.1228888e+00
  3.7584994e+00
 -2.8130527e+00
 -1.1537186e+00
  1.0927591e+00
  1.0859089e-01
  1.6208823e-01
  2.1506400e+00
  3.4085866e-02
 -7.7490115e-01
 -1.0432491e+00
 -5.7382482e-01
  9.9196816e-03
 -1.5013739e+00
 -3.4517789e-01
 -1.8132559e+00
 -4.4905785e-01
  5.3366554e-01
 -2.1137030e+00
  1.0989611e+00
  2.6024461e-01
  2.4177815e-01
 -1.1545852e+00
  9.3189102e-01
  9.9765718e-01
 -2.7834375e+00
 -9.6646637e-01
 -3.0853491e+00
  3.2962558e-01
  6.3793504e-01
 -8.8197529e-01
 -1.1723778e+00
 -2.8009596e-01
  3.5504946e-01
 -9.3936682e-01
  2.3941700e-01
  3.4251466e-01
  4.7302884e-01
  2.5476661e-01
  3.3383219e+00
  6.7007875e-01
 -3.3510931e+00
 -1.5994480e-02
 -7.5354598e-02
 -1.8051524e-02
 -1.8522916e-02
 -7.4670925e-03
  1.8091346e+00
 -1.9476036e+00
  6.1878107e-02
  2.0632107e+00
  3.2870635e-01
 -2.9091463e+00
  1.8050517e+00
  3.3581531e+00
 -2.3215361e-01
 -4.1831782e-01
 -7.6497413e-02
 -7.8147012e-01
  1.9295306e+00
 -1.6252478e+00
  1.4058194e+00
 -5.1283425e-01
 -1.5025461e+00
 -1.8882306e+00
  1.2776997e+00
  2.5103042e+00
 -3.9837613e+00
 -2.3326516e+00
 -1.3040406e+00
  3.7016660e-02
  8.6758578e-01
  3.0890524e-01
 -2.1875155e+00
 -4.1568720e-01
  1.4987781e+00
  1.8800110e+00
 -2.7449832e+00
  9.2844725e-01
 -2.0049408e-01
  9.2399871e-01
  1.8669869e+00
  4.1995535e+00
 -4.9288589e-01
 -1.0485294e-01
  2.1992838e-01
  4.8459551e-01
 -9.7627479e-01
 -1.7666092e+00
  6.2055267e-02
  3.2955072e+00
  4.2607822e+00
  1.8264099e+00
 -2.9143983e-01
 -4.3187055e-01
 -1.2741320e-01
 -4.7668430e-01
  7.8199208e-02
 -5.9893653e-02
 -3.6728758e-01
 -7.4119717e-02
  4.2251360e-01
  7.7101701e-01
  6.1277336e-01
  7.7379262e-01
  4.1594154e-01
  5.0090319e-01
 -1.5412863e-01
  7.5814292e-02
  2.8410501e+00
 -3.1497979e-01
  8.0868697e-01
  4.8849452e-02
  1.9142230e+00
 -1.4369091e+00
  1.1727966e+00
  1.4352831e+00
 -1.0567626e+00
  1.9609230e+00
 -1.8361516e+00
  1.1652783e+00
 -1.4475319e+00
  1.9715942e+00
  4.9784532e-01
 -5.0762892e-01
 -2.5926211e+00
  3.9207783e-01
  7.7988482e-01
  2.2291534e+00
 -2.7192599e-01
 -7.7546366e-02
 -8.6522020e-02
  2.5307727e+00
 -1.2511623e-01
  7.0430756e-01
  1.3787622e+00
  2.3302608e+00
  2.0291152e+00
  1.4235373e+00
  9.0282303e-01
 -7.6646157e-02
 -2.1886334e+00
  2.4658468e+00
 -4.1926700e-01
 -1.9062016e+00
 -2.1207196e-01
 -2.0040019e+00
 -1.2128902e-01
  6.9185811e-01
  7.8656429e-01
 -1.2523131e+00
  1.6036165e+00
  7.4189627e-01
  1.7855556e+00
  2.1214479e-01
 -5.3249943e-01
 -2.0148451e+00
 -3.3579769e+00
  1.1101753e+00
 -3.0082792e-02
 -4.8210582e-01
  7.5701314e-01
  2.6039600e+00
 -7.1351625e-02
  7.4068028e-01
  4.9844167e-01
 -8.0374902e-01
 -1.0526001e-02
  9.2461693e-01
 -2.1064477e+00
  1.1075152e+00
 -9.3765861e-01
 -6.2307245e-01
 -2.8591144e+00
 -9.1765189e-01
 -1.3401378e+00
 -3.4374997e-02
 -1.6189694e+00
 -3.4991318e-01
  1.3407656e+00
 -2.2588367e-02
 -6.9169067e-02
  3.0091667e-01
 -3.2848120e-01
  1.1486121e+00
 -6.1521357e-01
  3.9907951e+00
 -1.7410427e-01
  5.7437573e-02
  4.1089794e-01
 -2.3511209e+00
 -1.3026876e+00
  2.6143322e+00
  1.1171273e+00
  5.5154538e-01
 -1.9293031e+00
 -4.3130349e-02
  6.6814357e-01
 -7.5105405e-01
  3.1329319e-01
 -7.9431760e-01
 -4.2676400e-02
 -4.3587518e+00
 -6.8116641e-01
  1.1653681e-01
 -1.0444620e-04
  2.1069226e+00
 -3.9448315e-01
  2.1696322e+00
 -1.7122545e+00
  1.2327281e+00
 -2.9450485e-01
  1.2002971e+00
 -1.9239689e-01
  2.4520820e-01
 -3.9695919e+00
 -2.8944117e-01
 -8.9778680e-01
 -7.3831570e-01
  9.0084451e-01
 -2.0538464e+00
  1.1583259e+00
  2.2579129e+00
  6.5919943e-02
 -1.6753378e+00
  6.1352748e-01
 -8.8777363e-02
  3.1373537e-01
 -3.3026239e-01
  1.8263501e+00
  2.7676811e+00
  5.1828992e-01
  1.5374283e-01
 -5.5981922e-01
  1.4695511e+00
  7.4514800e-01
 -1.6769946e-01
 -1.9187620e-01
  3.8137822e+00
  3.2084944e+00
 -1.1460105e+00
 -4.9413130e-01
  6.3350707e-01
  9.7807294e-01
 -4.7198564e-01
 -2.5458663e+00
  1.8981719e+00
 -2.7139211e+00
  1.8364656e+00
 -3.4062845e-01
  1.0418062e+00
  8.7052040e-02
  1.8412151e+00
  5.3948283e+00
 -2.2896779e+00
  1.8164107e-01
 -1.4765424e+00
 -1.6451443e+00
 -5.4874748e-01
  2.8799522e+00
 -2.2318664e-01
 -2.6214390e+00
  3.6973946e+00
  2.4428408e+00
 -8.3709592e-01
  7.9764336e-01
 -9.1045016e-01
 -7.6529920e-01
  4.3111676e-01
  1.4960868e+00
 -4.4387999e+00
 -4.4819040e+00
 -2.5510890e+00
 -3.6429375e-01
 -9.3402737e-01
  2.1497045e+00
  8.0240452e-01
 -2.7500260e-01
  2.8446500e+00
  5.5843222e-01
 -1.0523471e+00
  1.4062285e+00
  1.5726300e+00
 -2.3335257e+00
  3.2785729e-01
 -1.6540482e+00
 -6.5675253e-01
 -1.2073135e-01
 -1.8986933e+00
  1.5113652e+00
 -1.5348737e+00
  2.7280290e+00
  2.7555433e-01
 -1.7921851e+00
 -1.1915768e+00
  2.7512870e+00
 -5.8739096e-01
  2.9162159e+00
  1.0264955e+00
  2.4638988e-01
 -2.2211864e+00
 -2.4975374e+00
  8.0096358e-01
  2.7194950e-01
  3.9250576e+00
 -1.8386583e+00
 -7.6184088e-01
  4.8272994e-01
  1.8594704e+00
 -2.5864322e+00
 -3.0600429e-01
  1.3474282e+00
 -1.4757559e+00
  6.1240548e-01
  2.8573859e+00
 -1.3750304e-02
 -1.4943520e+00
  9.6748483e-01
  9.8876111e-02
  4.1363621e-01
 -1.3678943e-01
  2.3748454e-01
 -1.1621917e+00
  1.2488834e+00
 -1.1639147e-01
 -3.3560935e-01
  1.6278449e-01
  6.9176078e-01
 -1.9127111e+00
 -1.4723262e+00
  7.6871151e-01
 -7.8456976e-02
 -2.0366306e+00
 -1.7471311e+00
  1.3906059e+00
  3.9722595e-02
 -7.6534158e-01
 -1.2264614e+00
 -1.5961139e-02
  1.1996019e+00
  3.1287929e-01
 -6.3319421e-01
 -1.4565190e+00
  1.1118972e+00
  3.4398469e-01
 -3.7372223e-01
 -1.1440663e+00
  1.6947249e-01
 -9.4504100e-01
  5.2679487e-02
 -5.7376768e-02
 -1.3790184e+00
 -4.4293541e-01
 -7.5579810e-01
  1.8078206e+00
 -2.6414115e-02
  5.5684984e-01
  2.5996838e+00
 -3.1076863e+00
  1.6739445e-02
 -2.1225278e+00
 -1.2136911e+00
 -5.9447306e-01
 -1.1634613e+00
 -3.9390578e+00
 -8.8314414e-01
  2.4505374e+00
 -3.9317019e-02
  1.0955710e+00
  4.6507215e-01
 -1.3287683e-01
 -1.2463875e+00
  4.0910859e+00
  1.1553320e+00
 -1.4084238e+00
  9.1764653e-01
  1.0743201e+00
 -2.0203714e+00
 -2.2856998e+00
  1.3681530e+00
 -9.3273920e-01
 -7.9038703e-01
 -8.7346834e-01
  3.1056184e-01
 -2.2933857e+00
 -1.5299827e+00
  1.2731519e+00
 -3.2473373e-01
  3.0731758e-01
  9.7341061e-01
  2.9729767e+00
  1.8706785e-01
  1.1734289e+00
  4.1998810e-01
  2.3963828e+00
  5.5861073e-03
  9.7588021e-01
  6.2901193e-01
  9.4697368e-01
  5.8489023e-03
 -5.8116043e-01
 -7.1240795e-01
 -3.5809860e-02
  4.4250045e+00
  6.9838041e-01
 -1.0412198e+00
 -7.9378933e-01
 -3.5398352e-01
  1.8577259e+00
  1.0747761e+00
  1.4239894e+00
  3.9920509e-01
  2.3201972e-01
 -4.2001042e+00
 -2.0991449e+00
 -2.9651556e+00
 -5.3061429e-02
  1.7881191e-01
  4.9023950e-01
 -2.5453772e-02
 -1.2441365e+00
 -4.3010002e-01
  1.0989568e+00
 -3.3687258e-01
  9.2414305e-02
 -1.4768051e+00
 -7.4870610e-01
 -1.5435283e+00
  4.5637450e-01
 -1.1998602e+00
 -4.0079096e-01
 -5.8462523e-02
 -6.8432711e-02
  1.3385693e+00
 -1.0451951e-01
 -1.2494552e+00
 -7.4870139e-01
  1.8762889e+00
 -2.8576034e-01
 -1.6429198e+00
  3.5926580e-02
  2.4943435e+00
 -7.0389026e-01
 -4.8706859e-01
  4.7322208e-01
  1.3145806e+00
 -6.6898060e-01
 -4.4004163e-01
  6.5033329e-01
  6.1770982e-01
 -3.0972895e-01
 -8.1416029e-01
  8.3611333e-01
 -1.0650599e+00
 -7.4724185e-01
 -4.8990820e-02
  7.4269868e-02
  7.9734886e-01
 -1.3678029e-01
 -2.8165627e-02
 -3.5551143e-01
  6.6693556e-01
 -9.3504602e-01
  1.1736038e-01
 -1.8893482e-01
 -5.0867975e-01
 -1.0668726e+00
  1.5904040e+00
 -2.0025772e-01
 -1.1380367e+00
  4.2506468e-01
  1.9191304e+00
  2.9538441e-01
 -1.0289013e+00
 -1.5502679e-01
 -5.3186757e-03
  6.8413025e-01
 -2.3011575e+00
  6.9024665e-03
 -2.2620329e-01
 -1.1723640e+00
 -1.2949883e+00
  2.3758972e+00
  3.4983244e+00
 -1.3193623e+00
  1.6764884e-01
 -5.2788484e-01
 -4.3345159e-01
 -1.7819226e-01
  1.2838445e+00
 -1.8958855e+00
  1.1965440e-01
  7.1071184e-01
  1.8567502e+00
 -1.2954285e+00
  6.2891185e-01
  1.6852096e-01
  9.6946979e-01
  1.6835938e-01
  6.6326253e-02
  1.7183195e-01
  1.6820294e-01
  6.7243826e-01
 -6.5338427e-01
 -1.2671828e+00
 -4.6890533e-01
  1.1902041e+00
  1.3230296e+00
  5.8582813e-01
 -1.2553516e-01
  7.9557896e-03
  6.4708833e-03
 -1.3797963e+00
  8.4660608e-01
 -2.7799015e+00
 -1.9648769e-01
 -1.0096302e+00
 -1.5996833e+00
 -4.8276684e-01
  2.5740569e+00
  1.6701112e-02
  6.6364032e-01
 -2.5692269e-01
 -1.6193132e+00
 -1.2422087e+00
 -6.9640315e-01
  8.8496637e-01
  5.1867776e+00
  1.5853450e+00
 -1.3534887e-01
 -9.4353360e-01
 -2.9829603e-01
  2.7257760e+00
  6.0387117e-01
  1.8040105e+00
 -1.5673051e+00
  1.8667889e+00
 -8.5364699e-02
  3.9268246e+00
  1.0005884e+00
  8.6134201e-01
 -2.4135071e-01
  2.0839617e+00
  2.1065758e-01
  6.7129856e-01
  4.4785708e-01
 -4.5465401e-01
 -2.2830508e+00
  3.5699022e-01
  2.7457538e-01
 -6.9995958e-01
 -6.2239105e-01
  4.4203487e-01
 -1.2105927e-01
 -5.1591776e-02
  3.7547401e-01
  1.8446099e+00
  1.2119679e+00
  6.5712029e-01
 -3.6736541e+00
  1.6932369e+00
  2.9380639e+00
  9.5031661e-01
 -1.0760384e+00
  1.9547325e-01
 -2.5629997e+00
 -7.6119918e-01
 -1.2462685e+00
  7.3662525e-01
  4.6947458e-01
  9.1702074e-01
 -4.4848850e-01
  5.5590087e-01
  1.0989137e+00
 -1.0596942e+00
 -1.2226125e+00
 -7.7017754e-01
  1.2437989e-01
 -2.2241778e+00
 -4.0448180e-01
  7.2955227e-01
  9.1508490e-01
  1.5008310e+00
  1.6941472e+00
  9.4277442e-02
  3.8792375e-02
  8.3709878e-01
 -7.7172398e-04
 -1.0471615e+00
 -2.2483183e-01
 -2.0550278e-01
 -8.5284013e-01
 -1.9662585e+00
 -2.4289627e-01
 -9.9959832e-01
 -5.9045565e-01
 -7.6930797e-01
  5.1627338e-02
  1.6342825e-01
 -1.0620724e-01
  5.6478120e-02
 -2.1482508e-01
  5.5612463e-01
 -4.5235336e-02
  3.1268343e-01
  6.5332465e-03
  4.7678581e-01
  3.2535365e-01
  1.1115247e-01
  1.6533753e-01
  1.4741844e+00
 -1.5124723e+00
  3.4627026e-01
  1.7597644e+00
 -1.2598597e-02
 -5.2095312e-01
  2.7590845e+00
 -1.6859818e+00
 -1.5622468e+00
  2.0521176e+00
 -3.1550649e-01
  1.2571099e+00
 -4.0374231e-01
 -2.5854850e+00
 -3.6612368e+00
  4.5865956e-01
  5.0914321e+00
 -1.2029485e+00
 -1.9483216e+00
 -3.1144638e+00
 -1.5823264e+00
  1.3080432e+00
 -6.2616366e-01
 -9.7357333e-01
 -1.8558855e+00
 -1.8045274e+00
 -4.8719123e-01
  2.1286037e+00
  4.4927850e-01
 -8.3433431e-01
  2.4582055e-01
  1.6155483e+00
  3.1716273e+00
  1.7288333e-01
  1.4658110e+00
 -6.3110059e-01
 -7.9608017e-01
 -6.9434619e-01
  4.8392087e-01
 -2.9399705e-01
 -1.6354970e+00
 -1.0305135e+00
 -4.0024692e-01
  8.6167687e-01
 -1.1325643e+00
  7.6479399e-01
 -4.3520740e-01
  7.8048044e-01
  9.2856550e-01
  6.7705196e-01
  1.7928956e-02
  1.7928956e-02
  1.7928956e-02
  1.7928956e-02
  1.7928956e-02
  1.7928956e-02
  1.7928956e-02
  1.7928956e-02
  1.7928956e-02
  3.4313183e-02
  3.4313183e-02
  3.4313183e-02
  3.4313183e-02
  3.4313183e-02
  3.4313183e-02
  3.4313183e-02
  2.7671870e-02
  2.7671870e-02
  2.7671870e-02
  2.7671870e-02
  2.7671870e-02
  2.7671870e-02
  2.7671870e-02
  1.3580502e-02
  1.3580502e-02
  1.3580502e-02
  1.3580502e-02
  1.3580502e-02
  1.3580502e-02
  1.3580502e-02
  5.7021868e-03
  5.7021868e-03
  5.7021868e-03
  5.7021868e-03
  5.7021868e-03
  5.7021868e-03
  5.7021868e-03
  1.1793899e-02
  1.1793899e-02
  1.1793899e-02
  1.1793899e-02
  1.1793899e-02
  1.1793899e-02
  1.1793899e-02
