nep4 2 Cu Se 
cutoff 7 4 101 21
n_max 4 4
basis_size 12 12
l_max 4 2 0
ANN 30 0
  1.1617507e-01
 -8.8740781e-02
 -1.5529974e+00
  3.3701086e-01
 -5.6282300e-01
 -2.0219333e-01
 -4.3917611e-01
 -4.8366347e-03
  1.3019669e-01
 -2.6438959e-02
  6.4155966e-01
 -5.4071207e-02
  1.6883275e-01
 -3.5558450e-01
 -2.3509541e-01
  5.6509703e-01
  1.2998174e-01
  6.7353618e-01
 -5.0032192e-01
  6.8032593e-01
 -3.5782767e-04
 -1.4586198e-01
 -1.7285154e-03
  2.9067358e-01
 -1.2074026e-02
 -5.7830315e-02
  3.4751397e-01
 -8.3368213e-04
 -3.4668446e-01
 -7.2860182e-04
 -1.0561413e-01
  1.6693263e-01
  6.6817494e-04
  1.4491752e+00
 -7.9180545e-01
 -6.3033740e-04
 -3.4001726e-03
 -3.1983539e-01
  3.5234343e-02
 -5.1263604e-02
  7.1607515e-02
  3.4125748e-01
  1.3005171e-03
 -3.4526307e-02
  7.3482767e-02
 -5.0615221e-01
 -1.3856927e-01
 -4.5597494e-01
  4.2920075e-03
  1.0464223e-02
 -9.3596270e-03
  1.5887307e-01
  2.6048813e-03
  7.0403581e-03
 -5.1051742e-01
  1.3196407e-01
  2.1225316e-03
  4.9816584e-03
  6.5988125e-03
 -7.7863073e-04
 -1.6570731e-01
 -1.2831160e-02
 -6.1805081e-01
 -9.8776269e-01
 -2.1979998e-01
 -4.1500789e-01
 -1.2389433e+00
  2.5313180e-03
  9.7922987e-01
 -1.6151795e-03
  3.9558545e-01
 -4.9187613e-01
  3.6544411e-03
  1.3027065e-02
 -5.7497207e-04
 -6.0107231e-01
 -1.2062959e-01
 -3.7791541e-01
  1.0404984e-02
 -4.0640277e-01
  8.2620764e-01
 -2.1913315e-01
  1.2318712e-03
  6.0043624e-03
  4.3736035e-03
 -8.5856304e-02
 -4.8425099e-01
 -1.7296380e-01
  1.4778494e-04
 -3.8836310e-03
  6.0182170e-04
  6.3291946e-03
 -3.5962334e-04
  2.1322188e-03
  2.0637182e-03
  1.0393460e-03
  8.0261857e-04
  3.4167925e-03
  1.9309300e-03
  9.1640622e-04
 -2.0367373e-03
  1.1809589e-03
  1.6866517e-03
 -4.0902561e-04
 -9.8903175e-04
  8.5869292e-04
 -6.4132886e-04
 -6.6449214e-04
  1.8270554e-03
  1.4301876e-03
 -1.5058271e-03
 -1.8588267e-03
 -6.1522634e-04
  2.9557375e-03
 -2.4645457e-03
  4.4957148e-03
 -5.8461009e-03
 -2.2628405e-03
 -1.4400575e-03
 -1.0410415e-03
  4.8074298e-02
  2.1780853e-04
  2.9050163e-03
 -1.0675291e-02
 -4.6348777e-02
 -2.1703932e-03
  1.2584274e-03
 -1.9888035e-03
  3.1286655e-03
 -8.5652377e-03
 -4.4211308e-03
 -8.1329927e-04
 -2.9947271e-03
  1.2878501e-03
  1.0185131e-03
  9.1836834e-04
  1.8473284e-03
  1.3299739e-02
 -8.4769260e-04
  1.0714529e-04
  3.1840807e-04
  6.9303736e-03
 -1.2783536e-03
 -1.2444496e-03
 -1.2441037e-02
 -4.4563689e-04
  5.8201782e-04
  1.0346222e-03
  5.5347020e-03
 -6.3799950e-03
 -6.6175646e-01
 -8.2837874e-01
  1.3359510e+00
  1.0878634e+00
  1.3170706e+00
 -8.5426075e-03
 -3.1741586e-02
  3.0277544e-01
 -6.8800336e-01
  6.8456775e-01
 -1.5346169e+00
 -8.0295360e-01
 -9.0100944e-01
 -7.8827554e-01
 -3.1053552e-01
 -6.3567919e-01
 -5.9112513e-01
 -1.6323746e+00
 -1.5989372e+00
  1.3466522e+00
 -1.3033372e-01
 -8.8772464e-01
 -5.1609244e-02
 -3.5622710e-01
 -7.4703470e-03
 -4.0398799e-03
 -3.3717731e-01
 -5.2410173e-01
 -5.4589743e-03
  3.0071787e-03
  5.5809104e-01
  3.8057625e-01
 -2.4466372e-01
  7.5799865e-01
  2.2135846e-01
  1.3986763e+00
  5.5560827e-01
 -4.1966717e-04
  5.6616169e-01
  7.2201803e-02
 -8.3712745e-01
 -4.0269840e-01
 -2.1080537e-01
  9.8983717e-01
  1.3885055e+00
 -1.8780328e-01
 -7.4038398e-01
 -2.4556388e-01
  5.3810710e-01
  7.4682526e-02
 -4.5366326e-01
  2.1912241e-02
 -1.6510218e-02
  5.2390498e-01
 -5.7336628e-01
  3.2778409e-01
 -7.0192522e-01
 -7.8552783e-02
  2.1678295e-02
 -6.2685972e-01
 -6.4836502e-02
  1.3136835e-01
 -7.1083599e-01
 -9.9407595e-01
 -1.5267060e+00
 -1.2057072e+00
 -3.0597688e-03
  9.8666631e-02
  4.2752746e-01
 -9.0826571e-01
  5.1286304e-01
  4.1026494e-01
  5.4890239e-01
  7.5589322e-02
 -3.1880626e-01
  3.4649402e-02
  4.8705801e-01
  2.0280914e-01
 -7.1846368e-04
 -2.0115552e-03
  3.4081887e-02
 -1.7341623e-03
  2.2739497e-01
  3.7237345e-03
  1.9208548e-03
 -2.4790964e-01
  3.1604368e-02
  1.2064603e-04
 -4.9170558e-03
  7.6128840e-02
  6.1216275e-03
  1.5049195e-03
 -5.6886364e-04
  3.6145574e-03
  3.7494872e-04
  2.0006072e-04
 -1.2600350e-02
  7.7548097e-03
 -1.5583297e-03
 -6.5221032e-04
  2.9526522e-02
  2.8010791e-03
 -1.9908203e-03
 -3.5554089e-03
  2.1903906e-03
 -1.1167182e-03
  8.9752540e-04
  1.5256838e-03
  2.5879110e-03
 -1.6337093e-03
 -1.0080013e-04
 -3.8016508e-03
  2.0828206e-04
  1.4378752e-03
  2.5515631e-03
  4.2312010e-04
 -3.1622272e-04
 -9.5314323e-04
 -2.0273987e-03
 -2.3127589e-03
  6.6596162e-01
  4.4928142e-01
  5.3088535e-03
  3.7481403e-01
  4.8403198e-01
 -2.9063904e-01
 -6.2542367e-03
  6.4849302e-02
 -2.2672024e-04
 -1.4631523e-01
  6.5262723e-01
  1.5536347e-01
  3.7156892e-01
 -2.0350311e-02
 -1.0472708e-02
 -5.1647280e-03
 -1.0847718e-02
 -2.1053405e-02
 -5.6445040e-02
  4.4559268e-03
  8.8280737e-03
  2.1754382e-02
  5.2721448e-02
 -1.7306902e-02
  1.5239468e-02
  1.7125939e-03
  1.2617264e-02
 -3.9932673e-04
 -3.7766173e-03
  1.0194201e-03
 -1.5445347e-02
  8.0701917e-01
  6.4765692e-01
  4.2346400e-01
  7.1935791e-01
  1.6839206e-01
 -8.7173563e-01
  2.6895651e-01
 -1.5773574e+00
  1.1438518e+00
 -2.5254178e-01
 -2.4419075e-01
 -4.7641161e-01
 -7.2376791e-04
 -1.5086187e-01
  3.3453065e-01
 -1.8378469e+00
 -2.4217024e+00
  7.3561782e-01
  1.2014911e+00
 -2.5486326e-01
 -1.2195182e+00
 -7.8011662e-01
 -1.9085561e-01
  2.2168136e-01
 -7.5268192e-04
 -4.4079477e-01
 -4.1687793e-01
 -1.0979776e-02
  3.4387340e-03
  2.1951932e-03
  1.5267524e-03
  1.1807198e-03
 -1.2706287e-03
 -5.9793852e-02
  1.5276805e-03
  4.3842201e-03
  8.8329834e-04
 -2.2413008e-02
  5.2857422e-03
 -7.1669696e-04
 -4.9178000e-03
 -3.8772577e-04
  4.1577960e-03
 -5.8674579e-04
  4.7064773e-03
  7.7331479e-04
  3.8333181e-03
 -7.7281828e-04
  6.7351066e-04
  7.0534751e-04
 -1.5703433e-03
 -5.2161457e-04
  1.0541396e-04
  4.0173768e-03
  6.2004547e-05
  2.2201058e-03
 -7.2133155e-03
  4.6154254e-04
 -1.1952542e-04
 -1.0979955e-01
  2.1163692e-01
  3.9510795e-01
 -9.0362988e-02
  3.0007538e-01
  2.4857864e-01
  2.0137848e-01
 -1.5593166e-03
 -3.0830389e-01
 -1.6072552e-03
 -6.8947929e-01
  6.5913573e-03
 -7.0690778e-03
 -2.3854284e-03
  1.8209670e-02
 -2.3145165e-01
 -1.6049553e-02
 -5.0477253e-04
  8.2767359e-04
 -1.2596249e-02
 -1.2834588e-02
  2.4921106e-01
  3.6500175e-03
 -2.5814504e-04
 -4.6748746e-02
 -1.2562093e+00
  2.6324004e-04
  2.9500492e-04
  2.6451889e-03
 -4.2892853e-03
 -6.2290287e-01
 -6.3078481e-01
 -4.3530703e-01
  1.3752725e+00
 -1.1355057e+00
 -1.6612642e-01
 -3.0674292e-03
  6.6028947e-01
  4.6519780e-01
 -7.9531083e-03
 -2.8389316e-02
 -2.0675278e-01
  1.1645972e-01
  3.6055982e-01
 -6.6110474e-01
  6.5098584e-02
 -1.1485913e-03
 -8.2450226e-04
 -8.9100737e-05
  8.9256488e-02
  1.2701321e-01
 -1.7228724e-01
  2.5721556e-01
  4.2860410e-03
 -5.9813523e-05
  1.1650661e-03
  4.3676831e-03
  2.7956800e-03
 -9.5233349e-03
  1.4798126e-01
 -7.6814622e-01
 -1.5385494e+00
  1.0501252e+00
  6.6150337e-01
  1.6191655e-01
  3.6448345e-01
  5.9834211e-03
 -2.4065942e-01
  1.2779829e-02
  6.1463875e-01
 -2.7397394e+00
 -7.1563184e-01
 -2.6711744e-01
  2.3778310e-01
  4.1564581e-01
  6.9518358e-01
  1.3738367e-01
  1.2997465e+00
  8.2314186e-02
 -5.7158405e-01
  2.4887784e-01
  5.6611216e-01
  4.1881241e-04
  3.0917821e-02
  4.0924597e-01
  2.3805252e-03
 -1.1307547e-02
 -3.5941634e-01
  2.7404604e-03
 -6.2658486e-04
  2.5961692e-03
 -2.4459958e-03
  2.1163686e-03
  6.0249730e-03
  2.1144403e-03
 -1.6036443e-03
  2.4755567e-03
 -5.2861446e-03
  1.4284170e-03
  2.0608166e-04
 -2.0694667e-03
 -7.3849014e-04
  1.0901189e-04
 -2.6286731e-04
  3.3272402e-03
 -2.0083622e-05
  1.8939298e-03
  1.5650375e-04
  4.7201682e-03
 -1.7239549e-03
  5.7414814e-04
  5.4737329e-03
 -4.7819631e-04
 -6.0492749e-03
 -1.8052509e-03
  1.1708399e-03
 -5.4290221e-04
 -8.6610450e-04
  2.9675253e-03
  1.3347347e-03
  9.1813177e-02
 -4.0327329e-02
 -1.2938106e-02
 -7.7239340e-03
 -3.5662014e-02
  1.5744414e-02
  6.9909997e-02
 -8.2895299e-04
 -9.8143029e-04
 -3.4420635e-03
 -1.2006683e-01
 -1.1541368e-03
  6.6922768e-03
  6.6957361e-04
  1.5167804e-02
 -2.7906500e-02
  3.3816551e-03
  1.2893311e-02
  1.6029235e-03
 -1.2179011e-02
  4.6239272e-02
  5.8991872e-02
  4.0825768e-03
  1.4886758e-03
 -6.5639061e-03
  9.8431157e-04
  1.0014960e-03
 -6.2855164e-04
  4.0242355e-03
 -1.1130834e-02
 -3.5146612e-01
  1.0072416e+00
  2.5260556e-02
 -4.9870769e-03
 -1.3827920e-01
  5.8842073e-03
  1.0860290e-01
  4.4425926e-04
  3.8607672e-03
 -6.3347472e-03
 -3.9485484e-02
  7.9701217e-03
  3.8511219e-04
 -2.1682170e-03
 -3.8027385e-05
  2.9843217e-01
  2.3603144e-03
 -1.5200381e-01
 -1.5434751e-03
 -3.0850726e-03
  1.1001851e-03
  6.1904755e-04
  7.1442837e-04
  2.2833244e-04
 -1.6668889e-03
  1.7946409e-03
 -1.1356429e-03
  5.1840222e-03
 -6.7637832e-04
 -1.2917611e-03
 -2.0646112e-01
 -1.0245945e+00
  3.9512092e-01
  1.1515653e-01
  3.7662438e-01
  8.1139505e-01
  4.3765292e-02
 -2.9259697e-03
 -1.9426069e-01
 -1.2294581e-02
 -2.4268708e+00
  1.8992952e+00
  5.3858417e-01
 -1.2023538e-01
  1.0551647e+00
 -2.7241045e-01
  6.4824563e-01
 -7.0076346e-02
  6.4993340e-01
  7.2091180e-01
 -1.3722009e-03
 -4.1099009e-03
 -2.7238005e-03
  9.9025816e-01
 -2.9554224e-01
 -1.8777613e-03
 -3.5973415e-01
  7.8632701e-03
  4.0349886e-02
 -6.7935963e-03
 -6.5526372e-01
  6.1283636e-01
  1.4251280e+00
 -2.0033804e-01
  1.0488864e-01
  3.0007651e-01
  9.3170106e-01
 -1.5860907e-03
  2.4934292e-01
 -7.4423724e-03
 -2.5255108e-01
  9.4661450e-01
 -4.1586933e-01
 -5.8598991e-02
  7.3166448e-01
 -2.2065458e+00
  7.2314537e-01
  5.1244122e-01
  6.7121094e-01
  1.8223922e-01
  3.3049715e-01
  2.3111962e-02
  1.3672020e+00
  4.1496143e-02
 -1.0559959e+00
  1.8695959e-01
 -3.4500021e-04
  3.3446934e-04
 -1.8560432e-04
 -1.0947295e-02
 -4.0763407e-04
 -1.2642972e-04
 -7.6901884e-04
 -1.2667282e-03
  3.8226810e-04
  1.6435839e-03
 -1.0339238e-04
  1.8042721e-03
  4.4160974e-04
 -7.6213566e-04
 -9.8542776e-04
  2.3623880e-03
 -4.2998260e-03
 -1.9647968e-03
  4.5320475e-03
 -1.2317611e-03
 -1.1457017e-03
  2.5533391e-03
  8.8511943e-04
  8.2103061e-03
 -5.3078530e-04
  1.8037087e-03
 -2.6589744e-03
  2.6759750e-05
  1.1362992e-03
  6.7774188e-03
 -4.9042171e-03
 -2.4170508e-03
 -1.0925528e-03
  6.9933133e-03
  1.4520173e+00
 -1.7719489e+00
 -4.9148086e-03
  1.4655826e+00
  1.3952777e+00
 -1.4670965e-03
 -4.2645305e-01
  2.2387130e-02
  1.3303938e+00
 -2.2346163e-03
  2.4450131e-01
 -2.9535079e-01
  9.9282765e-01
  1.0635679e+00
 -1.0817255e-01
  1.3776559e+00
 -1.0562067e+00
 -2.9890901e-01
  9.9930328e-01
 -3.1010407e-01
  2.6793116e-01
 -1.5788296e+00
 -2.8354755e-01
  7.6557249e-01
  3.6824957e-01
  6.2746192e-05
 -5.0965962e-03
  3.2388563e-03
 -8.1116725e-03
  2.2815196e-03
  9.7617082e-02
 -1.8765848e-03
 -1.8710755e-03
 -1.5331623e-02
 -1.9607335e-01
  1.6428396e-04
  9.7434167e-03
  2.1003443e-03
  3.2985834e-03
 -3.9384291e-03
 -1.2617599e-03
  6.3717514e-02
 -7.8587662e-03
 -4.1474467e-03
  9.2304861e-03
 -1.1573605e-02
  9.2138937e-03
  2.1720261e-03
 -3.7738939e-03
 -1.0425858e-03
  1.5813631e-03
  5.0933831e-03
  8.7590836e-04
  9.0150454e-04
  1.6914160e-04
  1.2152051e-03
  1.5156503e-03
 -1.1415666e-03
  2.4394626e-03
  1.1937374e-03
 -4.5415917e-01
  4.3838063e-01
  3.3020619e-01
 -1.5158044e-02
 -5.4076099e-01
 -1.8353283e-05
  9.4178948e-05
 -2.2686785e-04
 -1.0009775e-03
 -1.0180647e-02
 -6.5269634e-02
 -8.1642888e-02
 -1.2295684e-03
 -1.9433845e-03
 -1.2138207e-03
  2.0017060e-02
 -1.3710026e-04
 -3.3099550e-01
 -2.1303641e-03
 -8.5983484e-04
  1.7170522e-03
  6.5771199e-04
  6.1730068e-04
  2.5194180e-03
 -3.0898158e-03
 -2.5875773e-04
  3.5545870e-04
 -1.2316201e-03
  6.2332070e-03
  1.1584531e-03
 -8.9189326e-03
  9.7723608e-04
  2.5018377e-03
  5.5332307e-04
  1.0400095e-03
  5.9136702e-04
  4.0367669e-03
  8.6998136e-04
  1.0023062e-03
  5.8463600e-04
 -1.8064110e-03
  9.8045543e-04
 -4.2637665e-04
 -1.8041232e-04
 -1.9183254e-03
 -6.8908925e-03
  9.8024122e-04
  4.4814497e-03
  3.1147595e-03
  4.1980439e-04
 -3.7295250e-03
 -4.8876368e-03
 -6.3275045e-04
 -1.6557871e-03
  9.9734534e-05
 -3.2363394e-03
 -3.3208416e-03
 -4.5204748e-04
 -8.9623081e-04
 -3.4899539e-03
  3.3397031e-01
  1.3790102e-01
  4.0699172e-01
 -3.5367739e-01
  2.4852686e-01
 -3.6700226e-02
 -1.4370956e+00
  1.1666431e-03
  1.7916088e-03
  3.9772373e-03
  5.6553507e-01
 -7.4276590e-01
  6.2227488e-02
 -5.6323921e-04
 -4.3407828e-03
 -2.1120769e-01
 -1.8135016e+00
 -1.6915888e-03
  1.8130059e-03
 -1.7738204e-01
  2.7469564e-02
 -4.2512497e-01
 -2.3432011e-03
  5.4187980e-03
  1.6150528e-01
  1.3581559e-04
 -4.1159526e-01
 -2.3784856e-03
 -1.5255347e-03
  2.4023337e-02
  6.0601492e-04
  2.9586316e-03
 -9.0871647e-02
  3.1250020e-04
 -5.6486521e-03
  3.2430738e-03
  1.0334142e-04
 -3.8459203e-03
  3.8120337e-03
 -1.1154090e-04
 -6.8684912e-04
  7.3597016e-04
  5.8695339e-03
  4.2009708e-03
  1.3030354e-04
  1.4768562e-03
 -1.1105476e-03
 -3.6184648e-03
  2.6534108e-04
 -1.5806679e-03
 -3.9865901e-03
  1.1020459e-03
 -2.8283074e-03
 -1.4462555e-03
 -3.4241122e-04
  9.9262747e-04
  9.8349433e-04
 -2.5028733e-03
  4.3393406e-03
  4.1735885e-03
 -5.3372413e-01
 -1.2069916e-01
 -3.5509533e-01
 -2.1188432e-01
  2.1133678e-02
 -6.9377839e-04
 -1.4088263e-02
  3.2462203e-03
 -8.5005946e-03
 -1.1928711e-03
  5.0082465e-04
  5.1280498e-03
  1.2194251e+00
 -1.2457834e-03
 -2.7983785e-01
 -1.1262010e-01
 -3.6144439e-02
 -1.9524008e-01
  5.6230568e-04
  2.4226242e-01
  1.3758799e-03
 -1.2377938e-03
  3.3561068e-03
  7.0239033e-04
 -1.3872162e-03
  1.0143308e-04
  1.6128816e-02
  7.5330306e-04
 -1.4494883e-02
 -6.2366482e-05
  4.5748124e-01
 -3.5610640e-01
 -1.8736291e-01
  7.6578200e-02
 -7.2222009e-02
 -6.3849461e-01
 -1.6463946e-01
  3.8091865e-01
  2.9455456e-01
 -1.0442749e-01
 -5.9947938e-01
  9.2513077e-02
 -5.1183969e-01
  3.4869688e-03
 -4.9552504e-02
 -6.7317325e-01
 -5.8925891e-01
 -1.4402675e-03
  3.3239710e-01
 -3.9989376e-05
 -1.7516209e-01
 -5.2463830e-01
  1.3305640e-04
  6.5428592e-02
  2.8176499e-03
 -1.0143797e+00
 -1.9374962e-01
 -4.2198044e-01
 -5.4895677e-02
  6.9542415e-03
 -1.6368391e-01
 -4.5788524e-01
  7.0284367e-01
  3.7153837e-01
 -1.3162650e-01
 -1.5170354e-03
  2.1370403e-02
 -2.6991679e-03
  1.9785892e-03
 -4.4361223e-04
 -1.3424445e-02
  4.8834067e-03
  4.4219743e-02
  1.0523491e-04
  1.3468733e-02
  5.5411202e-01
  6.0816772e-02
  1.6546685e-03
  4.2280555e-02
  2.5717518e-03
  9.5600903e-04
  3.1462903e-03
 -6.4409483e-05
 -3.3485703e-06
 -1.1587276e-02
 -1.9948015e-03
  5.0502527e-03
 -2.5338150e-04
  2.2799724e-03
 -1.4443282e-04
 -1.0048505e+00
 -1.9629859e+00
 -1.5816394e+00
  4.3246645e-04
 -5.0631847e-05
 -2.3162565e+00
  5.7615435e-01
 -1.4095491e-03
  1.4901416e+00
  1.0959753e+00
 -1.8610857e+00
  4.7049072e-04
  4.1167235e-01
 -1.0938148e+00
 -1.0913639e+00
  3.5039647e-03
 -9.1951334e-01
 -5.9922481e-01
  3.0198932e-01
 -9.4549030e-01
 -1.0481575e-03
 -3.9706922e-01
  5.1638759e-03
  5.0391967e-04
 -3.0951458e-03
 -9.5074481e-01
  8.4834744e-04
  1.1869216e+00
 -9.6440512e-01
 -2.0046832e-01
 -8.2692927e-01
  1.0762806e+00
 -1.1975322e+00
  1.8251685e-02
  6.7074627e-02
 -4.3344519e-01
  9.4971734e-01
 -7.8423643e-01
 -4.9920353e-01
 -6.0231638e-01
 -4.5132419e-01
  2.7034838e-02
  2.6470312e-01
 -4.9803597e-01
  2.7165616e-01
 -3.4111016e-03
  3.5664111e-01
  1.1981193e-01
  2.8178269e-01
  2.7318415e-01
 -3.6708578e-03
 -2.1181397e-01
  1.3292737e-01
  7.5789601e-02
  3.3312470e-03
 -2.4674961e-01
 -6.4992881e-04
 -6.0566735e-01
 -6.2990189e-01
  1.2755355e-01
 -6.3867611e-01
  4.7240651e-01
  7.9821324e-01
  2.1186240e+00
 -9.0073371e-01
  3.5599771e-01
 -1.1136252e-04
  3.8024336e-02
  5.6540960e-01
 -6.8883508e-02
 -2.7767593e-01
  1.1884598e-03
  7.4845217e-02
  2.3026429e-01
 -5.6152445e-01
  7.2539598e-02
 -1.8812489e-04
  1.4688857e-03
 -6.1159041e-02
  5.9698825e-05
  1.1188529e-02
 -1.3002625e-04
 -4.4290599e-04
 -2.6453184e-03
 -6.5777204e-03
 -2.1432620e-03
  6.3216046e-04
 -3.9971583e-03
 -1.0875654e-02
  4.1285697e-03
 -1.1914352e+00
  4.0116403e-03
 -1.1214102e-04
 -9.0363034e-04
  3.9099890e-04
 -9.0357126e-04
  3.8913884e-03
  5.8361748e-04
  2.0413338e-03
  5.1730135e-03
  6.6459487e-04
  3.3530018e-03
 -1.0406164e-03
  3.1003878e-03
  9.4116176e-04
  1.7677397e-03
 -3.2691634e-03
 -7.9337484e-04
  3.9502475e-03
  1.8653196e-03
  2.6759070e-03
 -1.9258689e-03
 -9.2730783e-03
  4.5708084e-04
 -4.0477212e-03
 -6.9081545e-04
  5.5380317e-04
  1.0194457e-03
  8.2535278e-03
  3.8242461e-03
 -2.3054270e-01
  1.2635049e+00
  2.1035430e+00
  2.3555534e+00
 -8.2861155e-01
  1.6222117e-02
 -1.4978211e-01
  4.8467022e-01
  4.2710260e-01
 -1.5150385e+00
 -1.3310566e+00
 -2.3177208e-01
  4.3203154e-01
 -4.9209318e-01
  8.0197871e-01
 -2.4564508e-03
 -4.5036670e-02
  7.8288108e-01
  2.4994068e-01
 -8.5977453e-01
 -3.0662894e-01
 -2.0911427e-01
  2.0982800e-01
  2.9192385e-01
  3.2249480e-02
 -1.6167373e-03
  1.2473542e-02
  4.1211084e-02
 -1.5089889e-03
 -2.0320054e-02
 -6.0987043e-01
 -1.5434180e+00
 -2.2929709e+00
 -5.2513939e-01
 -3.6034417e-01
  1.1508033e+00
  2.5645092e-01
 -8.9166576e-01
  3.0313861e-01
 -1.5322911e+00
  5.3278786e-01
  1.4976189e-01
 -1.2111226e+00
 -1.4474747e-03
  9.5990372e-01
  8.9664841e-01
  4.8322904e-01
  8.7965578e-02
 -4.6571201e-01
 -1.0888168e+00
  6.6994480e-03
  3.2563534e-02
 -4.8977207e-02
 -5.4605812e-01
  3.1030554e-01
  5.4420185e-01
  2.7258411e-02
  1.3038138e-03
  2.6612467e-01
 -3.1707617e-03
  2.6914559e-03
 -7.5087799e-03
 -6.0893618e-02
 -1.0537504e-03
  7.8214640e-03
 -9.8118209e-04
  5.7338197e-03
  5.7033636e-04
 -2.8710221e-03
  6.9820031e-05
  2.5882670e-03
 -1.6318618e-03
 -2.8915119e-03
  1.0501652e-03
 -8.9593453e-04
 -2.0319792e-03
 -7.0165424e-04
 -2.0998268e-04
 -9.2692516e-04
 -3.2977045e-03
  3.4097221e-03
  7.0499082e-04
 -1.3448065e-03
 -5.6264986e-04
 -4.0680571e-03
  2.1095229e-04
 -7.8232784e-04
 -3.6707656e-03
 -1.2219737e-03
 -1.5891835e-04
  2.4608495e+00
 -1.3710457e+00
  6.2036568e-01
  9.1187942e-01
 -1.2738771e+00
 -3.5188013e-01
 -2.3882659e-02
 -1.1777822e-03
  3.6110160e-01
 -6.2624669e-01
  5.2693462e-01
 -1.1706254e-03
  2.4882571e-03
 -2.4006698e-01
  8.0138475e-01
  2.4669257e-01
  2.4927885e-03
  5.8861101e-01
  2.0651391e-01
 -5.8430958e-01
 -7.6045471e-01
 -2.5628516e-02
  3.4380069e-01
 -7.9513667e-03
 -2.3205577e-01
  1.5437342e-01
  1.7301263e-02
 -1.0554076e-03
  5.6185527e-04
 -4.4902312e-03
 -1.3303194e-03
 -1.8579877e-03
 -1.6019531e-03
  1.4118673e-04
 -3.4713538e-03
  3.3076978e-04
  1.3164541e-03
  3.9240373e-03
 -7.1398425e-04
  9.1153017e-04
  6.4970087e-03
 -3.2862553e-03
  5.2620764e-03
 -2.3771883e-03
  5.5952952e-04
  1.7309550e-03
  1.8045719e-04
 -2.7963002e-03
 -3.2953827e-03
 -3.8551615e-04
  1.4346896e-04
 -9.2212419e-04
 -3.0981235e-03
 -6.3522719e-04
 -2.2754706e-03
 -5.4443680e-04
 -9.9595531e-04
 -5.0022334e-01
  6.3671172e-04
  3.2443958e-03
  1.2657823e-03
 -2.3577975e-03
 -5.7581128e-03
  4.9789937e-04
 -1.4759172e-03
 -1.5560569e-03
  2.6275308e-03
  6.6032144e-04
 -5.0351103e-03
  2.2040373e-03
  5.2700029e-04
 -8.0928439e-05
  8.9823327e-05
 -2.6629851e-04
 -1.0885610e-03
  2.8130740e-03
  1.4308697e-03
 -2.0165201e-03
 -9.2436530e-04
  2.1105532e-03
  2.4046923e-03
  2.1474853e-03
  3.1535057e-03
 -7.3292344e-03
 -2.0733718e-03
  7.2129717e-04
 -2.2866658e-03
  1.6079973e-03
 -3.8968245e-04
 -7.6733739e-04
  3.4792089e-01
  5.6318426e-01
 -1.4895809e-01
 -1.3627344e-01
  7.2689749e-02
 -4.4945145e-01
  1.6214953e-01
  3.2784346e-02
  1.3549534e-03
 -1.4829071e-04
  4.7622275e-01
  1.0722046e-03
 -1.1643104e-01
 -6.1554886e-02
 -1.9228514e-02
 -3.7564522e-01
 -3.0623341e-04
 -6.5828420e-02
 -1.1552601e-03
  7.5288546e-01
 -2.0705343e-03
  1.6102388e-03
 -6.1762635e-02
  1.3304427e-01
  1.9405788e-01
 -5.2644471e-03
 -5.3290441e-04
 -1.1868306e-03
  8.5421244e-04
  1.5997842e-02
  1.4193217e-02
  2.3009891e-03
 -4.4125967e-02
  5.6321878e-02
  2.8135009e-02
 -6.8271518e-01
  2.9751123e-03
 -1.9343139e-03
 -9.7418755e-02
  8.2313386e-04
  4.2142374e-03
 -7.0343021e-04
  2.0355610e-03
 -2.3819788e-03
 -1.5553742e-04
 -3.4894887e-03
  1.5212649e-03
  2.2032731e-03
 -1.4933622e-03
  1.3209867e-01
  4.5065479e-03
  1.9083217e-03
  1.0011175e-03
  2.0833796e-01
  2.7268179e-04
 -8.9574180e-04
 -7.1725232e-04
 -1.0396002e-03
 -6.1009950e-03
 -5.8736922e-03
  1.5581977e+00
  1.2773131e+00
 -2.3332708e+00
 -6.4142942e-01
 -3.7828085e-01
 -3.5368806e-01
  1.5901539e-01
  1.0172881e+00
  1.9699152e-01
  1.7941239e-01
  1.2264572e-01
  2.5089099e-03
 -8.5239105e-02
 -5.0158180e-02
 -1.3418248e-01
  5.4289110e-02
  2.0366186e-01
  4.0721658e-01
 -1.3223368e-03
  7.7417782e-03
  6.5204687e-03
 -2.5509119e-03
  4.9997922e-02
  2.8075944e-04
  2.2527444e-01
  1.9722774e-03
  3.6343031e-03
  1.1792376e-03
  2.8234499e-03
  1.9498186e-03
 -1.9291707e-04
  5.5276304e-03
 -1.5094830e-01
  1.2286737e-03
  1.3739115e-03
 -7.7717908e-04
  3.5657603e-03
 -4.9270439e-01
  3.5750051e-04
  1.1003473e-03
  3.6935236e-03
  1.2690190e-03
  2.0315947e-03
 -3.8634622e-03
  1.2957259e-03
 -5.6886167e-04
 -5.0200161e-04
 -4.2198095e-04
  1.1307722e+00
 -8.9651137e-04
  5.1484071e-04
 -6.1923888e-04
 -2.6449046e-04
  3.9884466e-01
 -1.2241217e-03
 -1.0830662e-03
 -7.8701245e-04
 -4.3593251e-04
  5.7078095e-04
 -1.0173490e-04
  8.3376937e-02
 -2.0278876e-01
 -8.3795398e-01
 -1.2205213e+00
  9.6141684e-01
 -6.0277101e-02
  1.9289907e-02
  2.7904273e-03
 -1.3970050e-03
 -9.0224475e-02
  1.8961748e-02
 -4.1909455e-03
  2.7903863e-03
 -4.1721752e-03
 -2.5005513e-01
 -8.7852115e-03
 -2.1113243e-03
 -1.2895024e-01
  1.1255895e-04
  1.1634291e-01
  4.8121069e-02
  4.8676699e-02
 -3.5594264e-01
  5.6578638e-04
 -1.0283037e-01
 -5.3823465e-03
 -3.3987630e-03
 -3.0437461e-04
 -8.8163754e-03
  5.9335511e-03
 -7.1742967e-02
 -2.0348569e-03
  4.1570636e-03
 -7.7891022e-01
 -1.5024129e-01
  2.6727081e-03
  1.5180605e-04
 -1.5525373e-03
  6.9056475e-04
  1.2256936e-01
 -2.5420457e-03
 -6.5412791e-04
  2.0407825e-03
 -2.1979881e-03
  3.6223542e-03
 -3.1085783e-03
  2.3412374e-03
  9.5603551e-04
 -1.7242716e-04
  3.5122002e-04
  3.9815516e-03
  7.2404655e-04
  6.2198788e-03
  1.7197930e-03
  2.5008849e-03
  1.8052463e-03
  1.2377197e-03
 -6.6469685e-05
  5.7384940e-03
 -2.8200396e-03
 -4.1015875e-03
 -2.8808749e-01
  4.2695925e-01
 -5.8249269e-02
 -3.0026559e-03
 -1.5185843e-01
  4.1108197e-03
 -2.0219302e-03
 -3.6501754e-02
  3.5092914e-03
  1.2510600e-03
  4.2182966e-03
 -2.0104756e-04
 -1.0332846e-01
 -6.2574877e-04
  4.3665813e-03
  2.8115804e-03
 -2.7787178e-03
  1.0808238e-04
 -3.6862737e-01
  1.5833690e-03
  2.0264592e-03
  3.7730802e-03
 -2.4061427e-03
  5.5540819e-03
  2.5294002e-04
 -2.5545873e-03
 -6.4408151e-04
 -1.2671779e-03
 -3.8538924e-03
  4.3207142e-03
  3.1516538e-07
 -1.8410292e-05
  1.0353097e+00
 -2.6705908e-05
 -5.1520225e-03
  1.9877204e-03
 -2.9061125e-03
  1.1861715e-03
  2.1143542e-03
  1.6509814e-03
  6.8009307e-04
  1.2749082e-03
  2.4253310e-04
  6.6243572e-04
  1.0840780e-03
  6.1401026e-04
  2.7128388e-04
  3.4204673e-03
 -1.7849301e-03
 -1.6433257e-03
  1.9984066e-03
 -1.0564651e-03
  1.5332493e-03
 -4.5529800e-04
  5.3051449e-03
 -1.3918650e-03
  7.6349627e-04
 -8.3991123e-04
  4.6044942e-03
  1.0315899e-03
  3.9477516e-03
 -9.1833577e-02
  5.6558853e-01
 -1.0869387e-03
  3.4096949e-03
  4.9608280e-03
 -3.3615627e-03
 -7.1837037e-04
  1.6054466e-02
  9.5089118e-04
  3.5472482e-03
 -4.6876571e-03
 -2.5360123e-03
 -4.5994609e-03
 -3.8940972e-03
  9.3660189e-04
 -3.3398328e-04
 -1.7952326e-03
  1.8742550e-03
  1.0880167e-04
 -7.5784267e-04
 -1.0868475e-03
  1.9312970e-03
  5.4059764e-03
  1.9022397e-04
 -1.9515466e-04
  1.6338099e-03
  4.5869465e-04
 -1.6726360e-03
 -1.5614067e-02
  5.1599480e-03
 -7.6841229e-01
  6.0516357e-01
 -1.7533195e-03
  7.8667287e-04
 -1.1520877e-03
  7.2498911e-04
  6.9407085e-03
 -9.4745145e-04
  4.7777137e-03
  8.8768709e-04
 -1.0371725e-02
 -7.7253538e-03
 -4.8459321e-03
  2.8061690e-03
  1.6533382e-03
 -1.0944061e-01
  1.1894719e-03
 -8.7539124e-04
 -1.9664243e-03
 -1.1638864e-03
 -2.2854905e-03
 -2.2495778e-03
 -4.7973479e-04
  1.9765501e-03
  2.7069303e-03
 -6.0307683e-04
  3.5376812e-05
 -4.1177595e-04
 -2.3818076e-02
  7.6368496e-02
 -2.4512086e-02
  5.9918351e-02
 -1.8711068e-02
 -1.8132397e-04
 -7.1515948e-02
 -1.1743838e-03
 -1.0449500e-03
  3.9117909e-03
 -5.0239887e-02
  5.4068910e-03
  8.4065594e-02
  3.6190387e-02
  5.7104612e-03
  6.3634999e-02
 -5.3716460e-03
  1.7361322e-01
 -9.3824444e-03
 -1.0498509e-01
  5.8042700e-03
 -7.6539449e-02
  7.8038243e-03
 -4.0590402e-02
  1.0064257e-02
  6.5396234e-02
  2.7776172e-03
  1.8999990e-03
  8.1446311e-03
 -8.6651836e-03
 -2.2333860e-04
 -2.5158823e-01
 -7.7830389e-02
  5.5848178e-04
 -2.0176019e-03
  2.4568441e-04
  1.1789727e-03
 -2.9852339e-03
 -4.0381718e-03
 -1.2845335e-03
  6.7852787e-05
  1.0020281e-03
  4.7925019e-04
 -5.2710925e-04
 -1.5885243e-03
  2.7866475e-04
 -1.5141348e-03
 -2.3265625e-04
  3.2115527e-03
 -2.4156631e-03
 -1.8174557e-03
 -2.4424528e-03
  1.5884390e-03
 -7.9404446e-04
  4.5673628e-03
 -2.5560071e-03
 -3.8785834e-03
  2.6939637e-03
  2.2274575e-03
  2.1056852e-03
  4.5882754e-02
  2.7520695e-01
 -4.6693567e-02
 -1.8565698e-02
  1.3261934e-01
 -2.4451552e-01
  2.2701225e-01
 -4.4634328e-03
 -3.7127756e-02
 -2.4681984e-02
  1.4825040e-01
 -2.2793688e-01
 -9.4679564e-02
 -1.8637058e-01
 -5.9332188e-02
 -2.0780723e-01
  5.4494638e-02
 -3.5646266e-01
  1.0052193e-01
  2.7610812e-01
  1.4307770e-01
  1.2603852e-01
 -1.2169997e-01
  3.6279719e-02
 -1.3585597e-01
 -3.4150058e-01
 -1.3706170e-01
 -5.8162231e-03
 -2.0090127e-01
  3.1267334e-02
  5.5862778e-01
  1.4367801e+00
  8.1220746e-01
 -5.6271851e-01
  3.6897561e-01
 -3.0020922e-02
 -1.0504263e-03
  3.4001902e-02
  1.3004663e+00
  2.0984410e-01
 -1.3825762e-01
 -7.0862472e-04
  5.8840480e-02
  3.0702731e-01
  1.1330224e-03
  2.0473608e-01
  6.7963134e-03
  2.2570903e-03
  7.6711589e-01
  4.8865112e-03
  1.9736867e-04
 -8.6353943e-03
  6.7872423e-01
  8.4904307e-01
 -6.0129710e-02
  5.6492747e-05
  2.9432517e-03
  6.3155644e-04
 -2.9598195e-03
 -2.3672853e-03
  1.0399055e-01
  1.1792753e-01
  7.8214854e-01
 -4.6224457e-01
 -6.3491416e-01
 -5.4614514e-04
 -6.7083030e-03
 -9.8495203e-01
  2.3152526e-01
 -4.2224657e-03
 -3.8027581e-02
  2.9195324e-03
 -7.1396881e-01
  1.7879418e-01
  1.3769900e-03
  8.7824557e-03
 -4.5313467e-03
 -1.5608654e+00
  2.1349169e-01
  1.5212607e-04
  3.8221250e-03
 -3.2793148e-04
 -1.0150441e-01
  1.1170563e-01
 -1.4272985e-03
  2.5218716e-03
  4.7250546e-04
 -2.0152880e-03
  2.5950549e-03
 -1.6823341e-03
 -5.0683506e-04
 -9.1232598e-02
  1.7903035e-03
 -3.6222994e-02
  6.2902002e-03
 -4.9102731e-04
 -1.4105194e-03
 -2.0110837e-04
 -9.4915368e-03
  4.8210369e-03
 -4.2720274e-03
  8.5984694e-04
 -3.1401962e-03
  3.9159879e-04
 -3.2075697e-03
  1.9550740e-03
 -5.2780274e-04
  2.8030344e-03
  1.2178175e-03
  4.5718132e-03
  1.9138494e-03
 -1.5577138e-03
  9.6800813e-04
 -1.4044459e-03
 -1.6082259e-03
  4.2330669e-03
 -2.3811902e-03
 -1.5191650e-03
  5.8772764e-04
  2.4447558e-03
  1.8355922e+00
 -2.2461542e-01
 -3.8789608e-02
  2.4170410e-03
 -1.7315035e-03
  1.7443348e-01
 -2.5428563e-01
 -4.6973139e-02
  9.0121865e-01
 -1.5573531e-03
 -1.4429474e+00
 -2.4110959e-03
  1.9113159e-01
  9.2216674e-03
  1.3265817e-01
 -3.1016653e-03
 -9.5864403e-04
  1.4252250e-01
  3.8660076e-02
 -2.0247269e+00
 -2.4404731e-01
  1.5579091e+00
  1.6039189e+00
 -1.4070980e-01
  3.5128328e-01
  8.1134848e-02
 -1.6243127e-03
  3.2845603e-03
  5.4502781e-03
 -1.9345568e-03
 -7.4687152e-04
  3.5952090e-03
 -3.8225262e-03
  1.8975028e+00
  2.2246705e-03
 -2.4374817e-03
  3.7499587e-04
 -1.3441343e-03
 -2.3987317e-03
  1.3235405e-03
 -1.4138613e-03
  1.6089693e-03
  1.6856826e-03
  3.6009760e-03
  9.7634760e-04
  1.4598714e-05
  1.9370903e-03
 -4.2979643e-03
  1.7249003e-03
  1.6214238e-03
  2.1374878e-03
  7.0374541e-04
 -3.1055768e-03
  2.8064867e-04
  5.8491674e-04
 -2.1413127e-03
 -4.8040617e-03
 -1.5711279e-03
 -1.1616317e-03
 -1.0357618e-03
  1.1848986e-01
  5.8944980e-03
 -3.5140098e-03
 -2.4917525e-01
  5.6167111e-02
 -2.7317749e-03
  2.7476107e-03
 -8.2427717e-04
 -1.8801859e-03
  2.3176805e-03
  1.0181849e-02
  3.2055234e-03
 -9.3873637e-04
 -2.8025354e-03
  1.6680567e-03
 -1.4333420e-03
  1.2797148e-03
 -4.9309479e-03
  1.5811739e-03
  1.1387325e-01
 -3.3750432e-04
 -1.6324857e-04
  2.8825446e-04
  9.3384291e-04
 -6.3891425e-03
 -1.7215384e-03
 -2.1925895e-03
 -5.7355701e-03
 -4.8884453e-05
  2.1845922e-03
 -1.9637253e-03
  4.8563021e-04
 -2.2041999e-01
 -1.3512230e+00
  4.6507376e-01
 -1.7541815e-03
  2.2974133e-03
  4.3770665e-04
 -2.8493302e-04
  5.0181400e-02
  9.0855015e-03
  1.1292946e-03
 -7.2027761e-03
 -4.3499051e-03
  8.6551718e-03
  3.9616749e-03
  9.3604822e-04
 -2.2980517e-03
 -5.2949990e-04
 -3.1659480e-03
  4.2470070e-03
  5.0218962e-03
 -3.9431667e-03
  2.0572681e-03
  2.9655213e-03
 -1.3140595e-03
  1.8773008e-03
 -5.5853691e-04
 -1.2906918e-03
 -3.1827660e-03
 -1.5595418e-03
  3.8705114e-03
  9.4543165e-04
  2.9956631e-04
 -1.1830514e-03
 -1.6658084e-03
  1.0833131e-02
  3.8535257e-03
 -9.0149068e-04
 -1.3684171e-03
  8.4815343e-05
  3.6709328e-04
 -2.4101117e-03
 -3.7177364e-04
  6.4954761e-04
  3.3373097e-03
 -7.4137177e-04
  1.6438767e-03
  1.6421617e-03
 -6.6998258e-04
  7.7331997e-04
  1.0205212e-03
  1.8543229e-03
 -1.2473458e-03
 -4.8901020e-03
 -1.8754001e-03
  4.1967481e-03
 -1.6324682e-03
  1.6812559e-03
 -8.9621346e-04
 -5.9823897e-02
  3.2335639e-01
 -1.9286923e-01
 -2.6003510e-01
  9.6716875e-01
 -1.6091928e-01
  5.9547272e-02
  6.9976306e-01
  5.9066957e-01
 -1.4681296e+00
  4.4066751e-01
 -8.7109700e-02
  3.3353544e-03
 -7.4555707e-01
 -5.6522244e-01
 -5.9841079e-01
 -2.9221362e-01
 -6.7700669e-03
  4.3417418e-01
 -1.0518391e-01
  6.1653221e-01
  1.0245551e-03
  4.5199017e-04
  1.5188170e-02
  9.7674757e-01
 -1.4476387e-01
  2.4707899e-03
 -1.3486668e-02
 -1.3095488e-01
  2.3147671e-02
 -3.9928803e-01
  1.4239486e-03
  2.9617676e-01
 -9.6945965e-01
 -2.1889363e-03
 -2.0802447e-01
 -4.9397959e-03
 -6.9183726e-03
  7.0997939e-02
 -2.4086105e-02
  3.3407718e-01
  3.3612046e-03
 -3.1426552e-01
  3.7279630e-01
 -7.1696174e-01
  2.7729869e-01
  7.2366536e-01
  2.5408587e-01
  3.4474093e-03
 -3.2718459e-03
 -1.2068503e-01
  3.4476957e+00
 -1.5112537e-01
 -5.2643754e-04
  2.4415398e-01
 -1.7057696e-03
  4.6476390e-04
  1.3344482e-01
 -2.2672222e-04
 -9.9083900e-01
 -6.3932985e-01
 -1.0516313e-02
  7.8076994e-01
  1.2356617e+00
  2.2347504e-04
  4.9973035e-01
 -1.2115386e-02
  4.1091420e-02
 -4.2311385e-01
 -1.9966833e-01
  3.8446808e-01
 -2.4885222e-02
 -5.3219908e-01
  3.0193713e-01
  6.7553812e-01
  2.0273821e-01
  5.9926856e-01
  7.6074624e-01
  4.6920174e-01
  6.0281858e-02
 -8.9443451e-01
  5.2213216e-01
 -1.2683796e+00
 -2.0174786e-02
  4.4434190e-01
  1.6260877e-01
 -1.9196261e-01
  4.2943332e-01
  4.5204726e-03
 -5.7515669e-01
  8.7009633e-01
  1.1726413e-01
 -1.5506027e+00
  4.7395998e-01
  8.1924403e-01
  9.9386305e-02
 -1.1314475e-01
  4.6051712e+00
  2.2685711e-01
 -5.9160680e-01
  2.7799001e-01
 -2.3505397e-01
 -8.2867813e-01
  1.6880722e+00
 -1.7194428e+00
  5.1929313e-01
  1.8575426e+00
  1.4122143e+00
 -5.0674565e-02
  2.0607045e+00
  1.3368710e+00
 -1.0604674e+00
  5.6573272e-02
 -1.6110783e+00
 -3.6860210e-01
 -8.9146629e-02
 -4.8086375e-01
 -1.8789753e+00
 -3.8533235e-01
 -7.6609179e-02
  1.4194175e+00
 -1.7560471e+00
  7.4032760e-01
 -1.6513360e-01
  2.3336717e-01
 -4.1948077e-01
 -1.7915853e+00
 -1.0885957e+00
 -3.8414385e-02
  6.0100362e-02
  1.6184489e-03
  1.0245550e+00
 -3.6270398e-01
  1.7669906e-01
  1.0765895e+00
  1.9958273e+00
  1.8497988e+00
  5.9489727e-01
 -3.6585085e-02
  1.5992717e+00
  1.5032374e-02
  2.0326903e-01
 -5.3309405e-01
 -1.2208009e+00
 -4.4218567e-01
  2.3524151e+00
  1.3204819e+00
  1.4079046e-03
  7.1868203e-03
 -3.5973442e+00
 -1.4867615e-02
  1.2027814e-01
  7.4632436e-01
 -1.7014015e-03
  1.5267150e+00
 -1.1123036e+00
  8.4456855e-01
  4.5925856e-01
  3.3090007e-01
 -2.6825497e+00
 -6.2596273e-01
  1.9872836e+00
 -1.0578958e-03
  4.3106893e-01
  5.1370800e-01
 -1.1023439e+00
  2.9578178e+00
  7.0723748e-01
 -6.1890191e-01
 -2.8912129e+00
  6.5475255e-02
  2.0005019e+00
  5.9349686e-02
 -9.6062618e-01
  7.5233686e-01
  4.5004350e-01
 -2.2561358e-01
  2.0962067e+00
 -3.6158565e-02
  1.0106605e+00
  1.1725514e+00
  1.1619292e+00
  1.9742344e-03
 -1.2570533e-01
  7.0328647e-01
 -1.1578553e+00
 -1.2159071e+00
 -1.1566546e+00
  1.5719219e-01
 -1.7170546e+00
 -1.3001264e+00
 -1.2309378e+00
  7.9252787e-02
 -8.1278175e-01
 -7.1843719e-01
  4.0348011e-01
  1.2310427e+00
  5.7638049e-01
  6.7100883e-01
  5.1579803e-01
  2.7102077e-01
 -6.9812822e-01
 -1.3134607e+00
  2.7245969e-01
 -8.3062574e-02
 -2.5166917e+00
  3.6244655e-01
 -2.6878104e-01
  2.3982935e+00
  5.8044887e-01
 -1.2747008e+00
 -9.2624545e-01
 -5.4566133e-01
  3.2652493e+00
 -9.6144259e-01
  2.9406226e-01
  2.2757208e+00
  4.6962779e-02
 -3.9431132e-02
 -5.6232470e-01
 -2.5936413e-01
  2.2875851e-02
 -1.7293157e-01
 -1.3086754e+00
 -6.2087095e-01
  2.0917807e+00
 -3.0498910e-01
  1.5832956e+00
 -1.0157475e-01
  1.1600034e+00
 -3.8771188e-01
  2.3829324e+00
  6.2592036e-01
 -7.1810830e-01
  6.1704550e-02
 -1.2875661e-01
 -1.2613996e+00
  3.0445424e-01
 -2.9885959e-02
 -8.5146630e-01
 -2.1651583e+00
  1.1672885e+00
 -1.3011502e-01
 -2.4188866e-01
 -1.5919360e+00
  1.1244367e+00
 -8.8458970e-02
 -2.6704830e-01
 -6.4078522e-01
 -6.6012102e-01
 -2.8892715e+00
  3.1037214e-01
 -5.8818644e-01
  2.0145100e-01
  8.0809253e-01
  5.8292967e-01
  1.7188020e+00
 -1.5957682e-01
 -2.3128663e-01
 -1.1701849e+00
  1.6263392e+00
 -1.5481864e+00
 -9.7359347e-01
  4.9536964e-01
 -1.2321225e+00
  1.8358843e-01
 -9.5872074e-01
  1.2611927e+00
  8.0550063e-01
 -1.3361279e+00
 -1.6864115e+00
 -7.2572839e-01
 -1.1530370e+00
  4.5853564e-01
 -1.5041994e+00
  5.1597565e-01
 -2.8713393e+00
  2.5889993e-01
 -2.6460537e-01
 -9.3304008e-01
 -2.4149480e-01
  1.3841655e+00
  1.1907281e+00
  1.6017046e+00
 -1.3469689e+00
  2.6097512e-02
 -2.3005154e+00
 -1.4423076e+00
  6.3553959e-01
 -1.1450218e+00
 -1.5313369e-01
 -9.0262413e-02
  3.7995195e-01
 -1.6859654e+00
 -3.2317442e-01
 -7.7082103e-01
  2.8114283e-01
 -1.2253965e+00
  1.1515874e+00
 -1.1797539e+00
  7.8474057e-01
 -2.8269586e-01
  2.3603237e-03
 -1.6018664e+00
 -5.6461656e-01
 -1.1596438e+00
 -1.0402405e-02
  5.5265534e-01
  1.5080792e+00
  1.1882503e-03
  1.0233168e-02
  2.0203213e-01
 -1.8904845e+00
 -1.0495155e+00
  1.9147646e-02
  3.5493454e-01
 -1.1981111e+00
 -2.8948867e-01
 -1.4239196e+00
  2.0359726e+00
  1.1922833e+00
 -1.7617136e+00
  1.2788849e-02
  2.1146669e+00
  3.0784640e-01
  2.0200916e-01
 -2.0691884e-01
  3.2368681e-01
 -1.9353973e+00
 -8.2792819e-02
 -1.7855694e+00
 -6.6970211e-01
 -8.5051215e-01
  3.7797368e-01
 -9.5005438e-02
 -1.4882382e+00
  2.2211814e+00
  1.3855195e-01
  4.3952596e-01
  5.7591844e-01
 -2.0878973e+00
  5.0696975e-01
  4.3965599e-01
 -2.3930261e-01
 -2.6763644e+00
  2.0421183e-01
 -1.8281236e+00
 -9.0897208e-01
 -2.0906951e+00
 -2.8165525e-01
 -6.4782089e-01
 -7.6565546e-01
 -1.5907466e+00
 -1.8270995e-01
  9.4785607e-01
 -4.6520579e-01
 -4.6902485e-02
  1.9640201e-01
 -1.8744646e-03
  6.3737595e-01
  5.7032150e-01
  3.3981335e-01
  8.2590997e-01
 -1.5531476e-02
  8.7598497e-01
  3.9962474e-01
 -6.4073130e-04
 -5.6590569e-01
  9.6053183e-01
  2.6510627e+00
  4.0536433e-01
 -6.0661405e-01
 -1.6762971e+00
 -3.2757074e-01
  2.1651061e-01
  5.0073850e-01
 -5.6292087e-01
 -1.0755419e+00
 -5.0472666e-04
  3.0368698e-01
  8.3403565e-02
  9.4257653e-01
  5.6352484e-01
 -1.0913622e+00
 -1.6999891e+00
  1.1658827e+00
 -5.3999266e-03
 -1.2348388e+00
 -1.4113668e+00
  5.2203441e-01
  3.8800508e-01
  2.6167810e-02
 -7.0284361e-01
  1.3694966e+00
  6.1833323e-03
  5.5062395e-01
 -1.1713562e-01
  1.6513429e+00
  3.9340854e-03
  1.7438303e-01
 -1.8318564e-01
  6.9461232e-01
  7.8349864e-01
  1.1643146e+00
 -1.3303996e+00
  4.3767753e-01
  4.8081145e-02
 -1.8020990e-01
 -1.2453963e+00
  2.0945421e-03
 -5.2719712e-03
 -1.1849508e+00
  1.0800726e+00
  8.1518814e-02
  8.8102114e-04
  5.7687885e-01
 -4.8494846e-01
  9.6566033e-01
  1.4924626e-04
 -6.5408993e-01
 -2.2987893e+00
 -3.5668556e-03
  4.1369540e-03
 -1.6757313e+00
  1.4494126e+00
  2.9905364e-01
  7.7407743e-04
  8.7524998e-01
 -1.8132111e+00
  3.7892584e-02
 -1.2162038e-03
  4.5872718e-01
 -1.0667717e+00
 -1.7920156e-01
  1.9047355e-02
 -8.9553577e-01
 -1.4714508e-02
  4.7956938e-01
  4.4511193e-03
  3.0869561e-01
 -1.2324709e+00
 -1.3795965e-03
  8.1004063e-03
  1.4352969e+00
 -1.5788375e+00
  7.7847719e-02
  5.4523139e-04
  4.4427550e-01
 -3.0288064e-01
  4.3936041e-01
  1.0850968e-02
  1.4153253e-02
  1.0101903e-01
 -1.3705844e-01
 -1.1134362e-03
  6.2175509e-02
 -2.2116370e-02
 -2.5439408e+00
  2.4321997e+00
 -1.1574549e-03
 -1.4019942e+00
 -3.6413068e-01
  2.0527238e-01
  6.3680209e-02
 -3.7687257e-01
  1.2054296e+00
 -1.3641998e-03
 -1.2825394e+00
 -4.1493756e-01
  3.4488985e-01
  2.6683197e+00
  4.0449873e-01
  2.1671045e+00
  9.9060964e-04
  8.0696535e-01
 -4.9684659e-01
  2.6804030e-01
  2.7674365e+00
 -8.2744852e-02
 -2.0294631e-01
 -7.6854712e-01
 -4.7554404e-02
  1.6071333e+00
  1.2509468e+00
  1.1423595e+00
 -7.7660668e-01
  3.7031126e-01
  4.0660074e-01
 -8.0292928e-01
 -9.9083126e-01
  9.0704966e-01
  1.0559982e-02
 -2.0089379e-01
 -1.8007724e-02
  4.9673378e-01
  3.5557583e-01
 -7.6550585e-01
 -8.9689994e-01
  1.3234931e+00
  7.2702634e-01
 -9.2716920e-01
 -7.7873909e-01
 -1.2451662e-03
  1.2716416e-01
 -1.1608052e+00
 -7.3694950e-01
  8.1841666e-01
 -1.0895840e+00
 -1.7982269e-04
  6.3801235e-01
  4.9884605e-01
 -9.5293170e-01
 -3.3641091e-01
  7.1697819e-01
  5.6605763e-04
  4.1278444e-02
  6.1139423e-01
 -4.0751839e-01
  6.8501097e-01
 -7.4166799e-01
 -4.1189206e-01
  2.3003473e+00
 -2.2099104e-03
  7.2482258e-01
  4.0864468e-01
 -2.9356834e-01
  2.7544668e-01
  2.5753078e-01
 -1.6514769e+00
 -1.1758243e+00
  1.7634512e-01
 -9.1189837e-01
  6.1563753e-02
  1.2399688e+00
  5.6059738e-03
  1.6294732e+00
  2.0949357e+00
 -4.6475390e-01
  5.7973868e-01
 -9.6244346e-03
  9.2597261e-02
 -1.5442099e-01
  6.0198893e-04
 -2.6745477e+00
 -1.0168854e-01
  9.7848382e-03
  5.5588752e-01
 -1.3218709e+00
  2.9391193e-01
  3.2428813e-01
 -7.8932237e-04
  5.0187892e-01
 -3.1895486e-01
  1.0900973e-01
  1.2787382e-01
  5.2810097e-01
 -6.9372708e-01
  1.5971971e-01
  3.6995000e-01
  1.6151795e-01
 -6.1255074e-01
  9.3326616e-01
 -9.6831888e-01
  1.3934739e-01
 -1.1497992e-04
 -5.5387922e-02
  6.1831730e-03
  2.2732370e-01
  1.8980179e+00
 -2.2471234e-01
 -3.1787568e-01
 -2.3034556e+00
  2.1639857e-02
 -5.7897568e-03
  1.9523652e+00
 -3.9608932e-01
  2.4313190e+00
 -4.8752705e-04
 -1.5521537e+00
  1.4937745e+00
  3.1263549e+00
  6.4137685e-01
  4.7153845e-01
  1.8440735e+00
  5.9280843e-01
  1.1292279e+00
 -8.1342274e-01
  3.6303017e-01
  4.4064969e-01
  8.0209213e-01
  4.8751444e-01
  3.7401956e-01
  2.8438401e-01
 -4.8951286e-01
 -5.1704210e-01
  1.3145125e-01
 -4.7500122e-01
 -5.0774425e-01
  8.2755767e-02
  2.4160066e-01
 -1.6657528e-01
  1.0704919e+00
 -1.6218141e-01
  2.5678688e-01
 -6.3327387e-02
  1.4683387e+00
  6.4740770e-02
  3.5742575e-01
  1.0332458e-01
  6.4366740e-01
 -5.2646285e-01
  2.3359172e-02
  2.3359172e-02
  2.3359172e-02
  2.3359172e-02
  2.3359172e-02
  1.0008992e-01
  1.0008992e-01
  1.0008992e-01
  1.0008992e-01
  1.0008992e-01
  7.6874912e-02
  7.6874912e-02
  7.6874912e-02
  7.6874912e-02
  7.6874912e-02
  3.3227548e-02
  3.3227548e-02
  3.3227548e-02
  3.3227548e-02
  3.3227548e-02
  1.5621931e-02
  1.5621931e-02
  1.5621931e-02
  1.5621931e-02
  1.5621931e-02
  5.3272113e-02
  5.3272113e-02
  5.3272113e-02
  5.3272113e-02
  5.3272113e-02
